418 128
NDE2 0.0331954 -0.00410465 0.00544069 0.170353 0.0366501 0.00131342 -0.0244586 0.0033803 0.141804 0.142605 0.0838133 0.117178 -0.116161 0.0222137 -0.216758 0.0953094 -0.0805222 -0.00300455 0.0593574 -0.0306604 -0.0230599 0.0912105 0.0514789 -0.00576385 -0.0659584 0.0798979 0.00153893 -0.0882348 0.202676 0.0694033 0.0969681 0.050668 0.117391 -0.192149 0.136427 0.00787405 0.108138 -0.0990239 0.068454 0.051962 0.0641011 0.0192804 -0.240903 -0.0616756 0.0242652 0.0718389 0.0551697 0.134347 -0.0578711 -0.00825586 -0.0980516 -0.111927 -0.197638 -0.204289 0.0294595 -0.174659 -0.0472582 0.00910284 0.0304526 0.0812963 -0.0972467 -0.105487 0.107263 -0.0296192 -0.138711 -0.0311658 0.0391111 -0.122582 0.069014 -0.145625 0.0954364 0.0811529 0.143535 0.118297 0.106869 -0.134612 0.0221919 0.0109366 0.020817 0.028908 0.152955 0.0719836 -0.0744277 0.152418 0.0426046 -0.0198907 0.0592856 -0.0690447 -0.0568103 0.0111472 0.0220836 -0.00691981 0.0928402 -0.0688439 0.163309 0.0741769 0.194433 0.00353111 -0.0520756 0.134157 -0.0841071 0.10594 -0.0704827 0.0570499 -0.0486103 -0.124809 0.0605248 0.183408 -0.00858814 0.118254 -0.060386 -0.0969163 -0.0681932 0.0711332 -0.0950202 0.053469 0.163396 0.00479935 0.0982245 0.0652555 0.0404585 -0.0890838 0.0154832 0.192762 0.122061 -0.0790528 -0.100924 -0.00783096 
YLR012C 0.0395183 -0.00604552 0.00724356 0.18246 0.0379664 -0.00417695 -0.0330683 0.00324715 0.144806 0.131071 0.0925057 0.103155 -0.128606 0.0233938 -0.223277 0.103184 -0.0775682 -0.000401541 0.0603378 -0.0271022 -0.0205866 0.0878132 0.0378501 0.00355472 -0.0624818 0.0966431 0.00335847 -0.0921748 0.201088 0.0773578 0.107072 0.0467066 0.124566 -0.19288 0.154787 0.0108816 0.115308 -0.0933394 0.0603428 0.0504439 0.0562596 0.00493912 -0.239122 -0.0532458 0.0284027 0.0706181 0.056118 0.147027 -0.0573003 -0.00409604 -0.103021 -0.11255 -0.194401 -0.20212 0.0284194 -0.158547 -0.0485887 0.00403666 0.0287988 0.0894743 -0.101136 -0.105219 0.103715 -0.035434 -0.132328 -0.025375 0.0464193 -0.125846 0.0678192 -0.150228 0.085804 0.0741005 0.151932 0.11156 0.107102 -0.130336 0.0144631 -0.00176538 0.0237713 0.03549 0.166107 0.0766091 -0.0861686 0.15844 0.0375948 -0.0176564 0.056254 -0.0681956 -0.0496859 0.0136284 0.0176297 -0.00467456 0.0963935 -0.0624705 0.149841 0.0730776 0.193326 0.00459289 -0.047624 0.12208 -0.0851825 0.109735 -0.0755947 0.0669106 -0.0593608 -0.131325 0.055363 0.185532 -0.0165174 0.123998 -0.0500658 -0.104281 -0.07483 0.068228 -0.101823 0.0546973 0.172789 0.0146443 0.101517 0.0816254 0.0676783 -0.101453 0.0236921 0.199107 0.129215 -0.0812936 -0.102178 0.0014483 
CRZ1 0.0659708 -0.0178733 -0.00862104 0.184122 0.0583677 -0.00749056 -0.0717277 0.0499707 0.119809 0.167599 0.106359 0.0999629 -0.104801 -0.0450208 -0.137381 0.0865188 -0.0577493 0.0997316 0.133494 -0.000661917 0.059373 0.0910949 0.0668879 -0.0294544 0.00388894 0.188036 -0.0492512 0.00477136 0.197711 0.0271992 0.0444055 0.113674 0.0881339 -0.135827 0.08243 -0.0015496 0.145126 -0.102067 0.0428816 0.00573059 0.0899854 0.00342274 -0.156408 -0.00422914 0.0244456 0.0840322 0.0950279 0.188427 -0.0545647 0.069057 -0.137492 -0.132828 -0.14088 -0.23356 0.0804589 -0.14101 -0.0711278 -0.0792945 0.0724503 0.0581686 -0.164825 -0.0751726 0.214288 -0.130982 -0.0488351 -0.126926 0.030458 -0.219451 0.0521162 -0.162553 0.0271232 0.132071 0.0760258 0.0351586 0.0547445 -0.182456 -0.097567 0.0196979 -0.00393584 -0.00776282 0.20554 0.00976334 -0.0592555 0.118258 0.0140762 0.0121682 0.00247622 -0.042405 0.10016 -0.0599963 0.0752618 -0.00654899 0.195479 -0.0475789 0.172844 0.027085 0.210541 -0.0052725 -0.00540722 0.0948951 -0.0721594 0.212085 -0.0408004 0.00656244 -0.122413 -0.134624 0.0875829 0.236149 -0.0436107 0.0534804 0.0236798 -0.166777 -0.172881 -0.00130098 -0.159726 0.0504442 0.189919 -0.0558332 0.13591 0.128312 0.065964 -0.128416 0.0274369 0.197628 0.152561 -0.130003 -0.0856218 -0.0318178 
PRB1 0.0339661 -0.0860585 -0.0161369 0.213003 0.0274859 -0.0525552 0.0391221 -0.0744725 0.12492 0.233648 0.0204936 0.173177 -0.14116 0.0963803 -0.377379 0.0753649 -0.131939 -0.0900028 0.0128588 -0.0368514 -0.0145471 0.110425 0.151093 -0.0995801 -0.206563 -0.0354377 -0.05582 -0.157439 0.256425 0.0662606 0.191586 0.0872726 0.165983 -0.247377 0.132113 0.0236458 0.0313021 -0.162037 0.158109 0.0455575 0.0519273 0.043618 -0.315778 -0.0990956 0.0555124 0.090551 0.0438072 0.0289476 -0.091611 -0.108975 0.00377683 -0.145582 -0.295417 -0.24261 -0.00301942 -0.309787 -0.0266909 0.105176 0.0144613 -0.0251635 -0.0311647 -0.144078 0.0593299 0.0294099 -0.231168 0.00423233 0.0676809 -0.0955145 0.14111 -0.165226 0.230514 0.0899685 0.163587 0.218304 0.223109 -0.185995 0.0815777 0.0859981 -0.0555561 -0.00328075 0.177046 0.0414767 -0.0863934 0.216318 0.108225 -0.0333209 0.0973195 -0.0666864 -0.161027 0.0566755 -0.018179 0.00471437 0.0166817 -0.0861079 0.209367 0.193307 0.224574 -0.0735654 -0.140483 0.19132 -0.116642 0.028084 -0.0842822 0.110451 -0.0371749 -0.117924 0.071495 0.163631 0.065642 0.187753 -0.137649 -0.0327779 -0.0146267 0.170204 -0.0235265 0.113398 0.176608 -0.0118911 0.0888816 0.0398902 -0.0213074 -0.0333672 0.00695751 0.144248 0.129071 -0.0537623 -0.129462 -0.0133983 
ENO1 0.052204 -0.0607323 -0.00205621 0.249221 0.0231581 -0.0639422 0.0175637 -0.060339 0.16948 0.146376 0.0600626 0.105835 -0.157158 0.0909807 -0.406205 0.113996 -0.122407 -0.113363 -0.00981663 -0.0342312 -0.0387347 0.095346 0.0682767 -0.0407902 -0.20155 -0.0183058 -0.00957981 -0.206069 0.249946 0.124023 0.220087 0.0306756 0.201206 -0.274359 0.206056 0.0136906 0.0555932 -0.129727 0.129336 0.0498414 0.0266416 -0.00184633 -0.343918 -0.0817606 0.0438238 0.0819704 0.0248577 0.0571132 -0.0940208 -0.0998091 -0.0228994 -0.121083 -0.300118 -0.198575 -0.0388316 -0.248199 -0.0288022 0.104811 -0.00299286 0.0436822 -0.0284356 -0.169684 0.0210149 0.0345339 -0.247198 0.0753303 0.0773907 -0.0580259 0.162481 -0.171548 0.173738 0.0367387 0.19133 0.223201 0.232501 -0.14524 0.0982818 0.0392663 -0.0147595 0.0606372 0.155727 0.0851185 -0.110868 0.243949 0.0896003 -0.0325166 0.0997943 -0.0808171 -0.181604 0.0874344 -0.0302658 0.0156446 -0.010165 -0.0440529 0.149155 0.169543 0.205686 -0.0405648 -0.150532 0.148043 -0.109953 0.0062067 -0.0987723 0.162532 -0.0353704 -0.118697 0.0291003 0.162591 0.0539032 0.204238 -0.127413 -0.0850187 0.000358846 0.156414 -0.0407755 0.0852853 0.201883 0.067737 0.0559952 0.0864221 0.0765179 -0.0648976 0.0541666 0.180767 0.132719 -0.0501813 -0.137318 0.0234662 
RGT1 0.0636503 0.0242438 0.0373419 0.246905 0.046771 -0.0335026 -0.035534 0.00783797 0.222264 0.0366957 0.126022 0.0179125 -0.167229 0.0240903 -0.313801 0.156381 -0.0752625 -0.0283218 0.0199549 -0.0242249 -0.0409144 0.0947228 -0.0717958 0.0831445 -0.0826479 0.138505 0.0739745 -0.202391 0.217007 0.173397 0.178775 -0.0180843 0.170875 -0.267744 0.272453 0.0166917 0.144476 -0.0676285 0.027564 0.0536739 0.0272027 -0.062351 -0.303292 -0.0500051 0.0227296 0.0697207 0.0319221 0.174506 -0.0775022 -0.00622292 -0.141246 -0.0787723 -0.222715 -0.134532 -0.00754304 -0.104753 -0.0380834 0.00832588 0.00854776 0.171217 -0.08838 -0.160847 0.0496887 -0.0285983 -0.171305 0.0811188 0.0707423 -0.0748111 0.087215 -0.189503 0.0404598 0.00501332 0.192363 0.147465 0.144108 -0.0840645 0.052001 -0.0596506 0.0920696 0.124685 0.150406 0.147032 -0.124619 0.217827 0.011033 0.000212957 0.0702787 -0.0908654 -0.116088 0.0833797 -0.0178375 0.0228785 0.0417226 -0.0227415 0.0620528 0.0643111 0.192031 0.0548983 -0.0718077 0.0751945 -0.0704342 0.0798336 -0.0871064 0.147405 -0.0548456 -0.142371 0.00634633 0.175885 -0.0307229 0.164011 -0.0651931 -0.175907 -0.0321482 0.0677464 -0.145694 0.0369834 0.231392 0.144157 0.0551711 0.145214 0.193589 -0.163485 0.0932147 0.242728 0.114022 -0.0758908 -0.11036 0.0340755 
TIR1 0.051347 -0.0320604 0.00823915 0.239878 0.0325314 -0.0490756 0.00176203 -0.0321263 0.183644 0.107128 0.0756203 0.0663513 -0.158299 0.0574762 -0.357809 0.127666 -0.0978582 -0.0666217 0.00371577 -0.0318505 -0.029993 0.0901375 0.0200164 0.0105485 -0.149556 0.0490218 0.0196715 -0.201918 0.227866 0.136626 0.203036 0.0169601 0.183133 -0.268585 0.233043 0.017314 0.0930959 -0.102344 0.0921078 0.0581633 0.0233091 -0.0257764 -0.312841 -0.0652681 0.0361475 0.0800402 0.0256172 0.103328 -0.0839992 -0.0581603 -0.0699722 -0.102811 -0.267008 -0.166856 -0.0150375 -0.189084 -0.0308795 0.0587719 0.00336599 0.0883913 -0.057594 -0.154803 0.0390082 0.00587372 -0.204797 0.0692138 0.071052 -0.0676682 0.129606 -0.177469 0.113492 0.0345888 0.184943 0.180054 0.194034 -0.123081 0.0739818 -0.0043453 0.0308132 0.0831915 0.155072 0.108458 -0.114784 0.232123 0.0526914 -0.0151921 0.0869093 -0.0798831 -0.143116 0.0826588 -0.0223179 0.0188534 0.0177149 -0.0398632 0.110613 0.130589 0.195479 -0.0030287 -0.112858 0.113211 -0.0899617 0.0393077 -0.0846848 0.145831 -0.0441035 -0.126426 0.0241912 0.164927 0.00880742 0.179926 -0.0913915 -0.114663 -0.0172007 0.119675 -0.0851443 0.0672963 0.212731 0.0923516 0.0562697 0.116127 0.122991 -0.104389 0.0669459 0.203849 0.12454 -0.0630628 -0.121421 0.0207142 
CPR6 0.0619676 -0.00795009 0.031933 0.249259 0.028333 -0.0441644 -0.0103827 -0.0307118 0.205157 0.0756636 0.0978518 0.0505052 -0.157628 0.0508613 -0.367949 0.139675 -0.0974475 -0.0822682 -0.0127284 -0.0348334 -0.0422352 0.0803395 -0.027515 0.0340441 -0.125959 0.0698219 0.0510235 -0.216059 0.231482 0.164343 0.210751 -0.00697508 0.197387 -0.284648 0.257214 0.0142147 0.119023 -0.0897546 0.0710302 0.0603091 0.0173099 -0.0327664 -0.326697 -0.0663608 0.0267472 0.0771601 0.0115035 0.130492 -0.0785728 -0.0544517 -0.0938538 -0.0942636 -0.261821 -0.155632 -0.0251514 -0.152965 -0.0326983 0.0530362 0.00415016 0.145184 -0.0610662 -0.153645 0.0308338 0.0148135 -0.210324 0.100693 0.0702709 -0.0547051 0.133665 -0.182371 0.0869401 0.011231 0.19696 0.180319 0.182825 -0.0986241 0.0853891 -0.018779 0.0485041 0.11477 0.152153 0.124083 -0.113787 0.226848 0.0435746 -0.0186837 0.0840142 -0.0941731 -0.165875 0.0867879 -0.034221 0.0202103 0.0143341 -0.0245575 0.092584 0.10667 0.19312 0.0136641 -0.119997 0.0979025 -0.0892647 0.0430028 -0.103065 0.162563 -0.0427284 -0.133674 0.0018571 0.168864 0.00896409 0.189138 -0.0873916 -0.141191 -0.0122576 0.102079 -0.0901241 0.050606 0.214657 0.126767 0.0460002 0.124518 0.17297 -0.124289 0.0910514 0.229022 0.129965 -0.0531135 -0.121898 0.0386506 
YHB1 0.0683505 -0.00203314 0.0381349 0.26222 0.0319011 -0.0418101 -0.0211711 -0.0206686 0.225471 0.0483616 0.1149 0.0325805 -0.170498 0.0540444 -0.366967 0.151272 -0.0952351 -0.073786 -0.00489175 -0.0368871 -0.0439891 0.0882449 -0.0498847 0.0578469 -0.118552 0.0881732 0.064558 -0.227409 0.237002 0.178095 0.20906 -0.0236814 0.198234 -0.284278 0.277429 0.0170057 0.134233 -0.0821625 0.0598636 0.0657179 0.0189366 -0.0487003 -0.333015 -0.056677 0.0198521 0.0732374 0.0200173 0.1509 -0.0768316 -0.0474811 -0.115831 -0.0871475 -0.262448 -0.146554 -0.0246835 -0.134258 -0.0350228 0.0477218 -0.00145053 0.160456 -0.0665144 -0.166691 0.0260638 0.00536754 -0.211297 0.105611 0.0716257 -0.0523233 0.13459 -0.191141 0.0702218 -0.00303352 0.213032 0.176892 0.178021 -0.0873715 0.0894621 -0.0350258 0.0607739 0.126402 0.149942 0.143369 -0.117308 0.233617 0.0291051 -0.016501 0.0807203 -0.0903121 -0.155754 0.0930598 -0.029855 0.0239696 0.017358 -0.0259548 0.0835643 0.0959946 0.191984 0.0338949 -0.112738 0.0927442 -0.0883729 0.0498998 -0.101981 0.173752 -0.0486867 -0.136958 0.0014834 0.17431 -0.00763903 0.187742 -0.0841312 -0.156014 -0.0138798 0.0940644 -0.110673 0.0466756 0.227498 0.145346 0.0485421 0.141247 0.200751 -0.136895 0.0891139 0.23675 0.123964 -0.0543863 -0.131577 0.0489858 
YLR053C 0.0710072 0.0316645 0.0587832 0.251104 0.0481509 -0.0256021 -0.0452029 0.0230963 0.239139 0.0106205 0.142502 0.00312437 -0.15593 0.0113804 -0.299325 0.171271 -0.0711886 -0.0221472 0.0149703 -0.0298006 -0.0425742 0.0870892 -0.102871 0.11505 -0.0515279 0.167838 0.107056 -0.219398 0.216827 0.189768 0.173683 -0.033074 0.181557 -0.272109 0.294349 0.0128418 0.17418 -0.0579125 0.0100212 0.0659241 0.0211989 -0.0724176 -0.303539 -0.0526841 0.00984209 0.0664768 0.0174506 0.200072 -0.0735227 0.00618937 -0.171766 -0.0672246 -0.203684 -0.128912 -0.00163009 -0.0686562 -0.0377914 -0.00517096 0.00738003 0.218702 -0.0918154 -0.14878 0.0523451 -0.0396631 -0.167379 0.088372 0.0697274 -0.0776816 0.0854121 -0.186545 0.010237 -0.00208103 0.190783 0.131461 0.131723 -0.0604709 0.0484353 -0.0901515 0.112571 0.145 0.149733 0.16388 -0.127199 0.214175 0.00485114 0.00521997 0.0635168 -0.100726 -0.108263 0.0837017 -0.0156483 0.0195897 0.0551257 -0.0239923 0.0538765 0.0451578 0.180262 0.0828581 -0.0638809 0.0639601 -0.0756063 0.0855988 -0.0841562 0.146958 -0.0540358 -0.145515 -0.0139008 0.180719 -0.0451541 0.16257 -0.0515226 -0.200311 -0.038613 0.0461257 -0.166909 0.0197438 0.242009 0.164376 0.0567428 0.161641 0.229461 -0.184522 0.102692 0.26542 0.124452 -0.0627122 -0.109094 0.0447704 
YMR244W 0.0800845 0.0434491 0.0487857 0.262716 0.0441247 -0.0291147 -0.0563044 0.0144593 0.244131 -0.0029868 0.147704 -0.0273328 -0.167285 0.00930512 -0.304395 0.173322 -0.0632459 -0.0299125 0.0128201 -0.0304497 -0.0409881 0.0801573 -0.11257 0.124202 -0.0438941 0.175891 0.102635 -0.21372 0.217542 0.201003 0.188783 -0.0396285 0.183281 -0.2748 0.3049 0.0151226 0.176313 -0.0384613 0.00834864 0.0603451 0.0172544 -0.0853065 -0.30186 -0.0329656 0.0159103 0.0719839 0.0198186 0.206634 -0.0685795 0.0144487 -0.177998 -0.061201 -0.222494 -0.112537 -0.00725708 -0.0483753 -0.0509435 -0.0193247 0.00699289 0.230941 -0.102985 -0.159566 0.0494337 -0.0290473 -0.165792 0.100438 0.0617123 -0.0691705 0.0990743 -0.189929 -0.0101266 -0.00419202 0.203246 0.133255 0.120769 -0.0621622 0.0482672 -0.0853468 0.111833 0.162204 0.147042 0.166231 -0.129946 0.222692 -0.00976233 0.00553709 0.0539204 -0.0973984 -0.104956 0.0867183 -0.0146785 0.0273562 0.0545922 -0.00287187 0.0332154 0.0283574 0.183634 0.0789417 -0.0745115 0.0381573 -0.0609925 0.0939144 -0.0964762 0.170522 -0.0620753 -0.144503 -0.00976258 0.179418 -0.0577156 0.157293 -0.0401716 -0.203915 -0.0425884 0.0429535 -0.171042 0.0203063 0.244107 0.174981 0.0433066 0.174248 0.261391 -0.186802 0.118902 0.280158 0.124973 -0.0758393 -0.112063 0.0561639 
trehalose 0.0779645 0.0710273 0.0495062 0.226101 0.0516874 0.0053677 -0.101708 0.0701337 0.222914 0.00686031 0.167828 -0.00821556 -0.142054 -0.0424877 -0.172077 0.159536 -0.037905 0.0735318 0.0833368 -0.0170402 -0.00676094 0.0814273 -0.113391 0.134925 0.0435874 0.254978 0.0949926 -0.109358 0.187909 0.151127 0.0923682 -0.0100924 0.125482 -0.208133 0.239611 0.00350897 0.211956 -0.0323186 -0.0249159 0.0488978 0.0471962 -0.0774872 -0.220383 -0.00153423 0.00223544 0.0663224 0.0557875 0.262196 -0.0501392 0.0879705 -0.228924 -0.0680305 -0.145588 -0.130479 0.0402891 -0.000748891 -0.0615755 -0.0977315 0.0371074 0.23779 -0.166009 -0.111213 0.126566 -0.108599 -0.0718864 -0.00102868 0.0398931 -0.139088 0.0390306 -0.173991 -0.0688231 0.0447624 0.160204 0.0433714 0.0379838 -0.0681143 -0.0381299 -0.104681 0.124814 0.121772 0.161454 0.131679 -0.100518 0.155926 -0.0430424 0.0229622 0.0184778 -0.0866936 0.0194013 0.0227446 0.0348815 0.00697542 0.14807 -0.0138322 0.0565708 -0.0337298 0.179798 0.106049 0.00298401 0.0275278 -0.052804 0.18332 -0.0647281 0.0770829 -0.09255 -0.15201 0.0195537 0.220168 -0.0964491 0.0881968 0.0203747 -0.235766 -0.110748 -0.0327517 -0.224467 0.00410365 0.233674 0.112612 0.0823373 0.182797 0.231906 -0.219996 0.0917397 0.289052 0.136319 -0.111993 -0.0908495 0.0237899 
serine 0.0718311 0.0586484 0.0508837 0.230278 0.04866 0.000811039 -0.0820819 0.056422 0.217976 0.00360077 0.164388 0.00320922 -0.141528 -0.0295943 -0.201467 0.166289 -0.0472296 0.0406103 0.0647961 -0.0137629 -0.0227026 0.0771131 -0.107815 0.117444 0.0247211 0.225413 0.0860872 -0.124718 0.200277 0.150973 0.113475 -0.0110011 0.134781 -0.21939 0.247127 0.00907832 0.196728 -0.0440794 -0.0144816 0.051225 0.0403949 -0.0709286 -0.239645 -0.0155785 6.24422e-05 0.0699348 0.0521417 0.245341 -0.0544322 0.0643096 -0.204991 -0.0730841 -0.160642 -0.141155 0.026471 -0.0233894 -0.0558972 -0.0735597 0.0275184 0.232178 -0.147573 -0.121562 0.116026 -0.0842459 -0.0982114 0.0235791 0.0466386 -0.125278 0.0548715 -0.176448 -0.0507045 0.0257014 0.16624 0.069009 0.0613972 -0.071082 -0.0147367 -0.0892692 0.111797 0.124601 0.158242 0.140918 -0.108522 0.161009 -0.0301177 0.0163151 0.0354947 -0.0844915 -0.0165695 0.0343883 0.0209022 0.00989521 0.118068 -0.0122405 0.0684956 -0.0134113 0.180119 0.0882805 -0.0207028 0.0411061 -0.0584852 0.15954 -0.0673896 0.0981102 -0.0822114 -0.146105 0.0136226 0.21298 -0.0731903 0.112139 0.00429569 -0.220154 -0.0889943 -0.0115725 -0.195578 0.00441752 0.225491 0.11888 0.080141 0.166585 0.234994 -0.201146 0.0854429 0.27313 0.13273 -0.0969822 -0.0909395 0.0332166 
PUG1 0.0940906 0.0524222 0.0312647 0.20125 0.0661879 0.00209225 -0.136914 0.112159 0.175681 0.0699227 0.180257 0.0253656 -0.117504 -0.0980168 -0.0687982 0.132517 -0.0213615 0.165321 0.165289 0.0128998 0.0549607 0.100905 -0.0563037 0.0561136 0.0959861 0.306879 0.0228043 0.0275267 0.189874 0.070916 0.0213824 0.0708204 0.0688942 -0.121418 0.137576 -0.0100014 0.217553 -0.0653423 -0.033177 0.00664808 0.0887672 -0.0515238 -0.140029 0.0376808 0.0059307 0.0599072 0.113034 0.27266 -0.0505422 0.15304 -0.227432 -0.0914226 -0.0963237 -0.189667 0.0947816 -0.036462 -0.0769095 -0.160154 0.0633095 0.152436 -0.22389 -0.0658847 0.248075 -0.191049 -0.00359967 -0.118984 0.03171 -0.239437 0.02641 -0.179906 -0.0954633 0.108152 0.0783962 -0.0245003 -0.0106667 -0.149654 -0.134038 -0.060703 0.0589756 0.0410466 0.194251 0.0613354 -0.0723037 0.0905548 -0.039674 0.0389566 -0.0304212 -0.04198 0.163751 -0.0694414 0.0861722 -0.0108582 0.235922 -0.0172014 0.122502 -0.0538718 0.197326 0.0697881 0.0439243 0.029237 -0.0464683 0.279403 -0.0278961 0.00774621 -0.155838 -0.134031 0.0628087 0.267417 -0.0939328 0.0186592 0.0825242 -0.253304 -0.210841 -0.0814386 -0.245088 0.00463639 0.220049 -0.00351253 0.131419 0.182939 0.164559 -0.213416 0.0497467 0.243161 0.15984 -0.156986 -0.0788644 -0.0155596 
YPR195C 0.0737077 0.0446284 0.0212157 0.180205 0.0607698 0.0166116 -0.110059 0.087971 0.160305 0.102232 0.155137 0.0559553 -0.109112 -0.0827976 -0.073031 0.116674 -0.0360853 0.150113 0.15107 -0.000736953 0.045034 0.0932076 -0.0167565 0.0555923 0.0747478 0.27764 0.00879616 0.021959 0.184077 0.0579827 0.0145808 0.0793001 0.0676551 -0.129406 0.124671 -0.00775355 0.203031 -0.0669869 -0.0178924 0.0150084 0.0937197 -0.0204385 -0.144485 0.0104192 0.00824097 0.0694968 0.105466 0.264419 -0.0437217 0.124699 -0.206835 -0.111833 -0.102611 -0.208574 0.0949502 -0.0568055 -0.0812754 -0.141594 0.0724885 0.151654 -0.203515 -0.0610444 0.221904 -0.163476 -0.0120113 -0.126051 0.0270237 -0.229244 0.016434 -0.169358 -0.0507799 0.128483 0.0851813 -0.00995731 -0.00745339 -0.142818 -0.12134 -0.0409296 0.0557921 0.0283438 0.197033 0.05658 -0.0663587 0.0956414 -0.0310864 0.0283808 -0.0118207 -0.0569903 0.140116 -0.0731642 0.0858705 -0.0153421 0.228387 -0.0399127 0.139944 -0.0383259 0.205285 0.0590371 0.0410753 0.0638631 -0.05179 0.256713 -0.0475593 -0.00973146 -0.136188 -0.150321 0.0805205 0.259195 -0.0894788 0.0257562 0.0650477 -0.20794 -0.184651 -0.0532357 -0.223112 0.0162759 0.19687 -0.0189109 0.132252 0.145539 0.129844 -0.188013 0.0350417 0.242307 0.146543 -0.140354 -0.0806991 -0.0258269 
SPS100 0.0810396 0.0427919 0.00694182 0.181464 0.0632617 0.0169236 -0.135963 0.108792 0.154474 0.0991056 0.174465 0.0568491 -0.106727 -0.100784 -0.0450522 0.119993 -0.0246055 0.181545 0.183779 -0.00688922 0.0575083 0.0951675 -0.0179189 0.0552087 0.102894 0.313894 -0.0126183 0.0482202 0.173595 0.0465728 -0.00581077 0.0969114 0.0699041 -0.102151 0.108619 -0.00505286 0.213235 -0.0549984 -0.0195287 0.0137163 0.108816 -0.0193556 -0.122046 0.0311726 0.00486719 0.0733572 0.121802 0.293908 -0.0383929 0.162765 -0.227339 -0.123972 -0.100455 -0.218409 0.110894 -0.0604064 -0.0919652 -0.169578 0.0868091 0.148048 -0.220561 -0.0617123 0.267726 -0.191769 0.00645555 -0.166631 0.0145957 -0.26189 0.00866852 -0.181589 -0.0804828 0.14226 0.0848207 -0.0375617 -0.0329661 -0.163511 -0.160056 -0.0455439 0.0563924 0.0214531 0.211912 0.0449056 -0.0685923 0.0937659 -0.0382897 0.0283763 -0.0213702 -0.0483414 0.192735 -0.0882188 0.108094 -0.0171447 0.266148 -0.031897 0.147162 -0.0585095 0.212628 0.0582256 0.0591166 0.0475671 -0.0457936 0.294344 -0.0328956 -0.0187546 -0.146348 -0.156904 0.087953 0.28388 -0.104998 -0.000397492 0.0997352 -0.235406 -0.232822 -0.0741068 -0.250078 0.00337462 0.207959 -0.0459487 0.155168 0.175108 0.13 -0.191763 0.0339887 0.258536 0.161366 -0.148108 -0.0738217 -0.0236103 
YPR015C 0.0658416 0.0198747 0.0165253 0.204981 0.0463327 -0.000980491 -0.0838655 0.054236 0.176463 0.0837942 0.143338 0.0484352 -0.135196 -0.0258492 -0.163713 0.125934 -0.0557306 0.0831763 0.109243 -0.00585384 0.0186735 0.0829217 -0.0166185 0.0464015 0.00788866 0.206747 0.020312 -0.047129 0.197849 0.0859089 0.0756241 0.0477867 0.102765 -0.166903 0.166596 0.00343531 0.16925 -0.0649656 0.0103613 0.0331032 0.0780789 -0.0344039 -0.185838 0.000435741 0.0148679 0.0743773 0.0766716 0.212719 -0.0625289 0.0671498 -0.170412 -0.106596 -0.147949 -0.17567 0.0511103 -0.0908878 -0.0699689 -0.0729654 0.0466365 0.130488 -0.158145 -0.0999023 0.16044 -0.110556 -0.0731379 -0.059091 0.0365146 -0.172023 0.0493381 -0.169586 -0.00449573 0.0819874 0.122702 0.0487467 0.061143 -0.124936 -0.0602114 -0.0406476 0.0561834 0.0444206 0.178667 0.0790951 -0.0849398 0.143697 -0.00193809 0.0148992 0.0267501 -0.064577 0.0503721 -0.0198719 0.0488903 -0.000529336 0.1557 -0.0324984 0.12014 0.00764379 0.190606 0.0406389 -0.0106978 0.0625313 -0.0635148 0.18069 -0.0640162 0.0487838 -0.105009 -0.143535 0.0530414 0.223022 -0.0630032 0.067817 0.016649 -0.189189 -0.147576 -0.000622576 -0.181416 0.0287543 0.200224 0.0137954 0.10568 0.14665 0.14239 -0.161478 0.0417964 0.227034 0.133076 -0.113978 -0.0911277 0.00214201 
SPR28 0.07364 0.0438308 0.041679 0.258217 0.0411108 -0.0326376 -0.0647862 0.0261896 0.239655 -0.0106187 0.155856 -0.0225198 -0.169272 -0.00231694 -0.284371 0.175884 -0.0607987 -0.0170528 0.0282274 -0.0376417 -0.0382579 0.0870038 -0.12017 0.124123 -0.0294855 0.192242 0.0976621 -0.194356 0.200857 0.195874 0.173752 -0.0307708 0.182652 -0.260153 0.297303 0.0206673 0.174487 -0.0326093 -0.00386097 0.0627545 0.0280022 -0.0798144 -0.297366 -0.0270878 0.0055318 0.0711153 0.0214287 0.217361 -0.072799 0.0331648 -0.184718 -0.0568178 -0.213729 -0.115504 0.00323769 -0.0509755 -0.0419557 -0.027927 0.00880736 0.230321 -0.106488 -0.156268 0.0681376 -0.0410002 -0.160536 0.0867517 0.0595074 -0.0767038 0.0892326 -0.195578 -0.0201027 -0.0104838 0.199439 0.111716 0.112561 -0.0627324 0.0337138 -0.0894892 0.11495 0.157344 0.145651 0.172682 -0.132314 0.210132 -0.0163329 0.00896619 0.0549404 -0.0972146 -0.0898818 0.0775071 -0.00100624 0.0225498 0.0629632 0.00189169 0.0382453 0.0210822 0.178526 0.0798887 -0.0636387 0.0334872 -0.055028 0.102439 -0.081411 0.160835 -0.0671411 -0.146321 -0.012459 0.187241 -0.0626204 0.148693 -0.021403 -0.218267 -0.0586991 0.0242919 -0.180073 0.00656479 0.243788 0.166125 0.0500912 0.183725 0.25467 -0.181371 0.116397 0.269956 0.119657 -0.0665851 -0.100117 0.0567808 
IRC4 0.0843165 0.036656 0.0417645 0.263398 0.0417616 -0.042735 -0.065411 0.0213099 0.245681 -0.00707683 0.145063 -0.012896 -0.172109 0.00986058 -0.323962 0.182725 -0.0603815 -0.0336962 0.0132451 -0.0310026 -0.0455952 0.0929132 -0.116256 0.109962 -0.0559475 0.154027 0.09472 -0.213756 0.220038 0.196524 0.196217 -0.0382452 0.193688 -0.269883 0.303216 0.0174497 0.158626 -0.051894 0.0191001 0.0651592 0.0214806 -0.0828797 -0.308697 -0.029985 0.016662 0.0591175 0.0286525 0.192993 -0.0778468 0.0144361 -0.170086 -0.0628474 -0.238133 -0.11643 -0.0156832 -0.0721924 -0.0382922 -0.00584624 -0.00581734 0.207799 -0.106407 -0.171653 0.0558498 -0.0316229 -0.184847 0.0978943 0.074529 -0.0653106 0.108172 -0.195496 -0.00298963 -0.0137168 0.20714 0.135886 0.135116 -0.0736486 0.0518022 -0.0882349 0.0989959 0.157569 0.145869 0.174463 -0.14135 0.22988 0.00193089 0.00734675 0.0615278 -0.0963514 -0.11173 0.097197 -0.0127086 0.0267039 0.0466881 0.00467487 0.0458778 0.0507653 0.18554 0.076517 -0.0852523 0.0429065 -0.0577393 0.0859053 -0.0844966 0.176137 -0.0569549 -0.137938 -0.0180702 0.183493 -0.0403981 0.159399 -0.0401953 -0.202884 -0.0463764 0.0465917 -0.158711 0.0171973 0.248229 0.168529 0.044184 0.177435 0.247565 -0.178459 0.104692 0.264459 0.122281 -0.0673142 -0.112764 0.0582681 
GSM1 0.0920894 0.0766603 0.0438546 0.236338 0.0555042 -0.00785645 -0.113441 0.0892117 0.23535 -0.0281668 0.186828 -0.0462394 -0.15105 -0.0591885 -0.181508 0.17572 -0.0259062 0.0784866 0.089731 -0.0196535 -0.00096483 0.0848598 -0.138616 0.151755 0.0577997 0.281668 0.0999777 -0.117042 0.18274 0.163505 0.104694 -0.00699168 0.134886 -0.206388 0.267817 0.00896172 0.21984 -0.0128332 -0.0442539 0.041642 0.0465841 -0.0898844 -0.223673 0.00485426 -0.000548667 0.0637912 0.0604599 0.278387 -0.0607337 0.111069 -0.239704 -0.0591132 -0.146799 -0.111801 0.0463879 0.00988984 -0.0652124 -0.108578 0.0372325 0.242834 -0.170618 -0.128464 0.143312 -0.123084 -0.0792882 0.00733466 0.0495377 -0.134646 0.0407253 -0.19377 -0.0981186 0.0293624 0.157767 0.0368668 0.0326768 -0.0752836 -0.0393794 -0.121308 0.132619 0.136672 0.156176 0.151834 -0.12085 0.170965 -0.0479317 0.0274031 0.014632 -0.08014 0.033395 0.0328525 0.0373505 0.00996992 0.14052 -0.00198218 0.038666 -0.0432932 0.173541 0.115169 0.00887111 0.00286884 -0.0447904 0.18513 -0.0574869 0.102304 -0.104703 -0.155885 0.00917467 0.21938 -0.105974 0.0813359 0.0412728 -0.261062 -0.129505 -0.0411035 -0.241132 -0.0098817 0.244172 0.130724 0.0750046 0.205097 0.263714 -0.222223 0.105211 0.289655 0.123756 -0.108969 -0.0830391 0.0362431 
HMS2 0.0378926 -0.0122006 -0.000325362 0.162334 0.0374299 0.00392274 -0.0351778 0.0163149 0.129663 0.157965 0.0894714 0.129362 -0.110529 0.00787751 -0.173855 0.0864631 -0.0755585 0.0384978 0.0879865 -0.0228787 -0.00264757 0.0842436 0.0691971 -0.0112683 -0.0461723 0.118016 -0.0197966 -0.0454573 0.197518 0.042248 0.0643132 0.0731276 0.0987097 -0.161589 0.116163 0.000223666 0.114109 -0.0973184 0.0603615 0.0490446 0.0809272 0.0264069 -0.207319 -0.0454902 0.0285911 0.0778688 0.0774562 0.159294 -0.05104 0.0202033 -0.106988 -0.131291 -0.175829 -0.224678 0.0512492 -0.176156 -0.0629894 -0.0147379 0.0475244 0.0642435 -0.121721 -0.0909903 0.138627 -0.0641964 -0.105308 -0.0854875 0.0325322 -0.16955 0.0468196 -0.152755 0.0819363 0.114111 0.131553 0.0898065 0.0804829 -0.151814 -0.0249134 0.010471 0.0146594 0.00589251 0.175214 0.0513459 -0.0703108 0.140383 0.0348978 -0.0132866 0.0481434 -0.0619583 0.00529812 -0.0140439 0.0369848 -0.0130463 0.133033 -0.0690742 0.180508 0.0549726 0.200869 -0.00198217 -0.025024 0.136909 -0.0799619 0.143951 -0.0639917 0.0251674 -0.0655179 -0.13492 0.0829276 0.209983 -0.0247845 0.0923655 -0.0398335 -0.107726 -0.099257 0.0521143 -0.113707 0.0599011 0.162629 -0.0416908 0.126607 0.0748402 0.0273013 -0.103604 0.00864588 0.195291 0.133715 -0.0945863 -0.089446 -0.0208887 
SPL2 0.016744 -0.0903687 -0.0427875 0.151348 0.0393453 -0.0184115 0.0180562 -0.0585178 0.0667508 0.295603 0.0205188 0.235934 -0.116046 0.0504867 -0.26308 0.0362529 -0.109809 -0.0107789 0.0851158 -0.0326866 0.0220139 0.110934 0.218472 -0.138849 -0.158068 -0.00318693 -0.12383 -0.0277453 0.23456 -0.0166355 0.1009 0.156227 0.111452 -0.160119 0.0424324 0.0115308 0.0309525 -0.169107 0.16466 0.0445282 0.096455 0.100975 -0.231659 -0.0720874 0.0473916 0.0839175 0.0889619 0.0610015 -0.0751678 -0.0559715 0.00477328 -0.193471 -0.253788 -0.29988 0.0449958 -0.337412 -0.0492595 0.0576012 0.0390465 -0.0865923 -0.0801924 -0.0873411 0.15712 -0.0331808 -0.155045 -0.117105 0.0403091 -0.183157 0.0938318 -0.155675 0.213453 0.173324 0.12376 0.150414 0.159378 -0.245389 -0.00506916 0.117084 -0.0931938 -0.082806 0.197046 -0.0156722 -0.0578521 0.158234 0.109889 -0.0361874 0.0688148 -0.0449123 -0.0370842 -0.0313229 0.0354404 -0.0219789 0.110133 -0.0967006 0.270088 0.171171 0.243104 -0.100182 -0.0963651 0.209759 -0.0984854 0.108526 -0.0718795 0.0198315 -0.0658134 -0.11833 0.127291 0.20476 0.0469619 0.120752 -0.0864649 -0.021887 -0.0929672 0.141062 -0.0275367 0.122035 0.136002 -0.144767 0.138748 0.02423 -0.108142 -0.0168807 -0.0390374 0.133048 0.146176 -0.0915462 -0.110788 -0.0518266 
CUP2 0.0663751 0.00696406 -0.00810082 0.193284 0.049079 -0.000144552 -0.0844752 0.0439931 0.150866 0.118093 0.129007 0.0726816 -0.120895 -0.0244926 -0.151091 0.10594 -0.0523762 0.0871292 0.121507 -0.00913024 0.033644 0.0909103 0.0320439 -0.00127562 0.00162687 0.18261 -0.0159138 -0.0156786 0.189882 0.057264 0.0635607 0.0857675 0.0951073 -0.142204 0.125183 -0.00101915 0.143273 -0.0820724 0.0354989 0.0289809 0.0844298 -0.0133865 -0.165234 0.00819573 0.0294258 0.0750149 0.0867521 0.201412 -0.049488 0.0717184 -0.149658 -0.121757 -0.162633 -0.202015 0.0586699 -0.115845 -0.0773524 -0.0768976 0.0509536 0.0888522 -0.160141 -0.083579 0.177582 -0.108058 -0.0676437 -0.10219 0.0316475 -0.196292 0.0541747 -0.160414 0.0165152 0.11395 0.112402 0.0524582 0.055896 -0.158475 -0.0688107 -0.00328033 0.0226388 0.0192065 0.186064 0.0401339 -0.0774606 0.128245 0.00585906 0.00575181 0.00904485 -0.0491021 0.0733247 -0.0357873 0.073664 -0.010309 0.16984 -0.0384401 0.148011 0.0204406 0.200209 0.0207511 -0.0026073 0.0699844 -0.058418 0.196528 -0.0550468 0.0264698 -0.116834 -0.137528 0.0805447 0.228851 -0.052277 0.0576319 0.0322157 -0.161534 -0.159687 0.00897556 -0.168661 0.0440425 0.19084 -0.0317323 0.118652 0.133745 0.0926227 -0.140679 0.0316788 0.211813 0.138744 -0.125695 -0.0899738 -0.00524858 
AMS1 0.0425831 -0.0583835 -0.00635039 0.221613 0.0240542 -0.047459 0.0179247 -0.0525306 0.150511 0.165756 0.0451774 0.132454 -0.15566 0.0905027 -0.382264 0.105432 -0.113848 -0.106623 0.00161735 -0.0383875 -0.043197 0.109856 0.0912369 -0.056127 -0.190247 -0.0262959 -0.0132731 -0.183942 0.249958 0.0944417 0.20072 0.0451697 0.173129 -0.253868 0.175986 0.0155564 0.0423237 -0.1338 0.141522 0.0597459 0.0379634 0.0132459 -0.330049 -0.0871794 0.0495523 0.0722593 0.0342417 0.0465641 -0.0861768 -0.0937675 -0.0227749 -0.117121 -0.291103 -0.213276 -0.0215566 -0.261734 -0.0248156 0.0971223 -0.00194199 0.0187103 -0.0392621 -0.162266 0.0355873 0.0350808 -0.247679 0.052575 0.0752331 -0.070402 0.145839 -0.164401 0.192989 0.0452651 0.184853 0.221529 0.217067 -0.153916 0.100376 0.0492462 -0.0207203 0.0384155 0.155451 0.0795295 -0.109866 0.230465 0.10032 -0.0342945 0.097511 -0.0711982 -0.178012 0.0841752 -0.0183007 0.00967071 -0.00313182 -0.0569862 0.171798 0.180239 0.207505 -0.045267 -0.140273 0.157548 -0.100566 0.0140109 -0.0848482 0.140378 -0.0267838 -0.122282 0.0483211 0.150854 0.0526994 0.193772 -0.136551 -0.0525492 -5.88475e-05 0.156631 -0.0245853 0.0962896 0.188799 0.0373127 0.0664082 0.0610307 0.0300489 -0.0501067 0.0283442 0.166536 0.120718 -0.0553007 -0.126506 0.00860727 
GSP2 0.0622638 -0.00415433 0.023655 0.243804 0.0282255 -0.0390164 -0.0148611 -0.0271528 0.199464 0.0732022 0.0991518 0.0591837 -0.158586 0.0539721 -0.358183 0.144678 -0.0947173 -0.0880828 -0.00388866 -0.0446668 -0.047323 0.0870804 -0.0225435 0.0416764 -0.125114 0.0607328 0.0447233 -0.212672 0.23444 0.151138 0.202868 -0.0041987 0.191125 -0.280343 0.256501 0.0201339 0.113702 -0.0882619 0.0764521 0.0681237 0.0212228 -0.0326771 -0.340644 -0.0735692 0.0229085 0.0713259 0.0172598 0.12446 -0.0800557 -0.0496575 -0.100923 -0.0916832 -0.268555 -0.165225 -0.0191466 -0.163563 -0.0341923 0.0598781 -0.00126703 0.135192 -0.0634739 -0.163442 0.0375656 0.0160105 -0.220475 0.086396 0.0750198 -0.0557639 0.122608 -0.183952 0.0991586 0.0125482 0.21076 0.182969 0.184918 -0.110142 0.087858 -0.0257297 0.0535265 0.109817 0.14784 0.128548 -0.119867 0.228188 0.0462538 -0.0187288 0.0887549 -0.0937006 -0.172515 0.0906571 -0.0283237 0.0163567 0.00732167 -0.0306372 0.103201 0.107472 0.188385 0.0155693 -0.110679 0.113389 -0.081071 0.0434504 -0.0977842 0.163199 -0.0363214 -0.140419 0.0130723 0.163121 0.00940026 0.189061 -0.0961346 -0.127051 -0.00697445 0.105095 -0.0937299 0.0549515 0.205607 0.117538 0.0563018 0.110663 0.149117 -0.118614 0.0667414 0.230753 0.121039 -0.0473703 -0.126039 0.0407099 
UFD1 0.0510056 -0.0510317 0.00753227 0.239524 0.0289108 -0.0522649 0.0247269 -0.0692794 0.162319 0.142905 0.0476544 0.108714 -0.159987 0.0845128 -0.399923 0.106737 -0.123958 -0.0995971 -0.0147544 -0.0262839 -0.0340337 0.100444 0.0563124 -0.0334971 -0.184133 -0.00505223 0.00760919 -0.196495 0.253754 0.12319 0.221971 0.0389783 0.181629 -0.279672 0.210281 0.0236458 0.0618144 -0.132868 0.129998 0.0566532 0.0174352 -0.000949605 -0.328085 -0.0743696 0.0443189 0.0749926 0.0229111 0.0561831 -0.0890199 -0.102865 -0.0362522 -0.114368 -0.295765 -0.187568 -0.0263426 -0.23831 -0.0272493 0.102987 -0.00461014 0.055435 -0.0371818 -0.160048 0.0261491 0.0344073 -0.232727 0.0770798 0.0713351 -0.0607217 0.154666 -0.17206 0.173792 0.0458769 0.194868 0.21876 0.219101 -0.140788 0.110458 0.0394023 -0.00546154 0.0619959 0.153641 0.0845341 -0.102338 0.235946 0.0747981 -0.0273099 0.0949977 -0.0802559 -0.18458 0.0897435 -0.0345995 0.00963243 -0.00681592 -0.0550279 0.137476 0.165134 0.205531 -0.0371134 -0.139031 0.141302 -0.102546 0.0115575 -0.0928219 0.152423 -0.0349483 -0.123742 0.0357469 0.146214 0.0327067 0.201566 -0.128594 -0.0750659 0.00439956 0.155421 -0.0365245 0.0954229 0.192518 0.0644858 0.0459646 0.0783591 0.0799788 -0.0800606 0.0531345 0.179014 0.125349 -0.055472 -0.134 0.0168396 
PIR3 0.00973014 -0.104427 -0.0469671 0.151549 0.0374404 -0.0106155 0.0307139 -0.0629217 0.0452952 0.358537 0.0117744 0.27627 -0.109777 0.0618224 -0.256484 0.014135 -0.133371 0.000631987 0.0976938 -0.0237347 0.0294772 0.113997 0.277582 -0.182931 -0.168673 -0.0171231 -0.144366 0.000283909 0.253844 -0.0477511 0.0898633 0.191943 0.09512 -0.159505 0.00177698 0.0124637 0.0219269 -0.203477 0.185269 0.0382 0.107859 0.122335 -0.235528 -0.09172 0.0647469 0.0955499 0.0980869 0.0520518 -0.0688537 -0.0728219 0.0166025 -0.218612 -0.250822 -0.345923 0.0547141 -0.385257 -0.0540875 0.0619029 0.0549243 -0.115983 -0.0811429 -0.0834539 0.165781 -0.0365013 -0.150161 -0.159887 0.0385304 -0.210832 0.0928331 -0.150635 0.256431 0.199982 0.111639 0.149887 0.171516 -0.268072 -0.00346086 0.147406 -0.117063 -0.115378 0.223874 -0.0481776 -0.0429435 0.158316 0.130796 -0.0440515 0.0726709 -0.0432475 -0.0268202 -0.0527971 0.0469383 -0.0307974 0.126733 -0.127399 0.317536 0.186677 0.260424 -0.12304 -0.0926055 0.249252 -0.11936 0.124817 -0.0768993 -0.0116479 -0.0760878 -0.126291 0.148845 0.221772 0.0639761 0.125284 -0.108294 0.00443246 -0.0966926 0.151127 -0.0171639 0.134004 0.12838 -0.180033 0.167276 -0.000427607 -0.161006 -0.00731338 -0.0646042 0.118583 0.156753 -0.0989069 -0.120591 -0.0791007 
YKL107W 0.0105152 -0.0852757 -0.0567872 0.134925 0.0480885 0.00726993 0.000257615 -0.0262461 0.0340365 0.38288 0.0257625 0.294014 -0.0938817 0.0147797 -0.168124 -0.000233609 -0.118008 0.0771211 0.151709 -0.0178832 0.0615177 0.125134 0.28634 -0.180742 -0.0992559 0.0508612 -0.168161 0.0877962 0.248687 -0.0808727 0.0231653 0.231003 0.0560561 -0.111866 -0.0459283 0.00424408 0.0522449 -0.198945 0.15876 0.0210757 0.134643 0.132796 -0.173882 -0.0627437 0.0637701 0.100808 0.13711 0.101646 -0.0593581 -0.00760121 -0.0252548 -0.228294 -0.205642 -0.371357 0.101856 -0.363833 -0.0695211 -0.000100577 0.0845908 -0.110765 -0.138152 -0.0572399 0.247237 -0.0932647 -0.0869044 -0.249046 0.0188182 -0.279373 0.0619309 -0.158646 0.213967 0.251202 0.0766457 0.089986 0.105627 -0.296882 -0.0785175 0.157412 -0.120319 -0.152532 0.251896 -0.0736604 -0.0332137 0.108545 0.0987258 -0.0234249 0.0395795 -0.0375935 0.0794763 -0.113676 0.0887666 -0.0465925 0.210347 -0.134624 0.344163 0.144887 0.282416 -0.120801 -0.0421723 0.243821 -0.116233 0.20729 -0.0662763 -0.0722532 -0.113054 -0.144195 0.186796 0.25804 0.0236232 0.0699673 -0.0491806 -0.0182367 -0.173463 0.0982575 -0.0716023 0.13094 0.130103 -0.240748 0.199777 0.00925542 -0.176388 -0.0336779 -0.074706 0.1307 0.171051 -0.141496 -0.10768 -0.0977783 
LEE1 0.00432607 -0.123975 -0.0466643 0.166767 0.0342976 -0.0357201 0.0533791 -0.0903989 0.0514371 0.360823 -0.00881456 0.287124 -0.120077 0.0901225 -0.323504 0.00894982 -0.142769 -0.0492973 0.0680823 -0.0318576 0.0277131 0.122686 0.278673 -0.199615 -0.215898 -0.0644024 -0.145708 -0.0396375 0.270523 -0.0356315 0.12737 0.183806 0.119458 -0.191404 0.0169271 0.0177239 -0.00509726 -0.218673 0.212019 0.0373076 0.0940463 0.120785 -0.266222 -0.103675 0.0635746 0.0952856 0.0880097 0.00897164 -0.0818076 -0.112274 0.051039 -0.21191 -0.291804 -0.342315 0.032946 -0.413108 -0.0391413 0.102396 0.0367042 -0.141326 -0.0566125 -0.0918391 0.142097 -0.00224375 -0.19075 -0.113021 0.0562279 -0.177194 0.125333 -0.156694 0.294616 0.182547 0.115119 0.193964 0.21158 -0.275082 0.0345127 0.166594 -0.129146 -0.117569 0.217479 -0.0488876 -0.0555836 0.178439 0.144352 -0.0517885 0.0902556 -0.0465758 -0.0885923 -0.0223266 0.0219502 -0.0210847 0.0794086 -0.128988 0.315522 0.228652 0.266246 -0.141612 -0.128253 0.25448 -0.132918 0.0772765 -0.0771898 0.0186746 -0.0620298 -0.122345 0.142191 0.194181 0.0869361 0.158409 -0.133771 0.0214261 -0.0639255 0.183136 0.00707892 0.155385 0.131942 -0.162151 0.146404 -0.00864872 -0.16682 0.0137501 -0.0562626 0.103159 0.150798 -0.0861294 -0.130011 -0.066507 
HSP30 0.00736728 -0.0855199 -0.057035 0.142578 0.0443528 -0.00779416 0.00597703 -0.0450651 0.0489234 0.337802 0.0197159 0.260643 -0.0974224 0.0363794 -0.214254 0.0144578 -0.117659 0.0271182 0.113131 -0.0248723 0.0425906 0.112618 0.245901 -0.161255 -0.119307 0.0246897 -0.141949 0.0322005 0.237374 -0.0458357 0.0581048 0.1974 0.0836983 -0.131778 -0.00788401 0.00765608 0.0347199 -0.184295 0.161846 0.0328735 0.110959 0.111915 -0.196369 -0.0695136 0.0532077 0.0952692 0.10918 0.0796175 -0.0587963 -0.0303799 -0.00994103 -0.207913 -0.221598 -0.331658 0.0735718 -0.345769 -0.0536943 0.0239679 0.062302 -0.0974569 -0.11496 -0.0683639 0.197719 -0.0559046 -0.117338 -0.184206 0.0319074 -0.226323 0.0734858 -0.151921 0.213713 0.203122 0.102038 0.117472 0.131835 -0.265933 -0.0365516 0.139444 -0.109055 -0.113533 0.223651 -0.0508069 -0.0409847 0.131879 0.101924 -0.0323444 0.0556603 -0.0419686 0.0117495 -0.0662629 0.0601386 -0.0356472 0.155724 -0.116857 0.299671 0.149603 0.259217 -0.112354 -0.0602065 0.226692 -0.108574 0.155883 -0.0708442 -0.0274399 -0.0884749 -0.13475 0.151375 0.227856 0.0435801 0.0971451 -0.0631591 -0.0194953 -0.128835 0.112508 -0.0464376 0.126739 0.126997 -0.183431 0.161409 0.0132403 -0.145109 -0.0213127 -0.0571777 0.123441 0.155112 -0.113398 -0.107872 -0.0725264 
MDH2 0.0152425 -0.0837266 -0.0570767 0.129521 0.0492342 -0.00465248 -0.00936532 -0.0205235 0.0340274 0.368148 0.0303005 0.271553 -0.0953627 -0.00302518 -0.159742 0.005858 -0.106717 0.0897259 0.1539 -0.0137795 0.0729107 0.126561 0.262478 -0.168886 -0.0866667 0.0796188 -0.168711 0.0955111 0.238186 -0.0798056 0.0208533 0.237745 0.0541593 -0.102327 -0.0389099 0.00768499 0.0560833 -0.190207 0.147354 0.0169584 0.134543 0.123992 -0.159168 -0.0522645 0.0597963 0.100016 0.136974 0.104017 -0.0627026 0.0062093 -0.0328434 -0.221056 -0.196775 -0.359274 0.10745 -0.3489 -0.0737596 -0.0188981 0.076522 -0.114212 -0.154462 -0.0546876 0.266318 -0.107393 -0.0750892 -0.243778 0.0230808 -0.285395 0.0559797 -0.160557 0.193194 0.253736 0.0671429 0.0742896 0.0920166 -0.299552 -0.090661 0.14807 -0.116231 -0.142951 0.248564 -0.0735409 -0.0342376 0.10777 0.0918695 -0.0164784 0.034591 -0.0324725 0.0881641 -0.105971 0.0979402 -0.0398227 0.213233 -0.124619 0.324583 0.132248 0.285364 -0.108411 -0.0349155 0.219468 -0.104171 0.220587 -0.0539988 -0.0673541 -0.117151 -0.139422 0.183671 0.259154 0.0175349 0.0609215 -0.0393178 -0.0313253 -0.182255 0.0838925 -0.0810687 0.134052 0.136156 -0.23502 0.195676 0.0194218 -0.16893 -0.0395297 -0.0656043 0.133551 0.168478 -0.147511 -0.100585 -0.0927088 
YER145C-A 0.0117449 -0.104547 -0.0640948 0.127774 0.043117 -0.00544605 0.0108083 -0.0457067 0.0175932 0.404128 0.0137344 0.305534 -0.101493 0.0259118 -0.19152 -0.0103758 -0.118977 0.0657995 0.149277 -0.00879711 0.0659789 0.132905 0.300952 -0.206404 -0.124213 0.0300377 -0.182812 0.09058 0.256757 -0.0941663 0.0407187 0.252712 0.0563446 -0.113824 -0.0501561 0.0141148 0.0285354 -0.217104 0.182317 0.0225414 0.134501 0.14068 -0.173873 -0.0572685 0.0670018 0.0998885 0.134758 0.0720082 -0.070664 -0.023169 0.000568236 -0.230092 -0.230379 -0.374697 0.0978499 -0.398061 -0.0742838 0.0129786 0.0699843 -0.147103 -0.134712 -0.0590888 0.248538 -0.080777 -0.104379 -0.247882 0.0295149 -0.282828 0.0741711 -0.164236 0.239098 0.265046 0.0737012 0.104248 0.127654 -0.310973 -0.071172 0.172983 -0.144364 -0.167135 0.243726 -0.0838061 -0.0338978 0.116966 0.118091 -0.0257226 0.040617 -0.0348794 0.0620477 -0.104447 0.0900284 -0.0458479 0.198572 -0.140386 0.34835 0.166363 0.290335 -0.138057 -0.0568501 0.249095 -0.110512 0.201143 -0.0574416 -0.0646065 -0.115393 -0.132127 0.1893 0.246433 0.0413449 0.0838726 -0.066246 -0.000800521 -0.168861 0.115438 -0.0527338 0.150786 0.123776 -0.253112 0.195234 -0.0033695 -0.204326 -0.0268579 -0.0860989 0.109137 0.166543 -0.147298 -0.109674 -0.10411 
KDX1 -0.000363555 -0.0972218 -0.0602023 0.126812 0.0452901 0.00290763 0.0148314 -0.0430528 0.0306147 0.373926 0.0171719 0.294445 -0.0973583 0.0334227 -0.185577 0.00158944 -0.117432 0.0543277 0.139789 -0.0227155 0.0549786 0.110885 0.29682 -0.185525 -0.118108 0.026483 -0.161272 0.0713054 0.239843 -0.0831964 0.0352712 0.220767 0.064874 -0.118292 -0.0302014 0.00945196 0.0352848 -0.194759 0.170753 0.0316388 0.135275 0.132972 -0.171665 -0.0682957 0.061436 0.0985434 0.123757 0.0815528 -0.0625089 -0.0269003 -0.00951507 -0.23259 -0.212369 -0.354329 0.0857314 -0.37103 -0.0722378 0.0167928 0.0783172 -0.13368 -0.123178 -0.0508908 0.224257 -0.0772722 -0.0980721 -0.23224 0.031616 -0.266288 0.057946 -0.149431 0.234443 0.242214 0.0874282 0.101494 0.120435 -0.289578 -0.0645886 0.156618 -0.123622 -0.152382 0.239238 -0.0726557 -0.0363764 0.121611 0.116982 -0.0375834 0.0505258 -0.0357346 0.0478466 -0.0964605 0.0794548 -0.041857 0.1827 -0.133521 0.333361 0.153333 0.272494 -0.123035 -0.0542253 0.245903 -0.110036 0.176968 -0.0713453 -0.0658876 -0.100931 -0.131595 0.180689 0.245137 0.0342756 0.0853615 -0.0686345 -0.00652798 -0.14999 0.119359 -0.0456992 0.136849 0.120767 -0.24065 0.185371 0.00195574 -0.186335 -0.023988 -0.0785904 0.123741 0.158749 -0.124561 -0.101724 -0.0985501 
MLS1 0.00860718 -0.0668101 -0.0494053 0.119791 0.0515149 0.0245797 -0.0213839 0.00701218 0.0329665 0.358858 0.0560721 0.28769 -0.0874457 -0.0150957 -0.103599 0.00857656 -0.100772 0.116383 0.181947 -0.0175947 0.0708848 0.110297 0.267652 -0.158813 -0.0555769 0.106784 -0.160212 0.115088 0.231061 -0.0865081 -0.0144843 0.22665 0.0410108 -0.0903193 -0.0448715 -0.00402984 0.0834882 -0.183404 0.127977 0.0272588 0.152074 0.131251 -0.148168 -0.0521264 0.0465338 0.0987131 0.154416 0.149894 -0.049276 0.034144 -0.0662854 -0.237088 -0.173787 -0.3788 0.125796 -0.329459 -0.0825717 -0.0368179 0.100071 -0.0910667 -0.171077 -0.0354384 0.277549 -0.124511 -0.0504894 -0.274222 0.0164417 -0.310716 0.0277214 -0.163592 0.178012 0.263469 0.0654789 0.0549676 0.0657623 -0.288263 -0.117371 0.127369 -0.099076 -0.149557 0.252446 -0.0689962 -0.0276231 0.0845963 0.0812783 -0.0238581 0.0276573 -0.0396184 0.124664 -0.137897 0.107805 -0.055178 0.243548 -0.13534 0.34499 0.102026 0.275478 -0.0965799 -0.00506477 0.232956 -0.0996539 0.244967 -0.062703 -0.101939 -0.119023 -0.150187 0.188869 0.278968 0.00109836 0.0429982 -0.0230709 -0.0492101 -0.202959 0.0607782 -0.103567 0.112339 0.123827 -0.255975 0.213276 0.0224139 -0.163791 -0.0560714 -0.0833328 0.151876 0.180137 -0.144872 -0.0939422 -0.106064 
SNO1 0.0231771 -0.0962195 -0.0380192 0.180893 0.0287923 -0.0367667 0.0406132 -0.0832456 0.0882694 0.266776 0.00921878 0.210995 -0.129991 0.0918095 -0.346601 0.0515903 -0.134139 -0.0763096 0.0269675 -0.0403053 -0.00477761 0.102303 0.186941 -0.127541 -0.199823 -0.0424453 -0.0945071 -0.102746 0.244626 0.0316403 0.161159 0.113906 0.145788 -0.219355 0.0878396 0.0188231 0.0181811 -0.172945 0.173157 0.0477021 0.0671732 0.0687505 -0.287713 -0.0966609 0.0516497 0.0847633 0.0508719 0.02829 -0.0811835 -0.111411 0.0196039 -0.173801 -0.285037 -0.273362 0.00795817 -0.339101 -0.028368 0.107103 0.019368 -0.0586932 -0.0351677 -0.117948 0.0810343 0.0217349 -0.208991 -0.0388404 0.0574659 -0.121694 0.13799 -0.156522 0.241029 0.122479 0.149774 0.19717 0.207896 -0.209311 0.0594883 0.10992 -0.0763156 -0.0397707 0.180417 0.0108616 -0.0707634 0.194773 0.117358 -0.0414754 0.088211 -0.0662805 -0.134989 0.0210258 0.00139306 -0.00663727 0.0372456 -0.0926817 0.230674 0.193415 0.234197 -0.100893 -0.135738 0.209188 -0.112105 0.0483822 -0.0824189 0.0738715 -0.0401765 -0.118425 0.0918372 0.165828 0.0682856 0.171901 -0.129071 -0.0101999 -0.0343327 0.172811 -0.00356108 0.123309 0.151594 -0.0694291 0.0988165 0.0253408 -0.0637741 -0.014001 -0.0131306 0.128131 0.131452 -0.0610517 -0.125601 -0.032558 
PDR1 0.0471395 -0.0233115 -0.0186491 0.188493 0.0374081 -0.0337687 -0.0388913 -0.00600668 0.135153 0.149755 0.0705819 0.117587 -0.134869 0.0239715 -0.258014 0.0965535 -0.0720213 -0.000673454 0.0741164 -0.0269835 0.000206475 0.106461 0.0800012 -0.0299163 -0.106506 0.0672265 -0.0318371 -0.0805475 0.20901 0.0621438 0.123364 0.0849577 0.12455 -0.176539 0.140571 0.0127545 0.0705491 -0.117832 0.0956976 0.0437483 0.0549359 0.00975134 -0.243896 -0.0349383 0.0456811 0.0663647 0.0649088 0.106221 -0.068366 0.00601548 -0.0685982 -0.116783 -0.237803 -0.202201 0.0210325 -0.215045 -0.0466087 0.00818908 0.0194863 0.0272625 -0.101838 -0.138307 0.126382 -0.0449336 -0.152541 -0.0412574 0.0527932 -0.144223 0.0786011 -0.17143 0.104431 0.0967053 0.145416 0.131767 0.136105 -0.183616 0.00550998 0.0260491 -0.00631731 0.0124787 0.163193 0.0569843 -0.0910124 0.184469 0.0656718 -0.0130325 0.0595513 -0.0595025 -0.035455 0.0297052 0.0371043 0.000906351 0.0821811 -0.0524751 0.159089 0.112735 0.212253 -0.0184421 -0.0661414 0.120234 -0.071317 0.111273 -0.0540706 0.0816474 -0.0604022 -0.124358 0.0699433 0.172948 0.00277062 0.110743 -0.0496329 -0.0930772 -0.081771 0.0814469 -0.0897408 0.0781821 0.178331 -0.0185265 0.0973992 0.0912868 0.0236911 -0.088246 0.0076936 0.17345 0.125203 -0.113622 -0.10916 -0.0135112 
PAU13 0.0338409 -0.00960802 -0.0144666 0.145421 0.0491816 0.0233705 -0.0593804 0.0335914 0.109221 0.183843 0.099508 0.149629 -0.101559 -0.0200941 -0.1148 0.076768 -0.07332 0.0790534 0.129717 -0.0160107 0.0224027 0.0921601 0.0877568 -0.0271738 -0.00851177 0.150225 -0.0458773 0.0165301 0.192207 0.0102833 0.0263391 0.104018 0.07698 -0.133368 0.0749292 0.00101704 0.129333 -0.102841 0.0577751 0.0416567 0.104601 0.0468828 -0.174237 -0.0408613 0.0210734 0.0840157 0.100088 0.187929 -0.0387313 0.0500471 -0.121876 -0.151164 -0.150321 -0.252907 0.0779957 -0.176279 -0.0694292 -0.053369 0.0681921 0.0584614 -0.151757 -0.064867 0.191651 -0.0953669 -0.0673389 -0.136579 0.0196094 -0.209539 0.0330598 -0.152201 0.072004 0.1444 0.102833 0.0539334 0.0465907 -0.1771 -0.0639348 0.0258856 0.00349358 -0.0206241 0.195747 0.0252596 -0.0556329 0.111513 0.0262229 -0.00654405 0.0285422 -0.0560589 0.058471 -0.060785 0.068754 -0.0245958 0.180118 -0.0749713 0.208477 0.0360652 0.208695 -0.0114602 -0.00583646 0.136675 -0.0792129 0.193934 -0.0593532 -0.00796626 -0.0901275 -0.137 0.106868 0.231114 -0.034991 0.0630109 -0.00362714 -0.116234 -0.149706 0.023461 -0.130806 0.0551093 0.148469 -0.0850283 0.148458 0.0680537 0.0102025 -0.101038 -0.0125014 0.198208 0.143472 -0.110023 -0.0819478 -0.0368256 
ZIP2 0.0790987 0.027561 0.0368869 0.245192 0.0384503 -0.0290383 -0.0645626 0.0276605 0.219169 0.0130284 0.144235 0.0141113 -0.154429 0.00614925 -0.286603 0.167839 -0.0684135 -0.0245225 0.0292151 -0.0271431 -0.0341412 0.0885887 -0.0808467 0.0950367 -0.0526608 0.155778 0.0830362 -0.195152 0.217844 0.170451 0.165002 -0.0307526 0.181118 -0.249793 0.270161 0.003398 0.168672 -0.0524297 0.0218709 0.0625327 0.0321063 -0.0674859 -0.297448 -0.0418778 0.00660928 0.0664796 0.0343352 0.195585 -0.0644694 0.0193805 -0.16008 -0.076148 -0.21462 -0.135577 -0.00199329 -0.0715221 -0.0493965 -0.0146117 0.0137983 0.203441 -0.0994102 -0.143327 0.0712761 -0.0386722 -0.167368 0.0743416 0.0616854 -0.0815716 0.0930052 -0.185218 0.00583104 -0.00135322 0.191123 0.129173 0.121353 -0.0797586 0.0326317 -0.0774876 0.0943265 0.133169 0.150991 0.148566 -0.124459 0.203314 0.00181144 -0.000236955 0.0559795 -0.0891889 -0.0889632 0.0690892 -0.00243942 0.0216318 0.0573939 -0.00630024 0.0680243 0.0338085 0.179844 0.0667506 -0.0718817 0.0549139 -0.0646012 0.0989223 -0.0866788 0.147934 -0.0594692 -0.140924 0.0017874 0.191995 -0.0336682 0.149773 -0.0296178 -0.19757 -0.0542641 0.0381934 -0.157859 0.0148032 0.231553 0.136017 0.0613183 0.16233 0.216257 -0.162826 0.0945942 0.260976 0.128344 -0.0698929 -0.117647 0.0415223 
ECM8 0.0804859 0.0563289 0.0352745 0.235316 0.0426644 -0.0134966 -0.104229 0.0599316 0.220794 -0.00661054 0.171775 -0.0114963 -0.150759 -0.0386936 -0.188873 0.170467 -0.039936 0.0526599 0.0727113 -0.0198784 -0.0135049 0.080839 -0.114201 0.11732 0.0363299 0.251005 0.0793924 -0.116205 0.185264 0.157892 0.114171 -0.00300967 0.141542 -0.206562 0.243775 0.00917856 0.201599 -0.0300253 -0.0247149 0.0454299 0.0554319 -0.0784447 -0.224695 0.00469813 -0.00134181 0.0662366 0.0510414 0.254367 -0.0584298 0.089875 -0.214459 -0.0711168 -0.159705 -0.126007 0.0324227 -0.023981 -0.0616336 -0.0912154 0.032581 0.229267 -0.150792 -0.119957 0.128264 -0.0909358 -0.0884434 0.00894871 0.0498698 -0.133507 0.055818 -0.187077 -0.0683401 0.031887 0.166025 0.0478475 0.0455586 -0.0796026 -0.0302714 -0.0919404 0.10639 0.123919 0.15897 0.140123 -0.106962 0.158956 -0.0301724 0.0139987 0.0199317 -0.0810454 0.00889646 0.0249018 0.0298083 0.0101345 0.130103 -0.000148686 0.0577968 -0.0308917 0.184015 0.0932312 -0.0110075 0.0240915 -0.0404377 0.176374 -0.0749103 0.0996514 -0.0924143 -0.143217 0.0139405 0.218311 -0.0842139 0.095867 0.030413 -0.236293 -0.119062 -0.0242661 -0.216667 -0.00741432 0.233741 0.111744 0.0822878 0.187427 0.238984 -0.200968 0.0915036 0.272355 0.134591 -0.0860645 -0.0939961 0.0397564 
SPO13 0.0685142 0.035791 0.0433151 0.242664 0.0381472 -0.0279572 -0.0498277 0.0125791 0.229604 0.0182591 0.138656 0.00992045 -0.163616 0.0267116 -0.304358 0.161311 -0.069347 -0.0238878 0.0197693 -0.0323053 -0.0393992 0.091714 -0.0834601 0.0972863 -0.0562803 0.147014 0.0854208 -0.201441 0.213085 0.171853 0.180128 -0.0230646 0.174066 -0.264807 0.279764 0.0187324 0.156918 -0.053011 0.0257499 0.0615662 0.0283662 -0.0632326 -0.299983 -0.042621 0.0162607 0.0627792 0.0306258 0.189293 -0.0750651 0.00125233 -0.154076 -0.068263 -0.220828 -0.132 -0.00992073 -0.0853205 -0.0472652 0.00312166 0.00479081 0.188959 -0.0980765 -0.152595 0.0540261 -0.0252771 -0.173956 0.0757649 0.0629517 -0.070122 0.093685 -0.187926 0.0181732 0.00504421 0.201232 0.136766 0.13141 -0.0753705 0.0491848 -0.0761212 0.0994484 0.13268 0.146668 0.159133 -0.129345 0.219373 0.00850854 -0.00331098 0.0664037 -0.0976708 -0.110639 0.0830269 -0.00818508 0.0130094 0.0448362 -0.0233646 0.0576665 0.0554347 0.180647 0.0645965 -0.0720626 0.0656993 -0.0719234 0.0817591 -0.0861445 0.152254 -0.0570507 -0.145748 0.00246176 0.178274 -0.043736 0.159301 -0.0502028 -0.187849 -0.0466184 0.0602422 -0.147497 0.0356537 0.234343 0.142128 0.0563539 0.152994 0.209719 -0.166942 0.0978133 0.253501 0.113188 -0.0748888 -0.107504 0.0448305 
YER175W-A 0.0558319 0.0354742 0.0378081 0.21937 0.0414044 -0.00446399 -0.0661153 0.0384521 0.213113 0.030819 0.145325 0.0283251 -0.149703 0.00958455 -0.236967 0.155708 -0.0565464 0.00149991 0.0471783 -0.0350277 -0.0409435 0.088035 -0.0705712 0.0901992 -0.0268887 0.156966 0.0775356 -0.150835 0.201856 0.148346 0.126871 -0.00933744 0.155426 -0.227268 0.243033 0.0140597 0.159596 -0.0497353 0.0104046 0.0631649 0.0504875 -0.0493664 -0.26662 -0.0470877 0.00487995 0.0643765 0.0379167 0.209509 -0.061637 0.0276151 -0.166216 -0.0760268 -0.189552 -0.144484 0.00866 -0.0733327 -0.0542308 -0.0194878 0.0167286 0.186555 -0.113402 -0.135165 0.0868633 -0.0421262 -0.142964 0.0347934 0.0552507 -0.0973506 0.0597837 -0.167187 0.0111116 0.0218632 0.191441 0.110319 0.096663 -0.0772882 0.0225972 -0.0687373 0.0949259 0.114414 0.148468 0.143933 -0.116099 0.183036 0.00989773 -0.00493552 0.0625399 -0.0878671 -0.0699941 0.0537832 0.00353404 0.00699033 0.0809644 -0.0265345 0.0905043 0.0283029 0.178037 0.0651508 -0.0438494 0.0766102 -0.0659048 0.111463 -0.0816193 0.114896 -0.052732 -0.141118 0.0147857 0.198038 -0.0461461 0.125578 -0.0294508 -0.177802 -0.065019 0.0378285 -0.159114 0.0165279 0.212528 0.109529 0.0782962 0.135327 0.178299 -0.159682 0.0684958 0.251468 0.127044 -0.0739621 -0.100032 0.037299 
TSL1 0.0628112 0.021334 0.0369766 0.236482 0.0438276 -0.0150312 -0.0497773 0.0197324 0.213399 0.0341053 0.135159 0.0251796 -0.142876 0.00516186 -0.25817 0.150034 -0.0694839 -0.00760766 0.0346403 -0.026567 -0.0300796 0.0751453 -0.0671416 0.0762159 -0.0435088 0.152449 0.0689075 -0.171675 0.211032 0.153688 0.149975 -0.0159346 0.162641 -0.244288 0.248817 0.00706259 0.166401 -0.0529281 0.0144543 0.0540482 0.038641 -0.0546898 -0.282858 -0.0489586 0.00623738 0.0706519 0.0296166 0.197589 -0.0658935 0.0123847 -0.160577 -0.0797005 -0.200842 -0.149903 0.006675 -0.0838268 -0.0524187 -0.0198973 0.0197978 0.194205 -0.0969064 -0.135845 0.073748 -0.0373152 -0.147913 0.0497717 0.0628471 -0.0968271 0.089392 -0.175259 0.0118075 0.014969 0.174413 0.114333 0.110475 -0.0795735 0.0259707 -0.0657477 0.0890379 0.119894 0.158532 0.1338 -0.110739 0.191949 0.00160302 -0.00437937 0.0558931 -0.088747 -0.0727773 0.0546288 -0.00183816 0.0159025 0.0707369 -0.0276687 0.0809641 0.0327733 0.180885 0.0639696 -0.0540962 0.074256 -0.0754879 0.102735 -0.089322 0.122585 -0.0565496 -0.144227 0.00869707 0.193469 -0.0339648 0.144262 -0.0319045 -0.189461 -0.0565597 0.0438721 -0.152543 0.0178343 0.224422 0.125391 0.0660175 0.150083 0.202343 -0.160552 0.0804159 0.25408 0.132952 -0.0662898 -0.0994584 0.0353496 
PGM2 0.0684512 -0.00541224 0.0184387 0.250334 0.0292879 -0.047658 -0.0315753 -0.00451354 0.209643 0.0553253 0.105547 0.0307172 -0.164448 0.0470405 -0.344542 0.152971 -0.0853266 -0.0620252 0.0092447 -0.033377 -0.0393611 0.0923818 -0.0337265 0.0578398 -0.11437 0.0859025 0.0534825 -0.214854 0.225226 0.166369 0.197 -0.00773463 0.192839 -0.269183 0.267516 0.0196472 0.117909 -0.08217 0.0625123 0.0544367 0.0243697 -0.0474367 -0.323853 -0.056809 0.0301098 0.0701952 0.0180211 0.136332 -0.0792626 -0.0361196 -0.107827 -0.0802992 -0.257315 -0.146328 -0.0166956 -0.137629 -0.034463 0.0376223 0.00373607 0.142544 -0.069637 -0.165636 0.0479488 -0.000476697 -0.204456 0.0914063 0.0742256 -0.0652921 0.117147 -0.184908 0.0702686 0.00803424 0.210475 0.175238 0.173954 -0.105249 0.0708563 -0.0363839 0.0651184 0.1179 0.146349 0.131484 -0.125564 0.237096 0.0367082 -0.00661118 0.0814285 -0.081238 -0.138275 0.0928268 -0.0120831 0.0190542 0.0241127 -0.0271723 0.0857346 0.0931864 0.189956 0.0316132 -0.102994 0.0876589 -0.0813818 0.0508736 -0.0883617 0.166756 -0.0452696 -0.13372 0.00849231 0.174412 -0.0116158 0.176147 -0.0736084 -0.146238 -0.0270117 0.0910677 -0.111427 0.0438601 0.226975 0.126236 0.0494989 0.133409 0.169457 -0.129813 0.0826538 0.229314 0.115374 -0.0643192 -0.120064 0.0407822 
MET32 0.0466651 -0.0528835 -0.0240417 0.183492 0.0410732 -0.026104 -0.0444219 0.0277845 0.126091 0.163694 0.0824812 0.115604 -0.127225 0.0368264 -0.224558 0.0979375 -0.064385 0.028415 0.101576 -0.018155 0.0151032 0.101015 0.112992 -0.0566058 -0.0983805 0.0646573 -0.0290945 -0.0718389 0.210316 0.0387241 0.0943595 0.0835884 0.109758 -0.146464 0.112293 0.00404225 0.0728276 -0.112525 0.103059 0.0293568 0.0950181 0.00980581 -0.203111 -0.0386894 0.0401406 0.0664563 0.0799282 0.113828 -0.0663629 0.021669 -0.0687918 -0.128004 -0.215214 -0.206373 0.0279256 -0.20807 -0.0595813 0.00709419 0.0306201 -0.0117677 -0.104641 -0.103556 0.136544 -0.0758338 -0.129139 -0.0804991 0.05258 -0.158201 0.0672449 -0.157809 0.107682 0.101613 0.126375 0.11918 0.147648 -0.182568 -0.0301009 0.0137371 -0.00846615 -0.0246925 0.178227 0.0431061 -0.0959147 0.168575 0.0875258 -0.014624 0.0659561 -0.0392072 0.0170257 0.00650461 0.0416046 -0.000977079 0.0988373 -0.0555864 0.184826 0.0993761 0.192765 -0.0204438 -0.0605483 0.117595 -0.0793263 0.122315 -0.0488857 0.0445354 -0.0801453 -0.108209 0.078943 0.202344 0.00471313 0.0892393 -0.0421265 -0.106312 -0.120412 0.0775317 -0.089986 0.0672026 0.182432 -0.0660863 0.126878 0.0949034 -0.000639955 -0.088916 -0.0184962 0.163614 0.129091 -0.108665 -0.104365 -0.0219998 
ARO10 0.043346 -0.0593628 0.00117327 0.228937 0.026619 -0.0560769 0.0234908 -0.0699911 0.155111 0.17406 0.037224 0.130745 -0.151032 0.0897222 -0.399578 0.10092 -0.120025 -0.110367 -0.0119909 -0.0428736 -0.0348811 0.109092 0.0836878 -0.0500581 -0.196274 -0.0217784 -0.014933 -0.189321 0.257272 0.10785 0.215641 0.0512718 0.185962 -0.270703 0.189393 0.023794 0.0390611 -0.142635 0.141528 0.0590525 0.0213352 0.0122649 -0.344756 -0.0929177 0.0513821 0.0766117 0.0217431 0.043628 -0.0877362 -0.104866 -0.0166232 -0.125115 -0.306082 -0.212542 -0.0208225 -0.268447 -0.0176137 0.108694 -0.0092423 0.0275435 -0.0306321 -0.160564 0.0359289 0.0368164 -0.248285 0.057448 0.0776972 -0.0575255 0.155886 -0.172854 0.193721 0.0527758 0.189247 0.21918 0.231049 -0.154766 0.106948 0.0494129 -0.0257477 0.0467855 0.160863 0.0753584 -0.102111 0.234849 0.0900524 -0.0280075 0.0980472 -0.0755468 -0.186541 0.0832627 -0.0285991 0.00955989 -0.0050157 -0.0623236 0.161925 0.18388 0.215043 -0.0528346 -0.145451 0.160968 -0.103547 0.0122417 -0.0839725 0.152024 -0.0274101 -0.123453 0.0362247 0.148415 0.0552314 0.205641 -0.135678 -0.0626769 0.0109877 0.158956 -0.0281631 0.103365 0.190726 0.0508866 0.0633521 0.0668834 0.040231 -0.0526917 0.041911 0.16511 0.129119 -0.0540415 -0.132523 0.00866149 
glutamic_acid 0.0682612 0.0130854 0.0308698 0.250094 0.0371508 -0.034923 -0.0408819 0.00629446 0.222802 0.0241004 0.124353 0.00654475 -0.1659 0.0290051 -0.328177 0.164542 -0.0714426 -0.0508636 0.00949749 -0.0420018 -0.0401198 0.0885775 -0.0627867 0.0875405 -0.0854442 0.112403 0.0737817 -0.213207 0.212894 0.174917 0.192291 -0.023648 0.18884 -0.268899 0.287941 0.0226333 0.130359 -0.0583775 0.0439476 0.0620284 0.0177641 -0.0625314 -0.314717 -0.0456868 0.020098 0.0709747 0.0187198 0.164698 -0.0778296 -0.0150306 -0.132149 -0.0759785 -0.247045 -0.127698 -0.0157341 -0.110519 -0.0351614 0.0148173 -0.00185076 0.176773 -0.0833473 -0.17092 0.0454658 -0.0119269 -0.188941 0.0980542 0.069946 -0.0649503 0.106272 -0.190777 0.041809 -0.00466393 0.207677 0.15445 0.149726 -0.0897361 0.0629112 -0.0602709 0.0834533 0.133657 0.145506 0.149602 -0.135078 0.225281 0.0219573 -0.00197436 0.0813588 -0.0938489 -0.129054 0.0978831 -0.0146827 0.0207606 0.025246 -0.0144181 0.0586753 0.0731165 0.185268 0.0496552 -0.0889791 0.0633057 -0.0629909 0.058703 -0.086068 0.169662 -0.0468965 -0.140754 -0.00301364 0.168718 -0.026239 0.16527 -0.0664685 -0.173172 -0.0278467 0.0679019 -0.138751 0.0377739 0.235084 0.144269 0.0432407 0.151762 0.200496 -0.153834 0.0908576 0.248337 0.115788 -0.0643972 -0.1044 0.0464853 
SNG1 0.0684551 0.0456991 0.0316819 0.220997 0.0452241 -0.00614693 -0.0747789 0.0391603 0.206616 0.0337054 0.144875 0.0155848 -0.143732 -0.019953 -0.205153 0.151959 -0.0491121 0.0335426 0.0644358 -0.0294196 -0.0146352 0.0821087 -0.0831752 0.106008 0.00187543 0.213369 0.0604883 -0.1182 0.190724 0.143985 0.11823 0.00609224 0.137732 -0.216932 0.23285 0.00863355 0.177565 -0.0387345 -0.00111491 0.0548696 0.048686 -0.0555372 -0.240075 -0.013067 0.00814284 0.0733209 0.0532811 0.22968 -0.0575266 0.054194 -0.19353 -0.0787606 -0.175585 -0.142167 0.028917 -0.059391 -0.0608227 -0.0631391 0.0310152 0.204058 -0.136076 -0.125005 0.117256 -0.0772816 -0.107335 0.0120882 0.04942 -0.125157 0.0559119 -0.176642 -0.0301344 0.0446248 0.172665 0.0762209 0.060546 -0.0921824 -0.0118957 -0.0665331 0.0956887 0.111463 0.165886 0.128324 -0.10603 0.171339 -0.0210907 0.010627 0.0398229 -0.0832148 -0.0145396 0.0301462 0.0289294 0.0055337 0.118344 -0.0227168 0.07203 0.00240899 0.188594 0.0753734 -0.0238956 0.0520152 -0.0589594 0.152516 -0.0732423 0.100802 -0.0769043 -0.148092 0.0252018 0.207513 -0.0702736 0.101481 0.00279648 -0.201607 -0.0949808 0.00423584 -0.184621 0.0155781 0.212039 0.100961 0.0810301 0.159259 0.207192 -0.179928 0.0786034 0.262779 0.12684 -0.0915153 -0.0890141 0.0237502 
PHO5 0.0733031 0.0135672 0.034578 0.239319 0.0311961 -0.0215548 -0.0459749 0.0121234 0.204169 0.0375862 0.125689 0.0355199 -0.152537 0.0189154 -0.28626 0.153603 -0.0676553 -0.0246696 0.0217297 -0.0268292 -0.0341745 0.0834915 -0.0511446 0.0577026 -0.0605729 0.125943 0.0596042 -0.168807 0.215649 0.151978 0.159681 -0.0104931 0.172791 -0.249767 0.245741 0.0137154 0.151007 -0.0717392 0.0402114 0.0617573 0.0373933 -0.0505946 -0.289256 -0.0401998 0.00847892 0.0658741 0.0322445 0.171872 -0.0620742 0.00268594 -0.139535 -0.0876782 -0.213942 -0.152546 -0.00416381 -0.100389 -0.0455445 0.00662504 0.015655 0.170169 -0.0950132 -0.140334 0.0709019 -0.0298114 -0.164833 0.0627124 0.0571314 -0.0813653 0.104195 -0.178288 0.0332561 0.0183793 0.186451 0.13352 0.13394 -0.0877062 0.0441684 -0.05433 0.0664041 0.114062 0.152695 0.123795 -0.113129 0.200314 0.0231948 -0.0117446 0.0622267 -0.0827029 -0.0995381 0.0654354 -0.0112505 0.0122395 0.0565626 -0.0115301 0.0911636 0.056908 0.18118 0.0453755 -0.0791208 0.0745086 -0.0666301 0.0899586 -0.0907577 0.131314 -0.0537319 -0.140579 0.00399938 0.190852 -0.0206674 0.153818 -0.046711 -0.177428 -0.0531481 0.0538498 -0.133598 0.0246399 0.212951 0.108275 0.0704499 0.14246 0.18773 -0.14857 0.0737447 0.243992 0.129965 -0.0621353 -0.110857 0.0354581 
SSA3 0.0747851 0.00654771 0.0399108 0.267387 0.0350137 -0.0510628 -0.0245261 -0.00888641 0.226631 0.0350657 0.115003 0.0272291 -0.169156 0.0462966 -0.362031 0.163066 -0.0899893 -0.0794057 -0.00210462 -0.0339162 -0.0516934 0.0834445 -0.0644702 0.0746176 -0.111538 0.0938317 0.0779222 -0.240273 0.234848 0.185437 0.217756 -0.0352761 0.206458 -0.295806 0.290369 0.0130709 0.138916 -0.0750615 0.055119 0.0657148 0.00591601 -0.0579896 -0.343705 -0.0626438 0.0251763 0.063816 0.0140162 0.152417 -0.0809706 -0.0461313 -0.11738 -0.0778789 -0.257096 -0.141336 -0.0297612 -0.122829 -0.0326185 0.0450394 -0.00810742 0.174704 -0.0635208 -0.170364 0.0262219 0.00613561 -0.2146 0.118803 0.079271 -0.0448654 0.131663 -0.192432 0.064722 -0.00833175 0.210149 0.179835 0.184242 -0.0815329 0.0855013 -0.0515794 0.0757659 0.140722 0.14025 0.152646 -0.126643 0.235252 0.0278589 -0.00865092 0.0794913 -0.0965285 -0.160674 0.100574 -0.0296956 0.029083 0.00942479 -0.0137156 0.0733343 0.090504 0.187321 0.0452901 -0.11385 0.0888538 -0.0878457 0.0442285 -0.0977873 0.181842 -0.0453226 -0.140487 -0.0070946 0.167873 -0.00648532 0.198283 -0.0873751 -0.16543 0.00174094 0.0866849 -0.11557 0.0405918 0.234108 0.162688 0.0453652 0.142537 0.211817 -0.143658 0.0918329 0.247699 0.127725 -0.0491088 -0.127287 0.0401873 
YOL160W 0.0764347 0.0361363 0.0265118 0.242291 0.0360055 -0.0242457 -0.0637255 0.0263848 0.225081 0.0242244 0.142308 0.00499792 -0.171848 0.0132149 -0.28347 0.155363 -0.0641058 -0.00600426 0.0321052 -0.0256829 -0.0297019 0.100097 -0.0776391 0.0884948 -0.0441441 0.155574 0.0712464 -0.159663 0.211062 0.164864 0.160895 -0.00309772 0.162668 -0.252209 0.266894 0.0212044 0.15202 -0.0562169 0.0246777 0.0602078 0.0342358 -0.0673736 -0.280291 -0.0227407 0.0185294 0.0667715 0.0402599 0.187122 -0.0760611 0.0213468 -0.163748 -0.0790772 -0.225165 -0.131535 0.00375853 -0.0849318 -0.0545471 -0.021734 0.00880537 0.176887 -0.12444 -0.155585 0.0828667 -0.0466698 -0.154716 0.0555787 0.0583371 -0.0949131 0.0859907 -0.185139 0.0121839 0.0226647 0.198754 0.122862 0.115123 -0.0860636 0.0307165 -0.0636268 0.0910634 0.118024 0.15015 0.143904 -0.132044 0.209445 0.0015396 0.00162884 0.059071 -0.0856153 -0.0779517 0.0738799 0.00419822 0.0121364 0.0725289 -0.0175414 0.0632309 0.0508766 0.187959 0.0600243 -0.0638758 0.051502 -0.0629377 0.103763 -0.0775919 0.138448 -0.0715296 -0.138594 0.00906912 0.186112 -0.0520447 0.136663 -0.0287915 -0.191154 -0.0677835 0.0422689 -0.15832 0.0333082 0.229932 0.124099 0.0566901 0.160332 0.201662 -0.166349 0.0813311 0.252385 0.116833 -0.0862223 -0.104259 0.0429984 
YFL019C 0.0660928 0.0460431 0.0353905 0.200316 0.0461721 0.00865193 -0.0835984 0.061308 0.201101 0.0372296 0.157662 0.0297584 -0.134981 -0.0324192 -0.168347 0.143536 -0.0503716 0.0620333 0.0822981 -0.018083 -0.0152332 0.0818698 -0.0613566 0.0981144 0.0235735 0.219356 0.0674248 -0.0932347 0.192943 0.124272 0.0861437 0.0141159 0.123745 -0.199966 0.212822 0.00252536 0.182756 -0.0426317 -0.00534283 0.050923 0.063035 -0.0415405 -0.222058 -0.0176605 0.00277076 0.0660883 0.0673833 0.236446 -0.0505651 0.0765606 -0.194351 -0.0859106 -0.154508 -0.154226 0.0417252 -0.0517268 -0.0698308 -0.0735148 0.0405537 0.196937 -0.149551 -0.109299 0.132415 -0.097227 -0.0883089 -0.0184752 0.0441474 -0.148728 0.0426154 -0.172043 -0.0250582 0.0568893 0.157756 0.0605461 0.0532121 -0.0983035 -0.0280162 -0.0696782 0.0952155 0.0950376 0.165875 0.120231 -0.10467 0.151081 -0.0182964 0.009251 0.0324487 -0.0817042 0.00912071 0.0163722 0.0402508 0.00107306 0.13544 -0.0346928 0.0923115 -0.00882799 0.181966 0.0726863 -0.00158827 0.056973 -0.0614767 0.169894 -0.0689462 0.0688139 -0.0841623 -0.145684 0.0348667 0.216709 -0.0716746 0.0888013 0.00834178 -0.194494 -0.107931 -0.00552347 -0.186448 0.0152796 0.213327 0.0670519 0.0959396 0.146195 0.177029 -0.176608 0.0606995 0.261881 0.130197 -0.0955357 -0.0888012 0.0207261 
STR3 0.0669749 -0.0220748 0.029063 0.262428 0.0387824 -0.0601799 -0.00851984 -0.0229546 0.211336 0.0695365 0.0929176 0.0391491 -0.16903 0.0656029 -0.397603 0.15297 -0.0911697 -0.0767816 -0.00657891 -0.0352279 -0.0382789 0.0937237 -0.0240265 0.0423105 -0.149987 0.0745148 0.0514252 -0.245674 0.236708 0.171319 0.226956 -0.0156562 0.203529 -0.291405 0.272652 0.0208852 0.111834 -0.0863428 0.078963 0.0554343 0.0160099 -0.0559469 -0.335735 -0.0717588 0.0337943 0.0713393 0.0120952 0.121389 -0.095004 -0.0552438 -0.0918544 -0.08664 -0.267737 -0.148741 -0.0207371 -0.16285 -0.021981 0.0655446 -0.00381042 0.126281 -0.0519983 -0.166657 0.0206741 0.00282091 -0.22596 0.112372 0.0833303 -0.050257 0.134381 -0.194364 0.0950969 -0.000107724 0.191779 0.192535 0.207238 -0.10317 0.0785726 -0.0308866 0.0597 0.107647 0.154634 0.134033 -0.126936 0.250382 0.0497005 -0.00558047 0.0931459 -0.0846741 -0.167497 0.105441 -0.0379056 0.0311522 -0.00186529 -0.0313053 0.0830334 0.120246 0.190841 0.0243169 -0.123049 0.0998993 -0.0906952 0.0275479 -0.0842082 0.178257 -0.0367311 -0.130212 -0.00342024 0.157829 0.00192775 0.196766 -0.10189 -0.150337 -0.00384745 0.118672 -0.101543 0.0632053 0.234985 0.141968 0.0431261 0.143782 0.172723 -0.126722 0.0894926 0.224176 0.119546 -0.0546956 -0.129184 0.0293222 
ECM11 0.070598 0.0393045 0.0417071 0.255789 0.0392563 -0.0270106 -0.0603115 0.0165275 0.228823 0.00895927 0.143989 -0.00262401 -0.168031 0.0184669 -0.29645 0.170747 -0.0696862 -0.0205028 0.0212504 -0.0297186 -0.036188 0.0900378 -0.0912047 0.106599 -0.0446982 0.167977 0.0914155 -0.195854 0.207644 0.187564 0.174309 -0.0199771 0.174082 -0.260968 0.282591 0.021258 0.164308 -0.048169 0.0124377 0.0657044 0.0256839 -0.070047 -0.287108 -0.0287636 0.0133834 0.0640753 0.0294816 0.203006 -0.0712437 0.0197065 -0.170924 -0.0699321 -0.219115 -0.123385 -0.00666114 -0.0725365 -0.0475377 -0.0146696 0.0109942 0.212042 -0.101827 -0.152746 0.0596598 -0.0387301 -0.166412 0.0736648 0.0586307 -0.08337 0.087737 -0.188737 0.00699708 0.00149158 0.206588 0.126673 0.122423 -0.0747319 0.0455794 -0.071496 0.104535 0.13999 0.150087 0.158594 -0.127491 0.211645 -0.0061013 -0.00100864 0.0629684 -0.0893168 -0.101824 0.0827157 -0.00148057 0.0153724 0.0594854 -0.0141043 0.0490651 0.0383988 0.180347 0.07699 -0.0634391 0.0519248 -0.0565414 0.096918 -0.091104 0.159005 -0.0568865 -0.148197 -0.00593867 0.181956 -0.0561978 0.146993 -0.0380558 -0.195737 -0.055814 0.0487242 -0.163388 0.0260296 0.23373 0.151193 0.0552343 0.159649 0.227861 -0.169682 0.0998086 0.265281 0.114388 -0.0771987 -0.10269 0.0547623 
FMP45 0.0601721 -0.0232122 0.0232563 0.255331 0.0282633 -0.0519617 -0.00752214 -0.0276651 0.199778 0.080707 0.0906347 0.0622009 -0.165228 0.0596668 -0.375539 0.138223 -0.096646 -0.0817898 -0.00149198 -0.0357805 -0.0441281 0.0931171 -0.00965518 0.0216809 -0.149278 0.0463601 0.0427715 -0.216662 0.243946 0.156156 0.212537 -0.00275042 0.195043 -0.28303 0.25458 0.0168051 0.100492 -0.0962261 0.0827386 0.0569032 0.021205 -0.0417696 -0.340191 -0.0736895 0.0282667 0.0738128 0.0178999 0.111563 -0.0873649 -0.0638679 -0.0794177 -0.0941724 -0.276057 -0.168009 -0.0242443 -0.170825 -0.0323496 0.0646679 -0.00495855 0.115546 -0.0519635 -0.166006 0.0282222 0.0154241 -0.2294 0.0941163 0.0752123 -0.0514407 0.137927 -0.17986 0.100579 0.00625398 0.194605 0.189996 0.199914 -0.112427 0.0928158 -0.0141275 0.0374264 0.0974919 0.151612 0.124866 -0.121056 0.235816 0.0563709 -0.0137927 0.0952222 -0.0797349 -0.164046 0.0968864 -0.0283025 0.0213649 0.00463231 -0.0278544 0.104452 0.122906 0.19693 0.00453583 -0.124055 0.108483 -0.0879939 0.0299713 -0.0892109 0.167552 -0.0410982 -0.127924 0.00495727 0.16462 0.0210373 0.195723 -0.101238 -0.133581 -0.0106434 0.116187 -0.0894667 0.0631601 0.217184 0.119535 0.04971 0.12385 0.151221 -0.10734 0.0767726 0.210081 0.125811 -0.0559253 -0.128467 0.0363036 
DCS2 0.0604406 -0.0343076 0.0184842 0.266546 0.0257039 -0.0559093 0.00286628 -0.0478283 0.201907 0.091094 0.0809296 0.0656382 -0.169417 0.0877315 -0.407361 0.139055 -0.109292 -0.10559 -0.0161492 -0.0336073 -0.0477382 0.0930246 0.00993466 -0.00267487 -0.175272 0.00492169 0.035682 -0.236331 0.254104 0.153637 0.229292 -5.34775e-05 0.206261 -0.290431 0.25098 0.0133034 0.0832144 -0.115784 0.0998815 0.0569245 0.0203423 -0.0281464 -0.35358 -0.0785138 0.0352191 0.074442 0.0159284 0.0913074 -0.087971 -0.0834791 -0.0625771 -0.0967352 -0.301123 -0.170529 -0.0480038 -0.191758 -0.0291222 0.0932198 -0.0166958 0.0977261 -0.0373094 -0.172647 0.0046016 0.0380859 -0.246415 0.113645 0.08391 -0.0426116 0.152221 -0.175681 0.141156 0.00456432 0.207957 0.217789 0.231048 -0.109932 0.114197 -0.00640601 0.0201837 0.0964292 0.149206 0.121484 -0.120298 0.243588 0.0734175 -0.0278309 0.0958202 -0.0785483 -0.192324 0.10086 -0.0481314 0.0220867 -0.0152063 -0.0301861 0.113137 0.143749 0.196922 -0.00833812 -0.140907 0.123778 -0.0991449 0.00680324 -0.10612 0.172594 -0.0368397 -0.124714 0.00552174 0.15827 0.0358085 0.212112 -0.120633 -0.111687 0.00742098 0.134504 -0.0648139 0.0664212 0.21878 0.114305 0.0493355 0.106869 0.136875 -0.0945571 0.0637 0.201166 0.122372 -0.0487381 -0.143568 0.0395321 
YSW1 0.0767229 0.0402451 0.0365523 0.249209 0.0374402 -0.0265817 -0.0598389 0.0169099 0.234468 0.00465994 0.136246 -0.0105058 -0.158425 0.01219 -0.29169 0.167751 -0.0631579 -0.0225597 0.0173885 -0.0294114 -0.0381626 0.0879894 -0.092525 0.105641 -0.0499529 0.151207 0.0865539 -0.190415 0.206305 0.180435 0.174219 -0.0198357 0.177155 -0.261982 0.28689 0.0149503 0.155029 -0.0499083 0.0233188 0.0663992 0.0220047 -0.073326 -0.289509 -0.0317492 0.0148415 0.067232 0.0236043 0.191727 -0.0711286 0.0136053 -0.160895 -0.0650897 -0.227507 -0.125109 -0.00871058 -0.073746 -0.0501789 -0.0163852 0.00161368 0.206106 -0.108995 -0.157467 0.0585463 -0.029056 -0.164329 0.0878309 0.063723 -0.0782224 0.09326 -0.185974 0.000640883 -0.000573735 0.203967 0.126878 0.122377 -0.0759659 0.048607 -0.0761887 0.0990425 0.146043 0.149327 0.158593 -0.127811 0.216023 0.00247879 0.000460443 0.0560225 -0.088751 -0.0966746 0.0852275 -0.00867019 0.0200625 0.0551698 -0.0100947 0.0490463 0.044917 0.185778 0.0649519 -0.0688756 0.0544671 -0.0587423 0.088479 -0.0884713 0.154632 -0.0618318 -0.142742 -0.00670657 0.185034 -0.0485312 0.14862 -0.033881 -0.190294 -0.0497143 0.0444757 -0.150976 0.0244354 0.23759 0.150396 0.0466754 0.160412 0.224411 -0.167927 0.099373 0.265295 0.116148 -0.0719385 -0.105178 0.0540042 
histidine 0.0654665 0.00302418 0.0435823 0.252652 0.0353467 -0.0294734 -0.0292008 -0.0143014 0.21971 0.0476571 0.107578 0.0495707 -0.162083 0.0568806 -0.359606 0.156389 -0.0881563 -0.0725113 -0.00676007 -0.0348996 -0.0619129 0.0854633 -0.0462469 0.0540508 -0.118499 0.0727104 0.0785846 -0.230071 0.238742 0.169418 0.205406 -0.0234048 0.19286 -0.290157 0.272681 0.0127397 0.132256 -0.0826666 0.0636088 0.0768683 0.0164455 -0.0539043 -0.331685 -0.0688979 0.0174354 0.0682677 0.0157017 0.141144 -0.0720585 -0.0448819 -0.116479 -0.0862553 -0.257806 -0.142116 -0.0338225 -0.128728 -0.0357275 0.052081 7.86895e-06 0.163065 -0.0605017 -0.164204 0.016266 0.0062545 -0.20907 0.104242 0.0684258 -0.0477641 0.121222 -0.17932 0.0874164 -0.00851767 0.215954 0.188033 0.18472 -0.0823648 0.0881553 -0.048399 0.0652888 0.122168 0.148857 0.14641 -0.12773 0.233172 0.0445063 -0.0246929 0.0910576 -0.095874 -0.171085 0.101748 -0.0388071 0.023297 0.0149382 -0.0232107 0.0901684 0.0980344 0.180565 0.0382843 -0.110861 0.102152 -0.0910648 0.0359079 -0.098821 0.16223 -0.032859 -0.13137 -0.00513423 0.169503 0.00341795 0.191711 -0.0961555 -0.150593 -0.0030718 0.106712 -0.09752 0.0393871 0.222336 0.138348 0.0549659 0.126214 0.182543 -0.137011 0.072547 0.237484 0.132311 -0.0591402 -0.128104 0.0436138 
HED1 0.0742156 0.0298412 0.0531441 0.282845 0.0383868 -0.0453101 -0.0379996 -0.00218558 0.256063 -0.00345092 0.13631 -0.00839996 -0.181896 0.0497003 -0.386594 0.180642 -0.085504 -0.0791897 -0.0164164 -0.0321053 -0.0665846 0.0954292 -0.0998991 0.10693 -0.103212 0.115077 0.117107 -0.272057 0.231925 0.22063 0.236974 -0.0536685 0.216857 -0.320986 0.334774 0.0179637 0.146244 -0.0630536 0.0372306 0.0692966 0.00836194 -0.0861553 -0.356127 -0.0618667 0.022388 0.0651612 0.00602138 0.169793 -0.0877504 -0.0318208 -0.149458 -0.0580996 -0.260013 -0.112257 -0.0407042 -0.0891435 -0.0374974 0.0358584 -0.0113547 0.210739 -0.0675473 -0.182433 0.00849464 0.00331458 -0.222331 0.151278 0.0845184 -0.0358855 0.125684 -0.191718 0.0433096 -0.0317582 0.225741 0.192842 0.1888 -0.0597787 0.0945716 -0.0771607 0.108711 0.168849 0.143333 0.185263 -0.141131 0.251467 0.0246087 -0.00541591 0.0849122 -0.104962 -0.179588 0.130149 -0.0485075 0.034373 -0.00189253 -0.00723598 0.0420532 0.0785856 0.181908 0.0692713 -0.109665 0.0629366 -0.0764938 0.0399633 -0.0977069 0.200717 -0.0427377 -0.141419 -0.030143 0.158135 -0.0262205 0.202914 -0.0881803 -0.193439 0.00426608 0.089482 -0.137187 0.0379497 0.258392 0.209517 0.0297658 0.170764 0.249593 -0.171729 0.124375 0.265598 0.115445 -0.0557133 -0.123505 0.0669285 
SPO77 0.0730108 0.0340764 0.0303416 0.266278 0.0365865 -0.0399652 -0.0539082 0.00613569 0.238615 0.0133527 0.142207 -0.00463605 -0.167859 0.0224877 -0.322656 0.168731 -0.0698318 -0.0352453 0.0123112 -0.029748 -0.0368588 0.0855883 -0.0922616 0.0987958 -0.0666062 0.147125 0.0722013 -0.207553 0.20892 0.189705 0.18725 -0.0228374 0.193465 -0.27056 0.28819 0.0172107 0.154063 -0.0548839 0.0234037 0.0613672 0.0319789 -0.0751807 -0.304214 -0.0309748 0.0128231 0.0754714 0.0260972 0.187615 -0.0725544 0.00531144 -0.153852 -0.0734365 -0.230827 -0.121792 -0.0126236 -0.0800864 -0.041067 -0.00772058 -0.00142381 0.194893 -0.097272 -0.16198 0.0533311 -0.0251502 -0.176713 0.0905782 0.0746616 -0.0729194 0.106207 -0.189484 0.00858878 0.00111202 0.201183 0.136903 0.13471 -0.0799713 0.0446311 -0.0687787 0.097351 0.149306 0.155876 0.149636 -0.13526 0.224779 0.0060476 9.20366e-05 0.0627225 -0.0944708 -0.110417 0.0839089 -0.0143595 0.0244584 0.0451812 0.000705383 0.0524378 0.0540344 0.187612 0.0597548 -0.0782029 0.056693 -0.0590884 0.0904245 -0.0888725 0.166642 -0.062734 -0.147884 -0.00738828 0.183319 -0.0393013 0.159622 -0.0383743 -0.198953 -0.0488524 0.058034 -0.157842 0.0282193 0.236285 0.149881 0.0434022 0.176072 0.23817 -0.161629 0.109991 0.259299 0.121094 -0.0732484 -0.109294 0.0543817 
SPR3 0.0663759 0.0450028 0.0407827 0.239144 0.0379971 -0.0114629 -0.0573873 0.0155271 0.227818 0.0266963 0.13605 0.0121366 -0.153546 0.0113537 -0.278152 0.160874 -0.0693354 -0.0177787 0.0224868 -0.0315112 -0.0443277 0.0900693 -0.0880973 0.106465 -0.0425039 0.157227 0.0806199 -0.181595 0.208647 0.168663 0.164824 -0.0195464 0.167914 -0.261755 0.268477 0.0152878 0.157516 -0.058148 0.0187414 0.0625344 0.0272579 -0.0615477 -0.294868 -0.0390431 0.0159745 0.06864 0.031029 0.196098 -0.0687498 0.00866635 -0.165895 -0.0762859 -0.214534 -0.135735 -0.0032632 -0.074201 -0.0503678 -0.0161864 0.0154122 0.209858 -0.10653 -0.154529 0.0621807 -0.0286629 -0.160641 0.0685926 0.062632 -0.0826981 0.0821574 -0.176642 0.012264 0.0106743 0.198794 0.12982 0.118422 -0.071909 0.0522954 -0.068927 0.102234 0.130164 0.146731 0.152501 -0.116297 0.205375 -0.00323872 0.000699751 0.0597649 -0.0945627 -0.101609 0.0694135 -0.00860232 0.0174171 0.0604836 -0.0195357 0.0633387 0.0386547 0.190534 0.0742676 -0.0629368 0.0688807 -0.0727836 0.100094 -0.0912569 0.144889 -0.05402 -0.153764 0.00755064 0.178475 -0.0455574 0.150267 -0.0403333 -0.183559 -0.0453861 0.0506703 -0.155052 0.0321458 0.221283 0.143594 0.0525185 0.141423 0.204913 -0.171007 0.0902321 0.259413 0.113701 -0.0736484 -0.103396 0.0372274 
SAE3 0.0706653 0.0547473 0.0333788 0.241742 0.0395527 -0.015815 -0.0766421 0.0303791 0.228686 0.0093612 0.152894 0.0052811 -0.157947 -0.00750707 -0.247568 0.166387 -0.0581528 0.00217087 0.0358698 -0.0220736 -0.0322256 0.0900073 -0.099969 0.103656 -0.0184441 0.180275 0.0821159 -0.156032 0.206473 0.168897 0.14454 -0.0150977 0.155037 -0.243606 0.266229 0.0143409 0.178521 -0.0466557 0.00416923 0.058281 0.034839 -0.063262 -0.271219 -0.0207223 0.011997 0.0683541 0.0411975 0.221163 -0.0625136 0.0386887 -0.184872 -0.0727403 -0.203366 -0.135995 0.00553824 -0.0533597 -0.0566299 -0.0372874 0.0130042 0.219796 -0.123541 -0.139005 0.0906771 -0.0427249 -0.136756 0.0542769 0.0525397 -0.0998104 0.0737405 -0.182209 -0.0112863 0.0196799 0.19531 0.101299 0.086529 -0.0773671 0.0251774 -0.0739553 0.101144 0.137998 0.154647 0.144595 -0.120917 0.188346 -0.0110445 0.00137836 0.0495607 -0.087276 -0.0663761 0.0559733 0.00838293 0.00788961 0.0836739 -0.00953506 0.0639324 0.016172 0.187867 0.0750894 -0.0463987 0.0508008 -0.0570037 0.127427 -0.0926058 0.127006 -0.075751 -0.151308 0.00945579 0.199945 -0.0583578 0.13209 -0.0167112 -0.196087 -0.07046 0.023087 -0.168033 0.0175652 0.227583 0.131352 0.06476 0.161956 0.221299 -0.174983 0.0865761 0.26831 0.124057 -0.0809997 -0.104428 0.04833 
RNP1 0.0701638 0.0745696 0.0556183 0.263334 0.0473333 -0.0104684 -0.0885123 0.052284 0.270636 -0.0423925 0.183981 -0.0418506 -0.177332 0.0108761 -0.279404 0.191589 -0.0527363 0.00265381 0.0209877 -0.0327104 -0.0474066 0.090062 -0.143162 0.157981 -0.0103382 0.203257 0.142249 -0.21357 0.211081 0.203959 0.16969 -0.0541396 0.181135 -0.275362 0.334841 0.0202904 0.197519 -0.0219159 -0.010761 0.073467 0.029172 -0.0981197 -0.296048 -0.0262417 0.0147508 0.068495 0.0289931 0.245086 -0.0738613 0.0505201 -0.217121 -0.0448498 -0.204427 -0.0898292 -0.00563016 -0.0162366 -0.0561967 -0.033771 0.00494924 0.261769 -0.126365 -0.164635 0.0590367 -0.0479089 -0.15615 0.0967547 0.0655685 -0.0759459 0.0607732 -0.193069 -0.0392981 -0.0208436 0.230801 0.125004 0.106644 -0.0462979 0.0370152 -0.123561 0.154594 0.16635 0.144107 0.196743 -0.148408 0.220738 -0.0180467 0.00375443 0.0597618 -0.10426 -0.0957165 0.0979099 0.00119181 0.0179419 0.063921 -0.00489988 0.0262702 0.0144659 0.181085 0.114485 -0.0454595 0.0266817 -0.0473251 0.106829 -0.0897986 0.165563 -0.0659149 -0.158466 -0.0157831 0.191084 -0.0773804 0.149027 -0.026386 -0.226868 -0.0639402 0.0179581 -0.201391 0.0051755 0.258939 0.189859 0.0478539 0.192639 0.270626 -0.212168 0.107447 0.301403 0.114588 -0.0872687 -0.100971 0.0618928 
APE1 0.0602247 -0.00061093 0.0306685 0.249362 0.0298239 -0.0342374 -0.022771 -0.0163468 0.204862 0.0659113 0.104461 0.0520914 -0.159059 0.0440127 -0.342377 0.147891 -0.0901502 -0.0642178 0.000774017 -0.034473 -0.0440278 0.0846428 -0.0312792 0.0531821 -0.10959 0.0847715 0.0545486 -0.20848 0.227417 0.160457 0.194069 -0.00430925 0.193813 -0.273207 0.254537 0.0165175 0.127761 -0.0850648 0.061709 0.0614197 0.0236636 -0.0400222 -0.325734 -0.0675906 0.021802 0.0700225 0.0214822 0.141906 -0.0786901 -0.0419497 -0.107975 -0.087955 -0.252904 -0.161456 -0.0120797 -0.143931 -0.0338939 0.0424897 0.0101097 0.15477 -0.0623856 -0.156329 0.0403755 0.00408586 -0.203905 0.0909454 0.0657604 -0.059833 0.113025 -0.181569 0.0800698 0.00934597 0.201272 0.172901 0.169365 -0.0933085 0.0755728 -0.0290208 0.063255 0.111436 0.148641 0.132272 -0.118965 0.229638 0.0364349 -0.0120989 0.0824639 -0.0878974 -0.156924 0.0887398 -0.0244174 0.018808 0.021703 -0.0288092 0.0947185 0.0990586 0.19096 0.025769 -0.0984949 0.105366 -0.0881415 0.0504843 -0.0974671 0.158127 -0.0361367 -0.140036 0.00699915 0.170478 -0.00176076 0.181237 -0.0822346 -0.146389 -0.0136532 0.097601 -0.0993871 0.0501315 0.220633 0.124589 0.0544662 0.119412 0.170621 -0.126448 0.0798021 0.231172 0.125686 -0.0536751 -0.122392 0.0375638 
HXT4 0.0587867 0.0454988 0.0383695 0.230117 0.0438768 -0.0123174 -0.0666971 0.0381345 0.222206 0.00752239 0.152459 0.00179884 -0.161277 0.00877732 -0.260764 0.166354 -0.0530581 0.00276401 0.0404072 -0.0298692 -0.0410727 0.0911358 -0.0886824 0.110419 -0.0240383 0.179181 0.097326 -0.177099 0.200908 0.168598 0.144431 -0.0234272 0.157206 -0.245078 0.266614 0.0176849 0.167517 -0.0417269 0.00762496 0.0717538 0.0390271 -0.0636818 -0.272173 -0.0445509 0.00804629 0.0601808 0.0366184 0.21381 -0.0678378 0.0321151 -0.172738 -0.0705976 -0.197929 -0.128591 0.0110869 -0.0621782 -0.0462912 -0.0282095 0.014626 0.206472 -0.113465 -0.143951 0.0766171 -0.0532625 -0.150028 0.0489623 0.0565775 -0.0842434 0.0602966 -0.18272 -0.00339352 0.00714665 0.197239 0.111228 0.108073 -0.0689313 0.0241705 -0.0905819 0.11362 0.125202 0.14677 0.165518 -0.128849 0.196903 0.000171171 0.000598858 0.0675891 -0.0930736 -0.0786739 0.0751847 0.00325975 0.0114274 0.0700344 -0.0269717 0.0624033 0.0249045 0.177834 0.0836815 -0.0411208 0.0624367 -0.0645613 0.112393 -0.0740614 0.133283 -0.0513944 -0.144192 -0.00249332 0.187402 -0.052297 0.140736 -0.0313288 -0.194414 -0.0623064 0.032908 -0.166295 0.0204961 0.232239 0.134598 0.0760726 0.150148 0.20327 -0.171341 0.0833555 0.259681 0.114726 -0.0760225 -0.0957764 0.0400162 
DIT2 0.0624283 0.0147382 0.0372754 0.236247 0.0353876 -0.022019 -0.0409576 0.0073769 0.216841 0.0431016 0.131487 0.0342875 -0.163879 0.0364822 -0.31047 0.154524 -0.0779422 -0.0387651 0.0120646 -0.0385376 -0.0434014 0.0878041 -0.0494139 0.0763287 -0.0760369 0.118949 0.0769781 -0.204558 0.214328 0.1678 0.170331 -0.013161 0.18176 -0.254694 0.262506 0.0162968 0.139809 -0.0631199 0.0363425 0.0653264 0.03737 -0.0535442 -0.304793 -0.0545105 0.0146265 0.0688231 0.030407 0.178577 -0.0717525 -0.0101931 -0.131703 -0.0832863 -0.226338 -0.138649 -0.00626169 -0.113606 -0.0426534 0.0195558 0.00997507 0.172166 -0.0872656 -0.150764 0.0502909 -0.0185961 -0.181396 0.0642542 0.0648672 -0.0725801 0.0965665 -0.180162 0.0448169 0.00587962 0.209233 0.149345 0.142278 -0.0898769 0.0565223 -0.0517334 0.0775805 0.114724 0.152036 0.147206 -0.122458 0.215522 0.02787 -0.0151438 0.080441 -0.095443 -0.117844 0.0802659 -0.0115211 0.0189792 0.0441083 -0.0235639 0.0813353 0.0645878 0.184417 0.0469177 -0.0858246 0.0845106 -0.0726405 0.0712192 -0.0914125 0.147857 -0.0406515 -0.139823 0.00202046 0.180577 -0.0248847 0.158697 -0.06616 -0.163713 -0.0396391 0.0737426 -0.133976 0.0332755 0.219645 0.119952 0.0609529 0.13639 0.186976 -0.14407 0.0788636 0.244737 0.12646 -0.0617302 -0.11279 0.0406556 
YPR027C 0.0726868 0.057832 0.05849 0.250164 0.0359715 -0.00976259 -0.0638032 0.0311571 0.255711 -0.0224071 0.16125 -0.00125542 -0.160964 0.00879387 -0.300402 0.184494 -0.0673651 -0.0288882 0.00861688 -0.0393701 -0.0668645 0.0797364 -0.124007 0.136825 -0.0370628 0.168056 0.125838 -0.223268 0.213744 0.201901 0.175189 -0.0532824 0.18862 -0.281118 0.311394 0.00950185 0.183422 -0.044175 -0.00183804 0.0800351 0.0175213 -0.0809557 -0.319577 -0.0516498 0.0027788 0.0611054 0.0219589 0.220072 -0.0628848 0.017389 -0.193365 -0.0640166 -0.213573 -0.120179 -0.00908736 -0.0455909 -0.0486776 -0.0132446 0.00445845 0.258691 -0.0947593 -0.162112 0.0466752 -0.0222543 -0.177288 0.0986836 0.0634869 -0.0620438 0.0718093 -0.183913 -0.00341836 -0.0151865 0.227693 0.136268 0.120954 -0.0434315 0.0638566 -0.10272 0.133326 0.167595 0.135936 0.185005 -0.137206 0.220687 -0.010275 -0.00147191 0.0715243 -0.106139 -0.130771 0.101367 -0.0205541 0.0168732 0.0427436 -0.0169367 0.0468223 0.0256361 0.18119 0.0996452 -0.0559653 0.060782 -0.0720886 0.0834418 -0.0985223 0.162364 -0.0411643 -0.160104 -0.0166003 0.188533 -0.0557864 0.167443 -0.0426782 -0.207336 -0.0220308 0.0396173 -0.168011 0.00692871 0.243939 0.184463 0.0581838 0.157644 0.250811 -0.182641 0.0966057 0.285753 0.121823 -0.0574261 -0.109163 0.062138 
YDL186W 0.048902 -0.0301631 0.00902694 0.239649 0.0392564 -0.0418463 -0.00306041 -0.0305745 0.192391 0.098334 0.0801714 0.0700676 -0.154489 0.069239 -0.367432 0.132229 -0.101275 -0.0815384 0.00428626 -0.041153 -0.0427547 0.085373 0.0191285 0.0211881 -0.151862 0.0397753 0.0297914 -0.215472 0.232672 0.147055 0.200226 0.00732834 0.195236 -0.275445 0.235064 0.0183946 0.0965525 -0.0962056 0.0890608 0.0607509 0.0339404 -0.0289491 -0.328515 -0.0761513 0.0333739 0.0785754 0.0214905 0.116649 -0.0778038 -0.063505 -0.0783084 -0.102292 -0.270863 -0.169301 -0.0220932 -0.184692 -0.027641 0.0691118 0.00410081 0.101634 -0.0499482 -0.158493 0.0288252 0.00696405 -0.211497 0.077284 0.0709039 -0.0647741 0.120743 -0.177557 0.124428 0.0278068 0.198619 0.19571 0.197992 -0.118901 0.0812642 -0.011348 0.0359352 0.082257 0.157251 0.113081 -0.114214 0.236777 0.0589298 -0.0241516 0.0962132 -0.0872842 -0.160085 0.08979 -0.0252423 0.0213179 0.011327 -0.0416989 0.112883 0.123595 0.185614 -0.00176494 -0.118089 0.122514 -0.0943283 0.0336789 -0.0908611 0.152307 -0.0298997 -0.134235 0.0198118 0.161489 0.0142935 0.181369 -0.10013 -0.115967 -0.012928 0.126628 -0.0862018 0.0655793 0.209644 0.0922516 0.0600187 0.106755 0.123897 -0.103102 0.064356 0.215215 0.121181 -0.0564994 -0.122641 0.0274561 
NCA3 0.037757 -0.0539479 -0.00733583 0.207585 0.0288823 -0.0396005 0.0111205 -0.0537651 0.141833 0.172628 0.0511535 0.129574 -0.139328 0.0709219 -0.342647 0.0952477 -0.105938 -0.0741778 0.0176167 -0.0391504 -0.028568 0.0963737 0.0911169 -0.0454185 -0.163568 0.00720836 -0.0219695 -0.158943 0.234941 0.0919071 0.17919 0.0618153 0.165737 -0.24059 0.169661 0.0152521 0.0605009 -0.131247 0.124139 0.0623994 0.0394761 0.0234921 -0.308438 -0.0823525 0.0433309 0.0764696 0.0399822 0.0759639 -0.0745266 -0.0760549 -0.0385261 -0.12896 -0.278267 -0.215558 -0.00752885 -0.253706 -0.0357905 0.0780112 0.00757247 0.0360614 -0.0479388 -0.144244 0.0627702 0.019254 -0.213676 0.0231494 0.0632869 -0.0847258 0.125339 -0.163295 0.16952 0.0710133 0.175775 0.192991 0.195281 -0.159009 0.0768746 0.043832 -0.0104518 0.0292372 0.161679 0.0694648 -0.0960899 0.215094 0.0851266 -0.0326748 0.0897817 -0.0790528 -0.141866 0.0566275 -0.0138464 0.004758 0.02629 -0.0678569 0.169441 0.149862 0.208034 -0.0426141 -0.122897 0.15938 -0.103602 0.0415457 -0.0829851 0.119726 -0.0346254 -0.125991 0.0566102 0.167957 0.0413766 0.174988 -0.11088 -0.0625273 -0.0162588 0.142259 -0.0449561 0.0945468 0.178794 0.0164299 0.077871 0.065266 0.0296319 -0.0618359 0.0276904 0.173837 0.124983 -0.0606185 -0.121245 -0.000131788 
YCL048W-A 0.0470625 -0.0504911 0.0014135 0.235948 0.0297284 -0.0534483 0.0206472 -0.0615879 0.17017 0.154074 0.0504031 0.115402 -0.155734 0.0934843 -0.393295 0.106614 -0.124387 -0.111884 -0.0119543 -0.0355472 -0.0489301 0.0977545 0.0622891 -0.0380221 -0.195885 -0.0225455 0.00228724 -0.201087 0.254697 0.115127 0.211821 0.0285598 0.187059 -0.275293 0.201724 0.0233962 0.0547982 -0.134903 0.135815 0.0654655 0.0288806 0.0056898 -0.346265 -0.0931454 0.0443715 0.0737409 0.0240818 0.059482 -0.0866208 -0.105721 -0.0267441 -0.120102 -0.298777 -0.198232 -0.031916 -0.249624 -0.0236156 0.106397 -0.00564404 0.0472404 -0.0324524 -0.162031 0.0200869 0.0418456 -0.248074 0.06929 0.0771413 -0.0530975 0.14967 -0.164946 0.184741 0.0366091 0.191592 0.225304 0.229013 -0.142598 0.110615 0.0351711 -0.00783166 0.0592998 0.151631 0.0894169 -0.109951 0.239888 0.088894 -0.034801 0.105034 -0.0850381 -0.19026 0.090145 -0.0364518 0.0100976 -0.00955812 -0.0604402 0.155997 0.17292 0.200784 -0.0344323 -0.142579 0.157441 -0.113803 0.0108074 -0.0966523 0.150605 -0.0262577 -0.119916 0.032811 0.148719 0.0519755 0.200137 -0.133897 -0.0631743 0.0135136 0.157301 -0.0353127 0.0938318 0.19173 0.0555053 0.0609782 0.0688314 0.0556598 -0.0664586 0.0422983 0.177874 0.124603 -0.0517179 -0.130726 0.0210717 
YLR149C 0.00504288 -0.113648 -0.0516258 0.158358 0.0381564 -0.0256013 0.0450576 -0.0842607 0.0538074 0.337205 -0.00659864 0.258043 -0.114785 0.0804525 -0.300962 0.0167706 -0.143041 -0.0324995 0.0613353 -0.0334905 0.0239093 0.111147 0.256167 -0.174395 -0.194364 -0.0379222 -0.140705 -0.0374681 0.247794 -0.0220777 0.119515 0.16776 0.116392 -0.180909 0.0312198 0.0131659 0.005687 -0.195215 0.192356 0.0463754 0.0921116 0.108934 -0.24639 -0.0917134 0.0656415 0.0980073 0.0801319 0.0293446 -0.076049 -0.092962 0.0249636 -0.209851 -0.267193 -0.318607 0.0412462 -0.3841 -0.0441064 0.0898816 0.0393917 -0.106793 -0.065032 -0.0919482 0.138427 -0.00676705 -0.176778 -0.114978 0.0440388 -0.174842 0.108476 -0.153197 0.267139 0.184354 0.125692 0.175743 0.18577 -0.254345 0.0187066 0.151631 -0.116112 -0.100721 0.216779 -0.0395156 -0.0570451 0.169521 0.12572 -0.0406302 0.0810805 -0.050265 -0.0762702 -0.0274057 0.0334924 -0.0241365 0.0918345 -0.114314 0.288964 0.197581 0.251628 -0.124032 -0.112043 0.237566 -0.115347 0.0850218 -0.0801363 0.0224671 -0.0601805 -0.127849 0.133904 0.193173 0.0693756 0.144253 -0.118824 0.00878437 -0.0737202 0.171738 -0.00644744 0.145654 0.135095 -0.153275 0.134556 0.00270015 -0.139819 0.0014637 -0.0445707 0.117682 0.148474 -0.0857751 -0.123736 -0.0654409 
ILV3 0.0503928 -0.0244983 0.0297342 0.246657 0.0336363 -0.0413696 0.00659645 -0.0367629 0.204152 0.0885471 0.0838916 0.0719768 -0.162202 0.0777408 -0.399149 0.145964 -0.103939 -0.108623 -0.0225821 -0.0410439 -0.0649946 0.0929724 0.0067574 0.0286769 -0.161895 0.0271008 0.0555965 -0.250973 0.243896 0.157363 0.224159 -0.0102645 0.208358 -0.297787 0.258341 0.0148074 0.0980902 -0.101535 0.0958479 0.0762559 0.0187029 -0.036133 -0.361663 -0.0907109 0.0350354 0.0771026 0.00353105 0.107513 -0.0853926 -0.0803018 -0.0732462 -0.0909085 -0.28286 -0.164812 -0.0332176 -0.186878 -0.0230709 0.0954602 -0.00822069 0.113222 -0.0395059 -0.172391 0.00535278 0.0347111 -0.247326 0.108015 0.0794875 -0.0343552 0.130637 -0.176964 0.133245 0.0036375 0.214157 0.217826 0.217989 -0.09939 0.11133 -0.0223135 0.0484651 0.104407 0.149993 0.133562 -0.123233 0.246079 0.0735388 -0.0276855 0.106118 -0.0982189 -0.19962 0.117901 -0.0451723 0.026902 -0.0180639 -0.0391537 0.109281 0.135079 0.189758 0.00506779 -0.134828 0.128791 -0.0997335 0.0036739 -0.0998984 0.175746 -0.0157245 -0.133285 0.00293642 0.1533 0.0228074 0.205501 -0.124751 -0.117551 0.0153055 0.142073 -0.0692481 0.060125 0.216963 0.12263 0.0531781 0.104759 0.131926 -0.0992653 0.0667872 0.21936 0.121795 -0.0440139 -0.132345 0.0298689 
ERR3 0.0485547 -0.0434195 0.00676626 0.21745 0.0305804 -0.0429357 0.00687888 -0.0386854 0.154873 0.145063 0.0643476 0.122902 -0.143537 0.0638161 -0.353786 0.113181 -0.109668 -0.0883637 0.00751533 -0.0346292 -0.0386208 0.0986367 0.0662748 -0.0301682 -0.167198 0.00554794 -0.00333778 -0.174992 0.240902 0.101843 0.191639 0.0360341 0.180244 -0.249153 0.186385 0.0159035 0.0676351 -0.126865 0.117645 0.0544033 0.031107 0.00678237 -0.329018 -0.0834189 0.0351503 0.0709233 0.031738 0.0739775 -0.0841181 -0.0707716 -0.0447649 -0.116061 -0.274391 -0.20656 -0.0127409 -0.240354 -0.0310286 0.0775846 0.0047361 0.0529353 -0.0466947 -0.152607 0.0483129 0.0172013 -0.222143 0.0466919 0.0685913 -0.0808992 0.131417 -0.176129 0.157158 0.0473275 0.183583 0.194953 0.203936 -0.148032 0.0779294 0.0301897 -0.00340924 0.0487111 0.1568 0.083845 -0.0989057 0.222222 0.084243 -0.0286607 0.0865055 -0.0785219 -0.15698 0.070743 -0.0190841 0.00707174 0.0135725 -0.0547419 0.155697 0.152213 0.206447 -0.0328595 -0.124397 0.153732 -0.0968497 0.0350758 -0.0888973 0.134498 -0.0376186 -0.120359 0.0425617 0.16188 0.0375065 0.181818 -0.117257 -0.0822852 -0.0118966 0.134584 -0.0507847 0.0752424 0.187538 0.0472212 0.0709814 0.0796347 0.0565639 -0.0732081 0.0308548 0.181087 0.13174 -0.0569768 -0.129776 0.0110685 
GRE3 0.0746365 0.00679029 0.0346704 0.263064 0.0300474 -0.0468275 -0.0248995 -0.0218473 0.23093 0.0418772 0.107937 0.0290072 -0.166523 0.0642334 -0.385313 0.163095 -0.0948251 -0.0970776 -0.0200568 -0.0361185 -0.0628661 0.0934925 -0.0578647 0.0571968 -0.127432 0.0643066 0.0789591 -0.250797 0.248925 0.185988 0.232434 -0.0291027 0.211484 -0.306396 0.295645 0.0186099 0.120448 -0.082367 0.0677592 0.0745027 0.011692 -0.0540778 -0.358601 -0.073126 0.0277737 0.0677131 0.0122803 0.136169 -0.0723922 -0.0495835 -0.111722 -0.0805277 -0.276642 -0.140672 -0.0399731 -0.134214 -0.0334959 0.0571077 -0.0130835 0.172735 -0.0580864 -0.174455 0.0111749 0.0245526 -0.232179 0.125343 0.0828294 -0.0356816 0.135642 -0.181209 0.0853866 -0.0121626 0.221199 0.201183 0.197671 -0.0831715 0.112046 -0.0469844 0.0776304 0.14381 0.148217 0.152254 -0.130947 0.249862 0.0434736 -0.0178771 0.0849629 -0.0963298 -0.1918 0.116511 -0.0466439 0.025758 -0.00693931 -0.0150966 0.0759162 0.101352 0.188363 0.0374586 -0.116663 0.0933306 -0.087577 0.0295435 -0.108713 0.190684 -0.0383044 -0.141549 -0.00844399 0.161746 0.00258553 0.203049 -0.0942393 -0.155394 0.00437114 0.107151 -0.0971852 0.0456742 0.225231 0.163608 0.0440185 0.137379 0.195773 -0.134553 0.0951338 0.240818 0.125958 -0.0464984 -0.132556 0.0524163 
YGL081W 0.069669 0.0075659 0.0256772 0.246558 0.0401657 -0.0376428 -0.0374841 -0.00273404 0.208972 0.0525386 0.119569 0.0274374 -0.151419 0.0196607 -0.308249 0.153274 -0.0719567 -0.0370218 0.0204148 -0.0316966 -0.0273514 0.0842331 -0.044669 0.0642954 -0.0800671 0.118237 0.0557744 -0.183116 0.219474 0.154942 0.170231 -0.00215656 0.174751 -0.253999 0.256128 0.0124576 0.136673 -0.0716326 0.0519209 0.0546666 0.0264677 -0.0441145 -0.298088 -0.04131 0.020299 0.0695151 0.0292853 0.161458 -0.0753739 -0.00855529 -0.128791 -0.0824548 -0.237167 -0.152298 -0.00903225 -0.119288 -0.0464946 0.00417902 0.00582022 0.153588 -0.0939939 -0.152621 0.0671137 -0.0271281 -0.180787 0.0689578 0.0686749 -0.0845846 0.109383 -0.188031 0.0394973 0.013355 0.183831 0.145272 0.145241 -0.107958 0.0395075 -0.0462213 0.0631089 0.111717 0.149316 0.124847 -0.122538 0.212802 0.0235791 -0.00393284 0.0593838 -0.0858597 -0.100674 0.0751956 -0.00187017 0.0184181 0.0462366 -0.0158258 0.0825821 0.0740185 0.188403 0.0422927 -0.0862987 0.0733361 -0.0781386 0.0845223 -0.0786582 0.145816 -0.0563996 -0.133186 0.010644 0.179905 -0.0226532 0.155141 -0.0563176 -0.170191 -0.046823 0.0708198 -0.129067 0.0435204 0.223187 0.115952 0.0557333 0.143198 0.181943 -0.144585 0.0870254 0.238466 0.128006 -0.0769164 -0.110355 0.0327012 
YKL151C 0.055313 -0.0376586 0.0181496 0.234364 0.02526 -0.0478635 0.0199781 -0.0496109 0.175369 0.135781 0.0556657 0.108869 -0.154276 0.0755059 -0.39113 0.120655 -0.115435 -0.106139 -0.0105099 -0.0365085 -0.0450539 0.0965609 0.0416457 -0.0117405 -0.179671 0.00666518 0.0167659 -0.214389 0.245713 0.13447 0.218366 0.0212208 0.195538 -0.281747 0.222014 0.0198119 0.0727096 -0.125568 0.11051 0.0597468 0.0218544 -0.0127415 -0.348025 -0.0870268 0.0404169 0.0814478 0.0216009 0.0692769 -0.0864824 -0.0881108 -0.0466714 -0.109804 -0.284414 -0.185651 -0.0255177 -0.228511 -0.0193575 0.0955517 -0.00473306 0.0702889 -0.0363076 -0.160355 0.0246418 0.0354909 -0.236708 0.0881733 0.076388 -0.0553894 0.1399 -0.180265 0.162754 0.0283986 0.200073 0.209805 0.211841 -0.126951 0.113839 0.0199084 0.011389 0.071028 0.152332 0.104229 -0.104538 0.232273 0.0792365 -0.0276194 0.102722 -0.0875935 -0.19003 0.0965723 -0.0430221 0.012885 -0.00727448 -0.0542648 0.140065 0.156584 0.20107 -0.0252049 -0.136676 0.148445 -0.10418 0.0119225 -0.096616 0.159287 -0.0215618 -0.12286 0.0272179 0.149592 0.038479 0.200384 -0.134038 -0.0846106 0.0107366 0.139601 -0.0559637 0.0827657 0.19778 0.0867113 0.056005 0.084885 0.0842809 -0.0823146 0.0576529 0.188712 0.127511 -0.0495626 -0.127732 0.0172359 
ARO9 0.0616627 -0.0478428 0.0128162 0.246881 0.0333075 -0.0694738 0.0050963 -0.0316832 0.182774 0.114036 0.0696723 0.0790864 -0.162705 0.07605 -0.405837 0.132723 -0.100323 -0.0961501 0.00226667 -0.0362448 -0.036337 0.100752 0.03125 -0.0116519 -0.190006 0.025368 0.0206889 -0.231112 0.242516 0.143107 0.228283 0.01727 0.202239 -0.275165 0.232378 0.0142628 0.0672383 -0.110735 0.110566 0.0509648 0.0331366 -0.0273314 -0.348548 -0.0839348 0.0432818 0.0725038 0.0197506 0.0791911 -0.0939512 -0.0722838 -0.0485384 -0.0974525 -0.290227 -0.176557 -0.0229354 -0.22106 -0.0228697 0.0972451 -0.0120182 0.0585466 -0.0345862 -0.16794 0.0310252 0.0169437 -0.243434 0.087605 0.0890067 -0.0570875 0.139505 -0.186322 0.143447 0.0162634 0.193098 0.215788 0.229127 -0.136467 0.0888924 -0.00126566 0.0188321 0.0701041 0.148002 0.107686 -0.121984 0.248965 0.084876 -0.0169013 0.0979599 -0.0813076 -0.176121 0.106779 -0.0413667 0.0234046 -0.0104761 -0.0369914 0.124645 0.159002 0.194898 -0.0169769 -0.144283 0.124197 -0.0949219 0.0191377 -0.0810014 0.170559 -0.0314979 -0.119127 0.0104537 0.15514 0.0399108 0.193973 -0.119408 -0.110466 2.31746e-05 0.140332 -0.064902 0.0689204 0.21593 0.0948491 0.0566732 0.112144 0.102688 -0.0869579 0.0587598 0.192548 0.120836 -0.0540594 -0.133316 0.0184722 
FKH2 0.0549202 -0.0278712 0.0204477 0.262289 0.0292383 -0.0531198 0.00326161 -0.0456196 0.212159 0.0889259 0.0822683 0.0653593 -0.170024 0.0908235 -0.412699 0.143944 -0.109536 -0.109232 -0.023672 -0.0348805 -0.0516706 0.0922341 0.00481919 0.0182212 -0.179602 0.0183725 0.0520132 -0.250028 0.250665 0.170357 0.238307 -0.0132275 0.208 -0.306879 0.270585 0.0152784 0.0851985 -0.104647 0.0999628 0.0657738 0.0168683 -0.0346475 -0.359035 -0.0820433 0.0430035 0.0772174 0.0101869 0.102418 -0.0880163 -0.0859446 -0.0739986 -0.0938808 -0.294905 -0.160528 -0.0412049 -0.183402 -0.0313982 0.0969253 -0.0108974 0.108908 -0.0430403 -0.175739 0.00164307 0.0339874 -0.252473 0.114115 0.0840359 -0.0394542 0.139443 -0.177712 0.137516 -0.000335911 0.225769 0.22488 0.231442 -0.106908 0.113957 -0.0114261 0.043121 0.103609 0.151872 0.133728 -0.123652 0.26258 0.0711871 -0.0275539 0.106667 -0.0902621 -0.201755 0.116738 -0.0392476 0.0237199 -0.014475 -0.0379555 0.104569 0.146651 0.194239 0.00224705 -0.14381 0.119627 -0.100132 0.00221735 -0.107283 0.182725 -0.023522 -0.128933 0.000408243 0.157967 0.024466 0.211148 -0.12541 -0.114441 0.00764479 0.144861 -0.0773629 0.0730284 0.230057 0.122277 0.0464943 0.115723 0.144226 -0.100733 0.0771182 0.218572 0.11702 -0.0553363 -0.140011 0.0362728 
