384 128
0 -0.02931640775708913 -0.05644872613795972 -0.02177968253123746 -0.035267641243037176 0.004410972898382622 -0.047770506925962984 0.07523133781510824 0.008826343001926449 -0.04604457146607732 -0.0510113816864042 0.026184273457490314 -0.009125747920709757 0.009996713878836683 0.04081014588328294 0.08217781938034656 -0.022096574452659584 -0.018107892866146332 -0.021135920648561374 0.018984644612403644 0.0659372449049449 0.16313548212311607 -0.058091393976529945 0.019803986934906367 -0.0886728358629693 -0.004283213603635638 -0.029162304306864367 0.040225657962852275 0.07212104293200858 -0.10574840992302675 0.09417276874449672 -0.013358958973256996 -0.1388453700613947 -0.038793252121491636 -0.05283375527010058 0.08542922493040016 0.1077519915299352 -0.028715807088570872 -0.04540673921568314 0.20287264899783067 -0.14631353380594758 -0.10330819413325654 -0.05174020677980134 -0.013261795580153512 0.04873776754073919 0.009985722901389943 0.017638591395963108 -0.06763110851375889 0.05664370471044854 0.10833061417513357 0.011893861824064343 -0.08839570663645734 -0.05049715833901555 -0.0005025345831799923 -0.07963063443314697 -0.0762067104795334 -0.023716066431123853 -0.06271514646212274 -0.012153336845240236 0.15807135321218876 0.021117950007826916 0.0017459552998392563 0.018385944869588694 -0.002741620356139655 -0.09339946032485368 -0.1297306763431833 -0.019283427870859397 -0.043142474847644136 0.11182913966765627 -0.1561036692152254 0.11780343502773552 -0.023899669251892665 0.019828053068246723 0.10753029615254163 0.05877440130680112 0.017894848678383903 0.07715613693575829 -0.09301645800243949 0.2058822946400826 0.005405455836942955 -0.22287286940404125 0.17566662611217448 0.08698818655578823 -0.10995047456673479 -0.07622172369061721 -0.011551242114576291 0.05600532014551144 -0.022654311092608688 -0.09712640343996996 -0.021340398936242965 0.045940613942487454 0.023211966671571084 0.03944995961432097 0.005990556920941644 -0.00976384884528579 -0.14206505388874344 -0.13740607865782076 0.10014566336198572 -0.004406356146746078 -0.05461274686037997 -0.05227722514448977 0.10384889811981807 0.024506505875769802 -0.03711762709217943 -0.03421185704909403 0.10587227464732783 0.07104191576999264 0.10339869140983476 0.1796126466503311 0.10462489933979838 -0.007984919582526687 -0.004008080862567395 0.21973246825785983 0.040122117688825815 0.0715185057277695 0.03023359959134692 0.0011383948022343992 0.045255836090464734 -0.012099934554593078 0.05630060667400726 -0.05792740866015381 -0.2885075908204241 -0.008163829068685197 0.06586818556809754 -0.05835941904158757 -0.03779191148334385 -0.11775467025678943 -0.002268906012768394 -0.12124787217183976
1 0.036780268207492514 0.05924583271923551 0.02434513326709057 -0.10168475898201414 -0.05198183174225763 0.08768235359431659 0.18973629431194605 0.07716732395009208 -0.051388489196799454 -0.04952096092213028 0.061162852460450216 -0.010626846720580913 -0.02662069807293572 -0.04913982113211488 0.010712747248942864 0.06516953872095718 -0.03184577892481189 0.1291329093926764 0.09973007691181708 0.00876416747924422 -0.040599298209682944 -0.002179422030094846 0.01778616225660466 -0.0745588736573123 0.0752511312526678 -0.1055169385422256 0.026273584728947533 0.024470107348862766 0.015922185496172962 -0.21018127487776334 0.1429230298880579 0.14238111600249445 -0.08068374265736467 0.0022756159969105614 -0.004084231984854361 0.07749253852312 0.08990751790975773 -0.04135586575200788 0.08897977041972967 -0.15591623191206871 -0.06274145937182787 -0.0050588120203422385 0.1083590932601722 0.05989703214767443 0.04466153957976251 -0.018321215674195552 -0.024764239864322163 -0.09991119188566334 -0.02560357858523778 0.04264090901725012 0.18003865484437592 0.14638068146565503 -0.13172129854966388 -0.0337102546099429 0.1087469488580459 0.05629709996421765 0.12135988587699642 -0.32176808375518046 0.08676472233076443 0.06035912691588682 0.13682050976028862 -0.10092468456826909 0.21824608359620765 -0.044928536160735576 -0.2412536325442528 -0.0347374757850624 -0.07114698549836994 0.04280727470628828 0.0016156764624452276 0.2105091182019282 -0.013298922585605404 0.07740605232173407 -0.047183474782073985 0.13446542216219673 -0.06050367751573462 0.11284565821822945 0.06802839892696802 0.027378354556254123 -0.05122271260609571 0.0027732346402710986 0.02802060065759341 -0.05892643409500143 -0.1007902461519135 -0.0633411378478867 -0.05742520320027764 -0.0009511412056626343 0.20324903548527623 0.20512551079018776 0.030658105862785435 0.055919132654540675 0.13116652257108533 0.2679386853961234 -0.1926345241832763 0.010275027626926787 0.21108744616406336 -0.009169911065394788 -0.10757375048732784 -0.0037106263391370954 -0.010762524984130252 -0.23960035659456533 0.11004996405296463 0.02219161015763353 -0.393215005703641 0.13497831544776093 0.07210634336434649 -0.2213410257772542 0.14832818951777674 0.1817026631880071 0.15590494117227988 0.20854339280573383 -0.15582445787300211 0.07156218317140049 -0.030532603847211136 -0.2536353905240463 -0.04710445786654778 -0.049964478587761485 0.37565772211667225 0.29028202492860633 0.053767163505447614 0.21524379548064648 -0.23863759939769413 -0.21584397647855097 -0.02812128566598934 0.040877409627159356 -0.08812759704092928 -0.1468576888920384 0.13899978933635948 -0.25718047234935326
10 -0.012785189447457893 0.16393093739672165 -0.048322744686778156 0.01457816043942616 -0.007644075563745509 -0.025102747924297363 -0.06680627844782128 0.025821656604794015 0.06492354684496159 -0.11071903945188878 -0.08319480506057826 0.057885775355666316 -0.02685559148283676 -0.008452523404618344 -0.10242997655137585 0.024372669995796823 -0.0055199249589248656 0.10318900961642666 0.007901388307823581 -0.013556622585122581 0.05172271587361899 0.023773994159659518 0.03231651665434249 -0.026668313725741268 -0.08349993407565098 -0.028167739479257516 -0.01006958036947992 0.10429881592368037 -0.11754319633502998 -0.09466818083825526 0.004875837632036319 0.002063265948719161 0.10567975993646848 -0.11869616105832231 -0.07004423185136896 -0.002616786055366551 -0.034459394151658836 -0.010840631113250477 0.020461864743739917 -0.03616111580711454 0.036742215135363854 0.07947472535402218 0.07254406162084125 0.12495142315349929 0.10003868878629861 0.09923409891519255 0.05703607608296326 0.0945151487426795 -0.10457706958251956 -0.005939508087343267 -0.11252037769336584 -0.023537160163305787 -0.014986869823350993 0.026647836432125833 0.046835907954134455 -0.08279400006988512 -0.03376471803344305 -0.04842378443935574 -0.10010257329264832 0.12475932720278844 0.15210718948436402 0.019551852925555235 0.0009628880360798054 0.01584001698252818 0.046154647153014344 -0.05015747564697348 -0.2383131676926303 -0.0914145566304721 0.008432392781183346 0.028576243320498428 -0.01559096811042837 0.10263137969413022 -0.08924958528404511 0.12610186125254275 -0.01628622423774848 0.04962361551981036 -0.23467339293694994 -0.08471825031664905 -0.02408641577439339 0.17747069908748778 0.14122510037418579 0.009540901298655936 0.1837323334564154 0.22899288509344015 -0.0009226732936444602 0.12651150971044148 -0.050960711494847155 0.18040112622256435 -0.038938297819271175 0.09606370930595982 0.27974270806373674 0.1273946131317771 0.0903197307668263 -0.15831800283197017 0.010786822893967828 0.03919953489166348 -0.06344456145225165 0.029343206575784198 0.10359133619278879 -0.015227042986269923 -0.18199789446220627 -0.06543900489635796 -0.027556420348790193 0.02693383011445665 -0.1948161949471454 0.10190076279427936 -0.06911366173799904 -0.22838361525686585 0.19593595919572535 0.01814192174229045 -0.0014802307246530963 -0.04417850684235793 -0.008317779453714019 -0.01278300113486377 0.015378248287427754 -0.042780716478801495 0.07618165294808756 0.13035926149477098 -0.16619616247851357 0.07728378101875252 -0.2058678666515667 -0.3902034299515794 -0.06782687706358213 -0.16022384671169154 -0.35709745777669605 -0.36571527247359975 0.1220626813602797 -0.21048133492417204
100 0.026335184029606922 -0.05442269022027997 0.04045152422798665 0.0005742042795029756 0.0960690281586382 0.09934359043522423 0.026484317161892906 -0.06349391734972551 0.029262784317526925 0.07272436619606949 -0.10631691036271262 0.2375179326312641 0.062091276874115336 -0.005663898545448584 -0.06643298475855396 0.12111493893025352 -0.04046621390262925 0.11886185371675696 0.030431657276122695 -0.0942111072740361 0.13525768473056585 -0.03587915990123864 -0.17303391522417375 -0.21202127938886525 0.13661132842864085 0.16837574837872185 -0.06513924329778996 -0.05113629310725355 0.060233431367894594 -0.06594860187676446 0.03519229427202011 0.004995762208447209 0.06371166700508453 0.00037291811433797927 0.009543909143576106 0.005768313369561267 -0.09516684716201337 0.10147651583770245 0.03893926489318742 -0.048663288406452294 -0.04362804956380545 -0.0057483987499875044 0.03696978188795359 0.0757820474769504 -0.11332251764820984 0.11329702690491898 0.15151339094267835 -0.1140264713645197 -0.08869940556818609 -0.03486551378919833 -0.18685366128627579 -0.025422277019388134 -0.037077975566080945 0.08333596484419034 0.002100873126459109 -0.06107293782513036 -0.16684972135042664 0.02866014607176611 0.05027562442408521 -0.0015943645442052755 0.048982163304084766 0.0546919896085173 -0.18655279401370856 0.02892063006343867 0.2097156217287286 0.14585566834380798 -0.003564602139447239 0.07956624451514559 -0.021744088018327362 0.15649470380616484 0.019591242342232213 -0.007574312285305004 0.03575908056645357 -0.08465500576663042 -0.15566525654661398 0.014393222264105884 -0.08278113884842558 -0.1903453459865285 -0.07555993779768135 -0.0923416872677319 0.06468971400964205 -0.004401251065078219 0.13259393225798732 0.06917911270849778 0.04261176558181578 0.06345331673916964 -0.1366487596560846 0.09143787242483159 -0.04195492213160964 -0.0204687390645608 0.12887254315402852 0.0026072125325140197 0.24740472637274646 -0.28651771104759916 -0.16238668962056282 -0.041723579717602995 -0.09400436086706945 -0.01647522045073086 0.024022889221677883 0.12768376310006718 -0.09858306297033634 0.024382907872426914 -0.16833814186622026 -0.013451514047469703 0.005969659740995196 -0.018586653075006166 -0.10447676869524233 0.10756481311295625 0.17581825310418486 0.15610297923204505 0.1448769524805687 0.13374048684444945 -0.05196087700916699 0.13885284770374448 -0.06088971599791555 -0.010167449923816496 -0.29956673797905176 0.02868592711739918 -0.12846018939724518 -0.14258125192220952 -0.22527348216201706 -0.30743371077619 0.009634581378593838 -0.10751665495847942 -0.2709213661207665 -0.2576154098115703 0.14922627360157414 -0.20730545846568474
101 -0.008039132518486567 -0.002050336160095065 0.05261020828780243 0.03482067318740713 -0.1506187795068405 0.09620139360690086 -0.035915020203526125 -0.010109546660437452 -0.003733691935343395 -0.03747023980544867 0.046628291630305733 -0.0370702452747197 0.05366047625902929 -0.07886042020663175 0.006051984238917351 -0.05888714855514935 -0.30545574707255246 -0.0023462542428201766 0.14261914326837016 -0.06415727862112723 -0.10883837354446055 -0.03307138941597743 -0.06337682674433465 0.0360926404814806 0.0990808941911454 -0.1648234848637312 -0.05880693962122614 -0.10849124875592496 -0.013777297071766208 -0.06632717158250526 -0.1072442627621509 -0.21549009941361727 0.0506166380932234 -0.023046341469271023 0.12173870635052657 -0.1577099404123649 0.045909916981981255 0.15524610469836778 -0.08780818013967387 0.13698147632170024 0.018394245895097985 0.0260095793676599 0.010543125279105657 0.04368325833034096 -0.045413878805297875 0.026236619391964096 -0.010893227884298216 0.06892086959540711 -0.03250622789311079 0.04573985445008556 -0.07402123509270471 -0.07711798539540464 0.12755936913863686 0.022697191112470216 0.1120746060494348 -0.0432244081613557 -0.07029698807801472 0.08626837838277514 0.15340171124758772 -0.04121907239233681 0.04863890548047855 0.044666871646920944 -0.0985869794140563 0.030612338893672028 0.020758890010960526 -0.11632300459866898 0.009917178610513014 -0.10210211164551987 -0.0506131151250083 -0.22361913142612888 -0.09171393074792765 -0.21189090561026605 -0.204030932673959 -0.09592040023304632 0.0886107893909888 0.07687015749696868 0.11709812758765833 -0.13729993669351534 -0.017615239059347497 -0.03809965312966444 0.12078745929334704 0.1537324079974145 0.0337613012310593 0.010435865920102027 -0.029338779405427902 0.057954769630227436 -0.10911545522039556 0.1544915813540178 -0.10211043168190526 -0.2273182717215832 0.009128605577129925 0.13925106321440142 -0.3299596246417979 -0.27627895697369487 -0.12942873212848482 -0.12798754720032374 0.05027697431224632 -0.007577211149070308 0.18018128177288428 0.012445509647219234 -0.29584029572697657 0.11804210157403501 0.43807964107713726 -0.30013689380654146 -0.19186783383856656 -0.059773505526644684 0.19716546052828596 -0.15630539391474293 0.1342535972570236 -0.06934146590800971 -0.0423453673207437 -0.21599694608181244 0.05926459053282726 0.20539879611840578 0.005298604438447111 -0.10133321855400347 0.06320258956412714 -0.43727054887513017 -0.37379960357414105 -0.22338782066581628 -0.06409453123218596 0.3254264237863448 -0.3371722183841125 0.3583987950780062 -0.10882560385973986 0.1251497851277632 0.7946116656101614 -0.6393992448388186
102 -0.013152526569589927 -0.0035040259878455107 0.0016537851294494866 -0.03324987055190981 0.14340531866426576 -0.11103560865285929 -0.010663617825622675 0.0007752222976345984 -0.14378517976806146 0.007003004282642586 -0.007487442605310228 0.020070058779503016 0.04132985649753441 -0.005972488485503016 -0.14724547592787485 -0.0959019584793599 0.011546416194482042 0.07777645391854102 -0.015555227886755323 -0.016246450499691853 0.021839461740680723 -0.01869459098648933 -0.053878374930322895 -0.012139409135804448 -0.05886664545952316 -0.15293331903776888 0.056817473334180295 0.003524206741594879 -0.017891551939664706 0.040343495564516475 0.08141634091664088 -0.02370386222432594 0.05784461609602051 0.009485620458796787 0.0021357970389162388 -0.0691899429462502 0.002489590964031404 0.035221308518721246 -0.059545447108021746 0.005992989818690994 0.05903030834156605 0.12089723440658057 0.08322827694039277 0.04284768120680774 -0.08288878504338629 0.03697544610456096 -0.05257281556014985 0.011100001741136243 -0.056954446717212566 -0.09481021712477324 -0.178736662323206 0.029709211814619975 -0.05693714764914917 -0.08748372738884347 -0.08585560432146598 -0.03248399759034833 0.06060136224496658 -0.03251645650977189 -0.060117725028884475 -0.1060834724432785 -0.1223967141971168 -0.08406614206880046 0.07576646933300019 0.061475419267818285 -0.061302783885980615 -0.07445579998690863 -0.19112809636478623 -0.12391582903010377 -0.09931555778979444 0.06872182665951754 -0.13507810277331697 -0.020426300273775965 -0.15718059388647374 0.022731912405485447 -0.13448201499704066 0.09997500388233758 -0.0607181131472981 -0.0533494208102757 -0.14076309693393543 0.026949380437227045 -0.12225715913540317 0.027221746717001172 0.10177603648170293 0.12613729501783066 0.07370621843467673 0.1943962668764889 -0.006728733023706628 0.12203959063166699 -0.12707102472977974 0.021118877268111676 0.14775965595990123 0.025267446293142447 -0.03416804779891653 -0.128645586201476 -0.0498860279186545 0.06498511000965204 -0.08004075011930965 -0.13495959181354672 0.07133956245910301 -0.09840502938471643 0.01586540763699486 0.07480832278386662 -0.058860047882182735 -0.0939301176327468 -0.19730334211266257 0.039946734441500105 0.021573707188486325 -0.024549689641020753 0.2138162198838924 0.015330163143693907 -0.024266589724484172 0.03251365635889902 -0.13813486716937515 0.09905169818563889 -0.02511451622741926 -0.09894646408373035 0.006982312638043282 0.111773227820037 -0.15270585699814412 0.015868586623922345 -0.2535065943648303 -0.30504041806818255 -0.009935804913810051 -0.10942984166231236 -0.2728731184432268 -0.25155585347562254 0.09664470474062184 -0.1886137000863041
103 0.010029649626157124 -0.02985339021399445 -0.13866664933701853 -0.027993230479823165 0.08973494005379301 0.06718642185939923 0.09927451819065636 0.04448336958877316 -0.045955705497501706 0.03870647301128054 -0.12736087357127382 0.059940642742944104 -0.10491921305405279 0.014451685181797048 0.06636603892413913 -0.13077381766152693 0.02764489380123969 0.06838681488057582 -0.03334334256156332 0.03377502217465043 -0.019103918094290802 0.039488119534463996 0.02354039048428066 -0.13655231103390278 0.2635723242015481 0.1374431138853798 -0.06631963904066085 -0.016208146365694884 -0.07346238004985627 -0.031546460373725244 -0.07394760912890673 0.05340212569517113 -0.04534841887694882 0.10705675459851421 0.08090076830768762 0.005192327976547918 -0.012669844724143469 0.004187602296588711 -0.08066100324005804 0.02705896662625281 0.0040364664615517645 0.01249407979302615 0.014265243425598052 -0.018420855526735048 -0.010657190433408428 -0.02436729950935461 -0.010086700800397393 0.023739545671245102 -0.009241214311620281 0.05268903693775342 0.03166628884915436 0.009735207304274443 0.02121250414978849 0.03833513394227597 -0.03857232005611711 0.01571245953992717 -0.004662173790390187 -0.006517813503483799 0.0028900602529314014 0.007847976296031263 0.07768027255288874 0.008293041055979684 -0.021560349630725305 0.04301365941909162 -0.006970267785483854 0.01510587210147319 -0.007075217506457807 0.015434316615523504 0.08562283545756245 -0.007729067361281346 0.011593402984197431 0.0076306067070501925 -0.04700285180309521 -0.06660616093357821 -0.007160738089689766 -0.018587473191733164 0.10485349046874445 0.02780448455019246 0.001103723388047434 0.02608722677438847 -0.11309793024858474 -0.19594382940191424 0.013131135843056732 -0.39217824925834766 -0.030873332639181784 0.052336142415647366 -0.00396538687872251 -0.013170669826714517 -0.2736149166217123 -0.16085386248153308 -0.2948751734614044 0.09949063571482172 -0.05263540158736489 0.0509118268664226 0.43202474968684607 0.36630681952537025 0.2027330343316301 0.1317589437160717 0.0888465426159834 -0.13886068790008368 -0.1704103766283641 -0.0027988315482549613 0.5072484331795987 -0.07136002369201837 -0.17779399258016437 -0.06542979243872078 0.11346559415257797 -0.23197200664274112 0.012257426792311482 0.21292906837906775 0.10975196124350615 0.23201308451587077 0.20753983856823502 0.02673089817139528 -0.27013161303177613 -0.16944460295287136 0.0049718124348237846 0.2229535099413765 -0.060010482127842484 -0.014816119506135048 -0.005595323183400454 0.2942009134145877 0.5177158362132257 -0.08566423506611542 -0.1124979185782436 -0.14744023764778053 0.0334682899185268 -0.20535256065806282
104 -0.016218573992757144 0.14576231070520274 0.12806758265822518 -0.1648176353784769 0.14886252098912703 0.12564503484233802 -0.02000580350147098 -0.021888505942878427 -0.06811100479934845 0.20624887701677422 -0.0840038774836962 0.05531724901503018 0.035142879499963656 0.0019099223688903073 -0.09390417386618113 0.2252682912703783 -0.01701251352110009 0.005716627044742222 0.03292502256951037 0.005655671300817568 -0.038073535972963826 -0.06197814545234018 0.06677599927269276 -0.04599677977262563 -0.11389634883971748 0.061148279282269 0.055873060930922785 -0.10951521646056017 0.10184512378741209 0.04352890307756685 -0.0053863459924143355 -0.05929274592292563 -0.08264210020910968 0.04099308744052099 0.059772193845942026 0.11652640014353342 0.0031077358746031667 -0.04643953038159355 0.16441191248043444 0.07161827397507284 -0.006748502703993376 0.08698197743044078 -0.06843461187590298 0.0006883403917326885 -0.11202401705869795 -0.002270233082350989 0.1304312212662302 0.15140533172017043 0.025066896611575035 -0.03611425744737803 -0.05507088753933958 -0.03662292623227475 0.07585381868393999 0.23989676523956502 -0.055575633831631985 -0.05709993249310915 -0.04012390814820109 -0.07584788659713163 0.10030007856664508 -0.010833402489644532 -0.11561619283022417 0.0681257522844359 -0.05176852605151737 0.03228825607863359 -0.16194013015693906 -0.07857519417420816 0.12330598026857577 0.0863621585264649 -0.08444750457321654 0.12435451171063393 -0.04713211717209567 -0.10019335432100067 -0.007348277476876052 0.1749593932713432 -0.08660936943290905 0.091216097980214 -0.11792809327799185 -0.020879927094880815 -0.03189505738988721 -0.13870178408119557 0.036463244403796106 0.10098530746588565 0.24674107352774616 -0.01785953086923525 0.06697750758213289 -0.17819275897897724 -0.13506129448303628 -0.18931983906086955 -0.0530860412082902 -0.1373513507960218 -0.24350114536020304 0.06412330429191614 -0.01693168313896421 0.12396564009634528 0.014559169506354405 -0.2761038406330584 0.02470858842485543 -0.09660518253211568 0.19560929204140987 -0.07241591410828939 0.006048183627712836 0.17856654616088963 -0.0634622509425583 -0.24197132230942156 0.007936814222393763 -0.0917982461090025 -0.17229374403175715 -0.11572744065165112 0.020262460094410763 0.30713857161020364 0.27863038549716895 0.3292656971111993 0.02548114821509659 0.1453467544821369 0.5019183346905639 0.11273845916799959 0.14683748818072048 0.023926628651740035 -0.03885103616374723 -0.1492991766242507 -0.20862810015505467 0.024655809751251954 0.18345673677886087 -0.14390457701850626 -0.15340058943740842 0.052344689187198 -0.17947760294298673 -0.27528016196167776
105 -0.015269900838634736 0.007891641656943324 0.004882579316644896 0.10630206455538643 0.0697624348176629 -0.0006785285697959569 0.015652631660910687 0.01733113131804347 0.07010133787033752 -0.10518550054932364 -0.057896680132976164 -0.06459553313437419 -0.06287874656244855 -0.0049300323593456504 0.008033454792449464 0.21040380917307408 0.06303568872729526 -0.06315380244868132 -0.14347949090273712 0.09957687924028963 -0.0200705460976335 0.044362118416792475 0.16165516757920156 0.08392629762021923 -0.04416510603159827 -0.0428321463688489 -0.021042110322477915 -0.3478801945477685 0.15615389205595556 0.15991062825981367 0.054595315825780186 -0.05077873978101498 0.1552491889215271 0.0725927568937455 -0.013794168961701266 0.0648058196436047 0.04771264392706677 -0.23794774336912985 0.045739816393142355 -0.0818640908010741 0.05419851988157597 -0.02371280380061512 -0.03611036093431596 0.04099142279003204 -0.05674485186262723 -0.09917416826574857 -0.022173419863997186 0.023521961725715624 -0.028438097607601326 -0.02187120859750592 0.014072497129423548 -0.1376878949041399 -0.022610751890011528 -0.05303394333567032 -0.20137549009270483 0.047319001181044255 -0.09903972547811989 -0.0492657595538864 -0.18158724749866445 -0.04626311372344772 -0.2096004174937138 -0.04996168399410507 0.11354399363579579 -0.03423310628838303 -0.040808617646832135 -0.0805429898667119 -0.15747664196862826 0.02508623192056759 -0.03144115134149799 0.05859167268054201 -0.04904158427433436 0.15356602105303435 -0.009642880426681254 0.20544342670489657 0.03194753859472474 -0.05945987937666748 -0.06641245850672434 0.20257780403658107 0.0528087803821546 -0.21164124255375016 -0.09021481166444546 -0.34686468413492727 -0.05736025543481771 -0.2919604342249385 -0.023424205047256196 0.014660301174434924 -0.1437278749993723 -0.09493656473858104 -0.05966187371858572 0.20691570656786315 0.2655545246528841 0.053204265354993036 0.16162856938166073 -0.013132230091478191 -0.05801100452659612 -0.1877199155051956 -0.05398637850602595 -0.2573796465587873 -0.02770907233330674 -0.044421300929640174 -0.21117025325408534 0.19842298320851484 0.13434460332103454 -0.30382754000432505 0.10024425251419315 0.21850025073429818 0.23391197287827997 0.1586678982278906 0.07076824439455129 -0.17730492273605508 -0.03440996138872097 0.28063941018407923 0.023529553747477384 0.26081962438397793 0.1038999920956627 -0.04638645169471017 0.14673677148681646 0.020341114423466273 0.13192826174417036 -0.0038591675897183507 -0.1364575399640188 0.20285908915179596 0.12555108816588118 0.08682534562863196 0.011925567241895578 0.17335524283627915 0.3506109101401268 -0.4777000345475951
106 0.027657175562480634 -0.15649961264140916 -0.022215563034068662 -0.03962546955603578 0.09544903039502342 -0.03526333583508658 -0.05579227468404709 -0.011179726837152019 -0.022611083573297247 -0.006664209205395913 -0.02695421048166054 -0.12091675617626096 -0.03993274943671113 -0.02047747831054043 -0.02489445507165596 0.07469023587287067 0.032586166580383935 0.09170988149819967 0.00039720564467864004 -0.017047057134551097 -0.16220483242694117 -0.033192417011209494 -0.05532427643117884 0.011347855586107833 -0.14057113454182107 -0.12385352923433283 0.03061024585621023 0.02359492712129245 0.005511512429492161 0.06410027648485553 -0.03363968934695092 -0.006996090635626915 0.07724759784577832 -0.05546590533171828 0.039121959213079927 0.08216901592423882 0.06258745205785728 -0.03715281460192395 0.021291784293472515 0.15319019674718978 0.05203431228706378 -0.09395148334859472 -0.0014434191386612277 -0.014132447984604016 0.025323246889446527 0.09727134459980268 0.035048485566708976 0.014400755729114173 -0.03801187640414726 -0.026622292225129848 0.08451165786730831 0.06197868646215722 0.08775136710760027 0.0580373570188084 -0.059254462851146 -0.0669848649679359 -0.041665790606276405 0.02472080352703354 -0.03809852677694077 0.039236049853294944 -0.07777051288583785 0.0001741414852523506 -0.04833028552062478 0.07707823804323785 -0.1982743972596151 -0.06691875314400754 -0.0828296925445351 0.10500697721515559 0.0030286733994187133 -0.15105544759871478 0.16607060632899712 -0.1379714139571396 0.059204985175430484 0.0654749689366196 -0.07925188055792505 -0.03453440435400881 -0.18627542309822454 0.1113799073404144 0.06587717076947731 -0.02108898908984903 0.2531964192640504 0.04491322273711625 -0.14210103755837344 0.037963381171592626 0.16317357602323038 -0.09296175073812094 0.007675191460134987 0.06668689717832077 0.31093190630287104 -0.1087186005105675 -0.13580481391767008 0.20990274385080313 0.029441354073459016 0.1849063568457788 0.18918164807863244 0.023112615699519654 0.21142868529315256 0.055290581529699 -0.10610751916412207 -0.0006225649932606522 -0.16274815360922312 -0.13872425070635472 0.20057885735376682 -0.08343301347656047 0.13935172345054075 -0.126369704952856 0.13540701349280407 0.12975343571523965 0.0495436821892294 -0.19542178902425733 0.23694857961571256 0.04356641604612934 -0.14059931250218094 -0.21801092827975113 -0.2781792768349623 0.23083681537785924 0.12010011347314836 0.03582428936877118 0.030247657669115136 -0.0961385015483419 -0.20688911385018802 0.07824930835655401 -0.03465359840468019 -0.06167175276104659 -0.12610001728552286 -0.2363675094189365 -0.09651963019190556 -0.15480798171102064
107 -0.006974924360666265 -0.2212225980397295 -0.16793641431919074 -0.09301733417106531 0.09362085746723517 -0.13520601521128664 0.04594788073185685 0.10215338833387189 -0.01685696591469197 0.09809048408668916 0.04048022663459408 -0.1472586006934497 0.06795683063081381 -0.001099398684765946 -0.12516438161240548 0.14591515977815578 0.03215591453489503 -0.1521984179365293 0.08905269963154223 -0.09010221174739047 -0.151397129205757 -0.02950018391728153 -0.16745108809457965 -0.15115243830694924 -0.3279242964065347 0.03886331836104961 0.007611684642157303 0.0215914027732957 0.07018798362275469 0.0048758358211945085 -0.024138674395149235 -0.0021568178893375785 -0.03526553480893028 -0.06430799330358099 -0.09353528901446374 0.019290118545427355 0.10486515630460738 0.009958505226288128 -0.18176224300657925 -0.10653765819468723 -0.07644078388424419 0.12601689504511215 0.09623233018283556 0.06425814031407297 -0.02145142277256364 -0.10203926013977843 0.03871572908470544 0.061344996630534276 -0.03061548926810245 0.09944136072871082 0.06249235873655076 -0.0388547004372787 -0.09459730025599464 -0.03478161248903021 0.11779189005830507 -0.02099385022521884 -0.041337843014016225 -0.07403084701316659 0.05693866135909063 0.016658539061866113 0.039785792703625464 -0.2537325026614134 -0.13365545161036105 -0.14810072639410404 0.07841705084261011 -0.10149218748671283 -0.009459271082038067 -0.056551678050856036 0.12690755124078687 -0.09437931858958855 0.007205790803525075 0.014531959590875573 0.1080972063115253 0.05611018094067269 0.17900139951305186 0.19951144854933855 0.06818056320296897 -0.008116495206650459 0.1237247008010938 0.007267852689107283 0.020386587050405764 -0.029316413309759842 0.11317953422108638 -0.13804701106606931 -0.005359219904356939 0.08953307434807097 0.0440698683003295 -0.050218694204447564 -0.3405503104518215 0.11857673586252714 0.09008145176812253 -0.08025181529148288 -0.21836878927632594 -0.2727965861408431 0.2539920160915941 -0.1514994288547229 -0.0718450373491536 0.21117124118886132 0.16136084194097697 0.46169667643876067 -0.012531783962621666 -0.017962227912689973 -0.09458339382988024 0.11126576534308869 -0.1040196968855879 0.3865760272874119 -0.049584386923288745 -0.02914935933047306 -0.06731347362125861 -0.16663393499542328 0.15196749703375828 -0.1970181507922285 0.26221831050626637 -0.1733267859044002 -0.012351353240787472 0.0038574762153130568 0.029276575605010235 0.08163485851642241 0.14513613571539816 -0.09994430150372834 -0.12085360011617874 0.21664892821386464 0.0563690248698622 -0.03309864117212696 0.025139753370967684 -0.24238846507722736 -0.12224536414639244 -0.15978237828059544
108 0.0011825128216972442 0.07832784183714 0.0537236153790422 -0.05727179236657159 -0.13204385713129285 0.058284910143725825 -0.06030764758182443 0.026168757623811992 0.032945472824500464 0.03297346925310165 0.005039860936649883 -0.054993630084372254 0.009155996722080726 -0.07709217854866454 -0.10378866116657064 0.19349405005760617 0.03979257866161847 0.1591737183868229 0.024581526293484514 0.04024216621640712 0.05385229893448657 -0.015785718974152308 -0.07158122770050503 0.01432886061674993 -0.10369071503775652 0.04140926195283451 0.0006981603245827184 -0.038462615624691644 0.01390235521422914 0.04123786994855485 -0.08029392753323332 -0.043316164518405004 0.0736649604851497 0.08932958702767468 0.17774587784089357 -0.0050327832177719314 0.023158979053165357 0.02103344986847912 0.01043504623553899 -0.07297708223140231 0.05243910637199547 -0.08795844997255932 0.0030297462845481227 0.06286274904940242 -0.09574395091741672 0.1107399870455559 -0.036566674875978374 -0.050004110652661485 0.004580287526086481 -0.08415636193378263 0.01713634051560119 -0.07729862172620161 -0.0036833328393124044 -0.012381817670145347 -0.12760097628576517 -0.17249228290079555 0.11318196715797048 0.2319038068591682 -0.015358850138657891 0.060856171744643694 -0.009392888923250244 -0.11633994733993518 -0.07770687851753975 -0.025993236250261845 -0.15106575703517236 -0.10228966939344512 0.04104716822149262 -0.1771970944573653 -0.04747954223498026 0.1170508995773691 -0.024801109145025674 -0.1116693553063459 -0.08282454848217383 -0.01282019968777312 0.13692940304803516 -0.022550761203355564 -0.09544638820985007 0.017367416086368204 -0.010299934321573634 -0.13485857406097482 0.023371235386562314 0.056152941557875126 0.015474979799998075 -0.05340054797471118 0.048380308681347406 0.33255602066343143 0.05944171315465537 -0.027648790266642558 -0.11247998655062247 0.008983030793958664 0.048904644781279 -0.05388079425504999 -0.10200972574185868 0.0918167373560289 0.02411759157074172 -0.2904059157923283 0.050009657782580194 -0.29311935734707245 0.027860346945752 0.04846570382175218 0.1371496240153671 0.08772487727497594 0.4765060757666546 0.2722681223398205 -0.13811233638415205 -0.2645500534973316 -0.1493092167003265 0.0624734397007202 -0.058921376395937024 0.039646191030002866 -0.057551617702395086 0.3203374854741875 0.09281928247504692 0.029389552494914963 -0.009287474318216294 -0.1417359235960065 0.03310433034468676 0.12370010449222174 -0.03616074630103368 -0.1575715484025858 -0.19514980796271508 0.09600931607900477 0.08502402591827626 -0.0023067121318377155 0.0052283422302948045 -0.06869692036406308 -0.13390218096329387 -0.1821051757495488
109 0.04454707331141403 -0.0648977154055841 0.07030459788211164 0.05091139389977967 0.20301253159669613 -0.16019598506977564 0.0644354091516523 0.008142541743775747 0.052767310022245086 -0.039774749576777686 0.012256531661433994 0.03741988520094667 0.07190539375036147 -0.06447027609861533 -0.19294922841996362 0.08304977181857637 0.030136086444726543 0.10212720465713511 0.004352542052740647 0.0028601300695314104 -0.006499217123262391 -0.0017019975251094217 0.14128298333192454 -0.10710710867084727 -0.06606309719639764 -0.028153599859187497 0.01523711145376734 -0.03551597447107099 0.04125196890710231 0.042615844747823504 0.06435542565840778 0.019351108292355264 -0.06178935509875576 0.024773526105962895 -0.011946502918880782 -0.22725043388978775 0.1321676944531321 0.020075657147817758 -0.009321041123564551 0.06544099130643276 0.023589285662089836 -0.029516692118647214 -0.02743271244220667 0.09435595491177261 0.10668848120410727 -0.09943311886179321 -0.07207312942573699 -0.055733904388312855 -0.0741298314786864 -0.10579156769477024 -0.08262668369083702 -0.08387404011443199 -0.13485574238940184 0.0077786362219589905 -0.1863303679508891 -0.1236691338821063 0.04891094552744605 0.16708733629829453 0.014072999519755396 -0.03310798026981476 0.02212671731482372 -0.006277427835495462 0.008597433315282428 0.11777594278640395 0.0686904473252474 -0.004557035516949029 -0.024146416894853164 0.06313744382190317 0.1067649499095924 0.05422194523748822 -0.12337695204038845 -0.3663677278964814 -0.0762747006624634 0.03480020811647361 0.0009325664200460515 -0.11965379259795704 0.32512438323134446 0.18766625021578448 -0.06007276842297774 0.03938716930206732 -0.12769116695332786 -0.03351514515374308 -0.0032355069434911476 0.12576330510843461 -0.018674110641495694 0.15538903002459603 0.03882260400597055 0.011442522024066084 -0.024378273708740232 -0.4157869175398199 0.25882209191975647 -0.24030493941212303 0.10725086954230265 -0.18735306886185513 -0.005442743240221429 0.35817130079029397 -0.32965436096323353 -0.47240870477578734 0.06145850758608459 0.059241802173949365 -0.053154430975913 -0.10715628241914937 -0.03957568416966099 -0.0695837488138869 -0.166819452556248 -0.10358055571397894 -0.15010090761765527 0.17427669404583299 -0.02922031266208436 0.041138592965060464 0.13213356445758442 -0.12129958651358337 0.07069874336230726 0.10621631047729792 -0.16935259191015498 0.06994495993105422 -0.4001659379147766 -0.0636151086121353 -0.13987764362758953 -0.13283242266215625 0.018417074643104676 -0.45977095546684543 -0.050764652840221317 -0.1572319397689678 -0.4493250905210761 -0.42540640407198954 0.18210433887757288 -0.24461727439048356
11 0.018371536706539196 -0.18243468936964838 0.16704074803048 -0.006389649789820405 0.16921363017391722 -0.23958480673469093 0.03625009016741349 -0.07686011227282862 0.09001302103779743 0.1575479305843852 0.26101512375573105 0.06102595810919382 0.0132881515157665 -0.008978826488808614 0.015732023579382564 -0.08136286762329784 0.09466116952784218 0.022205554512785153 -0.0754396284678139 0.012554017362088879 -0.011282513821566323 0.038807760654017934 0.10340099567288498 -0.07995771703021406 0.10870693637431988 0.1614680418643085 0.04896342452648079 0.07892928647696631 -0.051126648981402505 0.09240074502103918 0.08649873950460538 0.13824312572534678 0.0701716046806914 0.20437169614050155 -0.14293179723727417 -0.054631815477143235 -0.07935972921131289 -0.18570935847827313 -0.10668443261789183 -0.026789967902043816 -0.08842333455053954 -0.045331082966157524 -0.01440943012455316 0.10822938768592517 0.01327532629657001 -0.09064972775707907 0.08509441533689518 0.05220123238295018 0.08228369241841514 0.08659728104148058 -0.3068993637071147 0.08839628596348945 0.10685369843812685 -0.1631594580298938 0.06757326537418408 0.1274974262071157 0.09479970935435948 0.11487893184025036 -0.20354528403406594 0.12223910507741431 -0.03097949662404067 0.13494679268385756 -0.06370522324331475 -0.05048953585635794 -0.3700330911564997 -0.06572578266508429 -0.027465124482209724 -0.10842825232379215 -0.03726721364208431 0.008075031423702361 -0.23706282360899952 -0.05266133728892007 0.0258638037370944 -0.034131282222176686 -0.01940159388312192 0.014057294481420873 -0.003083315877095571 0.019290994441775414 -0.048546172310144506 0.06236614891475434 -0.11509593863451813 0.025238146286118816 0.022945961943351 0.14721023528803687 -0.2598250096857302 -0.1358972257401992 -0.01807871910537946 0.09049718873473796 -0.12041000103286573 0.01668179590551023 -0.15130178592189214 -0.3229644991015407 0.5379372306175962 0.15437294775490545 -0.14549313843242095 -0.14017880117238293 0.4593128309385803 -0.25216348967245283 -0.05438151991644203 0.3755035938092649 0.13167613815014625 0.09562980809192849 -0.06202266371991353 -0.2593371018936128 -0.44666543594880065 -0.21791528781544767 0.053156645910050905 -0.16806491811910954 -0.006845622111746638 -0.31165811709517216 -0.22230341719391014 -0.02149890618470033 0.02481301735717799 0.028885980147738834 0.13960314606872443 -0.11243229554806021 0.3833126224124846 0.33346800256887976 0.27758490256854634 0.29951473425690484 -0.10756104813306476 -0.1594317434354911 -0.1579012410781794 -0.044810784040449116 0.1045550934686533 0.0909627906529412 0.3154721519590262 -0.5033238480831231
110 -0.05118875515895824 0.08378614823665666 0.049763039421943336 0.185604072448528 -0.15532738685919836 -0.0629079384694226 0.15055621223659613 -0.0008457022049548303 0.16502018586247635 0.1830972257508371 0.04717763927769363 -0.020027778130915292 0.03807628123872347 0.04358852079310739 0.05507285957000256 0.0692760232508771 0.0016910044820501807 0.21159470078782872 0.03295024995922449 -0.03940624683193598 0.08929767980851856 -0.006339915513706688 -0.14688840308901707 0.046255400308079286 -0.048768538430853416 0.04042726483273079 0.033883554562546055 0.0877679350675084 -0.0584307983712381 -0.028741710004086596 0.03329390568747067 0.02497323289009077 0.05629359438096639 0.09720090283548322 0.10378219315629685 -0.11597168709169617 0.001443346107160549 0.035935908279496734 -0.04785201598533969 0.09071377245038491 -0.039649750207296594 0.08556547521271675 -0.1290827082798396 -0.05658978104043379 0.023220556525371243 0.030758179597618934 0.09579524086169909 -0.13672418155870056 -0.13576893524661493 0.025851623760544912 -0.06657144289312006 -0.00689137340453606 -0.11834740122819049 -0.016996450482579775 -0.1265797832152976 -0.02882737302850775 0.12802400856473958 0.04135525553588199 -0.0901583663439296 -0.13934963320098492 0.012061715435941322 0.2345169055938111 0.04012305305843759 0.0014146284464352508 -0.14100937768159977 0.1062831141650853 -0.16000576551350043 0.09901448905902645 0.14018783273439211 -0.27985709899372363 0.14637534777041933 -0.13370114383220907 -0.10042347824816983 -0.15290550709207884 0.009706284192234092 0.0019256203326581986 0.15083779920163465 0.11907181794233078 0.07469672518726105 0.08363495583457571 0.06897992242102435 -0.01996698978995658 0.05013077204572011 0.16414075572024978 -0.15986807966902294 0.15220573680024302 -0.08177863645412034 0.010245937118502472 0.08197347052012707 0.034851394212466184 -0.17590273750269017 -0.11799972776564753 0.11401029797622816 0.26503841765923636 -0.030217409149563907 -0.030122481812775298 0.20415983064460128 0.06207607243329692 -0.23016360351415993 -0.2291299920975211 -0.20506337880891223 0.08221125585115113 -0.1953341602041524 -0.22197133814449707 -0.3860017459600442 0.07757735292157625 0.06914831803445327 0.015439535479050054 -0.22733246679594418 0.06658238544471615 0.03580956522669036 -0.17369839373223755 0.03683240229025855 -0.04001618534065006 0.09404633337205623 -0.1776802216686334 -0.08088692428964435 0.10765749810581667 0.02533945162787465 -0.1495659302592114 -0.24129431675948093 -0.018637517163400362 -0.17671592265662867 -0.023811148809672167 0.3693884084390041 -0.1870373843407489 -0.11456666094910165 -0.2364177538935398
111 0.035892772542548995 0.014969758794139656 0.045752085353551734 0.008085447493884592 -0.005932901622901535 0.19319529154211926 0.07717107736239816 -0.033845701311873644 -0.05732983828480028 -0.09038514379560153 -0.17642121514062448 -0.07669638236469091 0.001153102731608321 -0.03145372614259754 -0.05876699101629333 -0.01331936762858398 0.018354039997098927 0.042415443369574916 0.03974711149743161 -0.06181441408808267 -0.07399099839233167 -0.01574374880823337 -0.05968451339435208 0.09998566283421621 -0.20451878486745725 -0.046695946621924826 -0.007692541043673839 -0.06293571053508455 -0.021852854679650938 0.019426702448194957 -0.13708491562455016 -0.05108486866287199 -0.023301381929780183 0.06842252004739915 -0.007702361698682986 -0.04279124797510367 -0.017110888853651147 -0.0922245680634307 -0.09051456491671929 0.0990271394623912 0.11450247795184686 0.027902664401194606 -0.05506623496198745 0.08725656019547218 0.049024129379184433 0.0025843329702207093 -0.05404743576447535 -0.03591901873865646 0.008594031238823609 -0.11564811306340606 0.04982068769276131 0.053115633684563984 0.06546224122151398 -0.008543395026196547 -0.03920961318114043 0.021170970550356646 0.02914325743114646 -0.08381371674104363 -0.01652841341006087 0.07658696336148914 0.14824254050240548 0.0822938373801689 -0.07351540398741933 0.07057824604089988 -0.216284176341703 -0.11625194102918475 -0.034805703694794826 0.0732305676461124 0.05670917460154456 0.08869952830058514 -0.01914218579844735 -0.09132708934551331 0.09486117757855955 0.19069620237424295 -0.007461604796236673 -0.1038172832312355 -0.036742625023251936 0.082474520093879 0.01798977464083565 0.09476875691115724 0.12443189368680335 -0.013424361088285817 -0.08509935221045577 0.022453773801349903 0.12277685771489169 0.002978893046201049 -0.0998366684888338 0.13126068586415815 0.215210777587852 -0.030921165050935288 -0.1125970496387618 0.07779572447305794 -0.04170525311510456 0.08994129505904959 0.24342107224972237 0.07315979359084276 0.1483378196143882 0.024887551223437835 -0.06548119111346778 0.02332844299820483 -0.11031889322978537 -0.12428179715707532 0.1305025529864781 -0.07672926839214174 0.10253710804273512 -0.10564451311428733 0.14830754277190572 -0.07733407463764534 0.10563669260469204 -0.1777623711318629 -0.11744805844321199 0.1293975251948918 -0.15262330223951917 -0.17071179493643154 -0.16626160966873152 0.05985768680245073 0.5128998211155488 0.1904407281986243 -0.19576411262712287 0.18367689380200686 -0.17090626374864726 -0.2672615468781252 -0.14196645127247065 -0.20374805431699436 -0.31050988443167493 -0.3745985269931802 -0.035952580361957434 -0.19889633799867498
112 0.033468440350927886 0.03527185380498884 -0.02122631409885476 -0.07994452912130391 0.028753620784362638 0.04669792106955347 0.08047232557573776 0.044360690050391165 0.04665690528859358 -0.012202538271809659 -0.04250999963103493 -0.05391800731661135 -0.00925909185243478 0.03750014109766208 0.004191124180736233 0.03278293416805144 0.10194917350032016 -0.043950108483131474 -0.02697867416872375 0.0033272312668640737 -0.09169364155893843 0.03217898771190511 -0.035985730298690434 0.014590472401793297 0.013641993519484879 -0.04129720017398963 -0.0726540396072361 -0.09527299940487081 0.0500723806855094 0.07835518039738451 0.19878160556670021 0.030008217040835523 0.004050189392602225 -0.004011657830707639 -0.05095107068456644 0.06867006888620837 0.002047956315692592 -0.01953081138043312 0.003992726925004423 -0.03977760257436817 0.08839322214291104 0.048137178821762855 -0.01935421565504682 -0.010960966148833861 0.1002540498989264 -0.11995093705026413 0.012212475540215536 -0.017926739529371766 -0.04390793632685846 0.08901219650987859 -0.09613901900877994 -0.05976872659751282 0.011319810251544526 -0.04552776786495228 -0.12166731650884437 -0.04553500701755194 -0.04750552414043532 -0.0038320603305060713 -0.008154247028097455 -0.06058301065731283 -0.12923242470310065 -0.0351077745749332 0.07106210538539201 0.03158626936612154 0.12975158366319312 0.03301905636390462 -0.0892503279881428 0.03894073732602231 0.07276433549397922 -0.1312571887824053 -0.06036482796568722 0.1349924076179078 -0.19964531648582254 0.03846813886895118 0.01676105134627158 -0.01905954647087203 -0.06216706777613822 0.10748429390309583 0.1194360116740023 0.039151427151146306 0.0006843714720513323 -0.11727584661525146 -0.05246250320036223 -0.03518272609096136 -0.016162336370063292 -0.02244433628555893 -0.08248088652687788 0.2269198499244334 0.08877382013758632 0.13700391749096769 0.05458559825904254 -0.02605599856168028 0.10928987494839157 0.0706213779166962 0.0035533181290339894 -0.004705238304775897 -0.07962199009453459 -0.04882449536533857 0.04998747466492275 -0.03631059993778086 0.09133186865274977 0.15041783865087532 0.031638968842779794 0.024343188292002976 -0.002558643986227881 0.19489381673912323 0.02631560077331736 -0.1860713757027006 0.15712931444380085 -0.1499510438252845 -0.047241895682460205 -0.05778147616348318 -0.113549892626854 0.050870602739025474 -0.014553896377701304 -0.04082601583664076 -0.18007085470786569 -0.007285988824101674 -0.05285625096201991 -0.06502013590672019 -0.07253205055774806 0.20196183114030125 -0.27747637613706055 0.3977132942580705 -0.13882771299799573 0.21225170702282192 0.7795950482118073 -0.7094149257599628
113 -0.03858178266713898 -0.158726423448346 -0.03227187080902357 -0.130085339075728 -0.06990002439783714 0.09279876531829906 -0.00846505110783858 0.0028617639040983247 -0.01992031903602184 -0.008890751481933268 0.015490215482276087 -0.1586116587171519 -0.04800190288679657 -0.005062648982056175 0.13669520380078323 -0.06826308138956484 0.017819171436784475 0.05997029357548043 -0.01279147823898123 0.0172265494021932 0.10583458295018486 -0.0010787857081979845 0.11570676650417432 0.0299162421877854 -0.0481369510600099 -0.014782020429503114 0.05417383288474175 0.034289576503220405 0.12282561760218577 0.09680225482689912 0.1040453979404809 -0.11915382254468478 0.041720900442048875 0.10731004553362042 -0.07577239713901707 0.06069752925122117 0.06265129353097222 0.042550939897495775 -0.08854618263777254 -0.02692083557164645 0.16457468121640276 0.014261421713469892 0.04218610248813756 -0.020941940370378664 0.09085286467506945 -0.007968303412936431 -0.10840364523963565 0.08118357035723586 0.05889731019642389 -0.02731109544638554 -0.11273889870787171 -0.03289803416167736 0.01210091377400092 0.22149253550536152 -0.0679486080078878 -0.049013532855800096 0.08352734310014115 -0.13097092528263873 -0.03883421368026963 0.1054208348757903 -0.14820291636027746 0.08778414759773479 0.19840918049876666 -0.04436368647617721 0.03051850949910819 -0.024391507325277506 -0.06074387499413073 -0.04857745092986722 -0.02801403673335916 0.012697244956505432 0.17442608338658874 -0.10482179470182171 -0.09293309112908829 -0.03606599760960585 0.19542719760153687 -0.009502684982132682 -0.1336579677617444 0.02384909654359962 -0.08093104673886403 -0.06991726846022633 -0.19747061174165487 0.23252892900271827 0.038216454026004494 0.02708752090457929 -0.0890137464586454 0.014882415748623236 -0.13383341941801186 -0.07101175234116663 0.11433868662231958 -0.1036552047135837 0.22890156317377083 0.15724377627064215 0.11166105722387781 -0.046405424291405525 0.22359196629405315 -0.02384303221117131 0.09998329316650983 -0.013993013138497363 0.07072701222993769 -0.27461292272118487 -0.13956824977513127 -0.11490267279403273 -0.11082087138277383 0.07550687089989198 0.0006908796235503231 0.10121277550774857 -0.18103752639350457 -0.27897859215419324 -0.06604681705002269 0.04843062162230592 -0.40461310722440047 -0.04823750390374564 0.07976388926765354 0.0008023946900102376 0.04225496525837827 -0.023182152625732776 0.03449900535782639 -0.21956396195647745 0.361096138509235 -0.11847296414941932 -0.20949740144570267 0.10405696968198674 0.032481948735183806 0.036997366827738694 0.057848708239451534 -0.3308250875910958 -0.10676663626030104 -0.14534312653869028
114 -0.04059264674900848 0.1027703023804224 -0.006705030268931735 0.011328379511277945 -0.0007297859027301644 0.045926548144580755 -0.041992925752942535 -0.022017183017789363 0.005175980149639396 -0.03366012776191452 0.08194758859147508 0.05573595418754676 -0.0423867012332485 0.026406127299547954 0.09016530979587123 -0.00039698015028432704 0.026864689354201502 -0.10687963849731334 0.0267860153677118 0.004961148683749014 0.07181098936375631 -0.020634533591210737 -0.06394144288260416 -0.04777901122617874 -0.03994298385037928 0.015636353939944107 -0.02013515719881342 0.0065645584305535735 0.07337611607624735 0.007123528251604849 0.02669003629659169 0.04343772033699005 -0.029354186749286453 -0.029984616546011308 -0.07965883146528047 -0.045472316366378676 -0.0023875909227060008 0.05922331543260959 0.055025568833996494 -0.00443381442563229 -0.010691507946729467 -0.1692241378305062 -0.07006118997511832 -0.022356419899980762 -0.013536711480357028 -0.026559658442997295 0.01921441805426322 -0.01826317723158168 0.07940996777496873 0.020835945091380263 0.13428124770191519 0.016281044527817343 0.09218648293041584 0.12957364657016365 0.06096029404086556 0.038910594898776116 0.06637168926422694 0.00832389995657835 0.024611444670808176 -0.1773947259914584 0.06443549382303054 0.0511430311103651 -0.03088868334720326 0.027345755647535348 0.14298420843460447 -0.06806912878067527 -0.09305576357970885 0.018083638800789135 0.032964642784109224 -0.060682808692316154 -0.038916292308907155 -0.027526533830785935 -0.10626016013086208 -0.09418905008670095 -0.13078608322457094 -0.08650511891982594 -0.09797601484655302 -0.044323623672114884 -0.0005182353574645921 -0.029238446319850078 0.01625192830965887 0.08891252984518712 -0.05385045597109581 -0.12487211422039861 -0.09724342597931863 -0.11662585833460354 -0.040102204719579856 0.052026700408067374 -0.008791912456567963 -0.03602033171903903 -0.009102536722031866 0.07963047330151939 0.05437355370823832 0.079340862952871 0.012705607560756475 0.0367906484430351 -0.22884446328380068 -0.0008985036270137321 -0.08645171112405599 -0.21535859783678835 -0.031302924811816 -0.19338112500938978 0.013519219731800383 0.030362736530783405 -0.04542439458207177 -0.0919647608732333 -0.03801756122547669 0.10105618174120742 -0.16678237677203275 -0.07078415217508455 0.12298593122825956 -0.07073758098548795 0.01538317970616638 0.33385210004690336 -0.02100975066885593 0.11783561586315323 -0.14686049057066936 0.04462909614397339 -0.002298628372544883 0.379927018644524 -0.23370126070519825 0.2533268301342156 -0.2653149856325865 0.04528236203125305 0.14159145152325334 -0.40533069064917193 -0.197714819363051 -0.18847340360705284
115 -0.01059732177016954 0.05674451723286159 -0.19846652309202786 0.02647123342299755 0.04035461727454853 0.1308624039869153 0.01880330336980029 0.23813945492950983 0.04086656786651467 0.06627499675690343 0.0838616459931925 0.06805892078307965 0.16578890135055063 0.08985201856515056 0.04128416141320706 0.14728694786224147 0.046606781899318835 0.023807788303635963 0.07889380127623828 -0.24303522042715692 -0.14439195832368162 -0.13646307712367994 0.06435448259416857 0.09948403198250433 -0.026778898124763997 0.15153812956976587 0.08459659639004558 0.09793854114831523 -0.027473299382853134 0.05879832817575305 0.07168835066248272 0.012300464975602964 -0.025460236301257815 -0.10393521228117918 -0.13844985160276538 -0.04254629732520584 0.023636023221287366 0.0006331489619050773 0.0215316919742476 -0.05044362131354769 -0.02358059335450822 -0.019349991119301288 0.01685716156028217 -0.030647487271998827 0.05122629131572946 0.04520584963212577 0.03639094919410141 -0.050550135518932254 -0.055608233690713715 -0.017459983534419524 0.03800789769124138 0.048485679112442885 -0.017166696751455893 -0.018144278613691504 -0.010680336979454969 0.004683811987480343 -0.029345270982918215 0.06705891943382193 0.0781609135664288 -0.009676716123358032 0.03653809025247133 0.03046406688857781 -0.021660066527497884 0.1096664994462389 0.02685609191573733 -0.05489648076558118 0.06618815494072909 -0.038032122708994795 -0.021236176731392515 0.006237012678975135 0.10389480530764661 0.1579038190789262 0.031091744786957243 -0.05082344971426569 -0.06385767176748007 0.21331582450742345 0.0925079112164231 0.0284611086807259 0.022523290583831203 -0.024026609109221848 0.07094743183268779 0.18254478736279034 0.1008311138352909 0.1563233623294463 -0.07259299089222195 0.019405198272672272 0.006511196976922596 -0.04012645826461649 0.1205479056870245 0.08709242690540726 0.13879329325997505 0.11531723201754493 0.16174961512695732 -0.1246543805473209 -0.1178841897997723 -0.03287401188302142 -0.38272822452091476 -0.17028094172386274 -0.0019252537335188928 -0.4424766456684599 0.5893916560764738 -0.09459662490181545 -0.2669616703208102 -0.17507860385473675 -0.07710828735917358 0.44827399038106325 0.40580340789203445 0.16853522511983363 -0.0331308177452463 -0.4336402754089837 -0.174155208742126 -0.16306698682056567 -0.13005844495226632 -0.16666168715343402 -0.2101923306640674 -0.023338128970467907 0.020142299072207194 0.14800136141915093 -0.1390218308396913 -0.020276330496018284 0.06276825178944229 0.45958891575458294 0.6385406908144913 -0.04540462398813221 -0.22142028553420523 0.05238739562156092 -0.10969124498967966 -0.4019395744249951
116 -0.013504554528737531 0.006306906482063579 -0.017069232244454613 0.16200533825038044 0.006140363505092006 0.026536137553137936 0.0317656022267722 0.07809680843394523 -0.03855491312252858 -0.08875656900236666 0.03221507327008748 -0.06401543558280434 0.05300362114405089 0.01443292117626728 0.044133210772962554 0.08769211267090266 0.019141072465133618 0.12941250866938706 -0.029145708459553624 -0.012117728751425463 0.11561440411529554 -0.03843464339998844 -0.12193937881341438 -0.10594390949782305 0.0719690454317598 -0.1332631928754018 0.021644447943344976 -0.00207790101133951 -0.10151544978763784 0.07891940891961487 0.1313810305507588 0.07780437180196015 -0.07573898888126127 -0.0941607302554942 0.08630567133877833 0.01692317252935606 -0.08275418565345533 0.055834673339470835 0.09685236869062439 0.03162857518598152 0.04830855858857151 0.0344380880147922 0.06225000718438746 -0.14357673382928568 0.055295942524791426 -0.07215056087368488 -0.051441310785109606 -0.030882135844810286 0.10109692714065113 0.059506106362565356 -0.07770777502527486 -0.006992885965571492 0.005403614318041676 -0.12837143110881016 0.03679371428205526 0.11697338970606998 -0.11376133932126112 0.11870565671889279 -0.08449116460225388 -0.02268584643667952 -0.2163710834838556 -0.02222795508746864 0.18362102157469426 0.13623574835472757 0.04321764902211229 0.09108011800175865 0.05228938103478379 -0.011188768965195469 -0.04854539975413642 0.09964909304850406 -0.12303557085092097 0.25217485352172525 0.01742185419360641 -0.06476531573993011 -0.005663601060947632 0.06672032196520879 0.05898815377480227 0.012715667314096644 0.1532170653711047 0.17838092743164632 0.039463068725664026 -0.06767081689002466 0.12108251972135849 0.1363670946220946 0.047122177596416945 -0.005449100730465836 0.08952883586176268 -0.2358758118294698 0.021359549203708736 0.06406017632108314 -0.08887336424850781 -0.05560955444741531 -0.059278182659931 -0.04851218496909714 -0.19107819656133582 0.19860528988892656 -0.05371122615916082 -0.08359543062198861 -0.018014976563647884 0.009026487434174946 0.1698197596162515 -0.05375477202901395 0.08683372194365539 0.008606800118643333 0.04729858677385929 0.1652026713041967 0.06303155765550987 -0.034664221591329494 0.025945375752210627 0.06274403262169796 0.04118142281784996 0.014221608880164367 0.28432168549093284 -0.11162690437206627 0.28040509509208594 0.15088293666429886 -0.01759766319134883 -0.056603295133574455 0.11968861649802988 -0.07855067658773691 -0.29207926199989165 -0.020831023309052194 -0.002088917653802443 -0.04273167378317978 -0.06387913128249244 -0.2061027152855122 -0.035324602111026095 -0.12597748168603776
117 -0.015876556197810292 0.02948380536281455 0.049978561942432546 -0.03367316791225824 0.1291369578219643 -0.014887591723600092 -0.010462492758477803 -0.03186784446370458 -0.11368144850715299 -0.019038211920341816 -0.0026696891820514094 0.029532201146151234 -0.0897786475419155 -0.015357360378325005 0.06408187971242184 -0.0391620026451375 -0.020857964094305497 -0.12917063722832642 -0.01687367711041168 0.00707561399407278 0.025224413076558462 0.017964767513620503 -0.08358440252991606 0.07635025457669964 -0.07885296562033302 0.020585019909350688 0.006611707340831966 0.025335491398959777 0.0218949380983098 0.08762091338472094 -0.034252953109581825 -0.0452379889173463 0.05759920697359395 -0.14900740091866388 0.045128596278997936 -0.04501661106003274 0.08646091975731028 -0.1340950431094207 -0.08793813507899394 0.010249375484765727 -0.0501104010262618 0.15573046598120877 0.03209995064504603 0.09358537285843195 -0.01221636428772336 -0.006042215112167788 0.022455924990802276 0.043305882766847 -0.011817429067133331 0.03849613904621635 0.050192840513263656 -0.007473907340014905 0.004419104873066909 0.13938914243203526 -0.06883395934254624 0.00870309530024955 -0.07465913587542904 0.07944853035332507 -0.10810697207172042 -0.025252146024559375 0.056488295677869095 -0.10853224643315118 0.03411729994840535 -0.054384183249949335 -0.07638039929250463 0.1478848166038524 -0.15298923412298446 0.09701170682996929 -0.08675760015366989 -0.021124875721087653 -0.03551088181149294 -0.11255547000838943 -0.09012211537076636 -0.083858583369948 0.09606673604276299 0.15597779240228868 -0.09208494061809351 0.15382260177806822 0.016446745144092563 -0.0291795714859046 0.18243838030506757 -0.08532547527657187 0.0898772110775055 0.17886478507147047 -0.007252669497648518 -0.1829921388107911 -0.1911771195351794 -0.007891278008737146 -0.2172117435134343 0.019682117810205357 0.013760154159087915 -0.07924203895758719 -0.10972196718866373 -0.0406627266569281 0.22795644361804296 -0.04209604722440551 -0.16182614185945945 0.027101995017901722 0.08982335883388332 -0.1111316634793771 -0.06400631416415468 -0.17088615414272484 -0.004093160011233524 0.031884149671753174 -0.09158018873369039 0.1578080482229339 -0.08904452911053624 0.14007366374674146 -0.14823172728990747 -0.10296311112522437 0.12945397344664455 -0.01958614059319481 0.10415650600768142 -0.005022463058270099 0.048161563853572786 -0.1018506242568125 0.028062817844503405 0.03543376339762566 0.15315329353899285 -0.09753569832920915 -0.26950557319667245 0.044646358138855834 -0.14955308590625932 0.0730122292017295 0.10906384638835309 -0.2919185404387821 -0.13091010978789824 -0.13716480444576756
118 0.07309533753394619 -0.036062976706793974 -0.022778994332124925 -0.025945773649506534 0.017682861847730075 0.07563962636043817 -0.046449135333029516 0.007182943814526505 -0.036952797707563816 -0.019628226295738054 -0.040303496716041116 0.026921039358003933 -0.00853463985733239 0.002799138241175911 0.13467598933280206 -0.03071406636472228 -0.006408427945728263 0.09832119738610001 -0.007085154882232331 -0.00135514019264337 -0.10147247759395318 -0.034140758980941675 0.09475347726731256 0.1260450712405989 -0.03262665913327902 0.21215602786958584 -0.021663857533322905 0.08744502162976435 -0.20873922078731774 0.0190792032439499 -0.09691835597350927 0.05606282038412148 -0.005765114842632795 -0.010721385416580733 -0.051116501776835965 0.15157315311962014 0.11386272594146053 0.08172361177184821 0.028007449809970004 0.005356976984167152 0.038240517187288464 0.0859788378529972 0.057691711013304545 0.038402986087426996 0.07760418019803625 0.1495373583350207 0.033097712886452316 -0.14825518482152744 -0.03181048989494246 0.13679949440826075 -0.025223412217640254 -0.14153697994318004 -0.11356242046579776 -0.18957725822254395 0.07966542917671372 -0.1241886601638363 -0.02543972734584057 0.1054560045361933 0.02174117897963029 -0.06886670175967723 0.02771441921194782 0.018809251958558086 0.02811486856981838 -0.028469489739125307 -0.11398379624675693 0.006914753545215177 0.02123942735379098 0.0726171726719474 0.27203109677228077 -0.07688653414697395 -0.03433161588478247 0.03510615279488475 -0.03196926085541662 0.08167185116982968 -0.04501718294576065 0.16631421746305802 0.18474012852345412 0.1380141109631499 0.013019345753817186 -0.12168399054195025 0.16469930148372675 -0.09262925661195924 0.028104714831289613 0.0017076506217822316 -0.044677586986338204 0.2882770968930865 -0.026255291379155915 0.005956497891618216 -0.07017670442407488 0.09046575028813697 -0.10437153795881124 -0.150083596011687 -0.027159845871740935 0.1280925509192671 -0.11164433005247548 -0.032203599063156646 -0.012253761187835645 -0.10346990031714973 0.012411628727193043 -0.13332887931413365 -0.1531762699353021 -0.05810144091927767 -0.12872674748907442 -0.07325668869508145 -0.007305996892623334 0.028927325388699885 0.07204110864963198 0.06187493545964506 -0.22816227514701357 0.040641143853341784 0.2473102351724723 -0.0989895898050695 -0.06254207294309856 0.01532154472680152 0.03825522951349664 -0.3449218359273518 -0.07724225330008082 0.11208482062718722 0.12505369371129693 -0.2116126734952923 -0.1960479229795657 0.09844420733364058 -0.27982760016523744 0.09779797828405956 0.34954175178416513 -0.3497114666498631 -0.2541139023743454 -0.22706283361581622
119 -0.03024447236999485 0.06931356640122789 -0.0019691410503574463 0.022032832008756092 0.06984535114284882 0.1385535415365305 0.031192059183769317 -0.03579934110383714 -0.022867462833459154 -0.0529674360964298 0.16585020956240396 0.13568695724261154 -0.07353906742577558 -0.04103583888046514 -0.09902035916478763 0.013812641930845743 -0.09701156640484128 -0.1009608518734825 -0.018090495220736098 0.022481549081809996 0.05540329281031614 -0.0348112906607653 0.06388058606042737 -0.027941131700432678 -0.10579773922001508 0.0682702998370932 0.07074205525046921 -0.07854050121360098 -0.12102192324349201 -0.1258970133149495 0.07708553553065414 0.05132675851770726 -0.02002322451854921 0.20749143641818368 -0.08305079797045746 -0.021087455538818117 0.25601178813032255 -0.0191653449573117 0.03439031551029323 0.1698904263393849 0.19089149613456347 0.12070093187281183 0.07542673645767912 0.007954252522162883 0.025921912536976448 -0.06372366372150609 0.02536860894341353 -0.01864446194946382 -0.10730738746825323 0.06774670616728305 0.11207329073693446 -0.005396795432123819 0.14211486262128353 0.03715511917650819 0.10773594839212523 0.0682148785498831 -0.08952486760549551 0.0545602511108111 -0.11398670783250248 0.1899914975371134 -0.02749063846676258 -0.08864153969341146 -0.0478211571093889 -0.10882266866861832 0.058693329099852885 0.04635191837219713 -0.18162013906427596 0.010035313783508068 -0.057262568801762184 -0.03775805186536804 0.03407650835821609 -0.14614139034393364 0.05969934798469487 0.08950337051486364 0.2985430905747975 0.05163918868143585 0.18714902570302053 -0.1798323627915091 -0.011277204124584961 0.2064992476553725 -0.13370325798342841 -0.15120855204756445 0.13262425292887933 0.15781176080747691 -0.20022143469762782 -0.01802988711732535 0.06932149110142272 -0.11872007482062533 0.030589065986690676 -0.2944617564687325 0.026052471903443203 -0.03747411792954345 0.12350975400234825 -0.03112482795306423 0.0916147656090021 -0.23964681336685134 -0.017794612924943932 0.16105882787711218 0.07101778144906115 -0.06557153562937901 -0.10751565325493365 -0.058018658555418844 0.023587432960579087 -0.02936629707910043 -0.06636547805151656 -0.12710577027801495 0.0788300355303275 -0.13426028183048414 -0.0017562806691680624 0.05209972268630818 -0.10481205775433242 -0.07967009832129682 0.3530430151388899 -0.3995369291577662 -0.013533354382623989 0.32156246693456414 -0.028023645884515388 0.7072000615317032 0.8211631286374315 0.36610676032973244 -0.010205032332001924 -0.11443976418050457 -0.07481411966370673 0.26977992951813945 0.1642614426184533 0.3015374601732802 0.4968245847783501 -0.672064680581011
12 -0.0005163894037967473 0.04614251875966247 0.001731916314132846 0.2183845411221591 -0.04733532653908253 0.09683340856542204 -0.08364906241879987 0.00453944836627465 -0.16836810168627017 0.1125616036979447 -0.07780799918295968 0.01937000976278172 -0.019320842774569698 -0.019960088107823116 -0.0032758433006569838 0.03673404008064197 0.029933975391583732 0.014850585816529486 0.02698220710032568 -0.04417127808090439 -0.15428720813975855 0.02466268517630726 -0.10206894074196422 0.00956039770975479 -0.014016844583055734 0.04804267719070533 -0.03903187276782524 0.006876505793398088 -0.06478226492229351 -0.021874662311858827 -0.021000260643929684 -0.14051667526495698 -0.05233646597299395 0.11076288601360411 -0.013925338821607175 0.20299735911539477 -0.013709122259737881 0.0777619168807223 -0.11839910045792955 -0.06889163833718184 0.046261749876897344 -0.06302245017374256 0.024208897312751415 -0.1642272868177281 0.06460689770314469 -0.06873281000871298 -0.0010522943752384268 -0.028338442284628198 0.12352861338941516 0.055890758441559205 -0.07486195634517191 -0.054932936070496104 -0.0944709743513544 0.2614261876358421 0.07478851859571921 0.01753505134544553 0.010158347071497533 0.06064614759091289 0.15282405496462842 -0.09660107166980315 -0.18735581918910094 -0.04482485820050782 -0.16340989725234095 -0.09723034791935656 -0.033397871172805765 -0.021344411145640747 -0.002714216759002547 0.06171079955347548 0.14200038741604976 0.07270846619791908 0.014888814943137624 0.033930444097533645 0.053459009520793355 -0.16984407852135908 0.07074528008387561 -0.026092030032615298 -0.2026441855476649 0.1283177194480471 -0.06678861810397013 0.014862632450854818 -0.03853718787977485 0.37788810862747935 0.04572231245923905 -0.04489682144874341 0.011982032518226113 -0.05867943125646173 -0.10677492599265787 0.1504855609296049 0.2585380799905635 -0.008199714054394012 0.12448345582551011 -0.26002160200914515 0.0903149568880648 -0.10297469767951548 0.3879900835206602 -0.04216865719225523 -0.1374913240094165 0.10396543944921026 0.1210276993919267 -0.007541045902293049 -0.07008726449349066 -0.028164647880820258 0.05396429735682324 -0.10710782262270876 -0.015329331780462606 -0.038191226150738555 -0.07016027602016274 0.09760982329169349 -0.12938378767890882 -0.0026047051391435427 -0.0616198773177001 0.08949852127379065 0.1727810215532661 -0.015395103112721919 0.023941279389388722 -0.32129433539514646 -0.05357119521914969 0.14310478670427507 0.002058648568692983 -0.13033260847775885 -0.17932327539300202 0.046110962963628224 -0.1414948636281817 0.061680693510212985 0.16495899960539834 -0.2368863695737432 -0.15820658936975618 -0.1581192366896319
120 -0.0008195343203923617 0.06246867308506753 -0.00074732453433129 -0.03705310535737576 -0.03748478127020314 -0.07822126648641159 0.002291730855495787 0.0028088447418025348 -0.11407657477286044 -0.06586446252465324 0.011350464921820102 0.06785245654725366 -0.016484408201537574 -0.012605669019625988 -0.043114449884905384 0.12177231405384668 -0.027286532229402197 -0.03154853391304941 -0.02193622000146664 -0.022045335273117996 -0.07330947671227189 0.007640873667376135 0.13798971375118782 0.02653492039725296 0.06654205794357772 0.017485032586258987 0.007885045290345985 -0.008221105423019369 -0.12463287424870856 0.00996701634086472 0.01886646221996078 -0.04021362443353147 0.027558545759100533 0.03541735800024672 0.03149837336479933 0.045525625508361735 0.027560693078138257 -0.027898804462876584 0.05660505964376217 -0.02475471986515798 -0.024551246891887975 0.10636966209306907 0.06395793771583555 0.07135812945912012 -0.09524654886533511 -0.04816741869132248 -0.013820428714207066 -0.05886940163482036 -0.005752846724774449 -0.07152319334591847 -0.07172684589324459 0.04455708330186563 0.05097768034829196 0.006690256892534179 0.04282306036012047 0.10450346691224291 0.026780372423700002 -0.031808957376192507 0.0734402942585709 -0.009424830338168606 -0.05193824045470683 0.021223292093792583 -0.12368425694065881 -0.06090884604017841 -0.001800739427856117 -0.05476243398382899 0.07923804144358589 0.01011355015638253 -0.031730862882795516 0.09028521951374312 0.03300515750502094 0.036993307386193 -0.1001469983752116 -0.06115913260421672 0.15366053275812352 0.1426105660538866 -0.008297173395054529 -0.0843392847276873 0.081260810472976 -0.03876420268159221 -0.10592018688144059 -0.07647966638880921 -0.08359771323639699 -0.019506745441492366 0.0835183403119726 0.0033651553046114007 -0.10729087747344428 0.08273372115364958 -0.08839981421023253 0.00602459471017927 0.08161872545575174 -0.05560201950711218 -0.09231882624060044 -0.1259564710682256 0.08482352980522033 -0.055813437338196194 0.03252719305972687 -0.028837311071360693 -0.17107218807872673 0.11212679329471856 -0.0338105914911277 -0.014493422756314867 0.044141448467894695 -0.016292441712505174 0.0917253277275701 -0.10312418990309924 -0.2001129628125469 0.06616386694768638 -0.24547100700289962 -0.15689131572703105 -0.18804590759144796 0.2253006654512144 -0.011419078426196898 -0.1598308929949702 -0.008834230788264176 -0.0918312603535443 -0.04224503933244985 0.16469578931508763 -0.12024588513486495 -0.2162929445033491 -0.23404034904941842 0.12607233118585878 -0.20192799774931952 0.13609901553375828 0.13614065517522977 -0.19176876181528849 -0.29714810971344785 -0.22710207202579297
121 0.04353953460761683 0.011009510543146415 0.006466845880923429 0.0363133699741373 -0.01979248259796782 -0.010524332858353209 0.004035961031521218 -0.04289106317658432 0.10474315790856574 -0.0171526087564244 -0.036383555260890696 0.0017977214687834463 -0.049662842125690845 -0.009422596003577859 -0.0665715603954569 0.009181130263640229 0.02376175374968635 -0.12311923095611722 0.03004012191900879 -0.08088539923794538 0.11006963654957672 -0.05506190567138068 -0.0014784198419466326 0.05810651777324657 0.13570876956085862 -0.1776449346026989 0.04142321681389036 -0.08154539180655236 -0.1361703856884511 0.07369304041159559 0.015786796664110696 0.09720828321238047 -0.10251028694257788 0.09218620413786809 -0.11670706396361599 -0.16542973532499886 0.029174940357323535 0.04698285427620161 0.03566095526918065 0.042821573873685216 0.02354642724011069 0.06017303739059715 -0.14208720309924272 0.02776137741874085 0.022756213842827406 -0.0330189117596052 0.025996928871178573 0.17122465914128746 0.07083631990036311 -0.11273255733565796 -0.006851709058287251 -0.086047095917142 -0.044504175523739496 0.18870231043707872 0.0020955151184174465 -0.07237771278702342 -0.06399306449291081 -0.08942764685190382 0.025406897584282714 -0.00456798989089608 0.035653942835586656 -0.05444680723592726 -0.05936441963899944 0.039390512163526153 -0.16033869471749912 0.010510162870181089 0.005318257435356457 0.0418789049440511 -0.057656307217935146 -0.11507828837509548 0.008261332715458562 -0.08833005280033407 0.0033446797839591404 0.030065212185428014 -0.11375416004672892 -0.16040084083811026 0.04216259837209942 0.17088099124482592 0.04482376065515415 -0.0401325615390956 -0.12339813529120099 0.0474028875328959 0.030904899050806626 0.02562656699799687 0.1533434595479625 -0.07943244382928519 -0.061548770191987755 0.07996659507355276 -0.0044597074783267006 0.03679020972382366 0.0010319939480525455 -0.053508201245048806 0.02400769319950085 -0.10369841247842272 0.11088772702399528 -0.10381757475133335 -0.020946878386417928 -0.005868044262892649 0.1660273906474102 -0.0508241706746764 -0.05352722486873784 -0.01904027518464698 -0.1266472183152086 -0.2037544982982315 0.014444502634141746 -0.0635212666782066 -0.11857471167085117 -0.07834837637224863 -0.2525319320762141 0.02342698155606724 0.2610684469442266 0.0745888032635333 -0.09994474529087224 -0.11130768123483158 0.005775297282788485 0.06261914662582486 0.062216524115120846 0.1269415597530152 -0.03228341725240115 -0.2060560535903757 -0.2799491487877259 0.119271338925571 -0.18589197235823565 0.023218837737406045 0.02683399945957436 -0.11946074559855398 -0.25711874073399876 -0.20554396550882567
122 0.028151962747525912 0.006328206266270355 0.04729115706123562 0.08968755563772131 0.03612713390253005 -0.033594163033903335 0.05900097453209419 0.01730174866119645 0.032895963569029796 -0.029466343871094636 -0.0022447538954955075 -0.07283507968902035 -0.03643908615197356 -0.09090646983728841 0.06331460928895769 -0.021208023170243395 0.10276016618369062 0.1094138390962155 0.030583328145598346 -0.11403619885457936 0.01565458959048757 -0.11460835579680516 -0.09060347653937281 0.042254864661427076 -0.03455941385238851 0.0002233261886059664 -0.11684379070188977 -0.08876416034385048 0.000525554315913662 0.01669306266378754 -0.03275536411137111 0.1284254101736137 -0.023153988518512227 -0.09371350236396506 0.186735403212272 0.029686943058434046 0.029571206540031744 0.04865123445244191 0.029400790097339785 0.10901659506667664 -0.05456677228039477 0.021351515823324084 -0.16859708961051176 0.010439639827143842 -0.04089704090026971 -0.023554730213016253 0.048179925379360666 0.17273129502156223 0.00208050775833224 0.16235408983758978 0.012667485113767855 -0.1301647939315078 -0.07359664366383448 -0.01243529552767766 -0.04594150804281205 -0.16696731620832558 0.0519282910611407 -0.1222455662719457 -0.04920428849585646 -0.003514719559069996 -0.00909730247007662 -0.17517816839674527 -0.08983190012380639 -0.11087446407190028 0.08513245964006072 0.08628988531271298 0.06172444472620244 -0.2771776997239249 0.032379290268771385 0.28686124755495007 0.08040759244803647 0.10422419775391839 0.01758424933113744 -0.05933221223953266 -0.05496622948290818 -0.01960552195577305 0.03644647505716551 -0.06412721409240917 0.056013686167092264 0.0968082431091487 0.0976211548139806 0.023001333748556032 -0.25384097553118656 -0.170230024185686 0.06105875607397869 0.0574275434695138 0.06610183326911548 -0.01699238352750689 -0.03922815002031498 0.07360528065374142 -0.029687961402002864 0.014445846961204644 0.04360029069232704 -0.17739066148742388 -0.016882037076759872 0.03944796740508896 -0.13738417147961782 0.08330558595964155 -0.1761538208906023 -0.0810711828986718 0.07044525334432536 0.15110188794621132 0.07209767663604069 0.25903881564115583 -0.10840971420567423 0.011224777868189675 -0.1457082763419087 -0.004883904946598244 -0.00968803328259771 0.05451119374505802 0.1219817395391692 -0.02373663866276045 0.021710152084054482 -0.029121962962388576 -0.06518470854642695 -0.19126034889639998 0.04897376271344088 -0.3672476731808474 0.05756960719404159 0.14665103794699602 -0.10833975050980849 -0.1133819158153521 -0.012391116281576383 -0.05097522438492945 -0.48694827796628604 0.6738414791292399 -0.7662136091446149 -0.6761425021573287
123 -0.024176141985997737 -0.03435344955742334 0.006639547989007836 -0.07370187195604665 0.07509608056159824 0.06986650862186305 -0.11940978111976538 -0.03161358265646466 0.07064373456460939 -0.07109360647727109 0.0320187737881143 -0.08368762346603163 -0.05268461861565427 0.03505287236880356 0.11561154094379801 -0.08475400432835947 3.302621501741167e-05 -0.142475627687368 0.02209773758531886 0.03144821251680544 0.12008680916660394 0.014492896576522057 -0.07203571249469727 0.01347766986164448 0.015338438224620788 0.04491288495546203 0.01612158574712302 0.0047402067874792 0.11985138321747958 -0.009190878918865325 0.018493802349309026 -0.04461095544606788 0.08845539463650463 -0.02013196893655365 -0.0776867688711862 -0.0929474946099941 -0.012749185056986906 -0.12126417212566973 0.021170456583008514 -0.01583098416834637 -0.0006419132525180713 0.0500492505824537 0.03970649921522736 -0.021880288784320228 -0.016914182625405044 0.035948775281262474 -0.10178420797169228 0.005614362159268178 0.004235862415486424 -0.03138281862782092 0.006272692776977647 -0.07130274058836675 0.11339119312567783 0.14495407071503735 -0.09994217663656316 -0.22978600711766728 -0.00809823648076122 -0.040537083560093286 -0.016939660901856658 -0.0049753531649104855 0.047347833452184566 -0.13935408888858744 0.01381434067233852 0.016380153421370135 -0.008878109959397406 0.08335554136522198 -0.16026626447077147 -0.008309500738716178 -0.1544114903512544 -0.0655502454640936 0.0398556178813834 -0.10915657486119312 -0.03428616338898483 0.034427460670779036 0.027916771707122097 -0.04741343223097426 -0.03692482927878255 0.05203616698631128 0.04018434425858385 -0.027829327859380203 -0.16952627671237952 0.0801715459888275 0.0401591704538998 -0.003980470000001943 -0.09383345316537497 -0.1322287369795519 -0.2456174389905531 -0.029080837415236767 -0.06728954253490836 -0.05965744981905338 0.20294751441920397 0.15952353974379455 0.0006451355439147259 0.003464482096087591 0.028422675391211204 -0.07240611611348852 -0.05625030922111662 0.004720261661553363 0.07842048601993948 -0.15469295683905973 -0.0033376704441728505 -0.19131867743414724 0.06137424562093832 0.21120774188175387 -0.12726975764014287 0.14446689026790896 -0.06870620507013078 0.031337240682919036 -0.09362160378453553 -0.10520271506474811 0.26950927534318986 -0.07209283971354274 0.08209382420347656 -0.00290063173574407 -0.009557970755115273 -0.019182398005626607 0.09073629230865665 -0.027036052980288012 0.2440864995775089 -0.03604832205745044 -0.24763542413329584 0.0776681584410568 -0.14817566869462154 0.013067565791722347 0.05787255954994634 -0.3221936709007146 -0.10398977208071673 -0.13383643249304064
124 0.011190634031686785 -0.05056066506094532 0.031008049695774212 0.07740493949949068 -0.023744742760838763 -0.024935777437893176 0.018713716837129874 -0.00801867257840307 0.01347864960302344 0.03148632600762527 0.02362538526432468 -0.007369690137676353 -0.05233082915882913 0.06091631334992531 0.030375076350843223 0.01869582008242989 -0.01797076368718247 0.06773422371272865 0.04855873043599625 0.015104910220813807 0.0685020976879667 0.019024449822064624 0.02454668459926544 0.1206127102442896 0.08913132113802211 -0.053286593278751265 0.0890363681639292 -0.11992223276885831 -0.02008924840691341 0.26669141817171504 0.03548083290498556 -0.17680584965594076 -0.3553843308390493 -0.3315011547343286 0.24066108457930097 -0.0913665908094493 -0.18260256648224035 -0.19900270249775148 -0.34722070240118535 0.18055333872854476 0.49755726046561716 -0.03357173668985662 0.22020312339765738 0.03511114761267139 -0.10167734327215067 0.15213564161542134 0.5468144825452691 -0.3190347378773015 -0.1956373497441693 0.1578679870664065 0.5514634031840155 -0.04134384439822771 -0.36348135847285157 0.2344979431093035 -0.20229964179660753 0.09422173229984362 0.06798948249652491 0.13212446719807247 -0.00858172692428087 0.16052520916304572 0.2826896816263024 -0.3341783812235124 -0.3545920193458909 -0.37660014061256153 -0.0945701009209406 0.1799473906800529 -0.341148818349181 0.14613382526127516 -0.18887628047629237 0.14186966913059917 0.1440291444412201 0.2862248971940178 -0.21666279453539633 -0.17134001996512876 0.11453684264932813 -0.053779954149516376 -0.1743568765500199 0.08386722414284893 -0.36396669975612145 -0.06255365516631894 -0.5189933249612307 0.21376173620769698 0.15954897510275162 -0.3757694981246772 0.4914062248215966 0.061655949796622346 -0.08849022994080281 0.11234754320228238 -0.09331149319744923 -0.4025125751115494 -0.1985009527871825 -0.029671523984321317 0.11889260527033395 -0.08514203082400984 -0.831767734760861 0.35382353232219776 0.5994830422831573 -0.2778465784194694 -0.056680661070137806 -0.11427954913629462 0.14197486358401257 0.40832467626669555 -0.4116764003183921 -0.002220716297299197 0.25204520416277687 -0.08908307133156033 0.03199622644755456 -0.4101136611744327 0.3936847843531185 -0.23267880564564403 0.041975764915401725 0.06725664201936132 0.3033254020708651 -0.19742108884653453 0.025142903756767004 -0.13863451034314325 0.04136277618537193 -0.1929730315919858 0.2876074734355435 0.047020237651520955 0.7804441855254919 0.3397139595217639 -0.3796065169551884 0.028498086123848125 0.23049731344294502 -0.692304107776166 -0.28318127043949404 -0.4654690534826416
125 -0.02767218079448114 -0.11406784411393703 -0.0550649981702997 0.10264306639968378 0.002943605181622318 0.026559381267460914 -0.035884367598416615 -0.05837672776556427 -0.016219129368422715 -0.0008262274025874954 -0.003925593760860128 -0.08189581457119335 -0.02250184999693694 0.0646464875826357 0.03842515235296459 0.08386533032500569 0.021131907770863486 0.008074346285203685 0.058529884216285986 -0.06881089620438867 -0.021223241500254588 -0.044755529438530825 0.20228748493379342 0.1330493246988093 0.11194798095336699 0.061867388025362735 0.009700574954722483 0.011955112151431458 0.009917623790513683 -0.09928636350825358 -0.015050409001327703 -0.0032160965642164412 -0.07733593131905493 -0.04720721460430448 -0.0423534461142793 -0.030051991672321424 0.043941186446919696 0.048442528467956276 -0.022785346814269483 0.02588977262435277 -0.04943800822360652 0.052730204033197794 0.008999449918881972 -0.035958307242277304 0.012047648652086811 0.010395060401387199 0.04021645144453262 -0.02671802061756776 0.028767946035790345 0.06691616777843659 -0.061433410280275685 0.045688796771898445 0.09654468208153313 0.022628081105502993 -0.013622941464275161 -0.010722250440415346 0.023712327190257506 -0.0031516615673495103 0.050171870119906675 -0.13212009369688207 0.05420384055955832 -0.07716810407645555 0.06520599246683935 0.07581192324037697 0.03415392435438957 -0.09595989106139664 -0.1171520675643294 0.016492889757498932 0.00624760329444223 0.05180492403969177 0.03500757239642967 0.07332110185851606 0.10477148901462464 -0.023638816556722838 0.06617104977860465 0.08308980339592521 0.2684895531850545 -0.004670123693991263 0.04833589263456261 -0.06591443214088027 0.051906101147320464 0.04002632796543407 -0.08567381670421863 -0.07503563325237078 0.058151922336766186 -0.028222955385782487 -0.05288253421706632 -0.03983243384760602 -0.16074675533659968 -0.17200116053215997 -0.01326958441568891 0.01649797157983797 0.2611251463994237 0.020996694681447815 0.0716627271236824 0.03437241591713249 -0.15381727908770448 0.14910503482713822 -0.11221369078140388 -0.19636005249775773 -0.03961915459998981 0.08166567406347112 -0.07064330712183563 -0.10049308018373387 0.08259441207312083 0.3989850431766958 0.2740480768323732 0.09260162510540759 0.047622231951932756 -0.0543061909202316 0.08991566803485557 0.49755013129822423 -0.0377762154944114 0.12084293322935918 -0.056923641936575446 -0.09088132830337076 0.1037025659431978 0.11514935428451882 -0.08086894677629528 -0.022883722844949016 -0.06593516386720992 0.3403178481251678 0.6364142772810072 -0.18651431399499932 -0.07490392520173988 -0.05052656806882003 0.06471517512628332 -0.2995402946979398
126 0.05507128124451884 0.0184325974132982 -0.006210743120161772 -0.03469274366812569 -0.006853696316761494 -0.019774812312975024 0.010254150319738536 0.019154130107622833 0.10409230506312273 0.033932968311206534 0.011974188891111773 -0.0028288205020053736 0.006618459649490447 -0.09092985023169094 -0.08448787834372036 -0.024951403764101498 -0.0031060741225429 -0.025719944120551876 -0.022486987230678938 0.06360400720872396 0.023001272306772496 0.06484075801755745 -0.005786528963276596 -0.08488389828886027 -0.03140431577217557 -0.11252331681149409 -0.1591631372646358 -0.003323423325899629 0.028910837132299208 -0.12824689404363604 -0.06684285736916497 -0.031908380704191136 -0.1472843552165307 0.0947623383295303 -0.025111492248936433 0.5416204602915747 0.2096116182858492 0.3481807751584034 0.13067968463119006 0.28008475862732857 -0.09618905696882672 -0.041758731399971716 -0.08587953608176484 0.542959598264343 -0.1709813025855165 -0.2537040286885426 0.6127506895823935 0.06200624241200653 0.18096356705686323 -0.20989140080748045 0.000981036986172183 -0.08430631347569019 -0.14083916766952542 -0.7698553389078698 0.004447421783400988 -0.08828085206998447 -0.10049518277405166 0.20086672879290776 -0.24754724158252994 0.11647760723123093 0.2768766722292075 -0.41130752529489617 0.15101898362012836 0.2842630088057682 -0.20586799724692212 -0.19134055147437729 0.18511041261125782 -0.06108712485771542 -0.48877883823586527 -0.07109895976984096 -0.07999644032999345 0.058170845559663356 0.15782357049207982 -0.5202136043628459 -0.24419761805331108 0.01898803014436829 -0.15445457873056445 0.44252371353894426 0.23716142604874527 0.08441646164519961 -0.533860762932132 0.3130703990787433 0.0015737197002879024 0.01918769656920142 -0.069003715380881 -0.5392883030946989 -0.5171907445912022 -0.2794489308464008 0.3221706925675934 -0.1155929223737297 0.15796645694044156 0.29719929120602173 0.08098905398732839 -0.0035196305172335756 0.25776037077569913 0.014621945674246746 -0.2893292152393632 0.42101171510072544 -0.17835545257426663 -0.036283820267395794 -0.24710053304079482 -0.0983569762175164 0.08248813394150586 -0.04919967365549227 -0.25075232164120603 0.13418163731115879 -0.1796391317016875 0.33437881106430317 0.8468657981185503 0.11157975708982651 -0.4679195788982151 -0.08127361633476876 0.12975769850356622 0.09653930744316488 0.09620495345728952 -0.38412500795068877 -0.19445661667424535 0.23363637711620186 -0.12636641312602034 -0.23831741383122237 0.6359143678329653 -0.0458302460623318 -0.29387396709413777 0.2627960159066589 0.5896726253427022 -0.3431125566611191 -0.5746579509340091 -0.520549918058121
127 -0.03165354633733108 0.1544617427025901 -0.05318181028639378 0.010165412179538666 -0.03392916850303093 -0.058642954978543466 -0.08015462317077712 0.02303044732948324 -0.09306096949164289 0.004841739512352273 0.006946860443312595 -0.0853340030672659 0.13007876259593432 0.09806684641623672 -0.05271393128948925 -0.16978887550446073 0.05471613545371744 -0.03903905398287321 0.010351152779015969 -0.08820190778340657 0.015219487777545846 0.005320619377929554 -0.13724608303824895 0.0347682440304514 -0.07755375174326917 -0.15130838072645425 0.033729387596363354 -0.011798661286769733 0.10191024051947098 -0.04358129628724324 0.14298528625196769 -0.03430432496457105 -0.08734732456311912 0.048285664641809035 -0.10603586983706938 0.030424726215034514 -0.07035319494373413 0.04407672256281618 -0.004438083123929577 0.06068230945654233 0.0393649057103826 -0.15426454628026567 0.08635023421414642 -0.0582818753738723 0.08199943308083364 -0.12847486775763664 0.20887308231290208 -0.04939324413472422 0.03633765125905281 0.005062433422836554 0.001576432009520539 -0.09344402312978121 0.05701940612486544 0.048450163217319035 -0.041394912309876825 0.07957397407647722 -0.023477161630060243 0.06729462984083506 0.02397550879054923 -0.009898634089363947 -0.13281385198978135 -0.1722227961669866 0.01701311772105168 0.015692209608759677 0.00551878844569187 -0.12157459850925664 0.12069013131563859 -0.10008619245341134 0.03519640752715658 0.06934748011150663 0.1038383513118616 0.06287496464828375 0.062006811834441004 0.11292288845892005 0.03383554956443007 -0.055532510492984875 0.0058480540539902325 -0.3034434953181868 0.017130127628970298 -0.11438770259119646 0.13283165397413066 0.12088786976970894 0.04605058474909542 0.035382569995830206 -0.048712506517973285 -0.2297695604835096 0.1723445389797713 0.12718729883314325 0.10526065170147286 -0.0280473692802037 0.35465491789191 -0.20868262276157942 0.2143735693846971 -0.041002696784579 0.1530407942955108 -0.16549018437739235 -0.03180117479821044 -0.027696550281589807 -0.054741488755259145 0.15635287180300406 0.3351466898802066 0.0012107738128740663 0.15415741613151235 0.045745770877463295 0.46370092532056106 -0.2674053554045761 0.28708102409655234 -0.39505435184376325 -0.05268815527814709 0.25050273794902267 0.12272617967151167 -0.21562849830428965 0.12364465784131087 0.09183474820486437 -0.1715634147681776 -0.43658994685208175 -0.08989691523797538 0.12696627312493966 -0.11801213017799601 -0.15245097591690004 -0.0860764050123991 0.07798259557293737 0.13120167035280483 -0.19674065042899586 0.2739101269505912 -0.13681266081022253 -0.09347299614079276 -0.230235664471479
128 -0.002754907827179388 -0.012794429555960142 -0.020119757585042548 -0.03609998283596924 0.009803815939232055 0.07719337389896716 -0.046552094949604224 -0.03328256252821642 -0.004078454735414282 0.06338032601634602 0.004805858610025192 0.05509788894187777 -0.040019381532302875 0.04630471352510371 0.04189456048026048 0.054766481153935447 -0.02567173227725214 -0.028054553854427143 0.03802977014094275 0.03716530162204764 0.06547236606433797 0.01391951382594914 -0.11616592122892755 -0.05996746379484467 0.06793402561743347 -0.17181992482499372 0.030445509051805823 0.0038978091866251497 -0.04911658044069522 0.02081696839634366 -0.059375690609445635 0.15662874419719905 0.03485318202518541 0.00147802530813608 -0.010309258358270117 -0.040006485175199474 -0.03591811324471811 -0.04914686874547283 0.050660255443546895 0.1535070450223802 0.12703700157067657 0.008385544783271125 0.1495941055800337 0.09872211079166825 -0.05157746096003527 0.09679539921035259 0.1192353651015397 -0.025752279443045763 0.0914427378480862 -0.1084376117202874 0.09890889966237708 0.16350429450944662 -0.09903636760732307 0.03489987487485507 0.04646143237738543 -0.04832432679583453 -0.03325134778238718 0.07787228937853267 -0.11310111669422761 -0.059826726389986706 -0.014186223880656419 -0.0063697756300877114 -0.09008354135214837 0.1050661292032571 0.04132238332349083 0.14686553655725473 0.04622309399884055 0.22870679151958265 0.0664878835564233 0.08037139448923727 -0.03737567634173736 -0.16408627008243193 0.08466363914346058 0.10363583407547748 -0.13710884913738366 -0.01566809229688314 -0.12215712897726226 -0.031224162109662525 0.2153223171998483 -0.15673526536825347 0.03787095827221623 -0.19375333973862713 -0.14826824768613042 0.0501149595576848 0.00548907150657736 -0.011019984433540918 -0.06558971633390934 0.08215296797226157 0.02672450029981683 -0.005444852552950194 -0.04813710564037434 -0.08005715722324531 0.09095084763548586 0.05279495623208278 0.027579147907557684 0.10700388952090974 -0.07968262379663509 0.06944106605343385 -0.08436731892397556 0.08269405378820628 0.022142657775332083 -0.12098778332083969 -0.07908613520730047 0.08923148692406094 0.11939942028354576 -0.06795329314631518 0.02828902683871474 0.19757481390872542 0.059606530066115465 0.00659080651053879 0.20699204482247463 0.14011459822624786 -0.05038219879481118 -0.006357752211473484 -0.07985866694211662 0.06456438574561543 0.041591657170348684 -0.04074784632223544 0.019234062576478955 -0.0853588159988236 -0.31716554779177714 0.03284584564970893 -0.057592937876277464 -0.00930150738354561 -0.027514047838323216 -0.1752931816956555 -0.005874900630442583 -0.13277141002896478
129 -0.11565920901224844 0.047702333734237656 0.07267198329306425 0.00858469978103223 -0.0653024183931759 -0.018015767518653976 -0.00035600271356336406 0.032432391743548096 0.125738423742037 -0.0942586855164588 -0.10570565150127045 -0.002029809619518332 0.06180126864228563 -0.010611921928912407 -0.015309411702857042 0.13592069998594125 0.06410285324052971 0.023940219047003972 0.07542124630711107 -0.0648368031945803 0.19606277480773257 -0.008447199848153897 0.01839638419867725 0.11340893899671656 0.21450374558498667 0.04720780311621418 -0.011890590464744603 0.02094760660146871 -0.023580652807608907 -0.02693629388277816 -0.08303893640456769 -0.02704283460501611 0.024592380601603295 -0.030855756162817695 -0.04697206838842906 -0.03879698745306051 0.03782602151995532 -0.010214263815349673 -0.04110944498126479 0.026482878971250075 -0.012433323833287326 -0.0005839395356823933 0.0646228821967151 -0.007701405238535871 0.024321800198106647 -0.01864479285567982 -0.021046798559761895 0.040627043228304814 0.0029222719121423687 -0.04379703901362675 0.10067114364254716 0.08788796999020104 0.07169564334425696 0.01140441540748565 0.03493433532678145 0.0014686985603773565 -0.009905936370248822 0.046133907612798536 -0.03354537091581274 -0.08616156329278973 0.08720285971914055 -0.01894320018738668 -0.05145133959392959 0.17324530034157617 -0.08247805039528017 -0.1441529790032645 0.010368994974844168 -0.1299231246258222 -0.019219652003307303 -0.09710080662669195 0.041074069830020106 -0.09867067044575438 0.05904745128173461 -0.027805053333699897 0.06467741063657939 -0.018653786991255722 -0.1482678964596003 0.002482267162965535 -0.0006676414736177795 -0.07111843113107101 -0.05608719033053093 -0.02356138658061949 0.000359549967795117 -0.08616146997691863 0.004346302415563089 0.010388273024959283 0.029405451620603148 -0.04754412779214109 -0.21333550148580238 -0.007800154686630647 0.0627234715777046 -0.01679996046328734 -0.35906709361028716 0.2843692266614463 0.06360533535436073 0.09076631702988568 0.16583160883346465 0.007372432314122217 0.13508563159858758 0.07348260081214782 -0.06926691254054175 0.05408295179011309 0.19286083779867377 -0.20186731373925834 -0.19306299804235785 -0.1541789461154424 0.06578759030101913 0.0078623239432439 0.07439900229097861 -0.0690238696689117 -0.022703870320756 0.029457831504739372 0.11758011138200329 0.17415825370774135 -0.17061513900712771 -0.24075564652855538 0.026430640768657226 0.16373571734898745 0.04308281205488421 -0.006112016939219159 -0.08126505058533005 0.35653132293494416 0.6426373207287358 -0.10277004395309049 -0.13737837334403655 -0.07264805956832729 -0.011798607045610147 -0.22857549332948396
13 -0.007021430193131664 0.09596532258355353 0.07650779670221693 0.06658581320854383 -0.05611870641691035 -0.16528680836688908 0.015276916004234769 -0.07410997811974736 -0.1948359274029987 -0.09586759307138969 -0.1582411368305733 -0.014430340381976117 0.040327574933563905 0.09476103999180123 0.07915029253764876 -0.042586665623536836 -0.028853977753520322 -0.034913839206971865 0.006457098814716037 0.01808984002762575 0.026670774273961417 -0.006264885449684823 -0.027991788099248523 -0.13350396255492883 0.09367527872284293 0.006380616775794095 0.09163144859027722 0.009163481222537701 0.2706224819410127 -0.006567251913171023 -0.007211682087194309 0.01263281198162008 0.056065034157768555 0.12756748027003384 -0.09046244433863573 0.0013739083990366922 -0.061090192399282664 0.04149413625769585 0.0810312121195745 -0.07650264756169511 -0.08247850223155284 0.05175132710346595 -0.031010610945991206 -0.044476030667797456 0.1472598491489356 -0.003278094571692159 0.1275106790867122 0.014508846253161208 0.06213843799382023 0.19479001588832118 0.039114475631416845 -0.0004294770492555404 0.03617852712659005 0.04399484579734842 0.08535219137356576 -0.03805738583041044 0.17657614316661957 0.08347812500099433 -0.10260735967469536 -0.05263079706876911 0.043444715361741576 0.0882614833213211 -0.0940249673997261 -0.14346527599921788 -0.09090145663842045 0.17987636530488108 0.0013351699884815457 -0.00020785266235795745 0.1543478381161813 -0.019231194139640632 -0.11756637117244591 0.04295076366388401 -0.0457721790248905 0.04208099276635247 0.09069502791664 -0.08181886962862628 -0.09690121396362056 0.09666251137372255 -0.10367483549942404 0.19750854361229364 -0.008529621199625838 0.0650966127740898 0.13348582920564847 -0.05264736389813016 0.17952654866095114 -0.08654005210197344 -0.15751220831342178 -0.20543765508110645 0.07100325079111271 -0.22153262560189949 -0.2437940849268276 -0.09066469046913884 0.022034731387440328 0.1874604860160246 -0.2340303230639141 -0.2432497386193083 -0.1587486378347851 0.03383501000146725 0.1321393385515975 0.0010317041532967293 0.04828393163964675 0.2969105509719211 -0.02597965754200812 -0.07384327546526245 -0.4134246276304722 0.11568619650597592 0.07435182765589239 0.061604077009936364 -0.13454742253041072 0.2628794053171649 -0.18337319711647215 -0.1882120508373089 -0.023785131558110365 -0.14222616671076047 0.2591115224458736 0.17292984619966575 0.002132739182889491 0.14453214426864694 -0.18947001636216 -0.29123306123832704 -0.19332648933255994 -0.1089264884327311 -0.003549226188612671 -0.17136894005147357 0.04332047905666991 0.27153989481535806 -0.47044179710441464 -0.4771543717171405
130 -0.15335455690007116 -0.08003789345261378 0.13079372967994526 -0.034387450550663716 -0.003879777444677146 0.13228899302053318 0.10527585152433597 -0.09102335936888334 -0.01030424142119385 0.07050094979322882 0.054309840084627296 -0.07545598517165639 0.13389284210216623 -0.10649241511747287 0.009295058372130408 -0.10105765247718558 0.030039172790644737 0.0545457252432505 -0.01657548523310515 -0.07450316775007608 -0.1822710721296376 0.007075002760180319 -0.08382941843252181 -0.11564801504952409 0.19093172702072705 -0.04160371340805164 -0.26132929918626385 -0.08800816385708883 -0.08642190020463361 0.015857254660253665 0.028762410706655556 0.2223497438763144 -0.08765897425711644 -0.22802424971474572 -0.06204832357629803 0.15017312968894989 0.019334947051061688 0.009992094537491626 -0.007046371204050803 -0.09990844154079767 0.10062905579896916 -0.0003266532416473733 0.05981488379287697 -0.03234932883313154 -0.09321563712116403 0.07376476248515947 -0.2039789985708207 0.03732385205475487 0.07894106773305071 -0.2001899102371517 -0.08910638315310687 0.1974361125199603 -0.05367629283791135 0.05642369926126852 -0.03396319411939681 -0.12143053543142948 -0.15875520790991537 0.06684332166144404 0.03730999128745693 0.075369992818842 -0.035301280266176883 0.015391268023475721 -0.12479259733011748 0.046701848477297456 0.06629634538508009 -0.005794620301340832 0.05447496181383493 -0.0027424742603839227 0.04668467166240252 -0.22450081335188948 -0.12241632855582413 0.315564192525634 -0.29668627298952654 -0.08157503756415968 0.05104270934405633 -0.028611428163421656 -0.13926637555530572 0.06854280498397128 -0.12013427815544295 0.04729433589246662 -0.03682496240120607 -0.13250883773930971 0.0044032933262908875 -0.08397633129868988 -0.11017651366506358 -0.043976119934723314 0.061958850183811594 0.15891110574087283 -0.10480753195470743 0.18105695350694512 0.08072681380794458 0.10620590261865978 0.0472968036066381 0.23682591853144663 0.1764316151304711 0.1362009250483851 -0.08846276924284908 -0.3192750094483861 0.311891083935398 0.1754796181993803 -0.07430560788185854 0.11291409140552534 0.06290129666076177 -0.08469661275605118 -0.052998371102016405 -0.03403384340246703 -0.42734943732083847 -0.11496767005190965 0.14049689088288073 -0.5451447728000842 0.006209055440114573 -0.06093877623119645 -0.15659171450583384 0.18220563889086502 -0.04923627407468748 0.1530905992409219 -0.013687124889479816 -0.29104483182492563 -0.11246839036710603 -0.09506260423058566 -0.031084467050055253 -0.07869604689026015 -0.1813150512747036 -0.17370787110545938 0.44254409780857834 0.31250127500398295 0.8345374675238482 -0.8280138031478789
