384 128
0 0.12877539238928307 -0.004023050797446866 -0.03766512339545494 -0.007086200039080519 0.020561466057721228 -0.013021208137940457 -0.04736325826382993 0.016101937383420046 -0.004841471707283793 0.030610439483325768 0.11646016402526992 -0.10503742138445758 0.09367934098246213 0.13033575923331775 0.034038106142093016 0.05870268902537984 -0.058690398789100116 -0.04584261535900521 -0.05353550982475786 -0.01750782374392994 0.017053852352470922 -0.018210293880982165 0.034725758154893045 -0.18406764476165946 0.05213584641535829 0.08134019571129242 -0.015621948302982061 0.08730786574457228 -0.04781598854682046 -0.02509194873686203 0.04062379912601615 -0.016833931824437886 0.12156634518973428 -0.01073539866702202 0.0719888382117166 0.004502938669364217 -0.08062703494231233 0.10513502041762993 0.027215154101849007 0.02131823162069414 -0.09052551374302324 0.06034044799723097 0.09845214599547153 0.05272186513978095 -0.0791574425612678 0.06563817412879781 -0.10436007832149663 -0.03384160611603428 0.07752214294740493 0.17229366855907594 0.08192767024877379 0.06662032085292163 -0.0801702399740223 -0.090365820074366 0.09949594579878904 0.023835309552670252 -0.04440041477128364 -0.026761602500732232 0.16572268325238826 -0.17000331230920915 -0.18817016723584462 0.23582807555837884 0.002734846532342815 0.043792472413432336 -0.21191674379069914 -0.09653831985670397 -0.07073062656361905 -0.07994416084351903 0.01920860630956791 -0.0967586792320972 0.2074243929507725 -0.05059776620530938 0.09960978505637284 0.10329654573514743 0.0106739246334821 0.05162578910561587 0.08366448715625466 -0.0850671600131516 0.06619530052752415 0.07524185438030881 0.0976289882663857 0.032458723591541803 0.12657082787353457 0.08557388815991103 0.05550628278795576 0.004326044379283772 -0.16713700542274176 0.1137690433179713 -0.07548938084091718 0.05829802330622767 -0.06079629103622232 0.19133592173492295 -0.12875502465405145 -0.07448618290449907 -0.06841897806950108 0.021041835317115235 -0.14202440931691002 0.007091808638182738 -0.14190883599287882 0.0010903813088953868 -0.003141527439759868 0.017314296415303673 -0.054157218444327686 0.12796428866020343 -0.1706764050803849 0.026342631400581976 -0.08339191847772338 -0.17685261817243164 -0.14410791973907755 0.30645912465937347 -0.0015484544655903541 -0.2377070761008432 0.17654559542634787 -0.05511676896342963 -0.17464173237500846 -0.04619603547564789 -0.022621780101695698 -0.012575459910847353 -0.053771102732283214 0.014373467215632148 0.26908585915495276 -0.1130137146928892 -0.06265134314359445 0.0027475690031015117 0.11113539006771708 -0.21300619563473622 0.026970812248866476 -0.13662851254906463
1 0.024740425454482858 -0.1743471217536384 0.004357826039979682 -0.052122120237999 -0.03627755002030352 -0.024704115209278864 -0.11751476636896614 -0.011414630275544907 0.18755003774696136 -0.005513208901074066 -0.01819809170045485 -0.018263113300971953 -0.05396865083849888 -0.06085547209783036 0.08301667653069768 -0.05081399332039952 0.045266302961462106 0.0410480646452396 0.032926543601217724 -0.04815844245577238 -0.07997605392901057 -0.020059491962947738 0.12842482310099088 0.06837755029059069 -0.0486126946385627 -0.17060338599780625 -0.024797755814486407 0.035944918113155234 -0.03369756845836717 -0.037530380768674106 0.08036780733487786 -0.017528372027357415 -0.06389448836282881 0.0010237997407601034 0.006479287334017236 0.03288072757882279 -0.011485733580029495 -0.029118237492023216 0.11545747820792916 0.2531826121817986 0.09787132485030282 0.04180987715459128 0.09157492074218883 0.029038989530882665 0.07521188391056316 -0.03092416548612187 0.004941613495002152 -0.03852809885834312 -0.07708120117723265 -0.13078871940316186 0.03607043327899108 -0.02695908014063238 -0.09307998834467428 -0.07826330558188886 0.062157579133404764 0.09940440310183349 0.10973708219954897 -0.132312919854894 -0.07604242023152843 0.03731183661265443 0.11949380202831583 0.08299932976842775 0.0014934189385391239 0.14219364820092856 -0.1827974159977625 0.3127975044341322 -0.060225355197682025 0.0434718810935001 0.016781761821602847 -0.17425983992479374 -0.07614756428054116 -0.07554526707807337 0.24459989547006938 0.06497057479933363 -0.1077991919589978 -0.0774303622373441 0.0443098938980364 -0.01593218450649338 0.28973067057916013 0.09523853557291395 0.09099683379876669 -0.12570680575476864 -0.08401948630959459 -0.1446658517149346 -0.1468583076769488 -0.09402886748375516 0.027715889679734446 0.0624062436925438 0.04818006129608351 -0.06867005696533601 -0.13593787479472402 -0.021604814830797493 -0.18376440809470276 0.020412715813566427 0.04523786335270958 -0.13088249418756148 0.11874099550212402 -0.07172396558042594 0.2363144546340992 0.050928679791384636 0.07615453544965013 -0.1336204621332057 0.10709083769840767 0.08503279367186112 -0.014968719161436439 -0.057655603051894495 0.2311701220800202 -0.36049918449519747 -0.13818658996395186 -0.0033716170529681138 -0.017114953843435265 -0.21350391466364932 -0.06127894340205867 0.07443005556962637 -0.11928130126182153 0.05637853242011108 0.029037262869486765 0.03356901877188371 0.019086890613161798 0.11863398620209117 0.2242168726706155 -0.020616067764359227 0.024099684154127127 0.023836473714079997 0.09099650101293565 -0.12492004624496024 -0.05811133950759937 -0.19381187099461705
10 0.0760336862697748 -0.06554965961644543 -0.146849470776778 -0.00522138552950884 0.046773610043908245 -0.008897295045896187 0.007264315122805002 0.0005443597802715097 0.025857837210420676 -0.017656313727611207 -0.15977585914322992 0.07395725570125666 -0.03893519124227417 -0.04606772399961736 0.10455965757037834 -0.017191645828965294 -0.10523822720684824 0.1220044976678461 0.03438535426530538 -0.05483629080712338 0.06661514247047293 0.02561515753003667 -0.05309370430584462 0.020512474416307814 -0.03427693525955581 -0.1803576523666949 -0.04873333436478245 -0.04527481640194367 0.04725464533557482 -0.01840849213922902 0.12037390908669213 -0.12502531513323842 -0.028520712126685565 -0.011879235860075405 0.08417616723168436 -0.014714427875003613 0.06036900277754126 0.10140766054572807 0.11480072588176593 -0.0098188971795402 0.1417002239887151 -0.04376250637926294 0.004683834664744116 0.0646416943086156 0.08695493351825104 0.02994831156767047 -0.004346071116332285 -0.03550134509007582 0.06883059917238334 0.03546668596949091 -0.05011411526214124 -0.00038342384680385466 -0.0030353530302340407 -0.1511428648103984 0.110242074341808 -0.1438206159377916 -0.08878110196415194 -0.05413447883723939 0.10839163129237393 -0.062781945790055 0.08163461772114515 0.07822892258231869 -0.0641837290333414 0.20274557745568444 0.20645593029312156 -0.07667513723730057 0.0012326288463323466 0.03463430450312097 0.09554895853838156 -0.04708976371028828 -0.17863570104423496 0.02846351270326471 -0.124172370391372 0.061959155448132554 0.11140478566307555 -0.0667380984584044 -0.0018920133669487514 -0.0514458599973156 -0.08360651374591013 0.1339146868589755 -0.10004420460386018 0.0832563143585628 -0.23720147379803838 0.13232122166621246 0.21710062740304256 0.025883821335120672 0.006305937725801853 -0.04053988222607768 0.02778182941455217 0.06139891523756632 -0.08388432965793839 -0.06132058669752069 0.11055507427480764 -0.013362733664186688 -0.0004288296361092511 0.020542348784783716 -0.0036638799659385653 0.09054553384870724 -0.026668275141380777 -0.1366376154099693 -0.0638589794601027 -0.07169300374482565 -0.05243571906934236 -0.07099989515349205 -0.15030287046600235 0.22741176890719575 -0.016243992247798655 0.005075932366908841 -0.19218249327159254 0.17835471651504065 -0.10638305009973636 0.15521422877113636 0.10061494658522288 -0.15574869685939277 -0.14819641582045018 -0.05784616276073376 0.018200054546808935 -0.08374134358229336 0.06967994299882435 -0.07549916299018136 0.18943584146822876 -0.42233556949267703 -0.11509138005435408 -0.10566424651467522 0.33509313494812343 -0.4363116748414911 -0.03275700509161466 -0.19331046012392689
100 -0.05245129846265463 -0.09200353959255829 -0.05649304337914778 -0.0043141798280294345 0.003326669512799207 0.0054226135091979925 -0.06546651366260169 -0.023802818445127442 0.12629777518094173 -0.024608500158767886 0.061203914755591005 -0.028868868760991463 0.04617748210407307 -0.09172474151249523 0.06869932381530415 0.021554798647516735 -0.07476929146505451 0.068650914962034 -0.02304438469280747 -0.01340525805324051 0.010678817886913331 0.01912047887681682 0.01862957274433725 0.008636869660609885 -0.05504574803475947 0.047500395426090615 -0.07323016200280073 0.018624664762006568 -0.03314831044813407 0.002879905746942536 0.04739420940717503 0.027890283774154794 -0.033541753694735596 0.024358230409528586 -0.09208496974828187 -0.03467054362972484 0.06485845563626642 0.022663286773235064 0.00015277302461394224 -0.002693483700757728 -0.0492262016663496 -0.0902921163084866 0.02519228449023362 0.058190237075562215 0.11684655764169595 0.06749615764314938 -0.057745479244816 -0.026514597813890463 -0.10361809803090312 -0.02801669648757765 -0.027851257180004335 -0.060088951734394734 0.09377608901060913 -0.02287289231337948 0.12364454684436436 0.00897175912098982 -0.03999424565915624 0.009641171993546633 0.013184903339202716 0.0021941156252799185 -0.040756953783884727 -0.06500800548368993 0.041403744842804166 0.06923285960676 0.05029449208731506 -0.10960857680602351 0.023979052427373224 -0.22531647238107985 -0.00744162112923917 0.06760358256886982 -0.0027626708283060176 0.013650985526692885 -0.12048541497508707 -0.05265859323284839 -0.013537409681210779 -0.1499768125267873 0.08789754806784815 0.04625755831575072 0.07067814297979769 0.1158631193209392 -0.13626946190592343 -0.02606653443716626 -0.06285883673987266 0.06527220908676593 0.13349422634442418 -0.02697757301171797 -0.054339595493619684 -0.08919448796899339 -0.05554863172639871 -0.03153718883243844 0.08702598812343261 -0.02336161930448467 0.025436801075528162 -0.025011522445431488 0.10967715592736935 -0.017577941017454992 0.07638693388591847 -0.030644054742549425 0.009768505896013873 0.0046550259943377555 0.004442601705775267 0.05427053672175464 -0.062391741731541606 -0.0550733929393531 0.10882813907158498 -0.019120177148492457 -0.13835067865590198 0.0947349981382985 -0.21790889681542702 -0.05640295438434983 0.12371549196560878 -0.03799589570520217 -0.07226454965358796 0.1304163663793549 0.0309580707802671 0.08097257963956274 -0.02081288956820876 -0.05434147705197246 0.013167728957536887 0.047191123671311515 0.2730029139255451 -0.26562184693784174 -0.04245076538634004 -0.06079010392766297 0.18586658879159149 -0.2577080843617215 -0.037851531982815136 -0.1523321761981628
101 -0.010765877022629489 -0.03440867856537996 0.044313281572932885 -0.02177831077766312 -0.0440020223382398 -0.07299652250270139 0.00936594504131012 -0.09830964781459951 -0.02448863602020955 -0.0729451365256264 -0.030273476131651288 -0.007935374130825382 -0.05280162865900891 0.06417961438009896 -0.057130030232697415 -0.22441854281850848 0.07114461505134612 -0.07591713671939003 -0.1439809764708231 -0.03269433177885381 0.01809452740520628 0.04915546038501825 0.06388383804079194 -0.05240526846057187 -0.07466754992154212 0.09311773235032675 0.009363952031609335 -0.04047906984377745 -0.12106213060042122 0.10198218397414142 0.2325056193950045 0.07325932957037887 0.12607525186487378 0.0317580011459263 -0.04910273082205293 -0.011227763276849012 0.14230665802830306 0.10865165825646768 0.01990475091242862 -0.03233799732400926 -0.09694265454447 0.1554929122895203 -0.14086385335188784 0.015790550043269503 0.049681085156263474 -0.03350701714565682 -0.11970558899588751 -0.035398496458807056 0.04084909083245183 -0.008921338618466295 -0.021419230855910375 -0.0887216656707553 0.08281789086337 -0.13024109278311863 -0.03280026443649361 -0.2080383450484322 -0.11496765891022324 0.040849065551134905 0.013600884819534207 0.051880968127676154 -0.07119502619146832 -0.03330606019218329 0.13447653500702417 0.002447193238990891 0.11495040212843416 0.08910356255379039 -0.10560519432308434 -0.010128130957345938 0.09726216542894464 0.11563230434672848 -0.08842828020439751 -0.15149597399619127 -0.05717349481903964 0.10877421382684069 -0.0895109276538159 0.20774408549289328 -0.1056348889760998 0.01815024945255245 0.014426469298213174 -0.010179042733582772 -0.031189870736173193 0.017377560002377043 -0.08881443433240001 -0.08865117769873795 0.07918716519591579 -0.07913165963037506 -0.05500357478611739 0.029262183557646725 0.10471008573173966 -0.22033854908010206 -0.17760097624609042 -0.028826234221117443 -0.11540105356197553 -0.17026602932288779 0.17913232452120798 0.1021241408281732 0.10068030627991756 -0.20459642674001488 0.07030820860262892 -0.012486197613787553 0.15366315012835377 -0.12663697621057993 -0.3654924487347037 -0.14703731742236933 0.5429195349191182 -0.2350808138303016 -0.2107946118051555 0.22093316218811868 -0.15386317770824817 0.39224410288706996 -0.15943422829358656 0.3889555209166781 0.510161110800322 -0.15983436210511112 0.19883827724087294 0.4890011267450943 0.046110925646070715 0.1724820149316956 0.15849642285826968 -0.0002957306322006314 0.08446990932271475 0.13103337447083577 0.07427773987488479 -0.31751720524912386 0.10658789603216433 0.08803312605355566 -0.6309925431757144 -0.6887061273315167
102 -0.05031235137976315 0.018846774392410146 0.014611675603101029 -0.03993422889893503 -0.029339988227628927 0.009812969414793649 0.09877616414850242 -0.014605361677205175 0.09124873732361498 -0.007983218862402431 0.10764033849949106 -0.10833341349000933 -0.022917631310990186 0.15544219428151163 0.04823872173982905 0.031886610845441206 -0.09693099652445196 -0.03463363862252583 0.027931769148145397 -0.009640889175747517 -0.04871446832774933 0.0379336976461366 -0.03511382671867657 0.16311476184260298 0.008820875206213797 0.05695026679739628 -0.09309240569190068 -0.04166199115695193 0.002391130207242884 -0.1758362823242029 0.12157099176666959 -0.0788939459977576 -0.015727480135596654 0.06042914605118529 -0.1594186533261072 -0.11944215236431288 -0.07177692956510985 -0.007476887671836364 -0.0028197767505113943 -0.13939397295137151 -0.017510576144838308 -0.05528390860004399 0.14563287637452235 0.021808739662941973 -0.09029412962719569 0.06113565431959479 -0.10355706045431864 -0.02980880419164017 0.08767417664465156 -0.0838973311354753 0.018171136173014343 0.11870928429348515 0.026537980511226602 -0.1883576460099561 0.008276197786107154 0.064201778511006 0.016476370363817102 -0.0966711332048012 0.09058661050627179 0.04127498793869714 -0.011630849756114708 0.24379214115061082 0.12407704135308154 -0.32177028200829083 -0.040889682242986905 -0.04022283562414312 0.023463568582862093 0.09134156939250682 -0.04244073681124182 0.03364896973730497 0.1003752125487648 -0.15196640254993068 0.01598680485261266 0.15452410191388039 -0.11432942760579783 -0.14231802491959528 0.15274855718244879 -0.07083828698879743 -0.02618799811015946 0.12529966908691467 0.024661001955680252 -0.04412247240210826 -0.08525182231209795 0.08555171946964597 0.11359596631207332 -0.06239688584707228 -0.014771205541277548 0.27192763833394495 -0.024226473203159897 0.29765208684763644 -0.010575992400940254 0.09908178545101073 -0.011017436839954408 0.010205144005333297 0.04032057253980715 0.12494687678829251 -0.0933788442139978 0.004775184210425289 0.01544623607759649 0.03531693075340789 0.08582966862088288 -0.026741614119277685 -0.10410374591256731 0.09309488150096334 -0.011317050578343759 0.031119513388353823 0.027432910708991322 -0.25185641829089833 -0.1800850721439137 0.24262903866579885 -0.15145552433003917 -0.023738517806603247 0.08960608639825597 0.028939719050293848 -0.15815378336987865 0.028431233415176883 -0.013364008405131602 -0.045933247978471786 -7.715197350367594e-05 0.04404198683420503 0.23848243331628327 -0.2415630506791247 -0.01358986953032021 -0.02205969040748687 0.1936183443537594 -0.2221158375206552 -0.021593896942735686 -0.1638852906381855
103 0.07683639365430929 -0.03254006447076925 -0.045462681989288635 -0.05763031219537037 -0.018363822057074104 -0.09548661374916051 -0.04884095962995399 -0.043134682320086604 0.020456448173542707 -0.01726467711668093 0.034028725948254686 0.0637842408316108 -0.05779202158510969 0.11599672790072152 -0.11355521210074013 -0.021480124310735777 -0.15839573909137877 0.011057656824354419 -0.004885118851805728 0.0669274144276224 0.072767038986135 0.03301615489864531 -0.01884347070499948 -0.052430753052255356 0.09393268856743031 0.08176177335367789 -0.01876574540354361 0.18007709859706295 -0.002642202847691341 -0.032159708204477784 0.0008212911890225214 0.0033683019226892494 -0.018040136755692146 -0.06604706869965724 0.09525124205168824 0.03082235173246299 -0.061600658631364456 -0.033331074488298404 0.061900000199842986 -0.053584548952191245 -0.02010685973006293 0.01636010456817302 -0.02693297178744107 0.11334182644396439 0.03471930265920564 -0.05180559760490947 0.06648327966078392 0.023363252615492398 0.033877644864358084 -0.04892743884102289 -0.04497757783380925 -0.022295358466767647 0.12497257182721273 0.0735784702815864 -0.0501978737431114 -0.05186477793413335 0.05464433043896983 -0.013726442062809442 -0.04629166460640384 0.009244128797414448 0.08107728992357716 0.006044524658998401 0.09601771571423127 -0.06398704603827027 -0.01117165448827243 0.08050099845444299 -0.10530898306297137 0.07435984052402754 0.10270400436897775 0.05635528929039605 -0.09095257455945573 0.06216065422957122 -0.0015374061464336665 0.062397251508503296 0.07136808460378141 0.10713805944070208 0.11294033943585761 0.23824308894370957 -0.0873959283778001 0.04495290192064354 -0.06518117441621961 -0.030462330863884467 0.027403824535157006 -0.19405112719346937 -0.034368505756977 0.010695198775074731 -0.04649792371450048 -0.04674411517193538 -0.07376598660648966 0.15400957040678948 0.17102527106136373 -0.1189937636783403 0.05839967001447593 -0.07920992585327605 0.2091613547733271 0.0246849111661029 0.2146033268878601 -0.2038211502318433 -0.0021674966442281015 0.0032413616616896557 -0.01577625867742802 -0.16252327809362904 -0.1990920985006316 0.11156523921247052 -0.0343453096874301 -0.15221023596480818 0.08805142108717319 -0.03132454449504907 -0.05954394664299133 -0.03849369406862068 -0.0024694688787824026 0.13468984230172365 -0.15828212374574102 0.08948989059050433 -0.08266462316518138 0.08221372915078982 0.035800552297851375 -0.12435039128730987 0.6158757206423073 -0.8502185003060108 -0.013062276294701494 0.229386972431657 -0.09912818413091379 1.0465703445517274 0.3109667950096557 0.04043402660742112 0.2755126133128026 -0.4192912090832251
104 -0.032826737258521796 0.03580506235213934 0.06264886029273346 -0.02489953230419939 0.05564998663780846 -0.002930818097032105 0.02126185987737921 0.04076908972483294 0.12807078017591997 -0.017608610307785072 0.15900562788551797 0.05576161292225627 0.043068704986685344 0.08509752193885844 -0.13100894616644554 -0.04004941846121621 0.10467539622916638 -0.03905021055791113 0.10864100144749228 -0.061954437277708774 -0.07188866538901209 0.010349252740897963 0.19281358064866363 0.15652973261997014 0.04820474400962853 -0.06451024828010464 0.03986916529739867 -0.12134516430940577 -0.024771079771757555 0.08486074240170623 0.009677197631152296 -0.01775604286329991 -0.25470302592049154 0.07001415382218511 -0.08483271851102725 0.06568935895948369 0.034656358469355275 0.02320048388076849 0.01727009091071431 0.0671903739509209 0.054000273894635686 0.09757912985280602 -0.02344302466490556 -0.08202551928893881 0.03730705041341176 0.04715380330620774 0.08808493192591851 0.26637918739089345 -0.08685870788203671 0.0009301605105888555 0.042661660667615404 0.16798171118071759 0.04260067936614201 0.02611600972987602 -0.08695154664371971 0.059803736386997125 -0.17712411522383578 0.039367545595767335 -0.11977709791844876 -0.08189461422968553 0.17480056155610488 0.10335902414883798 0.009711652356963701 0.139797448151431 -0.041841958770991436 -0.047692670255511584 0.033912557347622295 -0.10574559749532907 0.07869482845738068 0.10750209284269645 -0.10832537673555889 -0.08718175871387293 -0.16211923882696797 0.0777491248511361 0.08704015614371367 -0.052591803486722426 0.005144924404780103 0.00439921649261432 0.128614166595607 -0.16774618504785038 -0.060817337464868636 0.0889725919286485 0.1264697074347426 -0.027263398504135106 -0.057642465087203595 0.2970875141299138 -0.06486105148767041 0.07810680074936427 0.061505507754071716 0.06961244978199842 0.14380253563441564 -0.11736859595978835 -0.05853213154593089 0.10957948511891663 -0.06329069417249575 -0.022595310725127635 -0.14544873677808637 0.009453197532416734 0.14523516011036403 -0.2553879089650709 0.1885994223064753 0.1777627159868941 -0.22460035036101866 -0.2609430467116582 0.09559025178413286 0.2677803709209447 -0.1611532662973861 -0.15694273679233292 -0.041121623667647496 -0.028517412297425996 0.08612940710510775 -0.2786459897210248 0.27411588737795406 0.1314096091852632 0.30453215781261167 -0.09542275960459418 0.04342433788862321 -0.05920962440607045 -0.11580331697614059 0.1481439593950584 0.22161343365871644 -0.011316613693560074 0.06301822458150234 0.2279699532490163 0.1584291920033524 0.01765933707534943 0.18092334955495065 -0.24312529341910707
105 -0.09495359819333281 0.049007512723895336 0.11850199675532175 0.00676818579583832 0.22104900197592464 0.05281681952432279 -0.08465655297522488 -0.004342305978147108 0.002185557392982727 0.03658669613539691 0.06233018438292806 0.07617846019229459 0.1257128718983658 0.005787652217667602 0.008839304987381481 0.13138978282123398 -0.042684803805093534 0.04636341070930717 0.13745153261717186 0.06579276231648502 0.02496345965978743 -0.1051804016743529 0.02487954373970592 0.12535880399604196 -0.041685485267057565 0.07327871393887422 -0.08053794360833139 -0.05338638751403284 -0.18237595838366855 0.006063589730481684 0.13805176572963274 0.17690181281065703 0.03442427622374973 -0.15486248518158371 0.018901588505042616 0.01995649755724862 0.10687151645859844 0.056191353392571995 -0.03624308901011437 0.013652086020503537 0.004187186942081931 0.09401447431586613 -0.13018619397018905 0.026016479553828627 -0.0078075413389811854 0.03327331005344024 -0.18909642220869155 0.10377536785688446 0.11488161568595873 -0.005251610172815278 -0.04430531553356193 0.026372428606367296 0.045460382884861025 0.005708972715943469 -0.04048525997463991 0.11863237052413263 -0.09848897465655808 0.013664955101899736 0.05483104841229291 0.13024919288687883 -0.3580491129880457 0.0885826106492196 0.08542997598353724 0.2831185973238641 -0.05659859106013953 0.06313459875881586 0.13836153746099145 0.1344309220814694 0.0357497471080098 0.07108109276123986 0.13760049168812116 -0.11542588491793712 -0.06249627910761783 0.15294464151033862 0.078783222038874 -0.276441975497891 0.040397295280642495 0.08557459756265086 -0.18230908984273017 0.04992897348144429 0.04240717688926568 -0.14557339730135982 0.0881884424118008 -0.16868001590894446 0.0026595754646201127 -0.05012558583438348 0.044267788219493114 0.22962101869447493 0.21807646318647594 0.16330183577760704 -0.023457979573535542 0.06340146223331031 -0.042872000210938364 0.16588970631516356 0.09591467343893355 -0.07009846703616703 0.09765947864297303 -0.2346000660931157 0.04632396378833913 -0.03885068954250653 0.1932209928539491 -0.02877200974597316 -0.2794893443688384 0.06968189234778983 0.2783305250027002 -0.1480619162807444 -0.020431004720048905 -0.10066447137732305 -0.005479797959845886 0.2974240889064251 -0.22910162974763484 -0.02500509554751965 0.17953879765937653 -0.17618908121129423 -0.06521644990292935 0.24700862692247527 -0.07748660143296224 -0.06726234775222625 -0.18772454460382115 0.01740920512785917 0.1579525011456794 0.23160184533367548 0.11816257720115389 -0.05452253778079515 -0.008531271716148718 0.1563701606645918 -0.3090685290878435 -0.4928967652914316
106 0.043650990769650067 0.10141856193009505 -0.10477169766451257 -0.022973519331908002 -0.04686454870270762 0.01835681755033621 0.02384451987633312 -0.0019782632176073896 0.028468817036782355 -0.027090354943657618 -0.01755579739417724 0.016352646911508752 0.00785301339721127 0.09484222267478837 0.1304267395546869 -0.03090070408236301 -0.05582224535925807 -0.11391827863147728 0.03479193355278071 0.015437787010310476 -0.2057129346887267 -0.019545154606834 -0.04298797896753995 -0.03975552729833426 -0.02170377895220213 0.11942865347767137 0.038696628226507754 -0.23212476535528045 -0.011421484596214445 0.0232181822883338 -0.01832386490159145 0.018268823047908948 0.030146101455690622 0.014012573507514253 -0.006270012820707402 -0.03125491468073068 -0.01044596726267797 -0.06375666400351772 -0.11296585334968229 0.055491390827379444 0.041785647224049434 0.016853601432130577 -0.0318050700008149 -0.0211595858979735 -0.1111965629388695 -0.09248007947583059 -0.004527611813669523 0.06970346158258366 0.0022958991597340746 0.04268902115968242 -0.005925234934241307 0.09501700947066699 0.0740926832367954 0.10716370385486287 0.0734242947124703 -0.06979296398287656 0.0126086199726766 0.16337416499197105 -0.09888949298384159 0.012317452265225612 0.019372723675227476 0.08140533888281344 0.02039332129215974 0.04113344655671798 0.002261836134381562 0.021916179769377212 -0.16400521574429786 0.026412587440894603 -0.013924697085591513 0.1921329202086795 -0.02450708859306614 0.04427894904642406 -0.031642418806716636 -0.22875239216014856 -0.08334755524710244 0.04925292530860308 0.010349921341058027 0.13529567195578013 -0.11552493039225743 -0.14812857847859753 0.17176032905598532 -0.07367693693384605 -0.03811759348660762 0.014453220925312659 -0.2924478048173084 -0.07727269060655663 0.10889558738803609 0.07456402677725896 0.0705465016811507 -0.05882400206746815 0.17832775765733108 -0.02775716547594252 0.024377021215995064 -0.048972740291444376 0.02601080246535365 -0.18892021370022413 -0.17620088987645846 -0.1377285691045569 -0.0018883770318507118 0.06297553020588204 -0.18937569520032357 0.08853757611978974 -0.14333315704750468 -0.03403726509090818 0.018358533739003695 -0.16518765801404856 0.013875091910402216 -0.15318618933998915 -0.05926314830954588 0.09176007284434987 0.27670013984073893 0.12540184657821443 -0.25742572607046804 -0.14311218479219034 0.0295066933798811 -0.11737232614225951 -0.26001932793242677 0.2525915405716535 -0.05981024431457879 -0.030645227214942665 0.23632537472402265 0.0282028260136053 -0.057583125278702234 -0.13362980035418967 0.09121781825019462 -0.26891337466289233 0.16016404475858517 -0.14763000026813733
107 -0.19578865780086974 0.16282586061640208 -0.22806187835289665 -0.027651289430507157 0.01285581383322668 -0.01485356965459935 -0.22997978970000668 -0.028548632934871306 -0.12158284465676451 -0.07116716156022712 0.30437287784357797 0.05272983856187248 -0.05080234094050605 0.061675552444472995 -0.04983143311323988 0.06329895176454012 -0.006228791465471606 0.06313321579160049 -0.15901661920548027 0.05377117850287183 -0.11411315576526747 -0.007856909721903069 -0.013075318648381492 -0.19116402492669132 0.035061042748760526 -0.014213669335774143 -0.013475163300750955 0.05782528165701442 -0.05053849773022051 0.020702396763473175 0.04547147470374162 -0.1430484230534614 0.06304421869476842 -0.09120546089744574 0.06250030233838862 -0.002352030106189394 -0.04382940064603758 -0.030788177598271006 0.09307067422600235 0.17369204964424623 0.09055083902008151 -0.10084395217435317 -0.015476799539652744 -0.006342678501751467 -0.002654453037784411 -0.0011976035444522556 0.0052085245921102705 -0.0025189109326256443 -0.06673119757002978 0.04928343308943727 0.0771690843761011 0.0143425083916509 0.18350283420230948 -0.0066809335383946735 -0.07231815641261255 -0.16824156090286752 -0.013914762598905573 -0.22694714644995734 0.019647797114329343 -0.008266952004997127 -0.013843716261676159 -0.024779949576166086 0.05325918404919332 0.06933541415006995 0.0026624131644461995 0.004603402570934701 -0.245839327871779 0.17937655293588953 0.16137464432763035 -0.01300069269118442 -0.2271831403600384 0.07199613684660186 -0.08345598371938966 0.041401763967532555 -0.07863536578305466 0.11490807389097901 0.03417425714791311 0.12521069862360218 0.0831154739053036 -0.006288834408481785 0.04050802293390499 0.03278378720251466 0.04258049203711304 -0.15342242888239893 -0.011115079369971364 0.009307300209484183 0.015277024760147057 0.062378152362111985 0.0065257224535911484 0.12095477931559678 0.22861670580432408 -0.04602485628531033 0.07045966130774958 -0.11466619229580673 0.11206751818704512 0.24216320895170607 0.16332430278476728 -0.04894787930445575 -0.07658989753067642 -0.20088408645663988 0.026264339644332883 -0.39361855253559125 -0.1639486192429193 -0.0665315800095335 -0.01547642629668063 0.10761180920121423 0.22377259354347953 0.203465511798444 0.006776135259706834 -0.3060593258254816 -0.15713240397928635 0.13068689919148777 -0.04489540210500549 -0.6357863650446727 -0.1463083959264495 -0.11853043510989547 0.2312292531859538 0.06575569148265725 -0.18103414113807165 -0.006923329794244085 0.04372756157470574 0.21614353507825815 -0.0035466793235800066 0.2687651730821404 0.05386737876834415 -0.37089145311867905 0.13292942161878646 -0.17282863543665
108 -0.1282436719799692 0.019158277348054215 -0.10528205226372686 -0.01206754756280383 0.12440711225494754 -0.08421636718188343 0.0359869707644868 -0.01601826539360728 0.008750871474282012 -0.0347606363920259 -0.3475875518253233 -0.09133839610176138 0.10532100445273974 -0.11393900907490416 -0.06566171005492528 0.03900391611010168 -0.19226457088755533 -0.11570850894578388 -0.06842495747944471 0.04549071470418378 -0.07741911843187647 -0.01026291030949734 0.07199782719650347 -0.037334778863813665 0.0632534444962825 0.03228199876535777 0.04660077608285267 0.01292361818785255 -0.018509768729475056 -0.024436176409632533 0.041723473159536846 0.005967104371259147 -0.0352726998164178 -0.10711587848035446 -0.07841853348912796 0.03620199847253654 -0.032463146161173274 0.031580333316076736 0.09290396028100117 -0.16201718147385646 -0.07991500074948373 0.08795816589015246 0.13269405079350569 -0.06616717289419803 0.018394413180030107 0.12127965705332758 0.046583439407090484 0.12430768686651135 0.14874631582998535 0.018438874054655233 0.19836112942117953 -0.13292261604003164 0.04950672854962584 -0.05512766701648295 0.04939738941670226 -0.09084779894733226 0.1236128138873881 0.12572064600480234 0.10321386492336013 0.040346901352310824 0.09691806371765084 -0.11595143263963979 0.11028810037611209 -0.13546859391580274 -0.16369354724430396 0.12101594764399722 0.09906866836861954 -0.031246677807519326 0.25097100860035043 0.04562506656316135 0.06280420788706904 0.11843825350906104 0.032738433829658645 0.05612607602384882 0.19655708260772586 0.08323568542880876 -0.12210037275934216 0.02257302062411009 0.10965530016605717 -0.19832319489251518 0.21135593420603757 -0.05900362555752662 0.08271500041123839 0.015884576999492094 0.20642463917376352 -0.024455622114745383 -0.08267274727861992 -0.180136916239025 -0.15326331384262348 0.10767090053496763 0.16197116250502783 0.023688348154712553 -0.3988394329316746 0.1031574134679532 -0.23540503737155805 0.1400708066229456 0.3897134321158289 0.06940730017774885 0.07938658705952333 -0.05117952004436139 0.010099825340410998 -0.18634300106527518 -0.010309299103422561 -0.18242774392918373 -0.13642623406485335 -0.3495977606905628 -0.1315244542762478 -0.046951631383611615 0.0015581750412394057 0.2289613127351038 -0.28725834568304465 -0.0015767241087596372 -0.26106841835675104 -0.0702115692874786 0.02655368666579064 -0.021393008720650548 0.01560266948460452 0.16728363521246709 -0.0030731515317760044 0.13198194167575944 0.15466087878662188 0.10845914350123269 0.06372305413046825 0.14065608244309782 0.10315437819201459 -0.010974645769481251 0.18758126537424685 -0.2121438489154791
109 0.026842623288747983 0.08212906294546349 0.045367777238258265 -0.0602143156557834 -0.13929356352263406 0.07950852411077593 -0.1287595052720883 0.07320508035329357 0.17146184771292322 -0.037260177827790876 0.04375342817997253 -0.04609526775990058 0.17264151726265117 -0.12752217132880858 -0.12176171331659241 -0.027724966231684574 -0.1062608847648425 0.13028236421913306 -0.03124917917350886 0.020693900692732647 0.013909113576366573 -0.06128083963402055 -0.09766614692658727 -0.036903484172087296 -0.058796269547072226 -0.07137653116368102 -0.12376445230914303 -0.11830371723052402 -0.14260983845651937 -0.06669016751835852 0.06000081774920186 -0.02644588966675907 -0.053228577321490625 0.024904480818693075 0.12637981338821447 0.02900020232304012 0.0035090338913225396 0.008812817423677087 0.08133279121117439 -0.005931462208858457 0.010871798624312359 -0.03853390570040596 -0.023201819164758566 -0.04629140790178927 -0.042750125576091313 0.058367693808923454 -0.03673680139234277 0.10550873845486762 -0.14044536542607433 -0.21170364287235793 -0.11491348593684415 0.03286411604951635 -0.004002190507295585 0.13119609171258265 0.07908648997359385 -0.016277466666665585 -0.06278253108169436 -0.217875638512303 -0.004006467922150896 -0.03455303001871281 0.0862335395475676 -0.05652257806388192 -0.013812900006437477 0.15466132548145872 -0.0015373212295159413 0.008324873108332114 0.062242492018532165 -0.04474157637120958 -0.06131166632226638 -0.021022710085171144 0.03299779654453319 -0.12434392925383599 -0.04849492620040568 -0.025095628139278073 0.08946954574290311 0.11848100928129549 -0.0013707635851890343 -0.06952018907659166 -0.05374271366434358 -0.05197302312736533 0.027381792248320817 0.18280381763616044 -0.07654666657559503 0.04177412845260194 0.05641789969068084 0.024731086565694154 -0.16451247633923258 0.32437722092434373 -0.21636022850244482 -0.3563979163122177 0.09403338943134594 -0.06128103570317402 0.06328908439264887 0.46603903010833964 0.17317120510469833 -0.14194890683780775 0.4651365528790538 0.10303203750280115 0.14449005896023626 0.1935573281216535 -0.058164062953980265 0.2796356218639979 0.052804839549020946 -0.020131723930055006 0.3060979318371679 -0.006073114206203412 0.04598259314350802 0.2070636379966863 0.015090259923611321 -0.1635495345750404 0.057321341039389434 0.10572375421164358 -0.2149921042725603 0.1270382108380368 0.11833988755268153 0.12066029835524708 -0.14488291021680777 -0.07304142936166905 0.0013457079989126416 -0.08642309499303061 -0.033557017792531604 -0.5333420735359363 -0.12841766561592877 -0.23484746930701167 0.4356165703436542 -0.5622585002264672 -0.07502926894117412 -0.2477054767753624
11 0.11113965978776762 -0.010607088700229186 -0.16700066569657873 0.07957541343757905 -0.22239053657143104 0.0904155142707678 0.07061011984997188 0.01741840545700127 0.19274979976498563 0.08737037107857051 0.12734722728754672 0.10985259621529347 0.15897678427325213 -0.04638454880778844 0.006828494009062039 -0.04681682864350637 -0.04668631418574643 -0.015065920266618328 0.0008888115963263512 -0.019166236883714834 0.06470058291428492 -0.024087805093735263 -0.07893627433961029 -0.10760632992447379 0.16685564474513856 -0.03799985614677396 -0.026708608816180826 0.02165334824249186 0.0791733035913437 -0.07033120077094306 -0.1388636125067953 0.06928737229940518 0.003708780730711339 0.09029209501444396 -0.23926309641506385 -0.042567737357365916 0.1242936249477795 0.000531416082876528 -0.0061170313821029285 -0.02995798731020085 -0.06149104635435866 -0.04888852836424501 0.14041552768137783 0.1587514422448585 -0.01109722588080704 -0.06571592783789582 0.03278319078837465 -0.08277115969595558 -0.021652882368072016 0.07187854329886317 0.07431736243654327 0.007083588240666635 0.24215183276406382 0.06711312917042779 -0.08773728534544008 -0.061329640577957215 -0.1980450953222462 0.09696144987497175 0.13067712796118608 -0.0038251550462937017 0.042946413754392364 -0.09550776232158131 -0.06934683955152343 -0.2959449238967249 0.05659893448253888 -0.1219076257905044 0.034216472757678466 0.014779799640006027 0.05500058332105688 -0.12008068697638699 -0.020389683188147472 -0.1152936852015202 -0.07875017706171696 -0.1590859653329211 -0.12048952423398422 -0.04870214757430252 -0.13541029902515092 -0.24004468449467842 -0.01803020052328633 0.18171557646293748 0.09593591004847565 -0.03574351086505979 0.16216634321909118 -0.11632905757308604 0.030506291492789016 -0.22375646174191077 -0.12768971862898204 0.1295704867306469 0.1403955045585957 0.0760450103999044 0.15597526291894187 -0.24450934277581038 -0.07709488525814455 0.09149034838747473 -0.11325739407360443 0.09445134203910469 -0.12381433176378134 0.06142200257100379 -0.2683081496478163 -0.009621013169370777 0.28133735932279663 -0.24944783244626487 -0.0660784146346536 0.06303351076838445 -0.19632534832454093 -0.09176690510114441 -0.26259699742663445 0.1565568033276136 -0.1232897286747203 -0.009941663105598336 0.16313583908867335 -0.12262672599687034 -0.15315907363871106 0.08288518268718127 0.04468420865305056 0.1421444130963005 -0.10260038525772223 -0.27931644958019697 0.11765316457629624 -0.5121072767707149 0.16815402792369172 0.2508646979487445 -0.029540430118746658 0.14055487196966374 0.07731971916591718 0.17744898202162393 -0.3608964096100022 -0.6422012456854597
110 -0.05137991978578246 -0.11199156748669076 0.09830883582526251 0.029675494925663987 0.024431136808686207 0.03600357909688455 -0.022160578856686652 0.009147261510491554 -0.06741350567134956 -0.005761512178595838 0.03128799581751913 -0.061542738216805185 -0.15365488382728626 -0.04007707919198957 -0.09964278120746757 0.041277014434042796 -0.12217647232463971 -0.12109749283188183 -0.027652290867964106 0.00023177200697825783 0.034538140428712 0.12412392846478772 0.013449149758896566 -0.06010714839598765 -0.0013430716310364652 -0.12349690500479124 0.0035280681267926585 0.07142924229424767 0.05735371294999705 -0.055836514049174536 -0.023118138228449003 -0.09232225294504882 -0.1322924981120148 -0.0028732427114651093 -0.016414784814124166 -0.013143740001445949 -0.08086305694510439 0.09704881066064858 -0.030690209922294515 -0.00804595603839182 -0.060541521509002105 0.0714617404099746 -0.09610748528928267 -0.0607297850503481 -0.1749998733467065 -0.10180316537616091 0.06132056021968272 -0.17554734484167311 0.08512045935386353 -0.13980121511352336 -0.15025901079178952 0.11602207840210131 -0.040350387442470326 -0.10794987377820128 0.060269547386547835 -0.0012917364126878543 -0.1955041288484598 0.08895257763424931 0.060436074008445244 0.060537778263197194 0.18710939752879555 0.011886195857519996 -0.06944593192174409 -0.024894042019581383 -0.012270724713270854 -0.10368376428957725 0.08547158610516382 -0.04611900690541317 -0.11550915699033189 0.1307844807820266 0.07664340187804654 0.22096619183433067 0.0038955335670551707 0.02213316548415281 0.049452343653363526 0.07275707386316968 -0.11602872288662433 0.059786647072933484 -0.018750362257081744 0.07915907705993569 -0.1062069298245566 -0.051218807388645864 0.10885696943422475 -0.1682539678932929 0.10954150613347616 -0.1251378013451403 0.09521960057461139 0.0999823271359257 0.09062870963054405 -0.0349162558696412 0.005311461863243011 0.1366502091480558 0.19645005960149828 0.05762574607976313 -0.08561799706272999 -0.09277391559434424 0.015981063759667034 0.10954016198694919 -0.32477257625897793 0.19189430943021202 0.00892682256076084 0.16890659988175857 -0.4504529082567985 -0.06019920644910257 -0.17997946341947224 0.04568267422827011 -0.10727570912667546 -0.017729453244289105 0.2124495458626947 -0.033881041281011666 0.07865597019095101 0.008343100302425025 -0.08233438073111302 0.11333717013518577 -0.028265586547817037 0.045751288684129525 0.2063230629733347 -0.02041000631890985 0.08207653744286421 0.13338187909034918 0.24665552342975378 0.08428079622910496 -0.05732013246187743 -0.09722868913040279 -0.29937827625534685 -0.13963345132558957 0.1619196229832696 -0.1930000366423547
111 -0.0020589663691060927 0.12525948756333385 -0.03456761369006999 -0.0499641301045656 -0.016505305566222005 -0.010569478247648941 0.024387619004069074 -0.000667514005759493 -0.01010271681594135 -0.022620732400501522 -0.02554361446108008 -0.011755732345690535 0.0008697741986005398 0.017511081138090967 -0.004089963145884657 0.009452767204954433 -0.019501476931278964 -0.22977522592584698 -0.03172645362978402 0.010157774915127014 -0.18696216155901527 -0.003985057901966247 -0.1682495675748962 -0.06278573632586902 0.06795311579752233 -0.03256016555693272 -0.027750764313120103 -0.14794731037457887 0.032540557137458986 -0.052497894105660164 0.05936333704394229 -0.03378944861049759 0.007064966895388012 0.10694655121852084 0.05731890153291233 0.0611761144826105 0.027110076000871768 0.029084231693423765 0.03497520115210193 -0.006990921105473944 0.042846442665439 0.07862832344403385 -0.11664178175791946 0.09743968430380767 -0.01192822970951811 0.01576937143295653 -0.00906762676561248 0.04991994808361742 0.14834349215738543 0.04428174743210036 -0.054521836405160784 0.12782796158140494 -0.07933885286491948 -0.06675301350627318 -0.026978676174443668 0.07588692495094129 0.07770232067623409 0.030809975170554095 -0.11753207911866392 -0.09317593239685185 0.03194641171006281 0.1783054869133145 -0.05738153483057467 0.06572199688507556 -0.056407800009704544 -0.08376084692542429 -0.09925160319755619 -0.05515168257754535 0.11662279332565303 0.006364968559238927 -0.007854820675264655 -0.04965832224652359 0.08598635005606953 -0.1313153411037069 0.04680448243883156 0.04494560108589873 -0.0021486473947020723 0.03665479475499099 -0.1735411365837707 0.03826809996198972 0.1701599474193811 0.2461822250102609 -0.17471549904127998 -0.07194435550698146 -0.07924892358247886 -0.07245422653012812 -0.13733387244292083 -0.007158888926385946 0.2095830557623491 0.008893420408755792 -0.0058003639560088175 0.005615573250961735 0.013447575174179693 0.017380963873435264 0.025288729485340635 -0.2222864795759087 -0.20365977825373757 -0.10070158125056515 0.01953094505927592 -0.030014204023075006 -0.1317713019868753 0.16810160130341004 0.08143003599607322 0.05527598556876344 -0.38442442966192203 0.012396439161092147 -0.10990430839765845 -0.266617482989411 -0.09056250488754095 0.459121528531504 -0.018974398857323542 0.07304383097080577 0.08091432817712933 -0.3202101732627831 -0.1695267082462259 -0.2473691395967634 -0.292947509614284 0.12802316356176568 0.11579935743594054 -0.08343454904277185 0.16524818819918943 -0.2349574617060921 -0.1506009595410108 -0.13525592143751866 0.282518161599632 -0.3380127120428204 0.13789899949129564 -0.18019384601366092
112 0.025088296611211397 0.012521951792116607 0.14330853114840694 0.0036569159863020792 -0.02106666632681532 0.010997735360188773 0.06164557085606467 -0.10019074425717722 -0.04422741748837844 -0.011031793543247728 -0.11093573324894342 0.1356758802164565 -0.05227475129223468 0.1927144209034408 -0.004777185643273625 0.027481063421985873 0.10395224212961994 -0.19425835259182936 0.10960387676282758 -0.17952733776916657 0.017693261851083043 -0.05084187907222331 0.14239337390768786 -0.09113542455188972 0.014153850309368327 0.12709017287186455 -0.3042580555627459 -0.12744735375316849 0.13119175762342924 0.24253480309157935 0.11466807304341306 0.0609402675444229 -0.08245766613594702 -0.05264584401044338 0.07704256182624236 0.03591917547900375 -0.27692049265064106 0.06128627053562507 -0.13629075862108447 0.0511025901996775 -0.0744526616433315 -0.11467833831790945 -0.027002354997847876 -0.10057463499262252 0.07374552001145948 0.10561229315644124 -0.05641030121484999 -0.06547076227225146 0.022742570067003573 -0.06696980352840308 0.06726727325766352 0.044074283622619274 -0.0848845645608827 -0.09362131320513549 0.08849745246491049 -0.14933455674683146 0.06483504366833227 -0.014581386942137115 0.055985231014406486 0.07778055361269115 -0.06110428506074692 -0.07625118490928944 -0.10133909130681319 0.20444365903569034 0.06271091084377518 0.02285709462111269 -0.1538011808049978 0.0965272169216123 -0.07867741737433914 -0.0035190105059498653 -0.037171606335599565 -0.03425090381075936 0.31627699984237806 0.043494524964303456 0.14164542104917485 -0.32230454388310253 0.0016052448263012525 0.13054425735128902 -0.19510200459457389 0.059320510159023065 -0.08228983586763149 -0.163951192182562 -0.1444249033672781 -0.2851219291093001 0.1880702212171112 -0.1677419262136713 0.1316747707581437 0.006879268376516971 -0.09034591766922134 0.1203187551623231 0.08416258921225768 0.1917794144143041 0.17230097302246505 -0.0396033149714956 -0.1064811966726884 -0.10529475213734746 0.15766095700670263 0.09172634279087412 -0.00720309190506142 -0.06734316598586973 0.19832907769363958 -0.06010122047104955 0.2435180395188675 0.019280068974642683 0.2686595838769658 0.18692783998380838 0.20914681452451778 0.024001561822804846 -0.1438828552931042 -0.029929081041939105 0.07428195595233664 0.09389171062520694 0.08239620970375405 0.023880101003671318 0.050853339232904596 0.0937255243074572 0.1317022853128432 0.487788292838999 0.3101216395139564 0.1720012256580388 0.10558342832736586 -0.10183055339421761 -0.10364780866929783 -0.032350507683922725 -0.08710160382389662 0.026484776819885543 -0.5483203967024588 -0.6075470891360574
113 0.12554610029200186 -0.08597297831443576 0.09283897273775865 0.027540686703445196 0.09048645986193406 -0.03125932620702126 0.00920092395614465 -0.03124000685489218 -0.13263955757051946 -0.006020233015375202 0.11201749186396402 0.03628037962136745 0.03415579055513909 -0.1222158302972693 0.15609418465161942 -0.04416010143687607 0.02107506020932321 -0.04502369449956088 0.08390052777989711 -0.005111123560215178 -0.02619058351748119 -0.01338746969324609 -0.10427101630318743 0.0699563440061279 -0.037689915736151665 0.01485923063598252 0.05182004854835616 0.057619651917563165 0.028655027892274216 0.0855577626936293 -0.02947897298680117 -0.02271634876071837 0.03850684798703027 -0.12205039949247727 -0.06461392038008183 0.015872598983583317 0.0367732355303394 0.001616433571174132 -0.007608499262361533 0.005843187182538175 0.07461465498509032 0.05008013162749813 0.0682531983333632 -0.005002800900086609 -0.03974906592908349 -0.03649996653386722 3.768525690704742e-06 0.08706575913937897 -0.014642250367027616 0.04332386836480019 0.13922687652228619 0.13915436391087846 0.004753179352718931 -0.009099447636932732 0.13728769226233656 -0.11438419492299766 -0.08683609771289895 0.06871565897333114 0.016388371852978176 0.04076714279888427 0.10311189871519073 -0.020701792575759208 -0.08449668101146982 0.09915398467270718 0.13254075997309128 0.16014829103102687 -0.16639246426364615 0.0812195444315084 0.05941547453599998 -0.08729695291051201 0.03245233285795938 0.024878739735815357 -0.128287814397123 0.030587173457038173 0.11041798725959003 0.007070722641326295 -0.07986774853670257 -0.007712192685155412 7.138999905818063e-05 -0.06459945662128411 -0.11815504991739215 -0.1482634573694995 0.05581973243350779 0.1455322356026117 -0.04693744758741841 0.06944379213710998 -0.01268937663707669 0.15750395176721166 0.09815936349647936 0.03984307048906023 -0.10120408201499513 -0.11644600963933638 -0.12594533734378374 -0.06755199123550117 -0.03223027732226175 -0.03338639426162996 0.08701941783275322 0.1492545362318233 -0.027112133289557968 -0.08887733112807239 -0.16225808378609585 -0.03007178445320847 -0.013994907796535042 -0.19267334614612153 0.11383723632600144 0.23593114711174346 0.09398356779717393 -0.005418718760375656 0.15875638502258826 0.0186343551403408 0.15309110027102407 0.042784879444048456 -0.08544560996859767 -0.13496173126496733 -0.08481507909407625 0.10762006844682569 0.20212391119974257 -0.10488470759420321 -0.011343735085068338 -0.03958821933636147 0.25657389664833163 0.26517211432169047 -0.059025996081836854 -0.11487059516948188 -0.2512462467962677 -0.3343716092925941 0.2184916451384089 -0.15192475249792142
114 -0.03147237546386231 0.0975445523136518 -0.00033516856502043056 -0.011813256038008481 -0.0065881722785219345 -2.114313488522311e-05 0.09986463167096143 0.040787962629137364 0.030077741671661648 -0.021655320618041034 0.0734724411836715 5.997103017210309e-05 -0.17684593459103157 0.017182172127819407 0.004877677215391566 -0.0037613373843354493 0.0665185585883158 0.07595262900061185 -0.06599284765233238 -0.004755629971806983 0.04288796359631 -0.007511755913032568 -0.024573062416813254 0.012151621547388006 -0.08567081120305231 0.009728604335888255 -0.04968817041755484 0.08624470757182577 0.011093787553341377 0.04762433742346136 0.043027627607494484 -0.1236035778625831 -0.08532742370742433 -0.055714791255456 -0.019518417622199646 -0.04477086930148083 0.024099436676005788 -0.10400893982176047 -0.03739732522344496 0.07997143418370443 0.12147470758386497 -0.10476654953667887 -0.023266211826654982 -0.03549285726920163 0.06809810708610932 -0.030786896871281964 -0.040900383186863724 0.14903221101523845 0.031885771596186725 -0.12320753632649897 -0.01966382177286665 -0.04776528915872133 -0.06409155903622685 -0.09898991027611928 0.027037124520648752 -0.02775037054695821 -0.06970700919130957 -0.07199187567580695 0.11548497448471878 -0.05079514981936103 0.08076838474074981 0.10970794330640958 0.09402947051139125 0.16451884593148808 -0.1330186071448457 0.038693192199571236 6.464505541675621e-05 -0.03230130052040729 -0.009953407879999581 0.04796141412945602 0.015960891443586218 -0.1463397000574209 -0.08155237037282613 -0.07285798802577573 -0.045955779425163185 -0.15389189777340492 -0.026668213795930727 0.0141403022294497 0.060109936742702146 -0.1448777801517806 -0.15241295917575984 -0.006292522212613861 0.14723032419616627 0.10010032048201985 0.02477079454115257 -0.09325236332059622 -0.09655988261308777 -0.02339461817949983 -0.04536374108968701 0.0993662117084293 -0.0036705795564316687 0.06581765492027335 -0.05550659739403731 -0.016215787452485735 -0.16230449286284473 0.021482651436744587 0.12426982507970866 0.0021102754942880493 -0.08919432706534797 0.19306461998432836 -0.14453434957466385 0.05320825933342847 -0.14617370890314502 -0.09399718387039856 0.040136820075790114 -0.009078342822818011 0.2600066490443501 0.0030273633949329188 0.11994523510338648 -0.08484879714357114 -0.015944289887081034 -0.12015694357304947 0.19262998139492707 0.11983095398294628 -0.013459814419939113 0.06018740384311486 -0.5162289584471337 -0.13717518722972374 0.22624766424751785 0.08440403852405487 0.22591997071783804 0.23810561748273654 -0.11493007258958746 -0.1634507284764812 -0.22266482980360255 -0.2750333938906586 0.2267415140099839 -0.15942412548763668
115 3.0272584880910608e-05 -0.05919982529389408 -0.030282525465378754 0.10576066165614802 0.08727283262929816 -0.109331231551434 0.04050486548765247 0.26704432444065923 0.05481433672259802 0.154582451516268 0.06576051437646852 0.09669145355075433 0.07691437040970286 -0.11620775130202136 -0.04909054320559387 0.04343184525217503 0.0062647533005844615 -0.0370787453174463 -0.2618442383430873 0.06207418627309178 -0.08461009400771866 0.031646023541426246 -0.03522782116465427 0.1056325937896768 -0.03847420289761488 -0.021410838695008847 0.0004156064275864714 -0.03812180798583942 -0.09318021867519401 -0.02070709347039293 -0.037087271588736134 -0.0344772301946326 -0.08824256570086665 -0.1497901528708835 0.006775698571478178 0.06340824785044522 -0.08386868846872227 -0.00011775402953464518 -0.013696605601991674 -0.006070769553793605 -0.052088812779321876 -0.10246284202103843 0.1150473153428511 -0.04719055720444431 -0.00044328158357256724 -0.055532637597276904 0.03515597589384123 -0.04077235241431217 0.0009817287572547666 0.06237758366972535 -0.11206445514669451 0.006418615021974065 0.06770152035728959 -0.06464002210355706 0.01472461481828775 -0.02652905329973203 0.01347460995748067 0.034734524781007636 0.006601965474385697 0.06264318462510358 0.11466375928173148 -0.027181692073300266 0.00021658072130495675 0.06821829955376608 0.0056158212858422275 -0.07477916885652634 -0.028504922399112925 0.003045184499851351 0.15998921569860597 -0.02899114832865221 0.12333539075460528 0.014501641392866967 -0.0594823381289471 -0.0001348204525135483 0.0468748458471014 -0.13242592102414033 -0.02012287882330682 -0.04109610849800132 0.11454919337380914 -0.16108450954048575 -0.031483667834174243 -0.13718391598451712 0.020029544858672307 -0.03040137975256026 0.1663240269334907 0.027456210704459576 -0.11034893647058251 0.002014686119022695 0.028110442907910996 -0.05153183576026741 -0.29503140440722775 0.2957309960911052 -0.02827259606722472 0.21826125605428165 0.27756253902805283 -0.1928072733949408 -0.1210481084384338 0.21759254796976948 -0.19814090538859408 0.15600681453949292 -0.06081343944129539 -0.1411415123166489 0.10858338017062623 0.656767236347066 0.26243149083286943 -0.023588476774094987 0.46688898257428174 -0.10403395820820946 0.005285227156104096 -0.026485329748110097 -0.011447397928450915 0.1715164647583603 -0.07561507783703392 -0.1533049830867991 -0.3246162375921995 0.11275456884058814 0.00016880620594005705 -0.017257276834323713 -0.18043974278528274 0.424978362331914 -0.037441470375907684 0.15214372586933442 0.31047500499830366 0.6362907923349774 0.2896162458196333 0.026377849468509493 0.1325631590082036 -0.40834079813642615
116 0.08009097634973976 0.020427440008514073 -0.03734528671032631 0.029972999127996603 0.00233047471495953 0.01097983841042963 0.02245376896041261 -0.035215255214485514 -0.09847640715795028 0.002106555731711245 0.01428896034351422 0.04393958885364088 0.014446352744338274 -0.0468774455872717 -0.02513955439935961 -0.04594187975958688 0.0786778562099463 0.02199543859196904 0.0700316812535446 0.045729591794918076 0.0746920203107524 -0.004334707324491691 0.17618812876861845 0.02476763169893461 -0.03462138449440652 0.08091161037990398 -0.017560225343696015 -0.0396814205771202 -0.0008636954409771249 0.0673738349183203 -0.056068302969505476 0.0016296272425658565 -0.02776513366389851 -0.046846490254050674 -0.09999838900229398 0.012006769920391203 0.09749935210644788 -0.020035906477218025 -0.036492810774484324 -0.026946906123120964 -0.0927688689410088 -0.03945734408957124 -0.09989638276709738 0.04691025489401186 -0.1000108878814821 -0.019015447547038287 0.003523400813248843 0.16530909587975384 -0.10407022783669398 0.011068522979497846 0.09882412228935906 0.08164683286953484 0.11145635924038758 0.12485650725941534 0.13307542403984604 0.08187293848334429 0.10664901451843108 0.10019764961671025 0.024862491624795816 0.13392486495256248 0.09190502176086318 0.03760356490047456 -0.01384636167104536 -0.001193052736297124 -0.037159803057523776 -0.06884509421866017 -0.014916705455377717 0.005090029525539293 0.022056828523228066 0.14013604735834592 0.0024875625814461382 0.14623100607953848 -0.14286631689452248 0.08609009255805823 0.012809636791099368 -0.01077201305467321 0.0442038119434989 -0.05310341993115367 -0.058496188222850715 -0.06147916977467921 -0.06760806049683356 -0.21069629316061306 0.033220930642703886 0.1204815674849441 -0.07139175750113523 0.021593173883212136 0.05093379826565171 0.029977482861669288 -0.02485246162034193 0.00937695108143344 0.16269513488353388 0.09044700626271271 -0.0393922788057515 -0.008574942411963079 0.019407124839262282 -0.19900660326896563 -0.026187075330414228 -0.14812486713961565 -0.06957818817552897 0.005738009143137783 -0.1580743514654961 0.1674009273590199 -0.08120917474704194 0.008295616424467045 0.0009345680777232627 -0.06227046180054999 -0.11756425452080056 -0.08181477525448412 -0.01989831748371376 -0.036929012457437814 -0.019196956761729084 -0.07444891830288747 -0.018063067965936173 -0.04968212002207244 -0.02440160591142971 0.02074236603003589 0.06329266270403115 -0.014993004452451619 -0.024278818440544143 0.005170887987924254 0.29295514833045716 -0.034177873321715804 -0.032203017289256175 -0.028225538868748495 -0.011896805884822665 -0.1931150149384911 0.06558183116041262 -0.09430253378266873
117 -0.023776379938376717 -0.018505663454769353 0.03460102005733757 0.039732988210046956 -0.048663513948216205 -0.027056738164924946 -0.02646408826996982 -0.01237057589308346 -0.0915240071453655 -0.026202589524172485 -0.08237515172354676 0.10786938424568324 -0.026054799256759027 -0.002597056075769434 0.07739049373359244 -0.023914143800645042 -0.02729866685562119 -0.0829421113107743 0.07887855417768477 0.06158225070431152 -0.09965904023867096 0.03385322092888606 0.0014459280413830408 -0.0820757115169437 0.06212704757980708 -0.10905358192118528 -0.056965986419080135 -0.031334658526995546 0.006014522238585444 0.0029445747630248383 -0.028768754124707984 0.020713724800345504 0.02115055158420688 0.021840819291204516 -0.0703763760416283 0.06495882002748131 0.019749566838919888 0.05975145409313714 0.022785800718139525 -0.06287387779010462 0.01411039513088409 -0.00853716475810172 -0.11238780841082045 0.08852382214417519 -0.0007374640125478459 0.10255220853370893 0.0014328732927349401 -0.014803091630981613 -0.1919897229150126 -0.07161359671155207 0.08245851194669164 0.0026114710633111343 0.14738174146990052 0.10960539445433214 0.06959647993931047 0.023439427414287617 -0.027555019728391833 0.08031173342847339 0.006012314259145974 -0.0012358297444114226 0.009645057699505324 0.0343440559883909 -0.12615470282594696 -0.0950164703831205 0.0030820339657735476 -0.04073293026511493 0.018645372477159087 0.027830411394426345 0.05606645567514253 0.0694004280712348 -0.0892165941508221 0.01059578001972778 -0.0412715654467128 0.10728747189716122 0.055423500811877 -0.07724939199209048 0.008635950554847609 0.05544152401413272 -0.00019407451467116484 0.061452029401584195 -0.10189045944250827 -0.11441296233542947 -0.022395185045791903 0.06958226040300788 0.03474673430955821 0.025478713894605525 -0.07319424555940407 0.030820681291969063 0.023433091564165856 -0.08240826802309754 0.10067528609506575 -0.027735217830020874 0.2131900771467123 0.007088024586714804 0.11738137096682708 -0.0634910950257142 0.13467156908303546 -0.0780129670951736 -0.14967542948657675 -0.20865555340410202 -0.015454250424169208 0.20148741671425144 -0.06317380869197868 0.04363417054022499 0.007422232288365821 0.023959270124481864 -0.11670832328066351 -0.09429630232277457 0.22159218580257328 0.016774306030464495 -0.04666842395841875 -0.0428588541744902 0.010316883102694187 0.029548802796609028 -0.02699053822597732 0.10525703593223323 0.1711305734985923 -0.1507925345196048 0.07817846123042047 0.11229026130133973 0.2480828603036487 0.05638468332884891 0.002565720670764967 -0.05018328805680695 -0.17120764591857743 -0.13418754153562315 0.16037009236479308 -0.12456445178212254
118 0.040023603215449836 -0.0005226826198806883 0.014766855805692179 0.0669136162997396 -0.024686112751057098 0.01824357547352479 0.04611323639975791 -0.04946146929733815 0.0325635959469729 0.023775847728604447 -0.00857153380292171 -0.05498172191133019 -0.04669488558163797 0.10615790382799091 0.013836653670596907 0.00514379708396426 -0.023016201597081176 -0.11734861379581371 0.03301956260372477 -0.04299161063008838 0.06463973453473784 0.03753857996534737 -0.20952139210392579 -0.08096671503650943 -0.050223761383231584 -0.1086295352577571 -0.0427614965218154 -0.023495393410984056 -0.06218472320172374 -0.018098592564507233 -0.04362144519554217 -0.004392648056170149 0.02820307348900652 -0.06441704645765703 -0.04355645102058241 -0.055761440448908434 0.012988255837742994 -0.058234689470142154 0.06863594553732201 0.12862592153927782 -0.0961351763535144 -0.051201933965424835 -0.08105536462108137 -0.01409006921963909 0.025321805242462598 -0.07657119543549433 -0.07806295719130257 -0.045106771415227356 0.06487185161579817 -0.049536160887864056 0.030453861580445735 0.13828320907352173 0.07864009196177797 0.017206333420997425 0.10358514399280337 0.03913086385127196 0.024757524664948044 -0.1245376413901822 -0.05423939170038547 -0.0438524352410841 0.055804883265307886 0.032946771356032974 0.055167656609246565 0.04530460434581017 0.05821705428974962 -0.05324694770653005 -0.167373583312684 -0.10250268629990729 -0.013379946666775706 -0.02829456881157355 0.13274804162044074 0.06265205073101528 0.034088067114258686 0.14189450190303138 -0.021363727712341764 -0.07958801787017847 -0.011835584280603188 -0.06612272299777527 0.11085513524337841 -0.1505296294679995 -0.14321983761836085 0.021014067239717868 0.023008814169126063 -0.05496001453920099 0.0918401180795634 0.030281168610045484 0.24032676725403063 0.12492767679377677 0.1927382120353688 -0.016825038685183098 0.06211507344603576 0.08324728315053068 0.06921712160827836 -0.07340166032010845 0.35606749682965505 -0.22353268510262064 0.009285077837394982 0.10964993603030125 -0.09677282062641801 0.10323256626479393 0.008158154911383258 0.1073048944422849 -0.15842497517601775 -0.0748394449970048 -0.12884692210166032 0.05198713512600187 -0.21903384492481684 0.053570691900814926 0.1998298615871047 0.06187357267333777 -0.10087447510490263 -0.024015445795071012 -0.06780943670085553 0.15621279447382955 -0.06803450577691214 0.1782766046336147 0.36519922407667677 -0.3279582591987241 0.1268378959940718 0.17162134170712914 0.16782166296917614 0.01962182790966131 -0.11006131828591849 -0.09395866222119367 -0.43330354756781714 -0.1471931378687184 0.2898365368111928 -0.2191089209448249
119 -0.0014092874589614938 0.016010239695460345 0.0358988980144504 0.2861325632628227 0.028490900985319204 0.21598176008838904 -0.012564745595227404 0.18778301890179644 -0.03431812384766003 0.2317469830699652 -0.03810241731614083 -0.010880504819156608 0.004818887790453558 -0.0201730793990756 -0.016632068890743517 -0.13084342289318235 0.05826867886143997 0.050733955607887134 -0.15221682036770487 0.008428282647081247 -0.006308637841342888 0.0009497620537774895 -0.020606883737542468 0.007023875778398527 -0.044517250692436255 0.010119121326888796 0.03553182076413661 0.025987600133700915 -0.007821472876639339 0.1566772857326793 0.023370651312757063 0.024543756675758772 -0.010165161493719361 0.19938593825028367 0.03474463536603106 -0.035799703900204254 -0.07743876663522711 -0.0762903465815151 -0.11004594876300065 -0.0902492044847674 0.03258503691030064 -0.0936126031417279 0.0030602986599096663 -0.043352481428476565 0.0018219324573396723 0.11120109040752185 0.07472996024186765 -0.06586844940140914 0.017625643013392842 -0.007551520874324487 0.09837589409801409 0.08290203676623331 0.015278535138992962 0.07424356227866935 0.04127972818857617 0.03199001280202928 0.07521053105013396 -0.07691171481485107 -0.02408973058672861 0.02752021880010504 0.028516970214876022 0.015716641431961113 -0.17172146323003 -0.09870049035843305 -0.0707090556357184 -0.024345376159210397 0.0863723037117928 -0.06425866019051993 0.0113166168734341 -0.05438354364330108 -0.08161497019620786 0.02024530548357667 0.13466679379365668 0.11115596194514979 0.04268392984596979 -0.10324701907004576 0.03351398088644407 0.08357347212056809 -0.009758923154665394 0.1321539098144047 0.020350839727089523 -0.04891203051174917 -0.04883697637838426 -0.05627310186097435 0.15055741025844663 0.040450785030040494 0.1823156190162495 0.11545750072236322 0.16193629953611116 -0.31346355319163405 -0.16315271384739638 -0.46517472290976447 -0.35208767622016174 0.3277201999332315 -0.08177958131865275 -0.004827024938487062 -0.18797537953103208 -0.3585626030655352 -0.4777163382730135 0.056331918377884135 -0.3167666419322347 -0.1972241922472738 -0.0737708058348797 0.07603653957430374 0.04202467583241839 -0.019791704212594498 -0.40145877009261216 -0.01043937540568983 0.04167835928919813 0.008927538794123537 -0.09178635743922939 0.3120456273864856 -0.09191941460463542 -0.4307353249782977 0.15827890946724357 0.15804515672832742 -0.6162831586885527 -0.740179621205916 -0.6762267399244406 -0.4179468489422576 -0.19058463629644587 0.07344434044975354 -0.10335889389022614 -0.15854900777143272 -0.3279673113367489 0.48374619123894425 -0.5680215010864742 -0.9585485866101638
12 -0.15331573051296826 0.10170939373587293 -0.07047464993176768 -0.05812779549074366 -0.07396400152616113 0.03135494805367346 0.010657347395501539 0.04619495264907256 0.09910105959781433 0.03521483759558365 0.029038768252991454 -0.027690558267648088 0.034038638766329725 0.13547823377854912 -0.11892858591720927 0.017779303277811822 0.04450275148295394 0.11463803028334013 0.027469110989299172 0.006706792743648625 -0.08313232023407503 -0.00728419663555249 -0.004693765196074497 -0.008230945474492685 -0.021509977978514526 0.05629709390479969 -0.009606637906799081 0.07502614072993506 0.09745859260426484 0.007455562904121158 -0.03424213478484857 -0.011060312811821574 -0.09751118039608146 0.07778529265543335 -0.13762938583556936 0.05983904769608739 0.09738001759747913 -0.01787661567392372 -0.045870212678106856 0.011709210395145673 -0.1583391645790545 0.0940640386548751 -0.02434595259169949 -0.09804417758754623 0.05315753347569615 0.05340496695249677 -0.05156684594526852 0.06103556589889051 0.07217550603577663 -0.02454708999547545 0.1428940127572572 -0.1522394942303909 -0.07391830507518808 -0.12454125386338236 -0.04671323450340267 0.09510934620507028 0.1275743467359153 0.07737911788587494 0.019649542995705562 0.04029674043892607 0.1504012138692286 -0.025546455224178245 0.04420708704139271 -0.10073046232444842 0.016921694423867577 -0.08431320324368109 0.09228556846398121 -0.06515872262940064 0.05897358857429003 -0.10242877471139544 0.08732674521345599 -0.005167892060990387 0.02521951396817731 0.03480394236841881 -0.13166992665888647 -0.14607875837137807 -0.004367832284445471 0.03387202847320267 -0.14114819835040116 -0.07476300601394378 -0.0769916557231403 0.12932181791702294 0.0863135453490181 -0.03879264471220619 0.05197644953553794 -0.1061401857822436 0.1639831862947161 -0.3805991102650588 -0.0028187786202305445 0.01035563776558341 0.05906665767621707 0.17137149880003166 0.0076416468003299735 0.28142782019270246 -0.04602704134641325 -0.013673727368222052 -0.14646262777946686 -0.032799913713515066 0.21142125624757677 0.21748086390804625 -0.06650516716836681 0.14566755137640497 0.1751724363149545 -0.14800757351208482 0.10779026350316159 0.011459924342506634 -0.22894037226295436 0.0037659625001755103 0.10229049672412029 0.038813784594535695 -0.02531977066051105 -0.06544159163859313 0.03249888052053502 0.027484648771212598 -0.18773107850283074 0.23336502768401873 0.14098516547928333 -0.20712246442067395 0.1420855600923465 0.03432178849833426 0.15971963291847704 0.18983150639975824 0.0037152529190512627 -0.06642577180240122 -0.2856934481989045 -0.24288660721264713 0.19483117631704575 -0.14994675987227368
120 -0.07570248779026212 -0.15563085183128544 -0.045715535457077225 -0.0009323139537781119 -0.06157549904558807 -0.0072455002078848935 0.030277648469019047 0.01584768717602686 -0.00807265498811962 0.04083312125208363 -0.07152676343598635 -0.023568473332790822 0.2249391541697963 0.040877714268739554 -0.02470656421845132 -0.07780250120925782 -0.015476801464816127 0.03998077572769757 0.028092519043456353 0.042858507933816146 0.11045255233458195 -0.055329337168126214 0.08087914994182183 0.04098786802402711 -0.011274286544989272 -0.19831004232063557 -0.04167627675240789 -0.05315373485198548 0.028408913774741563 -0.012577815060490483 0.029725266168547173 -0.07101844460332613 -0.0739957864944171 -0.04531234037939029 0.0017620738640865806 -0.162034511947608 -0.03962791592056567 0.03586470168617561 -0.02203726304869741 0.00876190298434803 0.00889873957748474 -0.0283392094098622 -0.22211932865928513 0.05097433241522434 -0.009599617694435191 -0.036560458554915326 0.068582520344253 -0.09119162574929683 -0.11966591685857123 0.04184345535665994 0.01007141858965423 -0.06122603103569695 0.20049103475622443 0.01074101413338007 -0.09529843924650579 0.018450921775391326 0.08763818459645921 -0.13952491286992566 -0.09794913938817561 -0.06408252311086571 -0.008228184001116308 0.006198972880279419 0.050268662528748446 -0.0203479747370611 0.007731164468476104 -0.05597153503720801 0.041290565277167283 -0.005574981133977362 -0.015056345978753835 -0.060641937263080384 -0.022765366972533743 -0.11823612351338955 0.004700422299368708 -0.007593703524821446 -0.04615480249617931 0.1612612196421906 0.012505417012056173 0.10746012645607145 -0.04397597500413778 0.15718360543069992 0.07031769731819552 -0.028112664019518084 -0.11315443566543426 -0.07031647234775996 0.04561928184518969 -0.11331007229222498 0.18414670465469302 -0.030300920729601197 0.08045805636106318 -0.04343506649314784 0.31066678868574815 -0.08806098339210627 0.2685943590060752 -0.12437751521838213 0.2369345249487041 0.12173443688376105 -0.11689893986768418 -0.02570141781560412 0.025619471683863866 -0.15135636273390563 -0.03580918593527711 -0.051313736250857146 0.1872056130022003 0.1600152909424017 0.10671189162951819 -0.07903651225129012 0.0438863240119708 0.03097998622785936 0.2179809900249134 -0.051029844205433265 -0.10667834058458366 -0.08837975416384708 0.06577629379210041 -0.06216531382165148 0.021999662857640476 0.034097087691406874 -0.42006686335574717 -0.18288503802782702 0.39698934482763043 0.30450308615993044 0.15185689703636301 0.18506177366600174 -0.06546474120329951 -0.23196961212390566 -0.20236092499535202 -0.09873090758798073 0.40353463261914085 -0.2330218542785793
121 0.010809893158705924 0.10840881226203809 -0.09514602689353957 -0.00252018519782351 0.0384731727393364 -0.043756473594731705 -0.0502805484252672 0.061529698818308325 0.008992154641180453 -0.03380707866142121 0.1438413521820822 -0.002681611408492665 -0.08486705694793989 -0.03487039957267413 0.13159140300047417 -0.010837373719316024 -0.0481932728453806 -0.17844452226584914 0.021109136463765988 -0.06339750551997256 -0.04450150797928186 0.026058531944781783 0.20092106573286334 -0.038502514054519696 -0.04075211769375324 -0.1377702565988249 -0.030066456055565245 0.0007487030888972569 -0.077652963347791 -0.12646879939408517 0.06121224725570826 -0.04356528246957581 -0.25216170891735373 0.20416539186250476 0.07337563814206163 -0.07480372492224176 0.14688834187826907 -0.036359912626539106 -0.013177194675574445 0.10570008252220364 0.013611188749500246 -0.06235457369188321 -0.009464138221062339 -0.09277048001795092 0.16323792798801037 0.028459670228532415 0.021728392617724798 0.058049570172634936 -0.04377372375781058 0.12817538541463577 -0.1194246634230039 0.11749995195529253 0.03409474091074215 -0.06438132029653701 -0.11186284533608944 -0.08863887809454514 -0.19865329576994656 -0.1756271651784294 0.14169065843341544 -0.015533238466143202 0.054751342227842496 0.001224423236601248 0.006295615918779623 0.002494544769025261 -0.09449634950296397 0.054133018378740946 0.15485435045541351 0.14396886140607432 0.07345523160825186 -0.05310639226105622 -0.06528596308960888 0.12094101340843322 0.027214811491381892 0.1603300797680423 -0.14764492140350075 -0.05381112659291301 0.034576390326326784 -0.04543837641402228 0.07628393052993268 0.039101071262356485 -0.16051014222908397 0.23802465315812146 -0.0781116451623635 0.058446561848397714 0.0031087922730758956 0.12918393132371792 -0.05891327525295213 0.02699144343139143 0.14911791531149396 0.05270296587796678 0.14706259064247335 0.12101038645414597 -0.12310000922552353 0.14250070324051184 -0.0734787335667137 0.006369586652793885 0.05459069231691885 -0.07222520861295319 0.01719416888782888 -0.36256195158367355 -0.03211826757156884 -0.0257447390302942 -0.22566858550708502 -0.030872934131071245 0.11885297735109589 0.3020311043118831 -0.040850502541463614 -0.06002713132223606 0.1475130716790514 -0.25705398228393944 0.02326249997315937 -0.08858660441918516 0.15491917290911597 -0.10623140122055223 0.0024075667388232316 -0.019559673401325365 0.16545486513520297 -0.031255678576952946 0.009550646890502149 0.03474052459764415 0.2596390163034613 0.03898441385078739 -0.05104001875784116 -0.05322631192043588 0.02342646526105981 -0.030353190425629232 0.24196474713606098 -0.1752096545862107
122 0.23429381149504366 -0.03471206908640646 -0.06724624711094554 -0.013833018730260277 -0.008161435402699965 -0.04964335928874516 0.13025521628474282 0.000103564299149754 -0.15962676663399736 0.02093935566979667 0.15169605261827393 -0.05976917286683603 -0.05622166999624026 -0.061396085772494925 0.08752821272252755 -0.005511767468106557 0.1698863213411814 -0.07158913436029939 -0.005444434319545842 0.022404739944487703 -0.11939829713233432 0.01195404039799381 -0.11918458326976242 -0.03940137175560733 0.07331548611878425 0.013883603811640492 0.0028466040334564863 0.0042964086809426875 0.07047255438633249 0.07672482998678187 0.007637832884883854 -0.03300081178303839 -0.00686045141251592 -0.05463257699317659 0.0005420017305845029 -0.013290240154413466 0.15356747377788887 0.02044021804400213 0.009249272368861148 0.06630825508309456 0.1135919245837317 0.06068099129123808 0.046519680614283083 -0.019739881445902042 -0.029280154838661455 0.025643685082907274 0.012054336312027134 0.0808249126428052 0.08163634423443032 -0.10179873022137237 0.007820683858088026 0.049217983159870415 0.055335947940370236 0.06437995369447526 0.012968266721335945 -0.05682862709826354 -0.047154319868602176 0.019842457381571074 -0.21058172772918618 -0.12714836534426474 0.19635326113305787 -0.13724973058643813 -0.02336481828219914 0.19240523717081343 0.13486701074570273 0.1456030900736577 -0.03198827083167348 0.10917050729257986 0.06938348983325207 -0.1060142677804625 -0.139874521923835 -0.14750518407781932 0.10714221482841337 0.2607125196195808 0.025974539832803133 0.022579837652234837 0.09584753708281661 -0.09832895686146148 -0.07839315960353203 -0.04814239922088792 0.00959441724507131 -0.07712692429803279 0.018630354396666927 -0.0006215186051857243 -0.1779032574728352 0.0070377761477559 -0.08721422362539906 0.05169860909756661 0.10126660239207075 0.12569072038429213 -0.018397529823621795 -0.4322795926187703 0.004972323216145489 -0.0015019094161988565 0.2803497103406006 0.12638764568566618 0.10978380268834032 0.2540971139956871 0.05880195001028718 -0.20480498325100324 -0.040036316570009646 -0.033155965686212416 0.20046855580410572 -0.19437078252518963 0.14014887043994678 -0.0008319482526109066 -0.06240324383366941 -0.08819655339462298 0.10794061426110595 0.051969246008005426 -0.16754339805087715 -0.13593631709367363 0.013880992256327246 -0.07980323829295356 -0.15711071357495718 0.17907510939150642 0.21415634115719126 -0.1426829787757532 -0.016454051738430904 0.016077869537290363 0.22392319121612753 0.13633001672630507 -0.018189323460041606 -0.0666124573187661 -0.19651197929955033 -0.23881610828344663 0.16356662866116195 -0.14355881150947616
123 0.08834933149928352 -0.05577076217075345 -0.003334967168178194 0.07516956522930344 -0.04553463612302217 0.05314363562025122 0.07314976524306578 0.08333092915871829 -0.004633993532638779 -0.020382829844071335 0.00434356719089781 -0.06979327635437454 0.05433964309191495 0.006496357178799468 0.02665112983495464 0.017937654030527203 -0.062125856199152486 -0.08185568162045823 0.053877312720718565 0.008256595580704585 -0.06906807942238381 0.058523695370592266 0.0063144604126303015 -0.013245000064106173 -0.13560011860524546 0.050004317145483236 -0.10035691083858563 -0.12055618849266726 0.06954188411334968 0.03985882689953579 0.012691330169074692 -0.026620292244671218 0.08305739991158156 0.03526523809525506 0.03563270477486031 0.1176067857713511 -0.00736384452203655 -0.029644549177250946 -0.0036228259886603204 -0.0824013088212618 0.0785682814338263 -0.015000520635880938 0.07986889047437416 0.10237699102145477 -0.049222007812253825 0.11499186851465792 0.11667228299726531 -0.14985943024933343 -0.01627703011918173 -0.1686007676982044 0.033968763504118565 -0.24367976568244726 -0.05801970360304473 0.010458938752581508 -0.03726212956761921 -0.0017559613984090999 0.07429577298468198 -0.03845528259545634 0.17334474389709092 -0.04337425537530158 0.018729974750134593 -0.12224864623655408 -0.05016306816269185 0.0069352127826961055 -0.04293769354253065 -0.008394391188448138 0.018987505047639033 0.07094098225849835 0.00933152185135733 0.08493289490361028 -0.12976916358544624 0.08087670139965708 -0.059186294528354895 -0.02014869983729502 0.0011003142594951784 -0.1577362846735112 0.1622291134149117 0.1910507309243855 -0.1278580040948118 0.229818297840046 0.08466806989578614 -0.04110053107400767 -0.1046948505426631 0.07874416497225471 -0.03287576133028381 0.026197450612930575 -0.07400359967183268 -0.3649926346319429 -0.22880808637056557 -0.010269913196990265 -0.006592660931281353 -0.06392326104072964 0.048698786815967406 -0.2042564711818445 -0.11544832372506589 0.1743347858874404 0.3698568861013841 0.06774747361237589 -0.12905603312719802 0.4864637819538167 0.07815145898518513 0.11640006301600249 0.19630762378138325 0.0811276979130711 -0.07328946871931791 -0.0758929314209391 0.15808892272727437 0.049008767959822425 0.09251546531974959 -0.02394261828085736 -0.08666252312958835 0.10816078192690806 0.031911689860168825 -0.09668795737172976 -0.2123079100563731 0.062104696537708955 0.1764006502085104 0.12958779696103537 -0.2745590558818305 0.16429046340778733 0.09633325463260606 -0.053540154827890506 0.16676063807975952 -0.11957166726222797 0.3872012643422923 0.5078684560996147 0.6323907768564924 -0.4929816350011906
124 0.05853676568556501 0.013690818346941518 -0.01684857872240021 -0.046952055238944586 0.0035773445452266213 -0.027275415958417232 0.034006389472799436 0.0021682358555960785 0.012618725947286615 0.03836709825843966 -0.010549762082501864 -0.0039335506165609465 -0.014286753207746725 -0.011669425714881568 -0.005517517402258183 -0.03041960054618184 -0.04488458174880154 -0.03456915455807027 -0.026451088953758473 -0.046988759196090656 0.07043632718441702 0.045129416474838015 0.11766648950596201 0.023434288435281322 -0.0009503508074913855 -0.0467371489058973 0.0300080163794613 0.05115307492882219 -0.18781853163806078 0.004975117255498179 0.06449530602183971 -0.22427224366093831 0.13269411061612224 -0.20781984340659582 0.022225564498869536 -0.24448390778362275 -0.014530337788962988 -0.10251573514004415 0.09784535884725354 0.47509852684456005 0.12708972359973114 -0.04882631840763596 -0.2991775942260321 -0.14685519922818002 -0.7413519695549987 -0.09481019946286078 0.4922946047610553 0.010588962671411246 0.23004049230619295 0.08293188714596811 -0.0828825798429745 -0.08752559541318583 -0.08022621322644231 0.10267243375642088 -0.30037539457174994 0.19622035683237207 -0.25453844242122003 0.25591955053642806 -0.36456779646642035 0.08872512122094864 -0.2627160410167768 0.07505478978381545 -0.17413000476333906 -0.33226537417473656 0.380214757951244 0.14862129955882056 0.017002247378038873 0.2189492204540755 -0.12117019326533356 0.17352254199496844 -0.07030272761121022 -0.4603189622523934 0.11328729174259647 -0.12843037384318634 0.1732520020105909 -0.5164111264227863 0.6243038589118206 0.23587029912023005 0.15274436491759746 0.040400773480420926 0.010506142046069464 -0.10099740673566097 -0.5418815315503734 0.41700953213158903 0.420854789441522 0.18443905446777842 -0.4394607850305784 -0.2112239011068782 0.0874463960595139 -0.5761909747091045 0.4554418508837125 0.7729365991112552 -0.5739478495226339 0.21567619172521577 0.17693673089404738 -0.08024466791763099 0.030286999114226894 0.1960064142391981 0.03241334638931634 0.23105880172626347 0.3310976515838441 -0.21808604730574413 -0.05180812907061686 -0.39812903514910974 -0.32097171006193737 -0.043760416930417045 -0.20171466331848356 0.038405824068893736 -0.4061591203127461 0.006040269141431226 -0.007587692908643286 -0.166076821338163 -0.01462999429935485 -0.042576326853807925 0.049188730797449856 0.12176921645555738 0.27226397551748394 0.012522979727553564 0.11820743693808784 -0.16140584323154464 -0.7517656866134598 0.4893988406185943 -0.2558122237049272 -0.13085632373059664 -0.40394776466414495 -0.5584493516667078 0.37781486460030816 -0.45185481975114183
125 0.0472913503383214 0.025026203281851213 -0.07466704998732601 -0.02680770596556296 -0.026633342691758596 0.04832160071988079 -0.024895236981267 -0.08432214305090259 -0.126753544470198 0.044367806454083926 -0.15103379041468415 0.01634220928685567 -0.06364154828189 -0.02259148957150056 0.011193513808264211 0.08852952434172616 0.029891712269202727 -0.18723431303447563 -0.024394063527063987 -0.020056781086190086 -0.0660850032934274 0.05322907774584586 -0.031620862249399674 0.19229732574012268 0.004712836545915898 -0.08736288902318538 -0.005734841885606562 -0.024907997892841902 -0.05313312029986069 -0.023242741982414456 0.01625832700580932 0.0032052234908527817 0.010251723547875633 -0.02358277046470535 -0.05936245141823658 0.08923838568679068 -0.0001614167789963495 0.042298442413660556 0.04666062186614496 -0.05153711004502136 0.0026100388712047952 -0.04158088165712149 0.019907778318411565 -0.08499369035091887 0.07478175258592734 -0.08931152916156351 -0.06160849904300734 0.016659673326969115 -0.03067255836443864 0.028621967973492084 -0.04844343387746237 -0.006821803815977317 -0.050543246088079224 -0.058225721328780095 0.03762615511463489 0.0008747046578937588 0.007870413696707046 0.05015466193163735 0.10414909922358984 0.005374909470844256 -0.14323125539056572 0.04552077892137491 -0.10056229618780416 0.04661125122574481 -0.0017690799034780018 -0.01879377029162342 0.04032904593299241 0.0382954242296529 0.02814747072626177 -0.013325452237688301 0.031444286133700455 -0.023834879402908245 -0.09631284270182917 -0.014032052678038079 0.0020822540428005842 -0.010748597958784334 0.13245556862800925 0.09087464286808869 -0.007649372015960334 -0.17572311370591828 0.09936321192771272 0.020887488078902984 0.008478747737675802 0.026614162802339022 0.04740338833012088 -0.0055440112574890905 0.00451844011036808 0.08130319216876791 -0.028069438250289763 -0.12413045821847274 -0.2761994255076684 0.14264282361700165 -0.014529360282981206 0.0823228038867472 0.1699504735692186 0.047353861445255906 -0.05548149621741125 -0.004616585857057342 -0.16801370647223926 0.0769387368477345 0.05674060993781453 -0.09333864032747438 0.13072331661117376 0.26911423651097893 0.08924275337891137 0.15012069515936874 -0.09909683025652186 0.27007061667974314 0.007612039654278861 0.15648588541331687 0.45986919423795136 -0.35341854974495146 0.08810144585086235 0.09139479362162915 -0.30194512991190714 0.01161440092663935 -0.15374078512316444 0.08977754094580885 -0.22012065849414478 0.509678853336075 0.024222211312303857 0.08130887753800713 0.19110580986747117 0.6606110728573686 0.14336475001780072 -0.10908906796762545 -0.024015661844064014 -0.3289958275387904
126 -0.0006800349592755224 -0.024567377010022557 0.012175651188901838 0.01604267695988372 0.011798207312054953 0.04043267545011714 -0.053652785984408737 0.013474358174664873 0.03534961412539453 -0.03248907685360358 -0.05845585392043553 -0.019745594335124714 0.0491096300251 -0.003502400413497913 -0.03826078043909351 -0.052267160801280715 -0.007634942620871356 0.04545984413522151 -0.013217912253153694 -0.006993580488030943 -0.017540750811143577 -0.08495639053791816 -0.06984515678928735 -0.013569073047609315 -0.1430765165088839 0.0947719530030149 -0.02170891851253643 -0.01970811274854143 0.09777357944871351 0.10687176724064651 0.21465568089055276 -0.2812301361960845 -0.7682900797864928 0.24602273805170607 0.036173490591710114 0.32102115040787993 0.2790712812730789 -0.0811643031952027 0.01837446505883907 0.27889856350466935 0.1140776942360715 -0.07017033985643578 -0.09529384105160316 0.14917848947592266 -0.43859340298092875 -0.08675343302759897 -0.21576355211454418 -0.0911144061317581 0.13636379564218162 -0.04733518780554231 0.14205468688656797 -0.29834126796759364 -0.2106954584499968 0.20415271316739522 -0.07929644722850486 -0.06502720408118845 -0.03691221111201227 0.03111462656055066 0.40619870045387774 0.18601434152307794 -0.5818596806992579 0.063588114484717 0.3224537729045239 -0.3885535652912776 -0.4110082629523106 -0.26615477508313284 -0.4155458131508093 0.07030009178405865 -0.01682040288295511 0.2745983917222756 0.13413482531724233 0.31739273834381976 0.2986392698808748 -0.08156107643074899 0.5671107026014333 0.10094868679896009 -0.06947189693407041 0.11022395260518941 0.16296368822409218 -0.356531425312064 0.07658868975005187 -0.21331638527275157 0.4117187923301371 0.4037080932463069 0.08161808161888116 -0.055290144959762894 -0.10462546590779409 0.1766009198260246 0.40373763118855743 -0.0006816022624033797 -0.22433174437982928 -0.6921867967576285 0.43419676197858253 -0.21932584372243694 0.40791833840966757 0.024667916484218188 0.2129779657100972 0.25048344073294326 0.15702701299378544 -0.48183960489178557 -0.08486785069955932 -0.03791186959606382 0.2743988174449786 0.17172345608024053 0.09042675028989992 -0.010419559693751853 -0.004599706601086011 -0.08056912593880694 -0.8762060403173573 0.08433930942113219 0.035875527444573695 0.021304291329812475 -0.026476544765783195 0.07684608795005864 0.040047729102051594 0.12044547417375423 0.20155054546222068 -0.40987083510229455 0.31984115453207035 0.2628340478508789 -0.6517817824710026 -0.014060606220587366 -0.10893428856360442 -0.2603337053730062 -0.517064161769376 -0.07965734415864378 0.6740253268840896 -0.4517312042090727
127 -0.03454014887554579 -0.10107862472754017 0.022340546144516978 -0.05442601590158529 0.003545586642503923 -0.03944034286457042 -0.05897440814119793 -0.015768075735693294 -0.11001503076969112 0.13350248129082548 -0.03511075023272274 -0.002268555115914637 0.06188009282023125 0.034043047960887314 -0.0321134914833333 0.09131806380016538 0.0807272117264797 0.1345941692972052 0.004362167056738518 0.02967656329678383 -0.13804519428919743 0.0013969418207012791 0.010077769846275189 0.020277575363066472 0.010357289832774088 0.05972135155347688 -0.0360025316394006 -0.0009153606724624591 -0.023514899594081547 -0.05781819158720472 -0.01305914486713394 -0.016494399323265758 -0.039554794657484134 0.086930117939007 -0.03256057862350105 0.09232888771375859 0.09047193409774348 0.05274371991654691 0.019360743774915347 0.09425657333130967 0.053782527211643956 -0.007575710246271485 0.11708563995405227 -0.09272826063521937 -0.06265201916965008 0.009993884823198192 -0.153487224723128 0.004018690331248566 0.017274403955670092 0.07774086443378528 0.131779600779711 -0.21028160739997023 0.05331732213177973 0.013233755561862619 -0.19732799837757575 0.1315127134218853 0.10554852370965699 0.04494687088318335 -0.07259712440234928 -0.0029776421496712563 -0.06384281968061285 -0.03410633596339131 0.15237304608769006 0.10042550451291059 0.02071705824356035 0.02946696683238786 0.10753921686231088 0.05990826465929403 0.08675242020909922 -0.07182100200216178 -0.008167904800061642 -0.0709583766168086 0.07040411443115092 -0.1375959127626772 -0.2077622455986039 -0.08875188085555716 0.10249730851372757 0.0003664888038553384 0.1428998857875784 0.04476018692563945 -0.20208873238106706 0.09548889257390947 0.06679984573181265 -0.023801713093332 -0.09289490955108581 -0.16734322631749857 0.05770789492683442 -0.06379200031558015 -0.15270689840041363 0.1720520490940508 -0.16544300419069072 -0.003699592284126788 -0.19599758713871604 0.3722358593740635 0.05747930587476961 0.3601830371527628 -0.20278144916452714 -0.2726182725989429 0.11256495468677376 -0.06776775978980525 0.10537907600348644 -0.010741895489342347 0.1561054254974178 -0.029481874053746294 -0.22096434840233098 -0.3055991143001495 -0.08187337838788639 -0.15849979276271153 0.03005610390819433 -0.30875296174896405 0.25174575877619676 0.4379997121084522 0.1491461554135036 0.004742732160923197 -0.10483673957818031 0.1351682618193639 -0.13507804037614468 -0.2976371467581092 -0.16419465633136715 0.11338203111326786 0.13039129368725874 -0.24080113106030138 -0.23703997506204647 0.1291863346142978 -0.3568451543263935 0.03238493446649899 0.03936431483182544 -0.28929971480635
128 0.028616150322722703 -0.11539892567662073 -0.09191393771361198 -0.014416482813182335 0.13013994826679692 -0.0036184154487031136 -0.026626280109362178 -0.011516923011366458 0.08280190211869845 -0.024433175437486358 0.12479890349974708 -0.0646094834283277 0.032247585299861395 -0.01339718496967021 0.0372674877702436 0.0019390141428136801 -0.17504585639377804 -0.03576025283170689 -0.09462635523879977 0.02335730411940677 0.10621338355607406 -0.03579544415302378 -0.0023273850872014786 -0.09382098855238039 -0.02509320019827098 0.029906427188705894 0.13659052987085876 0.13701457969084785 0.0998502738137615 -0.05467555136662197 0.15644512950944134 0.2117774497905126 0.011359482360935653 0.02274089621758379 0.09424259097645069 0.10711964151362716 0.07224866739220706 -0.21881977360966015 0.047183472856513815 0.0688960448584063 -0.08030206581961374 -0.19274366659500966 0.1018313087957328 -0.05464167105933221 -0.08280459786705743 -0.0015916025977098054 0.16950668145697353 -0.15043116539266801 -0.3171104136744428 -0.0010544084129913939 -0.15315067942812666 0.03365351501510516 -0.15204349557887278 0.07571676027034605 0.26194297397836186 0.040518292060959846 0.006417648262791856 0.03981207391508754 -0.11692560435801921 -0.09712189295064394 -0.032442479433766415 0.07433760338037357 0.010762810811103524 -0.010522750806085026 -0.014584275248742808 0.04336418037184364 -0.048636333154137054 -0.12198357695344847 -0.11240342684265923 0.016761580833828022 -0.2163240178574143 -0.007577960086299676 0.16987629149022543 -0.004216390020974414 -0.04790923975103175 -0.018829273624186463 -0.00604402069720471 0.12574170672654206 0.12032743459780719 -0.04269578992237097 -0.007871692832376414 -0.15930643257282381 0.18181751698492052 0.019413533048531433 -0.010158984079854369 -0.11550248725986798 0.06353951841042893 0.041553759479806926 -0.4346402225426951 -0.14131697994743125 -0.15601664463171547 0.10121148885750343 -0.06927652064148884 -0.23170055840748277 0.12267838612200839 0.04129572442990901 0.007141923403460575 -0.029492919134809 0.27837502699602756 0.05364253081149723 -0.1597451629774885 0.3458452477536897 -0.121306912027395 0.05546264654363871 -0.03763458626290915 0.029091198406654323 -0.090199659473842 -0.061057839140941865 -0.12910238365017399 -0.1048802012590849 0.17358137704662358 -0.1604808596210326 -0.1919020270097701 -0.0019901365923946125 -0.10438937656112475 -0.20495500432244718 -0.0844733954147756 -0.07479670350308552 -0.07236410693345394 -0.06401210507115217 0.30454910445001815 0.08831508977507267 0.04049778289601382 -0.13763902795326416 -0.026761156178323232 -0.1778152603263127 -0.08170411712708477 -0.21799382982813584
129 -0.014509030364872107 -0.10129451539228874 0.10391412357293467 -0.023714791132883856 0.013411929126187386 0.1056647477321171 -0.013680048646771215 0.11766763096574306 0.0918276620691414 0.05678387967736995 -0.009537047732378184 0.14372125487037557 0.10152809802424351 -0.008891188418774908 0.00267381090746681 0.03423775116520083 -0.025408156931012983 -0.15820768691167705 0.09888107696914279 0.013403659965217096 0.2989991586576034 -0.03482100635105897 -0.18092119003461582 0.13357240715035257 0.13525934416071259 0.01631958666263483 0.03111992846728112 0.09786310181605214 0.16560796485719267 0.05020477564277323 0.02329468981739931 -0.08978715618669823 0.09268654266678258 0.14963100252068953 0.06635178668207388 -0.04473574728932353 0.0658916889908837 0.06888176016636796 -0.0672322042078283 -0.008114646116877525 -0.03444694862800991 -0.03766161578025419 -0.08147524709199232 -0.010619307208123884 0.026902722543641476 -0.019953666194069086 -0.006359607406386503 -0.011205323850552945 -0.03761869621021206 -0.06266992535067147 0.03951989502603875 -0.0027539605637104557 -0.006006293122133848 0.05972151663002675 -0.03868929001055563 -0.03507544426984116 0.009260742316623547 -0.07183757657380475 -0.04262362469587752 0.004365928778641862 0.1056117733137649 0.04720547285664416 -0.0008238605872399645 -0.0883831168936154 0.0160145736399841 0.049406670245530845 -0.17871388037762112 0.02764787765718002 0.08135744609748043 0.007466787006578246 -0.28661606965095077 -0.00762580471186782 0.03815039558166112 0.004652094094330045 0.15184928430641514 0.20478576180530733 0.028453477323754365 -0.0172299516376286 -0.21398826385897599 -0.0293086625277872 0.026989295126658843 0.1862513532862734 -0.0064860451190891216 -0.07011451667777095 -0.11721730883042128 -0.00305362149549462 0.08159118097712822 0.048228435388679075 -0.003045258679794778 0.017600581751412183 0.12101019716919749 -0.006112018362246224 0.057954649008438934 0.17216854126641423 -0.18798910236514046 0.14540421918472257 0.14811993173371318 0.0853675217596569 0.2504472174423729 -0.23066446339603783 0.038486974464525765 -0.2783125544144031 -0.3050313424708605 -0.3643381078194685 0.09317166374557707 -0.4158759346853172 -0.1666546498129023 -0.37513975111799863 -0.027662602822106586 0.2583468911873902 -0.31692528658357405 -0.24033820625442276 0.024912173586639157 0.18073022269357414 -0.22418609084335644 0.19959392016053004 -0.10891392016694272 0.14404035362295092 -0.2024662669452182 0.18050577477984292 0.02773026351989712 0.07212871188638004 0.12510511244247458 0.23478958578184367 0.09101352958335328 -0.07735182542990335 -0.007982629159734168 -0.237836047505204
13 0.05774883216506036 0.11217906064944592 0.020067525031463727 0.013249931706353506 -0.0762633970432839 -0.04730534830196027 -0.024512919999824957 0.11458594696591404 0.034498449416152405 0.01859419660216669 0.008919587418754002 0.011017681330016071 -0.011743740668794618 -0.06704600428570356 0.0512613331950034 0.013574040429355146 0.08730154749307918 0.06644169519814645 0.0676816933528915 -0.04690517129547908 -0.18681434523475599 0.03609926775017218 0.01707385098714285 0.08641947567068531 -0.12759530191593896 0.11776745321920447 -0.03736372925497848 -0.07824606538454086 0.060861662855966975 0.07150377313561802 -0.08564153541685035 -0.003624085702014628 0.10855746810334453 -0.006010128144787542 -0.017423434335046777 0.026538597851929056 -0.1156149529244207 0.02676830739092481 0.08096867247705938 -0.06132263500013458 -0.012353366275188628 0.09584377417821908 0.006295364693873761 -0.11607561322009548 0.07114654272264724 -0.11583283231386388 0.1965234444632793 -0.14726692701255634 0.01606793434891274 -0.14298122659055118 0.09260097424110064 0.08221903779860558 -0.07913648399914612 0.019562417992873796 -0.037697634700793285 0.005025899090086086 -0.030644059863914715 0.1177000313845051 -0.0065708008902644775 -0.09090412411136557 -0.029256005757135255 -0.04000220648674752 0.08167092536844728 -0.06920992217423005 0.01792948191612788 0.07068792778384907 -0.022998977710215578 -0.04005927084848714 0.0024446153683565595 0.10497133039401202 -0.07211010578210193 0.1536052659951709 0.03190042013186174 0.0644550197201502 0.2346268099033605 0.054495832731637495 -0.011237367666752231 -0.03307425938175154 0.12069031890351652 -0.05019781395611615 0.09359851154324321 0.0503210618734822 -0.16784089969296714 -0.002665282763103524 0.0025137615064827878 0.3577605944017319 0.10600550425801797 -0.015810223931486636 0.040537867171533536 -0.0377250989969295 -0.07223587942925876 -0.05718806097389912 0.07114201291999937 -0.2202454245696317 -0.13166520552332428 -0.09109655941485503 0.117717941712571 0.3156935186763823 0.06699725214262524 0.24710800758811877 0.24399239700432676 0.11110787703924817 -0.10111745239993421 -0.10124806958304715 -0.06324128573519408 0.0981605612637115 0.11507298114239677 -0.015265966129482157 0.12747398853250844 -0.07732102804115577 -0.11060052175982181 -0.018896679661994542 0.17364814159993475 0.04253501039163048 0.15381848784587818 -0.045922038083146384 0.28959628464919573 0.002381256577668732 -0.26401461629697365 0.1255788998313081 0.17896804053340604 -0.134678724467987 0.03786779168447871 -0.08253197056993403 0.35100374474800683 0.5110893264684976 0.6347996057530108 -0.5052213436595185
130 0.038785261747697766 -0.0259434313682594 -0.015075199290117917 -0.049691473691604544 -0.11368418916932009 0.05476396752348536 0.033151583247346565 0.0077112134740748165 -0.041795006881267194 0.0041590779004946924 -0.04573585485138858 0.028726636167817496 0.0038805379916690176 0.13155531740935125 -0.11917351327128985 0.1649385702404873 0.1712086251424585 -0.20805960375573276 -0.005345906663222486 0.10137536622666363 -0.033289332998606015 0.03548256939374977 0.048170431893823806 -0.12833204711517565 -0.15488155684101232 0.12526384374744198 0.28973242825096135 0.05436682964604849 -0.035472469294441596 0.024946808583273708 0.14154960084942345 -0.18028156231211845 -0.02521475081588027 0.043665827024603136 -0.0149902284708682 0.08461471420645321 -0.06843363132604162 0.035783783339968254 0.050740628169475034 -0.03803339153207897 -0.054916823513654685 0.032903943968929684 -0.08987280559439738 -0.05857766819136093 0.008397413020537788 0.24138964334761803 0.09440855171916472 -0.06289073793861207 -0.11732434649060323 0.08948585383294473 0.07333270426221648 -0.04140084835682332 -0.05412148080480982 -0.16792572725837787 0.14345309246170473 -0.13201036181744924 0.042679845175445305 0.044677672024637384 -0.028237609804615003 -0.1732793247319282 -0.014827128363782693 -0.1780384306579744 0.06941125064720671 0.03715128442847554 0.14737705119480235 0.08951199274401299 -0.058038114457758756 0.10436974116763943 -0.07449595710875793 0.05713149406212515 0.012165367159587045 -0.08683859616191611 -0.3296233147786821 -0.07363688934834613 0.0879791521178408 0.046762760796167514 -0.1184680055191657 -0.17100030491886828 0.09226495859453747 0.03269116470692354 -0.08901574637474328 0.23862359537745215 -0.03220569595904497 0.08044397645137209 -0.09669807037996135 -0.22441534400864965 0.02994243494359944 -0.12327179945604158 -0.22616327414823906 -0.07049998650735931 -0.06331118169988527 0.1307986920989732 0.04879885693971656 -0.1201051134889456 0.08008998144367471 0.19843998021532636 0.015035722054000094 0.2829057201155092 0.1412552628333367 -0.15133531220506727 0.2424974389490668 0.11463430779976147 0.06729747467757159 0.08877221445627821 0.02915816708001955 0.17733946777187568 0.0496254368498107 -0.1633803415442764 -0.1497404297641456 -0.2051565665461738 -0.17998295963907265 -0.003308684966222584 -0.3575921587579541 0.009252544774650094 0.02170559930263443 -0.20578660939033408 -0.03759667635142385 0.08745917030951086 0.14476856586978482 -0.15315800172805988 0.070911884842817 0.03920722255349034 -0.053158186341118685 -0.267762169787642 -0.22530189158543767 0.18739906943519563 -0.811783423410923 -0.8623376639332441
