382 128
0 -0.004019234204488978 -0.04321175623239307 0.005906880847377595 -0.011322366597644535 -0.02461171791167372 -0.009077965981542084 0.04811059898215003 0.029150093220652585 0.004008563707257496 0.034721723652865306 -0.10809375417014831 0.0124918389715704 -0.10280867180708303 -0.032921288860950026 -0.07467038113529299 0.03938907872691066 0.11147305092795937 -0.10993894939493491 0.015340910574192514 0.06407771925677148 0.18298691449925347 -0.07171681609104427 -0.03668703513134037 -0.049879153843698606 0.02679491154198999 -0.07708396359575366 0.07489740751113082 0.0028782784705730403 0.10412380947574525 -0.12944524393187867 0.09098062296550531 -0.04906938489697597 -0.05167945695398601 -0.0019105203424980386 -0.0888432955567341 -0.032413363104960624 -0.02712884808156705 0.047284704736163675 -0.019997831756976277 0.036897776585255906 -0.17214947619535675 0.02579347312739497 0.1089823536604487 -0.11056646637952469 0.07236672912297522 0.018608718859282582 -0.07144826968197394 -0.05067554969228541 0.01932742978956252 -0.04197718539693617 0.006068751083896592 0.03442495789844849 0.058466998728486125 -0.04213589976167849 -0.08527147769730624 0.14804024434511803 -0.13067249607201922 0.09058339229411132 -0.08626324887186841 -0.04906809365022156 0.14956639471285985 0.0749294629308801 -0.004926825168792312 -0.22512355503289058 -0.06117786225987772 0.04857745265326221 -0.07457581572944659 0.05405518271750406 -0.1112448313991552 0.04985952060903992 0.20847742628722687 -0.10507775729611957 -0.15031199033456621 0.16829502542750002 0.16828303865059588 0.04095830778861838 -0.16415762000914347 -0.07943935270975368 0.14855636715603346 0.09106889826539312 -0.0003530781695177302 -0.004977003153039149 -0.08839571292564301 0.06390446934632137 0.051831340327868965 -0.002591362636980724 0.02389569639121645 0.014078840719939876 0.0598293477234717 -0.005288357688636501 -0.0007214443849567422 -0.0017234082816522946 0.0068236500862485176 -0.05157104393168328 0.006172793980767434 0.010271159264397468 0.09178596417217427 -0.035351207244928136 0.033814601466924187 -0.041988707617486125 -0.1357720500827708 -0.08152942113908926 -0.07650322586398796 0.0562209373988353 0.030278496921877594 -0.08110606095851346 -0.13831241235347624 -0.08625274889467226 -0.18620047592640443 0.014691599213444404 -0.2555418475107144 -0.2155021015658622 -0.04231038276744873 -0.0771458972929134 0.0347276659336768 -0.19217180629320907 0.007220710897833963 -0.09246738478142169 0.12960819891532785 -0.021660365892382873 0.2935598499772553 0.13460431488200056 -0.04329717886614606 -0.06338606835268222 0.12872529841709782 -0.24551945576903478 0.02642118263923632 -0.11739827051737167
1 -0.010579524359648363 0.09027006262093441 -0.08451944224394543 -0.011497378275302094 -0.1349742219232445 -0.022147719268544124 -0.04252782001908481 0.005312457432270709 0.03586981477034441 0.0440680064100767 -0.029956349446569993 -0.026931263625355924 0.03718709282088952 0.0743099702383284 -0.026918519730320258 0.004800788570382415 0.025478331288543477 0.14632753856634176 -0.011121771491957082 -0.02732800121742393 -0.026875829467647445 0.03875929453763196 0.03628000745054023 0.004728101658002901 0.059614472705352535 -0.07436864372736207 -0.09914481265668677 -0.06107444127623508 0.06292603923306972 -0.14368607320468246 -0.0949928554587114 -0.02824372088920481 -0.010629926629672456 -0.016468272897116963 0.10965227241429543 -0.1370501366535351 -0.12076124455314291 0.0660673804301223 -0.026888905617058263 -0.05223407689738532 -0.005447062759233402 0.28777470933895805 0.038151137298913076 0.036681576513172824 -0.0215338056934384 0.02204722147281927 0.09255929852648247 -0.10898899596511391 0.01697276008764623 -0.02293118039128569 0.054789096699050195 0.15914708213095394 -0.03839224843776278 0.01693124096612616 0.03308154306168857 -0.044547776803763435 0.00038998159775278864 0.0097147797116775 -0.019566090065218596 -0.12499595980661563 0.11853086905262712 0.0035004613230169568 -0.14589967878217885 -0.1290108480134589 0.2285909624228469 -0.025159138862904076 0.25748841225938335 -0.033281864587706864 0.018965305185316323 -0.1143465512763726 -0.019251721432579298 -0.023130325847577286 0.2694420445866934 -0.01731199854526692 -0.06909296722711786 -0.03559743179642592 -0.0021604002662525884 -0.08168411725590329 -0.14168791492511282 -0.03467938910937789 0.15434580294479675 0.19425333183050378 -0.23551718272760047 0.14315335948740557 -0.06917388485799006 -0.024523017053548327 0.22169163773165868 -0.0637814530349613 0.12886876768068622 0.0875217089106345 0.010689174951188497 -0.0759275487806815 -0.08460518743897619 -0.176969742718248 0.07027831539994835 -0.07341555610550753 0.1578473242922433 0.21366769022147017 0.07854131711416049 0.10186557238825278 -0.20639097287299243 0.05567611547286845 0.11161766513521591 0.03347506203371457 0.04171786181429769 -0.17448052839106318 0.08081074550695543 -0.16261018383328663 -0.09828747726907416 -0.5673069739751382 0.3240231419301453 0.12772275592391108 -0.5630585584777843 -0.12297743706104138 -0.013678057328169011 -0.15119139775432316 0.028363329744441 -0.08518988353186673 0.007374846198636807 -0.1012728088157678 0.20916661206770248 0.025001421630810632 -0.02049222123307527 0.08456508150328483 -0.012683639314710124 -0.06596415153192355 -0.14119303715221945 -0.2856533505826487
10 -0.006051283457156778 0.08238492916258863 0.0012519804015363126 0.01703437372030232 -0.06138424937107303 -0.0736956154716445 0.12351320001809955 0.015376653315266312 -0.05955651635296729 -0.2543429539846446 -0.04067485803308477 -0.03311230024415417 -0.09932759799439195 0.047672468860433435 -0.17719946642505902 0.017963383187858444 0.0936772046353196 0.031568113540678434 0.02079328781865359 -0.027285897320001782 0.06367577962891884 0.0856928397861969 0.022314457159647735 0.06807169609517917 0.04745401026290725 -0.01031648660114711 0.04061543390877476 0.0035633715796415965 0.056695591482277825 0.05801345704256612 0.05988312974177209 0.17426017626591536 -0.03917880198265734 0.15072696503982577 -0.10861293728949646 -0.006035885709557223 -0.07924107029721769 0.008516240941598377 -0.08677010429702216 0.006137757996302101 -0.010252488256551916 -0.03801556105061122 -0.05659385934155146 -0.07251616003141678 0.06583407529011659 -0.0573944650998895 0.08539250080516837 0.07880323546179024 0.10053735633784938 0.15103185431037097 -0.047758921959752176 -0.07659453860491006 -0.023030464680702054 -0.04245903716779594 -0.008976989096426342 0.07493390623171226 -0.11295086184353265 -0.03966038722614394 -0.09347761440130808 -0.010024161773731739 -0.10288425876239428 -0.061145874968224795 0.017265126005920135 -0.14040503349498323 0.08017428316600293 0.16787385690244894 -0.09746280004378417 -0.04753248581584632 -0.22319785661361896 0.010792295790076968 0.12447647358286631 -0.08328284038845643 -0.0703974334567256 0.3421251159442451 0.06205693101343662 -0.11145356761116795 -0.1765071508484819 -0.11983847124093945 -0.05579452585409127 0.059352838066354344 -0.026238596749561707 0.11280649977398702 0.27814720616394334 -0.13001791285796288 -0.044717387690455086 0.09075785522910056 0.031066403556683615 0.010343811036286425 0.028700275228112103 0.22708802809370351 -0.05879007717558868 -0.039069121270689684 0.31318275972840737 0.01690150587584168 0.18864450429844123 0.09567157811719115 0.05220768314135151 -0.1146178130606443 -0.04273346091702743 0.2183246596928918 -0.06638129134696295 -0.03585641692395658 -0.20578166888064647 0.152254981320155 -0.08212155243345476 -0.0895206989352156 0.1444212989956313 0.042839449609954824 -0.1186622035435593 -0.15523957096494903 0.0849515638297762 -0.1394702329492209 0.21623621451158345 -0.271154660333656 -0.25001971925278843 -0.014348088783431998 0.03261506753253877 -0.016122494052870404 0.16759263791017256 -0.12797741580611766 0.15763903590084608 0.20558450049669313 -0.0939402756607776 -0.0882472531793584 0.19874217336736977 -0.32531323839507437 0.026899124106469916 -0.12945181096995048
100 0.05585106003748299 -0.08280679556554514 -0.10037871434259894 0.0020556570414853583 0.11283711248546459 -0.08108897372322332 -0.029659541143944552 -0.013263057007374563 -0.011405070132807303 -0.04188970301879174 0.050006805350017364 0.007476625484146663 0.04335715876150006 -0.056232710908605585 0.0766519787610677 0.0044462884566590435 0.10591013193884181 -0.004207606476489195 -0.012721809289171715 -0.11667250173631763 -0.047261922594779175 -0.0042383725818526735 0.008460744880190493 -0.013883972308445472 0.0005282112942388739 0.04991224971464634 0.07481373573437548 0.039798061353779245 0.008740272189405367 -0.03659007148301805 -0.00633640723571072 0.10343366020266836 -0.12148867334859904 0.04384944971863975 -0.059328474077268725 0.08027500178932928 -0.043066799871737185 0.006100606824643514 -0.11678112669448322 0.01366218499845514 -0.07137606050024532 -0.05160761249103363 -0.05093964174142795 0.029747505076168395 -0.1462252266516733 0.08474399732890313 -0.18155068300327287 0.031285576791811084 0.08186887743646383 0.15840382610822404 -0.09490125290085669 -0.0469795467801704 0.07068353665683413 0.0829111153607974 -0.08265803559517725 -0.006551271576447109 -0.015877366542687604 -0.06376835633456507 -0.014763440826915733 -0.05152667693218793 -0.0967113083206208 -0.01426510964135832 0.13669289110717078 0.12826181702582345 -0.16532233678093297 0.11922846053717844 -0.056720050181563626 0.03053465878090942 -0.07660404406032996 -0.004855286623781648 0.06197255264576053 -0.12771784034497002 0.007101984793823376 0.14410858123256456 0.09194509070771112 0.05501865723673215 0.010382298816865695 -0.02536648937315862 -0.022844227284225024 0.0276254578578074 -0.021631754055272113 0.07886776515212847 0.05610530003795972 -0.09055973981445395 -0.003068082121716411 0.11708219209841184 -0.05058463015675144 -0.10218994078286595 -0.05884798992980628 -0.133858197232307 0.131681633998519 -0.030042719771757813 0.10627038762717389 0.19344214976699867 0.21955894676579304 -0.02846131135368027 -0.08199359924733896 0.013385682838677916 -0.012567744032967216 -0.08337452994039454 -0.13794300504763848 0.06707687389475092 0.007957660995616733 0.07971166292474345 0.059879092997568335 -0.014286289688511847 0.16649701159037084 0.023218842438401884 -0.21248245757104756 -0.022852527979691072 0.08216632210557764 -0.03595962623319456 0.09272476617071304 0.13510916890405714 -0.008758902927371939 0.017300988615888066 -0.03419423928433866 0.13402833830780195 0.0650427590217254 0.12262424070302606 0.2587548785355636 0.2130789163512562 -0.044941335579117676 0.02046076208459092 0.19734982549647812 -0.2113345894926231 -0.0439618864882658 -0.1499070202641312
101 -0.010531421886425576 -0.018827514603634753 -0.033288699937200086 -0.07198672567095676 -0.09360152828707587 0.002422344780954458 -2.5980273021357226e-05 -0.009620497050004105 0.05864565504433286 0.05130488135722407 -0.052049282518308204 -0.04830377136782639 -0.024163376971943134 -0.030974966595140884 -0.06297417889870564 0.01453723142156176 -0.03754524047763578 -0.08300019138687215 0.02456122245331912 0.016890352540315012 -0.038346523272724094 0.06298204733812879 0.057749283729527166 0.003838789856324842 -0.003020684021726173 0.07093600716374623 -0.09949165737039965 -0.11622889978171769 0.04091199778415568 -0.09519454335777529 0.05932679796434048 -0.024880454546205136 0.012952121207423829 -0.0427166880474327 0.06408748838679854 0.10060012673356597 0.0054120733989750395 -0.00819085209083505 0.004822795467986255 -0.0696303243470329 -0.07709925014617451 -0.09199696623149589 -0.009574889269797328 0.004094998298838849 -0.04880013360470512 -0.02852221212518707 0.00010144819098433774 -0.009684952851902209 0.03976575881821177 0.008370691310837782 0.019426255751010736 -0.04376818768042619 -0.07797207440705525 0.0033647494820806365 0.016324153523840323 0.010455648439965076 -0.06922299331843923 -0.007871029881072196 0.03427454024601932 0.04825725156133269 -0.14953383501452017 0.09996110433469173 -0.05784665012830129 0.09568829008670746 -0.03275182439370496 0.03155355620298144 -0.1518827682442181 0.019687034185954223 0.010108794757655228 0.04837836941031282 0.02753633916466625 0.18941005875732056 -0.06319137179437069 0.06298552897473662 -0.08437000674447313 0.04382595426415717 0.05059009937447028 0.09534907665726454 0.05790251177786495 -0.09044378096792152 0.02604468810369219 -0.07123074072973382 0.059181505897007644 0.06105668505285985 -0.024865872594432813 0.045366338279472236 -0.17605029888071247 -0.16826191133513912 0.040086496969112845 0.0906307336226262 -0.18677612574930053 -0.0669734922236535 -0.0815359163110652 -0.09872410240831128 0.13919431656101117 0.016389918671274893 -0.048799369173512304 0.04370046142769054 -0.10111215960203253 -0.07066831696400303 0.10533257113413778 0.17638606694491657 -0.09936918857302819 -0.05698383927186281 -0.04310743280197993 0.17472522521483277 -0.09598940147755405 -0.02605175559940827 -0.13010329650583669 0.2764232583226176 -0.052198381920452494 0.051534403812913326 0.32954064538738803 0.040577349695359095 0.045923463360591915 0.017751596830224578 -0.0589199813120283 0.2281555172951614 0.06652176816590444 0.04623739298591396 0.08453167351700575 -0.2707231881327877 0.002450235197079469 0.33846475750129246 0.175308398052715 0.08927672684355933 -0.6770050868211461 -0.8023355251014739
102 0.048072084080106534 -0.1023525457662745 0.02255941861155479 0.03940101107124491 0.11894204423516429 -0.07921533528088515 0.06127990471104635 -0.016546436515015105 -0.0803921971560906 0.06601340581819316 0.1282904343807041 0.02855682377909826 0.025927686017934673 -0.0005264768135282048 0.14267928516410222 0.017379731474710808 -0.07173887169327876 0.1516154290036162 -0.03530050974291117 0.0755908205405869 0.11982152741937258 0.07879686877084469 0.006718923994587747 0.0528463620446515 -0.004468198197845963 -0.0247086080992429 -0.08693141075121814 0.031743579428112095 -0.036205820827042295 -0.09782622415647127 0.005028881515657357 0.09513535264999541 -0.03452550538278679 -0.1643018640749768 -0.004907547323642072 -0.032428684765092586 -0.08065187997455064 0.014996617598501478 -0.05688885765902789 -0.09461441569560924 -0.12708362202122908 0.09936018908759812 -0.20545774102893696 0.133663575215743 0.007643537525746944 -0.01952643752282368 -0.0943322679156213 0.12517597475926812 -0.0812553334689083 0.017691032495497628 -0.013797709738812272 0.0183022907757255 -0.2506098613693094 -0.024624684259670973 -0.07156116707455376 0.08494041213166577 -0.16609035689979218 0.10881504667441134 0.084904420515294 -0.06863178895141044 0.05960353472173617 0.11594018703605281 0.14898821364690368 0.06716184005480424 -0.07243387839628973 0.036404577282280116 0.13823335031540934 0.12862051326134488 0.10613429202368624 -0.025331996435601387 -0.086414561152757 -0.040311183219489934 -0.11939789609977124 0.10774785911549091 -0.013593462045500151 0.057636478438449844 0.05928320559653105 -0.021197254417076886 0.07342061343109495 -0.06639636969189541 0.047058527769533884 0.09480176968210396 -0.09914691396518163 0.058157761252127134 -0.13107783536256432 -0.035947540577736525 0.01751615126003742 -0.05648022999171768 0.11606016519363159 -0.009196917287675077 -0.16354077073883663 0.03761877735309501 0.036269431339345175 -0.08859547129498922 0.23986507161319467 0.05994692799098195 0.058054394045533114 0.17872033103881846 0.021863189864415284 0.1499382270953372 -0.18495023104605118 0.13821478908530058 0.23421872757017206 -0.012159857105401435 -0.03488198380385309 0.15333315704281902 -0.09141620512878465 0.11515177467902941 -0.1685025274002263 0.049122769823856854 -0.23066764139964666 0.03782509838092936 -0.1099454295911819 0.15928592626116242 0.09977178009068056 -0.13150566497083888 -0.02432802197799313 0.10474640529264835 0.1108976421772726 0.19707254391185314 0.24352060328382688 0.2559568241136426 -0.03356828473242862 0.05369511407589061 0.2401510416374778 -0.20697619456890085 -0.044835131477440095 -0.1819024280226532
103 -0.06993179318383312 -0.15260827150664846 0.10546409215165681 0.07499631806612113 0.012357659448014913 0.04845355445163049 -0.03232973522961274 -0.13204438919320965 0.02784144358055761 0.04886598918350356 0.09990439222840665 0.015268565502680827 0.029712391207826483 -0.03362911166350663 -0.003300267414163004 -0.008100459474706157 0.11375431169677296 -0.017023644156185663 0.001198942481105387 0.030545196008304874 0.07341898752712582 -0.08550584297848753 -0.05254759546722001 -0.04550211868112375 0.009571190744598185 -0.07133972002103359 0.15683462802644718 -0.051527851477091595 0.01460205917841439 -0.14803134509904037 -0.023951681600716018 -0.007964670596474523 0.054944954603209605 0.000949910822183049 0.052205019468730934 0.030864183285673866 0.02499488066594828 -0.04343552888811144 0.02155239670549447 -0.05778736613048885 -0.004400761685477749 -0.07100364523122357 -0.01425789347087303 -0.06903778617019282 -0.08903156147099048 0.010763757909766662 0.008680441267863874 0.04952581960553215 0.04504974960427249 0.020250034446234615 0.07046262883747849 -0.024345460727427094 -0.0750345668511092 -0.014343823017493075 -0.04583623727415446 -0.09560839028858212 0.10629180836108235 -0.07734461519306228 -0.018212200948476098 0.09048370932043323 -0.07432220043051288 -0.08379966593925504 -0.010008554427613708 -0.009977589066238787 0.1711854196148109 -0.04554748987567777 -0.06770277275444642 0.21285049639804393 -0.0557505257490098 0.09523679473351128 -0.011525493695639976 -0.07298781354042526 0.008150804647092164 -0.10515417957482404 -0.020899408500320234 -0.02033882804648628 0.021733434987568415 0.1140469005342825 -0.009866436275829811 -0.07967218779936511 0.1414497909974365 0.008584472251854202 0.03699609249836659 -0.014565264278915852 0.07650091272500459 -0.025781235169115173 0.015942261083030543 -0.06538064620642443 -0.07160008209346744 0.15792220735725454 0.03488229380834598 -0.06383959432720934 0.05389343466430476 -0.0867738457310085 -0.041008772967764465 -0.0733747663320021 -0.0811297470197555 -0.011891185836095981 -0.05879050572256612 -0.05917479301147633 0.029216074067883513 0.026452976130735883 -0.005216912612359094 0.0613553641231529 0.14998031946614832 0.1566114691625568 0.1249716219087123 -0.0811249528330067 -0.08332921089902783 0.15678205986365087 0.10584645570473998 0.21811787359927065 0.03231861083610949 -0.10184521438262578 -0.24274366070522918 -0.18292998112857498 0.3833653689298875 0.04746717087725934 -0.20329324504040436 -0.1224813020953212 0.043792163174666 0.14154393205123725 1.118080329561812 -0.26694542219563927 0.2727419355268231 0.10483148758687061 0.33427316062297663 -0.3519421462963783
104 -0.008192031962267593 0.029592245976891866 0.04054517388276289 0.13900451434296182 0.1445800944877152 0.010252383694877203 0.0038257661746842002 0.20208373767943194 0.07103163471428177 -0.0551058601716284 -0.11025687441707374 -0.018134535398449038 0.05218309319756539 -0.08823717473599318 -0.08085299764141818 -0.0306656183228929 -0.07418129039180586 0.13296570196017848 -0.06509803608777365 0.051850080707759046 -0.13575821986504494 0.09498602862540724 0.03277075919351877 0.2647202340548433 0.03629265518222729 -0.14676792539576922 0.004704862023438522 -0.013383155299175012 0.11112906122241653 0.053526974942826155 -0.09534545576328993 -0.14284200387695234 0.08536916887959939 -0.17051099365238498 0.1456725189114902 0.07815872349250695 -0.057363504127694295 0.020432748657307695 -0.01635876985721822 -0.10442346026814185 -0.10157763752795596 0.06965541955806252 0.054719473319272224 -0.049484382407140294 -0.03301312412633311 -0.01814104898217904 -0.0012282210845484744 0.10430274266029471 0.035149874762249386 0.08831667033235818 0.11570310366136093 -0.0629548832968523 0.19587260418271177 0.028929123685395616 -0.04086200627581556 0.0018974879468786079 0.0749924881632817 -0.018859483633703756 -0.00812594149938139 0.026507726500636902 -0.026742780404949696 0.04271961018408409 -0.05664686990364382 -0.005743042916948427 -0.1419423004155254 -0.2016218934494003 -0.08194393454752921 0.11394089948100647 -0.049931445437645966 0.08962241461839932 0.08122028487115421 0.06346362208485008 -0.0441210955982785 -0.13134908671632975 0.14696732947960692 -0.04773765256797632 -0.033340996580915556 0.036099029365283856 -0.15357138390415587 -0.0780582282621595 0.13817067230789173 -0.04103024368047355 0.13361735326681573 0.044527787869148516 0.1529698903099319 -0.3323629066465489 0.2313858350480851 0.05157251663386548 0.09645860955412554 -0.052809852147006744 0.09363914983071384 0.07593180886494315 -0.07165890059398658 0.020846516995957545 0.22418793906823312 -0.14656890212163157 0.0011143862038892603 0.0030533639644140134 0.1122501627009998 -0.4016955654388392 -0.015145562962069243 0.09833246252374153 0.058881470623873645 0.48041411284837154 0.12612976080153446 -0.4106643723966844 -0.291811219299744 -0.23905936332077374 -0.08033468366555052 0.35226471254036645 0.045875065213077666 -0.11621177385442259 0.2206989819984385 0.2374997920544147 0.04083281121928619 -0.22459209280334858 -0.07453317881156886 -0.24358162455680207 -0.5267457117929991 -0.2585173614675048 0.06420654304819415 0.2336551508675698 -0.22221353920763665 -0.040003308021528614 0.34620462911690003 0.2066202293083806 0.3025646548586023 -0.36473673602910645
105 -0.024037978199306805 -0.06589536792791068 -0.04666635989015044 -0.0757808562352425 -0.014701187734003317 0.08035562609077833 -0.11284053770691542 -0.05154489100577748 -0.028136703562295584 -0.008010486401718362 -0.06788050084733875 -0.011149383763469956 0.012608064377297933 0.12577698587086794 -0.04382085465316948 -0.006305525766064402 -0.046019300216929196 -0.09217069710845556 0.10168247867304546 0.03579381019223875 -0.11311240808597965 -0.03268643077514318 0.17301413784474715 0.17640813176638914 -0.014330568855543702 0.12770179472929083 -0.13783585052748498 -0.3352456199107784 -0.04807471713246831 0.09422751382653917 0.030275606753319962 -0.12347425612838538 0.029797879350221414 0.0017533980308333075 -0.019392299524985626 0.09193171079528743 -0.0041809390742502985 0.05225544917984304 -0.02703600024683736 0.04399835937328465 0.04839050188808354 -0.03526884347987828 -0.008171622221242604 -0.09196729930134606 0.07221319065975482 0.028725301027682892 -0.06579201861457504 0.0024373605896388733 -0.02808494321666353 0.08002857907038533 -0.02179390706802282 -0.12158465854294612 -0.10079895550706536 -0.05419747795577212 0.09288521795970796 0.01060698196789837 -0.06877263741817745 -0.08383844063597534 0.06699836175427401 -0.0614871057148547 -0.009157100147760883 0.07910181525760386 -0.12898698772097653 -0.16244008373587396 -0.012870271788037664 0.02636456314277249 0.01724443181695433 0.21735833131236657 0.14882359040665277 0.005359677938732472 0.09065570296565635 -0.06363243289750718 0.1852660044673849 -0.13557639331411867 0.17616422417050612 0.04917093720125382 -0.006202634763457957 5.225660185148522e-05 0.26250356606498687 -0.04608700066875633 -0.06552764240709569 0.07952609614506781 0.16063242193326774 0.066876662893769 0.04810065635521854 0.14622687859639827 -0.0630439841789165 -0.00406664053507608 -0.19465080403646734 0.2827227218715828 -0.21956886067143544 -0.3860506622944981 -0.26317180132175966 -0.09738346882989987 0.37463891624001594 0.11327933772760994 0.03433594414528743 0.2597566588630046 -0.07469349348526232 -0.02315106477589653 -0.05829968853147577 0.1458541618966322 -0.09461344374685315 -0.07879840711759611 0.08374569373979794 -0.08835741621249027 0.2597885890625539 -0.21045022767968036 -0.03596416068525031 -0.11087766664693151 -0.2674041497146586 -0.2507330678094349 0.14734104881538523 0.11812980235298667 0.15524476386722091 -0.07198693823295595 0.08795875067252303 -0.18601852346058553 -0.4320568860739789 -0.10522773025868387 0.1413084505891357 0.10016977405616301 0.03919733759292722 -0.02776932422156728 -0.0089176999438428 -0.00396872087305206 -0.23497116495608597 -0.3943631100155578
106 -0.03778453250060724 -0.05279944294484989 -0.0220699045597471 0.04927190119265922 0.001934365101714261 0.08056632756529351 0.06962294463001875 -0.012304656827922502 -0.045875713247145025 0.008569350381214199 -0.09604080981663435 -0.025663186834481384 0.13539759475470475 -0.08318964120398505 0.11468735371536001 -0.011383201094247484 -0.19916549961972552 0.08928976638394061 0.02432045080048598 0.026405573045549847 -0.1124139544310995 0.029305290437600204 0.02151615428177615 -0.003043570440113867 -0.0047181928493504844 0.06397986731809617 -0.2759175444705114 -0.00795077830676512 -0.06046236853422624 -0.133052145760319 0.03951837142876777 0.086225861561759 0.0540992743697745 0.06756864154611211 0.0785337637548323 0.08138593299036886 -0.10631614533016606 0.03572589832375066 -0.11923438427243718 -0.04219484522742605 -0.18745054780971696 -0.22642338276081533 -0.15387239531625865 -0.12373053024694237 -0.10492842051387649 -0.11015083909358844 0.07948114319782215 0.045663277307742625 0.019620062841923445 0.1550869835110843 0.10083451938865584 0.054037956969037224 0.01790741390202368 0.004166725725468805 -0.00731037688021042 -0.00688226998628246 0.08404642905638346 0.06582620112615285 0.14204414926405234 0.0005175807907119552 0.08991121151003668 -0.042867581688239065 -0.004242440863478551 0.018402566115234505 -0.005078360558504435 0.14440269132184533 -0.08831210327008245 -0.005859982199244896 -0.2883956680822129 0.15566379162343494 0.09156830716278769 -0.04958439818581932 0.10658361637171586 -0.005024409742819482 -0.01937791714579234 -0.14383357980853487 -0.23782885710183788 0.05060640618816458 0.17892843101984116 -0.044216343883899834 0.16636006408307974 -0.007492320275737819 0.37286906016578375 -0.01865833078174557 0.01367969581432638 -0.13404806378186798 -0.1998574829605667 -0.026987232126390148 -0.1506829473600571 -0.004431255453750656 0.18939603637107225 -0.08013744552722193 0.09216217702280516 -0.016667551032972273 0.05915778831063557 -0.05024894782480271 0.16787184422465098 -0.16689412083803498 0.03505445899803576 -0.12611394141431198 0.16592362395050003 -0.10909750762640807 -0.320786500480047 0.08342443717556247 -0.036472802328939874 -0.13372101295842617 0.014146909782660377 0.1784039122495096 -0.06321769290637741 -0.2517340193003493 -0.0018503493382095745 0.25744534425968085 0.10710482756199335 0.21636534516504344 -0.21670337270121354 -0.013695867261222627 0.23221751933837967 -0.009824209109931597 0.08900610613487826 -0.1581873379028838 0.16482458356528157 -0.0016732046476754013 -0.08967918762804385 -0.06855284796667266 0.10409102759942307 -0.3897766264297933 0.08125174640685771 -0.12915943271089497
107 -0.1727527890427967 0.06044540739470462 0.10190594201304486 -0.029546497870168238 -0.06397100793491976 -0.1624788835954976 0.10730867205188374 0.07233348049996388 0.0669977906424955 0.18961565159511928 0.0326867094242828 0.030064175441255937 0.1344933773965199 -0.04144754811541479 0.20057696633394653 0.018054996341198972 0.011685416448666726 0.04340935183414034 -0.0066870512338256605 -0.17154834800691401 -0.14346360695467963 0.03814063178657784 0.05913157418975263 -0.09621348608906863 -0.03339918339779829 -0.03882508026229475 -0.0653937423847739 -0.02761470106795117 -0.08020283797031304 0.2590432002911785 -0.009404855307361808 0.16759725564102818 0.03339167822139366 -0.10398366081310753 0.0984608531944687 -0.04029135396960706 -0.09993167541176501 0.14787829951165823 -0.029347338115016337 0.04310788436845303 -0.10328160188821554 0.014490378200637704 -0.1705221104757124 -0.02477469682918139 -0.047925659197928815 0.07169548608701448 0.12555532266336178 0.12011203020182168 0.04117006528418396 -0.06509410294278666 -0.12743128468301668 0.05946127122872373 0.035985819542438964 0.11017447845705337 -0.1289610374791218 -0.1628671119002758 0.031128153334400274 -0.01877590623179478 0.18063377509381284 -0.2421756820026379 -0.12558799126442685 0.11668058768836315 0.05676313327560592 -0.10220369231578506 0.10736894207775663 0.08509887836159975 -0.17936965650890607 0.04243626160525038 -0.0518407965427776 0.020682279728115528 -0.03866673464867768 -0.0346579862386283 -0.04998660491977803 -0.13130960818280768 0.06620216068834683 -0.014719013902671553 0.07347311984539732 -0.19299499688221727 -0.11424426081761768 0.08210300459382563 0.1784465832762728 -0.02212819800702867 0.2700536830273291 -0.1457614147739244 -0.0035249283757809893 -0.18297934011197028 0.21586543971034863 0.02129286683330075 0.19696300140313916 -0.3125491851885588 -0.008722814194348187 -0.10625825090157434 -0.23855591986684707 -0.09390597900151484 -0.04698886561636899 -0.13786514227699237 -0.14281207665653461 0.17845588603646906 -0.24920353968731954 -0.27460215029904883 -0.2544271345679405 -0.022405857244718188 0.18040741498462795 -0.26820362031560385 0.141858572934004 0.2941659069201592 -0.09842636418813731 -0.012652118040975453 0.056100696592725215 -0.07925987934124618 -0.08576441577733952 -0.14784312971887667 0.33954950242753706 -0.5222105884258255 -0.30381697838281246 -0.04255251767589477 0.11196607713016073 0.031739505587626546 -0.004222244607656821 -0.2087840010445507 0.09356547523765645 -0.19481396531120745 -0.15069692278935676 -0.10660766974475999 -0.028617333042995147 -0.30240305999024536 0.18978292504278135 -0.1532326543237647
108 -0.009517688265784842 -0.11237454225732683 -0.09900224834686085 -0.06148245504877345 0.0483485581559242 -0.13544402419341764 0.021624131320620476 -0.045140867405044284 0.1162832536892353 -0.043202822542029166 0.017633833857488637 -0.0198974337140626 -0.04591941557152155 0.13895336011629167 -0.026209894150455954 -0.017563194052961466 0.074932714410501 0.11771142298398697 0.011254405920905361 -0.1739727122551917 -0.03125511577417093 0.05549450346962774 -0.11004123042118168 0.015766942114032467 0.009526386067135573 0.001305944249038746 -0.0900403186150511 -0.014814377822510199 -0.014158852203287057 -0.13881312374984606 0.005514880222508854 -0.02764457238805955 -0.020015326906158447 -0.0032075876619493404 -0.1251375851138543 -0.0703081988416675 -0.05895079963496412 -0.05228076049300045 -0.02030679638111336 0.017709713179592263 -0.031416397802849404 -0.045317508980284006 0.11698071391975903 0.12824110852973228 -0.07755816551461713 0.06990438786440932 -0.01766971452812459 -0.023521393797171133 -0.07992683203382414 -0.09186406573456456 -0.0442827229927883 0.1622427880776832 0.0644163592371553 0.00537217844718242 -0.1517647709122386 -0.007554501784638621 -0.019572881038636258 0.028455876654987253 -0.009315353344890958 0.05669471932112273 0.040314990603894464 0.03586482851825793 0.03309108921911055 -0.056257361285195845 0.04391284225932925 0.04239880734689543 -0.023519087194219006 0.19684980582299982 -0.09581163936757058 0.18277206841565363 -0.11812754064174828 0.14659461306543428 -0.08675833855077426 0.08836257190743836 0.06349614919340474 -0.008404871698180136 0.056815257157038175 0.04853337833645567 0.2759430010890098 0.09968225337943785 -0.060355475271900216 0.09795707777620631 -0.060027412451237175 0.056270450073348105 0.1672366673813107 0.137708850525724 -0.10962631678260627 -0.09331548286040503 -0.07627999658173293 -0.17663932681718095 -0.05377465892745944 0.0855274269821115 -0.010162949541326485 0.037155775575588273 -0.01633695138309889 0.12051177236003428 0.16053296834258987 0.049735560016855175 -0.034771776701710395 -0.14809015522738367 -0.1870780958023861 0.05885346733427153 -0.0715393507678748 0.04564315881831536 -0.05410732462114123 0.15483448147979675 -0.26991900541291114 -0.2225931747632131 0.08392430388523416 0.1099020870274937 0.08583182086157501 0.015151988169843984 -0.047487625849947084 -0.0704303190018339 -0.00657466041687862 -0.16371020308946607 -0.010045339251598825 0.0760029785610553 -0.33324215599545454 -0.09798287686729869 0.19014338807299472 0.10686466212469602 0.04476801854480392 -0.026098021919356063 -0.02310680225056569 -0.12289081997057152 0.06465548015810356 -0.12521940686239685
109 0.034664914837754024 0.03167103295140794 0.003541173866455092 -0.01801695680310144 0.08595243921550413 -0.09555813582184962 -0.12982436535385922 -0.010085505024117826 0.05403203437699404 -0.007314401120536098 0.1164662756039938 -0.051975261352003865 0.15282935690144336 0.03351621760759351 -0.03889243301533543 0.012437841411403399 -0.02462764499501032 0.004277764770865394 -0.11247351861100746 0.0029865077493281796 -0.011182581163775926 0.019824184333160237 0.029622932747207984 -0.009097069956033333 -0.03496424518216519 0.023151372734217638 -0.05483598993282694 0.05673152926221256 -0.023176599796876547 0.0955543841090447 0.046826514682172346 0.12095427346661783 -0.09471248106683201 -0.05517895727839387 -0.019464113272066878 0.0172270951593652 -0.19583801785161847 0.0501323174536788 -0.04059329454287333 0.054671668457253846 -0.1498193598483139 -0.05319796327839387 -0.13185179323788007 0.10944776455364412 -0.04485729562866472 0.04102191876929128 -0.04023624020654836 -0.006516738921874472 -0.011542863678190496 -0.025405380008309407 0.0573267464152183 0.12339064825639487 0.07937181105415536 -0.03551813038930486 -0.015624746810942482 0.08195181128453469 -0.041804321286313284 -0.060910068653340706 0.006037430668180376 -0.044820474589329445 0.0923767233671704 -0.003276824119281825 0.2399567533761113 -0.0011221360354069176 -0.03736792717887996 -0.051546163625269086 0.029542233877094187 -0.08538402306140767 0.060291150580120835 -0.046626515770792167 -0.1382795856033721 -0.07435369936837975 -0.034410778764010566 0.12316021384702823 0.01488930177826117 0.05611431615827458 -0.10047840826619146 -0.18194024132534398 0.2404978028905314 0.24253622035936115 0.20965398767248591 -0.0013687299884365682 0.09292879552914324 0.05122811025343277 -0.011238378669107683 -0.21512686161847636 0.08734322001626009 0.07684823473484383 0.05726302472901051 -0.3401928900181972 0.13701509874416257 -0.10751251535385783 -0.04766072019392704 0.293096089497362 0.4998360266571748 -0.07900723744701134 0.3996646712484994 -0.2725675988071224 -0.2874060477372947 0.10596380569547065 0.12117553361047119 -0.1302116168746988 0.018246082582928716 0.1482503658826547 -0.41123709173598444 0.0778230620076707 0.44697928858521746 -0.01228734407250215 0.046295408085626655 0.002004927904355931 0.2939115291963613 0.19568231270073594 0.17986709467529308 0.30006366947200735 -0.24423541498915333 0.056338394099743956 0.06111791159355616 0.2368385228152764 0.3585239040887712 0.3133528332461746 -0.05734317097594131 0.32572454265558903 -0.10792779054376132 0.15698945676544923 0.4722488113887374 -0.3917561679862438 -0.16015070600112755 -0.3011282141694045
11 0.022298090915259878 0.1424315405918044 -0.021698250807163765 -0.00450308640976122 0.0445357012487657 -0.14890664469337178 0.09715222910379942 -0.0714351225595361 -0.13363283283519387 0.05142379102903032 -0.12548210877566618 0.016159760645901505 0.03625562233776257 -0.04273955444265909 0.09037466940094883 -0.0005695837629447976 -0.0019599429329467855 0.09245860089628877 0.05254335061610069 0.029974037879289015 0.18720023513435732 0.008171670339611097 0.027117833555241142 0.013794390180426434 -0.0379327648968459 0.005624965042735732 -0.019520689401417306 -0.11028643787846254 0.023641565402865643 -0.12198465167088372 -0.013841585459312335 0.12144289665118836 0.006328820482464699 0.016108442853569712 0.08183839502027036 -0.11579339042849299 -0.08688963893215715 0.14128999844088033 0.04848262312870555 0.07666933281971916 0.08022822282058598 -0.06552754322185862 -0.0016842621319302275 0.0446809399183961 -0.04530061792913175 0.03739702350062784 -0.045795520180143455 -0.05086600175115076 -0.07624227064906842 -0.051344521893541765 -0.09486659650035048 -0.09720832650926066 -0.10058344646213213 -0.06883088283693448 0.02079318561471116 0.12708275784975864 -0.006201406629689713 0.11291981245755828 0.07901454219984334 -0.011938900843914772 0.01529077597156632 0.12644361839847174 -0.06282614450928493 0.05645493483167114 -0.1650080772647562 0.15786784494137238 0.032682751405903716 0.027391467408365063 0.086146790703915 0.012144569347527947 0.010302012484006697 -0.17632479058274553 -0.22697146204747418 -0.0006856328111255528 0.0575311905460006 0.07846816069000473 -0.027687829641653772 -0.024617110738794645 0.08970682720193335 0.0954859772841348 -0.008738221386644696 -0.32559606938144636 0.009067408017554393 -0.05126450616068398 0.04437522674141414 0.1083811002877296 -0.012825503340300116 -0.25367023141715384 -0.01344872139946381 0.10579057627092607 0.09454384969734157 0.10627668180844288 -0.1237183677931396 0.03238367281108469 0.0094728888368926 -0.024958351305341055 0.038111184628264905 0.13386811693255515 -0.20016931074606947 -0.03562524204918106 -0.02852701264778476 0.23567179295819796 -0.1455549798118456 0.009424549669323974 0.17043648170411424 0.130510167597279 0.090930971193316 0.047986289745913784 -0.11941889791489847 0.3339719610141503 -0.4087780462984572 -0.08243459347610003 0.1645803120498883 0.07807491592512657 0.06848922135989902 -0.10003960637397079 -0.09448148772888491 0.06547173142481968 0.0802664625189857 0.09314491162517487 0.17162089509228706 -0.21312767653955278 -0.014722709485435954 0.15137579800643355 0.029212367518293456 0.051981500179867454 -0.5528794805560032 -0.6695703918042318
110 -0.133267482039266 -0.13772789694552082 -0.20951540773574862 -0.10696416591929192 -0.0653225601345145 0.18718543547980582 -0.20805126769200233 -0.0018536141628135057 0.15079652208613006 0.07447115822546406 -0.09265501628634405 0.17390868431045198 0.1305756624889788 0.24909788670841157 0.030238056418960397 -0.07535568348488954 0.20929847247213024 0.07242081335369399 0.05329611207867296 0.0445732964062529 -0.05802527152789364 0.04841177839609876 -0.08530376505744147 0.03626452606445374 0.06707030790645468 -0.03319728417918498 0.08900271727922641 0.10811304628783543 0.050752233940759714 0.030710238860167025 0.0929802338631153 0.047961753530595855 0.09200589122756206 0.02070557611546934 -0.065123218723083 0.07528453936553435 -0.06168943021947246 -0.018256892601188263 0.09149834663195612 -0.04362582126486256 -0.08420463974499924 0.11569554393095723 0.01615508366909746 -0.030406597213625586 0.10632936211724346 0.03207226984062893 0.0623912338599229 -0.011537671496740709 0.03418335238290802 0.04443288739292211 0.03763587602951579 0.26971458006904603 -0.18782543210618918 -0.04828874754684116 -0.04768897261567069 -0.07543307197519228 0.08060569238560995 0.06757061976896836 0.07494815555289135 0.08532957392097125 0.035901410360905724 -0.12129807414066067 -0.11542031875235946 0.07218825114287215 -0.22916807003429604 -0.020509644195013277 -0.21579053000976742 -0.11032915001208522 0.1715279346476177 0.04500496120735559 0.08727911510507241 -0.11548127994689866 0.026789886847096347 -0.0239482036728004 -0.20266012297089944 -0.25602399184442726 -0.15787057845503724 -0.13135483609774926 -0.14629734344156242 -0.18943963243832634 -0.06245048526716398 -0.2057268592946186 -0.021208616786730573 -0.08751228930647027 0.015720699113460017 0.091482025961688 0.02330232043145086 -0.10509919890658116 0.06291423758659076 0.11183083413606638 0.0465810242926679 0.3845350263352813 0.27062355566772306 0.1648823724071197 0.035328287471930106 -0.43130805362173974 0.05801877825277034 0.031220568057322852 -0.14219029404342043 0.05860864988586811 0.16081214444522984 0.07554375990623223 -0.06624321561065279 -0.10476081016591603 0.16340703806649445 0.12867062365511386 -0.10726122278331905 -0.06751547572715677 0.19625547526820872 -0.09004185157242205 -0.32775391709372115 0.20549496765697547 0.1771187884780235 0.12391600979913758 -0.17507279434354567 0.12135137537505863 0.08470090014538677 0.1398654749415575 0.013079610911677841 0.10927589726950174 0.19494803978483596 -0.006019875095969029 -0.1683640463419948 -0.27078659385427656 -0.35243457137892914 -0.09555823050986519 0.09874004417399722 -0.264147153357148
111 -0.007809218697025289 -0.011225430151086565 -0.049868615946085666 -0.02512115409212361 0.0704775632334174 0.03726696904796671 -0.06696715822252686 -0.035802424488490525 0.050040564755309165 0.06187705781296539 0.04147275192665977 -0.026740694159632265 -0.21635100874625632 -0.06998701559341942 -0.0792430412049734 0.0022194605986569148 0.046537598858692096 -0.08661514243954213 -0.020756260656939578 -0.06733041098243119 0.05133874941712284 0.15647768206859874 0.011869335289139369 0.06718197308578636 -0.029182733746678544 -0.030668189992798696 -0.08351964958928967 -0.050116330280871424 0.01947144040530987 0.1663349817182466 0.021245981293259213 -0.04084897251620159 0.06441750582740711 -0.022446759930310815 -0.010450202173199658 -0.025983839329875743 -0.028558376072060288 0.03471447786405851 0.06067724670317114 0.04132611379984234 -0.04056038747930063 -0.024076897389579383 -0.09555691623111268 0.03674423697996322 -0.07871477040919252 -0.07923714870628469 0.02548305437368902 -0.031571797742735594 -0.08375782663805315 -0.19855498342170666 0.18058365635457174 0.0395607946415647 -0.06682085798806056 -0.030383122577667523 0.04171744541839569 0.0511764888240145 0.012419939839357364 -0.03506771086563476 -0.11000225536332214 0.0734947366916322 -0.06661551284556026 -0.01456440857403727 -0.05529107196697666 -0.0004809201539689852 -0.0032051123822322966 -0.1559579359023842 0.1751665098664978 0.10899671805562036 -0.008620629032791694 0.02931431909619319 0.039251173388974346 -0.10815052673417219 -0.03933456778931442 0.0037943629512002582 0.08242761522552804 -0.17173385007176442 0.060488493077805634 -0.0744371154598986 0.10585811774682312 9.669148669254142e-05 0.2678166378717004 -0.08324929759844736 -0.09894323579477163 0.04363514624363657 -0.20644832351992798 0.025076200009865338 -0.0033463519432507093 0.026475495409038714 0.07572733565288661 -0.01669148640902709 -0.013972346169130463 -0.02478426524178267 -0.06495525691089646 -0.07289705149226308 -0.05222406446464363 0.03039825636779863 0.04947240528169151 -0.08691244041137004 0.09681419247074051 0.1293233754557608 0.21990807734276005 -0.1038511535788181 -0.030053542164720948 -0.08389308217311195 0.005243959183470079 0.18711483460272685 0.10193222512309406 -0.08226998447278998 -0.12263446271772664 0.2564504528849404 -0.25331124000816746 0.07997416467815041 -0.36302910189563936 0.06793044883325647 -0.0032660111338411063 -0.4064198543690157 0.06471958639762034 -0.3280876944997209 0.22844220855798666 0.17762368556711272 0.19571040030289147 0.11683019392209022 -0.11762241820151648 -0.07204063052693317 0.26709610137128836 -0.2799295311009834 0.0980834327981945 -0.14461561149916743
112 -0.09165329593336022 -0.03580078335747612 0.06320855505862377 -0.012628001870972336 -0.003648926647127522 0.014757622936818763 -0.009232331065981286 0.02574663845858819 0.11365394573720224 0.006569856179193441 -0.016165028123779575 -0.037533703620282355 -0.11686733263161367 0.035903532577120895 -0.09408380213859108 0.034680085259649364 0.032918896969693044 -0.02423663888471513 -0.004714799213165247 0.04488885520656839 0.05050522791983583 0.1276907982644801 -0.2353360672293906 0.01074864528602089 0.22246472525514993 0.205341476367486 -0.0027354094112997207 -0.08284903215158954 -0.2008630649468846 -0.07370037868923592 -0.19116244971468097 -0.10978948069622564 -0.23750616723926302 -0.21867163614198776 0.0673513056064229 0.06878371953498427 -0.05234467659934056 -0.02953418926168028 0.053693423284585436 0.14692815197416864 0.007646308751917265 -0.17843948495538842 -0.05331162776328825 -0.10929493415124683 0.05560895730324754 -0.07758734222351128 -0.030415141252175613 0.13951019406421192 0.07838032346927491 0.01517702838401742 -0.19076575989422828 0.2382985295394214 -0.08278240835011345 0.055845783360308786 -0.23008766559248878 -0.06271268077920236 -0.015952425601766514 0.010753232276703117 -0.034124506952671545 0.025119752044420136 -0.009662166904339815 0.11607320573128081 0.12086641777146866 0.220994972938567 0.2334049762743245 -0.1458772533170614 0.0606609669235656 0.00338984912331723 -0.2503209938040713 -0.13556838973160074 -0.154415695273969 -0.0062153983085058585 0.024850235352094414 -0.3467581359924651 -0.0034451345936862745 0.008261683181275759 -0.12617897091922392 -0.023640803749123168 0.06430857631645358 -0.10970970537571642 -0.35660815843426985 0.021056409282895705 0.10170770473886559 0.021594338046769537 -0.08962225671394615 -0.10292452604170307 0.07644277282446559 -0.13301853069935712 -0.0021823504166360343 0.08655086285494905 -0.06850622792597727 -0.48817502358439585 -0.18987144771637138 -0.03203954989977831 0.03967574793654185 0.32017644642311777 -0.10290023680289372 0.33163195395669726 0.0030788928997144173 0.07257552399062253 0.016522175319413173 0.20281031946682782 0.13987195415824044 0.02338257380701963 -0.11549210704047408 0.15225842154080857 0.19191548098470418 0.1007115931527422 -0.1275545081538528 -0.025144632404839648 0.001720692008812751 -0.0023305441103542786 0.08396410049624069 0.06445008024610065 0.049359355634227525 0.1272279682530434 0.1959905949610379 0.04816113328807296 -0.0036753564790819957 0.17801890631823905 0.0892593033636392 -0.05370702344630428 -0.06265024376819957 0.0829546717662929 -0.00028592953021109056 0.08525420983260225 -0.6279455971004901 -0.755217759106428
113 0.04269930347643764 0.0068454667890363195 -0.015360840493540051 -0.08290826778196249 0.18541424111161844 0.12295818589733537 -0.0845312844028631 -0.026184208424362917 0.06848794794364035 0.09300128786275846 0.04154140000880941 0.005947792848583136 -0.02573671035299538 -0.1441908497992404 -0.10375186326087664 -0.012416363494300657 0.024421850257227436 0.07367929141717759 0.003144702881236441 -0.0625541960302966 0.01992479131367718 -0.16879068795478433 0.033021085537170015 -0.08336538262102397 0.008495243865296001 0.005727274376560515 -0.1772056393266437 0.012400652815975372 0.003295269918446144 0.1884683334434723 0.040613155065643086 0.06988555762645633 -0.03012612492668957 0.07083664517177417 0.1165853142514579 -0.08622491058569971 -0.031231852800249132 -0.024007839489250216 0.07082140925066499 -0.016196534476585242 0.02851720032804756 0.059521496126965105 -0.07854727035553896 -0.0980594175675968 0.03955055544130404 -0.04728491485966234 0.12150815886355971 -0.004290175875645757 0.09161587537176426 -0.060285704553237444 -0.1408654995840629 0.08312365447198024 -0.06962718739955215 -0.12725896805257458 0.16840214536258777 0.13259804789244908 -0.024351748094791847 -0.25228620827089765 0.014639580559971808 0.011749237577939551 -0.011847780994237668 0.07377955234862058 -0.10994507854826041 0.04157490795467678 0.06138785314023047 0.06275938203489025 -0.09577345906431374 0.04672665923188969 -0.036465159258848065 -0.10930577062509936 -0.0006497442576673076 0.1041201402188376 -0.01975975693530815 0.11178801671749232 0.017283196023999733 0.11803981389995995 -0.09040221841084355 0.015539759085911679 -0.08449191512149601 0.2205181838082309 0.07606961127423509 0.0876323832693227 -0.09470890369575684 0.026718262898841383 0.19308290123803762 -0.013602554667858447 0.22361740728424143 0.016154007545871846 -0.027130872645423364 0.1333528055673873 0.06800906450004342 -0.11536459924610501 -0.02787696192575257 -0.08316744285937197 0.028820178486541743 0.06158124832199817 0.031155910318765228 -0.028950284129906165 -0.1355392780345665 0.05449834957843223 -0.1549126033368076 -0.14752069187043784 0.32872479528318416 0.06357012223203726 -0.002185729372848724 0.14202894200626348 0.058331594505083885 -0.041190491504769645 0.14206990198163447 0.21780169054164905 0.12048458530412343 -0.08634484765210619 0.059811199718270355 -0.18926557496294233 0.32420724698289166 0.18951425850637973 0.014196983721089814 0.10590224137809012 -0.054435275792830175 -0.26180252809089943 0.22291017763070972 -0.19863527509892004 -0.014282295476837036 -0.019333994294766003 -0.18367634291461868 -0.38785632747643217 0.18726376091708316 -0.14446467822978143
114 0.03795743553637111 -0.00412920337060507 -0.01872902275496869 -0.09028496235641566 0.09282065842771048 -0.13235532043706383 -0.0047240930238241835 -0.03756926114829079 0.04231519012000825 -0.027372924586085125 0.01971338307296464 -0.016528243683538342 -0.035318640970035974 -0.03137258006829021 -0.0054838741493026255 -0.04094752392030469 0.020428749334769226 -0.12699547371499523 0.002194712335909924 -0.0565660888407024 0.13488806772673415 0.05658269857923862 -0.026623133638232807 -0.053129366396361045 0.014781997473396731 0.061952042048800435 0.021719861624120013 0.007342677629178672 0.030374684531871227 0.04717469808425953 -0.002609314337207753 -0.04252665549847587 -0.019831465835554306 -0.06773308868206829 -0.037527617168287015 -0.08061389213342093 0.0022421628234224854 -0.06816209837588307 -0.08493393035530107 -0.11290664175513017 0.08892156369180702 -0.08349100081568296 -0.020400700318763378 0.01710997603793514 0.062718302729438 -0.14757878715645453 0.11188873791545474 -0.044298976325601626 0.04092766182709585 0.15860324756384006 0.08287682940403714 -0.01953578698005979 -0.11641099615516358 -0.15480359689378673 0.012761517835321565 -0.04664750803475179 0.10730033791280047 0.0589980263496448 -0.02444709117260726 0.041445381763878616 0.14460078208610191 0.06544352313261022 -0.12918110908784275 0.013495943492707739 -0.06845182303967129 -0.07404244503751033 0.08853609294335658 -0.009362700076622084 0.010638622315645422 -0.0008390472376216496 -0.1116975057645487 0.12863636794181976 0.12085645392232695 -0.05922308811874894 -0.0006973955224045522 0.07446112890899725 0.0483894583549395 0.007580595896741881 0.04817423669533743 0.041749484987924454 -0.09803431771909472 0.0013076054471025094 -0.14078312823779252 0.03878904607474515 0.0856212759802026 -0.104874019818619 0.035939206776309095 -0.14766495479234787 -0.0927578701899595 0.3127323716637164 0.02588205459796729 -0.08438620823011957 0.13422883734268798 -0.03977755423698279 0.0627300298689076 0.04847812947004703 0.07253670424029578 -0.1650570843162661 0.005533728129366775 0.021649580154774088 -0.1022778364198774 -0.1130133019774949 0.07438397975419915 0.0582557820607585 -0.08846536078564328 -0.13755893183142928 -0.20510293493774734 0.05926539019765086 0.1842115618257227 -0.16499381062166324 0.07133795183136973 0.1263266688370977 0.11709319668234876 0.2224729393631475 0.07085210433052971 -0.09757769664749726 -0.19265261411057918 -0.03548616796646316 -0.17615192184109443 0.31139588056619977 0.20260906428443856 -0.40715747554964987 0.12025978310043747 0.015221931722324734 -0.24328889358019423 -0.37369848920852594 0.255507263211697 -0.18439866026693338
115 -0.17610658546426625 0.03351360124857828 -0.04806218131731089 -0.31981635507495393 -0.048949545139073784 -0.03906295063422053 -0.06020593033077756 0.09999992622732495 -0.14224605009842656 0.060327999024584016 -0.25091812137865255 -0.11022150359632817 0.11216091153756093 -0.14324106324368227 0.04725508192097769 0.13045298622716975 0.030748357400770667 0.06299102829127823 0.015229049654656355 0.06681602092219519 -0.0756872531589008 0.015345608287357222 0.047846401066573604 0.10142960720851323 -0.04272809473285546 -0.05107782891303612 0.11105365172591579 0.03760763818062785 -0.03115735425522194 0.21005533423530684 -0.04392047659924448 0.07606581486891374 -0.07632813546671155 0.03211059184612527 -0.048299662088402105 -0.024286362608141387 0.0717570134323749 -0.023426277465190614 -0.0389329710990775 0.03701599960051751 0.03906136128791313 0.003601666658620746 0.08407078450273582 -0.0001581640709956048 -0.034362864556017475 0.014397287894761532 0.04329409816450104 0.014568093917428736 -0.02676785763117783 0.021371596307647945 0.03491764126433207 0.09345703557880532 -0.0029184606739042097 -0.005178095749641115 -0.041826604932253576 -0.05475807369690978 -0.007760978859894469 -0.016021872121021644 -0.01959573254488485 -0.1964976784117883 0.016677766148851948 -0.014167682084785423 0.13614159559821318 0.014203098419362008 -0.0643084272431758 0.02750518385858677 0.0006672070996308424 -0.017264507280410183 -0.05947606156439416 -0.004126302498347442 -0.11308628878810019 -0.004988966989339277 -0.06181480024900933 -0.05635466825449363 -0.06466201908148024 -0.003059970288846911 0.013474039350331988 -0.15415892577214685 -0.030265410750153047 0.029738681286608483 -0.3207126379121954 -0.007111037669378561 0.008057356284280871 -0.03189392572972537 0.026620908274476135 0.0553599393718273 0.06256932405739242 -0.007813703601553645 -0.2248225913976128 0.214401053297966 -0.07268808306085718 0.34671859644414166 -0.22800245704222508 -0.17156074730330614 0.13461101266271727 0.3591234155024353 0.029386094626319022 0.2415058284731184 -0.2825700112195234 0.35373157200688365 0.23966856259259675 -0.08579608865820029 0.35697816102458285 -0.5704490763901602 -0.36857478455394693 -0.13247639797244884 0.2591445873999037 0.26286684575331093 0.010367274633306103 -0.383384791321915 -0.13059160288980373 0.09504393927592114 -0.09705151606562497 0.13121908228971765 0.09092694008076563 -0.11045092588297484 0.02011848706779443 -0.04201657681936859 -0.515810262523988 -0.3214377576588286 -0.05376365274754597 0.24274141252046594 0.13208307827899549 -0.029691895437489867 0.23602836678735054 0.03459820279162462 0.14329427341403297 -0.3356151217224149
116 -0.005954824312541897 -0.02956187760087203 0.02067013784861087 -0.06159340255112925 0.030893042250000842 -0.04472885206624104 0.06773685773196501 -0.020551990746826107 0.025631442381253616 0.0016313455052455027 -0.016067929418989862 0.023692894801635302 -0.13427428887134527 0.017135546146616866 -0.13013666910493293 -0.006748362270083223 0.009202953159269774 0.11320481715928106 -0.009182578077601903 -0.09995302323259932 0.049589729819717196 0.03712432252774911 0.010999616808200304 -0.07943073741857445 0.005058571268433095 0.05394263181226018 0.051342334631308 -0.024307923063210612 -0.032346978765124386 -0.0488233556482878 -0.01843322804598712 0.011508287963936038 0.007513348944872116 0.01715534742212924 0.023572151651229372 -0.0033200384643943784 -0.03415463783307916 0.026867484338244523 -0.007119893413610863 -0.043915752461483035 0.0930568830168218 -0.057122503429856815 0.0010839213449067955 -0.019599560044477472 0.040475710747239386 0.05700572368655577 0.09382962034841348 0.05685715417749491 -0.10172917652212052 0.10229985411548377 0.025236660712220547 0.01508553147937227 -0.07816717389042267 -0.009061836919460128 0.0767150004935701 0.022545016163661835 -0.06654923965221496 -0.04093829183973349 0.0031186620705555127 -0.014313038084526216 0.11029996937190259 0.04384447314632002 -0.08563983857223502 -0.19292320167128646 0.11960500217684739 0.10881640037805808 -0.03940823877458986 -0.04316204206272659 0.055068865237331725 -0.0868108699883496 -0.06868291966649498 0.055221365757336355 0.056491091169440164 -0.07394614985733523 -0.0641564867603353 0.03187175043132922 -0.1018947268174223 0.12093453773127487 0.006606619361193566 0.0966898029462224 -0.022768614159577184 0.0837258021804202 0.12499161191314433 -0.1698849091311466 -0.0741843508336928 0.005072999552500101 -0.02361222465565399 0.15945046066695492 -0.012444113589677541 0.2242176024066366 -0.11675752836074257 0.01744178136031008 0.06153055309564054 -0.15675284226653144 0.04438166343588713 0.03308864366980803 0.043846468479081316 0.005073526406003933 0.10593565509243062 0.0379467968713731 -0.031176080254672226 -0.09798001780241983 -0.03533301927027147 -0.06796295404804756 -0.0861423477648217 -0.0907968236119117 0.028317210843299877 0.004417879061262717 -0.1274074832874846 -0.10338061284013957 -0.0038523757807058323 -0.19432369673501407 -0.04063050363831008 -0.1390786310125749 -0.2289773697779479 0.1625648402205922 -0.1165699004025693 -0.039922798949509064 0.06954479553988929 -0.08944898799618227 0.3042834478853578 0.11183691149822314 -0.03816240918336569 -0.049677369678740015 0.1015131674848588 -0.24498915635259716 0.05232439843099194 -0.11234773631249341
117 0.005125626404697912 -0.05843965838458796 0.09672642262820941 -0.03420140058993182 0.04928103739974112 0.07639088482308196 0.002814886077022959 -0.015384961560639452 -0.0669794481085319 0.017691712587005647 0.011486186906459382 -0.06556578331108243 -0.03891207222501464 -0.05351428424604909 -0.13054679639081498 -0.014015863690515171 -0.007350415300666971 -0.09935822080809555 -0.010868082237321709 0.01795772804992845 0.028328797566343 -0.030634887988446456 -0.024861744054564587 0.03139653141244792 -0.017063602599867746 -0.006846180829810836 0.16130763559311792 -0.021573872846985084 -0.007090638952474424 0.10300983531750267 -0.04071992252134103 -0.008355611527745943 0.03016838932216111 0.0012232145612965865 0.08342063577884425 0.029105222992631748 0.020584682738986802 -0.05471746895040051 -0.10432470525962777 0.015154892136853938 0.06491520358254053 0.05165533279115032 -0.002548394118175278 0.08932531898282585 -0.005100710501743639 0.09879517259726305 -0.051573716967148686 0.16133193499617204 -0.01912529894146292 -0.0542014702099437 0.0556240429958302 -0.0030325282868178464 -0.07186327495360653 0.05768431519864607 -0.07815060215689323 -0.05462963158668918 -0.05613962565387193 0.18595831734345486 0.03724295899004385 -0.02881401216461365 -0.011641963425440258 -0.018033593735476288 0.05579887570469507 0.027980567092762903 -0.03952592471681336 -0.015313162112486522 -0.02318053019427903 0.014752681316204984 -0.050096258720887465 0.03800062326551629 -0.15219611958638196 7.362112646677888e-05 0.0911075646405632 -0.15999280967095972 -0.04602727392904062 0.009365062381347034 0.11246884031123194 -0.05721570979859868 -0.06379634554490009 -0.06584438388171333 0.07145289483014529 0.052880955944846444 0.07620445640762327 -0.06448313252972299 0.06991324431257553 -0.010023330206354389 -0.0866099555681075 -0.1064802794381082 0.034491503490147894 0.04020988001086405 -0.24671792237174786 0.10713715932287507 0.045192479036156336 0.11692227817548986 0.08122873681380174 -0.13446566721101635 0.009219056384489726 0.02060065511598649 0.11232625960045255 0.01119992219464948 -0.1824654215314451 -0.11182851238908213 -0.0067672443634197435 0.011746114874880436 0.03755827593624578 0.011832408688605479 -0.026500460132982403 0.03355366939649467 0.18975700444782198 -0.03046050260694262 -0.030374011735545492 -0.08810981812721083 -0.09357476047576924 0.16719205082444286 -0.03166877487109147 -0.046734010420530714 0.08699213410031954 0.2433261286353479 -0.10439876446838567 0.02168053667019593 0.24775972454397052 -0.26370622149937956 -0.061555882646095524 0.022157325970979424 -0.2304994824095579 -0.31750481579602574 0.20983137547301414 -0.1498752859611763
118 0.021618709793861955 -0.10198991986378715 0.005588248271428748 0.06545426911897644 0.14973097068259514 0.06720802340452364 0.11210446753994652 -0.09782782817070983 -0.06973673477925696 0.08570681343343337 0.13435036257621574 0.036869054239377204 0.015845853073972745 0.17634778132323092 -0.06732848514893902 0.02453060459330579 0.09444650417601624 -0.06624511062421401 -0.028066931929434193 0.14091006459876315 -0.09590021816336249 0.13584217385364916 -0.06255627607830276 -0.08629820619298878 0.01396194559464147 0.05458958509810631 0.10045716585691318 -0.010126994618672723 -0.001022795796675788 0.2625805290469871 0.001621248322066735 0.04508269272243505 -0.03311486563379114 -0.10121376301469841 -0.04308518883544063 -0.0629301238890123 0.09932499258305863 -0.0350117289375961 -0.007112442493052245 -0.14472749880101693 0.0984108873024936 -0.06867944261465671 -0.012071938858499618 -0.03223698531098985 -0.057789291127425514 0.18156960553547766 -0.10123785351201979 0.11254864021876358 0.10215649265114585 0.18875674156350378 0.031944990908064665 0.0025549964218567053 -0.11478550271654908 -0.09866506733994881 -0.042809806721656705 -0.0060761234744353835 0.02917909362758462 0.040499289489667176 0.017378074143011454 -0.019025436736665232 0.17938723591065134 -0.13685115983268367 0.0602900519619769 0.07970616524194789 -0.027903908940655482 -0.04870632385239255 -0.042823144310441943 -0.1172260553363219 0.08208263888215353 -0.0076099140750084575 -0.00022524788078335847 0.10272784448974426 -0.09613860430355194 -0.024565251508204388 0.07724883368532427 -0.09682906189375955 -0.09330236525301486 0.14889651411698301 -0.038389695844061544 0.09812145704635111 -0.38496395015152945 -0.018590460542523897 -0.12196336443188055 -0.09576648096724213 0.040099086129780075 -0.10216135521631406 -0.21524876168550094 -0.026019254524710766 0.020042572456391437 0.20549310292091091 0.17578161192851124 -0.050869996435127476 0.43744773524108815 -0.05704956299996403 0.20667624571460558 -0.12726878366712358 -0.08817677124166723 -0.12483152541086734 -0.0019590666544093923 -0.00040116088147409013 0.03856947853125846 -0.061952626726943225 0.0921339375055392 0.16181623095116207 -0.027930309573039734 0.013000621942335061 -0.07026291694517306 0.032127223603542254 0.129840018474521 -0.03852177440587219 -0.20668999493494475 0.10165663480931135 -0.06809783931197538 0.3092074607186867 -0.12565449287003302 0.05583355617834577 0.14301517493735005 0.26764515196532546 -0.12147954721340497 -0.08530454150197882 0.12739857522946593 -0.37990632460283785 -0.0962878201902271 0.04287476444664807 -0.3210340390855701 -0.4014515477499601 0.2798858331976798 -0.18937246272686523
119 0.050467147461722726 0.09059964529315453 0.03616032008572128 0.03661213723799348 -0.04205115584236389 -0.09771502877609423 0.033605739064768284 0.06230386609321744 -0.17390578662411377 0.030915344832540107 0.12068370044122144 -0.08197111524219078 0.02295081844469172 0.013271042616115157 0.0713500987591207 0.05268952363172452 -0.14906462127468192 0.013484171560269872 -0.004553535258594059 -0.0077514263622608685 0.05142134964689805 -0.013174201099495015 -0.09883803777226172 -0.166963518244436 -0.01414517734698849 -0.15687216579602187 0.1364947662688054 0.0318403337158755 -0.01586016559863595 0.17694867918694213 -0.024426537153639516 -0.08891728944318937 0.004642630185642793 0.03522630909774639 -0.03187412321721436 0.05666723896100236 -0.1041166921082201 0.03312712931692838 0.011841466322480291 -0.05297903745989667 0.23582941026057067 -0.11753203363601804 0.06152729293961005 0.026879378262913426 -0.11254236600481787 -0.2117184548057222 -0.010995838610478611 -0.10188838696558697 0.101886480722589 -0.06124637594581112 -0.0900559749517287 -0.22768597894850243 -0.005873913092005599 -0.161476704317584 -0.016266194453684844 0.07354111277702291 -0.05363593424681595 0.059359826239261386 -0.10177964889086394 0.006272898821208582 -0.05313771557155156 0.18249823492340667 -0.06411964673594545 -0.10597496996613234 0.213683945799987 -0.10677738083239137 -0.2245061177614639 -0.02871972429193787 -0.04807325834722057 -0.17259749156604653 0.022265136631988407 -0.10661700419912888 -0.1892009023492373 0.012169578464154411 -0.0078102618739007285 -0.12365262031718338 0.060619618808855254 -0.017125093364805583 0.2443098779379159 0.04140494459274057 0.15279683185813217 -0.12287546040651362 -0.04021397294484343 -0.14319859827627945 0.20428359552430722 0.054400869603730834 0.2738854265279115 0.030322359389101786 -0.30761010531524186 0.1273820200333271 0.4172025828127075 0.3323912402244743 0.10438245571603688 0.1996710325206127 -0.17309491215900322 -0.12192203265095757 0.21363597753003918 0.04141123632762032 0.16460120206227866 0.3644843749988412 0.05370427201064404 -0.11017111101356106 -0.04819703990828889 -0.05875971242494233 0.10576773685306666 0.1210196736621392 -0.15768566889006913 0.10503641921895586 0.021330690305084467 0.27117836424011543 -0.07453788825822483 -0.05542435915921138 0.37338487488505223 -0.37100958199114 -0.20512163952297552 -0.19378709453826404 -0.35301063875601063 0.11620702001311159 0.27121972322503185 -0.47738687582206885 0.067453476588326 -0.34238297906004517 -0.010642001761587529 0.05184781421701767 -0.059230769666359095 0.043978655123177286 -0.38852982652174256 -0.6188215570256622
12 0.04032508060401793 -0.07463787876168636 0.03760393845270716 -0.056902049673815264 -0.11116053447650126 0.30178649765368953 0.03682746778515005 0.13548938274088157 -0.06339096729457908 -0.06439963650012141 -0.15526817258365605 -0.05952476632555442 -0.07878378197214804 0.021001582695631574 0.00378792346980532 -0.002632792890336184 -0.0395378243425133 0.06131396470524345 -0.011976838066765298 0.02739213839583622 0.06138953046574958 0.04290449328539461 0.0235063549858771 0.16185514665851577 -0.026017556378002994 -0.038578587749379084 0.12070477285902628 0.024668248840132457 -0.04056634483527862 -0.028386602594997506 -0.02127055034837454 0.02595016956852259 -0.026415483769075498 0.07006194951034896 -0.018307001020643535 0.1074522319239631 -0.07433295285628429 -0.037850914481805366 0.152233312988785 -0.04619379968564685 -0.060236094610861386 -0.07231278317261655 -0.01908532850024754 0.08617884394499184 0.05082007132763165 0.07475647323751425 -0.17732106904526207 0.028813517810723412 0.056035970109743594 -0.11126076793078597 -0.014967873892770305 -0.09116781495859083 0.16257335282313845 0.06838330647122322 -0.09423714478934325 0.08271334986750024 0.06640086250684317 0.10038561997990174 -0.028291983046801174 0.04758797939003104 -0.14265930848378094 -0.15602665322491496 0.13617638654613953 -0.01846336794137525 0.07113649270976075 -0.0648743931151573 -0.0997002859626218 -0.05930013910835055 -0.12552240121657482 0.0008958268104413657 0.029452966585595642 -0.01976065264976039 -0.018085790692617107 0.08761972026720682 0.048405824982428264 0.14002518722502633 -0.004780858024360613 -0.013470926337526364 -0.07536592034724346 -0.11244796391271225 -0.019255455348698085 -0.028805778534276436 0.13260521078724213 0.026910958420606916 -0.06977785881693763 -0.12826690971258684 -0.0936318380225916 -0.07230467862137879 -0.06520751259489206 -0.21479019491095466 -0.071593414170548 0.17194308651760948 -0.2186106863385721 0.23333597446430854 -0.07745837061692273 -0.17962504020098066 0.019247722414098337 0.03795352784228793 -0.07825928031401069 0.06106045596570934 -0.010099356630339142 -0.07317225897987882 -0.21003554000706504 0.010410933019822237 -0.09707403898508225 0.14872540010519678 0.14522258348393602 0.030415107715485345 0.17634086021550457 0.028821253523399964 0.2135345203957557 -0.43479000807570956 -0.14596140846707611 -0.041186403931632164 0.11315885840119207 -0.12975007474682956 0.00485018944606544 0.19955519442239536 -0.09564060373915108 0.14950906625668287 0.2039063249457968 -0.1792791649040767 -0.035972637348956525 0.07162817664137933 -0.15836219505484417 -0.19319993647227898 0.2518797278032398 -0.1693643379914614
120 0.06382492156390067 0.011172274242910741 -0.011004495411484827 -0.0156586540597238 0.018022761803392514 -0.03344420288762932 0.09480035163201361 -0.013655129696850414 -0.04994919100194732 -0.05139491169148775 -0.12765970228007856 -0.042416339870632716 0.06031052262410758 0.04642893513797524 0.007640932218812762 0.07404275547576589 -0.10244746277053747 0.04948070037180694 -0.01734474151463528 0.011752787305986763 0.04992562893352474 -0.11145777209283707 0.030969025584783885 0.029209922552658998 0.014974241254538442 -0.05041272138900209 0.061989077883443516 -0.010842940158326039 0.04290580475697377 -0.0854735790884625 0.13836005170357588 0.06926681281331389 -0.016236184685486214 -0.03537206945775836 -0.06149081583543792 0.0020375873373574952 -0.07759059338359568 0.026706413897795957 0.0780057740573004 -0.02536194225209935 -0.13783838669935908 -0.07603927964188913 0.00689793980469592 0.0014123318064234965 0.030487969790334697 -0.08522481190240293 0.12528147934766162 -0.06632978794841142 -0.041437068080483606 -0.10692220985312947 -0.05485765850993499 0.028777982842893766 0.06494219193442136 -0.16412418460608147 0.024352559668480652 -0.17001712485169332 0.0803950787340236 0.0581096437774141 -0.12036176769414718 0.12035093353668605 -0.16414163175388422 0.059719241749593616 0.019259175613888044 0.018476782825969238 -0.0785152012001095 0.012084311692596033 0.1337962249989386 0.028712714784398023 -0.026596884260329568 -0.008363421869212224 0.04261775604399979 0.020040014940221736 0.11372309703738598 0.1264634488920947 0.04916383324216692 0.09518092240216491 0.14874780365352777 0.004743592388760179 0.05315480766997786 0.00036881515743361534 0.10109302590437998 -0.04763608460222886 0.13469516609469873 0.025727578096069348 -0.19162645549462867 -0.11451193926360916 0.038002245202098175 -0.027559262979580244 0.0366650514331271 0.004507509595784263 0.007739540179468998 -0.010942424647462184 -0.05693669521903588 0.06714381757446206 -0.11119099068756526 0.17019287884220394 0.003652266832341446 -0.02770114701092744 -0.03514564885382908 0.02027794994510255 -0.09688134827399712 -0.0611478451427741 -0.04697254591665037 -0.13605125414950073 0.05388212752175883 0.24145746279954158 0.021778785068965044 -0.17955809634187206 0.23604318989697054 -0.22936780438171162 0.10991769171303158 0.033404936455736854 0.0953735513661259 0.022504891425011213 0.03215208386388283 -0.08204974793471613 -0.2790475972462896 -0.21141973560217175 -0.09136620684840077 0.4289604206082504 0.24769821280845533 -0.2850380401559823 -0.047129848284329603 -0.014041833555206919 -0.03257693549396523 -0.13059033743565135 0.3075465184647159 -0.20354445580084865
121 -0.000434570514793577 0.01803069674467165 0.0106404047912322 -0.05139148898445323 -0.03293141944666694 0.1303916444737268 -0.04904930740991886 0.03891746425368126 -0.11857787835911804 0.11188089192376538 -0.15418516928685885 -0.01539600474055049 -0.03872470538189618 0.04769321288608405 -0.018078871985705267 0.005219235249371736 -0.07977424849157248 -0.06985449991066689 -0.02917794422620039 -0.07720327231057092 -0.11345267067255334 -0.014043160911232222 -0.014852972252283075 -0.06209271964949346 0.10663344109056216 -0.06612643141862613 0.08344802887244239 0.05350380100600177 0.10343200298254641 -0.017228547457751212 -0.1268611047179962 -0.028581830169656697 -0.018882608232531593 -0.040555132540943596 0.029156745063652352 0.11172296251980428 -0.022394338836068273 -0.0071756486209011055 -0.015663583150967966 -0.008692970251692004 -0.004851660346351384 0.09544418418957402 -0.022593223496489873 -0.06656042219675093 0.0225975204171334 0.07457870733096415 0.005415678767267439 -0.0345450089315384 -0.08503608235479061 0.11945175994148402 -0.005154453509803667 0.09938583703758326 0.13070534385937704 -0.21993009098327015 -0.1319107815744792 -0.019863463354393047 -0.08681702916734829 -0.19490206109325003 -0.13584661770642048 -0.0271351750594986 -0.07587918906561804 0.04145334916521837 0.04368362482337771 0.14108552341900835 0.045095718732277766 -0.07810434216671766 -0.08935332721982953 0.10127360496251918 -0.036059640344958975 0.05139995003232004 0.10193868868389988 0.03818540180571713 -0.19527361624581843 0.004317454570650909 0.1961751276988295 -0.21734316351873434 0.12701015120496895 -0.014005243998474871 -0.08807395145054885 0.004359073029988004 -0.13595055625309863 -0.04445776428806958 0.07360583639843207 -0.12513073694240792 -0.10353113558815277 -0.020827738635330308 0.05259898712352028 0.04427951670204177 0.06393428067513626 -0.0054522856830569715 0.18909480866901626 0.1574254115249423 0.13461437625923423 -0.06768665279705902 0.20238481024494834 0.23372368416264955 -0.08976206694478496 0.03207690905818897 -0.04742404729798726 -0.03820845089302094 -0.011980547481296998 -0.10274615071288241 0.0880153766597687 0.17345977282054986 0.15699851446165902 0.07960317419686415 0.09101427753388942 -0.21017828652502302 0.1401347418901196 0.24432761724457144 0.057446254895191964 0.025107686235260298 0.05760371347865171 -0.13219765985566484 -0.16569479088619177 -0.01511276946840474 0.005260548327338055 -0.18243461783176104 -0.012892415599288682 -0.03864577989010033 0.2613201041936716 -0.11223284546521085 -0.2984207086425279 -0.039403568690599605 0.09622109757003458 -0.05679130604790936 0.25961045367005775 -0.17710138281583973
122 0.01680865557655501 -0.009963247136726371 -0.03264300451773567 0.04132157405684705 -0.14340111102761552 -0.17626991681723225 0.06648598717604103 -0.044099497580748694 -0.22065019621780546 -0.03492092614352724 0.057742384780737135 -0.09481112879953185 -0.04277202761275947 0.07948945111973395 0.01193081549709691 -0.06578291531672059 -0.1076062666950236 -0.08563280323004875 -0.00624692040542743 0.009339457980417592 0.052547928800924966 -0.14324510286284062 0.1041762414570653 0.002794529814414061 0.0006713212670026259 0.006562393513296453 -0.09220014039519682 -0.05379908088994501 0.0033462502684532764 -0.10410841075730796 0.07015210940400476 0.06218266590958388 0.18205942223751012 -0.04793786835594676 0.08178781410862312 0.04741880240660086 -0.02476642397518029 0.0033821264260180933 0.1088843635102437 -0.0024276061251400586 -0.1479209703490945 0.03540020504242359 -0.19220105413982022 0.037923062087890334 -0.010186424515070219 -0.136143633258272 -0.0091849373988537 0.1228466749530512 -0.10153418312373894 0.1570398048370073 0.058745211601114795 0.0212326209787334 -0.0072421827092200445 0.08551195652608433 0.22199907192527485 -0.032524994441499075 0.08765497392766004 0.01095900970333165 0.035790714119476916 0.20522792038243184 -0.012829389585245859 0.04298361371414282 -0.07538765820862785 0.18177234861020028 0.029630005627407734 -0.02374325272851527 0.0687677156600653 -0.1361951943675736 0.1641006377903978 0.049784723803100527 0.040159627559511565 0.10728161697166669 0.014920278958029751 0.0029401366997509346 -0.012723663182725421 0.01871305786147087 0.0138663827146036 0.20841720603442734 -0.08792885956204782 -0.11838488447541831 -0.050507590983448036 -0.05846260914196526 0.16662497176705426 0.11856804199889671 0.08546158107921364 -0.06354265570257106 0.13839680678681177 -0.020654010475446963 0.16757090510137473 -0.04275342487968017 -0.0317365038247527 -0.026768711233008287 0.1508531402226879 0.0495237893976398 0.05801855943250664 0.05192446898281831 -0.04418441149887735 0.06294120425167535 0.04011633750415847 -0.19902870371255862 0.08461236995202238 -0.14216251841933922 0.05766624458208006 -0.06891785543700099 -0.10633686840132475 -0.1077605149802398 -0.053390570224934084 0.05647759057738512 0.10341464286441232 0.05207055974667249 0.04583297729441421 0.021860809563514102 -0.09110174758815573 0.2685357717501861 -0.04765851111927371 -0.09100488404025596 0.12306689113392917 0.14105734730997127 -0.03508968946336738 -0.052482757088448156 0.2467800394921645 -0.2488299666100625 -0.04149609895153539 0.01496117196746883 -0.15954834970429743 -0.33717441082900895 0.17361739334601506 -0.13723003938014164
123 0.06351807785942432 -0.06013556248231427 0.00015825779507014362 -0.019631281317980576 0.006679201720955136 -0.049420635143524974 -0.024397040178642478 0.16324471244824204 -0.032096488243687764 0.043728950088951266 -0.02166507692717441 -0.018825283004268525 -0.11680111757636048 -0.08808367261603825 0.07297866896936647 0.0375076260129763 -0.01039192393356383 -0.10596075982677824 0.06000822234388813 -0.13362712591807158 0.08607252671379956 0.0636717692249955 -0.009086124523254246 0.0927719715231232 -0.12109891712216851 0.2106857205841305 -0.06062331212908682 0.024880689402976462 -0.005269954155223322 0.08689737172442888 0.008213948194402272 -0.06380862411771747 0.019509964111394544 0.02919239421877811 0.015166521772739548 -0.01556014566435059 0.06773765707497559 0.2025768093546605 0.014284055726433705 0.16891074400586076 0.003515951824653358 0.08007551718529461 -0.10812220272016079 0.025037944012609753 -0.10076512189187407 -0.0017080960479257828 0.03884468272172546 0.07297381524233376 0.1403521846352328 0.09025202998706407 -0.20362852315748417 -0.05749656758009138 -0.0021323927476166065 0.141872114439867 -0.01270638903944336 -0.03723358266875956 -0.04473573173505611 0.07173361059315247 0.18570741910716246 -0.04859285941926795 -0.12765454875779578 -0.13666896642212054 -0.11235098386266935 -0.11114950433084676 0.21905238589669798 0.14505794155171642 -0.02729216571394226 0.11234915902038571 0.02224052021791049 0.03912609956347027 -0.05171938897634682 -0.1773593477480312 0.0008138316984864998 -0.035676880480388924 -0.0582980615080614 0.16749053534373506 -0.030311890439097437 0.04856315305617207 -0.0019019930283449488 0.04588298645005839 -0.08864200659678749 -0.018387211329872435 0.008322132396750422 0.11016953127676374 -0.14584245136246446 0.22573146129778426 -0.020894578811894046 0.07755778035693539 -0.007127868859174308 -0.2130235653680525 -0.09166877316792425 -0.28387880767155793 0.0827280792504736 0.10902183011782021 -0.18307149421164357 -0.17829816510988206 0.09300989915646006 0.0794416447862641 -0.15982168017147497 -0.051965395385383105 -0.25462319181332893 0.14822605300785358 -0.09870285809099706 -0.28670013626411506 -0.08109641113671741 0.058262415799720135 0.1414988857106876 0.31987142145801606 0.11453436463890111 -0.2161885530400444 -0.058569070343659706 -0.1004971748482268 0.006080566630967397 -0.12382971140283917 0.0522369789471668 0.0344194182052319 0.23182520800735051 0.10694315326674506 0.10553386923322168 -0.09760125549859944 0.14394456011658716 0.029581782250130813 0.3467144376443366 0.04718727970860949 0.3150339373761845 0.4993697427840482 0.6689083587559032 -0.49010814080088083
124 -0.013181997884630684 -0.006176884825384954 0.000769788205641009 -0.003961677421358003 -0.0014344693143850799 -0.031938933072011455 -0.03348725113823833 -0.05867501589898559 0.03457748206955746 -0.011011251391133464 0.022882354096097554 -0.02918422507720317 0.0029805053497211037 -0.07453251115204096 -0.019417049996810456 -0.020454597232659 -0.005640486335762431 -0.0346485932107297 -0.04404497674890553 0.002349759016587174 0.0020205913292968554 0.046383325246930715 0.1468275679733433 0.06285736818905396 0.06828535807143471 -0.006176959715299369 0.14536491966926582 -0.03435851245435135 -0.08908154700079875 -0.060888287779855985 0.36320417982406455 0.3476368703375677 0.22216406144936737 -0.02254345111994296 0.3606400192179259 0.17483162887354858 -0.1508305588777829 0.14282230525759923 0.30225104362820143 -0.005918339113221444 0.008354654523810798 0.08723177412409894 0.3029444979655249 -0.21232773505243008 0.3434512471219315 -0.008496790040926896 0.7941440171472165 0.35291602615924567 -0.2577834118525842 0.16700552648755587 0.07105353680600793 -0.20499644457029173 -0.05436692365283719 0.1167107776601798 -0.3237013967754179 0.12979400992195442 0.03424496904539724 -0.009259924309545855 -0.28039457884620667 -0.1850461440347093 0.012458915399839801 0.18425889301639875 -0.09025188409782414 -0.011631692712247687 -0.09044896457119563 -0.15233638238483743 0.16121797084682077 -0.12807556291439756 -0.47547811096824594 0.5107773910502323 -0.06069496124569974 -0.339517670424476 0.3434753365860373 0.3623804214776811 -0.22390549907706167 0.1596924581707943 0.491672165210939 -0.17013836631379833 0.1947327825264153 -0.07721425096139889 -0.40625176610897107 -0.17254396061085253 -0.49467342108733614 -0.0056512773800447185 -0.5642353724194817 0.033905055580975264 -0.35682139018690856 0.201348359513913 -0.6601445009802551 -0.1881732573869554 0.37401231905126503 -0.17034835489773 0.1589351117294284 0.12101534644478557 0.3366201229771244 -0.33874791846525637 0.3817208969412897 0.1991114955905914 0.2518436774552996 -0.19584393968674602 0.02974176121740384 0.49919192027124126 0.09322343230924005 0.0007586435919509576 -0.1628547112431916 -0.02449544928906259 -0.04599884277555534 -0.0850082084223933 -0.3320093818547648 0.38169689982190874 0.04426267332451496 -0.0854211995197538 -0.2250359012048149 -0.3867381683898137 0.2827129641237014 0.2542337230332547 -0.11675929503803202 0.11303723365944648 -0.033912512155913226 -0.1746807289386763 -0.7740116242096835 -0.36991148717364797 -0.023244294007458036 -0.1800980442197012 -0.2290958302543504 -0.6960226714771186 0.3326907331738736 -0.3921904250158533
125 -0.17283065720272434 -0.007632403291402156 -0.021677728576756358 0.20416113599291322 0.06855524457887589 0.05976527198870146 -0.05725024723565179 -0.03370602800527923 0.013163199544988395 0.013141127930179346 -0.0470785178005577 0.0018112958876498359 0.015733596526779095 -0.05150187535557149 -0.1361550782832719 -0.022978347683548294 -0.03226838123212392 -0.08387686216678177 0.03704190785630726 0.17862783547158412 -0.14131511882514738 0.0004941973061389877 -0.06270587245755638 0.17543080900636315 0.025881032000415426 -0.0422927332730584 0.09271809393501676 0.007987026160471675 -0.011597020898568983 0.07522178507067646 0.08727112665887822 -0.17574267135859992 0.07870676889918064 -0.1075099253208668 0.10156322731092575 0.03357081483671295 -0.013137793070992334 0.03738539131568461 -0.07013361945281335 -0.1126363591319004 -0.04026298711252259 -0.08663401413414373 0.010975968580694169 0.03161714211520718 -0.0300820833440491 0.016921650411391712 0.0038571910416868834 -0.023879160127340565 -0.023899110675605902 0.020757772139848897 -0.054649081766068655 -0.09815926800519076 -0.023781256661007607 0.0841455949377087 0.02958216059074577 0.008778502048032651 0.12266299225091297 -0.04645669489686427 0.06745820134429384 -0.009146961129690444 0.006005165981108054 -0.0031786426896780245 -0.06507117127273601 0.003049274800957242 0.10234299435098787 -0.15573741905691 -0.04703535594538624 0.10510974655975462 -0.041932940729279326 0.007188188048274048 0.02779534026068358 -0.08826765909879526 0.027094408756583494 -0.23944497547230947 0.11923108938776189 -0.04673286707286453 -0.005506642669839941 0.17604270535898653 0.15694113162056203 -0.2322567787019065 0.19983114691016615 -0.01725964749147857 0.07193376573563287 0.053293442894272375 -0.035519591588371285 -0.09724626496292672 -0.018247430292781846 0.025278920964838105 -0.05179089942811709 -0.06321127290767951 0.2597820346425577 0.015787099872963263 -0.07750136168334815 -0.08052859802671776 0.1667539577078476 -0.11663753240645977 -0.05025805143217157 -0.07361764570780957 0.07260124023290022 -0.10879617568590566 0.08110548149334673 0.05148670977467277 0.2835929349566265 -0.16760920024017587 0.15358378265288256 -0.2565374768964418 0.3578599173337127 -0.07316016237025413 0.005139047150594068 -0.27078769746573933 -0.28230361988450975 -0.3076781505819193 0.21579386882331336 0.1871208186786778 0.1712518321420069 -0.24529650989251214 -0.1256621862349192 -0.11721652358841374 -0.6476821261210172 -0.2838032604187036 0.03106414272106851 0.32276444222472106 0.09927283169090212 -0.11786930857946382 0.16079348232945634 -0.073566709854605 -0.03367495497223505 -0.28195537491539147
126 -0.012562994475569824 -0.005190627714508972 0.0010966940110472398 -0.01690959443665203 0.001540377623080841 0.00116710837097183 0.019003372245623165 0.020314718538717105 -0.01666627655023041 0.0055093663554705505 -0.06661568918721224 -0.0468898204199879 0.06327377812919947 -0.01467950241166991 0.08274750816778809 0.03733336866146656 0.024439156661222313 -0.011316914650042132 0.02199177814461997 -0.006634504394120761 -0.006998823642392335 0.012047918249832618 -0.09800898214789955 0.02441256739697351 -0.08994061123459211 0.023233670208542903 -0.167295636238902 0.04957496016555933 -0.27031011259360027 -0.13582369656696794 -0.21081801024960803 0.036268036335590975 -0.15744065526129414 -0.14785212478616472 0.29040135140512924 -0.1820410234885653 0.03612318433120763 -0.11457673948102412 -0.26154911687228577 0.07108582551597947 0.1259280382274146 -0.18757498382463839 0.04043465097331085 0.22615159674305546 0.1472273794520035 0.26688753564883105 0.1070048002227077 -0.28904948595092633 -0.22240276940306375 -0.2345303179765642 0.27901711954944 0.032691103093260065 0.2529630943315054 0.46725689205032617 0.22912158655435264 0.15051450131199462 -0.4393729067263545 0.7092038069435508 0.19580976672885386 0.12901833275778096 -0.5821617030712013 -0.23343697597547486 -0.05803922011535872 -0.3343218397395191 0.12783375037623493 -0.49114901032832825 -0.029077517556220643 0.28415046044542264 0.1637945361838639 0.15441553133456012 0.4584361600017241 -0.21886603462672227 0.18529652926746723 0.352103258565769 -0.011690870811778723 0.03633926329627657 0.03922861393267284 0.4242376866363001 -0.11259152669811485 0.21950432338647327 -0.373582473642339 0.13910551277612643 0.14519249542204443 -0.2235238369164566 0.24022031578670916 0.04383924426493505 0.5265836650351372 0.0634777614274466 0.039049144273804945 0.39790676871201036 0.49819990597708297 -0.2831714364366244 0.5639075779608165 -0.05354998965795579 0.10801332447743937 0.16631646733251754 -0.05525005810304008 -0.32892216831250815 -0.4699826149229706 -0.21525076147255254 0.3070535926025613 -0.0845332930283536 0.5642298975635291 -0.15223063402818227 0.029986197804028718 0.3637398259721807 -0.14086027285341576 -0.5224941401637838 -0.8640102758411898 -0.16343213394007577 -0.2534926629402766 0.10572029149515745 -0.14077679153848915 0.12403574606629789 0.018369907599182236 0.1600167035343749 -0.03919287807305501 0.326190809183606 0.0006045376774397658 0.23629942316688604 -0.6125202751288101 -0.1267868206382902 -0.16043725094148945 0.08977834608221756 -0.5672867600593496 -0.19277315746872944 0.6230540230003532 -0.4720404753009861
127 0.11532495501848543 -0.05618831804997525 -0.1467040212571548 0.10709698003466273 0.13349856793181705 0.07791276009236328 -0.09337306628533137 -0.07113710890552218 0.01806194770007103 -0.07124058374809245 0.07421707353245577 -0.14844076047458443 0.15670923974895343 -0.0026497272823499205 0.019444340759533683 -0.09951217624646479 0.01707869056427982 -0.03555398665262846 0.025690212300677116 -0.0318548108311439 0.11789100444276873 0.04846458295010584 -0.01068534747595837 -0.09187588801131147 0.010715572027043178 -0.004088137160422992 -0.1283628625088679 -0.026685291030198344 0.027974578499390678 0.07233100819849321 0.03671204293672099 -0.004687760264904456 0.11299398291148302 0.019458659638243586 0.11803773306391742 0.04224332699990283 0.1175203087673541 -0.06503091939755012 -0.1513006986363809 -0.016298710886580303 -0.0490772809070102 0.05129380148985099 -0.06056419802838216 0.018328582519407735 0.05777178729644636 0.03763196371965659 -0.03345679472048665 -0.07128990065460925 0.03824717881825887 -0.05030311682099506 -0.09190278383289736 -0.13873130970842612 0.04509712467831141 -0.08153261539714922 0.03856154794466824 0.06176000695509541 0.015428907847030238 -0.031723487542760845 -0.06363147200120953 0.023601495305769528 -0.13569382644144765 0.0021725064116788753 -0.0011534806785036416 -0.11949720908939931 0.13940254660177284 0.16545351656715923 0.06521706601262772 -0.09741621589409934 -0.07329123633097082 0.2290889461547521 0.1040051234081006 -0.007651878203031533 0.03258252518604629 -0.12295220740075989 0.09023219503726446 0.17351468104801376 0.1793821975483449 0.11826145720867667 0.12435667073461885 -0.1314288262387537 -0.02097011991930361 0.03696482834256941 0.025884851023287157 -0.008741476305453296 0.01869016974992739 -0.11933751500388194 -0.06849566656505532 -0.21496097769355582 0.10704371919916035 -0.11712794635444851 -0.03325934026853617 -0.07007534831414225 -0.0986434708277812 -0.19081705188475276 -0.28387428534539255 0.1919026305693211 -0.0960668482288771 -0.12209133488334213 -0.36660089069682367 0.28593182032410286 -0.25884069433680884 0.019483361592543925 -0.36884696645211557 -0.08568429032834249 0.12860942466003192 -0.5818014443337534 0.14740729474619907 -0.1987574477276379 0.027554288718203496 0.276319394485993 0.13992793450072868 0.13600610330809376 -0.12501695312832822 -0.21131404821142183 0.06192957714309701 -0.2116133234400044 -0.07570191466260835 0.5340781019785699 -0.10988858012803449 0.15124515634921862 0.09446064054887834 0.15828569809812001 -0.13626552598483402 -0.14873093980417287 -0.25563399647337826 -0.0927979610905287 0.14112471225246445 -0.21599277027713717
128 -0.004091730875836203 0.1274638326764817 -0.2526250057873132 -0.01164743287500008 -0.08823575234087797 -0.11280954133034363 0.005108994314090864 -0.017650458580840196 -0.10974059740402739 0.01984639346548569 -0.04965219098638756 -0.06926615721346736 -0.059949733830430986 0.0036897505501874727 -0.030586170612237874 0.04490075030476944 0.03319353621137669 0.06917700190148411 0.007282249874089251 -0.10958084848694179 0.05703582704337537 0.07567709777570125 0.00994368314910301 -0.06498658838028938 -0.044169801474990604 -0.07618289924620142 0.06872189538221395 0.002476648955236401 -0.02502513142201701 -0.08132174011537244 -0.046422904925839864 -0.006900933304697586 -0.10937534227841013 0.08320607866961435 0.12552158820565243 -0.12216183447199706 -0.003297635141624394 0.036589261755923974 -0.020031092930058142 -0.14496687424457266 -0.07419285781582781 0.13743525690907202 0.12047621042819683 0.04918867396341042 -0.055564583107076855 -0.04947051824086981 -0.06031751095100153 -0.06818637118968503 0.10024326228471443 0.07923746144721722 0.05824700176721751 -0.013055179165478515 0.16771133553138845 0.3742732580250921 0.06693336239099855 -0.10640725777891297 -0.11449355447759228 -0.038184520360231455 -0.1584912135783812 -0.06035086897570094 0.09382547089379416 -0.14122626581362685 0.027728023273322085 0.2021518531962865 0.019128945707595935 0.09548543434892053 0.2197639854836291 0.11603319564610175 -0.023437382701567533 -0.08474670102494374 -0.2230687377768546 0.02463137852677909 0.23329290405861128 0.17449899682146716 0.19200426474805266 -0.1989169607304217 -0.025814110544350878 0.10530450787579107 0.021733516354178174 -0.17728340608631643 0.06844777717709895 -0.22861377875337419 -0.24595836269455443 0.040269392269102325 0.007832322348835926 0.15406064903758304 0.16528134768186323 -0.08888468873989822 0.09644515981592656 -0.18296109635521593 0.11667110197770719 -0.04503330259170343 -0.06682104145670947 0.13044219526761153 0.09310657365216081 -0.13196145979170393 -0.2519351445671363 0.16575149602776978 0.15561409192266915 -0.07799540770259464 0.004404814732208927 -0.11828981460975115 0.0378230010271984 0.1202139238826016 0.1211959404741186 -0.18174853264615906 0.25676973140507103 -0.16507593775200224 0.028380296205904387 -0.21866353935576427 0.1996599880369412 0.1722192469371439 -0.46944188196911096 0.09602765019715909 -0.15863055698662412 -0.18480554268055793 0.04311154397499494 -0.21006431386767946 -0.0059598754784413255 -0.13214918219040253 0.2479597746701298 -0.21919334128091422 -0.10070770384777847 0.03632948419160662 -0.05795961533293298 -0.14449110154646252 -0.0018197092400103092 -0.24733922184088217
129 -0.225857751038238 -0.046186420606385614 0.009372731923041 -0.04768920760661561 0.027427116625227878 0.07407040714479755 0.028333749165494006 0.1677860531740109 -0.06696491386305103 -0.01506561436735939 -0.015411275326458654 -0.033136824005378776 0.021988871340570995 -0.07056166599681016 -0.16098431231048216 0.08025744636726638 -0.038447765308454666 0.24592192712368585 0.06680206891684858 0.10511226652130881 -0.08652970051695616 0.01741318815507252 0.12166185028604386 0.03257626931936949 -0.06196122697625108 0.003422724813053885 0.13478804792648183 -0.0747097683189259 0.0025323254542192492 0.005932908903562441 0.04247121087062436 0.10365179471456752 -0.04651844553688392 -0.16728316505685215 -0.04329234895352685 -0.09605905173878396 0.03639142073762197 0.021769867601851414 0.054958583258038166 0.02044713821792183 -0.0824940318502225 -0.0014253522667715397 0.04516564711446219 -0.021741938817317716 -0.035212947931977955 -0.05914063295478962 -0.0220459093046973 0.023533908383094597 -0.055033158696600915 -0.008157679638363188 0.004264299089248285 0.03889422124704124 -0.03914775581822402 0.04548609264134716 0.07463821913994707 -0.07860435545178945 0.022694799409436917 0.02774772420754426 -0.0018308774874570052 0.015086567854153417 -0.03230830964003581 -0.015042983312289381 0.11697794324733268 0.015017383813557513 0.041251745569041515 0.03457646456927596 -0.020865573315948887 0.04519799074667566 -0.010508962334969701 0.018694402946320982 -0.02872583605573584 0.0314133745029197 -0.018213832751960618 0.28693337805111996 -0.0033716636784647076 -0.050703093296393525 -0.06396404556904853 -0.09980392223710047 0.12177634320762702 0.056708716967378336 0.037857545812237936 0.03487896917194798 -0.13096279197072525 0.024152412991687803 -0.002187011273785617 -0.2264885747893302 0.08536823241589046 0.023289247693416625 0.29099951123442713 0.04042061904140943 -0.11821467278470675 0.0012440006766191323 0.07552888709453966 0.05032809630575925 -0.10525529105721051 0.07230828702790708 -0.06637766397797772 0.3153046114958479 -0.016304798668265574 -0.3760539487005737 0.21819669175513712 0.02991850342112439 -0.0652283065306821 -0.1062205051976855 -0.29045275333800297 0.18721299412289177 -0.4798948340744495 -0.03137289791894501 -0.015238842058174473 0.144508435965373 0.1846193244287198 0.23456985891934629 0.0340763833672792 0.06119350537749528 -0.10961660854603185 -0.2906529702506987 0.001786649390247555 0.012787325483322405 -0.5854697081966731 -0.25640425020684543 0.03273480682333701 0.2630373374852485 0.18159551091694498 -0.0786928962508933 0.21898553156637374 -0.07160278862435196 0.04573453420035525 -0.2492379310848146
13 0.1015413471609484 0.04979659673707768 -0.11124502374690672 0.03842038177168354 0.030518403709666894 0.09175237984361503 0.08671536052397666 0.0009755807343766828 -0.002561069971201512 -0.1210541152286121 -0.019772303808217064 0.05035897174189136 -0.022737794143935144 -0.09414889032099225 0.03764493391040323 4.05129267047286e-05 0.15048319037305635 -0.14644224417066037 0.00010672686157177702 -0.015765137698303257 0.13390857981305324 -0.1732601121954277 0.0065045417269046476 0.13854108845525034 0.032167681252520695 -0.0969349984953012 -0.3618362700815831 -0.07027710435481314 -0.02886494856127776 0.04020643815954998 0.08568990948121372 0.043403135440577036 0.09190675316076137 -0.049005615473525575 -0.15170936311603528 -0.041712610784034376 -0.07892055109086661 0.09171081238981814 0.1567188772581031 -0.08980769115492947 0.02331365369148661 0.01604623429797918 -0.008508906848095486 0.037666630908059696 -0.004251893985836855 -0.04069792963432956 -0.18462996735078374 0.046100178302159664 -0.04896699248516552 -0.0774879208157391 -0.16526280685060368 0.010542165464639564 0.06055505964519164 -0.1309105823609341 -0.11971842395964569 -0.019472494050955958 0.15258059063722867 0.05129312249150678 0.008406921987612037 0.0771392729939797 0.11582355696785701 -0.030550456616499126 0.07193020524285337 -0.09631499207102481 0.16430225373666102 -0.1307745337763339 -0.05819535345981293 0.012180901218451794 0.17343601642913867 0.10671210346828773 0.0661258405269082 -0.04316621491291443 -0.02944119440134383 0.15972568488481326 -0.22982606243284812 0.1171910173080217 -0.01114653887379044 0.12225761947452027 0.17766787822789662 -0.045405670197721036 -0.1779462934584338 -0.2715788257877165 0.08885073197009478 -0.04356964319551123 -0.02722432404928825 -0.2586867919300248 0.1157319104124339 0.2472186849244176 0.0723626504258929 0.003485185277865085 0.17669470197897444 0.18789957055183565 -0.015792766891693188 0.04010382585651359 -0.16237698343899382 -0.14234304254938 0.09658642577773334 0.2667098462765423 -0.22188204085735125 0.13962275628283022 0.0716733853280144 0.24529961230259736 -0.0777309614248067 -0.16273364862910197 0.039339119872287505 0.2216385506348628 -0.10283111360652362 -0.05861606055668717 0.15749935708398619 -0.12350105515612114 -0.1145401705304297 -0.17234784474515324 -0.15944345641749458 0.09045788385935383 -0.2604666793414501 0.31424843848473927 -0.03789382462296548 0.07279944044031766 0.023108600257652316 -0.029856809186214046 0.21809080118651875 0.0719080078119828 0.5636553300368015 -0.17600190600319113 0.07924500903952661 0.18484958773052337 0.36331403554902825 -0.3573167473875412
130 0.15353485175198367 -0.023801596701444497 -0.0019179042338678522 0.07865853064474283 -0.04864261609024806 -0.013069036329339397 -0.08880665272191557 -0.05255654304215824 0.06279656321857696 0.10480073125320029 0.00612217560558466 0.027593378389255314 -0.021698890898057672 0.006750386795543134 0.022272677140715933 0.02186494883719666 -0.00946065200348146 -0.02101933902991022 -0.06611140596918215 0.06357082375438099 -0.025685097877655 0.03493318794001267 -0.00552749782199999 -0.004510321115109621 -0.09753709073585481 -0.05139005171616139 -0.029740262570430644 -0.18535855639467474 0.14426154283860562 0.02515441779629858 -0.10277743791872125 -0.016038446600692324 -0.2567267169966188 0.08817157287519184 -0.08531323057884715 -0.0023810352132536505 0.061523358489471054 -0.10508002825443877 0.035001562944251226 -0.0007954822857748535 -0.31784775350464856 0.03893903559184474 0.07743322447997394 0.10764972560961084 0.033848915810276235 -0.01574072689131509 0.2128913370514057 0.1349718572206682 -0.1362133539451616 -0.06185471082970249 0.058017216223385217 -0.06502334649008484 -0.01385303890659831 0.031289990165537594 -0.03730127768826066 0.012136264753129393 -0.014400234509362455 0.10487595902107029 -0.034927219272170455 0.03172521024697453 -0.054012161350788374 -0.045260449305039634 0.1156181687955102 -0.02359430653225416 0.012010209414000257 0.04025064678359326 -0.09662490789463908 -0.07434049962767175 -0.06816504357915346 -0.05867175915194979 0.07646844275377095 0.23969970852387595 -0.071507263678148 0.20431905229851427 -0.05668810328875138 -0.13906599066589062 0.10514184064964917 0.1302242978666817 -0.17842120408343884 0.09769318998918856 0.13388601170593048 -0.16369541303111276 0.014620601837486778 0.14188196469435535 0.10997512142406346 -0.03319518598170928 -0.16539190313341712 0.043266275267788486 0.03462268998084792 0.030207121814548654 -0.2830283708945954 -0.16836894356133017 -0.12053400125565208 -0.22281009000116306 0.192640807285045 0.027618164799533013 -0.10875426721684453 -0.16545746851650717 -0.18379137845530374 -0.16701495353363507 -0.0992529195754625 0.015995625454972268 -0.042199058240800315 0.0749454001684803 -0.1268600751534601 0.19750581839263798 -0.1503643131604947 0.15029622590793543 -0.0285342779446251 -0.08649070044940044 0.34185025729656093 -0.07394217888073781 -0.2162348422631029 0.21892289594841371 -0.04282138986589179 -0.17852276856763358 -0.0646720920658409 -0.3921493150628605 0.30878402620555817 -0.2688460015698237 -0.0358034000371729 -0.1511274324558408 -0.09582676580890388 -0.3850559624878233 -0.5848141696212371 0.37957960636641647 -0.7919504645233447 -1.0370826776053717
