383 128
0 0.010176116922851385 0.02807325081340669 0.053304917263343916 -0.10270174761653514 0.00386460213017746 -0.08762011360967789 0.13603952073422984 0.021906377448201463 -0.147869028266945 -0.00423256235858005 -0.0685171216397745 0.012482976930682003 0.06023500529225057 0.06236697782852836 -0.03241137482143453 -0.10954823943065668 0.04379194184451329 -0.019631695444209875 -0.01384592821164566 -0.0019259779755739534 -0.02261885997213912 0.07945237000919042 0.10206438146674837 -0.04849925602099701 -0.026890601285334256 0.06190918273962576 -0.037963538975024275 0.010467130952863595 -0.037096388724883564 0.006435917762536835 -0.05920869277653115 -0.11967445224696546 -0.1244855773951832 0.036039849367791775 0.026228883786272396 0.07671761390011297 -0.03288400232114823 -0.12678101757638446 -0.0472225332938763 -0.03303796609263261 -0.017879276994817755 0.034886208944710555 2.2103742587316082e-05 0.15671130822431273 -0.10048695780021606 0.05066128890879424 0.09846035478759614 0.04725855072219386 -0.13922534638951287 -0.061932432898681576 0.051533792062152264 -0.01723954255270672 0.023056657997816067 0.0005416179888099306 0.00472750666574014 0.04907779349951775 0.042298400275384854 0.01893697637379427 -0.1146448771693021 0.08363456253529161 -0.0034764861336887562 -0.11191428367087577 0.003111225732206022 0.02628449598495745 -0.032968544662894686 0.08715645359460933 0.038953792886843606 -0.1852069776161299 0.20755731961872148 -0.20897036978025793 -0.34662216575554383 -0.03475645406513484 -0.05437796979411959 0.10526027525141853 -0.08616628130443843 -0.005327887194699857 0.06407881485236908 -0.04514230181746663 0.03388486703421798 0.017843529331804945 -0.1736560133344299 -0.008896056740498988 -0.17632728057943575 0.10914524242417888 -0.15479691440944507 0.03448307179606261 0.19051081669029507 -0.06788154964006426 -0.07621412171483431 -0.14190923766510635 -0.08048670078236622 -0.11597914483759902 0.012338129890837267 -0.012265231636670877 -0.20238380312535825 -0.05223486926245839 -0.23732796613829973 -0.011791305953114863 -0.005135474860855639 -0.12050301550817971 -0.0929668425369937 -0.028867662369883553 -0.17052451964260443 0.08812703773191599 0.1581309023935538 -0.17175881576747618 -0.1177754196228554 -0.009638452478373971 -0.0677606451819605 0.07410403350189193 0.12066693004989268 -0.07313032903841794 -0.08237249292601384 0.5140441207282375 0.18326593433229393 -0.1404323488616983 0.17365383376275542 0.06812471638541723 -0.0413232603663285 -0.0924646073121872 0.03503205363080738 -0.23087760544256253 0.05388103023797126 -0.07056821568490292 -0.04941138975606799 0.22506520686881423 -0.006504075417835261 0.1677988820044428
1 -0.03800902497894443 0.0672758459578166 -0.07970137786187331 0.03210280251281092 -0.0743735416139894 0.023178320743128082 -0.037017277313560096 0.10537891657366573 -0.004154633371648638 0.005544780562394795 -0.05808444219716635 -0.058227574650510636 -0.11573390288719099 0.035250104966835984 0.04647413000794204 -0.08510742446232958 -0.032447028736413384 0.01872301130970599 -0.059138564803229196 -0.06349838581758509 0.041869649786679966 -0.044778549533249966 -0.027028657202671082 0.13954414367317047 -0.09097742447886562 -0.10155295043979533 0.0798119770614025 0.013338217517694626 -0.1513724344726332 -0.03769277060934032 -0.1021324115349988 -0.14450481487894523 0.11589086993752905 0.18144553770268054 -0.031173411915499202 0.010985738592802895 -0.15688716353801543 -0.13626474443768255 -0.02785431964310519 0.05480757410833815 -0.03124611985215305 0.01710026084723776 0.04961800789631867 0.07653946722736014 -0.0562842087963457 0.013732020882871792 -0.015458328280303683 -0.05860891275387292 0.01562882836260467 0.04121081953885411 -0.03531713378936972 0.03573026647978265 -0.11616444679015935 -0.12358704652013743 0.05436885768190882 -0.012117081015795814 -0.2799697886453144 0.0012089144836441173 0.04153401426838421 0.2632278686558648 0.02953353382299415 0.12096377659999774 -0.11260418587301908 -0.2274077044099827 -0.04966206350823178 0.14912830581205608 0.03898242795966274 -0.04297851894473753 0.06431644802696909 -0.12341666364843856 0.10057957818582863 -0.1907023840830054 0.0003618628608699832 -0.06870058475434604 0.047242795320812506 -0.006549123841805548 0.03720801578899361 0.22493598863703607 0.03415318286699546 -0.08632462243787518 -0.22840204924815094 0.07968307516632081 0.07683965363886347 0.14064741973860306 -0.18607906478411815 -0.12811289400796333 0.22034307719689233 0.34716778715967567 0.07565530931210858 -0.39707318873905534 0.00717553538786678 0.03137716675778168 0.09013193014020848 -0.1953045760894419 -0.14167135928177926 -0.291717400064163 -0.1755928888482566 0.07241943885398464 0.16843472416983168 -0.07519628885242488 -0.06743375241498568 0.0985093245504758 0.19040387155961044 -0.2344597696083406 0.19042655402999684 0.3304482996445787 -0.15479305824699754 0.07515284636326418 -0.08265051735616086 -0.19908894689567644 0.0945073976517882 -0.12631195065627052 0.129421919876883 -0.027248788363412595 0.03872244398547322 0.022758035532737045 0.15363485705105606 0.008805175530631912 0.05113924809326837 0.08264509433030971 0.024100948441876907 -0.242681321721766 -0.0556805547983903 0.11960270341606226 -0.023979297604787793 0.040082876618351686 0.1878933235058176 0.28646814288637157
10 -0.046039113009728065 -0.001003961795345101 0.18678228568969113 0.03842905397611036 -0.017598591213394806 0.058539456351016636 0.02008536505115998 -0.007763477416058022 -0.045168971647946234 0.029485981291613568 0.106775566265923 0.01375439040062393 0.042978293069897665 0.00031069260394419473 0.02944270508769434 -0.03110605399426337 -0.06123936040938751 0.023543198191102167 -0.135948998408122 -0.004722423921526282 0.02966894920570269 0.01992242529354751 0.008028045078834806 -0.036935102147256225 0.0026049416721321086 0.01271363045517785 -0.054129789981471214 -0.05450904900240296 -0.0008133641498117034 0.02523279337502733 -0.08870581613384015 -0.03126768436461839 -0.0896877751931215 0.06957167889488465 -0.049741173332780636 0.001515327085813938 -0.016491152540392864 0.042459500093598744 0.0780475200967191 -0.0030477124516767188 -0.0852423128434275 0.007220064830205318 -0.04462675076154348 0.013734765876939116 -0.05030575121776398 0.1421560011256386 -0.049261944922121756 0.19937198667183037 0.012340329889907157 -0.04018259453717537 -0.02602675203801155 0.022217303085369327 0.022306881299521367 -0.057005605365491846 0.15883165904765667 0.07570985028114392 -0.04480940005904632 -0.033088946351885806 -0.10315498634667575 0.05224838117856391 0.07858838549927984 -0.1279457191366681 0.04601319877337668 0.1508671520974852 0.11296549592488221 -0.062121697607472236 -0.0062202381745537 -0.01734005353287448 0.0893536297548292 -0.07667538328751658 -0.22039284158167985 0.09667793226386491 0.0735590150630035 -0.06737645803716437 0.011280968894619034 -0.007768940831819392 -0.0013088535404600595 -0.1653569714072421 -0.022081063254023595 0.21588610964496832 0.12378633936224638 -0.013179021909163643 0.03717953398205382 -0.11087398011347563 -0.13903370153750277 0.05351002775377658 -0.1903291436853575 0.03203389483448697 0.002374354675553671 -0.009072042455242353 -0.21304777604738467 0.12477735123265801 -0.0188877885652343 0.1831030447508254 -0.14075334599741554 -0.08479500170073662 -0.08904514914688234 -0.03908215282024124 -0.07036168094833758 0.016041006176828035 0.11106468563133241 0.08825589460460957 -0.14182847446090116 -0.04804418296347021 -0.08824515405181065 -0.013070969527020321 -0.20400663571655198 -0.025690232088723047 -0.07234225006324976 0.016686162649172314 0.06541960634815261 0.03368658545595134 0.163649610194157 0.23470663939664282 0.16675692588694394 -0.10599922330060883 0.04797726546494384 0.1781279326430415 -0.15281436486224587 0.07948211229486099 -0.11748665778239804 -0.21869196840993863 -0.1455385548997403 -0.10131637388724798 -0.21168159991595367 0.421588627386624 0.04094684338752043 0.1671296554999799
100 -0.005545849148243836 -0.0068794937083577175 0.02630894174023471 -0.10302922934069646 0.023820283450118582 0.00021866363881007509 0.008813556603335599 -0.031938050747114886 -0.016656751305601996 0.029706477727247986 0.02495658172980317 0.006150736965462392 0.01602910406496725 -0.17481812983511585 0.017655532953639308 0.0466476957400826 0.04567912185327208 -0.01614846178561616 0.06864446091896675 0.04537400180291188 0.003822319245192638 -0.12993516220027573 0.09220009531947233 -0.0009151819318851152 0.013042037791774564 -0.03285998248493769 -0.024343851900127774 0.02955774433764617 0.021511151848652467 0.024385153797502737 -0.034029752203647214 -0.005293211479219434 0.02745833427087574 -0.03680354966812414 -0.005929605275023334 -0.10685250406737833 -0.09922205686751392 -0.09327208870065631 0.008033956601993934 -0.02594349625065669 -0.07758895882751683 -0.08294821844596657 -0.022255471224582917 0.06308196069339568 -0.06182974664254136 -0.005433735507721875 0.03235717462739419 -0.027419919387653962 0.08107401030632742 0.04649623588715183 0.005538312407199699 -0.04427346904110701 0.14172666959932356 0.07809611640420663 0.04487431853216251 0.07986207542506146 0.0513815488381904 0.08900262838122794 -0.02786059067048369 -0.08312944197496676 -0.06020268931753468 0.0064904966552148885 -0.08289391155350893 0.0977903148489985 0.0020983460947122563 -0.09062118562271941 0.07056857184686431 0.05468460589800726 0.03831006388286821 0.059643125174933705 0.025610160177028947 -0.04515569198885559 -0.029106361669833228 -0.06498433524803489 0.12153684612456907 -0.26742241834663155 0.05253073071679701 -0.01612387487056521 0.09477548704534462 0.017537574818873556 0.12902223891174805 -0.02111800547337554 0.030494756552865883 -0.04301691419911024 -0.023424013346076238 -0.0458057784094165 -0.08485858662528993 0.015240590318196549 0.03661331769683468 0.13692457746130654 -0.0319365411653229 -0.1107892092538137 -0.08553648038217335 0.06399466403472576 -0.07276452994436124 -0.06468255654442007 -0.0011706889230108021 0.013615980824016116 0.0815717303412027 -0.0682216426226555 -0.06545068677595801 -0.11404035713675224 -0.10812111435166248 -0.08081692619721231 0.08694154945702141 -0.15034605874636464 -0.2458842280594524 -0.03673306601928257 0.05247560289190174 0.01656594057682798 0.005051486856474494 0.04279091662853637 -0.0808748038092823 -0.10824228542077917 -0.17819371369736828 -0.02992660127494141 -0.023073526887971683 0.019201354364908895 0.052800317146711996 -0.031190888480200973 -0.21936160662031165 -0.24352641698757704 -0.11828652531203619 -0.05399114700234545 -0.17986941205245502 0.2944766129296083 0.07052697033821115 0.16664919938799921
101 0.031458754596105365 -0.04717582245337894 0.014579487755963289 0.03221661464718305 0.09989330680960651 0.05779733807364329 0.007082285463217654 -0.09888354315085698 0.013340120473813477 -0.045545803752426485 0.04306607055531358 -0.04282225177541212 -0.020350721729347664 -0.06492075372457876 -0.11490679491126116 -0.058335946939759825 -0.04156592991283557 0.13272507016182386 -0.045843560133618684 -0.3001129581777673 0.2512150517087415 -0.027358697645917453 0.06420446272508114 0.015068905310323096 0.09131304999465333 0.051479862680947064 -0.16826300790653523 -0.010866636042336814 0.09469225621153958 0.056867857797603574 -0.13675072424421283 0.08847757905047494 0.017734986876948976 0.037379910420475754 0.026746015924420195 0.13612218877613963 0.012933417694841515 0.017020060224404075 0.015192622645268404 0.022326571712122784 0.11272009560403509 -0.023807609635641425 0.0759614186390469 0.01303623780671575 0.05481337190371988 -0.0707158115800801 -0.06652939510305567 0.06801510124834971 0.02717850678464005 0.024176154853901455 -0.002541063541160848 -0.08093324126562845 0.06735075786779499 -0.074143338514249 0.0360481108958727 -0.06588000040507283 0.0015687527087134433 -0.023167312673828974 -0.029539738503878837 0.025324925265503655 0.030937476201286587 -0.10506696163899748 -0.0025370977930489775 0.04849513303508812 0.10436382359102542 -0.10171644726223868 -0.14591300578348804 0.044508617528572325 -0.10411101862196027 -0.2140037184060488 0.030642819933178498 -0.13229620309271753 0.0257971709726036 -0.14447399535673855 -0.21183462678996456 0.03440053772174433 -0.09674840083948218 0.008622786264565835 -0.03372575534244514 0.27378305553106 -0.19042523627580515 0.3136838272031413 -0.036444283208012775 -0.13657751712869895 -0.011889419128859342 0.15988634701093674 -0.11767524485361776 0.0675565606039157 0.0922612110090941 -0.08141799135189363 0.24068636541963445 -0.0002320765435614232 -0.10345141852521697 -0.1460371117686507 -0.10162281521715545 0.1892161918363411 0.12123468807475529 -0.2832943992432964 0.08301771256380513 0.12755814218622763 -0.1093950102846843 -0.043391857270711875 0.13386514212318806 -0.007644765539710526 -0.6204056116146456 -0.24343786758782485 -0.06790585936229643 -0.10615732690964072 -0.10147939283067725 -0.1395566761104184 -0.06162465212244915 -0.15695457686831296 -0.45136721057301055 0.3189197007356786 0.17239100527840573 0.046046426077946935 -0.5175850396469723 -0.4951858130658719 -0.40977409400947346 -0.15953519033563232 0.11296709297999107 -0.06156794843183796 0.09061969656517982 0.12939426640586524 0.08255686288701147 -0.1916852778978489 0.5860947243958707 0.6445627148504008
102 0.01168858862491873 0.009962834863128652 -0.08535826950617399 -0.00977285622311871 -0.009138617923374125 0.15731744782761384 -0.0021151245464786235 -0.005613636663981259 -0.07144739415942641 0.00023390693751343104 0.14095120524616558 -0.02337012400880818 0.036324414053311015 0.044368903107964465 0.005315784674894041 -0.06791827880771045 0.047283383830897446 0.048221243562254344 -0.006073559266971425 0.0049266891967677555 -0.016884667046152112 -0.194672033107204 -0.07180515116693889 -0.010470166913686497 -0.04882454116628128 0.054397212285417676 -0.013071008681624115 -0.14351993109177277 -0.027810097924579627 -0.03910074220588504 0.06634520332936335 -0.05645213377678942 -0.038485162399031006 -0.019547893443572675 -0.032065351435796786 -0.03131110567593041 0.04282476380405746 -0.02991567188697121 -0.024004816607678243 0.027173474386281912 -0.022264261508172487 0.00660514789146004 -0.01795592601952031 0.04750076337466641 -0.09049194772511611 -0.012665378254395622 -0.06664792884171658 0.040191930793332525 -0.0963389071214363 0.003143891520881651 -0.04815870149542577 -0.12565724908390155 0.050847870701507036 -0.0765771717969557 0.01714639217403212 -0.022884846249188788 0.012218928985571994 -0.012107840725857183 0.0257838986926024 -0.015538797995189374 0.04207350317387028 -0.025558432312027705 -0.1154062331805208 0.10767723811237212 -0.025179217514851648 0.10683704199842296 0.0032115939348252493 0.05731202329105681 0.03011932290856157 0.0051922762237722655 -0.1172201614977461 -0.029694979795927084 -0.129558650982564 0.03452298490737648 0.13927086276438594 0.023601605378496426 0.12613078955947615 -0.14148041283488053 0.011937133682902591 0.03975243082417376 0.05476076215845638 -0.10933566151824145 0.15210084808803617 -0.024733577904470627 -0.0986081815873449 -0.031026543796092612 0.04817185045208129 -0.009897475937289279 0.09484857697222684 -0.008182329310664375 -0.16046919351134423 -0.011483052078730599 0.0292476603716636 -0.0033319371073633674 -0.049039582905663376 0.03326935738165051 0.0993442117536554 0.06036703829113886 0.08007967676066927 0.018800371053865932 0.0222102794661917 -0.058123378014508675 -0.11677122979072128 -0.1186946423368588 -0.04823334917487118 0.05108339334580857 -0.2450477065272181 -0.13633198176174682 0.07726212148253753 0.08251983869931243 0.01232066694272143 0.0645145398831689 0.09471844454963782 0.16299901635311687 -0.03917328322095185 -0.12029650232627924 -0.027258576226982967 0.1562693932603986 -0.1332787428085716 0.07680050145773575 -0.27135888087945137 -0.21573530726533555 -0.20699651474508554 -0.08654747344316509 -0.29892214725574645 0.43923997403969134 0.08380770555704546 0.20605686916195748
103 -0.07253645599687839 -0.09132067328500479 -0.0554317150079455 -0.02423175949930249 0.08602891957501473 -0.025206175049107417 -0.108796787847909 0.00531816363081283 0.07415149757797346 -0.12100064741713762 -0.021116155465745946 0.01282294644223722 0.14263768054138462 0.06959435000862381 -0.10868707671619413 -0.03983348627649863 -0.05859052970511995 0.011336847725066209 0.07940366887184906 0.07505148105114334 0.007189460413162468 0.07850560576577494 0.07018951661511504 0.002730457892324265 -0.05234832603782058 0.03550301639738449 -0.018495383105731844 0.015152784095646746 -0.054878454925359796 0.03957213029785119 0.008388582647841987 -0.007196589685251976 0.0042430146262378045 -0.024712865498477305 -0.04119913563964249 -0.011046488022332884 0.07077658722494372 -0.08493291765730028 0.045819540598866955 -0.06751197606957354 0.01941416980732809 -0.014560847251252434 -0.10135331811424554 0.1360006070435282 -0.029172569795160377 0.009309077857584395 -0.10685118763370756 0.05426019420971422 -0.028385261348926372 -0.005816764922583063 0.04454292808281645 -0.10202263963473558 0.055669875530566564 -0.09281212177427825 -0.06751968067067433 -0.0024951843169461548 -0.04171683367114736 -0.011558408979435589 0.09437016363758105 -0.009920834209057348 -0.03928936019165944 -0.0009089690358019183 -0.02825105393099848 -0.04193784059010365 -0.04810656883789014 -0.01973257538058694 -0.08501239493332172 -0.08893077409077359 0.0392779959346947 0.011694612940409122 0.06676648886904496 0.003379363581370536 0.044934732504324865 0.03015507842378044 0.09412754934134503 0.03416781179661327 -0.24038511962428952 0.05491489001620214 0.12206329445021291 0.15333954178432305 -0.018097991918607795 0.16717881994107683 -0.08316854500440814 -0.03241808016928652 0.032590692900562115 0.11447802127108755 0.11303587025288771 0.07796873288035955 0.06566840032973172 0.0046390977844584695 -0.10623990489085595 -0.15943511746556185 0.07130389718320684 -0.11529301280492582 0.02720391531209919 -0.3067017922162792 0.07458016547753814 0.07485285990684433 -0.030134717344770575 -0.18094013235870232 0.013822879689512886 -0.10520843480260024 -0.05978923825592066 -0.039571129560895646 -0.03199165275269825 -0.0663884829422776 -0.08913010869471713 -0.15203238005981018 -0.047958579694962616 -0.01157350542939029 0.19040601463582335 -0.053635082810504206 0.0861061529054216 -0.2406430818116768 -0.10142398965566737 -0.32801603991848555 -0.6785907671470794 0.44325580165430156 0.02957531000701952 0.6162912520314097 0.2739501323806413 0.02252197807319534 0.9087779687436612 -0.6050469608053881 -0.16864635504067763 -0.07348977556213859 -0.2558382962895944 0.43271438839121895
104 0.07322696674693259 -0.014156323544339504 -0.09891496427498458 0.004431757338341622 -0.05318386991033715 0.12982613559566963 0.09466331547475412 0.13890520232998807 -0.12086239589189193 -0.027607346288046727 0.01825924062474472 -0.05896090941412162 -0.0026663490269482264 -0.001019608232096228 0.006418978867482192 -0.00017016911654319192 0.018180807559198823 -0.03203049516556671 0.01909318261432356 0.06978994398881747 0.05283912625172357 0.01766030635677679 -0.192367951747769 0.16756818304139412 -0.023053069840369277 0.007220160458960078 -0.038898257885869696 0.06149306975316025 -0.015068895087340984 -0.004458560033859084 -0.004186494208680602 -0.0489384627439942 0.038291137601635904 0.00797274748267344 -0.0444899995709843 0.16147855408948858 -0.049340195752578433 -0.016513644936562814 -0.011390361645237854 -0.010659139764056092 -0.12016320831015531 -0.035251830419214494 -0.08837867372208004 0.0031290248231212892 0.03030024351540308 -0.013087169514241319 -0.012631521907414707 0.006117917685542006 0.04742813914739831 0.10630850812941103 0.052458152480191346 -0.018661851168716298 -0.06346184189302972 0.08363636816709531 -0.0447265806553072 0.08253716761305922 -0.1305683240425712 -0.07268328913476037 -0.15468158315679834 -0.11308419801206525 -0.047880447295173524 0.021548493784526394 0.06092981962679915 0.021746259018590005 0.04787952323419804 -0.25483214147774086 -0.0516869218144002 -0.14259894618779298 0.06521309191865642 -0.12674959681553347 -0.04485559719707676 -0.041005583681282536 -0.08704941090153447 -0.018535574292406008 0.06262571147925826 -0.12679149480777943 -0.07690219719663428 0.100583053123333 0.2640196184597705 0.10892912370758483 -0.005730040840094111 0.1261392410825485 -0.09335058576854922 -0.0996580135777147 -0.09653483172571375 -0.019699841624241727 -0.049884006039407056 0.02412382614194169 -0.12622537632915895 0.03684219173533818 0.11135191838928796 0.11374683912316821 -0.1269466994669671 0.2432117056368235 0.0885882412649946 -0.057887975570404086 0.10828788815371707 -0.04930861667423425 0.08357974866137696 0.0016737033869677854 -0.16635790422281968 -0.044905055284354026 0.205462553909149 -0.1331268475891371 0.34475001909087816 -0.3694757129383878 0.015670704774474926 -0.1654028795682207 -0.6045329178014 0.17488836007091307 0.22101987745482746 0.22432696781768538 0.11685368046706877 -0.08477868486348351 0.03677913862865176 0.007543691296331227 0.177109045470483 -0.10897942760991534 -0.04315740401162581 -0.41611532345979524 -0.09411807459113129 -0.12374596461197382 0.1530704364318876 -0.05582737022938162 -0.20529945704711666 -0.1122266540381971 -0.3794541700435576 0.3555779656115852
105 -0.015700840770822268 0.0856939400654033 -0.1349433670960721 0.0667773843405545 -0.006127396397508253 0.023406389778537776 0.04931198217668057 0.016925423316317825 0.09398546855583786 -0.03965123029832664 -0.15829172532340052 0.007837425444582043 0.03585390206066925 0.05502577790283158 0.10334474763722978 0.03782630093266736 -0.05533679435920665 -0.017228708917121843 -0.04324815626764342 0.0965079043266188 -0.045919332216583855 -0.12464233029015917 -0.029414970819276447 -0.033399791372242006 0.04065555514890108 0.05158927206761251 -0.3359820574131541 -0.09100477140716048 -0.1756525203030631 0.043586207755756105 0.19524169652677995 -0.11120796817884099 -0.07645774520419522 0.08290813896147899 0.09176091065037878 -0.18790482569405645 -0.026818803760364825 -0.04533008886508178 -0.044860225408549934 -0.0259500277333701 0.021087009766001637 -0.05628567291197541 0.0824170521422842 -0.034119575697862864 0.1325801142337647 0.05722603921989641 -0.062043459618893716 0.008993600933646595 -0.04187199562307636 -0.012256284825183896 0.3214724880523124 -0.07361857892314634 0.12259755376112744 -0.05342695047404896 0.3169696718618825 0.00771039699291078 0.03402417328258591 0.1530837333239155 0.06493632976095047 0.015522996930789726 0.0695078807768911 0.03525593552499187 0.044883715407728585 0.11518278638648485 -0.38071644600888543 -0.008513175712446365 0.039668386139651124 0.10549527808784892 0.001292285722934069 -0.01566349579799171 -0.03433900513722425 0.42073873314468646 -0.13207552185743016 0.1805185190018717 -0.05215108413667734 -0.0015983738937033218 -0.016751736677641633 -0.3807824457574272 0.011963945241496032 -0.10056152133018434 -0.1904709297125237 0.01957080570979597 -0.11657517533041854 0.12639842475047486 -0.10909638355484505 -0.17080037665488393 -0.006231195168091113 0.010685726298825955 -0.017356181243536686 0.16537741531609634 -0.12765161193036478 -0.099462538099805 0.022066469992598137 -0.14062168950778448 0.09154895612885623 -0.14000589141672642 0.09979047470377446 -0.16924028927586554 -0.03283543223673158 0.02457015284311748 -0.21374152785584632 -0.07333663920323308 0.02913578871862324 -0.03812930990648449 -0.02174031414844251 -0.2967907026782954 -0.06474988001956465 -0.0717059828806919 -0.12422667985744532 -0.05560959239319744 -0.12611157427052358 -0.14480501861991302 -0.27902708657751196 0.22920665550107203 0.059944407517812215 -0.03392368876394097 0.19254653524735407 -0.07419854925217866 0.051772780016276984 -0.06713377947620135 0.09819857572067986 -0.13377892827635782 0.12124215763716469 0.06972460602543752 0.018494079729502795 -0.1829530723976227 0.3652394955569796 0.5280413274048369
106 -0.19705761860515966 -0.04618845726522994 -0.09279899538806108 0.10825933600405625 -0.032478358251383246 -0.016051361601668725 0.008781108896494146 -0.005807943300294663 -0.05980080303984903 0.018678496872645382 0.05240048671389758 0.15576086664636649 0.0026562381922232985 -0.11576949572731308 0.046349747567488164 -0.017512863528504848 0.12559738677932145 0.05579488664314915 0.07773490938252256 -0.023588192702787246 -0.018936268348271747 0.12164799524337205 -0.14117528040239977 0.17353834623672124 0.018220582059140223 -0.07771518789344416 0.053162358550530746 0.07818614451634538 -0.02930002824098275 -0.027459614623551124 0.08395330949408307 0.07716689993372601 0.033798123500125135 0.04647860851031573 0.01320104057792785 -0.018752414119512634 0.003065994759966213 0.1635192573597767 0.13835841592898285 -0.010933627290448134 0.09471916804231618 -0.11615441156424136 -0.07009334586921592 -0.07724128448723566 -0.054299399173658135 -0.03327784822638663 -0.0025399114185110355 -0.09411219367451949 0.0845948645314462 0.08340788918870129 0.09488845431321855 -0.015800931441075326 0.05649440046105021 0.019304957677551294 0.027003184663939563 -0.11340783215272744 0.0239705852930845 0.07921573146788392 -0.05888959015346927 0.06405514981453239 -0.13274062044569812 -0.0793439498837938 -0.06682987120750268 0.13006471442365142 0.04238528805342522 0.03241191250715036 -0.03984387049627489 -0.08885282341171484 -0.010040445351207988 0.1201458698484173 0.1804922152250745 0.04818478180988463 -0.19170928364234135 -0.31822752173246355 0.068697894430742 -0.08890212761707389 -0.20728674104830827 -0.14648195398554686 -0.10959181104248887 -0.013043283748047451 -0.0008602198700907724 -0.15288792931405273 0.08457025839412652 -0.14019000264444081 -0.005323428701277034 0.0986624137568739 0.022569719673235317 -0.1817438939888816 -0.053386995541461646 -0.007049707459766053 0.07007493460057967 -0.12352259415336068 0.14213849613045587 -0.13514858356959342 0.009377314350373022 -0.11945179338125415 0.13391244740299063 -0.13928214043341702 0.054416326738729384 -0.11152033149934763 0.1535704392705973 -0.15159464040436108 0.11172119882829877 0.18119250547303556 -0.026742788577068938 0.06667717132348809 -0.05084804476756321 -0.1565620035919092 0.10442228804352852 0.05725602011846886 -0.22251326008694244 -0.1546812733551005 -0.08514163698247629 -0.46604700147766254 0.30007616731059417 0.13827761935554223 0.1128691427142454 -0.04589560753583428 -0.13741075324808427 0.04578971484018239 0.09194020106467485 -0.18704212686256627 -0.09224062265032926 0.02346254932014577 -0.09754428826696189 0.3284941753001261 -0.11220386967584475 0.1544222498020211
107 0.04115900472222469 -0.05952147009206556 -0.12051781546759574 0.0800045172522982 -0.05036775145421158 -0.20103726153381196 -0.00395128096989639 -0.011866017094352256 -0.08254520133215824 0.014532893889588484 0.056561235564765486 0.0924363546803238 -0.04560087582924828 -0.06659546996916144 -0.15761182923588632 -0.12324920587904438 0.04247584000645893 0.05317557137423883 0.22567848024249407 0.017161690057483667 -0.07199778123239439 0.1381144607337362 0.06087852006296982 -0.14125919031808426 -0.03334305438099617 -0.22451911897787843 0.09228236984419183 -0.1614268911748476 -0.04016103884818055 0.1146602343022412 -0.010867502635203764 0.06435352457017952 0.008971873174519088 0.08349559021552469 -0.048486672728311954 -0.05292751940160755 0.010459619498354552 0.08747612989141375 -0.0406671456436922 0.03720394370688932 0.09260137075048674 0.01960237344715569 -0.10985497003263968 0.11825591178095606 0.058793691248826045 0.004413079644001823 -0.05987932937312865 0.05975233877225886 0.08546463300248572 -0.1514251488726726 -0.06380738089566651 -0.017512259192099425 0.0077751927443616455 -0.05331102896015655 0.07164651951052678 -0.051990270966851417 -0.0421491041975144 0.014194220937024021 -0.05935735158626749 -0.14695999614642039 0.031073478079684684 -0.02439523766511266 0.09750047762993021 -0.0722031450517007 0.009661084983151881 0.056293215213386726 -0.05793929140147993 0.1601738482607127 0.018223723949822964 -0.11612312728893923 -0.09064889283839032 0.030541706496212778 0.06100197386006907 -0.22531241684904052 0.016625991521348367 0.024114057087934914 -0.1613160338472069 0.013889154056987527 0.030356706942429246 -0.057265495409526086 -0.0048162687433037366 0.21973769795399578 -0.11785230516026161 0.22520283857831125 -0.021482254564097678 0.12366033390368066 0.06347766366653444 -0.001494894873137245 0.029136497574768157 0.029547659649470922 -0.19920873581334497 0.01793931894332869 -0.08681652062432826 -0.12969199794838074 -0.10160269784178332 0.11217889391857654 0.13478551202338823 0.32480810360152756 -0.34114064565726404 -0.06887252405475149 -0.06814416832584341 0.45110539665200833 -0.32809311964182974 -0.05336122328250767 -0.11008582232289826 -0.3115257222566438 -0.005580915975815706 0.23173344210452057 -0.08353731152999451 -0.16836516239943855 0.3240333201784354 0.048763106471812305 0.1243155725957849 -0.21622688440242507 0.2542364782408578 -0.2790434518113164 0.0891430665647486 -0.09582305789626899 -0.10183032878144391 0.010135858195066186 0.206523843703856 -0.03901338264015574 0.3397757986263825 -0.1937507669589669 0.06707478665642136 0.2518585084182352 -0.05304585949631031 0.1812698168477098
108 -0.07585723345164151 -0.03352584295104618 0.05829413342437975 0.19905906004074492 -0.008119382334763132 -0.044638089782862406 0.04006884332795071 -0.1115660088310628 -0.07558612794069586 -0.03393429901524543 0.18241714862699077 -0.12581949190978778 0.01684726448426503 -0.04211953648599709 -0.00785830409745579 -0.1465494992225973 0.10683244860142023 0.004925662932152115 0.08508517470427285 0.04998811776384519 -0.017495125145735348 -0.010956026144021804 -0.0992779196947089 -0.12234183667452338 -0.03575665858599477 -0.09325703839082244 0.01631532959060466 -0.09284207835428918 0.041973438465556755 0.08486543977781234 -0.019272787262825282 -0.02347400147857574 0.06587319293098162 -0.054972035829921384 0.03687936475480775 -0.07697049430943567 -0.06688829321654423 0.05925875848104838 0.024361700612330256 -0.026163215242263598 0.013002397297922645 -0.10248548905624355 -0.04123146173602523 0.07756356126371061 0.1093354407985122 0.11521615666674094 -0.1498619936813354 -0.003507092417316789 -0.007634980840099898 0.1794205957680315 0.06357898942536575 -0.13412584205062603 -0.02550839647394897 -0.1643825633495953 0.03981447495824949 0.13105953449498056 -0.041745079643629106 0.03710505326127709 -0.13630032750342636 -0.11935506391257046 -0.10891771016387795 -0.007109166552058271 0.1035398552879366 -0.08258696279206325 -0.09121057589340932 0.06281199385372987 -0.12480839749308033 0.03568664722550223 -0.04320588755262856 -0.06129005707965927 -0.07180348478016278 -0.15181426162846237 -0.014675978150706766 -0.16923017345298136 0.034209240327342884 -0.1258516375143211 0.031231727656238373 -0.15454758670588795 0.006094263866091461 -0.17218222517712234 -0.15453311443656575 -0.013684740140525994 -0.13443681717056993 -0.23537134196680556 0.1896463513866761 -0.16305953677487475 0.12042215767263195 0.06048913267613407 0.09824658172082971 -0.02937057085425584 -0.18173912995670854 -0.032165188516365684 -0.18041606381470834 -0.059710354146850844 0.08569116835095893 0.10109020439361402 0.25537398928242905 0.2155510199480372 0.11486456895321172 -0.018058051607009306 -0.08754392503688474 0.29489118288732163 -0.10745210112503252 0.030933846444377414 0.043382909044269634 0.062019860273172904 0.05544375470415788 -0.18646561997641636 -0.09713487442043707 -0.17530838708774163 0.08768765035870615 -0.19178427635216128 -0.12424488296723295 0.045660288150472066 -0.05682196134665205 -0.19338377986252608 0.0952161342604417 -0.11052485609438417 -0.025696363207763976 -0.03158146208029341 0.028454265668724745 -0.1961149403113329 0.18566886103280758 -0.05553259553170311 0.1145944083232466 0.11159260833277182 -0.05697319412380307 0.13630655110370338
109 0.09018712264447289 0.03544709816006801 -0.11917879511611547 0.07294506856324906 0.04196147077322331 0.06281234860876542 -0.0644909298413824 -0.074345498465648 -0.19176835210929685 -0.016274949512298353 -0.08958326282415092 0.11611961833931664 0.19184351932996688 0.02326697252791464 -0.052047744657468385 0.027391990235170024 0.03949503065447027 0.11538536471496533 0.05672139323016523 -0.018154209535728046 -0.04386557452543954 -0.001068460712105515 -0.08130066253559183 -0.12937856281156362 -0.0017452374923204554 0.203018351839848 0.06863539363745848 -0.14001773387140173 0.022576118070100577 0.11147053333898928 0.03077385145737071 -0.012559042982214833 0.0711460555808807 -0.028644775941408376 0.1296663340095408 0.06748436460366826 -0.047514650869415434 0.18050547943596706 -0.01682386683854738 0.02110820252735621 -0.13454331487022048 0.021218778508208 -0.06123450085425637 -0.0498423018763308 0.038159494357270146 -0.1218687315758117 -0.19360226228812893 -0.0451375969398671 -0.018668645788544085 0.03748145805005206 -0.15473766668352024 -0.08179600508529854 -0.07475968239897886 0.08812173799698463 0.004411409531451748 -0.027598751390473932 -0.005709673533165465 0.06663725622335803 0.017274654121559277 -0.004978490869342677 -0.05832807451442898 0.07797576320156267 0.15275970875047334 0.009259478797805257 0.11979331379784892 0.08913295700978036 0.047152925668781855 0.09055172328362865 -0.06658767969267262 0.18242593513455344 0.051044346735439124 -0.13116844676558967 -0.04748884194968249 -0.16254841384255567 0.04795608607738849 0.011414675791114931 0.10634513005505097 -0.20762610989603303 0.013811087034251586 -0.10717642895195743 0.08460012207463903 -0.007608935731985275 0.07984183819200887 0.025900013350111356 -0.20079376814563055 -0.11612864516947355 -0.061523068046447874 -0.010005779504584953 0.057810209800299016 -0.026112331581814637 0.25739393739912314 -0.042841153333383605 -0.08905584526135442 -0.23397763474379382 0.3037861244103485 0.03263940172778524 0.35249414711483046 0.04208471527143906 0.1712759987893689 -0.03528247684110251 0.09524967673868501 -0.0885912578130266 0.11441214468502732 -0.05034429163736813 0.04958340514391709 -0.06579278594283947 -0.06005007462709156 0.03841354012658774 0.09885962593682686 -0.07579019309776294 -0.13597876453113053 0.00475609967626252 0.004589958134046235 -0.2525136268789967 -0.11613070916815009 0.07878008195120796 -0.07990771661225055 0.05237120028104055 0.02156955879100317 0.17861828396614457 -0.3350455536485466 -0.03520499418828597 -0.30024503731416224 -0.11525326781094124 -0.39900569197262636 0.6360408508560166 0.0856655662054459 0.22844115208127902
11 -0.07899731910886836 0.03176533460431358 -0.2692497377164255 -0.1930149226036617 0.007280235521578836 0.07350191070389213 -0.021585192372734416 -0.060103652054438066 -0.1892109379946025 -0.009339913928877964 0.11404303100914404 -0.030277867349101126 0.02879965040119389 0.31980272817775707 0.07461070246425693 -0.005734023965643277 0.12936327124305372 0.05003654689376589 -0.07243176453420222 -0.06486393656307286 0.05152752587601164 -0.010322511576001604 -0.1627677879232376 0.06563065987026281 -0.0700949840363991 -0.11788749769037493 0.08641231263030916 0.0744268868428578 0.06888749807412596 -0.06751983295670551 -0.1305962075507833 0.1396101989274624 -0.003912615224423427 -0.09510108711596761 -0.054996620895916636 0.03546808060848683 0.14570505511152076 -0.09524873050574455 -0.054285280113155435 0.08757242566779748 0.044124772750965956 -0.11901141765241778 -0.18533180165271695 0.008401227722694195 0.05028529222035705 0.008126781830076677 -0.10386720683701395 -0.032670036764845437 0.14282256393582327 0.028529876459791936 -0.10297705633945187 0.07644938117404754 0.12455667966778497 -0.010763529348000974 0.057338874449243654 -0.05963814265986711 0.0889512038121431 0.12081769843108482 -0.16074421953974574 -0.1766998340098299 0.06446429753601324 -0.0686314034087481 -0.13609782515440946 0.15977985701999095 0.12792994431426036 0.2130745057991656 -0.20421238187081892 0.07653767907537609 0.016931082099852727 0.09259806602957776 -0.25478591616315777 -0.10440515574844084 -0.13271567514843885 -0.06421498928741312 -0.1308357681285779 0.003684927926129426 0.3198641776424014 -0.015636705609209493 -0.06790776185740713 0.17487486102574684 0.21488381316000538 -0.06605352967378256 0.12600039509179445 -0.2728295537087064 0.1874161615593975 0.09485039410126286 0.09045896202469311 -0.13368447660642493 0.2040659148997393 0.16878003986020404 -0.10989742252977745 0.005022914987947234 -0.02605456914144625 -0.16313323311591102 -0.20827911025970597 0.15742677266449043 0.05188318304524443 -0.006433073473409173 0.12688929534013102 0.03913212621903383 -0.1023765061783097 0.10538871043430822 -0.20376347702937517 0.10112937202820549 -0.032536833989384784 -0.06254221485328834 -0.07369963072647638 -0.26935357336455557 0.04116093095580705 0.5126116433840994 0.03407440350190296 0.09482836454725833 0.15613527770675256 0.18976606220356038 -0.1488983800228991 -0.32640603193958934 -0.3546812518762086 0.3991334705734988 -0.05195853966153481 0.41209364273257443 0.060386560913620185 -0.15602423466721235 0.16065714930787459 -0.01341299632505621 -0.24544427051748033 0.06380181546616467 0.1489044194657682 0.416727102774378
110 -0.04768132025073613 0.02458098122785533 -0.08511504601433065 0.034121764398613426 0.03420648820204835 -0.008192496555748656 -0.10244547586787656 0.018978616209465223 -0.0342916158674627 -0.04918487009301753 -0.09965730174953338 0.08956653087260766 0.1090202102939578 0.01334924631762981 -0.005829617575342095 -0.07823998554553326 0.011683688961468609 0.03124968216779678 -0.045589288161370624 -0.010682708829331597 -0.021955105380288123 0.11311084737707841 0.11084830050011861 -0.03164626054790409 0.014712888386036132 -0.014789466144954222 -0.0663607637686925 -0.09620917527900352 -0.014183144963550543 0.07013096116663727 -0.011220268024289532 -0.07988066401306274 -0.032954143762359014 0.024522777049944284 0.012491689151260258 0.02251780745821177 -0.08267429220152935 -0.03821251954806644 0.06346712482544685 0.015850927209117942 0.02217816514601007 0.03841908210355974 -0.01711815588990782 -0.101204988333724 0.01953889660057732 -0.18421598650193066 -0.01671051585841724 0.198242073470664 0.11833327972494789 -0.020755358591127874 -0.024638527384645725 0.2172152745282578 0.009518064237482242 -0.0015788993309987398 0.20209363485559062 0.07976076911494138 0.01784086790874419 -0.0031740440327917493 -0.042948305383990415 0.0689336507545055 -0.007906678498728167 -0.2224559410266108 0.11413285440361695 -0.0982242411467485 -0.07144416312956862 0.014659238484992168 -0.008129341967535323 -0.0012419771295556434 -0.06620381534463984 -0.027157048257608462 0.05132585740817892 0.05492270620832021 0.01882734408183891 -0.03595825516092747 0.11043967105123587 0.16000430338829005 -0.004370265507228605 0.038706448972174706 0.13154704324697683 0.0609855571322239 0.010478319271429365 0.04453486732904728 -0.004598546207202397 0.09764770268802934 -0.17179854186957808 0.2434211016879686 -0.01819554072463563 -0.1327946650744996 0.027889367504499288 -0.1191061761100014 0.266286263634988 -0.07404284865370686 -0.3500145333592048 0.20141625843600255 -0.0720586325254172 -0.18771423121550312 -0.10226314070925693 -0.11966365685893836 -0.1827822758538921 0.15315105600739018 0.0148565088695013 0.07054775013875168 0.19446186715160668 -0.19500990335332002 -0.0305083714781758 0.06676027016451559 0.20378359350231953 -0.21970091084419757 0.1917690758622312 0.1592272913520265 -0.020049447749693115 -0.13170061249524279 0.035952573051399574 -0.10721557682647255 -0.2090290076295609 -0.35424153809922315 -0.026400830197839016 -0.027151104429617462 0.09181223170719542 -0.03998274115133444 0.07797760523272007 -0.1649970569479726 -0.2072395277129057 0.13222889925493814 0.4462362064944274 0.14361258503706284 -0.279347970003004 0.21348035881638874
111 -0.13795314770308376 -0.04598758443147864 0.03972197867730998 0.10310518406549776 -0.01740726562058703 0.0838813539891068 -0.0625736111161504 -0.006056086347411077 0.1481939827125957 0.007970415330181183 0.05989413709323757 0.09955635856154288 0.056628417080286965 -0.18057705621288567 -0.026580972846420456 -0.027617760740986888 -0.020716825112292475 -0.0003309074658010707 0.013257990897908953 -0.008646201339844931 -0.026130605776261275 0.10615957174526904 -0.06320148515661005 0.08222877119846826 -0.08178274328914645 -0.1628406057374064 0.06177788192772698 -0.09190236629260232 -0.03964100025633336 0.13645989669176883 0.05914062685935766 0.02781565484064475 0.008588031321036449 -0.023020207390643685 -0.1038077886427217 0.06483918832383312 -0.02565094102631866 -0.06539311705531922 -0.052394866248668646 -0.06698980253350843 0.14698020501359735 0.020223028857547443 -0.017419199941069465 -0.15456434441183298 0.04020865485341301 -0.06525762584652103 0.08350351789567413 -0.029504864398504044 -0.12022582332321254 0.1502583560918271 -0.047472002504793685 0.023756281141360684 0.05994643043689492 -0.07747140359963682 -0.012270512895752875 0.03650505658799713 0.1037290813346602 -0.03002914229149515 -0.09006858048935108 0.05051715204718668 -0.07331012175583204 0.10131586001807934 0.2920488692076709 0.06301120596873258 -0.2281486144523238 0.09798738742711754 -0.15060876369013196 0.09111086941254148 0.17054873675511387 0.14773957974024196 -0.062179906390335854 -0.07240030001763989 -0.05400421565158237 -0.10926035112805738 0.051530188232001846 0.059980522565478936 -0.15697575806360906 0.07247263695356534 -0.07128093197995111 -0.08055444497392818 -0.061596429796584896 0.0500048191683403 0.15272929496391516 -0.046997313647555966 0.14493749687069474 -0.05573448989654326 0.16747964615469996 -0.03656749756475741 0.008632924929192836 0.10515415907508811 0.12647360114362718 -0.0852459198513566 0.012875186234804149 -0.05320703139675146 -0.01656578384548326 0.004190391803866892 -0.033993480355038415 -0.18868838278858494 -0.01738223723123498 -0.2043038590681724 0.09034116248512428 -0.1513923330310433 0.027238328803798492 0.04264184114895873 -0.140212269137698 0.33676580786344357 -0.09562618537323125 -0.16833273627225825 -0.059717902731603906 0.19988533405985834 -0.11721790797372002 0.029421562770804478 0.19824361224359233 0.32867244127829975 0.436554563016822 -0.04255670465236407 0.21565530742472544 0.24676341138293062 -0.4211836225453655 0.057508899521037 0.05383307199699548 -0.12712250420830062 -0.09200134046636495 -0.09661817481947768 -0.2289767227409123 0.4372277478696543 -0.08288916454462672 0.19242477246477085
112 0.018290485857204372 -0.038166727683294134 0.09253285024665527 -0.15419272725585198 0.015756487352598072 0.02776340732594975 -0.05203243829580692 0.05095016639220583 0.0010386610276626504 0.01075165758543507 0.011154716215955807 0.08324754036938406 -0.027959420212628722 0.06458119714655594 0.022709306162401164 -0.06241976196287133 0.0781763066996275 -0.014577221992502234 -0.05487692593438049 0.0474146254124604 -0.03623260130440212 0.03180414282153709 -0.005756158012240657 0.013454929683750078 0.25594717571677245 -0.06544977758309443 -0.026679737331086795 0.09323035233398524 0.2935413481557928 -0.007477822585023506 0.17823202514690872 -0.13749434018806272 0.2809123595804199 0.084368925635098 -0.22406263508297622 0.10076497489641127 0.1411598053920032 0.021877268005294825 0.020385684907726114 -0.000460084460369791 0.015938391375087842 0.20703943915249337 -0.19218656044227608 0.04836205448764249 -0.029885967046198513 0.14179806183344043 -0.14815703600380545 0.032228413001344436 0.003967772287023039 -0.024520398111338913 -0.026337522824119938 -0.003889761063173892 0.11100248068548185 0.09497924628166332 -0.0399528293594866 0.06294384899764732 -0.16478676054766697 0.10426350927784456 0.01266812932886467 -0.03170974797586477 -0.11373756468906673 0.0037586573250081587 0.007958997141671632 -0.02437915128896546 -0.09630182309114785 0.116612807176319 0.05668986558810887 -0.09616862760433481 -0.06727066856148035 0.07038831633836708 -0.017990318482081942 0.08978195622502508 0.07766372460203667 0.07242845605101193 0.006343130967803811 -0.012881993154528829 -0.03379547041038908 0.15712480437948004 0.10729119814051172 0.05389187079655577 0.16915219114999785 -0.06331632662564866 0.08424414903247426 -0.020635975897858642 0.0182868858658535 0.046459539593726756 0.01668074767879802 0.14319075104574253 0.17025852447459922 0.16487166356819694 -0.10115719712853488 0.26027122515309653 0.024123613774952035 0.07907775552682104 -0.06270208150636171 -0.04212477129729918 0.4283079889188035 0.18424170957766905 0.04046241732178362 0.04254885241457944 -0.09338607061581582 0.244726538394534 -0.13114086627726176 0.1485516516397878 0.13390673967056055 0.020936474362598777 -0.1097012892333182 0.31162081469913433 0.1596764715559415 0.5529851466533133 -0.5033958636602299 0.15340134008493816 0.09051430430249546 -0.06157946647395461 0.038591505626519196 -0.08299281961971636 -0.388088753974406 -0.23870455141937552 -0.27417785583212084 -0.12045398735314279 -0.1133339779582747 -0.0248616730186417 -0.055232466154304695 -0.0780234303089196 0.16454716625494922 -0.2160335707534439 0.6809264685334369 0.7614183955719531
113 0.03394659242079693 -0.009107850392119645 -0.019098224824691295 0.0761770093677384 -0.02917778093983966 0.040162359900479595 0.09359942236692517 -0.023180953813187074 0.14934755462281635 0.027156426369506607 -0.00869689156628329 0.11990610487028545 -0.011743711887938194 0.023732903353660233 0.10082084053939482 -0.0736952687711645 -0.13214250907800887 0.04060697624264436 0.1629203886411946 0.0007288270741157744 0.0705156177607732 -0.20835434246342746 -0.11162747338515794 0.04646046557161767 -0.011002903433649723 -0.027460647457805444 0.015468051303052567 -0.10089061529483066 0.01364187293698446 0.005787000078309044 -0.005751037552882911 -0.055688672325142484 -0.048345043522475206 -0.05111809846847167 -0.08206108289694643 -0.054279017499771674 0.10828916351738091 0.14680348926883904 0.15827584637804706 0.041911341730577735 0.050929687508663606 0.014606644683319113 -0.08413185507187411 0.029574020432937168 0.065926898615066 -0.07853352928885185 -0.0179085485842115 -0.03487254002073276 0.026315645452136237 -0.16061456859214915 -0.028909622926990862 0.0713775903074799 -0.039552413400254366 0.026196832215903847 -0.01886936687079579 0.013961506669510456 0.06528809692129332 0.0077990100758310735 -0.03383860586740807 -0.03468090725671991 0.06892356047812835 0.08961968664033224 -0.22438701212501325 0.13821703821825002 0.05320851748197498 0.051501445282089456 0.09534103646235263 -0.07757847043931178 -0.02214269879395859 0.04853855035617556 0.051274235544151475 0.11247513165105259 0.23025057339474703 -0.2388905232944801 -0.08086869658585649 0.006228801523450755 0.06607571005652707 0.003058750260922257 0.09178858918122525 0.09302694484431241 -0.08796046987500046 -0.05402723751571376 -0.09449278888562297 0.15278813029088956 -0.05965254834571457 0.08030359441816391 -0.041663129714250756 0.04180869151269693 -0.015017470117918446 0.13503629257938485 -0.022300014265932113 0.01552104615045755 0.003690919531708901 -0.04172315951331302 0.10235490988821508 0.21491954322391643 -0.11182433118500885 -0.07761635631750305 -0.08116452056479247 0.02711964037576317 0.17771693270527966 0.09298034905296369 -0.12152659434683764 -0.09824738101150314 -0.024737409304939215 0.016234859014817044 0.08974053359338793 0.18412549111624027 -0.02381140992869562 0.07105014071090875 -0.0033086172530797423 0.26377285579369786 0.10526938738029022 0.07064047204180995 0.0043220801503495955 0.051973338254517276 -0.01191325492300494 -0.3403946959247915 0.27552149959079975 0.19270474795915438 0.3075921420769945 -0.24502376219208094 0.07234946941492804 0.09006575618572994 0.18314753748754323 0.3184642034769409 -0.12050328561724587 0.13240698265502066
114 -0.00821439303646608 0.06744430494649772 -0.027538789753203546 -0.1805685612175106 -0.033428604403290374 0.021079900371191514 0.01616756410109044 0.009116209571545637 -0.04924612370896748 -0.0666388456548952 0.15305198948977933 0.034444884560217826 -0.039320639944443465 -0.0021538222790468504 -0.012191756489148584 0.03852778305640837 -0.1424858927358743 0.026115902973174017 -0.03145831383640051 0.024488098653510777 0.022437150383857126 0.044781355532794165 0.04661556455887907 -0.0425799086725574 0.027518885913688926 -0.033767832952835974 0.0486891624415668 -0.06623092308645646 -0.004327191230276869 -0.04533520324461052 0.07202689063135995 0.10127002728568008 0.13011162752198518 -0.04635946958055649 0.010296901121525393 -0.07871990746062972 0.08333674115585231 0.033731863739184534 -0.065746597533892 -0.025332687295492554 0.08047393652461254 -0.0718416972189088 -0.10577216045088547 -0.2239766458024738 0.04673811620316257 0.036065658819687846 -0.0557065025900492 -0.0027788050810688557 -0.004958611534360533 0.09141663375589472 0.2084824204493359 -0.0502997858371689 -0.0441544413056985 -0.08394415298931295 -0.00232908170501113 0.006775877189103581 -0.10066409313584332 0.005499630375043752 0.02639321612656964 0.056657598765687836 0.04683891306292467 -0.0514895643911132 0.02884848660139924 -0.05883628279062996 -0.11275048880893118 0.003997704204555582 -0.028201674406641 -0.017792708925214323 0.0008469332806589643 0.1866770985154673 0.06940647955447785 -0.20093219226756864 -0.10572217362190586 -0.01984816482750982 0.00683994992918045 0.028180145801479883 0.05828522192187031 0.021276783952229737 0.06347267226008045 -0.09782143570974684 -0.021187304012010966 0.15367039249475817 -0.12367439069023363 -0.12501657463822705 0.0394322393339653 -0.06797122899374244 0.00654793067686581 0.04956383162538385 0.0873392881524045 -0.010486362018134025 -0.11277207931705191 0.1316820166830542 0.023387537918253782 0.06648576011732149 0.1654587089385733 0.08604014844738678 0.022674452844428882 0.017268279073329125 0.03410176290278163 0.3119100174390237 0.13411331527114476 -0.0035277684097031656 0.1444796490830242 -0.12095793718162824 0.11520529503031748 -0.012704851341958501 0.12452222273714954 -0.16106977461250332 0.05071001127881014 0.07171482677407531 -0.05141057825183306 -0.10529137572634957 -0.036321571378769645 -0.08754971511707224 0.06667104248908307 -0.20478522608061148 -0.0050825490617463585 -0.030563003011972893 0.022828649281299924 0.067711024837799 0.14702358367209192 -0.2340619337657456 -0.027269288537017884 0.19681835392037195 0.23668555703395555 0.2382598727438249 -0.12974015456585894 0.12110325447280107
115 0.013028971761267877 0.056877932792942586 0.07397481599488652 0.027342663090990562 -0.06270892406522385 0.022093962820575647 0.04115320423623332 0.038756979962431264 -0.07159426688519865 0.018710529734865637 -0.024929037590459904 -0.02890974591062954 -0.02067211754440885 0.0279080262528685 0.302975526544471 -0.02274845015295342 0.0550238093344792 -0.009267661021293122 0.12039846328506927 -0.05990715255851227 0.1479640478150686 0.08706601665703269 0.027887123244447157 -0.04035136733140365 0.05257417038998952 0.08468746918500779 -0.031372331344598964 0.03773277378438926 -0.03228018885437094 0.023625495853125175 0.0008263980463973155 -0.020395007711714576 0.004867727210142186 -0.012700045063782276 0.0458345420027311 0.04949794895508963 0.012110508351145929 0.0049070272725479465 -0.03665002065159548 -0.005930439189581453 0.018057246477641987 -0.021825591110828626 0.001778898449499102 -0.045314318862151974 -0.009618820108223852 -0.011483491248594614 0.009524195204076895 -0.009614194718732781 -0.01967939350117694 0.06211864486274868 -0.03586263497060664 0.0009992475603474553 -0.014366669378064197 0.029984577140285996 -0.005368410178949269 -0.0003605593293163252 0.037619336242291336 0.014981464460973003 0.010168940685194713 -0.0018704487415853643 0.002253174610650395 -0.02211750232131567 0.11149961544910653 0.015360403057689149 0.015812565858159194 0.029609778009907956 0.10441882140572355 0.11036381313053702 -0.030565510864196597 -0.03975764202403937 0.002051373580830628 -0.011646611928484667 0.024434064737978305 0.03743117383277918 -0.02791979853078136 -0.06932451420744866 0.1303617691218542 -0.009875775558799716 -0.07886408803875669 -0.009172798814215625 0.0630301375826961 -0.1221131112354249 0.06635067396537915 0.053742280176563406 0.07432982128400796 -0.12280175886743148 0.04767684903107154 -0.05573438954269415 -0.025654906224621066 -0.16960503801469023 -0.03778658782643564 -0.24820438476189227 0.008508359684712278 0.046894825403330044 -0.09394829553484059 0.2371429253530013 0.031615679851396475 -0.12681714135132177 0.031147649951818724 0.21592718039281977 0.018841442107268923 0.012422471771359508 0.006247666645530854 -0.2524603839460931 -0.22492029527468815 0.15348580249685245 0.023338255485233637 0.14635565238222611 -0.062455974415195833 -0.13059369733159973 -0.1966048182608345 0.18932134005639548 0.247787707743726 -0.46074923878010665 0.0026597123608328417 -0.3371793552518363 0.25594892841393946 -0.045335280668092316 -0.3558279855213197 -0.09233891457801047 -0.013855033684443066 0.01407711519629224 0.9396142524736568 -0.5753846080315479 0.09783756143017147 0.15141434087482572 0.0231000868574215 0.30954160564405997
116 0.024963590635911147 -0.023206477575704997 0.011878467401201503 0.011619842496648701 0.012991804868362886 0.020679420898493034 0.1340535319324158 0.016228849402105575 0.005224818973558968 0.004469104041931097 0.06961362404293875 0.05767459379241935 -0.06462381106120174 -0.003995131281312648 0.00021162298471123143 -0.06059409813357902 -0.00703708447134807 0.023803763640318023 0.027780962243110056 0.012471549629781663 0.007371329415604417 -0.10538092102521612 0.0663557856670084 0.14501869386843577 -0.032180384469946 -0.16905923962485692 0.0562558974486036 0.10253866773495783 -0.014155257022982683 -0.01933194729572291 0.11899011857761532 0.07854149840383896 0.012950175187102397 0.02842661343136894 -0.11708145004750882 0.01637124984575077 -0.0635200755636135 0.0020713829730948053 -0.03392266227224703 -0.07349545573614874 0.017952240074481454 -0.00409884306379555 0.05993539288806961 -0.07868612029927533 -0.005551711477974579 -0.08545422970346744 -0.09341428618014798 -0.044514924236931874 0.06285596967248844 -0.005950473044513667 -0.09827395340598559 -0.1406248922462726 0.04296228647950464 -0.10523472148057451 -0.07130021599051693 -0.1983554793509881 0.04703442400508085 -0.10862478926731074 0.2054807933855373 0.12102630702963085 0.06399103994093827 -0.007124302458553675 0.017873661119553633 0.015624398833690996 -0.08796406696486708 -0.04299472273443238 -0.08021862644822547 0.015225707894186834 -0.14002337308514207 0.12140838179334604 0.04360280529031333 0.03836614309454298 0.004666795216327121 0.07567989751099377 -0.0064998105365769495 0.13611322669799286 0.0032540222583569726 0.05577212768780686 -0.010346231275759121 -0.05112445763804618 0.10898906306770538 -0.13904169785596907 0.017267296994314937 -0.15941394952917232 0.13024035024384564 -0.01601141991757099 -0.14817761972640373 0.09494929510721722 -0.2481534927872855 -0.25795040196080327 -0.02333682514458207 0.05414082825841593 -0.05065886099329227 -0.09087998723615331 0.08711036177694129 -0.14261954043336283 0.058020439811490736 -0.04408648631627706 0.02899702003905056 0.10564061775322751 0.03770682774242227 -0.12673226304180868 -0.022869970539214645 0.01584282237807437 -0.10460174559727904 -0.061734099720895594 -0.1170059835927548 0.10167260651194962 -0.024400135968041754 -0.03029104943992042 0.0044496993086217615 -0.057600690460636185 -0.05452151311139239 -0.02630916338747428 0.04475223935970697 0.015584435502147933 -0.023441678142278908 0.07957376819097267 0.18870371070582484 -0.11873779566809585 -0.004355802607731386 -0.2774328881862792 -0.04053762629527072 -0.019465726867759103 -0.042113819520654384 0.2029913837768184 -0.022162806688531635 0.11313529357208198
117 0.09921724659820008 -0.019944152197719972 -0.026411299509825605 -0.1367191642227471 0.007925071097190848 0.07377219959438587 -0.10799975402399137 -0.024765552607260998 0.007046596204549273 -0.0008433398219947854 -0.0001483204694205813 -0.07112664542835 -0.21368637966895218 0.026656998237581223 0.025108736878891817 0.054664006110073333 -0.04980622724349458 0.009403355320480302 0.07004018508682212 -0.025629303410486137 -0.017391063839974713 -0.10480156117357332 0.0362695889047852 0.06394290858054771 0.007970190709411216 -0.029476618704413142 -0.014158147183495768 -0.0006307129783087073 -0.0073406894536496925 0.013992194267542127 0.017419043519548615 0.009364843469517993 -0.008292612859635827 0.009091465241070523 0.10685085123942577 -0.0026914122463663178 0.07782680194268154 0.034536282571867485 -0.05386555329756185 0.05534774991506088 0.09242378812074618 0.027079160916651922 0.10628835972604199 0.0157444918588559 0.04870910392604655 0.0036973450276402736 0.015024217769688321 0.07285533588682364 0.03741852367603318 -0.020197903424307023 0.2360435175267327 -0.036346845938696935 -0.133938540895476 0.024583181498917223 -0.08542497631500355 0.054221488723001754 -0.1372777797367585 0.14988092445737317 -0.15372786959486878 0.016721770343620275 -0.04927771598902699 0.036071023707645186 0.047962946676977036 0.039890909189066154 0.03434353173655377 0.019451923519357695 0.07407485541643327 0.07970553118952134 -0.0769359463458725 -0.20749360277891235 -0.07512488474924366 -0.09004428748155602 -0.04985098520630751 -0.12198072530204754 -0.01111479716700792 0.1374552404170922 -0.020213390115991367 -0.030079143133652904 0.009145532057281294 -0.016705093060179782 0.08070001288974589 -0.05496863433749562 -0.13933041053916365 0.07127645591633491 -0.13859747347507373 -0.16142511005297977 -0.037755260518455944 0.04801686326291531 0.057606880683476504 0.07664249996417687 -0.054420737172426736 0.036481089195790906 0.02268976879012462 0.04117458313970219 0.0867921587416649 0.10563220950893835 -0.05744604044736162 0.012946302496046001 0.1765872636809444 0.06720963265587804 0.19901455881673494 0.1539737433289329 -0.15789476790709267 0.13046650721415465 0.0401097103794496 -0.13416042769066144 0.1000170149333712 -0.04486111604149772 -0.012044239787982115 -0.02691387351209385 0.0006251574800790296 -0.06310136535459951 0.026116257122910855 -0.14267303587019717 0.14104537748214854 -0.12077198243786237 -0.004154560095385009 -0.06141442983240732 0.030445031822766408 0.0632669270927309 0.1848344214319939 -0.26936105360248985 -0.0553336952078748 0.10985867798814446 0.14388600132179358 0.23165832274292236 -0.10030011575956954 0.10725011642944285
118 -0.07587217650688499 -0.04349362769220595 0.007351630392010854 -0.04554589682911379 0.05062861604634379 -0.05347592867428421 0.02268074814461431 -0.03185003651981888 -0.02175877811793191 -0.012356885866079784 -0.07216662808967517 0.007939488844365735 0.07518127578916015 -0.08733149211162139 -0.007545085123046241 -0.08962722232464332 0.10507694794402393 0.037359127683259594 -0.057853306148919106 0.006294549034476808 -0.015453184263034471 0.08656307506287668 0.04943650447759302 0.11312030819943333 -0.03153261564913751 0.17817912134818556 -0.07279966699518825 -0.10796806287651955 -0.022768761094588724 0.030838425633443415 0.04893371854889281 -0.008799369461960851 -0.02849425995839708 -0.07988083365347691 0.027432767222552244 -0.0654681489135432 -0.11542146376317788 -0.09345486777676294 0.08110117055433393 0.046931993540578254 -0.0069017911358410676 0.056759258089627375 0.050612562403432655 -0.054977773265917296 -0.06454485858716276 -0.054794743533303845 -0.19681429242590417 -0.010890388885763954 0.11278943416278676 0.11568780108730545 0.006477292271765578 0.0010487955556876811 0.08801995093778166 -0.02165832218050297 0.05209614777392848 0.0036350597131766032 0.1184248582675294 -0.025787589843974393 -0.04587960859111729 0.026352929305811117 -0.031055545508428224 -0.03861976049506897 -0.06136888931669861 -0.04843054716242528 -0.1680564428478901 -0.0031425829804533362 0.012650147494251735 0.08710295097065865 0.004024217183667667 0.09589592587200721 -0.00843449079512828 0.06188355701151621 0.1296440658914891 0.03525161755632193 0.02514458531529166 0.03951376384534539 0.09357720446667624 -0.11965973007037072 0.07429814892612226 0.030038706141491303 0.04858726140721507 -0.08863063918261105 -0.010040035065825027 -0.14421055872894784 -0.02061880388065488 0.04939318209249903 0.03716877530634259 -0.038424031954259884 0.025682752570401837 -0.08038498032755338 0.2588650685182685 -0.101173038830356 -0.3639798202035184 0.11378651282347245 -0.016777233881423 -0.11311660709294905 -0.0596859819685254 -0.1379246220361117 0.0020842205803495548 -0.017674308058671 0.0313747606736705 0.08035898028289239 0.005100599046742478 -0.18873449616055796 -0.070281367174771 0.048726021327165636 0.22854900766165584 0.0028109677444808356 0.05281188225285258 0.03494579509718308 -0.00691915544330748 -0.020573452428347523 0.09166872891917781 -0.0022157633459761036 -0.24935352107546796 -0.3580349530401693 -0.06834040686461768 -0.05584421015427354 0.12569146104961404 -0.022794425532930988 0.108938090292805 -0.2111902179026359 -0.20822814908821324 0.14280443733572265 0.4067272828660477 0.15535283145059797 -0.26064932979444017 0.19944258990018007
119 0.034456824314106856 -0.18145980079833723 0.022024181481357322 0.00899383483788126 0.10835912856044311 0.051725963287093675 0.02565887406715619 0.09710280397784135 -0.005047170756740191 -0.03779374174609652 0.029947108588381843 -0.028109170059831365 -0.026457446413442935 -0.02229782993453202 -0.05966902854372017 -0.029198168148036333 -0.005716573092904507 0.11004177629317906 0.04084868724313688 0.07860317976848329 -0.0733369503519358 -0.08090981963157752 0.06132921530049721 0.03447956959551014 -0.0408860627885221 -0.00884847440678582 0.04597640530402081 -0.07617372410631643 0.00024328421851397113 -0.022307644331123012 -0.04629857236121997 -0.08691716101490542 0.08318942952691462 0.10521905994307207 0.03346499853245241 0.0250585827173527 -0.08269299581874338 0.014662904911409319 0.12251029747573172 0.030689752533367892 0.09708474038268756 0.07707042975283833 0.029900109327440035 -0.213235313384655 0.0391782953238282 -0.04717488857131631 0.1282375841844971 -0.05202174407903785 -0.005641165414329931 -0.07407777258424873 -0.033480799654386856 0.04036816238167668 0.08382331609403883 0.028988730677266844 -0.06887349784376831 0.005304284650229085 -0.012036997223276733 -0.022187000952780565 -0.07992937354571895 0.033122940228414076 0.020831617043675112 0.010233385357564118 -0.009361368720478777 0.051680484324308815 0.10033948104009671 -0.04009885173607028 -0.09340184386299338 -0.031232754847180366 -0.0838937335104032 0.06688323016986475 -0.05672498334394652 -0.1295160702596858 -0.015307974493572046 -0.15759948402857155 0.01594258735008469 0.05720351071105341 -0.09061540958909463 0.1681169265045154 0.06362101208857941 -0.05817307244244361 -0.03479427785068649 0.11086294446603215 -0.0446790251675588 -0.028706642646008532 -0.22546532492361324 0.03573888904848996 0.13411277110195913 0.025014789803091755 -0.009160895238377912 0.05373096850529756 0.06123803916566055 0.039820224177657716 -0.13704106812120706 -0.07043191837843019 -0.2375678168052671 -0.19176940603816267 0.0937283215399268 -0.13388294438050247 0.20300526298581978 0.07944283479136656 0.13826744789181772 0.11106724628923258 0.2583774988051455 0.023234855499528917 -0.2743213217274492 0.0402871700086556 0.04973756002602728 0.0753335050417202 -0.2200274093500081 -0.026347727306997113 0.004490958407533739 -0.015196911421353619 0.18423789533378837 -0.11253024651712464 -0.04847418260600558 0.08808469670030208 0.6737576112320612 0.3451529899472804 0.27576323923281804 0.4778842530555655 0.2835179536816481 0.0615809885504662 -0.045405553751118204 0.5671588565633442 -0.0669136278992139 -0.497456681410005 0.7758714979759356 0.9001814209153436
12 -0.07663604829044231 -0.0030805921750610703 0.036919397686655794 0.06382457028300105 0.013298465940239593 -0.06501336702880582 -0.005666792926690757 0.037259783153974636 0.05030222674581801 -0.017868658991537934 -0.09035039478478933 -0.09319559630965704 -0.19331413915752027 0.061484782247202115 -0.015142499932125483 -0.08795425157159133 -0.0510338652919724 -0.029859943013209267 0.020927165899162607 0.08197397999736716 0.05252944723244513 0.25627319631476486 0.06011469967155515 -0.00804674666046201 -0.021846418099946047 -0.18426723674830134 -0.009486552474111226 -0.044670234576980945 0.02647670361017275 0.011959159897065539 0.0021763457313249347 -0.05940238040141583 0.06283553746193041 -0.12710825177674964 -0.08695245896322651 -0.10003994678585797 -0.04886885834249377 0.05250345842322384 0.15459697309649006 -0.010567261369261996 -0.12409246436077408 0.09503037644578138 -0.012689845798212114 0.06965637631601894 -0.051829133004215044 -0.05916581525787331 0.09990863679580678 -0.048816324263505136 0.13409612018488662 0.023498811743334885 -0.1676883787097363 -0.09950883663633936 -0.15304556060578967 0.0033245014889606446 -0.10894167850639823 0.13404059109847122 0.08695945217741319 0.13974611321019206 -0.014721663648866644 -0.0621537724598735 0.043378234333715175 0.19839637612642907 -0.18992781397547273 0.14776438733666988 -0.03942826716163822 -0.21445514191561102 -0.008520790116147793 -0.011491453995922206 -0.1515957259144803 -0.0007161003316314635 -0.10513875457950424 -0.010564200968420649 -0.09029747118561278 -0.006683962806221242 -0.06725714017783913 -0.008655133871582382 0.036562683130038236 0.05411568512303261 0.08945123266249218 0.1631509316988511 -0.04252277798432625 -0.3829392010680591 0.11636566367487626 0.09673846417015601 -0.04849805289773757 0.0355518666567716 -0.21840570291874362 0.1273828860005043 0.014672566408530822 0.33872832405198416 -0.14747677131232845 -0.1555076483825972 -0.12169364580474511 -0.08234540425442553 0.24045706051824361 0.1527995689308592 0.022762130271432295 0.06658186437700413 0.20782758820527725 -0.07319786337271114 0.07708650976682609 -0.21647881530745594 0.10788307988980705 0.17198453262550362 0.012084993330445331 0.0034169900127553926 0.09619577774235147 0.09874581381940625 -0.3653683439429937 -0.14865086260641605 -0.1708458633283296 -0.009771800520131109 0.12615734852970426 0.06462807024169957 -0.17123597201990173 -0.15752918232068341 -0.04207864577622793 -0.07963651913511254 -0.010077267487602374 -0.01089653612010878 0.05763278647438373 -0.19814241243677272 -0.06476253815751853 0.20911132069943003 0.12611840886801318 0.14057569917565785 -0.22292407595406025 0.16460151633646247
120 0.036533580829519186 -0.027128622609824297 -0.10012912597509571 0.017652912646479307 -0.07048298962046592 0.05713678989754437 0.11370039067379681 -0.05165178497085803 0.05554854665878492 0.018964859740815576 0.16488801208840423 -0.07812320612265844 -0.02996361331249558 0.009591119161480267 0.036491267229697984 0.05117731998591546 -0.022982138528733223 0.060594873180798675 -0.02422342050202845 0.04269303191722549 0.06648597479472576 0.04617839163607205 0.008723200279788608 -0.035274674486518005 -0.027811781056237796 -0.08292377025897514 -0.017402594551292744 0.07466984045257334 0.045273199830255 0.04903345433382078 0.015011303023060793 0.009361042792904567 0.04400491593892192 -0.03182239611117358 -0.05846779963038591 -0.08703743730524095 -0.10110439495142362 0.022127146590988994 -0.004543655655414443 0.020289819170707636 -0.03142148486808659 -0.04140862463900762 -0.08678243098828486 -0.07892760787737897 0.051258865410015564 0.014770988525828919 0.0010937629339772585 0.21467528442659847 0.00023733798819584634 -0.059402496253794 -0.0856435521501881 -0.13465916533075903 -0.007590536314083832 -0.008708157521170282 0.1397751243154823 0.05788104534774624 0.05106479386341803 0.08135103247645209 0.19017979338770769 0.0436599553481291 -0.13120106785955205 0.30365941855610373 -0.08502402548138513 0.08456598485205559 -0.0678110262760879 0.03391360615320393 -0.11413034987812949 -0.020044886716016883 0.13914236234068947 -0.002354927228456264 0.08351824001413848 -0.15240801242978452 0.023318464160690257 0.06704958692152223 -0.07641764071597441 0.039535008822279546 -0.02265547677510958 -0.09466782381416222 0.004731919705586695 0.11908580739284688 -0.05595150649038206 -0.04871036252862041 0.14678529612846056 0.046629015919649915 0.005092948225915619 0.006698858877680603 -0.0729381249206115 0.20711725614938212 0.13371131194978186 0.13720729582502403 -0.19127714114960964 -0.13169059769588695 -0.07594829967845888 -0.12253943074872851 0.23721895721663114 -0.024977362517564133 0.07231422214244107 -0.08613702866489557 0.08054705465672846 -0.20218500160735312 0.13131297774231526 0.01686265908213004 0.0350409380831096 -0.09962010747021172 -0.0012220943759022548 0.09803980618276799 0.13033919528231203 0.16183491785283344 0.12096104439717881 -0.05370883003111018 -0.09772660692716603 0.18550844508412426 -0.1446964682445932 -0.045458273313793346 -0.20398877328847273 0.24851000434383053 -0.011657534703773018 0.27061633704614246 -0.3088308766007509 -0.11232221042223356 0.3644329527095886 -0.23394861875897807 -0.04278748338261121 0.17737098619427294 0.14126535259467232 0.22980988538234784 -0.1896588494736366 0.164445102153653
121 -0.12094184044792344 -0.049930246978128534 -0.054685380037388424 0.1608267823026598 -0.015471524565426888 0.06441047273497016 0.06068932189411461 -0.07384803106552448 0.1096327918248382 -0.03034911978278696 -0.10543584886911442 -0.08969515684658567 -0.08535225875195572 0.06253059201918965 0.0018024130637831173 0.0023572963918793047 0.18813243449754533 -0.009375286291895556 -0.07274598399234095 0.013574584195879457 0.041389390931231125 -0.05475491845569264 0.04465013249088652 -0.2383837247921597 -0.06387898009910538 0.018419559666996356 -0.036070201969187116 -0.09747966005651004 0.018718904039730033 -0.04775982971940997 -0.013942675433475132 -0.10241496498778056 -0.010835213953344674 0.01966355455322543 -0.13395286317356184 0.03161559751786369 -0.00027579914620091045 -0.03255889977087956 -0.08475029895771219 0.09029481722871491 -0.07697338982390112 -0.09278900113017227 -0.19359159753869923 -0.23923032575897657 0.05420486431389016 0.00768108211354535 0.00023200879440772753 -0.0955668830617887 0.06534161552098408 0.10678093382395382 -0.04038855064266135 -0.16825765978244644 -0.10439790632954399 -0.03553930703192555 0.09214074685533759 0.027602167604009704 0.0010198932370367602 -0.06644975107847388 0.03127316941090335 0.012846498972100356 -0.18451033490142024 -0.12287501075099669 -0.03404786537509513 0.01018093478592112 -0.1016322538251458 0.07860349107904936 0.00245669505115518 -0.2538162658045277 0.12823975258780587 0.10382937158917575 -0.03912049993434044 -0.15740562444309264 0.22811442654506173 0.01754840909780066 -0.21209835782167358 0.02467856987730818 -0.17709675043479428 0.0462363866795121 0.040219493634055505 0.013529688083215719 0.04721761083441267 0.06836999380643165 0.007634254067987709 -0.1937553594144765 0.04240174684528823 0.013281907681611409 -0.04187877408113344 0.05408307954890037 -0.22128223515774068 -0.13292279494229298 -0.015014431680311113 -0.01579737834591182 -0.12986622572731157 -0.005333175511415648 0.03721363414287936 -0.021563123911521157 0.11664436753457497 -0.17319999514641243 -0.09052375847651424 0.02130981641535828 0.06743993175558058 0.031593332543328516 -0.20068892348219827 -0.12214499849626088 0.0028468691225708226 0.03743241177930211 0.1151378524544726 0.25057047824862066 -0.29382639174793584 0.33717334828825174 0.2908641277847964 0.0817621714066871 -0.05756953179126348 -0.20224880849158322 0.21584847435951166 0.10565952933547512 -0.011995713162846403 -0.038242544093881586 0.050352932245215115 -0.23488731529390802 0.16351736391334706 -0.2753786175734741 -0.045939561547148566 0.09876653093695256 -0.05207389097560682 0.0808478379707006 -0.2924301853697997 0.21293432919540523
122 0.017034266320727586 0.0016682556922486891 -0.0230722566985078 -0.0920312017096364 -0.006655014220758344 0.013760789752645214 -0.08030879034493014 -0.04408894890508556 -0.04314504034304361 -0.02571070126323486 0.008570457394556539 -0.0328156506302252 -0.022186269507151014 -0.0065288144730432434 0.0065549060793776565 -0.013691441608228841 -0.13399272779435298 -0.008381304770880347 0.11346544476595193 0.02439306291289753 0.04785787593016929 -0.014473035629437539 -0.031717442679015155 -0.07731965117622719 -0.021502260294721572 -0.15595476664971525 -0.022026665389001904 0.09946115511665474 0.029312629006135064 0.124072400290355 -0.05728578500283381 -0.02420133415423231 -0.05183043321703374 -0.015473614934862599 -0.027897020816745822 0.025825923566746543 0.029438932329022966 0.06849289219970875 0.010710396398762003 -0.08319613809649733 -0.08001617708964905 0.013909542514514804 -0.02607950925111004 -0.06547506003329562 -0.013399946267896607 -0.07622920505612661 0.06473847504026202 0.17756647133071854 0.02932230962479538 0.06902566046933013 0.021857818323258248 -0.039959312454933685 -0.14364662166352474 0.08858491847452843 0.05627909226588618 0.1558043053225387 -0.13394471479925057 0.1166996656082673 0.025390887889831005 0.1611062323486678 -0.10274772617297684 -0.02627734879238847 0.0945649302055879 -0.012561310702139826 0.0933529932671807 0.01570264249681451 -0.06608915949014017 -0.16673105808873503 -0.10116544990458413 -0.10817014116827067 0.0823774076523298 -0.1394234672005825 -0.03294207509891263 -0.049637919824589746 -0.02327239362094175 0.17790366586546483 0.10198545761743885 0.012823577220125363 0.05521720544660697 0.13441979212417293 -0.17499843749714417 0.003710721545444983 -0.02253518515942506 0.1140661896822843 -0.10654061627158033 -0.09774472335598772 -0.10406964784611773 0.10402335931123058 0.06337941320944566 0.022913556428116606 -0.07689641179479688 -0.10103976290548368 0.03066581127399485 0.08999746317581882 0.26387648752558757 0.039188751692314595 0.019125037196394197 -0.09162346917735269 0.11979414950399844 0.16822236564092483 0.11372379527396137 -0.07297214016495135 0.15180044353374214 -0.03975919092083567 0.11561495500380677 0.11834151471020392 0.09742261868789372 0.028725630831070575 0.027263502197231494 0.07167159459393181 -0.04217875750067288 -0.12934040686036516 -0.1384856016573937 -0.006611345997488374 -0.012612993600580567 -0.16548013641864956 0.008962823652568024 -0.06155079493557506 0.03163673083963033 0.07200509947598707 0.14499922543481683 -0.25940255131828527 -0.019971567171082564 0.15060116077847796 0.18731293096784196 0.22595637672258193 -0.11265113467308678 0.12223331775602295
123 0.015416721897819018 -0.09897290745036438 0.07405375851083872 0.02133692138863061 -0.13782689726679914 0.16753714530540495 0.024474043595366545 0.001891569471244225 0.0489837697947683 0.05178943932265557 0.00844123364614214 0.14245532378648235 -0.012594384161336816 -0.06711025887845473 0.020407792892004787 -0.06103063565431304 0.10042935192861316 -0.05843646165742419 -0.02042398391307544 0.05164728287353166 0.0339836861433869 -0.008830480469904345 -0.009653031512712124 0.029565550033203245 0.15855724345124309 -0.007913345774988473 0.13658682504513314 0.02900233839580807 -0.049980063363316646 -0.07687768253133932 0.049016830501767125 -0.0010924714129627023 0.037095437810128314 -0.02258210276542249 -0.01261215098382571 0.05831366212339949 -0.024843940632660513 -0.013727081164001823 -0.028256995411485113 -0.13497294546083285 -0.17606930412239316 0.06324341902499267 0.04980549804258974 0.2132726709127658 0.08476710079493548 0.021357742228291367 -0.12868118205378976 -0.054836478107402505 0.05121438815738838 -0.11351837539213826 -0.19014126978304374 0.10257252306183567 0.031037104537999752 0.05169702610287898 -0.0922003398945193 -0.13310865531291444 -0.04388128133045061 -0.08425406463311197 -0.07828641920132391 -0.2562123569100904 0.2529092291544805 -0.020281277006736615 -0.07049042273552075 -0.17373798046845773 0.11541166186217851 0.06591669721142075 -0.046329967650459394 -0.06109355688336673 -0.1339058081709925 0.07378678555260108 -0.10878329190520122 0.15845567414014078 -0.13687216855323675 0.019898564963388238 0.004766359088692119 -0.17222874561578896 0.04181746900746257 0.10143016632074224 -0.09546313258861035 -0.04910325035251286 -0.1796988673478506 -0.0438881189844558 0.10202736986224314 0.12418532432237735 -0.10528287454071683 -0.1125300704625886 0.017750093581989014 0.05951919385884049 -0.07806027802557418 -0.12989088864529402 -0.04751357317258972 0.24265647947460056 -0.13036477346037975 0.10687702104717064 0.05830708481381519 0.13015063454176662 -0.0443179246485951 0.34724767681327257 -0.18137122658032823 -0.250018526050544 -0.14020146023621632 0.03146892173202964 0.027750102473498458 0.004151371589195491 0.02534522928415535 -0.04529825892292479 0.08972468735432249 -0.1331204869670794 0.26831317557338663 -0.23085940739819388 -0.15431527240030488 -0.3392268299091509 -0.12716168527371868 0.2046502186094176 -0.011524972771903935 -0.22426390775657368 -0.38511601155433106 0.11104698142623054 0.15056070286969253 0.408653332717844 0.11460962247397571 -0.12842480418258523 0.2797867611746269 -0.10476655526509007 -0.4845660463327905 -0.38607959513202017 -0.6382664554275508 0.5408847948691314
124 -0.023192185359758453 0.10648479448742296 0.10977527082488797 -0.048702009808771596 -0.1251715022294675 0.03607384035460583 0.10337795160336202 0.06399239748547335 0.05640963037876471 -0.0971001257272718 -0.16426330658708335 -0.1102852894390286 0.07771438674525176 -0.005914697141828393 -0.04284105544007756 0.0635789572950232 0.05686925861261168 0.05146995002633448 -0.06018729155091949 -0.08807864492687152 -0.08307803203602863 -0.13109054413011284 0.024185463174723594 0.10954650473574315 0.004820478886384355 -0.11412353252126993 -0.03603647475868831 0.09057780964588354 -0.05748327609851666 -0.12917864984926725 0.17536696839541502 -0.07992175477441622 0.3355740507216747 -0.29066092319232717 0.14693718102596942 -0.009932172410434722 0.21364932459569055 0.25645315460127116 0.467126323408498 0.29115562629436015 0.2659944630682829 -0.3780752686751652 -0.24809443571106043 -0.2550914331793622 0.49232039752309337 -0.17627746539146188 -0.25935325565970585 0.35483059978814274 0.03009040344728979 0.08396961148543125 -0.005182954058781431 0.33962474155249645 -0.10795069223096658 -0.37444448853699586 0.03608039584287384 -0.1249193531354683 -0.2365755600529926 -0.057256018233417284 -0.10879625495947698 0.10896686633502091 0.2281128339672354 -0.2849656364870965 0.07196160334722226 -0.29238824585618955 0.18541439862478568 -0.06197728690230768 0.07889429978024 0.002184870564693379 0.28927237816972245 -0.07346873239828751 -0.013212673803795594 -0.004098431035043436 -0.22505165390453713 0.20914036915466672 0.3724452117782619 -0.0016330048726093582 -0.16187900720075676 -0.12576959895003562 -0.19512176418076863 -0.010885321270882126 -0.07812321232093349 -0.1668248726035502 0.23641966806371167 0.12343242593576609 0.10366030098793927 -0.23704796467265168 0.08249593027569456 0.06093112517076029 0.03646328090678721 -0.10930432416016138 0.10847033595650818 -0.22198641364554367 -0.07469897710217832 0.3249627622640119 -0.24954380899385692 -0.011702527790119146 0.0025644208772730433 0.28786246653781905 0.5856665383193419 -0.3705994084197864 -0.32561237223310074 -0.7055685513585245 -0.21318151084118137 0.5055453158664506 -0.12552806214458573 -0.09891486249907215 -0.37063920517293747 0.7073996398551802 -0.06641000504919159 0.09089275948291176 0.2958203507024787 0.22080592404334765 -0.19501862764233097 0.051914495755324336 -0.06157771377797802 -0.1631193299285489 -0.09812285668756036 -0.14712320530423786 0.17937418285084233 0.06497055404118861 0.398993453481052 0.7859956743509864 0.005639288624130314 0.3814268655862229 0.5539251485634276 0.5781373868914259 -0.32201116326552254 0.4057810410763931
125 -0.055547596423264345 0.03068552785756772 -0.09802892653280412 0.11834502051182845 0.02457639255449627 -0.031365235237059655 0.012031746413746174 -0.0003370718445715353 -0.012304886687735741 0.019690424138412526 -0.09710150320834446 -0.1377695610821518 -0.003951841192429213 0.15151190374944637 -0.04780557474137521 0.0925895700010195 -0.14686238585236286 -0.037359469059301514 -0.1230247850845956 -0.024647097138710748 -0.06371801769639902 0.00463901131570321 -0.16572964224130254 0.09487111419781621 -0.10326078169872958 0.11363431893923859 -0.0029104642735303192 -0.007103262244546488 0.04917507144836097 -0.053712741283341144 -0.006240778697038855 0.014693867037577116 0.04754722831345516 -0.019136083076108694 -0.02248393862342117 -0.057362070973692864 0.0477760570369565 -0.0718505455917282 0.03839886418427704 -0.06549814732455231 -0.026090836506649756 0.03162938099986125 0.015965339994327227 -0.031674517680289845 -0.017091036804754444 -0.03970279370208486 0.006250997726642146 0.0329862997960441 0.04147044425178276 -0.14134052919082812 -0.04117576276262508 -0.06948131095866018 0.09395092449204938 0.02238374410710017 -0.0866843370755278 0.03762379295021998 -0.013293317037538858 -0.022774008915231955 -0.005834277741063413 0.009533599723446463 0.016177704771841495 0.07181095107402574 -0.15753164859435223 0.014643414783610762 -0.04061611024652137 0.01234667233886912 -0.002470642314574791 0.02886789880458433 0.01026196439014583 0.1138645251223159 -0.03821637978923176 0.056909763458499046 -0.06432200673705304 0.012027262541987245 0.0898193251833651 0.25043519915354545 -0.0958010937904783 0.07953083418751739 0.018996879754946558 0.011381090337076486 -0.07751861285072562 -0.05412958389629972 -0.07495102072064067 0.0242853114827003 -0.18956888475816003 -0.08935264279789681 0.2833374776104488 -0.06888691152773224 -0.020001394827742488 0.15734905686375958 -0.18676626763288673 -0.05386931486777495 0.00946063051930091 -0.046904097873868865 0.012828661874958023 -0.20104350175577054 -0.05680048085853192 -0.16398500835144483 -0.003384998686213777 -0.09943123273839417 -0.07042489799909626 -0.21232999665338795 0.12437281217037395 -0.1891014862518737 0.2259273071726423 -0.48676318189243395 -0.02597430818388754 -0.05087733930508022 0.15590469228858217 -0.14345792163221494 -0.03778270323238285 0.07099363968463096 -0.05395665767641633 0.07273389255423329 0.08780522165609897 -0.16041449167938093 0.31197459022042556 -0.03591873611476557 0.03439915785399189 -0.39636701769626426 0.00040166977143553346 -0.05840008926905653 0.4654027593389211 -0.28770359479756724 -0.02600975895777087 0.0715380064367026 0.021728334143822723 0.3011915429412606
126 -0.02300808457364144 -0.0019220480777406106 -0.04970762507049398 0.008136197541529536 -0.009607708964460672 0.029756235294148527 -0.0835823865820281 -0.008738841902235018 -0.03994634487312267 -0.04405841316962033 0.047698646651038096 0.06094718267868433 0.006185340429683302 -0.03729342975586126 0.02260999323620391 0.003084629665298428 -0.024751847931157585 0.029633937953103658 0.06706815795488509 0.07012652371327907 0.04921343037022751 -0.016856720923078515 -0.06709807742213351 -0.12281261898028802 0.20996341775624883 -0.026395124319660766 0.044689914133449214 0.047364380346013445 0.043636662411253684 -0.05736014393697172 -0.23611082544999956 0.2370659683637684 0.09895663497869917 0.376854648637496 0.06097683371119669 -0.32366183982850943 -0.14349087327377671 -0.1546424419936503 -0.24902266610953744 0.24730752117900093 -0.3482838452530136 -0.06555073896379689 -0.4342301288779158 -0.28616716192342995 -0.09393470540323441 0.3890516354890239 -0.27145427616191725 -0.507858504361573 -0.450312120812631 0.16568737910645379 -0.04908101237386231 0.005749436346603722 0.15345620790800624 -0.11470385979094755 -0.5889156102145453 0.06100184983564962 0.09726324870072182 -0.385802561241208 0.039593052178253235 -0.1497832474357913 0.14198856548742605 -0.40110184202152527 0.07353567804628332 -0.37247718503475885 -0.16000655585436702 -0.06088173872513683 -0.0967672246040423 -0.04744608094985716 0.03799164931254205 -0.6263305199887671 0.006873165939066933 0.27442303743095586 -0.32493427511868045 -0.26212285154841697 -0.017991254126974603 0.38479048452411574 -0.16115446403225678 -0.002375777680118432 -0.2142187032968993 0.20569710206865988 -0.05351053623156131 -0.30538137385638603 -0.35478113705391784 0.5869857412949355 -0.11379740253888052 0.1924644236948526 -0.3945806960083428 0.06193242264863363 -0.1818913402243766 0.4021060145893272 -0.0066621285618692055 -0.2242835737823939 -0.12029295040837164 -0.07751560183469651 0.24681117312120296 -0.23355112468245726 -0.13612761406651377 -0.5713283206465928 0.5376569538178474 -0.2032435529075006 0.020100503648834218 0.279052255150254 -0.3229812889451984 -0.179305186070251 -0.15999950201167598 0.2564076316357788 -0.8354902533327991 -0.021379226304188984 0.1240369299237893 -0.09129881622523196 -0.06787980132008775 0.012187397384250266 0.1736023644253237 -0.012279784175469136 -0.5204702165664936 -0.41621438409457995 -0.10649911855122314 -0.10785723577124301 0.0851090024285994 -0.06762598415550346 0.30577637379340344 0.6741758588410804 -0.36092788695109357 0.1840733760351603 0.5012921992460431 0.1348035957575807 -0.5704115494209675 0.42529547057707523
127 -0.0245795508862469 0.051416599774965474 0.019563866644675246 0.032473503353541454 -9.443439393305829e-05 -0.01684499185461814 -0.010975882677997451 -0.019376218184989163 0.020903132068780392 -0.03030545580314734 -0.10005361319196357 0.0015674850321855346 -3.7997666186201434e-05 0.04347440547015423 0.042012980162528586 0.07671590036142015 -0.12987837331316904 -0.0012620143366726677 -0.03598044545884962 0.110664236739013 0.019831392494592613 0.08712615559603357 -0.00810266215059438 0.0109849284359422 -0.011708557002156724 -0.07593781610257135 0.044914598743008995 0.14139113754716262 -0.015173825387235187 0.04381352738300758 0.004456600346538076 0.16137960109613395 0.06406279893711046 0.004305913811419691 -0.03782036979640812 -0.06383305975907583 0.07480839297129424 0.08487801859116417 -0.009902425035563269 0.004077894335693396 -0.047762668862737834 -0.10944843282048156 -0.01586443639918385 -0.015434343160503697 0.11174858024453638 0.056556775625818186 0.19634826398700975 -0.1719217371083251 -0.027814533902165924 -0.11885039985171399 0.041414597242086626 -0.028774494795121026 -0.04432113732094576 -0.15026616679867347 0.12957899140486034 -0.049380341825734086 0.004880003800910183 0.08467461534706644 0.02667275352565531 0.04848762133444557 0.19438986331173688 -0.06818677421897126 0.16250476279375003 -0.009038366162280428 0.06712900237611401 -0.07070388959100565 -0.1148612089371142 -0.14688764620931216 0.1918671192858881 0.24074476966548372 0.09777998914758829 0.056228836821305916 0.06616844385992345 0.08417494998617275 0.04311045520891926 -0.09669545609532867 0.055147651822746974 -0.004203830074406926 -0.07077565874481606 -0.04831704226541675 0.038543562687849815 -0.14414246476206752 -0.08195669798140964 -0.07348657099739225 0.20547907277662397 -0.08461261543565621 -0.1822104477488813 -0.02443040467325852 0.21767495247800545 0.16180785345983317 -0.07866022539668219 0.2555510338801575 0.3871066268531651 -0.4237109179006615 -0.12098278947462054 0.4025411220854262 -0.34468662526076405 0.1578776038471815 0.08407669498076671 -0.12164963992046308 -0.07550719628302592 0.056335285152452785 0.21455262886485577 -0.3149660470185369 -0.25684298241672215 -0.08260855267716338 0.048842048648471845 -0.14104206401680888 0.02623497741517036 0.055999220649814004 0.3648000203341656 0.015671404279637716 -0.1119742116507346 -0.11718527986437564 -0.1088948112096692 -0.10835587573614083 0.19305202648694017 0.0378345682809708 -0.010098533706092306 0.024957556438658223 -0.05954122334266453 -0.122784975156072 -0.1670996713122499 -0.268377109376542 0.33813191066018317 0.020282906237215265 -0.06367643179389273 0.24062877735557545
128 -0.08484873556123806 0.015078746309481745 0.08841931436690903 0.05247061808449065 0.03587777262160129 0.04168683653560061 0.07877552656364996 0.030952766340999187 -0.00713193700630164 -0.013475939215742982 -0.013654377771370073 -0.05850097131185451 0.048896943924542365 0.04654710859456385 -0.04903584193397409 -0.08192308562880113 0.14093478046516814 -0.02399530839684937 -0.015598743502679648 0.009287735260270104 -0.02982391769661504 -0.07647101053704107 0.11043695109734922 0.09598271996723211 0.05803862851077331 -0.04754900000403381 0.012061169379321961 0.11736758506889673 0.052975329588157156 -0.10780563959021229 -0.02160990843469804 0.028737453033253573 0.02757231114640664 -0.07715104741033134 0.05308439538304495 0.006298346963429467 -0.07529659323855531 0.03246427566221032 -0.09616398331452927 -0.14446144486030904 -0.054204113603154934 0.027785660506652574 -0.0227732611395023 -0.030877938868157706 0.023460837548405552 0.19414824500093256 0.0017618924661076374 -0.05762913583144837 0.1263777804061197 0.02156297820077489 0.07066044278267214 0.20979092135452246 0.07997227243154409 -0.18216739661527437 -0.06021475830511239 0.056252031126636994 0.09539812255586758 0.10956321109913525 0.1505342597840568 0.08813485601998201 -0.15633103173123547 0.08217897028775707 -0.07300299340671469 0.006775639568744748 0.046253242793938776 -0.00877204225321534 0.12791285428181753 0.09499898113226062 0.07967300219783471 0.04521658623236031 0.09705252361682015 0.07008219934265913 -0.23122340876252984 0.062194481701574156 -0.053093555270758076 -0.03589832174466906 -0.13430226565466136 -0.0963462364798664 0.03821740521403626 -0.13714125674819463 -0.00545030993969335 0.09413316247154584 -0.021521147077844905 -0.1507511068860001 0.056279155424298476 0.12752188262562836 -0.1246199368867533 0.10402066105840271 0.05093236275438426 0.04659553699283432 -0.10664822748559746 -0.07902553836402174 0.051428022735296924 -0.09247059500724393 -0.015723422170505437 -0.08100308359455143 -0.10598505029030218 0.017556990255092535 0.03569965327005312 -0.09152004435457287 0.13424877030566543 -0.07727796164964224 0.12972284087867664 0.0861367920499056 0.18725685413480744 0.03361792647210391 -0.08363771346432164 -0.06069542941249237 0.10505142305679785 0.021069386069649254 -0.06454382091013536 -0.05333946827888683 -0.025360879647158413 -0.16534616355843149 0.18632076600667025 -0.025158787918865194 0.009438915798668839 -0.022715421121670607 -0.04300360477453041 -0.05369072183741002 0.0848390049028887 -0.3141895349031104 -0.05988963953970356 0.08026467467410274 0.005680240082284828 0.2015044709774855 -0.033326887581670794 0.13284924016644978
129 -0.06343027664533478 0.003504484264328078 -0.11908670425242204 -0.0630259823933435 -0.1044262517997542 -0.035259950875014684 -0.0935951243556476 0.37032425468127556 0.2043050302296571 0.036089290398319665 0.05637359220003009 -0.10452082397950195 0.08803517462563755 0.09657957793761178 0.009435064509101254 -0.03607994178251476 0.17055393961606977 -0.0042487062906196044 -0.027168025201671858 0.031514946933591116 -0.026567206939543245 -0.007099236182600333 0.025188819931509347 0.08857169842486791 0.006501554110331593 0.2789082635869961 -0.011062311504960579 -0.017435341314958438 0.013174147894641183 -0.12348235705930662 -0.03381770306850573 0.035178528377484516 0.09112137190768257 0.04328841637745259 0.0722684176851364 0.058612128530845665 -0.04487118565710541 0.033562238744381225 0.03001718143188575 -0.05608304088297824 -0.0517429939072151 0.014252730059889298 -0.002456874322447984 -0.02418747013778646 -0.011136880548213764 -0.007046374216306529 0.022617187758340426 0.040546125146967454 -0.05383291822334073 -0.011280481106202252 0.032000071919947096 0.0024851700841631175 -0.014345152619739157 0.08239643536038098 -0.1006036139689067 0.009118409594486083 -0.026722754317430618 0.04949143313660562 -0.00836087669158157 0.01383224387390803 -0.05636647362878453 -0.0024855928990170795 -0.06574512955610361 -0.027919151803219133 0.05285073346980751 0.0020833800897184936 -0.04578604218761516 -0.07336190593503383 -0.04950534146920916 0.10665579815307907 -0.011912877674147249 -0.018120655057344566 0.060685574113947226 -0.09200792485701975 -0.007207949793080246 0.13672738742406051 -0.029650938610821236 0.010620888433147924 -0.020342601683703592 0.19671259010800504 -0.020359913718352732 0.08493716513141439 -0.0122819301318901 -0.08694527896725844 -0.1455615178610689 0.022991085161164472 -0.05464508453856475 0.0387344404760972 -0.010078357262699412 0.16975054322766778 0.0035985170500789218 0.0842633593182562 -0.03431768796264447 -0.06350285121595735 0.07049299524213605 -0.2826089991105131 0.22465978412174478 0.19350318824473536 -0.15470788258485713 -0.05752630136902256 -0.006882050900593695 0.1372033942111188 -0.012104793419863794 0.24188189536456903 0.07283280536762066 0.1982452952046104 -0.01966451147632682 -0.06307884864308567 -0.06586868581697185 -0.13974434172918815 0.22035478073884485 -0.5170638814166484 -0.5464951161063358 0.38782718127019483 -0.25541870379505954 -0.01162160627723434 0.3571163983070593 -0.2643532926782581 -0.09017656801074608 -0.08511508016469468 0.11641127241044678 -0.01997884111896981 0.37254183714141365 -0.238505446017999 -0.023185048813962227 0.11825960597584216 0.003331940660405189 0.27003696600823407
13 -0.07890151628254354 -0.04059666674554553 -0.0731199665525494 0.02711140506207299 -0.08659705157383384 -0.05438606721957137 0.0722982544802426 0.018131732492191726 0.06367648485112105 -0.058863003482626935 0.05051889842133746 -0.012202825017595231 -0.056797712193690224 -0.06326825451087308 -0.04379261356764606 0.02442431713578674 0.05649363593901251 0.05700865865987218 0.18133080770307666 0.038948238164376425 -0.0687764005809854 -0.0103607123973269 -0.049540364222033485 -0.14271864713072413 0.1987814542625858 0.21685940129551107 0.019973625807547375 0.08200650273217126 -0.130872649639137 0.001981972820264154 -0.12648833392607106 0.013317373175205361 -0.10127728971824768 -0.09591981231388902 0.033974259589970864 -0.030601931505617477 0.08305596940319074 -0.18596163393091683 0.05871416284005295 0.023146340715201906 -0.00020605880326900156 -0.06280945139624416 0.19141074719585666 -0.13811590914579636 -0.1536462372684749 -0.11909997129277823 -0.14187922182839727 0.08491670244558688 0.13282534143670793 -0.08968072018330184 0.10944090502136698 0.09466158964058777 -0.04102224779267087 -0.07800956224764385 0.08621919791883072 0.11889822542333271 0.11389511711900192 0.07887789586455901 -0.0961275166331339 -0.0561591057991528 0.17939115887316082 0.12418126418144824 -0.050133382313523565 -0.08050822242447732 -0.0786517547814051 -0.01752257426677662 0.00231012049280639 0.19655631788141828 -0.14891186310876314 0.03854644075689209 -0.0889642171055591 0.015483188952727453 0.01236894776066391 -0.07395486972880488 0.021765510867364564 0.14186157433698637 0.090365935936125 0.16363423480567704 -0.05772811372493492 -0.07657359628049579 0.19608508100432873 -0.11935330209254437 0.2508359141664113 0.1123264124334017 -0.05472253454360647 0.12349618823277855 -0.20225599452708964 -0.037079591364911506 -0.24098070714223074 -0.0850966716283912 0.10598376842165211 -0.08240420665775308 -0.09121439472389464 0.08674019606833029 -0.010929751187267578 -0.14926125473741042 -0.1987141531883199 0.108312499255456 -0.03152109521348702 0.00123877323463308 -0.18820649027934314 0.008561077841173699 -0.08919597798565276 0.09343658614942602 -0.2623809593983884 0.005319163239418448 0.15057042163404996 -0.0059216795748790714 0.24965102067902753 -0.22364936424307247 -0.22773491404169854 -0.15078423080716669 0.20886714311792556 0.13927939227696376 -0.12289867516159558 -0.15365720683031675 -0.407996784363258 0.21541830065463044 0.303464871583664 0.11237338937682192 -0.07141095633925228 -0.13788360324796814 -0.003298841406589857 -0.1385579907439953 -0.25353004275633195 -0.3976818737702426 -0.77018361829916 0.5869718585647531
130 -0.005134188978058886 0.053852277962739906 0.03469432036502258 0.08233916032094364 -0.0667060752349459 -0.2269543948947482 -0.09187780023735963 -0.07320815713734038 -0.12183499169266288 -0.03871924829706843 0.024517741763737496 -0.06594322668577665 0.06317434744887605 0.0435750192356516 -0.09140887938406062 -0.10332192683413886 -0.04324842582505836 0.044438137942599126 -0.03999235728615918 -0.05247029292495323 -0.025267351370597886 0.09126617685779782 0.0044402565823725764 -0.03242227373284732 0.0016388204110466974 -0.010627071420371796 0.039005599688647086 0.1785537761091415 -0.40648199882347696 -0.08047535281588866 0.026861429618674933 -0.04526986140259755 0.11948291533598016 -0.07619970370446619 -0.08745504318798442 -0.08371615291835202 -0.0774713643865506 0.28799772556595077 -0.05381421707933523 0.010547518517163575 -0.13540907197207838 0.24587020532643222 0.03080770919064465 0.056331797320346905 -0.0006020231613501208 0.017261118684766003 0.051539151411456596 -0.022204674615795388 -0.055938714135852226 0.01607810609044734 0.044512555609679316 0.09981066635425898 -0.043827340306368805 0.07496845922938487 -0.015466445877679707 -0.015434015165932236 -0.09054125553568887 -0.09902445883826663 0.004946490404527355 0.024543647276521037 -0.16881678708419845 -0.1299221972047844 -0.0003534263821854542 0.008263875487998226 -0.1579147626516851 0.01445244671076301 0.10937604334162071 0.020059559163003143 -0.020776144242798528 0.13572215086929237 0.07301966639605982 0.2536136093660455 0.03785825734077008 0.003298546695266535 -0.16633057204100446 -0.10033178451302142 0.14253110625222576 -0.01308532852304571 -0.1731210386053705 0.017300681700366787 0.11927360847918156 0.01578615843736271 0.05558473130071212 0.22650049727332056 -0.22490270319289574 -0.20812439156473966 -0.12328537527937282 -0.04081330988844822 0.2494121245332547 -0.11266085735680155 -0.08653586463367881 -0.17503631244230397 -0.06736532793908598 0.00482389716942535 -0.0013928440900089136 0.10385066013019364 0.06366489092679559 0.09096111979188595 -0.09928651465841454 0.12204376379381415 -0.22646232335807706 -0.202964557846076 -0.2123553532309449 -0.10899757794046129 0.22812336846113718 0.3730465586331495 -0.146264623183464 -0.10566348466337086 -0.15101972109256354 -0.1902515534752595 0.24491480415480021 0.0063712253704085444 0.051302184788747394 -0.09249010012556819 0.11026472444231392 0.2597390807658092 0.017173188250845742 0.005778339918189127 -0.028595310635435887 0.24200180122543857 0.026265968457255998 -0.07425743814830497 -0.2834542234732199 0.1490973520536026 0.20377434532881242 -0.3648426525709202 0.7728851507714185 0.8618458263847606
