384 128
0 -0.020171571978191555 0.0993966010455291 0.015708459090483247 -0.00276069769972424 -0.006031219817497221 -0.22284722669676124 -0.017106154331456385 0.00040781102416760157 -0.00782134377237477 -0.10615610043147268 -0.1338853958821504 0.056683445581920434 -0.07783096777011997 -0.04077421531573895 -0.012777788053070087 0.03212133533423519 0.023181273039230184 0.054146610846624976 -0.04911487010744314 0.03778438254214569 -0.0016877866301443982 0.034666641037454315 -0.03551811036409515 -0.08918882850456632 -0.03228924153261717 0.08620826546155287 -0.043432004505002925 0.0049789659864260425 0.04183827926088669 0.02664332821235684 -0.027938114155985266 0.07213333519408034 0.11211924109595128 0.05214642379146145 0.04268866345073918 0.04639117871472198 0.020502229116510316 0.09307124378378355 -0.11554243286036525 0.10250815909545262 -0.0736961018021671 -0.06670682470851089 0.01653345188470863 -0.11148506351678124 0.10722957528437736 -0.07607420183200198 0.0831947217930171 0.06485883678835096 0.09548891022148537 -0.062300499468264256 -0.15151710636464924 -0.10760549448571786 -0.03472636631524505 0.07987942505080352 0.05710381830597548 0.01386592871638372 -0.036715709775951406 0.10001941280561089 0.12229883855677388 -0.0021298406306752673 -0.026401468865108045 -0.051206390122282786 0.13135788478671825 0.13705353196392475 -0.08253677756789561 -0.006884690024892837 0.03616269877142221 0.07481880522582954 -0.007355395101720298 -0.07919816362987556 -0.006209145625306114 -0.06879073618164994 -0.13124189606977477 -0.15168147681743394 0.13723648785534473 0.00793054545580524 0.29222308727587004 -0.11768697014013708 0.0914178124955477 0.006854725469837045 0.015721545258944092 -0.07136722543786254 0.06466872229161107 0.05857191311594932 0.045740764829923654 0.03560732003024758 0.0030817055236607312 -0.008964513615175852 -0.140123442315469 -0.0809478369172981 0.1570881623491813 -0.10311273594348802 -0.022318884670820337 -0.0888545310654227 -0.06462940361726999 0.019939789158877945 0.10375329525316801 -0.020567517622118704 0.033503300392769386 -0.06709758478953866 -0.11069886964086119 0.029836409810123758 0.04295614708313266 0.10623107520734905 -0.05885303465237512 -0.0032562182643856917 -0.06853759683630739 0.0186577424327579 -0.20239302069465626 0.043785206134467694 0.036277540027403625 -0.1395974802471198 0.1980256036058234 -0.2631192913320087 0.17934544768162855 0.1869365420660234 0.011695717697282351 -0.1697497855912191 0.12040153734210772 -0.09937261758176044 -0.2622559491073129 0.07133986337517638 -0.023146208717703433 -0.12250619464552087 0.08622754071995145 0.32831478518700286 -0.10790248550838714 -0.13015013995711722
1 0.038263357685263365 -0.017921101939135698 -0.0012893330777617711 0.019069839827725046 0.06053726035409781 0.06490505640543606 -0.014184020868332177 -0.004691117795707311 0.04202363330083406 0.010727798667133585 0.1754951864802871 -0.29756529292911676 0.05331270054881744 0.0041978509116941945 -0.045016440921182684 -0.009501872454491083 -0.09434865726748638 0.0078124370665248605 0.06696155645615753 -0.047796088004039824 -0.004153494076942917 0.016582071302862836 -0.10104300540883797 0.148523127367248 0.0033492119793569713 -0.0728820667489857 -0.07366742513372478 -0.007335857208688937 0.06615263140920132 -0.047257863337669744 -0.0025796945956710607 0.034158986233249186 0.03456118412963638 -0.07682371994547268 0.04000497387058253 -0.0033850593909853324 -0.050022505270665034 0.01807460768709655 -0.04232332876736634 -0.06485809447978902 -0.017507809548509393 0.031699859821601103 -0.14574326873428523 -0.19262974885863904 0.19072361449277908 0.024726348129548225 0.08700627301161672 -0.03360089653526152 -0.04897943187508383 0.006859889202786942 -0.042451599925863136 -0.10746171537895265 0.09196560037859265 -0.18430630529220043 0.022074589685670415 -0.0500004959561586 0.05953228827997974 0.07753877933855598 0.0855883302609863 -0.07200946129539812 -0.08475338031276669 -0.016061138971499793 0.0476419775118947 0.14698247671018963 -0.03433112074249452 0.09701879979902203 0.08355620957483405 0.03571194579799993 -0.1051628386463796 -0.49189686250032166 -0.044895091398392296 0.10535307120056021 -0.047311092127475335 -0.04880617702621522 -0.01033835900181404 0.0597997716248152 0.19452930331995053 0.0313256789652108 0.014234385754057626 -0.04398587721967129 0.30640770160289227 0.03245428625605692 0.01804087236678404 -0.11864497539686195 0.04409247920189075 0.08651234798994872 0.10911286111786558 0.01112086974778174 0.022242306456753076 -0.07011698592469884 -0.007636825995238651 -0.12517573574194096 -0.1282297323158812 -0.03214190606662388 0.08125292946455065 0.15357385119659162 0.1640583190780467 0.1455814461010933 0.14476494698966197 -0.332270141442576 0.1239516537511675 0.1575018826107373 -0.02889546564624828 -0.07299482981955611 0.06626250560887965 -0.09783420086548565 0.3180800561510213 9.800781903065388e-05 -0.04890772088934711 -0.18479798372502912 0.5222457687618192 -0.026051128332026195 0.4249196004826251 -0.18786426777548076 0.08375987205440795 0.18703292352970038 0.13867279837409507 -0.042668306213948244 -0.002176577911417606 -0.06941058997351589 -0.1821564305412698 -0.10158193072809017 -0.07732412217516389 0.014388249414291994 0.07688566650943786 0.1554634761280347 -0.011621665363010323 -0.22732498772763127
10 -0.04030574066345101 0.07104576031590251 -0.006983877653093816 0.0024442262497056623 0.038754536524819166 0.04961091325554849 -0.02639936152824066 -0.05904033550111996 0.0005729350118142783 -0.14239229264843703 -0.04016200654410002 -0.07028060754460502 0.02403377570403579 -0.12215862051796657 0.040766811189893455 -0.09928352863004902 -0.013509250569366645 0.05049430301520795 0.03931617884941237 0.0012141750898860535 -0.026451636646126014 0.0031658984174753346 0.09275592166857517 -0.024204243079591733 -0.0427608506474009 -0.06896154123734136 0.0025093846982835732 -0.005961686592019864 0.10379964253569683 0.01598467825189376 -0.031323157927149 -0.028794650058736375 0.045973651498583484 0.002396756825376074 0.03633523735181805 -0.08732068229490948 -0.09190831795692217 -0.08752551504055307 0.05494452482211541 -0.011479865196778915 -0.1996197832808171 0.04417299043567823 0.05565804443829855 -0.06159545802521485 0.08225204228816932 0.048448976562271054 -0.039454272706928584 0.13604954199332417 -0.2587862859572041 0.12234112355681877 0.028679747989864317 -0.08115830866183375 0.10605220563235204 -0.011638877891758874 0.051842918562182705 0.08530269428858762 -0.13273129852435714 -0.0341770164999472 -0.003566313939452355 0.18260609142765039 0.05598540205671415 0.045927281368535036 0.08151271978110873 -0.0035238855715241995 0.03250562537184012 0.12259385096103445 0.17277946110578038 -0.14040491667655633 -0.05033176133511873 -0.006165294728873853 0.009432040952252557 0.07413170443406769 -0.11426469032340458 -0.13577877004893735 -0.16656524824700733 0.03814628746959893 -0.22662010168945673 -0.056624151605922934 -0.010361579826086226 0.1331338114826495 0.0193861477649505 -0.10036034658272043 -0.050000803310140285 -0.2561368924501947 0.05142225927306337 0.08485856761664122 0.03293896072577194 -0.08575261378748533 -0.03171744563831823 0.4630066448233426 -0.02794509495936767 0.12401820493198969 -0.009620535304414438 0.1507720996488391 0.09363224346686579 0.022538636635930066 -0.06572849779823102 -0.0398287055368631 0.23194765878885978 -0.04486138521148593 -0.05344921727732976 0.02863786798697638 0.2775014764368889 -0.11493552263704572 -0.1150159794838452 -0.1416389384651715 -0.1498331176694551 -0.057709673756730764 -0.13121060743606325 0.2607480057713967 0.2750445065174389 -0.004108171250576443 0.184292492084619 -0.3487310134495287 0.17829222918008492 0.2341321335583928 0.06447908910267322 -0.23617010493423016 0.1012102977016133 -0.22750585646003668 -0.15892797126466018 0.04447246004992948 -0.07138508518853208 -0.15507138472452198 0.14965899534333352 0.3961307453658374 -0.10373014008327455 -0.1684360262426651
100 -0.08135476735199094 0.040779302635033085 -0.01432536350241123 0.023881104462980158 0.059358671086412164 -0.010881678626049324 0.03701006623667088 0.023110626475649973 0.00663431890195498 -0.011057823043501462 -0.046259544146995 -0.01092891974540845 -0.0332965389328256 0.09132795823921103 0.04801039639342248 0.05942456406427886 0.0030028296843841507 -0.0070483073178641345 0.038855659017212905 0.013772344777689337 0.045317787666363664 0.009415991541885268 0.0005679272200995076 0.10166527002059358 0.019895182865271966 0.04062254892709909 0.036359540866195104 0.0051796337583813416 -0.03624706275289397 -0.03899274812406784 0.03122002155536925 0.025731626168841927 -0.08175725796407207 0.03358630945567501 -0.08200963297252706 -0.01781177506559034 -0.013222658915981489 0.07145460187087023 0.07134299603227813 0.05566381451246464 0.004731012955658748 0.026636656599888064 -0.009080825777104352 0.04950879075258066 -0.14480805291901408 0.022057612945842492 0.020977617641580387 0.06578067819663984 0.03351704931331165 -0.004186298063462124 -0.08074061575303366 0.0021489448404533166 -0.13832192297018964 0.05121870877818119 -0.06250332358627347 0.04710348011337146 -0.038433154163104416 -0.08454753524675564 -0.09879058819268131 0.04663051996451762 -0.02966965656363415 0.12333740039067995 -0.04295039114108026 -0.05998880083915631 -0.04602836256791941 0.0019263624879822087 -0.03786843722532787 -0.09005951289327906 0.10353699582474925 0.11096790347485637 0.08527838149458435 -0.07127046022696269 -0.1563032401308397 0.024351764213907195 -0.0483020115742006 0.0063442955268545875 -0.11001651841319035 -0.09042602250129649 0.06017105833443242 -0.044961699483479965 -0.14977655237004978 -0.16653120257357754 0.12386262484765927 0.02915772821659922 0.0799807227690108 -0.019167155371507875 0.0845481607051531 0.08665370616043325 -0.05189521780999366 0.041419468203441674 0.09619258499336256 0.003918328643889017 0.016596294925102242 0.03382097116573911 0.012813437743058528 -0.07871032005712701 -0.17252616343295132 -0.08090845390561426 0.04453489843999264 0.03127780543038453 0.06524532075313125 -0.07013053611614975 0.005061565822279524 -0.03510483308002359 -0.045685607156165896 0.0014795542591330263 -0.04305919765588042 -0.05992844469314789 -0.19952868281834094 -0.05612587935314416 -0.11427085726833316 -0.1325609264000109 0.09096838103174715 0.11665163651524008 -0.11279000983749238 -0.09323436742718992 0.06005585617895943 0.026265032776243348 -0.1771749320707979 -0.08460728926664443 -0.24995756049387557 0.2543713956823144 -0.10829699514904047 -0.08355153134321743 0.15481348834741915 0.2931437158446262 -0.028224279257129697 -0.1617369584397672
101 0.001371581087556729 0.006903022613199652 0.12587710601168853 -0.034644567899765985 -0.02727313390069035 -0.048897419256137234 0.0027593782992226903 -0.056681496358883615 -0.03236037449784386 0.003653077422152307 -0.03743278008310886 0.0005373943527253449 -0.02895148236411326 -0.0005148559893962478 0.0152152576217693 0.05437754508697766 0.09725504828686764 -0.0167669392524794 -0.09304757168003058 0.14265692753062267 -0.07167762606348009 0.14393564319211005 -0.06049399755987683 0.02124857777623899 0.13631604808345937 0.06924067823672142 0.2662381925214338 0.08160432234280686 0.06857998797494264 -0.2355371070694749 0.08865313297832543 -0.12990320952858467 0.01780434185244437 -0.06542594076407184 -0.03805704788856391 -0.04363439124138224 0.032301588032281864 0.14535562355848952 0.07750748133707645 0.019617877678350975 -0.039503488017152234 -0.08508603778321493 -0.039300664375668336 -0.048947908413166416 -0.055936017270496886 -0.01643148236900826 0.12835426834104224 -0.0518924964247504 0.010664820841904296 0.0877086051871535 0.009351973581166925 -0.047385604499395946 0.04680249625699877 0.15712312709542292 -0.08096834465601231 -0.027604844160647266 -0.11306774702309103 -0.14172751425542993 -0.04072578019275893 0.06370142159415906 0.06059131544613277 -0.0082926384652277 -0.13617492657747599 -0.08906108166733755 -0.033224238351010404 -0.19184178012306766 -0.004837707736388186 -0.05417242746945246 0.0636036402470994 0.004179711569877433 0.11456482078306138 0.08081086929316392 0.03383676297031666 0.09068955215047787 -0.15791028689802794 0.033692745391852755 0.11418914571055809 0.1755659269655637 -0.041724165173056965 0.08197294459027626 0.23342597812026508 -0.005525177037633788 0.02802256123678476 0.09788764299633271 0.07414162929385242 0.06590791033631078 0.2048781100885612 0.14815140145852812 -0.2030172092160624 -0.04209247664022441 -0.013743965741607425 0.04409171969408064 0.001500958717024069 0.0861353246777073 -0.1279700491998314 0.1682398718297986 -0.2467981523000386 -0.20530269657286632 0.1629046935289319 -0.08495790097022203 0.11058520493505604 0.05947119220923659 -0.14511808150598965 -0.054863928542394885 -0.16398052442238695 0.11896272751153622 -0.35998552461244415 0.1785593961350014 -0.12522552980518467 0.3416760738722279 -0.05157346278793542 0.20663155636221703 -0.43366880493585996 -0.012520888797893053 0.020276915869928705 0.39782937848520133 0.045706416099903883 0.328189977962948 -0.5480600253475499 -0.0196038651302622 -0.04469319465975426 -0.09227502557617999 0.12115907498385954 0.2599499531772924 0.10702973300842736 0.17206540585872052 0.6543391066149331 -0.7985486872334923
102 0.0854456987649826 -0.08305273000078205 -0.009258472667346787 0.035602935887262994 0.004874451720041027 -0.008654042454657894 -0.04258068848198665 -0.040603853929121914 0.002919978024216355 0.17936760632549303 0.10398310406037267 -0.04889340609874313 0.07998541399931024 -0.022493790025561074 -0.06816438449352352 -0.025748943129148147 -0.02898726069381332 0.07422728105764816 0.04033873040994911 -0.033449363367449886 0.05068149241407038 0.002366540501555381 0.07252745827438163 0.10517277524529267 -0.03475346999802447 -0.09542154306544351 0.030783104584854875 -0.008174669794757488 0.046500900109033814 -0.042912655067845265 0.15318065641355016 0.03871818840800904 0.025287573640535844 0.05197752408373121 -0.08342163914259651 -0.07016477197191595 -0.019986784303949783 0.039723618516775985 -0.02512364679717497 0.05384581213823722 0.13481202740914713 0.07210207537245124 0.1067601373296865 0.030271309494277174 -0.07759252269721865 0.10873529713663195 0.045980056725953594 0.12132287409989326 6.343782036661304e-05 0.01917607818521491 -0.17570731732823044 -0.1364159224353707 -0.12020786925808229 0.03999702775160346 0.1625847726401761 0.0014868195230630626 0.008569172863681421 0.06252123004016091 0.047261847965411045 0.029849908897279013 0.051789971561100344 -0.11383557116094005 -0.07719666249907098 0.14801206452959315 0.08678506750724505 -0.10328604584385094 0.16549660995273108 -0.20929340378156985 0.15277569198849597 -0.11658096836333066 -0.03658714901506956 -0.019207216962171522 -0.13160855294327825 -0.07177075734287994 -0.14343383097767928 -0.2626733587866752 0.09618442326692539 -0.012940063244175426 0.02601401940875277 -0.10301038053717776 -0.15320240729869553 -0.06866203331169232 0.019827994605806504 -0.021143318712665064 0.19003988958512016 0.0348650044731245 0.04827828207030563 0.04428591208483403 -0.02136989592595198 -0.06877342722406214 -0.0008117327262020154 -0.034362778289892364 0.13194896772269102 -0.036083358209025314 0.1580192941561443 0.0105472593288392 0.053643483358644994 -0.1709836571564015 0.15652434559807357 -0.1247520761018223 0.16114984668623747 0.03199575649556041 0.0534769245370646 -0.1314591154382902 0.05718162727391916 -0.021259418358528837 -0.12753663209145202 0.024685607819730945 -0.17851072030512888 0.043816234859526425 0.24321786834515016 -0.03222794078828184 0.14627804281607892 0.034839780933960264 -0.06452289501046721 -0.05870867843194195 0.12305378205180864 0.027217397410905595 -0.1026518813745397 -0.15989015573864457 -0.24411510978182405 0.24184989815838318 -0.13501245438042542 -0.06689671904541422 0.17971895556208312 0.2653394795989881 -0.03998970873294891 -0.1761203573263026
103 0.01747865936522684 -0.03627006545661316 0.03410782273037764 0.09240393414258205 -0.05488873113567612 -0.03916839297915815 0.12910227549078154 -0.014999987496829258 0.10419850106373944 -0.0060380222736308225 -0.06563025998940865 0.0030384894515105877 -0.007804226005652833 -0.02244651570269985 -0.04911438195644609 0.021140436751378396 -0.02003622795320399 0.04319159335262301 0.002504755865876805 -0.009361262517516369 0.00543151917438678 -0.009660386971421903 0.08181624053094126 -0.054646408987548536 -0.12176676467201485 -0.08273654152277368 -0.0015865962904320222 -0.04912227530442553 0.013833141492256465 -0.004520943826482463 0.026860647862931093 -0.04670536788296069 -0.0038112259412088735 -0.036957976351299805 -0.052470765331173015 -0.0342725832622779 -0.009117091098631801 0.07335618583984127 -0.012427180436441967 -0.012614742171103747 -0.005692750010022757 0.0006224714163741777 -0.10155348586054064 -0.11427751321576507 -0.015301342745153964 -0.052682237396108514 0.08309418223601121 -0.008915669714663347 0.08860078259229232 0.08650956671834022 0.041948154871728344 0.035282210212493365 0.03701915063638931 -0.005489733599649224 -0.151664881111762 0.10373146880242783 0.030373909422799945 0.0029916790982564474 0.015127666472788332 -0.04406465792266207 -0.029269589097102956 -0.050106298607398576 0.03574380561766813 -0.0998765258393639 0.0012903775763201126 0.01702161870335922 -0.0611459385307836 -0.009070503427288629 -0.010662968779919459 -0.018510701948307954 0.03704709456819468 0.033609151093385865 0.103448985394365 -0.01780706226907195 0.04313347786347089 -0.056739685889421285 0.0458240828227734 0.10827374084731947 -0.03308366533109213 -0.027575799108843824 0.13060504775931442 -0.20682864793661335 0.1775675751708968 -0.020330976066268474 -0.08439690283666428 0.0363734278335141 0.06310649128881612 0.0015127187454750941 -0.08435697261695041 -0.005652665376490203 -0.008923858977181572 0.13997741855515625 -0.017842995559011598 -0.05772736182907777 0.016860097688673328 -0.06982927138086387 0.06720971497005729 -0.21640044244179069 -0.09948136737580122 0.21194433672362495 0.003458801270150801 -0.0944958172372708 -0.1624038098600115 -0.011602558572981089 0.023188411792721735 0.030078256823620062 0.20676082455749129 -0.2299668710435688 -0.08285423866895565 -0.06885852850761334 -0.2462473676920883 0.0738068866362397 -0.1177375643883648 0.29645990692004837 0.3020108121857326 0.06039472774071882 0.15696673955688203 0.41650839771795806 0.2365706291775487 -0.6125181891345522 0.01987952179327869 -0.990448914012629 -0.6733151811551031 -0.3223810120094072 0.16304565971161525 -0.018497627270022826 -0.27692598920210676 -0.32976823678731093
104 0.14270428831145238 -0.06840045006157176 0.0015444165304299992 0.02277245261552371 0.22252679306699036 -0.020526746929720292 -0.034294824172429746 0.06502910634199706 0.0038763545533533512 0.0640318417233917 -0.036762930541416466 -0.0075366754618669905 0.1311182398937759 -0.04555813723369875 -0.048530476191063106 0.03915296365763186 0.03262532270889447 -0.07040255704760813 0.008094898547997118 0.10080530138456079 -0.03965461936547332 -0.10048284605897832 -0.04829194440495586 -0.01061074127798613 -0.04151707858539115 -0.0675020788002843 0.049245315473566184 -0.014952879002571187 -0.05622171668221709 -0.08405194034467982 0.09704462008976786 -0.05184895637014104 -0.06687872734071722 -0.02556872281006028 -0.005047038352673033 0.03161850110906308 -0.013308293884720533 -0.19031230657540846 -0.08343588812902542 0.028484363042817644 -0.01894918218554328 -0.2094064965305039 0.07096765153136557 -0.05168809670535246 -0.02284425906553522 0.011395200091061528 -0.0490348672922532 0.04081573049638643 -0.019328753692358234 -0.126130843708456 0.036079889262868925 0.09076837114491018 -0.14475451124264993 -0.05834626409652245 -0.06076011071425276 0.06243500812880334 -0.016371700463097393 -0.11168284836228275 -0.07184295740117567 -0.03592446670434355 0.22117689190276052 -0.0737654083252307 -0.0075879775137709556 0.07750626137903863 0.005219536057409155 0.04880163350166017 0.05392363157485348 0.07073983982808124 0.14437074130293942 0.027962974958663993 0.10299541425572903 -0.06782837343011452 -0.1887963574997187 -0.13405745892083684 0.15853747408150856 -0.16413677183312791 0.1505418006164217 0.09174076037235755 -0.046364112991667795 -0.054867313309611546 -0.1466588612259382 -0.16778411929463363 0.05353404116123739 -0.09544186587567416 0.017407292003076745 -0.1128428572836607 -0.15662696620479327 0.009187863428804417 0.07851210014944816 0.06061511484928095 -0.11348500508334154 0.031957640005045154 -0.08713141943558539 0.029989724147142294 0.0936871695640771 0.11957788672053407 0.0032355530213069176 -0.05137031395730709 -0.1371944555915518 -0.014395132745047138 0.23163068420963367 -0.02201247973204995 0.07915053558008144 0.17954845989071702 -0.01347513087338013 0.010336350562585868 -0.27068587938726973 0.1985024448878278 0.024893147562998846 -0.10129621031563515 -0.0596412355479024 -0.1726032603530081 0.475133387767081 -0.0366201683667612 -0.07422585938928294 -0.07458219012435069 -0.43739261684460035 0.10211716772374957 -0.18958910976708201 -0.03738529568676639 -0.21313741206233813 -0.003361223506331448 -0.04284526973874272 0.07039107122400583 0.2664827478567802 -0.2003359297376372 -0.3084149698374609 -0.24890534696090552
105 0.011423694863728262 -0.0013067246596308874 0.000867823869377681 0.01604865579400752 0.10935078692298655 0.058844921689863404 -0.04292542244356725 -0.04055336353819347 0.03280244216858912 -0.020900566765669603 0.06859733677520681 -0.017907637871233912 -0.05746835535718542 0.03364751915460129 -0.03562238481295561 -0.07107353989939906 -0.030843285766401694 -0.08458363420297628 0.06699885967118817 -0.01258889634394649 0.004065057984844515 -0.08792478446291914 -0.060229478631032875 -0.02052942495512373 0.041649268823458055 -0.0397129001123955 -0.05559599155258464 0.17981214727756073 -0.16949699629128448 -0.056873460755083316 -0.1519878710541669 0.04534120978895996 0.1337941044784199 0.029980801163278642 0.054855953777382616 -0.0017886699442006078 0.05072954326999103 0.04318967030512581 -0.002822938180665874 0.10758832934817097 -0.10157063310548792 -0.07428558399533909 0.06832055337569092 0.08751209162260566 -0.062031336419940485 0.013054268737143444 0.034323422637881414 0.016244994746374242 -0.11168678985853984 0.09783565450882403 0.011624655253555919 0.003428188631302132 -0.11018805939808297 0.1752052414003554 0.16203323318149865 0.12093527969394201 0.0582681993616523 -0.09356511782156045 -0.03274775115319082 -0.05825697694344474 0.028221925224139743 -0.2570352090206131 0.06404176851851597 0.0585369978777002 0.04549137786916459 0.11093282452265991 -0.07260891647214283 0.20241943172226376 0.04113398017816126 -0.11245044668102425 -0.13183513310293024 -0.09943570137031862 0.038343300870714116 -0.04331275267443172 0.10224075396538632 0.05222684691347778 -0.09350140119872445 0.11457112974538101 0.025065400846622544 -0.031136357118498825 0.0665143540833418 -0.07300309867195126 0.10093996737094903 0.11699465569593925 -0.06789297935164783 0.06530923955177544 0.07110923860496024 0.07004795834669668 -0.017271571858162204 0.008684184642381885 0.12302887032107532 -0.15883373331243458 -0.2229647468431134 0.0624652955455403 0.2775748183442297 -0.39018882597251225 0.30027726221925743 -0.196735900292264 -0.11578146021576156 -0.09418885785166539 0.1299702778547031 -0.18087530698011567 -0.31183418107521765 0.12349604718896882 -0.2831472796695845 0.17293196148367102 -0.36593896864016434 0.17547998472387408 0.02072501287085525 0.06515694052696967 0.16119611399475137 0.15290879084651524 0.1820407453797147 0.15859545687104937 0.021019551426439437 -0.19108574904339656 0.07061719716157788 -0.1270193135365532 0.1257014818640066 0.04646475479066278 -0.12886316652892396 -0.12906063687318714 0.03489366028427941 0.1516412790387297 -0.014144563115407727 -0.059632156715898055 0.3397071672963976 -0.5441131966534674
106 -0.08599150623585597 0.047473417405993916 -0.003925170562892819 -0.022613830453643794 -0.0937083637039151 0.010799438782862008 -0.05928464166215309 0.1044589139750996 -0.004686565457227978 0.06967812241018759 0.003648441344406081 0.06725967877938542 0.07091497862546045 0.03999018895253589 -0.13260275150349599 -0.004134067651444069 0.015712441569632328 0.2662189293554171 -0.2853358718910008 0.04761021856733241 -0.0037099510370049954 -0.039019846841773134 -0.21136310840650047 -0.011494202293028334 -0.04978671648787529 0.0635643036911671 0.001681900177422989 -0.021167053298406097 -0.0031784826810948713 -0.062086135320573846 -0.010056567618691899 -0.055087004621706494 0.010385257855084176 -0.028535280493883437 0.11502765289327521 -0.027831735260490504 0.0014741205879776618 -0.11409498001130595 -0.01456361913471865 0.10497196005007339 0.013233911262941165 0.060747340923654684 0.003030408208425307 0.05756264664959352 -0.13085196989578765 0.10781923326489698 -0.03254817141423372 -0.08115022904594267 0.23505103013615977 0.08470091012875108 0.13998786091038323 0.03295602977147547 -0.058400611375358714 -0.10093728912224408 -0.14162425045150037 0.11535131089999189 0.13196741014238997 -0.026010637419702574 -0.013061752058556208 -0.10263995710396093 0.017999328127919004 -0.016725370666607304 -0.14319080329940764 -0.19233498813857078 0.14721563281540523 -0.009374431115626986 0.04918930374032749 0.18517820914640562 -0.06154255866469775 0.06700828262953697 -0.33526975051219693 0.19539109525175247 0.05162123736698389 0.024177726188571638 0.10021967494975077 -0.3112596377372089 -0.13544123551879209 0.10097729953378222 0.12161136432676818 -0.021118467728585624 -0.04164619141120633 -0.13712437687423565 -0.06481030864942144 0.14109889156057057 0.048309344398490134 -0.11580982891958919 0.05165345738185418 0.19703428811588064 0.03825275492927792 0.016339844329223693 -0.05167858899199337 0.015732828252373657 0.048916466176963845 -0.13644130412647876 0.03393548823810379 -0.10817653312810001 -0.14738537061828408 0.037656568145945944 -0.19832355787835687 0.10349583905891221 -0.07102683812308529 -0.022583871985931533 -0.15836311482015836 -0.06633648942759002 -0.13480474973889275 -0.110435725632384 0.15927412272446656 -0.0012990756074377533 -0.07412481806273243 -0.04576765234068356 0.1796942055780858 -0.06457860505160642 -0.2092372285720604 0.27602740956035077 0.24291484496053872 0.03888004962563352 -0.2514030726112305 -0.35929944160324256 -0.13293502034650556 0.0424901997211786 -0.16308808810683048 -0.02631470281734246 -0.02835150924127565 -0.028990862134445666 0.14864625384662922 0.1714790380925452 -0.187654499851691 -0.14348101915280784
107 -0.09845212889736066 -0.1650109075695688 -0.050007062674383054 0.0689370391951231 -0.028909576969084125 0.044130882796313824 0.015034230903694745 -0.1722649805056859 -0.04988848559470215 0.1315236694839388 0.07564152306937089 0.05032138047680403 0.002513607628695109 0.07332625212235841 0.07630750049918399 0.06351162404107245 0.05423882084238557 0.24959195686659844 -0.015786974348666355 0.03302728557566194 -0.029166100185733 -0.05552938010704177 -0.1220687846659216 -0.2957131680936433 -0.06174916485275299 -0.04303281714452029 -0.041915320789853903 0.01418046045326769 0.07352999255999473 0.105748054075604 0.1494541616249504 0.051284672179450416 0.0864677012034262 -0.12046521967809426 -0.041218695657021596 -0.0458227926439131 0.0013260601745425315 0.04433624260072884 -0.07815206971671318 0.035225776241353625 -0.1075030622546388 0.05294555791347397 -0.08192550549553819 -0.06191472618760073 -0.009057416355376833 0.01580444645283447 0.12521230333738123 -0.06592552851096727 0.16633530657558793 0.18472805648232987 -0.12002147774007257 0.12839795923026262 0.07321759298257394 -0.03284532879102609 -0.13842405656429507 -0.03300198970304548 -0.03450271723565095 0.1852877384172002 -0.06484844782092725 0.1327640531962094 -0.060064371581063154 -0.027640307173568912 -0.12769761763686283 -0.03290829566608441 -0.002662569725542231 -0.047936178903966176 -0.12650303094279522 0.04143904376551029 -0.020510839417428407 0.03873993681935763 0.13712471558128964 0.07599828954774458 0.09403018217319556 -0.16323969812915565 -0.01609411546634016 -0.16670168880981376 -0.10621582796697426 0.03894551652409569 0.027303510676433298 0.030550762762855628 0.12640341922925047 -0.10520777985562944 0.1389599030971835 0.013194121566921492 -0.13646878027111017 0.056940763820792016 0.044760056160390645 0.1534260967610476 -0.0959174189708105 -0.0627354064867673 0.08880230004083635 0.08242696220620647 -0.23117962244670112 -0.15375367309446475 -0.03736057277005772 0.04184816712568711 0.08694555457598739 -0.33500587857785663 0.24720233915595466 0.1903844856688916 -0.03720705309997066 -0.020407513922449706 0.16129225347039503 -0.07342906352023376 -0.1565322025096602 -0.0856891184229723 0.10780593014187541 -0.02430378403617475 0.033646909488844474 0.058288242488367795 -0.5007785466766108 0.3513457275506958 0.23838050626808266 -0.2500767596546084 0.1900546982841842 0.13203782992859545 0.0355640024431143 -0.20227834659971294 0.12581822702770717 0.2692333321224382 -0.1090636274045791 -0.206478465447568 -0.0332293477102885 -0.10651348908118541 -0.008094342917028645 0.21604745387952293 -0.14833643956129972 -0.15358986804911645
108 0.1943079706147512 0.10619443694287233 0.0415028251273278 -0.0393284095508012 0.1341956896821047 -0.0811554858015683 -0.033183438771314425 -0.00457524581473782 0.15992692516105983 0.0948720931893105 -0.16772818502559542 -0.011498617455792304 0.01009913034947448 0.16200291490665902 0.10304166689714796 0.16699518648957 0.03326653857480305 0.013165589921719786 -0.1151879892400995 0.1493792455049845 0.037759130617298284 -0.09149092580015837 -0.1751725815911288 0.04448519004957968 -0.07773370138353264 0.05997734159873746 0.09217247351150268 -0.12835308907052642 -0.08788910885595927 -0.03693762129562594 0.02857946772922591 -0.05287183999682313 0.04429729007137479 0.039015407050751384 -0.12290574589576599 -0.039520580394192775 -0.1182283623793656 -0.005716906066924593 -0.18766684116120186 0.03873331985589883 -0.046759132370756865 0.11343724396807142 -0.09612125096502297 0.0007918312022605832 -0.04768010886368149 0.07400318052313348 0.01802072766020117 0.2095511290065704 0.034421234102406016 0.08334206249745335 0.04762582957161271 0.03355966500272345 -0.031168036796264755 -0.028716009741310982 0.06416814647364365 -0.07344794344901023 -0.004099665291960654 0.019109484065780072 -0.10745690592328587 -0.04068062125605446 0.00023127022641407895 -0.024662370821021525 -0.004914317970899994 0.050157654907918924 0.07125379155571489 -0.10690376218499632 -0.16898014768438818 -0.06404939699744541 0.04282207238831898 0.10229323086471842 0.192247895612194 0.08494532531391112 0.060820275373119875 -0.15896930036684584 -0.06410219003402431 0.020365038382253377 0.05357746789867152 0.10101389487376039 0.12491657340365808 -0.07034669741463172 -0.2408158404023603 -0.03208774636108208 -0.2748681258911811 -0.18344413180797267 -0.17410499511360025 0.12999657545407442 0.029473719356720683 0.10726808242570228 -0.0803529373421214 0.03380250851660726 -0.049683933365000495 0.11816893379854033 0.10605710938894042 -0.03325371220345311 -0.13109332759438108 -0.03828234205600549 0.10474462621075081 -0.19408217425801122 0.22873106347602 0.10077124261188106 0.023280187382154083 -0.8239211729657347 0.3860885721861016 0.1753662473587789 0.10745573214789478 0.06524344148255658 0.19052560936626692 0.4750199101546158 0.004941230496359378 -0.13357246136626377 -0.03438677537439099 0.3217045450297373 0.1696174693266103 0.023633031844295112 -0.020603235823005557 -0.08123939231770906 -0.19783823747938892 -0.094318731296911 -0.12255195609661677 0.2154709402996798 -0.0642801839359306 -0.1596750712692343 -0.08800068709448478 0.0728174979220186 0.30861982889155753 -0.2351339145687934 -0.3622215222184401 -0.3105236584813266
109 -0.1274524514553076 -0.11077161726900242 -0.028781553180548865 0.03833586307249011 0.155801608290341 0.02743192498623505 0.05632345618806902 -0.03153050793725453 0.011090051044243534 -0.078098219139948 -0.011055681898425348 -0.08890347540572738 -0.018484766436309828 0.08814016437578129 -0.08005509591285742 0.033041965344794824 0.04772825116161386 -0.08883186245988622 0.18008010472210884 0.0913605647800154 -0.01719740215382966 0.04964763815800145 0.0010784615647100497 -0.19075017545354783 -0.012000595715558697 -0.17686767634455658 -0.04690675434350206 -0.014241157885841852 0.04282177324923139 0.01219704071593506 -0.013219533523966296 0.14672528496818768 -0.011720069247713053 0.10598991664407528 0.06674191769657668 -0.20134465388446052 0.010032628856725997 0.01692332099751639 0.13933955031162223 0.02769150989097702 0.044342784102298374 0.030812207372546033 0.04456020610285203 -0.03289651446624522 -0.11872098571929397 -0.05379825799705217 0.12631593575790204 0.040830033341781986 -0.12726241958438153 0.09953791389327604 -0.3013814177355447 0.026545699146814743 0.013100510758191602 0.03734647133923548 0.08210780908778738 0.07108041515045167 0.021536504956847766 -0.00863702479813755 0.01891272387415338 -0.04034077901664518 -0.14250222037259094 0.1123421646219943 0.1533009844353507 0.02672102106288357 -0.06339049113586731 0.06239434634875992 0.10592720136620963 -0.19538760368950983 -0.0014821297337136306 0.08971023751327563 -0.29716468660026923 0.0414901178334052 -0.05805007796968793 0.014977260499305478 -0.029242952242076656 -0.026193018112290616 -0.11777699883999572 -0.02201418499491799 0.10168318262527228 -0.007550769561430825 -0.14347667016076388 0.07382321986300067 0.26608293154103574 -0.20958970763778056 0.056681368976331 0.15675249745045056 -0.005138891078688414 0.01163983211232089 0.09707072617407167 0.3506940790324959 -0.01657218338837485 0.25586342843189175 0.014364306561808614 0.16517378535610358 0.13683792076319232 -0.20949424289081342 -0.3818232801961233 0.34100797002187394 0.161944125983145 0.0363173408996176 -0.0867672249327362 -0.1297330086607878 -0.056521052896066445 0.12706960302277948 -0.03860682123916197 0.13594512001510087 0.06535667168715939 0.042573019471242736 -0.04379009283829171 -0.00832613648920473 -0.2265299952541215 0.021731945754985032 -0.17187607051031 0.1485519733664805 0.01397298630215123 -0.10879978022162189 0.043117518604852474 -0.034150239468322366 -0.11523061972184674 -0.22395651946715933 -0.005083352234154801 0.5029709345673629 -0.1393575554847523 -0.16345235584908271 0.31457161489695756 0.5984510164774364 -0.07280160959000714 -0.21720333681541307
11 0.09757327678781946 0.1378735988628293 -0.052729819034547966 -0.0014542230040745193 -0.07021214484505102 -0.26443529863360166 0.04052217881742291 0.11341605884729493 0.08619621338350232 -0.04641641750795592 0.10905719414475995 -0.11014621894368717 0.07974630583341764 0.1490755030851157 -0.010307705844356177 -0.021708530093259862 -0.016921391263881702 0.007624169411816765 -0.01367727741421777 -0.018189587264323518 -0.025854429971546394 -0.030849182589069456 0.05884987282641714 0.15281262392958833 -0.06262904872122152 0.04444918309100386 -0.10186932327629976 0.1407717964614288 -0.18350966346522568 0.09581352487290934 -0.16438145351204633 0.10295766971756427 0.10620766395543792 -0.02551405611732744 0.00609761420775372 0.026540595731946406 0.014316831698530966 0.030279055190733935 0.010665106912139146 0.02825339392352112 -0.2030996072963563 -0.074487902030204 0.08187230109527001 -0.03243527379536188 0.015868316695920523 0.11091540431530413 0.33754165043195905 0.0354878785899729 0.08247106408574849 0.048873546967112116 0.002065526871664982 -0.12029275262268042 0.03678919925432789 0.07637692734991311 0.060480466317065065 0.01802606755859105 0.020413549385906168 0.17124266163821647 0.1308287871905567 0.12559077684202608 0.03189995805689521 0.022793107485771673 0.14539004330174288 0.04997974096101097 0.21098919649987863 0.08096037868147918 0.09854891538087908 0.17495961059650958 -0.05978259213208014 0.162126712307576 -0.13120682088778163 -0.23559125404672446 -0.31162428302447764 -0.06647772067426819 -0.011878716756028257 0.08180724989568439 -0.1801826549287472 -0.12120846309594165 0.03510033528938508 0.16374902103340214 -0.05311259778995485 0.34728179309783946 0.3435266761604812 0.2132174370790063 -0.06736359851582954 0.025969249900955206 0.31733677026699836 -0.2026066442163411 -0.0197210964554851 0.1771211031688085 0.29172818588071603 -0.0975885082309463 -0.2540746265209035 -0.2106221859083342 0.08731757240048064 -0.11588249525038279 -0.021595397639334168 -0.0316726705174641 0.18068429438466777 0.08916299445370532 0.1975782045977808 -0.344186388022026 0.006427129840280096 -0.09688893233412538 -0.1055690759487587 0.016960327671328986 -0.30043406043311294 -0.047377007988276654 -0.07977759584637743 -0.00399491948553647 0.13478491608131196 -0.07631220222538473 -0.09807591620473484 0.01984159844420183 0.13028120360843903 0.16067902377002297 0.045602708811201806 0.21077647794200063 0.077616431774115 -0.3985749462717883 -0.20494758794300122 -0.353809944534706 -0.002074106289428015 -0.026143846582467423 0.009610939329564975 0.06035378641243874 0.26030834408673564 -0.5390314495542141
110 0.011163587244443126 -0.08769555915538739 -0.033829354729443886 0.0811728690767205 0.12921583325758101 0.125351125182646 -0.015538734132179318 -0.11721244279951197 0.03634081789345705 0.1157837063527128 -0.04778137289646179 -0.14852482449626594 -0.22469592821408585 0.0214326645501062 0.011716476096562716 0.003087090269993617 -0.05741071952936485 0.03515915990538436 -0.15861100860906158 -0.028937282168843597 0.04784099719111202 -0.011399040041741726 -0.03577804273823176 -0.04844865190373932 -0.08582956771682067 0.0008526977499761447 -0.04110488657641788 -0.023198715775652426 0.010593856846077662 0.15433153675207156 -0.034214799154105566 -0.02411426211108633 0.016860344191580456 -0.008363685044357192 -0.03415057383721291 0.03712231143538785 -0.09983681387040177 -0.05237215019462825 0.1304823661797934 -0.103437516549971 0.20543945799246766 0.018631469316896212 -0.01779804484732322 -0.04455098397136688 0.0873742964419403 0.06156313208138804 0.017236356483232896 -0.1025721140474928 -0.12531977417853016 -0.16392779942412644 0.09548137956160771 0.04588466212526589 0.037058612384146795 0.03741926951906637 0.0793562169263444 0.05239211466842079 -0.10747523085030027 -0.04806710376348324 0.12168507302880668 -0.16177642298975348 -0.04143049908334799 -0.2065399302787036 0.2225265154517815 -0.010028647220218687 -0.07328026375828066 0.04662079646081823 0.2666815653825763 -0.01987328598995247 0.12967461378393305 0.2728563503756428 0.03991996521518706 0.3072196685007412 0.017069491605244944 0.1477388779817797 0.009937883614054028 0.011594094150007877 -0.017448406523775845 -0.04331299975080588 0.0996752898927785 0.10008272080887312 -0.1255198085697854 0.13550108499902008 0.17496972571041164 0.09030667315029894 -0.08107989881366792 0.11107865188922268 0.24920723347797516 -0.21555549388306056 0.34557673157682794 0.08254055617089344 0.24651778392385681 -0.115644769442401 0.23633055965055924 0.055634562973169606 0.2813869004616794 0.3082836374043335 0.27387280954696225 0.23456006377525984 -0.10397438419101868 0.2859418661692951 0.021269605228687427 -0.06466633629096237 0.07293995254546105 -0.04111858081303956 0.1280797690524256 0.0076356406222681215 -0.28330927733502625 -0.09018378149192731 0.19277613323634285 -0.11154028795216579 0.04116632605989264 -0.028482506158198796 -0.0993561941078031 0.11056516784271378 0.17111543237791624 0.08142053266019736 0.09231203749156205 0.13408743942861673 -0.2057389430848623 0.08795538939224264 -0.226588592872614 0.049222848368797596 0.1294733123245897 -0.08854945581420406 -0.39255900006330674 0.028444103789740494 -0.15975954772308687 -0.2503173704706856
111 -0.16151888013615784 0.057715583732607316 -0.05848637511048294 -0.08861823051885546 -0.07765242871861591 0.0556720590515553 -0.008997016698415171 -0.0015366942968843757 -0.004732539455103932 0.06857926487689445 0.08206836180861907 0.11602607739615631 0.07396622260359971 -0.07338181254614418 0.008496284486140834 0.03185002196286166 0.0003676018373768514 0.16379344783975636 -0.21226037667946976 -0.004198286788800684 -0.05534844484368498 -0.006299797203352196 -0.20628189609231704 -0.009013198442132457 -0.018835659742431198 -0.04318609632933993 0.007883438687261225 -0.02656215991432783 0.0017242508558452663 -0.04919463455424847 -0.08916768587949842 -0.022288671671558066 0.05068647470886096 0.06173323278892447 -0.0704276823958816 0.11523033557613874 -0.04508271741882083 -0.02456383056821746 -0.001506829436934097 0.0073330976709592485 -0.11022344691591554 -0.11625581002410734 -0.10033748808805974 0.07428241417731184 0.09356532559028782 0.004973081735555967 -0.09398736180328843 -0.003602129365894757 -0.0666376277981918 0.13158514495708967 0.11042078138204861 -0.06652658840111307 0.0027251302635779894 -0.1643889171954057 -0.026315408794311858 0.022911345015629074 0.09429135789141951 -0.03920338569043014 0.1245145625267672 -0.09184879112793666 0.04745094473700074 0.05946532567189166 0.08049647107392989 -0.12505122304477245 0.1953761614759102 0.08654135409082944 0.0908373828916412 -0.033393641323784626 -0.031532088500259924 -0.03697702707636046 0.02061583108750225 0.02407958343666752 -0.02667928527229295 -0.12034686598721618 0.08118280940714115 0.057503179418503816 -0.029775723590453815 0.09963529685209917 0.0031129242749335963 0.03318099792323727 0.09088324225923489 -0.06507034391944881 -0.011387471981499874 0.005221094638256294 0.13594373655410807 -0.10833894301761847 0.10318163105967261 0.118016077903985 0.03064405488878814 0.19498496541451038 -0.06949097944093473 -0.006765297363979938 0.052111055607344386 -0.17427498032821104 -0.02414480194814129 -0.056986427190235625 -0.03615989777404335 0.02550486820803745 -0.14906013336741547 0.04835773308500089 -0.120038721582503 0.03395275654602818 0.04793188345892204 -0.10972092327475756 -0.13579516658458476 -0.16562210848647024 0.06473207632768907 0.11331046247462657 -0.08835322874675268 0.001510244164016218 0.5954641285709747 -0.09244712881697953 -0.03290147173521708 -0.043299945313314464 0.31385702893188194 0.2768089538445833 -0.13136026940461176 -0.4486072663739951 0.008441431229217582 -0.22908326605199522 -0.16156138501119865 -0.05446946234595184 -0.00674434474428316 -0.09886179955414273 0.16117379219863823 0.3004889776681088 -0.1961357277414867 -0.15398617679157597
112 -0.05174958479647101 0.12268273578590609 -0.11783095472158729 -0.008511471681090479 -0.07928028994685589 0.0358853085633285 0.020961941417851758 -0.06883228407956754 0.008126973184700943 0.11440159932947122 -0.08301281973352886 -0.059890508811092966 0.09182352128021327 0.04623295211856543 0.07104972736331132 -0.023613895440433377 -0.01623553205364544 -0.06389726459115716 -0.10824837642238913 0.00946510595075385 0.04284534279104883 -0.174446008018312 -0.03379957025649324 -0.0064490185765416035 0.371601254483651 0.07898040342720869 0.030416331180501733 -0.06989024109389848 -0.032273432937151646 0.09189657400117651 -0.05211277819896912 0.10482129310587851 0.028922323546615922 -0.2110612868799349 0.011015317532548783 -0.10171027647394808 0.03233168344619864 -0.15880875753525664 0.1426381759077013 0.08469549616083213 0.06865348279495119 -0.09054868503264976 0.10399766346062789 0.005737125311170181 0.09448263127896216 -0.2739201776090473 0.20768491328371608 0.0776192911816453 -0.0017576249327085017 0.2231395178795624 0.09836382723820435 -0.07996655753398908 0.21659487168766323 0.11640151630841168 0.32815285047099907 -0.0199613063090117 -0.02040235288990397 -0.07634610841489003 -0.13893767935638368 0.06894019437158282 0.16155086148544429 0.031554354644560884 -0.16002538223860968 -0.11099834947744056 -0.01520204025068028 -0.14655411824557213 0.14753157256863098 0.06727273329776441 -0.07495712464776055 -0.03173258112625229 -0.1350628671789106 -0.03844470304459536 0.06587732368300804 0.034392289487138454 0.01863345982181974 0.027553315636423357 -0.053926544517636094 0.05599650910494164 -0.09187793669884514 0.036377980132432416 0.07801406433327708 0.05291395700430492 0.4836106485976693 0.030447950325678232 0.07896334644172191 0.10306158771942045 0.18179960141365917 -0.08436875514667085 -0.02566373747138684 -0.036140015713150855 -0.23402961295368513 -0.14090548482275622 -0.49682017954136176 -0.049177154660445165 0.01834074195198004 -0.2485874301354849 0.04189104320902527 -0.027373507551788853 0.17016816149966354 0.01162237974864448 0.18655026822930176 0.05432464570692701 0.2452401755581413 0.3131920690327753 -0.037708256047056216 -0.06348713665797266 -0.07723550520212003 -0.025618966750906896 -0.08000291095393497 0.3157264634800104 0.08658687524330914 -0.030957895430925825 -0.2776470987427967 0.10540593586086262 -0.0032524891629595763 -0.03397228390498678 0.005327669940082308 -0.020935481737389305 -0.002894673906808516 -0.012511159902857241 -0.08090088681050091 -0.008571979809848959 0.07900901751672507 0.01812876862624815 -0.08468059523126965 -0.12138068650842895 0.6201713386699175 -0.880413341633071
113 -0.04841052827757589 0.1829709463115216 0.010837991048130059 0.030777442624937992 0.04046455548702385 -0.053178974608344615 -0.013123411185310012 0.017926093384973453 0.0018873662528953758 -0.0843637999695983 0.006982358488828617 0.013730476841069154 -0.24584237501873418 0.11945966995419578 -0.21004904980386296 0.09663635784204341 -0.039261716006403664 0.12099217501493774 0.16442516009095356 -0.008363977436352097 0.0034329171264684323 0.00424100678565894 -0.14957451262292987 -0.0014258570707246661 0.019862559970230422 0.06757803564589555 -0.03531252129252643 -0.02671996714761227 -0.001769770977502316 0.03923206104708248 0.059137664872288095 -0.002663465901303088 0.03949599988040994 0.08514328844062569 -0.10696595376201261 -0.08371032234925752 0.06562293360223324 0.01863341260353682 0.07507217359197299 0.07076207981251442 -0.08628841696233225 -0.002747255980191708 0.04105735392679801 0.07821241944518618 0.029171783993696545 0.14513553320132144 -0.04525791865651607 -0.0616556532447298 0.03928664998583534 0.17747832586137244 -0.05160881560088262 0.107834433212202 -0.03996090733062268 0.019128472655095076 0.06120236584571729 -0.06328627630462687 -0.015605839484521133 -0.05086557627064778 -0.16415931127074226 -0.038499101020526894 0.08003893135968972 0.0039466491304209535 0.016586271340310172 -0.04998096763784259 -0.045528389001407966 -0.02742175923758741 0.11845400705971751 -0.12770501156956912 -0.11061774560914157 -0.1216462521542544 -0.079266386818805 -0.13461906007804322 -0.11081476152843601 0.07889519263823795 -0.17395696610838549 -0.06362990646038735 -0.27312996882735113 0.005084070693555384 0.12400909883861129 -0.033160442485116556 0.20450118676642348 -0.07050437299385147 -0.08187634185796346 0.09384501598227434 -0.23347778776602943 0.04192695308492535 -0.06802920527884751 0.1438483905979337 -0.053039446348314055 -0.16649541785588154 -0.0215731011803282 0.007974047083697733 -0.044461209235740776 0.1822352766653297 0.17375909297717804 0.01619781193846037 -0.27928624497238586 -0.0523941306782877 -0.03290933325233055 0.13905186177182705 -0.0733798454569981 0.005282287610856861 0.192354310809699 -0.019660062265021677 -0.08126469610947137 -0.018749068435318504 0.05387750419843521 0.08167667999059768 0.11363059281284628 0.016592960786425692 0.22438485888410842 0.0609008761586059 0.1185215679961436 0.08205103106700776 -0.23229180033134122 0.05298799364861328 -0.06945892882289452 0.31107512865626236 0.22426117244601337 0.2612858403338574 -0.22666584446733068 -0.0892812928652088 0.11968924441588454 0.011187221092194787 -0.1498656358067863 0.2106445133545727 -0.220620935369883 -0.12800718881436837
114 0.11722727628506381 0.04381572678906944 -0.039476924955164916 0.029700663965536722 0.002994666733253629 -0.11047439789914335 0.027906492726373952 0.016952028257008797 -0.04631857018100789 0.00957329809059638 0.0038245592464294935 0.18124892148264818 -0.09490829339937615 0.016840718413921735 0.07175240191135895 -0.13089870027775632 -0.027403652895234127 0.140489135795738 0.0791026566854948 0.004497432276014905 -0.01818689036367634 0.004287891476594898 0.08210615021868521 0.04990537185211923 0.061002119591019734 -0.0763585001664255 -0.07823737660174093 -0.039178763031138784 -0.022048426499367262 -0.13559928900246923 -0.027815278973456016 -0.05969258168664402 0.009671323129816924 0.01923375740902721 -0.03474970916628846 -0.1406366389065093 -0.1311041280916399 -0.023024154970665327 -0.03165080495157381 0.031565292513134155 0.0028523500973029635 0.0058042329388951165 -0.04523928046463204 -0.035344683295306566 -0.11305344463941469 -0.07280864862669688 -0.030293909507056904 -0.1105843505375777 0.03117184365085147 0.16724415626158493 0.03296798600052777 0.054019833859027006 -0.039561053135627966 0.03778128648284652 0.06361351633759442 -0.025303741978255613 -0.08352239814452013 0.05155202106366488 -0.11666595265240716 -0.17890706018434302 -0.04024669731339405 0.08732063326915396 0.026213774138209446 -0.06262270270875649 -0.06286663122564605 0.0866782538139558 -0.09388027186996566 -0.015136197853286614 0.08901030777850687 -0.14458170661379321 0.013708357151410694 -0.12712585401629536 -0.14717643515100665 -0.10521936320690777 -0.036146542426451905 -0.11546599018395469 -0.02295488438717834 0.012015836141084802 0.10729251479325437 -0.03274300656310977 0.11673058130585477 0.07469809706017337 0.08315731123750923 0.00032309512431241314 -0.035170397383149754 0.04833837040868732 0.04137752185301408 0.20998129869518292 -0.05740293321686422 -0.07414754935134196 -0.034305193238038885 -0.008769372295494158 -0.1088389215677661 0.09208104644398186 0.14633753492866647 0.17021704931515313 -0.06607718229039339 0.08248362311157564 -0.059514212179298503 0.10256651450036038 -0.145523776697786 0.0865114643902421 0.04108238214279393 0.1519154782363835 -0.13391881898797714 -0.04262278301938385 0.12384208624256594 0.2978972611227942 0.06087125941172086 -0.03317442132897628 -0.06482423110762751 -0.01643074330567603 -0.09574186470791941 0.037069682752240776 -0.5892459602671161 -0.017823082801278665 0.14861650752481673 -0.25746000720196976 -0.0365494353915379 -0.14471356963083398 -0.18666234107544716 -0.2644552739100084 0.29502225498971546 0.019547207018283042 -0.17927714320585889 0.260871442113451 -0.30512600710794496 -0.14764711163346192
115 -0.04315311040094429 0.08297124724275737 0.08472140969741769 -0.025461516771712645 -0.06109293144477681 -0.05728051451673449 -0.17946877795452332 0.07290455864984417 -0.13968150600682352 -0.1966592594944986 0.13151152346262118 -0.087800674442709 -0.0637054676687422 -0.0018549715156832211 0.10412329395694007 0.045243269634014746 0.04759326156834114 -0.09219471160083945 -0.0498880229532391 0.3312285780347392 0.002119709261812585 -0.22104580397009743 -0.12851467963632832 0.045431442335670785 -0.1835798649590585 -0.043473417836390395 -0.042219276875800064 -0.01426594268646484 -0.04886651713246934 0.06389040387903604 0.08379042657683995 -0.17890361214319786 -0.02059496152207104 0.043522566457668915 -0.15742304031870366 -0.06758330038932564 -0.0010848401834683888 -0.044454373107941314 -0.056893411316316 0.003191206320101451 -0.00685150104948658 0.09632568510997919 -0.04379327069705809 -0.07463901195276007 0.047655959806568574 0.013241166109478203 0.0325383906226395 -0.009404797954872382 0.06715049142119803 0.028074782638892497 0.11782710427599452 0.04254034172517739 0.058217713355261685 0.051968907546120276 -0.041488380082928954 0.03767066150127743 0.06842050543001661 -0.15951473736573354 0.011759840738118213 0.003649630223665688 -0.059142670484148264 -0.009899563030491056 -0.10844517344268875 -0.032876171545332775 0.10120502591022888 0.02447897638600473 -0.07095958875003544 -0.024442111201092655 -0.011437166014012465 0.07402096365950511 -0.018656069814140103 -0.15302619952432286 0.023202326054235226 -0.027328178317936522 -0.017638802254522648 -0.004914476789848912 0.0356652112195909 -0.025552103220959195 -0.15253175522659457 0.040277604186265234 -0.14621386257641375 -0.05760332042077938 0.16218664837693222 0.10702247761865363 -0.031651609887058424 -0.04650732234757627 0.0398102256356866 -0.08594528775755896 0.24554859096482856 -0.14121166120475012 -0.13179030124312138 0.01298886916989603 -0.0034538608288698204 -0.15578078317850327 0.31796248370317415 0.439400901506447 0.017217551691204057 0.1230229116650707 0.6357454604864325 -0.1923727475858939 -0.05408604827089154 0.2623373064822153 -0.01602328459551966 0.24624070733766334 -0.017278456145505813 0.1099324720654982 0.3281827947813354 0.10633393562365599 0.024828488977331236 0.12348861515887967 0.14630523878318463 -0.07024463930098104 -0.07138080740110665 0.16189837980215668 0.06856282778720438 -0.07271352363544017 0.2815888344858737 -0.1541771267528768 0.06037121804778068 0.4562166558464805 0.02478191212718188 -0.2905572763138704 -0.5554342725154944 0.002914812786340266 0.3501928903532542 -0.18523880555737413 -0.23290588628414424 -0.34262302128533
116 0.0639575856752391 0.04668796851972843 -0.008477229152476572 0.027628757551976732 0.009794710819216224 0.040414024515404955 0.0017423351662093328 0.11163636216043836 -0.03185945927531851 0.059502696625466825 -0.04705444878234013 -0.03194451800054762 -0.01167278529077038 -0.004069732450004487 -0.06569656745827121 0.04337995996443011 -0.01625859839101524 -0.011859119854312582 -0.06388612533722526 0.053638246842217796 -0.0032976992858873354 -0.07642458931270847 0.033039502283680175 0.11795325636233818 0.009342515462701165 0.16343146802255296 0.04055726834099416 -5.6735587761675144e-05 -0.05776477476247442 -0.023344493771487836 -0.057292094390588966 -0.137705133001521 -0.08897155738257576 0.047818995309838096 0.018633438091815564 -0.059499074234491085 -0.046382482367164635 -0.10296461762311429 0.04313825035676303 -0.06894398158700325 0.06498488112607512 -0.06246506536258303 -0.02201379480184286 0.027363556427892545 -0.0747793788113214 -0.056569804498609766 0.02340045055274041 -0.012258508560146205 -0.033119745647827506 0.02117725608277604 0.24307494737658525 -0.006671902438977852 0.024805933551963217 0.029542751679924 0.04454018299727197 0.042706756369092415 0.044835197218669534 -0.11611293931401562 -0.0353794447409127 -0.015850681180585115 -0.03627635312506907 -0.21377091858786385 0.027968983211435778 0.08735741042752965 -0.07013825614260491 -0.04324882435296234 0.002912135225754864 -0.09498081322548027 -0.0075580854570039034 -0.08016413693599314 -0.11922724064765532 0.031647210421728814 0.05427846763741461 0.029614114269207337 0.011773940534360311 -0.027965984201728092 0.039485305716310516 -0.15593446854944096 0.013805537734601957 0.11630688190866867 -0.0019423636530408923 -0.06026854498002277 0.0494837646595945 -0.035018956922996794 0.11013121596057324 -0.017025485392950436 -0.13854723580154124 0.014660046780577708 -0.07632417752778911 -0.09736911793496786 -0.037077733043712195 0.022144509528665608 -0.04242369462327599 0.09337111251822865 0.11317934517812929 0.03401873115684285 0.08626098141687961 0.007265146188707159 -0.007401853577743952 0.050277614135591404 -0.10053353197438014 0.028599284998247 -0.12482480232422732 0.0462629013121867 -0.00505314643703163 0.04197109930117913 -0.04951931347719836 -0.004685276862783969 -0.15245658329729914 0.0075284714306822695 -0.09552233236828143 -0.10802617011455155 0.049398065352651524 -0.18902450416885708 0.06389264510779538 -0.0641455816555534 0.003337962243710794 -0.029816880710592214 0.06126554540183528 0.03732640370997299 -0.31111352117166 0.07310671748967298 -0.004194821405434097 -0.04508801507235988 0.032553782487425825 0.18518327985408517 -0.09064384209026222 -0.09717291290524374
117 -0.06533109021230073 -0.01697850702561708 0.005609511171324295 0.002368225483755428 -0.030721193889943026 0.02648766904386529 0.032466494292004315 0.11359754292674114 0.06080091958119281 -0.09875662558939917 0.11734414827709257 0.026567872732540243 0.11428718521525412 0.07439285993646194 0.009923628799708884 0.18324258964423304 0.026919409943119154 0.0028390211591084826 0.06736717021465108 -0.024105527561092726 0.0015300062198329147 -0.03021483178498919 -0.0004226638610801457 0.003576233652953293 -0.03211456369390701 -0.02239896878992688 0.06054730187676699 0.01681458453243327 0.0480531139113582 0.07924818089375597 0.05207258969492234 -0.05180843422637665 0.02996311078842112 -0.10395054396585302 0.0611081823117717 0.04918865880207577 -0.06790750900952279 -0.009829740414247671 0.07491869606896659 0.1303891493607738 -0.023262303390962788 -0.1057819111734395 0.15209974661505554 -0.023707621122623774 -0.07002091629602628 0.012221579765384512 -0.09193218306441833 -0.0035441577218050125 0.018640486911021877 0.05653173332830531 0.032559465518233986 -0.018563032890426767 0.002304030090111745 -0.02233851948110146 -0.03093123428805588 0.10452132438662286 -0.0409619635688196 -0.02143934046521247 -0.07481194160948115 0.23442457326020355 0.1472207184219341 -0.04286515023456541 -0.22342200340951923 0.19304042285787618 0.034894338510427815 0.07746180237255357 0.006890984839631542 0.00499471409645975 0.10563615025673946 0.025947325924289777 0.0551396836692818 0.020348060561708667 0.0632151445629457 0.011889867809461925 0.04914277047761231 -0.21576193979933625 0.018560275802306927 -0.07517287073503644 0.14811126895351306 0.04213633114481886 -0.027302476790035182 -0.1598153504563875 0.06941840648300215 0.12031850394425446 -0.06361798845423496 -0.09092443109052717 0.04599443739183146 0.001320151705243406 -0.19202197243959868 0.18825170413089337 -0.17861353961195764 0.0037537831009416644 -0.011896748187852597 0.06331915674478077 0.010571311563386336 -0.027712454390071452 0.1584418901678849 -0.13715431917389864 0.12933164203676198 0.042437437131274375 -0.1383425773400038 0.10194038132391106 0.057378188482989576 -0.07011719712570263 -0.0411306731342193 0.07898083494338923 -0.1654349219683248 -0.10617534455860533 0.13465801715441042 -0.11286379017006727 -0.1585435934255578 0.01676650615768524 0.1461422728607871 0.0026629580911193638 0.14282713081165221 -0.011082997910931217 0.08020496968038233 -0.01354665555796893 0.0021257151870946586 0.10824160611885875 -0.2801410616111919 -0.01577271557379238 0.15309291933294272 0.012554086501700328 -0.13064605242324406 0.15083120529059782 -0.19103412853261212 -0.11484022172741928
118 0.006614077205426485 0.09346884693124784 -0.052223631531640086 0.009489575180919453 -0.02043403720007111 -0.07454721208672385 0.005261407306243097 0.08305596949892267 -0.08209606329191207 0.05437076487402772 -0.0023893299206125787 0.0440700016519849 -9.582105644638926e-05 0.0419925827660017 -0.01283970947187606 -0.04366633323479383 -0.0008282756365042578 -0.06372428877782217 -0.20183979618974762 0.04526792224812746 0.0438772445501446 0.09247399838028594 -0.03442274549141378 -0.08857930282769493 -0.016382756645975362 -0.11655037902811108 -0.05402852169734956 0.03423674552550122 0.06046765434494909 0.18294235854937763 -0.021490579018990704 0.02579971824360977 -0.006029949856010842 -0.12920597087459293 -0.023146399059643528 -0.050364821130992235 -0.09930771806676018 0.05040983632850669 0.2089290067254693 0.11747369136963692 0.11924508950796563 -0.0006780895214442565 -0.055797397499313874 -0.08407577324551516 0.1249391108985799 0.14364753738417926 -0.061720100528226345 0.008892274099833281 -0.0740237096842275 -0.09781970205337993 -0.009507867889201094 0.017877728602748576 0.003126121040390007 0.18899042517583675 -0.09546620393042528 0.10990754336556599 -0.0038533698055908624 -0.0158355185690734 0.03195510887243395 -0.07833880130419182 0.00739875292444114 0.005657705381954011 -0.08091235196383219 0.06773392956871627 -0.002306634184355508 0.08004389691123677 0.09847562325734638 -0.1598618141001405 0.06082302689604461 -0.0027803511537800186 0.14033965487642694 0.27993812447504457 0.03541476515293478 0.1078843194611734 -0.036356777991139684 0.026417903168345972 0.006597553994966075 -0.05148177588606095 0.13430193092393894 -0.011977355869406701 -0.022701647357377126 -0.03773236881082168 0.13271869200013547 0.15239297895023793 -0.011201514959730846 0.0436329679243637 -0.01583017468137444 -0.16893653542461678 0.03881900332156416 0.07967396428458152 0.1446118573305243 0.10051362575475642 0.18421802763286338 0.18108424907133233 0.13665295205748934 -0.02003860545631228 0.018769790434878877 0.009100913646277568 -0.09196714260726112 -0.004848523100017369 -0.05974978142312242 0.1694923752930917 0.04082947722281937 0.19446132444778896 -0.007907659748960528 0.07939706029413482 -0.09260237303068758 -0.15281395123973884 0.24275700573405504 0.04734511192687878 0.15896962325395 0.043759197860023295 0.09803314331448698 0.053418234322615304 0.14002364209518653 -0.1683695813109447 0.2801873648827742 0.21689240719682115 -0.18635582081594373 0.08082134463939776 -0.21596155296678043 0.022703694991727464 0.25792225121556517 0.028316239973065652 -0.38960092541740177 0.07175345680484009 -0.37273683942766006 -0.19666198453915065
119 0.04940354971887905 -0.027760687613369295 0.13733982249060164 -0.09183336857342185 0.06268941235645084 -0.0019011869353641549 0.026538935121218736 -0.0450466952597362 0.1747025132932879 0.03325835672381813 0.10902653747928195 -0.035100788309339784 -0.06496638832392128 0.02312137216966997 0.04768657738832667 0.09234480457132273 -0.1149764180604227 0.07497786778005706 0.07720574175335793 0.0429520463313363 -0.016033390610874672 0.003922130742973707 -0.005714809415541839 -0.0522164561994637 -0.09242317386838016 -0.0372600034444286 -0.001485405853693396 -0.09587155071332129 0.09764827931140031 0.0006062339852624994 -0.1588907926892179 0.0017284814516892117 -0.04303140539934805 0.08428222756041141 0.23262621544451004 -0.07683757159006234 0.012374025826251436 -0.0491221856814891 0.0012885351714548242 0.18998139235451755 -0.006377438066974644 0.04693171674396745 0.11993854255899318 0.1798849542343094 0.01565321841762975 0.01364193709636003 -0.04178058127679817 -0.09365065159338894 0.037426140738442935 -0.00825865965257981 0.05436505402247045 0.07944640892584284 0.11399909169869184 0.013105050439541984 -0.11181309415810448 0.12311948918046695 -0.19624353152869908 -0.07338494198278453 0.03817850548579809 0.2562379364531531 0.051594185815249785 -0.17775866574020366 0.1725402631437318 -0.030773127857559878 -0.054139602575084794 -0.0043768317675681526 0.08140289264102925 -0.06410361880463866 0.004340108731131729 -0.0573419847464784 -0.04435544671953404 0.2866477236449585 0.07187968277667953 -0.11961129335529855 0.04725386536232567 -0.16051284962588702 0.08515527378783827 0.03781231018279876 -0.07064604682214554 0.21140510448685432 -0.007597916589239415 -0.11400886476813245 0.03641820527831522 0.1171955255483069 -0.05008142473277783 0.2505012252773938 -0.08799865094463223 0.2211775621953155 -0.01839239976347011 0.04281336366865897 -0.31509861138347584 0.3245859343995806 0.5831579072990076 0.0948957670414477 -0.4492341254544763 0.44084406625074773 -0.2909013199791171 -0.048327131088452505 0.006157105292596411 0.03652765284405452 -0.15500847403203807 0.19861312835600428 0.20774566615716594 -0.1754277607849236 -0.1530345015715423 -0.15083004592511862 0.05838818844316043 -0.306388219622524 -0.031739567802320706 0.3381295442975338 -0.40473987215944424 0.09300970825612433 0.33569420236361214 -0.10451420375983043 0.1759317188957794 -0.3097480790642389 -0.17865749743422213 -0.4136219005165751 0.670856450163674 -0.020064681256520844 -0.0009253790694985659 -0.03098619718532201 0.20608563994823564 0.1628066336883524 -0.15480934439679697 -0.01862399772580599 0.4829449423030259 -0.7203506158207988
12 0.005274329333805879 -0.0032084316743857567 -6.185846133262885e-05 0.008808748660377003 0.11323100755620172 0.05168641419785667 -0.0728116893729878 0.003611480510083804 -0.182150001811538 -0.16100104203358429 0.07570590785541356 -0.011993268893412758 0.12467973153728452 -0.19525526831498863 0.03996635827669254 -0.1387074138908309 -0.08244077533345398 0.04187113608269252 0.08552576131237495 0.020158104288117786 0.021354888944045226 -0.013702168266265654 0.09416186268844853 -0.04467814281998311 -0.016358444146974523 -0.093600564146361 0.0451980952423427 -0.048053473734969356 -0.10147828686665845 -0.18943582922240734 -0.0765416423361521 -0.16726734558722647 -0.1719927581739503 0.07947667910211828 -0.19738173460147776 0.18573375098403316 -0.02089491890947998 -0.09868601394814822 0.0634869504065809 0.03806870157184866 0.07333603057490137 -0.13118165298849518 0.12261954805345941 -0.028422015568581524 -0.0724622529643638 0.018226174988265464 0.03010573592672368 0.0780497748221582 0.1912551446775762 -0.03587166943340501 0.18096578373957176 -0.16684498315744992 -0.058180406003945535 -0.028376595079052252 -0.040686132311009045 0.03265420986728413 0.0047683395071001665 -0.331838003664486 -0.06040730476046688 0.09112032410395442 -0.0304898431263609 0.05078547785322777 0.1294081206770474 0.017399333439378373 0.023288718016222665 -0.0003858812393077986 -0.11058669518061275 -0.1335324845663405 0.032529584872961585 0.03719320508368894 -0.15531057196737585 -0.048901738507934146 0.04755484922318888 -0.05603125341662402 -0.052439525372767866 -0.20953911844981699 0.13390645324219172 0.03525734114632912 -0.15494190155828438 -0.050556270152515986 -0.24261906059107502 0.07692002503584547 0.13889111168384338 0.15306657221149056 -0.044488869095093475 -0.646686411783263 0.044907255841706815 -0.2901111897533904 -0.09966853456758099 0.021526779643996942 -0.07603025060908257 -0.3689838951522477 -0.012674967939878221 -0.06692064056405178 -0.3256652831225535 -0.11026297683057486 -0.13464050271201683 -0.1544877694716523 0.021594212273212367 -0.08356544175641714 -0.0848581512298347 -0.1420280083095332 0.1353768785371598 -0.04337278174513191 0.1015815725777332 -0.08921756277468963 0.13598476370038373 0.237516443497326 0.05305959642465162 -0.005465384119988545 -0.12952895378144821 0.06123018301866578 0.001259242018398973 0.10229569534458872 -0.00044190079624456085 -0.09140779898802212 0.3121153340345661 0.1135556292137018 0.008980352310876367 0.1187739881294525 -0.1054502944759492 -0.12238594751777641 0.37015409388392995 0.09634886609313156 -0.2736456708316455 0.24220635093270412 -0.35362247291360316 -0.16699419045244934
120 -0.22184394441012714 -0.07628182685257776 0.047011416935557535 -0.07876990572712077 0.028664260137721862 0.10428836009935238 -0.07611372143616926 0.19883588905645 0.040523153419557895 0.006897519921488194 0.14563398604338282 -0.030552216922160147 -0.05536694857220394 -0.036939321050858766 -0.012782691289024085 -0.05002072569829651 -0.08252227749799677 0.061620562288420506 0.03529313953574557 0.011277009946191043 -0.01270001748424663 0.017665336892643883 0.17004240838823798 0.016011024558498912 0.009402272523696796 0.09587259670236241 -0.011122247978644346 -0.020846481247767418 0.06280205386523892 0.04153815258394735 0.04671243437533161 0.04190463553130106 0.1029282137929813 0.05682512135831339 0.01752672603389857 -0.06808212242625067 -0.04590556993532449 0.029721587816108674 -0.20697224091825292 -0.07749514097531587 0.1046343134425847 -0.07576047309561516 -0.10397804205712678 -0.07993791961422234 0.06890741798598901 -0.14975474481833617 -0.00564564803564039 -0.009014741243097106 -0.041869314895530634 0.07027735689775685 -0.0777464783824608 0.06434315311034884 -0.262431638567632 -0.008706502846217302 0.02923707066381502 0.10816522534969794 -0.0830147965278721 0.02561351606400138 -0.09844493697673448 -0.17479714824244355 0.10701334995662086 -0.09423401560180646 0.09203317172769572 -0.15410630135695105 0.04840023924185845 -0.042491175643821 -0.027448350641987123 0.04345054287564185 0.07476992971365386 0.028213238136985886 0.12053961147750818 -0.0512868705514633 -0.13801322082016293 -0.01026640761092335 0.1141809451986084 -0.04433011889917718 0.3169685678366833 0.17326693260769901 0.06250085029133286 0.12519302822579645 0.0727982650729651 0.009440246455630076 0.10846243576706939 -0.2131575307210689 0.22020605380501637 0.1455678366095925 -0.0219868261231881 0.05554904791827374 0.08764827302416422 -0.12694939145220513 0.08467576748739342 0.018859732807110254 -0.00074945938300938 0.13462765337193194 0.11368253205171384 0.06620313827330582 0.10189881013685591 -0.21869158774445394 -0.03418026080993318 0.19926009070816644 -0.07299015598335622 -0.07325996604703933 -0.16212412252804334 0.014855805386923118 -0.13325356889148152 -0.030045427496561562 0.22743566621557446 0.12232595650564389 0.1454923161883457 0.10028627844442138 0.054646322598257996 -0.09746432714417566 -0.20726204151279876 0.10846222093710049 -0.2718953486983068 -0.09721926124590614 -0.2220228668229705 -0.4018454136166342 -0.20986963515777787 -0.11743605900949484 -0.21311487459199116 -0.16371017031025595 0.28567757846327163 0.08907240016758936 0.0038862564170982178 0.07421945033405923 -0.3586726137197285 -0.1782430082463613
121 0.07800021710266326 -0.12983332077726475 -0.06181218308751735 0.1216626320736311 0.020392710273501258 -0.008902466650085275 0.0872500995501479 0.005482328547929781 -0.032591949262967976 -0.011432253330268295 -0.0025208229913052816 0.04660733902065184 0.005109387710965187 0.010275968732043162 0.08815001266482739 0.14801528134896627 0.03390432809182298 -0.19229246123850163 0.09827084583568009 -0.019981395147196303 0.0013150735512812183 -0.016138729565206445 -0.11982579586628236 0.206450096264324 0.030744713247939152 -0.012832337616489943 -0.0042722797897911755 0.029769632684420413 0.024379952698332215 0.011621325197514399 -0.0011662689093229455 -0.03611889224339598 -0.028905337760033165 -0.02302659707086816 0.02195657866285796 0.017633590834883018 -0.02066132202669335 -0.03553232947562956 0.030363719457961114 0.03864856469629315 -0.07879847196868131 0.04651298427117232 0.030636069963241763 0.014016588326773096 -0.03216236668594456 -0.02276369916852492 -0.059444803173349166 -0.023761636555912253 -0.03443166263187852 0.09719248870132619 0.0948820279853066 0.023844432535364012 -0.0010668563718677945 -0.032493091583833754 0.02128642276190414 0.04820783601169063 0.017910668027870037 0.12566708893748918 0.171405708670368 0.017781458623347738 -0.17643176903232533 -0.038067814137795135 -0.07614587780673317 -0.05301139625757076 -0.02101490575873346 0.04322215036990663 0.05717267306536299 -0.0983523478087821 0.17839634543373836 -0.076197470318554 -0.042019935786701844 0.004304089920182419 0.12052459067913822 0.13025615784475067 0.10858878819951033 -0.04141950566717319 -0.011177312460047724 0.00698728305533685 0.039823012819223555 0.20582827359889572 0.06579518947162731 0.0025573403107512532 -0.016512970774827912 -0.04523294792909811 0.10419470731945361 0.1015856124190766 -0.06964739255540048 -0.018180264509587776 -0.023409023295838768 0.1310160591976863 -0.03669484326145792 0.0035647914776169337 -0.08413257487774874 -0.020788745263196396 -0.011902090497040236 0.0720438816299254 0.04020064301031483 -0.18614278077923274 -0.15154247418842137 0.008764722724559191 -0.19228410012227076 0.13282053838329028 -0.0591057877323442 -0.03384738842629056 -0.017283923644568423 0.09119582905654182 0.0010365953338336202 -0.04750982937507082 0.15134314436374666 0.03499773775793491 0.003995137773631882 -0.1502249500918013 -0.11294368257400084 -0.014433351816411961 0.24958857600157477 -0.18790644999705566 0.07199141461395658 -0.05539551879512291 -0.05781893863846607 0.09169072165294906 -0.29460678305894905 -0.04158900052855038 0.23039717302682772 0.07173343621157913 -0.14802461526866284 0.17065540386386943 -0.2647541297003954 -0.13448305327246088
122 -0.11263663822914012 -0.0840154639054667 0.02539357169797145 -0.0548929408988434 -0.10137406446052037 -0.1377677146081791 -0.038634983190712534 -0.04066648538757963 -0.05943673203116867 0.017862733194959426 0.08029282730132038 0.13668571321221054 0.05782187336733002 0.07869744396120883 0.09746138529409751 -0.008069781479996766 -0.0066206411165029575 0.014551296288874768 0.11304014094032544 0.01014199429415749 0.016213447253694533 0.05669422530403874 -0.03999942107648294 0.14051988138020044 0.03390761639227141 -0.030338839710504256 -0.024131896615691265 0.010672218549069388 -0.023707040979254076 0.024972385952081563 -0.03508431982807972 0.024274280619223588 0.019294743548882522 0.025591710078343294 0.019903677591167034 0.00039052531733291295 -0.031868367328244 0.0003029410583687293 -0.06562106432195286 0.056619243062494114 -0.09918921694311054 0.15076791752276625 -0.00019084488845447984 -0.02238550178053097 0.02604125262028945 -0.08007834082016989 0.07282040073596509 0.04383477170016145 -0.01105603677844037 -0.0540607048096209 -0.08945719166349016 0.15819138274656844 0.07551751117928511 -0.0004288846069034283 0.10116046433373473 -0.055253329479431894 -0.22915219402751022 0.1660388081348366 -0.047308464314007065 0.03929180934712825 -0.07539221043653113 -0.06251288591522744 0.02981092455083047 -0.06981262307382122 -0.03336360291071898 0.017820209838235346 0.05336994392345403 0.16040908836543166 0.22263657362912298 -0.13499180098809818 -0.00038260509885217563 0.04265333239740908 0.018122991081383176 -0.07763325485618659 0.028320807447282083 0.06279953917014067 -0.017785541228651874 -0.02490421172999762 -0.03342732855322735 0.042605869860014495 -0.026550735013432577 -0.020006715837509362 -0.02625747209393889 -0.07143907110212692 -0.032539912493422404 0.13655217648764528 0.04268932133970461 0.2032054633400166 -0.04591552882973082 0.03688766293285874 -0.046725256003805594 -0.058660912046686685 -0.17166773167665858 0.12405081050097858 0.07550928941484836 0.2910730877409759 -0.028975125266366607 -0.2637279133014208 -0.09217325674267936 0.14600017876243507 -0.18577348130210805 0.13275343190459335 0.18213351742292933 0.11899570208397996 -0.0055210908201124955 0.08255208419656733 -0.024756583866840855 0.07911302864390475 0.11204289141644264 -0.04180313483682552 -0.11484409798558873 -0.01344947437804309 0.05907817868337824 0.029951339091515438 0.16034449037749454 -0.06659410212341249 0.20754406457799746 -0.016323891273467048 0.01761169654995999 0.08640084795281071 -0.2416922677113084 -0.0489718452213814 0.20093048577906394 0.07493479656975287 -0.22757680252255474 0.22282353955810505 -0.2544537559984156 -0.13114112031416444
123 0.04653901309843946 -0.027172064913817694 -0.028026658885210044 0.0011541656844365445 -0.16405528496378613 0.022890439576607843 -0.06554788313618472 -0.07877212168833599 0.019898624737593133 0.02359916999223371 -0.127832157315106 -0.04471973641575961 0.025061102439246703 0.12707125087262164 0.04396557630823877 -0.020464854111048307 0.057711629782201485 0.05262694437621291 -0.01855274589360367 -0.029175973048153267 0.06188393197345042 0.00020127924284626464 -0.19106930445120307 0.12415666544956429 0.11197591437363569 -0.018517225589571057 -0.08862695507374284 0.02959664816857375 0.04459357030594216 -0.1308839980345049 -0.07856763973488289 -0.15810061098334202 0.01858044996638343 0.07733259619671377 -0.014229377470449289 0.10294912738207895 0.02039692879210545 0.10220771800393927 0.1177084971873995 -0.07774299356216367 -0.039060795676470875 0.09905533213496004 0.03020530066091071 0.018354598726588612 -0.03612253167334793 -0.00021337215277072665 0.019018017865571762 0.12275187440143988 0.14396889022247455 0.1566601485340764 0.047491268230005934 -0.1395225178214295 0.1166475566903105 -0.09034634982701563 0.11863300242527976 -0.1097618860627443 -0.0610727973603891 -0.03423219630298128 -0.11785818366874803 0.09913851532887173 -0.04493068723275632 -0.03497512396099901 -0.014636590638725694 0.17866962877232156 -0.05807610971579091 -0.06250294011330412 -0.224097602818246 -0.02659288683255639 -0.0604512882459399 0.06575378437128218 0.0021920570204666183 -0.0015959008272041328 -0.010528795586255133 -0.02110153354161083 0.007889760789630716 0.04363794070909368 -0.06399256447752723 0.18233552200791406 0.03110948047018675 -0.12151737372399554 0.04023258068130649 0.05498372462274421 -0.062454335191390334 0.041416510247611275 0.1120874829003639 0.002138130582979655 -0.05508376437261008 0.013418761275693001 -0.33146979676443333 0.11058411098239701 0.08597827161512739 -0.22288311549383194 0.14732858943859042 0.10638897730072516 -0.2228773505352514 -0.04832975344177259 0.11162880539013662 0.017280522604817123 0.20778119198192557 -0.02158473368931462 0.12844765347570042 -0.23747065400517578 0.13474795920182356 -0.030467314683367483 0.11653613400834463 0.11674862869095987 0.10973827060288023 0.14388508417285484 0.07761127552599999 -0.06528191521493412 -0.100249113655814 0.02128090281799943 -0.07567881676576718 -0.056413537168934776 -0.12147127290838731 0.2078238572188473 0.3653306987642235 -0.06659565772249432 0.19333066001470442 0.16109615426136392 -0.1351336488799659 0.24947159863924565 -0.02869495270275822 0.22153274275649615 0.5155445487945542 -0.57041708559684 -0.5169580170443968 -0.4080964337116618
124 0.039417587753240016 -0.05184253803973123 0.04771011032055176 -0.030633431616286594 -0.035766106867889794 -0.01299012361728457 -0.10523993980734622 0.08688868947897412 -0.039479142726883236 0.0011931795162123332 -0.028363094336156504 0.011325268233919498 0.037430100078750556 -0.032519580196052306 -0.08315564411665066 0.03995695691704682 -0.09184886827848752 -0.14167067496799612 -0.02694220891667832 0.04467726230331263 -0.04555291985210779 0.07581011856106719 -0.0005578550943614359 0.1326735397210521 -0.040973869408552445 0.14649300926537773 0.0038201951960914727 -0.03453924524987126 0.03779662456866306 0.10037748725425348 -0.014347306995439402 0.17150625719029192 0.13706365871121096 0.05311150659357412 0.12077075047067119 -0.3099947427884646 -0.16966873596497334 -0.012741920613353278 0.30214720761353586 -0.11633489219533386 -0.28678380149158056 0.20009469012500478 -0.21996286564633385 0.3492768615392275 0.30023190614455797 0.15322554476881403 -0.17736984876242876 -0.10593465215827706 0.33600408731355064 0.6077836016012564 0.05121962199864605 0.8200325545696958 -0.01974273832539038 -0.17353175934570203 -0.0027863371731843426 0.08146557680511717 -0.1681984449531845 0.051653636612944066 -0.11133907853791515 0.015308143749325383 0.02362992802103325 -0.10309275255867162 -0.11745383300414679 0.008763646845303253 -0.022691507801266594 -0.1593310796223741 0.08224160620420494 0.08941275443799339 0.31271594141739234 -0.1909205263997097 0.19805053225667651 -0.16020092221365181 -0.28385542892903937 -0.12171537366247852 -0.04361161493058923 -0.013491532722669017 0.4584701256294396 0.07379295704847462 -0.09273673525834909 -0.2261517420981594 -0.05683026706445494 -0.13820929541903565 0.05641121151450706 0.1356551715089683 0.46795208744014 -0.18144411926761808 -0.05230604876833562 -0.16561777413995557 -0.031992932967225315 0.1780160323343211 -0.1020478668038127 -0.2809589886900464 0.33881164125957847 -0.27778424955856645 0.3329427675246173 -0.33137271240424293 -0.04368199242540776 0.5432009819598551 -0.024676549277718916 -0.5163527819751176 0.38386457120039613 -0.44773551053601096 -0.228491790910915 -0.1241960175419758 0.2757105215140243 -0.4971449169015197 -0.19940974331107256 -0.21152262343831624 -0.31005546856871447 0.42375635889752256 -0.36778828749723036 -0.01884163344348279 -0.03711231389760084 -0.0910602670220049 0.25718151464040334 0.012188507609054782 0.05609244832252832 0.24264283878627083 0.16451736993476668 0.35170777654779767 0.7665983835147624 -0.23841117247383933 0.5053645183230743 -0.12531241242225527 -0.3325721002965735 0.5067484540720517 -0.5733329336914924 -0.3920772491673333
125 -0.04315311040094359 0.08297124724275724 0.08472140969741816 -0.025461516771713363 -0.06109293144477661 -0.05728051451673521 -0.17946877795452268 0.07290455864984455 -0.13968150600682397 -0.19665925949449833 0.13151152346262085 -0.08780067444270821 -0.06370546766874251 -0.0018549715156830427 0.10412329395693966 0.04524326963401511 0.04759326156834088 -0.09219471160083918 -0.049888022953239956 0.33122857803473943 0.002119709261812814 -0.2210458039700975 -0.1285146796363279 0.045431442335670584 -0.1835798649590583 -0.04347341783639011 -0.04221927687580018 -0.014265942686464755 -0.04886651713246941 0.0638904038790361 0.08379042657683992 -0.17890361214319747 -0.02059496152207079 0.04352256645766873 -0.15742304031870333 -0.06758330038932592 -0.0010848401834686137 -0.04445437310794101 -0.056893411316315944 0.0031912063201011984 -0.006851501049486627 0.09632568510997845 -0.04379327069705775 -0.07463901195275932 0.04765595980656836 0.013241166109477917 0.03253839062263979 -0.009404797954872127 0.06715049142119814 0.02807478263889258 0.11782710427599437 0.04254034172517704 0.05821771335526169 0.051968907546120435 -0.04148838008292916 0.03767066150127736 0.06842050543001685 -0.1595147373657332 0.011759840738118076 0.0036496302236657123 -0.0591426704841485 -0.009899563030491169 -0.10844517344268874 -0.03287617154533333 0.10120502591022881 0.024478976386004655 -0.07095958875003565 -0.024442111201092513 -0.011437166014012385 0.07402096365950528 -0.018656069814139892 -0.153026199524323 0.023202326054235282 -0.02732817831793675 -0.01763880225452276 -0.004914476789848943 0.03566521121959064 -0.025552103220959382 -0.15253175522659504 0.04027760418626534 -0.14621386257641356 -0.057603320420779605 0.1621866483769321 0.1070224776186536 -0.03165160988705857 -0.046507322347575826 0.039810225635686675 -0.08594528775755916 0.24554859096482862 -0.14121166120475032 -0.13179030124312127 0.012988869169896519 -0.0034538608288695797 -0.15578078317850313 0.31796248370317437 0.43940090150644673 0.017217551691204105 0.12302291166507091 0.6357454604864334 -0.19237274758589343 -0.05408604827089179 0.26233730648221504 -0.01602328459551961 0.2462407073376631 -0.017278456145505758 0.10993247206549835 0.3281827947813356 0.10633393562365617 0.024828488977331475 0.12348861515887957 0.14630523878318452 -0.07024463930098084 -0.07138080740110643 0.16189837980215618 0.06856282778720416 -0.07271352363544019 0.2815888344858738 -0.15417712675287673 0.06037121804778072 0.4562166558464802 0.024781912127182594 -0.29055727631387007 -0.5554342725154943 0.0029148127863399893 0.3501928903532543 -0.18523880555737426 -0.23290588628414405 -0.34262302128532957
126 -0.05678029061149311 0.0142779676449207 -0.017690320085603506 -0.004201267251952007 -0.019401347949460968 -0.034341463983197956 0.0007890203833203193 -0.008040834316141538 -0.012427012676912553 0.02123093891515737 -0.025617841568188058 -0.08127731024594388 0.0173294439226023 0.05262289899501938 -0.04421404495240615 -0.017350533221113577 -0.021360586564286053 -0.01672618354847731 0.05153780652579213 -0.0006232261773471809 0.002825250096695657 -0.016529895379365132 0.03530906341518765 -0.06007490914744559 0.14358579671833088 0.06334322381643688 -0.039653706358870056 0.01645911356872263 -0.006508415747407174 -0.08130313453103255 0.1170495189593387 0.08797966597027766 -0.32970793035839807 0.17502043484361035 -0.33116949813282703 0.0003505176701926991 -0.2669924275373463 -0.22150574337402373 -0.17482590167005163 0.017554411644520245 -0.1894241125329167 -0.2760323209656229 0.010232821956136267 -0.04711311559612422 -0.4326179975433295 0.13768275920361325 -0.4275938006040023 -0.4346159703884417 0.291798460660292 0.46778812969591055 -0.02868136821512506 -0.3838522882834015 0.20549645186614995 0.07365345651209221 -0.16925772508256084 0.3139658066271295 -0.2277131375432074 0.14444541476195635 0.01525919792940218 0.12927367344958332 0.07491683417929798 0.06465921661213907 -0.1428936858268425 0.6546615913586652 0.13563280144489934 -0.17339469001608046 -0.19512219531104005 0.3230445929828067 -0.3263126560381228 -0.16871419781603703 -0.194753318921263 0.35151764819304204 -0.15710565704617727 0.15342361247913205 0.13248800313980041 0.7479117854241016 0.40140241134922217 0.025688416834821967 -0.1938593537394791 -0.19122449613936945 -0.3967629536052062 -0.013036216540256796 -0.1468617315815415 -0.34566705695991223 -0.42238559872046094 0.6837054710697902 -0.05593841219521044 -0.31361382781957475 0.43946421918472806 0.07340514723735687 0.15567158684157995 -0.3576078111480274 0.202759483960532 -0.15800563262817957 0.2509355858177512 -0.03783172569367359 -0.2983209969955366 -0.5924409888434566 -0.1380297889922196 0.4179150698102342 0.051225611186130005 0.29769556375983086 -0.1187680243606473 -0.22887200608243075 -0.13565643576391995 0.19699679079564625 0.24504571566221905 -0.10534905190530988 -0.8301869234349277 0.20580969522761167 0.057514981231092395 -0.08619115879746743 -0.03526463319603045 -0.016716380184707603 0.1788894501509397 -0.23318513116008563 0.36427386418535485 0.13648955219746697 -0.28769304771319587 0.0015558497916768658 0.6283963248115262 0.07109730739669315 0.43338671050946254 0.011785038233637676 -0.42573357540601364 -0.09780714587543991 -0.6851830504201992 -0.3966979484242448
127 -0.021751340054593556 0.021337838748667813 0.04365026871295217 -0.05038050196474694 -0.017148628797096895 -0.015834629144708238 0.03166479879170383 -0.05039828590008473 0.02335717951379319 0.08497822898167932 0.04897242749661172 -0.022773875797242018 0.04824568101668363 -0.08416086976323822 0.10991083678494322 -0.07408590147727462 -0.06332821121243833 -0.05851332559340701 0.01869252855961083 -0.05570039709861932 0.014046337961465117 -0.03549236839045857 0.03638926287830935 0.07210662512951174 0.028821812858372167 -0.02124267454432075 -0.008946696677456152 -0.0032264174630078444 -0.10870038830148539 0.021042635274922172 0.041098614762775716 0.024475161222415543 -0.06776048692466155 0.09325166330651147 -0.04522805813185716 -0.03978885207290314 -0.01096747045537482 -0.052942103309705786 -0.09511303583883693 -0.09744132302408794 -0.06941483598335019 0.07799849727049475 0.0692488144171013 0.147874038684558 -0.05260868486343078 0.1578635691451687 0.040630598357740605 0.03832312737509721 0.015169226986678438 0.06345757101138225 0.008078689353539616 0.04127262675132189 0.09234078621151691 -0.0486546313947389 0.14850931073728432 -0.08981545766180857 -0.07948154602237376 -0.09637464901634311 0.13701447102451572 -0.017237098928163594 0.030241125756934526 -0.07506683002189705 -0.006402187253543806 -0.09569458019922572 -0.08973945818952656 -0.06972534100638421 -0.2650163120100015 -0.0441561217975539 -0.05885507980332397 -0.10813967554748463 -0.16236934749887336 -0.3037172896531653 -0.09033464027331091 0.027606972276015936 -0.040044463981774955 -0.006630224959004258 -0.04173219393759405 -0.08790113404859054 -0.035114592974359884 -0.07232917892805268 -0.07174938332284446 -0.061761466833921676 -0.30947282113154667 -0.025392997435659252 -0.07434243042550437 0.033575973734023344 0.22402831408667645 0.04485946312466956 0.06930996559447984 -0.14462012506208166 -0.03424708322859923 0.1692696778867323 -0.3388112761079441 -0.185077378778925 -0.21058281214525407 0.43669307611451097 -0.029632508970038565 0.2252124996821801 -0.013659652139086126 0.11247522759256405 0.10120339350510124 -0.469191648677623 -0.2259093869453547 -0.26231051862146865 -0.38217452146744174 -0.02998282960989465 -0.13640928002573907 -0.20999613420314334 0.07958005097044324 -0.19809982836208 0.11494698113991816 0.16530238599034336 0.13693554358587037 0.04295986756612014 -0.08160427460280467 -0.001325628761753069 0.20230391394350136 -0.02897262058250802 -0.09032900475992217 0.07887087908262627 -0.1387100070764826 0.13851646466444825 -0.04490470492664676 -0.3406049224669672 -0.28198248914501534 -0.09926308358277613 -0.09973389328015182 -0.27142443027275925
128 0.024329418104791275 -0.11635996239706202 -0.03506111289569972 0.02849188793822398 -0.026599571684423066 -0.06515565706229699 0.056592244584842 0.053686566629629145 0.022171912654869876 -0.1256916873209951 -0.06317515022507567 -0.023867193587229024 -0.043865981871149734 0.07258165073066027 0.003063232840310426 0.08992637711001858 0.043424437854376996 0.05489973812460952 -0.07252112104471724 0.009224522962190548 0.030295270112622417 0.04194752285967494 0.02153202624540839 0.009495467353605945 -0.0077708905770659305 0.12476293390975361 -0.04519587171989046 -0.014229805172723164 0.01051534675891457 0.07556272932118217 -0.047108194440517226 0.04775370518126831 0.06258820372470837 0.03964746682320709 -0.10817144366583174 0.10177060653136809 0.03361890617594213 -0.021599653883604405 0.04999738141076063 0.0600799320748555 -0.027155930868112004 -0.033493246729654216 -0.15427124159437058 -0.024818877443280367 0.14008546192377005 -0.002791962647031222 0.057024781144511 -0.07536287830267245 -0.05195330591240928 -0.09421845565363922 0.01654141669773543 -0.044480636251390926 -0.10656656054442477 -0.1592428375763441 -0.06357170178854464 -0.015761776350065787 -0.03037057479177648 0.13629617482494555 -0.11141184828896174 -0.03534172673733323 0.1543187539779231 0.22366938670388084 0.06480694745805332 0.05932327850460969 -0.09591426570789026 0.0657709011528337 -0.16270071478381998 -0.1388559030271954 -0.05683696421976222 -0.021097778746975618 0.052046221378498674 -0.022517492940488985 -0.008298756458561157 -0.03280051642359088 0.15898542639463187 0.27065847187918035 0.09156154647689187 -0.07579768940421411 0.0029319285596566347 -0.025584311531061967 0.07627427070624704 -0.007583463104256871 0.0013077319270492459 0.07511083902822045 -0.05724049777528324 -0.08257097485784935 0.07998296636749712 0.034618256554061415 0.018948384774521532 0.05987405903617862 0.027207302127352107 -0.13678875850653974 -0.08391541579991366 0.006451839614614457 -0.016837796845418113 -0.06697061976491388 -0.0440915287856517 0.11245217040969673 -0.05562684120644057 -0.09836719492928687 -0.05019900282018779 -0.054874725460843404 -0.11731617060179038 0.07581668518542162 0.015244651526124862 -0.03691621954932501 0.2194926800599657 -0.002254121019110516 -0.19864376795898653 -0.3064343423552177 -0.1451034185402208 -0.07127875718516298 0.17548587273220914 -0.055896237048520196 0.003016182667220365 0.08229532778912588 0.01049017918895086 -0.059122787739759944 -0.027325074927038978 0.03146068805197865 -0.2757962531527273 0.028474010089359476 0.025990094975314546 -0.03860897042193764 0.04406414402072043 0.19306912237890916 -0.025576447053083044 -0.13829808334491137
129 -0.000763125473452119 -0.10743000865024908 0.08986096437403931 -0.08511778941501064 -0.14984934694344804 -0.07354594375342259 0.08196769061964078 0.05890821318398144 0.01798039213479689 -0.021417686576109554 -0.11989793337470045 0.1407671642708111 -0.04249343565493333 -0.03722392138226837 -0.1417348461018024 -0.05923440941112317 -0.032968458711291754 -0.074919283267222 -0.03025361167225979 -0.0011192322902725618 0.03888038148914875 0.028497012468523843 0.15001461635591276 -0.05391042728094663 0.0067213824463008215 -0.07050470748179444 -0.01098897754933161 -0.026612952335117818 0.02354785629067896 0.005786651335582542 -0.06584947890290252 -0.02709115191921952 0.03297410030593239 0.027816160908183937 0.008175389603745328 -0.011594355333672892 0.06834904513000427 -0.03616426936834885 0.005202857142808055 0.022538933089327876 -0.000382344714247747 0.003956103553674978 0.004744424184015719 -0.021343413560109104 0.02756373664479093 -0.009064995539092584 -0.019168973122824683 -0.06449508906868745 0.015694095665067485 -0.02742305029300686 0.0074890322699953495 -0.04983754398454736 0.05671706351704452 -0.025299383953068126 -0.04894063398223951 0.05183777609171911 -0.011799113956363376 0.10047085395459567 -0.01203413363937116 -0.00705266523126722 -0.015898452490213207 -0.037166418138126094 0.07572218844481199 -0.07060203486282765 0.04559787303129009 -0.12734648534556467 -0.02546419621123606 0.07335281327112056 -0.02150109318937271 0.006700673516117104 -0.22843028440106256 0.04968632325919655 0.00588058218313205 -0.04376767063960742 -0.03875001406195693 0.06935749949309211 -0.08470491471836811 0.03449865149958549 -0.12127718168569525 0.02434440556616082 0.19356859346570293 -0.027769274769298094 0.1090882373103518 -0.0394462589129146 -0.050733246231264004 -0.13808445530294317 0.016764574767069815 -0.020034618953825477 0.015237729477400675 0.04651042933038626 -0.09215094659254282 0.11462090769278435 0.09625535572088251 0.019003399092144855 -0.05156347334705039 -0.07497944532663764 0.10848021672198056 -0.08245492167137476 -0.25660686123136234 0.18245279269866527 0.028742625746546818 0.0767793056527098 -0.03982893151134922 -0.11034722788043058 -0.067170533570833 -0.06712407041631181 0.00260344023331715 -0.06926121903836094 -0.03732386975283877 0.12500277996614598 -0.053823341744021216 0.17451340569697799 0.19673584229927193 0.3354626115424992 0.03662850607239666 0.1063265003464406 0.09957950946725537 -0.24902764956406306 -0.1917578400455827 0.3662048181458477 -0.05950216691138233 -0.4336792364227987 -0.5879755708406481 -0.11445678191946579 0.08241825516519564 0.08947305190993692 -0.09921243398246446 -0.2061449892782897
13 0.05393803385424077 -0.015431358060226967 -0.014045640086438008 0.008072524690158003 0.034528718995053595 0.0733513509320882 -0.05409142836849715 0.0759254601297377 -0.00387648467073127 -0.06204573387063699 0.10309129164645475 0.20633164712480664 -0.07607288772998945 0.0024679203213737065 -0.06047193029702746 0.0946203410318743 0.027132509516907717 0.20610499965166276 0.08416806322790817 0.0403532690623738 -0.020234556036615985 0.06934262002769916 0.062452381884881315 0.10976841404328377 0.006873461983672541 0.037674795520939074 -0.10530287037283105 0.002305191282760649 0.013972893115839304 -0.19399275601573798 0.0190072986477605 -0.11159452459597725 -0.014028812221296864 0.0832731477713936 0.09571581098818663 0.02301047096444373 -0.21372437201073424 0.001104598836010038 0.12927048963876775 -0.003627830611701404 -0.08756693760428644 -0.07581777485755442 -0.06482322849335588 -0.18287523245535708 0.1286684962087908 0.2018474921179451 0.05874686504268032 -0.12841908001699082 -0.006816509183864374 -0.22299021446247727 -0.052054565329958176 0.11410324683504579 0.01725992696967869 -0.033362691247794285 0.06122340471817036 0.030780995091168422 0.017992021445678644 -0.010500202061088003 0.026959960742299647 0.1561077016330297 -0.009623401352681244 -0.1478520001981 -0.01943074859591292 -0.01397772942971836 0.12974845316355305 -0.006394502312439792 -0.053760519948922836 -0.0007322524680260771 -0.05443264529652166 0.3104767334199762 0.06700645817660444 0.2723480907998244 -0.10957048548493853 -0.0077771914747705 -0.10157367718562477 0.07709077743188843 0.013240216329481327 -0.09216060568329339 0.10457218256755911 -0.08354008831674455 0.00042840381697428835 0.17145280341857091 -0.0008882957937269571 -0.009791849061709474 0.1962528038129319 -0.131557686793783 -0.07191207174365988 -0.17483939098350523 0.09276672365976878 0.19488470212839817 0.2350372196176254 -0.11204453930195808 0.0892031097359669 0.08555080279851157 0.03663522473995338 0.09060263318357163 0.00832742257003831 0.011237137273019265 -0.08372790690123649 0.16934321557396198 0.24699987386561917 0.015361308961664854 -0.06964141708441565 -0.06200625324670309 0.026720679349313676 0.07313511198646697 -0.14289458108346118 -0.06188803033695817 0.2267618731304876 -0.04854755657110635 -0.16718242624621382 0.07975938441912148 -0.02821201423143817 -0.07554188896679037 0.03828038080466697 0.09828759960696935 0.06185048085231494 0.2633408206850037 0.15190145060421076 -0.29825198308334205 -0.18388657797766259 0.0887515398444388 -0.10417065776144295 -0.06775647234126789 0.3388753027110149 -0.6287125113846741 -0.5749533563612275 -0.46544338491094733
130 -0.09922383354435498 -0.004005261670569591 -0.01364090178526022 0.06066038620688806 -0.153498278089368 -0.08778627041163507 0.01518408318378684 -0.020573142352544347 0.06725407273564389 -0.020616097207818825 -0.0855180022541104 0.02031696306585683 0.08582231250254627 -0.06144520995330863 0.0285518214543356 -0.019363663040855787 0.05753471094458453 -0.09151150871351262 -0.016254560602471907 0.0008868414273074766 -0.012668907234288275 0.023086451766530996 0.07266050034771956 0.017038162940813808 -0.08296100190494163 -0.07999086000508575 0.003238991845332547 0.20482608364652782 0.13451746097211317 -0.09383758947916204 0.021819732591065892 -0.04058272526219619 -0.081681844016443 -0.04007481608911485 -0.093087573044598 -0.08999394596586482 0.09552477686096403 0.11566625884180025 -0.06603291686953038 -0.017322153316354356 -0.009096069913479403 0.014940970085158167 -0.034433173131966845 -0.10586052521890213 0.06753744813437607 0.06031650167864819 -0.33188109790178627 0.08363938126675682 0.07289678217474388 -0.027079832412761823 -0.025454920610562422 -0.012016591716967145 -0.06540731288788626 -0.1192699215443773 -0.09329883868125864 -0.27704957271502345 -0.06333732657478398 -0.021120873152754235 -0.07576108459714512 -0.06497260281864903 0.04301195967440683 -0.026042036496173333 0.054215061342492994 0.008015756333062667 -0.061196917388115106 -0.1311536388427142 0.000492521718523482 -0.10695600281453309 0.10774211887085774 0.02982457467457072 0.06969805173768265 -0.1327155436081173 0.19841275551051016 0.021360589086732627 -0.006445068417367112 -0.04660384580294559 -0.018099592034000547 -0.07435651805051535 0.03549385030743971 0.012038103806749965 -0.016944582562019844 0.2668326205833862 -0.15907181303031392 0.16462826953538295 0.011345676147898262 0.1178354062018854 0.18498174089187286 -0.11132681050717522 -0.19066368766636282 0.012046387618423237 0.27382824025642577 0.12192600582565438 0.23308518553328214 0.04293312431431809 -0.03202861901911831 0.29798031212857384 -0.036674827884946234 0.11776641279226292 -0.041843172132503985 0.01745847245622569 0.21134913214983647 0.13247374124794248 -0.05706474901105294 -0.39357263260261977 0.29066485804278047 0.0463835589447487 0.16296144672117968 0.3124916898686172 -0.10263299575824529 -0.026182791357942933 -0.10285315833809296 0.08765703559672514 0.06676301621017745 0.11782695254012408 0.08755296627148211 -0.09757255985398627 -0.19928236154173984 -0.13706873918485193 0.1735808161679252 -0.11033206795547411 -0.05471574030475318 0.013664338717993059 0.1967455699434094 -0.0010084938221635088 -0.28582752816029927 -0.14940283108809277 0.7487359548247224 -0.996584637090077
