418 128
ABM1 0.1865549599849303 -0.28309764192191667 -0.07896030359471241 0.02806473457220849 0.2679332489333615 0.15216422811250038 0.005333130886504688 0.030255757829314292 -0.04667103363802259 0.3022517554612754 -0.165896936186742 0.09395385042946346 0.07000551862972212 -0.028051996851880673 -0.374432743422728 0.08974477014223145 0.0040871748872269445 -0.16988354075628265 0.42024826543063054 0.1723392064833617 -0.05701080268276911 -0.22525983062001134 -0.02999508682730378 0.004653896307912085 -0.017385524990019195 -0.06973322881811848 -0.16029912692856133 0.11939159436017235 -0.037853655621368165 0.026652268752780366 -0.3232515549582397 -0.008418356375273222 -0.13736508076274279 0.032732350524578346 0.24162538223856786 -0.0563141600593005 -0.21253073893526114 -0.07167702270112429 -0.051168470576124364 0.254652706862097 -0.020336442520067232 -0.2141244280220012 0.020586389548205637 -0.10830232846537152 -0.07715084992122954 0.07514084554671295 -0.07427288606987674 0.0372183453153772 -0.05991123238227165 0.16230745777883576 0.10382905404271929 0.3425086475918671 0.03557885311589012 0.11445526865589992 -0.010750352129311322 0.07695168991073517 0.10906411108652526 -0.07742083916971045 -0.019158280823333 -0.10774701786439271 -0.1012194733974884 0.30284327582082127 0.0974098075584273 0.014171268087092589 0.06803690224860619 0.060866564769451445 0.05083471977990844 -0.09125669958215951 -0.04446311618757334 0.09077796784229503 0.08137003839856229 -0.03803783860702632 -0.054845192215003384 0.13624105677823262 0.1943440787763845 0.12574815032996542 -0.04504796082732092 0.14701596291582308 -0.13376041535694325 0.0680280758848537 -0.20278707454145772 -0.148856908020464 -0.1634080392683061 -0.01631610406181121 -0.1400399938247424 0.11663071941734986 0.06023631977701759 0.2409822194306777 -0.0031884451185623 0.035317140865790075 0.17112196396086513 2.1978309068356368e-16 7.771620118722007e-15 1.789575103806849e-15 4.2237204302116256e-16 -8.044806651389638e-16 2.2547977368253135e-16 0.3119372856650305 0.10552780933120011 0.2918428072960637 0.08755280529415924 -0.20312613822850523 -0.05897914667439573 -0.38538681350992776 0.1636330043468645 0.26696341891006276 -0.07393221546096808 0.0017361432237132692 -0.36628056071385734 -0.3267101074434721 0.9416553482981727 0.24705175093929946 -0.46982357530060787 0.18644122212795292 1.0334759615383102 -0.14425445233285028 -1.011433962445276 -0.611286488935152 0.4457688403036777 -0.42319216007081345 -0.24079020296672365 0.278149319968648 -0.10463593742568723 0.5031299368407988 0.5644942300810495 -0.3354626607857842 -0.09157085049745564 0.9160463879623675
ACA1 -0.23782862553567197 0.06437730099696752 0.0029312339498473337 0.14228200052479412 -0.07180210336219119 0.15569694138929407 -0.13550708667888575 0.09186049644738692 0.08830112405192612 0.1874612800866822 -0.03757981753291248 -0.17791496105006097 0.02753766083782331 -0.0671845974090143 -0.010952282296428278 -0.025334648742328676 -0.054699269722817544 0.06462124980203778 -0.0004448330372167122 -0.1253852840427816 0.2854962103927127 -0.015899103744968238 -0.1585675372790852 0.018190295500423205 -0.1257667844781896 0.1752824130898813 0.05954561778093236 0.10005085285122793 -0.12889444914498327 0.11481951669598067 0.02875916785883463 -0.07536534864094126 -0.1745316260065612 0.14946706739677448 -0.03227540413403813 -0.0838595384923103 -0.024173571399125085 -0.01295625274193728 0.20439139004180212 0.03392648526512344 0.06353626097889271 -0.12334096119161919 0.15724112063345957 -0.04025549737972815 0.1524264029900898 -0.3351504192511793 -0.07642096925902846 -0.07680014252687213 -0.2730919792257128 -0.24186760512197505 -0.06661297585337192 0.14610139190439858 0.26355789784251893 -0.03348012695972262 -0.14973547417233493 0.10756607284048986 0.29494040807312816 0.07839936686113537 0.09027291893297917 0.12837943430522 0.3406984885243988 -0.34608938624725166 -0.11123796902431451 -0.2328150373763692 0.07348416996253064 0.08539558569482976 0.1356145584612904 -0.3928557295444851 -0.018263003462329494 -0.11369973952112997 0.006972674646403778 -0.1625825374378721 -0.1852202488631409 0.13924984397060733 -0.15632049850064733 -0.15525117452966328 -0.073249102386046 -0.3535717080405734 -0.2789981059553735 -0.0064899672264563885 -0.13730684485941058 -0.02074984523488114 0.3169617695341324 -0.1611637687499 -0.09857662312187944 -0.336716475332073 0.010746760880617547 0.16325603720683823 -0.16260823958400777 -0.4028863782437968 -0.3005390451133132 1.2367133876633103e-17 -3.1109844204565953e-17 -1.8582680967509695e-16 -4.4049338853227273e-16 2.1141581130256952e-16 2.67349162183099e-16 -0.10342233552753978 -0.31679318196322825 -0.1779779708958101 -0.31813532599113786 0.22182943748808392 -0.004767613082271584 -0.20602178525743675 -0.1304564095696316 0.2692061484018041 -0.3851538190998824 -0.0511590000038132 0.29762174470860236 -0.1160005051888593 0.34385387115136673 -0.08725324607843979 0.016191221736552203 -0.18641500817543197 0.09802129247574753 0.13955445817264645 0.21701916381347633 0.014129271449940518 -0.07122702497685972 -0.2578491060581528 0.04774892515361536 0.029726168826798086 -0.15754078454359044 -0.16686906015532088 0.04960498778913931 0.0943780615585515 0.8169639420037615 1.1798245535921668
ADR1 0.027012572841459498 0.03775753886253426 -0.0671413578617024 0.08346328272125529 -0.01806738289819113 -0.018923294801315136 0.13527675864743832 0.042138688178957745 0.054589732111362414 0.13280748537256717 -0.06802793915263276 -0.07009373554389757 -0.03450070030524162 0.20162669132576605 0.14601118328686538 -0.24325893512875343 0.006220023968777909 -0.09204049741192855 -0.07498758784290416 0.06635025553787768 -0.10860675267989783 -0.059211913337080695 -0.08025801509711611 -0.055488190613857506 -0.05033788082128251 -0.09649052854144981 -0.04761376482607574 -0.09504188148630859 0.1353764854024498 -0.07742668102476392 -0.12296804039877182 -0.11601081828090941 0.08079537786088599 0.24339325261896397 0.37982319387855457 0.023674950781108033 -0.1093495341096411 0.4734512851491049 -0.031024423673967 0.18137189170079415 0.07970974529458011 0.21935526962945007 -0.14430219118786103 0.27184629932195603 0.00673615148268296 -0.6131396840905295 0.11561259272946886 0.17071641791707007 0.02601980603910567 0.1438924430868996 0.39887205002096715 0.17953327583689566 -0.03942877295883849 0.08935433953739731 0.29891337581658567 0.0933063871014176 0.4357450366099613 -0.521506357798819 -0.12213446657212129 0.1444127542769002 -0.13109556448000947 -0.22514131906682744 -0.35929922189478664 -0.3640377353307826 0.23425197278704932 -0.06394801699351507 -0.41904979384584723 0.3602028828288675 0.15295401268892211 0.09487016464020638 0.37543593083729704 -0.28328133062450256 -0.14487829625188733 -0.2824333838704852 -0.23792139312087113 -0.01762043605692398 -0.5446326469011182 0.22110683843002582 0.17796768224799203 -0.05366240071445856 -0.48033292325221233 -0.16080891366954278 0.2813104204343874 -0.16159199260178925 0.015192505522983655 0.18030736361318875 -0.16822563756101497 0.17981329075934438 0.20167092777128182 -0.4737200322978177 0.2742718655090117 4.456707984387013e-16 8.841755232201835e-15 2.2710614392282424e-15 1.8734381187681747e-16 -1.7385672924599837e-15 1.1883074388995646e-16 0.3860634084573903 0.04301973051063174 0.28977538021254995 -0.02204253830736601 0.5090404651367718 0.3006084244078442 -0.3540773019818734 -0.1501214791698504 -0.14758526920785023 0.20417124000154285 0.29227045966142917 -0.009178557232994709 0.0988854202213845 -0.1297277968025725 0.2645287716025128 0.0707776528706247 -0.15318853696363605 -0.11315288946008445 -0.17494819217508498 0.024426753500772707 -0.12707647048291218 -0.5522687372365173 -0.1136025311000379 -0.10970740559647642 0.32610510069019893 -0.1573653758023254 -0.2669559057704593 0.11385082620414105 -0.3611045520869272 -0.19339306053102287 0.38620867675697973
AGA1 -0.04045392218266212 0.03004676816052506 0.0007966814132565744 0.10420775611542826 0.1532591417295198 0.04781257241853049 -0.07491788454965949 0.10250969519574792 -0.04495056737977705 -0.052990531365548314 -0.03747813995958431 -0.03196190995292748 -0.061664276276004626 -0.10524165029805926 -0.025475512736375744 -0.20907393894443527 -0.023770898133089056 -0.030631453897772498 -0.07245846686854066 -0.16609948569544805 -0.16683180392443878 -0.13017775627897396 -0.08872170195167282 -0.11295565595247306 -0.06407502003901969 0.067992322194901 0.3859404291487239 -0.09159287157787804 0.026651573365407157 -0.11733563456653154 -0.08136350940799962 -0.07277967304579458 -0.05348254735985701 0.0015809241538960734 0.018979355135192767 -0.08317343889818447 -0.030632089186435008 -0.15693292116018986 0.09914736734034062 0.05756024812667801 0.13480881931457125 0.009680542535783036 0.17718190747924978 0.19358853357414615 -0.08202176645974302 -0.0400770797526861 -0.18645886404507817 0.04741282692489493 0.03916441524683763 0.0933686211320527 0.21644014660992414 -0.07469837274212006 0.18525753901239903 -0.114464771061611 0.07391625608808262 -0.011765597955651724 -0.04595072999858505 0.2075822788955507 0.010068606160501505 -0.20496243030568614 -0.004527264870237557 0.09718278145699233 0.11146296999471843 0.5402787846606582 0.3680480579227069 -0.049863374702558194 -0.0007235198928977188 0.6111991070892919 0.5793780540299807 -0.014710812723995981 0.05595004694643908 0.1486813873625177 0.31673606519214115 0.056711671265306886 -0.17252408304925151 -0.006009358174871192 -0.2716153760613878 0.3419601422818911 -0.6504250593930521 0.16326510085407808 0.1505515057324784 0.27575989907676224 0.07209052101948607 0.03430877733817819 -0.6598444104052159 0.053958874812451874 0.3045811649922584 0.33692953743692494 -0.2080860640558696 0.16207743092966675 -0.660429389229812 6.260389063838924e-16 9.296905131276007e-15 9.183217102148595e-16 9.457171503684908e-16 3.2015253026391166e-16 1.9758545313831514e-16 -0.06258670969505728 -0.05496988830802108 0.24603047106748294 -0.5941218811429809 -0.41732625230038817 -8.813397633456385e-05 0.03592537496519375 -0.31989043876064055 0.00463990483238169 -0.05322024742334039 0.14938827121010884 0.1144736049519657 0.14167978753890612 0.2390044962536695 -0.03244514530062789 -0.0834146322612129 0.052134991690602324 -0.23387781749501138 0.001908288199908451 0.09782473464282472 -0.040912462773627055 -0.18119443330648155 -0.18745636128222104 -0.34255757094464795 0.4442050404872317 -0.09280812094917745 0.07389176498984679 0.3300854560615676 -0.34510454614438363 0.3215924481781119 0.6957435587935545
AHA1 0.03083086924252328 -0.024091230767200905 -0.04684149404298231 0.12032352731163999 0.01588133007383558 0.006608174160112846 0.028407100702393395 -0.016797039154371734 0.004471444363848188 0.03226711101305333 0.06220776447193374 -0.03405102315273615 -0.00811528514759243 0.09920507749029693 -0.0012308050819620864 -0.012855021448836346 -0.018441966098482507 -0.0581342107495884 -0.015791849740559902 -0.046167817138719494 0.09877518193271242 -0.1221334375422348 0.08838115813396208 -0.038631179595258046 -0.004372923935767026 -0.026628034629461048 -0.050117342779801635 -0.10655837675214443 -0.06718476049688978 -0.013007349570601779 0.055688611331730795 0.01852830297877169 0.054689198393468794 0.015282693478115525 0.085877307169136 0.04333538745722058 0.07322175990238565 -0.036598905886618294 0.019813168153452416 -0.07516085109991762 -0.04187256250993754 0.10111670714877394 -0.02099289800669805 -0.0450063420897568 -0.01568613539445102 -0.010158946510791732 -0.01473858380951748 0.00140970651578653 0.0004943057971678084 0.0007345007815677202 -0.11123823163528017 0.008045218282350624 0.021705243071362963 -0.0497622058757658 -0.010019787496151249 0.02254860884660284 -0.029023819856268916 -0.0811660723588638 -0.07444377097892238 -0.043619997704111825 -0.03969025928450444 -0.013820209171764708 0.12930821237443638 0.011035464055061834 0.08568820832222136 0.049056752984950214 0.11001236880074639 -0.11121132314121472 -0.006612451940885368 -0.044363611877554096 0.11920539679614936 0.04485907806264893 -0.16536011732837824 0.003476975594737408 0.06668375597674848 -0.07692355327287417 -0.08018236247213166 -0.0189967264472515 0.08936324645515567 -0.04453810804525734 -0.0914604892992067 -0.019888776021110603 0.047558170429495374 -0.053420980628666556 -0.029379866003252274 -0.0614532558055524 0.03448759652653987 -0.08459588676039508 0.04493516560530704 -0.04928240537859277 -0.016269940739022024 -6.724378306861547e-16 -2.240473297653778e-15 -1.880454356107114e-16 -1.0006951107885694e-16 7.518713011680108e-18 1.3842910486489571e-16 -0.08348482564569122 0.1539956522517594 -0.02464310333680519 0.03052378392739153 0.0056617825217817365 0.023941982007062358 -0.04098517449951883 -0.14390587203558822 0.004835259556161895 0.10045715922366441 -0.11781264552805526 0.06785187444803892 -0.06704594137369901 0.015481383422603972 0.08609808316511727 -0.10492998072320069 0.12274418936751567 -0.06509099262226874 0.12233092683078683 -0.01958966795998583 -0.101044663859024 0.12481050371953162 0.08510395152319918 0.05300291266336165 0.27396277516994044 0.12665848992528494 -0.024135673191722152 -0.3216678071921508 -0.1421293134000062 0.027992918231735404 0.029173223773523594
AIM26 0.020953605245046723 -0.04618337787288958 0.08182550740395259 -0.17252347252604236 0.06657184259245308 -0.05835119503281619 -0.3906699102459214 0.12388387957307315 -0.005422489408210598 0.14745228127280618 0.03811685763883194 0.09809159560551078 0.05058662027447906 -0.012608807059572315 -0.059165119829332785 -0.10928244184297427 -0.17655797550432337 -0.02531185008065982 -0.08698752301269555 0.16200388882401 0.04542303358866077 0.14184069085530573 -0.0488551130782889 -0.19589154344399695 0.1938202253915908 0.0208057340502745 0.3015629535424011 0.0585146182660884 -0.0866388796689835 0.045460251935285335 0.15483079771240546 0.06493811002236664 0.11230465556789629 -0.0850416847255393 0.09805763476798514 -0.10008840891872804 0.07960325892042035 -0.028389116663520585 0.3564010764240304 0.02442280692028002 -0.024137599998491716 0.10104322272213725 0.04857902435426901 0.04156236383950751 0.08239104812443537 0.13369909436447996 -0.011988793940401078 0.07110628662459886 0.13338646689402936 0.05276383597197617 -0.08555004863060708 -0.01978452668399766 -0.0657394516762942 0.01805974015258683 0.054146929936107015 0.0009383686564251631 0.15645411431330186 -0.0670372391983659 0.11247538413384965 0.3395507276785936 -0.11164085421675085 -0.19659900251127263 -0.14554179798330721 -0.14847526856561982 0.04677662825160105 -0.09489241484900057 -0.0834481582178902 0.07902884376001917 -0.18543677462193303 0.0390509328670542 0.07730975647871927 -0.04534629219837281 -0.15837549240597543 -0.07220910881489392 -0.002609545703526871 0.06856639921440612 0.03930175795377544 -0.0779968554304366 0.073505677767283 -0.08020901144264965 -0.053400957326384425 -0.04855435147317639 -0.0784871191645268 0.13113165549625308 -0.5014552003579783 0.007048886113687511 -0.0488178513100733 -0.09125258589091015 -0.09726105935613033 -7.628146013867016e-05 -0.08972536952944075 1.5489041056428824e-16 -8.189812619205085e-15 -1.679538765969625e-15 -1.2077923718847614e-16 4.957890988639687e-16 4.028784979925468e-16 -0.26930493806431327 -0.03231796572160469 -0.38656619103412426 -0.004002815637449887 -0.016335433539730247 -0.4377461222395192 0.5922778182076076 0.13682622637112993 -0.07774524666780283 0.5134252340443923 0.07060090473134617 -0.10218537361083109 0.4789744498527917 -0.13565000024976615 -0.23116642487934017 -0.023465076686790053 0.27624710573635786 -0.06851703218692971 0.03628290367180565 -0.11589383859994774 -0.04890073911705308 -0.14944350074128224 -0.14734446431331563 -0.23323031515672168 0.25595702455005387 0.10165132264065493 0.44878626806140665 0.48743811136725756 -0.5939984544024879 0.044481900128251595 0.7347220295568041
ALD3 0.029527156124058575 -0.03239908872196167 -0.03266730632986607 -0.02961395261437186 0.012490831655630932 -0.01007529623856003 -0.013492608114262684 -0.04646209489588332 -0.07390843541771264 -0.017879823070055447 -0.025309121529716122 -0.0065194396454165355 -0.0046409967702255635 0.03831366291596367 -0.002849179229023973 -0.008685546131810594 0.07935840644647695 0.010562599644861472 0.0011235497616446438 -0.06971653179136587 -0.03864134527924571 -0.03063167638274846 0.005130054024394589 -0.048997237067481096 0.03732497015918729 -0.01652157117470402 0.05129888383952206 0.01143218592946603 0.04216033687118868 -0.04043230015470088 0.04026946457509632 -0.019225499410803863 0.0229938407038804 -0.05104092677308922 0.05007761479791043 0.023280319880576505 0.0433539380463679 -0.015716931920570772 0.013869074553359189 0.02840898274112116 0.01680102153649271 -0.0062127015122728415 0.03025150633160232 -0.05196784715666031 -0.04201454699317732 0.03248455798525368 -0.02995081017434586 0.02402978614530666 -0.01596290414901059 -0.010617244724548456 -0.034949585474655084 -0.010494706136913529 -0.07826404579290905 0.11003003856257663 0.01668783385371224 -0.01765709435269044 0.008652424423751682 0.049452788517771136 0.03919586081289209 0.08782571958153637 0.004759381815871345 0.03777168164812605 -0.12384678726475831 0.07939536370233785 -0.06152224259601826 0.08227359608463969 -0.029775195641185935 0.004699084282879739 -0.04052964775741251 -0.017794731678930847 0.059812618635664005 0.013279578612201812 0.0047764106468338365 0.030543204648199054 0.029973298373437457 -0.10764074520010214 -0.04961224275487161 0.024654888955544407 0.06751346735392798 0.0579563989819394 -0.028677722264664095 -0.11243962661231506 -0.02490430294507336 -0.0352369386152853 -0.03351036318082988 -0.042177324928282314 -0.005497348844662344 -0.031923070585102784 0.043653123836335836 0.0050709446938006185 0.0053383862595103694 -1.0887081697383854e-16 1.3484013234346402e-15 2.8128213511343314e-16 2.030798791867306e-17 -1.6577725780777426e-16 1.374441142910207e-16 0.03437404647221801 0.10935587327043662 -0.00024364894077838318 0.011065348897479094 -0.050653160841291706 0.00727384550762133 -0.006632033647735184 -0.08119833571052636 0.0006737411884562357 0.0506490171401185 -0.049597975454286125 0.05585508736016864 0.0007258188393360428 -0.04059617314093391 0.08840047687540076 -0.0605422435722807 0.03806437951712399 -0.03530098389536982 0.11831564613161667 -0.018459154378046332 -0.11204114137538146 0.17110871378555076 -0.0030978040065599856 -0.004375907872315687 0.21760428389618577 0.02710181781800069 -0.02858601775484815 -0.2617154421899199 -0.09887523144202011 0.014616949588955742 0.02526502231534358
AMA1 0.0021696742670057815 -0.011642446661263248 0.0016148885499083056 -0.0012539749364451358 0.02774302254476558 -0.07746467877760545 -0.01218488036766819 -0.07753886950085906 -0.03368396421856812 -0.006915518846015814 0.12277447064132238 -0.016506490056587133 0.05558629922895873 -0.09876498036386328 -0.004199161070237445 -0.11140616485474443 -0.05873255294184594 -0.05771700807268414 -0.05372749914366992 0.025389501840823274 0.06576875783062362 -0.027592236401649324 -0.06263292797453661 0.02541004722892724 -0.07372940273782028 0.04802412806147725 0.03493560667587903 -0.09034007464937527 -0.00798528867870544 -0.030602484577256516 -0.013647830870263854 -0.0023357610885114707 0.09582787978523939 0.06489093169588274 0.004820942554596814 0.026312492541503453 -0.048129959772642186 -0.030301194189725402 -0.061279794597646965 -0.12256533374069689 -0.04982543059780648 -0.05408810423961157 0.04696577627439446 -0.004853486463156091 -0.08156321598855701 0.06080039119103953 -0.055242963270583575 -0.028512488475967802 -0.03354887997548787 -0.12272807859208293 0.011938591255523023 0.03306616564048551 0.053502136867492375 -0.0468225133491136 0.03337365710518487 -0.010903451463378391 0.04697983710114858 0.03363551097627724 0.09623019379848774 0.08183596203241042 0.09916836070783329 -0.013652476609837552 -0.02348964614559276 0.05908942972750915 0.010233457953645785 -0.1005757965208554 0.05404251560920079 0.00925093776266426 -0.02836935708923933 0.06146390105754109 0.1229767809120725 0.03054553917800622 0.05356177706211908 -0.07939736142523028 0.007456636637671809 -0.009153558309323417 0.005763385788221889 -0.03311264319414321 -0.07392585516515744 -0.00033846078727067656 0.028770764384162494 -0.051308626942802776 -0.04676284636077196 0.04626003650131515 0.025240637305804902 0.1739895590542029 0.009387720806858136 -0.002336205056022321 -0.11200308482078376 0.02182271210326641 0.10037839846956512 1.3623260943520332e-16 -5.014365811762621e-15 -9.678607828346425e-16 -4.560685230061227e-16 4.7699143891178237e-17 -4.9055309690655687e-17 -0.06900840872677566 -0.029448245001600246 -0.015023134630470144 0.02257047441588655 0.0037606018651745953 0.005902229300111554 -0.0052972254242292715 -0.08550921184005124 0.0957505888353107 0.06532967027546921 0.08405954424298988 0.08154701595113548 0.06747475627207417 -0.00846243121805178 0.1565938179710762 -0.02355517012957577 0.14845000856289306 -0.0774595138207953 -0.03433679648677015 0.009973158660064077 -0.11873558062881227 0.04267844024236906 -0.2505168055868223 0.20832938371607662 0.16235761142415794 -0.08916332599735324 -0.14901116667193595 -0.24556775131244604 -0.13504682391307457 -0.07763791305928854 0.029140807492286147
AMS1 0.06729286695571236 0.04182808656318252 0.024493209134361975 -0.07757525458966909 0.010609617623428753 -0.11110686526147014 -0.17830689091249116 -0.0016946178774337685 -0.08944967365094687 0.04334929408730548 0.2012178446549219 0.05573916245139947 -0.032371686212157545 -0.007892278296197928 0.003973784930732008 -0.1671715410917926 -0.040082890785481586 0.07979199953423435 -0.10004640941512903 -0.04140557832293558 0.2312793727176495 -0.11904648562107124 -0.06781799780628718 -0.10112431090287165 0.015492473009625342 0.12683225175535878 -0.21593702387495736 0.005002889147892125 0.12045768331797202 0.02145707952085038 -0.057213677136792956 -0.20065954565405708 0.09441481237102857 -0.021146044802443725 -0.05925156835106114 0.04797734513573203 -0.09303745703264225 0.16517887757234237 -0.1569050575115231 0.19591171877649824 0.1329351193684909 0.14319782841144574 0.10635178600960989 0.03995070435505941 -0.014532508192199058 -0.06958402196972895 0.07798961155941249 -0.0999262149455426 -0.19162296369468432 -0.05948067687585126 0.20336701388647063 -0.05193391607005845 -0.0707648987603114 0.009934310158465234 0.040053919981955496 -0.14471390833062456 0.034465233619932825 -0.055180049771426 -0.2010590665460456 -0.100465688110301 -0.20949961890257998 -0.13306858377703598 0.13589531543747543 0.17674788410526404 0.04204210524818183 -0.13726214608662343 -0.05549621553220056 0.1483964844735401 0.026541596907987866 0.13564452184505513 -0.2736606746113756 0.21598394690836073 -0.07127758359408663 -0.03224368298395424 0.06432675748341231 -0.1298592555486896 0.06303202736768156 0.030507735175653986 -0.0847392554857949 0.04381856746922883 0.07519923616997873 -0.008424427514283435 0.17813645553476914 0.16285301379783365 -0.20122367309843167 -0.019505919052396282 -0.331280188670524 -0.06074958498534345 -0.28193796313496694 -0.19475384659264086 -0.20375800059476573 3.041339759185908e-16 9.944299360384714e-15 1.1453349914081612e-15 5.26119792018833e-16 -1.7609648510073728e-16 4.59354471096226e-17 0.13798671709555896 -0.21858226688733545 -0.06355597193696534 0.045949837937230106 0.10722378308380102 0.126829788402795 0.3153009996477038 -0.1451644999304845 0.20936693669821735 0.17176724953619124 0.06810775503810981 -0.08544280009305626 -0.33392143168492056 -0.21716572076605156 0.005088416187284546 0.09549432043088578 -0.014604497019148076 0.07060433133573578 0.021774235857558298 -0.14865959333790704 0.08983732290152285 -0.20678502160352846 0.44598323451574196 0.1278402413659424 0.1865835576059789 0.6941905786855296 0.231215718082198 -0.5626739376316305 -0.43984782095684766 0.2362612351768575 0.22027986980381828
APE1 0.02180650868525572 -0.005302385874018486 0.0396025499663247 0.10444733667746027 0.030868313759655576 -0.07749722379843019 -0.005635462508962236 0.05552430630262518 0.009210522651431711 -0.03502132704850618 0.10123772196982396 -0.011881822076875244 0.015180235775177539 0.04899826361011724 -0.013299772703114068 -7.69851755462433e-05 0.06857223809662324 -0.04770294701142728 0.03609319039303183 0.017543964088743237 0.03952959728043718 -0.06965196094576116 0.049701419764501674 -0.04637546331065799 0.011002814784647342 -0.014803396739292414 0.08408864416861232 -0.020020566594892708 -0.011390766522717677 -0.016375702140135204 0.08427004413099337 0.03211547456373962 0.025252271943014267 0.06188400337192654 0.01361984089773172 0.03627410225410564 -0.011455585716603354 0.006697886037157321 -0.02172771945504555 -0.01670041077849349 0.01714093855594091 -0.04769224966202779 -0.005752460588246372 -0.007815102429412104 -0.10023972324129839 0.006588114713699831 -0.026452363794881747 0.012952399592212999 -0.07026667595170391 -0.06142672100296907 0.016500597767389637 -0.07993462098468017 -0.05609040309029239 -0.07703643127128199 -0.0910859994250526 -0.056348353360634 -0.07294088780984931 0.05519140766063904 0.08864708189954014 0.015694361159633904 0.02757643819798463 0.06925930922777183 -0.07309401385235724 -0.03640591555151918 0.027255449697578153 0.04052099404808767 0.06722283960157364 0.028234498268074042 0.05079289849877789 -0.0448680106321226 0.08412319962897087 -0.005663724077853828 -0.07252194063259043 0.006679676371964139 0.026847208813117196 -0.08352863471277826 -0.03410550523765408 -0.03814352523377146 -0.0059907325759155725 -0.051119408033600704 -0.13898315560015367 -0.10655373063337865 0.07518063921700247 0.02727493964346693 0.014786550994126325 0.005489689098896949 0.0990964554817996 -0.06604055556068937 0.006608796715664874 0.019558076876489264 0.05128729575325635 2.0022362911070038e-16 -1.6250135431540707e-15 -1.4615510997700288e-17 4.4509105544697573e-17 8.570761455296366e-17 1.2311580676965242e-17 -0.04491004931696987 0.14342943824915375 -0.030449385416925254 0.0458001309188787 0.03444673994864551 0.05426457061994772 0.020078994595468986 -0.16098183996410714 -0.032822991442552275 0.10640357778086176 -0.05237574759942033 -0.005201882805054228 -0.011033224826600359 0.006319032094332237 0.1600288405796387 -0.02919613585577347 0.09982369303235983 -0.05751024959352511 0.11380126351163856 0.0003837206382229513 -0.13999968752133335 0.1696656795548544 -0.00991326916781558 0.023493143197753908 0.1713829842771062 0.052483837650645765 -0.07751288096902885 -0.2743953966367073 -0.142533126079581 0.0028067634702663067 0.022428667668156783
ARG1 -0.11253898706415749 0.008672715807440879 0.29485226788816965 0.2778659742022701 0.04413568349251608 -0.06622630001758982 -0.09384179341564655 -0.09502862407638178 -0.1356749258980414 0.20593035111261287 -0.022715660378971676 0.11212660593071128 0.09129888760781048 0.11384069892064562 0.24857797530413364 0.17778924587431288 0.08128610658735393 0.08298097429855016 -0.05628451966576654 0.054295986607361665 0.17755282272270748 -0.09137665101233468 0.07135793405633688 -0.02722956178912365 0.1756196625547811 -0.08492734402599374 0.061918949004336 -0.2801603280627265 -0.055222531374965585 -0.15656652554959397 -0.11612883837996058 -0.03940124737503518 0.12001481995596394 0.25076752418194587 -0.008445480997024139 -0.12179218695580211 -0.1404187861283357 0.02933355537085624 -0.07397898147745434 -0.015804836210123605 0.07170130684563185 0.029520077798806842 0.037023416519782644 -0.12760058576547476 0.06421109524938502 -0.07030231600594798 -0.016362611939531202 -0.10447612309314452 -0.04558240550398278 -0.07398779418695056 0.23643722862584146 0.09803318027199401 0.014193453387233696 -0.04556654347177782 0.06579910823707172 -0.10127243777820434 -0.04329782099270139 0.0060185848588761226 0.0023305833637247116 -0.04161829208801027 -0.013101004928103755 0.10547182669624522 0.14921607019858335 0.21230439200292037 0.008563927356506065 -0.04854561969981043 0.14801375603159037 -0.10737525030108502 -0.03762999435360577 -0.1885370253889449 -0.14158305229219564 -0.09162054375297256 -0.030231852807443536 -0.021559565754895867 -0.00807096630121444 -0.09893638064866275 -0.08398550042066386 -0.029237389295414515 -0.14546115927488149 0.06469119335783427 0.09534764799313646 0.01978023435022663 0.015919857032969078 -0.024108723895092634 0.055749562405970995 -0.04471924323621066 0.08830304437176699 0.1622618253107349 0.05640378058463353 0.14900322202558633 0.26131782858892155 -3.289478094928811e-16 -4.7253568160991054e-15 -2.9145179417000804e-16 -2.7080138999427517e-16 -1.558285852009792e-16 7.521613622430908e-17 -0.013437789642299771 -0.009746820737033151 0.4947680210963842 0.04149393585261738 -0.41462661288516706 0.01199867128771608 -0.24069615824026053 0.24721552987976658 -0.17835750836498948 0.16132274088138138 0.21360915491132845 -0.3233355797630006 -0.4503489808779608 -0.5643506944926449 -0.11494960985387895 0.7532295044643738 0.5790661363018993 0.037067167835451824 0.5052074482504468 0.6361091567153516 -0.11529560451797448 -0.46728381072633574 0.11752168186368699 -0.27747566097176063 0.8894755403139734 -0.36782865211824883 -0.28328445882897507 0.7486882777055082 -0.3572401982895589 0.3160110622601047 0.9404730941734458
ARG3 -0.011100387418333357 -0.1611839388025297 0.003897750396654483 -0.06571397033805745 -0.04160430971838568 -0.504776357581594 0.07227504598924407 0.07668374208394343 -0.07926564704130189 0.0725699420590928 -0.07389806389518704 -0.22074696712932143 0.2061467780660785 -0.10184036782834983 -0.24387035012138683 0.1748280847971703 0.2947899252094716 0.31359860112023835 -0.0035802647759071663 -0.05011827300962575 0.0017880979931186672 -0.20584543822774362 -0.09362322391604813 -0.03350133726371099 -0.09846885228503771 -0.16466675763453048 -0.3125620202990891 -0.10781275904169774 0.002837274229686119 -0.09463963938313781 0.13165388651147888 -0.24245901157511526 -0.32184356169246564 -0.09854812024098783 0.22118396448809477 0.1385784540435293 0.3722417925855754 0.08096348997821179 -0.2828973316515614 -0.04353487413990626 -0.12470465630194075 -0.12208065777448683 0.010546743887043008 -0.05237646865293864 -0.03243960591188524 0.12886189732861383 0.35608449352441796 -0.25095114295810794 -0.029490904654752247 -0.24425312401521834 0.12404301147362792 0.16255844223581045 0.02435523795831809 0.04997081960974302 0.21099594917057093 0.019750163893930705 0.0019956089641833207 -0.002863864054497466 -0.029655445721825446 0.19683791605102843 0.00546622797274837 0.09644189723815312 0.25295059163670586 0.11068383002301836 0.18285076695019856 0.15162157948345098 -0.09937988553222517 0.2558799227035681 0.08389504606625804 0.06405680872752571 -0.2104176515077199 0.25527518485342815 -0.12208507762107208 0.02992632250467354 0.21919762188182995 0.4098747912782669 0.18014102874483037 -0.09564257861848091 -0.20817368549473114 0.16285647133031148 -0.17542794940853298 -0.12409284185313092 -0.1894412840197937 0.06933580635857535 -0.10562540006642036 0.050595318007533266 -0.1737254628715152 0.06715214697871273 0.028702139970771125 -0.25585212937099816 0.03392867444921723 2.816518947315389e-16 -7.619506366492573e-15 -9.99325711961817e-16 5.10493800311537e-16 3.393407574516703e-16 -1.318074300503353e-16 -0.12422349415859918 0.013825560846390802 0.08763596738244286 0.024881395897836816 -0.20971586626151958 -0.2137607222431594 -0.0483687954207008 -0.5171716973249834 -0.35018600705010855 -0.0778644105457206 -0.06263913578351675 -0.06649819478014081 0.6335771904507608 0.13854097752905875 -0.4458482331955187 -0.08082806061881966 0.023813154914599705 0.3931551745432756 -0.11683623796816306 0.6105631258155282 0.23063142491727034 -0.4422783606540449 -0.14559548601673858 -0.2782382031947303 0.3341654711179868 -0.14787815281240782 -0.08763814526831111 -0.05749178867281743 -0.13448835089376834 0.7561739044093523 0.8351352258649207
ARO10 0.028821647515631856 -0.03126701655663912 0.03624655259170058 0.031686322544344406 0.03577105129604109 0.03206267055222282 -0.02792836153563767 -0.07353114289116341 -0.10166547861914012 -0.024334452210310803 -0.09257064631919729 -0.012592908608480433 -0.0782895742031529 0.17584748285609655 -0.039424990546135394 0.02345914882810674 0.018536171222724298 -0.045908353425335335 -0.007845643645946202 0.17651115713499527 -0.0012889449397137762 -0.02393476807500066 -0.048595359055218064 -0.023117969467796585 0.027434671690885024 0.017478741166658172 -0.011154058135034086 -0.12376016521828984 -0.03404820974528878 0.09669928267117313 -0.023885581661649762 0.10850555080004842 0.033129852799772354 -0.0468712098497645 -0.04021239616373969 0.09392564548680649 0.10379447628772225 -0.04575829636944641 0.0894451780147866 0.08577735525736424 -0.12043025011768553 -0.07541837731681411 -0.02141208368838333 -0.029344691488626336 0.12649412609413851 -0.08851905347180965 -0.0380763418700889 -0.02371680055369669 0.014836074753262386 -0.053993993025125225 -0.053361352741363 -0.19390466594818595 -0.09939877611834817 -0.01878540985926032 0.04570458005454075 -0.07273655175327877 0.15250693358845135 -0.030352263181803563 0.05951129118841211 0.003558605307963924 -0.15828390941072928 0.005765630889379698 0.009986891048883518 -0.09120372552511608 0.07474393001392846 0.03610904317757474 0.02649756375892385 0.04575592736851981 -0.03488250733402581 0.12529254437867282 -0.10779121830257579 0.044588876143343226 0.019767148150243462 -0.059642889406781176 0.012623893473185809 -0.040821552344788244 -0.11223298629203805 -0.09425084909832465 -0.04146240373417984 0.026929174607033937 0.07844457344730683 0.11533197998621146 0.025694627998237476 -0.041284654926750895 -0.01616097817832128 0.0601900515878706 0.027888575793675176 -0.030961533757157666 -0.2512991845077606 -0.07238559477035725 -0.011116652964825212 1.559109136948809e-16 4.434986624353742e-16 -2.8407329593342006e-16 -1.7403541702361545e-16 -1.377513043653494e-16 -1.192957628881775e-16 0.023071190941289645 -0.2782738571047895 -0.18130789452932874 -0.03956235288739969 -0.019163840282673674 0.013307928138729119 0.09373698862710159 0.04612276726090424 0.05319198890883286 0.13323729689885086 0.12233422226122108 -0.09789012778093968 -0.11033559565102392 0.02838919126362403 0.03387792562844177 0.07052540709631357 -0.016583492184943205 0.005785714615962427 0.005012110184624881 -0.14206085614789946 0.16349348923682142 0.0386761644917511 0.23469309142255163 -0.25173091627485655 0.2875098508528858 0.27448809224299076 0.05869512678832257 -0.617319156602236 -0.0652916174889008 0.24836923361958543 0.17305505537198523
ARO9 -0.0394143086394644 0.23867630510986665 -0.1059205381058457 0.010239062994039963 -0.06093975321521096 -0.029428017379511753 0.016359543668213603 -0.07372556250465567 0.06577764563178407 -0.0017572147501742287 -0.014101913586313432 -0.1971531589630553 0.01097867610337213 -0.25673995077379635 -0.046734377468001825 0.05484639986661295 -0.07163558974268114 0.04105165348419562 -0.0717759394212558 0.0080952045615741 -0.025669891169844285 -0.1554189899441166 -0.03978462531007817 -0.06926850373537834 0.11511498092501261 0.0835724632820286 -0.10506061636475919 0.2979693572792582 -0.03639259574258385 -0.005639997326840132 -0.014153123689755664 -0.042641160297975565 0.11584714537229233 -0.006943155386688415 0.010419097991733425 0.13512506948813485 -0.026890716552646483 -0.020955167509858024 -0.05111410405215488 0.06958791497813868 -0.057442033525728096 -0.06932752536231318 -0.03787657008469091 0.04113410553596189 -0.0694790698287439 -0.09336973504992653 -0.0019358440921680982 -0.0677070348548151 0.061054293566490454 0.05001921396868614 -0.007025739323770457 0.1859367293026318 0.12305129923760698 -0.0076831160450556235 0.07000521521720733 0.10807098757771788 0.13521515191020553 0.12149120424351768 0.16596685232642439 -0.10582055381275311 -0.03607430160825104 0.16201257081203357 -0.053141964922044524 0.048777058693004346 0.1264602937789505 -0.013280577679709025 -0.07289860537949247 0.07121833950840727 0.17618725301549706 0.11167319045532388 -0.046960547417179616 0.14865581156574897 0.03625108761494729 -0.048399439574976874 -0.01729986640831558 0.0999889192996595 0.11531657101787872 0.21428226148621626 0.017162689252304533 -0.03839053179222642 0.03083820606061349 0.10703623062895912 0.09684851200935013 -0.11975836103322648 0.04056688042994094 -0.014815278164793694 -0.005784589288104857 0.08574153502046804 0.020443839951249373 -0.0817667715670361 -0.05251752452193438 4.7082735705667e-16 7.396535472179878e-16 -9.800445932026911e-17 -3.7873889357568715e-16 -7.810213468919671e-18 1.7524667691351246e-16 0.007095793629938201 -0.19136971685065732 -0.1272772919462877 -0.06413148790448002 -0.13964237164053594 0.044986926168475605 -0.014032465988122632 -0.06618664314132222 -0.040607734060180214 -0.05261687465100142 0.03292292270246216 -0.020765154252515034 -0.0654919578885134 0.04674488311460959 0.049169802889216296 -0.004148047924536661 -0.017720492825982297 0.03308508593508169 0.1396473769144576 -0.032833007549132834 0.040589231138135666 0.14878843929241828 0.209745855079881 -0.1519555219700438 0.28978270914388166 0.2164456996936084 0.03149945908089885 -0.44489633533108536 -0.13439942790993312 0.11600577317594363 0.092308878466737
ASC1 0.09777838400996036 0.006090834534250219 -0.015282210166371213 0.0752734884330647 0.16973665357916815 -0.046055557776891784 0.034381459649174655 0.07230718293391974 0.23001668294236732 0.018971889051895213 -0.050183678943421114 -0.007234770247127452 0.025131452377992507 0.08330860963571948 -0.13454979909496775 -0.13265498999442654 -0.11507881232947081 -0.02431223881678934 0.010522575571649942 -0.054465267832312675 0.022246871332381242 -0.0036912694767724874 -0.05193292997985337 -0.06522953170998902 -0.019271505256412882 -0.03481050687770337 0.0001209418988777814 0.05638958205649336 -0.016155342088113304 -0.013476428301148152 -0.13261461272816363 -0.03427339573127421 -0.011369193741195056 -0.04074918250059854 -0.010382645686306402 -0.012205636229215985 -0.013268127344758985 -0.06721578675444684 0.02235960042861365 -0.12067013469938768 -0.03892092311938813 0.06492722596615101 0.1350117900098821 0.04689598917266614 0.019826612215277425 0.010101315390996008 -0.15536878902716955 -0.14394361209051287 -0.042275972926039525 -0.021560211174818624 0.12507340776399414 0.06701461510219052 -0.10490406822960158 -0.037186828479841505 -0.23215234956788997 -0.04754483590116516 -0.14430381612563525 -0.02042806459988004 -0.1541623069250565 -0.025566642019964118 0.12331300462678049 -0.07065095420465135 -0.03762601654361394 0.009785867274368198 -0.07349332493650279 -0.19828540793330818 -0.12038351892380518 -0.03017036550173224 -0.08637096070982558 -0.03442666852236209 -0.06643748408920254 -0.011710477935246271 -0.01537936826996954 -0.009853453515395806 -0.06429352552053626 0.07165523817522605 0.09983021314621184 -0.05727603489791598 0.18023444418561604 0.06460566309687361 -0.10602331129610609 -0.04411485136020142 -0.038971320137239654 0.10229020345598201 -0.0823005640261661 -0.13766666169476502 -0.12338482031171677 0.1696584177623686 0.07505947853250748 0.01417355933136633 0.0778585108716859 -2.867490253219971e-16 -3.411940279515771e-15 6.895837854123485e-17 2.698386351915896e-18 -1.3073051772194588e-16 -2.2272901751831587e-16 -0.055953088253447365 0.08210482248092814 0.022363965644484823 0.007658180050712482 0.04400385661636877 -0.016556718134097002 -0.12579207599763328 0.18670657962988613 -0.1820294782488847 -0.10224737695847164 -0.0034934370914835393 0.20171328801078925 0.159351634028208 -0.0713527276886054 -0.1458654391004687 -0.04434325003629313 -0.20407596337970965 0.005858368554356344 0.2055784411781594 -0.01961302712467515 -0.11843684315826337 0.26516044081373513 0.07600356520585493 -0.0725827733082895 0.29151297148234545 -0.06066157582447255 0.05319470670728991 -0.3823394410369198 -0.13881203520939012 0.04479734556548431 0.04184361953424051
ATO2 -0.24980597074618555 -0.02790676440988008 -0.09185249428199459 0.2839381109659976 0.18073010744515478 0.06020045304109307 -0.19899583967028386 -0.13567062555731912 -0.049262217172939174 0.043764012600836594 -0.11611952033883738 -0.2273310055943693 0.09390758490050842 0.10485177599208292 0.13192211843697696 -0.03815619110504143 0.0429763829197444 -0.11414004119953854 0.13354445864973172 -0.0015438401642545129 -0.06451505855961487 0.06522493026179443 -0.0689774868858892 0.17045253686260284 -0.10419268959801531 -0.1460220961766997 0.0838106779996186 0.06918139529773767 0.02363564728393617 8.635511128849981e-05 0.006795110981514993 0.1587615241851231 -0.20726277316564742 0.0808915622123591 0.17548253445276063 0.04380054947467454 -0.07046608973958444 -0.0036388059388215033 -0.31554100056390877 -0.12568857478993997 0.01743225822890638 0.07420757908623019 0.0060732500356185885 0.22437825273032264 -0.04784482473937772 0.06574969254759475 0.09758960881699451 0.06275963621817325 -0.05246575545493447 0.017531420358484807 -0.09083707345748633 -0.1330289629641593 -0.09289048494256553 -0.11358318352491832 -0.2746219793812801 0.10501863901999275 -0.09456052215390791 -0.0059287201462064395 0.06260335012662273 -0.1748601471319071 -0.15971995894887556 -0.023369364651465104 -0.008564132213076218 0.029867566363240627 -0.023625760072586488 0.04966905985232586 -0.048631249993860204 0.21814207309348413 -0.11521262276091139 0.17975000148102077 -0.04885731499904776 0.22648764070594193 -0.07429033910239279 0.07655988707832626 0.20184899589323982 -0.006790964347363991 -0.12514421118173882 -0.1893714375497412 -0.05061026005573726 -0.05479398954793837 0.04987407772034567 0.2282474712965094 0.005801677640304233 -0.08131601263318815 0.2380721045013393 0.19102874733608247 -0.2689424962311768 -0.023490061512138054 0.22296558228413613 0.14391074596036335 -0.2076592862425233 6.761524756757493e-17 8.736694436490302e-15 1.1284706497784372e-15 4.439765784936964e-16 1.7755184736429886e-17 -4.2813607474001243e-17 0.1208576211906249 0.29487588531601433 -0.1589394642909766 0.033624387593119934 0.031990927018098324 0.06204988637040834 0.15852181832562376 0.0004883508952688953 0.11571753308290919 -0.09347715251253513 -0.07064922924010512 0.07456416075064086 -0.01394066828175082 -0.10831364246912155 0.10272629711393273 -0.12040294521374953 -0.13277623660800122 0.06391186463411395 0.11674087540617097 0.05092616593361889 0.09193820163283334 0.4121621452571878 0.5237019306302141 0.3320009167028371 0.28320264067546314 -0.2742759956298495 -0.5991997790559928 0.514436221857008 0.2383798455182174 0.051015045840662805 1.3293847997379609
AZR1 0.043259027328199987 -0.16482234579078767 0.09853599679823609 0.0907498663349556 -0.02306766968856831 -0.09672615165573617 0.03777494084426193 -0.0059598514075291055 -0.005579006786056316 -0.14520692214338643 0.014126042223031807 -0.043145530300526355 0.022515181596056685 0.0243652785586449 -0.014121141035245088 -0.13253702033804374 -0.04151945357078529 0.1480284982866604 -0.009348530784383068 0.017681794854065857 -0.0991587921268978 -0.11410453688507 0.001698124364802342 -0.12956961271475367 0.07654899352698254 -0.16184066407257588 0.08979617358176813 -0.11539970496513564 0.027955584623186935 0.0015927179440681628 -0.0631617694763023 -0.045509688296840885 -0.18761390060986122 0.12356485019143187 0.25658107952967496 0.00896476921840801 -0.2208115003377524 -0.24414574181451298 0.28644039767522395 0.1384956237601578 -0.03381826857256808 0.2508869799305259 0.03517493289070707 0.1006389466467379 0.10023754787983051 0.04501382035003097 0.24469927296541452 0.08865692169754089 -0.16099153792894494 -0.1068672022869201 -0.19831271497341962 0.043022414435235266 -0.0037013663665498154 0.10343947168002905 -0.06156398045374844 0.038027113879469006 0.0015380581471528725 -0.10285155632125555 -0.06533677044093768 -0.033947719705338844 0.08577774179368615 0.14382293178952227 0.04879505380387998 -0.1552215329305967 -0.03066715752805742 -0.07302825540479918 -0.03425312033874385 0.1290754780344224 0.03159445225077691 0.24774648995552867 0.06390226337757479 -0.08027421218106925 0.028714413075018593 -0.18817997952688606 -0.13182012772375734 0.011162623680036919 0.14941842440681663 -0.2219607567713742 -0.04067555570399505 0.03227110841778596 -0.22645408216863766 0.06038592186127537 0.1425265670170106 0.04527892818380761 0.03753583518881263 0.1118466015689554 0.2687333444965802 -0.05336543054267816 0.005516614834187871 0.016720906817162297 0.27323948405866827 -1.7451824454736353e-17 -1.0741273357569044e-14 -1.0944920186752773e-15 7.04559052720293e-17 9.746598298118124e-17 -1.4495331562470663e-16 -0.11777257148782878 0.0346984652737678 -0.20078509427260652 -0.005936231948493501 -0.1468622391023508 -0.17311304221988255 -0.11754623734184697 0.13405710168205054 0.2969340224610147 0.20465471549968278 -0.0660437288125961 0.5872879236805708 -0.14011441070363717 -0.21713675721362488 -0.3688045333162699 -0.5897254808336945 0.369682177927489 -0.05052713124180566 0.1619322043097384 -0.30174553123171555 0.31502876408709485 -0.10306084136341764 0.11542792636653032 -0.9467635297162157 -0.7172407559309577 -0.10153623293854509 -0.9025792708040435 0.03985890173750414 -0.9055166179969266 -0.28022292222331113 0.26960396979758267
BAG7 0.13664094400108598 -0.010961996320187243 0.058596147396758176 0.0339905397903481 0.004168358906052419 0.029374297655695242 -0.020392414799259847 -0.06687703058510057 -0.005021789628522404 -0.12269253282131855 0.03232081256453861 -0.13346819408280464 0.01299196877646017 -0.07400846139539585 0.07934470134202841 0.041184554399182574 0.17470785213965717 -0.15809288958524406 0.05209746914123747 0.06675456891991575 -0.11511099646824967 0.18724573968084138 -0.09172514287933078 -0.12414919437413932 0.05747446103514055 0.18345251612436944 0.022068954009486517 -0.011004671114654285 -0.1793556446476733 0.04538833303020132 0.05727239617018101 0.1593582757841975 0.19222852857711803 0.15065169706447584 -0.030091419429048784 -0.10870733901222311 0.05999091866920487 0.04427580745231431 -0.15491131036473146 0.03505556351498258 -0.057541633750535816 -0.03668670837207814 0.06035194891445343 -0.1731247823822593 0.017119710951581036 0.14969503107952725 0.032868141285836795 -0.15786498719022268 -0.04555711069320397 -0.24690569129753687 0.014047357255454149 0.14402554999808695 0.16456907610456092 -0.07144336251024493 -0.12720799772571081 -0.1536945271871961 0.03402072339132487 -0.13581589433592453 -0.03136876586441456 -0.028847425845287235 -0.07260385346328634 0.06030705516280614 0.09150281790820496 -0.0067167961566587 -0.13360700579893373 -0.021175042104095928 0.1260942449919236 0.11255135623727078 0.1007956880269652 -0.07758396476034463 -0.08624270634562953 -0.2517855185493367 -0.05730046657577068 -0.016106539438282177 -0.11026998289165256 -0.0066935837207705495 0.10554905041626307 0.11931694103944285 -0.007485680186250877 0.12589600920450078 0.042330329911487274 0.07291938028928081 0.08737744551986876 -0.05436559651311949 0.09770292264532025 -0.22076055239400502 0.12626752865678018 0.10972022853534016 -0.05802140212260918 -0.15171516589849485 -0.043681247592407255 1.3910343708213437e-16 8.371684698378313e-16 8.736375933074976e-16 4.9388677312847986e-17 4.415561983156196e-16 -2.021928441724452e-16 -0.0032590999889193476 0.24670490475034915 0.049254501943011106 0.020929685620202483 -0.02478917424194186 -0.07294309382471405 -0.11843059585730256 -0.004967726861361906 -0.012333595927418948 0.07821672157947887 0.047424981072865864 0.060458043007403095 0.08872411766395044 0.04820259987968717 0.005777313216196466 0.027935267068954692 0.10033015268716382 -0.30513164516722857 0.3054155447777239 -0.03951819930312341 -0.08131095889804303 0.2807331457158621 0.10870196855802917 0.0066395975874595356 -0.26595105940157937 0.279327646680967 0.3423602560472208 -0.02422927570344773 0.49783185629305665 -0.9070001996096305 1.12310368334015
BNA2 0.10270800724839375 -0.13614623126901965 0.13955562041436737 -0.12880606776869155 -0.4013666769995793 0.08572914427217224 -0.14160370412612275 0.1011311764918213 -0.002472633891031049 -0.05576390107219492 -0.09972030788910256 -0.0356391987169684 0.03873380469432339 -0.1018493256782411 0.05663132002522126 -0.04317047656164183 0.021131861488519865 -0.08477516104827719 -0.13657469808903244 -0.05512269967616524 -0.036924236768283256 0.03952693593388392 0.05586295271628259 -0.02550814661643192 0.011545146271593814 -0.07761400067074586 -0.05226791935471072 0.04129411471033328 0.19585262747388008 -0.09631186202821077 -0.10355387824201925 -0.014513330639508942 -0.01938339816065463 0.24179045131263144 0.01969696342026235 -0.06910459526916579 0.09787067540093793 0.033911302843064844 0.09549762947281057 -0.0960116186047484 -0.06456382494765513 0.04888111978116387 -0.23139616778339975 0.003009238198777527 0.04260383164862102 -0.09115015858642112 0.05672244069728768 -0.10458426744126925 0.016133265168884928 0.10203544518641004 0.06661583350646573 0.08378668068671122 0.10989131561268004 0.25752674432587397 0.009228100128073275 0.01906862897883741 -0.14705524629075598 -0.19671181291127823 0.15361032782427825 -0.10639202152522398 0.12330502806633943 0.028106159820955632 0.02865353768204179 -0.09789317016218144 -0.03247046704757015 0.027068524008297703 -0.21058312608650576 0.0532261938023536 0.13626906824969212 0.10186990616011901 -0.03380187233941335 0.11976757578096904 -0.4001650746216131 0.5097859505202661 -0.0785377842912402 -0.11276072070640203 0.17924923300208545 -0.03178349401536518 -0.009251784381224301 -0.02391161811589287 0.5026642160982457 -0.18609810630507137 0.21456742566066758 0.2790988640635368 0.14585222032643966 0.15256156882973723 0.13597582240595502 0.26029863281719123 -0.006664753641978047 -0.05820823024445372 0.1526116521135078 3.6995677974210593e-16 -6.6254702523571155e-15 -6.789313579161446e-16 -4.550589602348554e-16 -4.6292955336892245e-17 -4.885307486231852e-16 -0.07152533316955965 -0.09285950506608008 -0.03897414807425061 -0.10958182769767304 -0.0012753827289312008 -0.14048483854520535 0.09284893314586268 -0.020501036248397404 0.07055745545348607 0.08442548786562573 0.010089616327058711 0.04517720232051469 -0.00750979579208002 -0.07621249942296558 0.10725080024086768 -0.027416490358208586 0.014259524092432146 -0.014355008444292957 -0.04107056762709851 0.04737006862916033 -0.09339853442130845 -0.01759564292498131 -0.3680004335940411 0.15836613710165848 0.07559222528241737 -0.12633304910194 -0.2054917446136445 -0.2664348562098006 -0.1618083339694244 -0.15756035787422917 0.0576537393532121
BOP2 0.006443423512888781 -0.07879486094727502 -0.012616802572673428 0.041074065529396984 0.05479599848072336 0.061828401705897755 0.0012616972311875801 0.09180089378368815 -0.17936955970912505 -0.029716126276647433 0.1758440429236778 0.326683264933534 0.028371635771012378 -0.09898567826635554 0.04470322849113873 0.144152089405844 -0.20882710666686397 -0.04400449308372108 0.11188555066141091 -0.1563819978544994 -0.10825931602773078 -0.27069585934581314 0.03564701054005315 -0.11529353240840384 -0.07660161903834638 0.01727585555180848 0.0581402376049104 0.09989496690800158 0.07617459940536611 -0.11000608159444465 -0.20011956749397247 0.06991234269998753 -0.18524765436985086 0.14148209041648063 -0.07995615605008827 0.23603492366167983 -0.1573938403702613 -0.04064673314417366 0.0717176742206854 0.0125797050716066 0.084819886958876 -0.15453552730733905 0.18469434046699812 -0.025673834936456332 0.17400035395497063 -0.07468946378243296 0.0827919134840032 0.004094459244691975 -0.1599634251073649 0.17658229801055392 -0.10397812092143145 -0.11635945745695857 0.0522990508231162 0.05211328796190102 0.014830256221170231 -0.06796826319915344 -0.06639558886478714 0.011345826440587743 -0.03943993522129039 -0.010035472541042648 0.028493158925421556 -0.2477352759691864 -0.09377029243931372 -0.13741534636718303 0.10922206079561157 -0.1231494228060139 0.07099713290142662 0.005679483914471025 0.0282195519692613 0.025808323285481972 0.12640783591572316 0.1870704571965396 -0.05274141546866465 0.08599637345534869 -0.14983254813421004 0.045625242851317305 0.17498950121864323 0.025986760064123506 -0.035622885847437044 -0.05127089082726441 -0.06642200443947827 0.15160296575832866 -0.0452626650806771 0.007704859836120987 0.16241114912559296 -0.12156223047964407 0.1104235073283398 0.050606378953492286 0.1420761584150949 -0.36846437153655265 0.04013578335435181 9.281955935858855e-17 -1.1190172051614464e-15 1.5574084291926754e-17 1.7303356384302282e-16 3.1967224395603746e-17 3.2922004326326685e-16 -0.010311228269594798 0.2121272159284292 0.04712448564074162 -0.07376090899505547 -0.0686288796177652 0.004601505953091926 0.02415736699197307 0.002934184144033481 0.07071247287231239 0.011003163563513428 -0.12488850243820852 0.028956652289311366 0.06532358945210824 -0.12904309270064676 0.09875924469639949 0.1426774565899443 -0.1444762495636687 -0.09632591598570861 0.11563719734675043 -0.041763683767559054 0.1290856692607273 0.4644301271915561 0.5062364829089777 0.2494740167697789 0.11181021012986268 0.03211822995595811 -0.25988370810008876 0.2681808139976798 0.405813082917506 -0.673111106328458 1.1976085368523
BSC4 -0.10292914745962244 -0.21462313755150017 -0.23155645374430978 0.0004582330378696487 0.11252352116183031 0.07860460316356929 -0.23694721758729997 -0.18084483265925166 0.31435998025526135 0.1414245708614685 -0.22679562364946554 0.005368691462378722 0.02760823463793266 -0.06812092885778172 -0.07094190788280708 -0.05157142525962232 -0.08979258208326846 0.16844306912034618 0.08093277810930088 0.01171998081287582 0.3176715172951237 -0.04691323863061305 0.3395300304307177 -0.05602340456136744 -0.04107700033635448 0.11612032795553526 0.07878934833884671 -0.02333955277889013 -0.06861822377536486 0.07539066464118893 0.012410884291659019 -0.10407270592896671 0.11663849535821619 -0.06690505136855733 -0.12904831945428055 0.20367048740482688 -0.021751419697785473 0.25405561371443 0.08130095766783009 -0.04477741108208183 -0.01587177542420393 0.06453168726710654 -0.21548951919626505 0.19890998471497118 0.17211312274653776 0.02611367729067489 -0.10526859981960242 -0.06689957017885302 0.1692402946190288 0.05277753762212957 0.06840271488209557 0.2608811245202829 0.3275379963970126 0.1579920809562625 -0.10319304937221675 -0.1833879588133108 0.007630298703898063 -0.0026797394019285325 0.007446732214306472 -0.10664509931877461 -0.07579097892659893 -0.12546992664135723 -0.05944129660124764 -0.2472263772032458 0.00047118665172807083 0.03206222113082165 0.1742709755044175 0.11232212253808967 0.07251841332927811 0.21629203930169105 -0.2023022829400098 0.42915668618611724 -0.05316450183181236 0.030695504924820524 -0.32022512697656613 -0.17267617505815275 -0.1695404096318083 -0.0044203160241533 0.08938247808754204 0.2442852400420782 -0.08937265237533171 -0.5031243263045247 -0.3955421183499994 -0.002545254905068307 0.027367651330527307 -0.10558396243940146 0.4667383107570718 -0.2001968391803817 -0.08666748676292765 0.19583419494851484 -0.06898152406361509 -6.571969097755105e-16 -4.2399616059300205e-15 -8.95174733579021e-16 5.280881309351918e-16 -3.64007465394587e-17 3.091388465734558e-16 -0.15974569408028172 0.170428939223927 -0.15989137754312877 -0.13548639598023365 0.13075199097659243 -0.1472869698954438 -0.25355623996912324 -0.41625914158888977 -0.3956558524241283 -0.03916932777761867 0.32866135960177684 0.11538843058989107 -0.3283326665970182 -0.02170706452976946 -0.4754556081884289 0.4322688221101353 -0.7340110687355512 0.08709667431778388 0.6365198382439606 -0.6572601249718245 0.7023554440979488 0.15566887351442696 -0.2899848432944277 0.4096075239387412 0.03311182417837759 -0.8599750736147371 0.5514245962950103 -0.17826974393682538 -0.5995181115092931 -0.10862037038286618 0.11521491096776404
CAT8 -0.03295718105758973 0.22632832846694012 0.1866159635990298 -0.025197621443473643 -0.2453137434977378 -0.08233348140903335 -0.02590736893511023 0.15198633904566197 -0.13096838093551613 -0.03501984234288392 -0.17121857337883956 -0.060086154007709225 -0.04207416663377899 0.041842653326232306 0.03915864739562735 -0.008303985275385891 0.22953657171535255 0.20717251200017017 0.04756067086987128 -0.057327957761842685 0.23272510614796155 -0.06056946514676845 0.02704006502795563 0.08164953248018211 -0.07077932126556535 0.1230319720899747 -0.11134573567263528 -0.1730552488558881 0.07990664612786144 -0.1501486400608575 0.013614306141942879 0.008809995230882224 -0.15113617599991339 -0.04744039027769334 -0.018901108859968895 -0.19601345604200782 -0.46673674484618055 -0.12524020724778553 0.1989465314220995 0.02950799376532595 0.07317091105903491 0.32670648722751455 -0.09647849710323597 -0.13243509253032099 -0.05201182623003919 0.21188193341972666 -0.2885091698827071 0.09226079495419985 0.07331980998770611 0.13310057195120129 -0.21416158626307025 -0.025950060022934852 0.18895483983519948 -0.03007462742163897 0.17054934619914913 -0.18648059769731776 -0.13052901770020614 0.0814483811759933 0.07819162042466125 0.14904433530920436 0.40549361296591907 -0.07169404984170573 -0.19772092509587913 -0.052746729131989044 -0.015463047663595256 0.05371685193304991 0.18474185690904824 -0.11591264372351638 0.3405120871011994 -0.024405416645356236 -0.3819369320972891 -0.2694326203592028 0.2034719960884948 0.016893332209945617 0.11179990839288298 0.08308868155443509 -0.06283933932764484 -0.2599185224076023 0.04261657299519368 -0.4878270974274789 0.06680512472881361 -0.5939496396718349 -0.3212744129946396 -0.08430758115069376 -0.009315446138382462 0.05758871519482058 -0.4472208930717409 0.1991401591220825 0.4340212536633825 -0.19793039068705767 -0.2770130538855148 -4.206050376423825e-16 1.7065169433506997e-16 4.511117213070452e-16 3.314617190853357e-16 -1.2191263608095153e-15 2.7889553676591224e-16 -0.1626489549585033 0.30541148793854156 0.1556242843879051 -0.31052408424086914 0.28979593884163274 0.053846067853905936 0.3158014151396075 -0.05170852675786197 -0.1094615917266678 -0.26213501828452135 0.5633631996796876 -0.09898465616759504 -0.19143966802931342 0.056517917888416425 0.09805475541514627 -0.6041245780375063 -0.13903943921151268 -0.5447201073733331 -0.05532328348873944 -0.22976621904144592 -0.042253235089989835 0.18927307308857252 0.6060986604148957 0.1836453737739026 0.3600651233211765 -0.24806705505087243 -0.5198124673189956 0.4073708859204084 0.08152325513125581 -0.24250876200294644 1.118196473496693
CDA1 -0.116649643835854 0.026500048243083787 -0.017952119837175932 0.01093547556973796 0.13385789838305012 0.06307620922463156 0.11375681540481761 0.0740013153872805 -0.07836122912457034 0.04540031175638904 -0.15784096366071765 -0.07509771843780916 0.015811645897590897 0.03154662867808186 -0.04430051008160597 0.010365888862479893 0.055760025269925795 -0.038222494919379034 0.017206906087477342 0.020128180812869153 0.13159106500768614 0.06273069998968606 0.01810446351055546 -0.01406239278593001 -0.09199431674723724 -5.247639856289163e-05 0.1198118474398154 -0.029758654795304394 -0.0884056039429946 -0.10344511411628966 0.04284625397471587 0.020744230939876686 -0.15691405875997916 -0.08733184129417411 -0.16196586327962123 0.07464675287486379 0.028898121107792694 0.026494363464120423 -0.06605425502413839 -0.01251313480952093 -0.11899837044525541 0.044901944252854244 0.0025948031631393724 0.002882721986998471 0.07775126707753353 0.05958161923273611 0.11301290888944654 0.027482075219136974 -0.002039256087753931 -0.021065204429615406 0.06806352533728449 0.040086411394139695 0.03862210529619013 0.047655693757513384 0.16836651065593308 0.008062533958768799 -0.09104500937786004 -0.08151616341201905 -0.0530931936568405 -0.0721249090166792 -0.013491696700958428 -0.0707038089382323 -0.043028655165647384 0.06563033283170615 -0.08538163175627735 0.05874223447454484 0.037886376293886234 0.016250731403164496 -0.0018003942181566367 0.20213493715310496 0.01879815100317849 -0.0933250004598275 -0.03687640005193044 -0.08324233549124345 -0.19002622919677842 -0.08710495342885372 0.08938698136332969 0.09919149120286706 0.13684008826492042 -0.03504025124973326 0.08098040563577168 -0.06678781895716521 0.1423787705014554 -0.0653282456166801 -0.007050979899529812 0.3235720580901849 0.033637775873819865 0.08907136625878617 0.10746044553069238 -0.15901920318971569 -0.09802286483870094 -1.3836865105391863e-16 3.3151997281164194e-15 9.36947437677592e-16 5.966742867355312e-18 -9.664960739217338e-17 -1.4149417831156797e-16 0.05874286798781819 0.07017598126990268 0.02915373982839297 0.07194566249402187 0.049865354371851724 -0.045045810334200694 0.01531759715040912 0.027518510436272473 0.14133718861455463 -0.02066935338140612 0.10240648071074526 0.08965917100698341 0.052630415962624195 -0.09059907066297157 0.02396382079440287 0.08417145837521668 -0.02293474697914693 0.05400649987596724 -0.16090449966021636 -0.04691011966771027 0.01606104322799455 -0.10929419748059427 -0.32704428163872945 0.24700146168116124 0.1511792328230895 -0.17770355182934475 -0.2516329208489495 -0.2720948320935229 -0.1408983687887018 -0.24279032705912557 0.09750900216100894
CIN2 0.1101068578193061 0.191215284292045 0.14533988710074736 0.08015395092624479 -0.019923781627007038 -0.024498979544948934 0.1504385792197093 -0.1243992949983745 0.23096649846377132 0.10238698805796691 0.01642727247161907 0.142381212355689 -0.03340505136393407 0.1368883000525964 0.08811217532296352 -0.059903164565664024 0.19062129962529836 -0.16249580926013138 0.038440639893716495 -0.1823727333766086 0.05469053985639309 0.05364181011702667 -7.193902766754183e-05 -0.15408230953177884 -0.30368244197349104 -0.0625060028914309 -0.07314964605357388 -0.048180430929459735 -0.05033212501401222 -0.13279155814570037 -0.09485682774085896 -0.09409885447098862 -0.021681572756026647 -0.16781686608574395 0.0026420932325995025 -0.17896326456271133 0.14239765014109593 0.11450419596144439 0.10315798721331573 -0.0365200717117419 -0.332369467304624 -0.056080795548960664 0.14414233372310276 0.0495351237393144 0.048573459527494825 0.08919969938743798 -0.12024443129904487 -0.07779534625743122 0.036148246809504694 -0.034542452536923535 0.147340054477567 -0.007663183799218543 -0.0370699082755878 0.024872227318443026 -0.3717682549289649 -0.0055578789850215405 -0.011355541381787973 -0.024279603814942482 -0.4013309716508231 0.26068198554108923 -0.005366382826942941 -0.11006276148380693 0.30525587676972793 -0.13998002825713018 -0.02054237974471912 -0.0924468048929025 -0.23666781786202942 0.12317486279778955 -0.1254304074711321 -0.05538149504401712 -0.07666355057299527 0.2900143551880982 0.22349793563393294 0.04943467370855763 -0.2157774124004443 0.07514235099978331 0.07729322932016923 -0.27905198655439983 0.14891447970221713 -0.1004907072537123 -0.06256486847589725 -0.16692927179952763 0.0022676590534420186 0.08679891941946136 -0.07445005498929867 0.09490323515975956 -0.04162658228539458 0.34840162148534576 -0.06081672836856534 -0.04158488240194618 -0.03190372393893528 -3.691923256574009e-16 4.5616748093445725e-16 5.548197554468359e-16 -4.521259534190403e-16 -2.1336326191138319e-16 -3.898824204905467e-17 -0.01416973042680655 0.07385151615290181 0.36120028907916935 0.153812380394891 -0.0049950389806040964 -0.003348706809382631 0.08411065620251522 0.5398726712501393 -0.2923782286811825 -0.1560652268362436 -0.15341706977021666 0.2915899119743965 0.2425752673509399 -0.1602029352753674 -0.10072856610574063 -0.23674490026789655 -0.22939757904802724 0.0823009008261579 0.22166242018427182 0.13468070603123114 -0.13023420622267765 0.2287947293292808 0.034972781617317844 -0.05541090696237459 0.27381665684462275 -0.19778462743046532 0.11432362538344047 -0.44025399626027834 -0.1575278357291087 0.0027792459239307753 0.047282415559965964
CIT2 -0.018472373190896906 -0.22767913955329616 0.08034852518182584 0.09381143867230295 0.042381507074758 -0.10109711840564564 0.1407591754024086 0.048062444006042454 0.022477815710044893 0.15978652220111905 -0.1162162976419282 0.1338213363864679 -0.0922765017241752 -0.03855998092058604 -0.01798033906730815 -0.09614365671521206 0.06199352572950667 0.10791210342714758 -0.06526671147824455 -0.01813425059424987 0.05995328772277747 -0.17029952821370287 -0.0028831827050004397 -0.0972378672230093 -0.14230146103783825 -0.03901929667530592 -0.06758116748870292 0.1476049670490518 0.005564905827204316 0.08889307532635807 0.25319514804998994 -0.050827597664084324 0.17365166117975617 0.0857102117139235 -0.010842186823649517 -0.08647524136337559 0.222253295649685 -0.0715877567127476 0.22248706839980656 -0.06036946907894467 0.04476212932176267 -0.0167622624764651 -0.20901630038733449 -0.1824244450222421 -0.006798810787054945 0.02074523800411639 0.008202029580705674 0.27474168266184457 0.03410741270748724 0.234710445132102 0.26660294063778983 0.10080359596746095 -0.1623813423346213 -0.10613935261348903 -0.11720143009946814 -0.07884961481825765 0.09115618811846142 0.11113725400991856 -0.10888668949573611 0.07833540164408175 0.20914438110199288 0.0005427229771467988 -0.14554650033619518 -0.2586215186902654 -0.09300805109327225 0.15957948808917125 0.2005629968837747 -0.04245644922637482 -0.031890514355567445 0.06092506200160628 -0.11686109778174947 0.028612884287085263 -0.011260280457875364 0.12613568291680394 0.1765107863729164 0.15004494446168842 0.010255580656135108 0.25853781020927286 0.19103344997304902 -0.0561459450576252 0.07550563110369828 0.3239481073771916 0.32605764230148765 -0.05504010341078458 -0.11710068696502579 0.1011772555283989 0.19618641181622398 -0.19436048785755594 -0.2791007170913904 -0.3614135720419177 -0.19527658197711156 -2.650685697523662e-16 1.3128958249990158e-14 1.991523784060861e-15 -6.806662431587807e-17 -2.0199845007518388e-16 -4.12446770809371e-16 0.220124048174372 0.2710432965266768 -0.0058497123631787995 -0.31416823038958996 -0.31859150817105125 -0.058166473072949205 -0.06667112400976083 -0.19822117465757957 -0.17293998854050815 0.3374276502609023 0.848584114894261 -0.03919067607964458 0.09572123319314489 0.01928701312696464 -0.27420131502483797 -0.3229395930313064 0.41760770767453154 -0.22161122390336596 0.031078220793163875 0.4750522150162782 -0.39049668077032856 -0.04503988068213585 0.2655818832230483 -0.19286212271493286 -0.3641840367551503 -0.021321645785348 0.6998356467384738 -0.2566736434083937 0.3396440058205327 -1.0636335291029568 0.9074151086250544
CLD1 -0.00405824638674215 -0.04650269578957853 -0.13296828634098667 -0.28779753886560033 0.04984116481019238 -0.17513593033727162 0.030572458002942213 0.14831325415232524 -0.023234335033770214 0.06428096837830125 -0.030168896969461657 0.11172341746465175 0.1512855419709542 0.0586980698033042 0.20712975317449636 0.06998733627571398 0.027482436297632223 -0.03060121182960996 0.32172500202005383 -0.07391095623104763 -0.13512932529709587 0.015482801523315886 -0.013157663427577628 -0.015913302718297207 0.10399431749337346 -0.03150747554891058 -0.0066608983518119174 0.1170796503233741 -0.03390165056180348 0.010260267295979697 0.05923780022264477 0.06878766334125075 0.1387433427006259 -0.0461534124905986 0.15261868517911534 -0.13295931227405405 -0.2026469796493865 -0.04384026690119883 0.054939594098092986 -0.20187430371477946 0.07222815578923578 0.10346263849988453 0.17375018251535934 -0.030608883780751526 -0.20099882785039455 -0.053325227167693515 -0.08821813579892368 0.31646383914946563 0.07592909579978988 0.03537369810803866 0.05483757054443222 0.06622157521659265 0.06949811743372891 0.026486826389526145 -0.13338834775797553 0.22208536408241233 -0.13086110148991442 -0.10498651364915552 0.13318988107475824 -0.11273120094810381 0.048286720362584315 -0.030851429694049148 0.007540244044103025 0.018513401152957912 -0.016112866856288398 -0.0011465708365889053 -0.03891631948727413 -0.02519239483783392 -0.09060429722572605 -0.02917498871221391 0.07317286877202608 -0.022033566587755238 -0.08658420738774669 -0.08116444080330427 -0.03541830673387614 0.07286611272809147 0.15307806826138526 0.06703988119248934 -0.12384061535390038 -0.06055919681929355 -0.01659629144890144 0.11206549391850194 -0.13430342249059846 0.018604119809648635 -0.29727527934332637 0.04585976899025431 0.19355528947266268 -0.058966480453354474 0.2691693935357433 -0.09428991710805035 -0.019852059759241134 -5.254275308797667e-16 9.977712877272227e-16 2.3454201497094556e-16 1.9494098046503948e-16 5.852765975650764e-17 4.231433328147933e-17 0.00938764803335002 0.10619150556722015 -0.20076408856482553 0.03436781847448555 -0.0420295286432975 0.02400531726443891 0.2772732999905706 0.24911657256707664 0.059860186100268324 0.21849567974790138 0.17584799022372227 -0.07004335225967627 -0.18869720865435075 -0.22318343464782556 0.05963457551626602 0.22776659076938188 0.04538673800457875 -0.17039241546373224 -0.22010134527105257 -0.38462411749082875 0.11208371197944639 -0.18078119593509087 -0.19083173371424247 0.0515875443159811 -0.48863770082667923 0.28560911625502694 0.15045304935353426 -0.5471872687150019 0.22206722329704656 0.7838131545097551 0.9265586993581716
CMK2 0.0946751945296011 -0.0005187253205486528 0.04114254880435948 0.018566195234247847 -0.08315928199470309 0.04914518456347587 -0.006987018361177872 -0.12394643592793694 -0.029981609548149518 0.03964418265405322 0.07810044180130694 -0.07237979954625046 -0.0712795904492083 -0.00225192360350964 0.0513866923703169 0.08884568992603814 0.009931593196390278 0.006690447591644607 0.06288840173235653 0.05579957002601031 -0.10452124694575118 -0.0033928097883379597 0.03259560115664338 -0.05458845899614384 0.004350329603533227 0.0008697622302736069 -0.1084889539916601 -0.08340928242897584 -0.08185771647359291 0.06697951532469523 0.10577698416005744 -0.06257634593777678 0.02960241342318142 -0.026963462542261955 -0.09177379935128774 -0.02204839215330413 0.0489293145085598 0.08479809167607565 -0.05212303472512014 -0.05638444589409259 -0.11286179172563611 0.1317807204039894 0.01676107594828921 0.07465250210767457 -0.022592456359276616 -0.029607669111610502 0.05078185520631904 -0.0987045510108145 0.13660137431232128 -0.08709510323862404 -0.10230708841682026 0.0823499461374154 -0.08420030234152144 0.0714785209719288 0.023819985125637717 0.04598358457845964 0.08550722089814305 -0.01501403109517133 0.04401169045749502 -0.014825768530027362 0.01145090674107874 0.025597197643724895 0.12931385474727125 0.02650177283377853 -0.10491651844048247 0.07713323160915338 0.08838108146989328 0.10589329580881357 0.06651405143061044 -0.07491392522760038 -0.11913240918619523 0.04851011809302399 0.1270945364887421 0.03819663150560644 -0.17568224164798169 -0.16321823939073116 0.055162652895043324 0.04670456568591529 -0.08165222873439659 -0.029624107553014603 0.03548405132007962 0.10448525402382339 0.191906461411751 0.001813818368049739 -0.10811585656169775 0.07131110029935743 0.18637213492633967 0.020987658593152384 0.3444783494147755 0.003831747349634244 0.06846925832055088 2.7529983183197126e-17 -5.948566558194736e-15 -8.258040273140713e-16 -3.416283798309041e-16 2.37592871954133e-16 -7.802670531537927e-16 -0.09677917249563114 -0.1383906788530741 -0.09184191690257572 0.09738706064661659 0.21968534659132413 -0.1281914800054472 -0.2433387170154116 -0.08180901715795148 -0.04751338966207536 0.0049899571054601586 -0.13817014374090958 -0.07449795880952283 0.05218399830551238 0.033758761240414464 -0.06495546439381474 -0.02543649320202945 0.035486134127538656 -0.01773699157287984 0.2171086988724495 0.19718866280036904 -0.02833416690446772 0.011221491241958785 -0.06069598597182988 -0.15624530916693197 -0.19828035534898394 0.3063909603052548 0.42967865615951073 -0.22800153224100736 0.46680151870904507 -1.2066271589988005 0.8459605697079932
COS12 0.027853333955669184 0.021274876183855564 0.025527442577707792 0.033113711177362316 -0.04883528243735489 -0.0021889319839473857 -0.21734191117329751 0.14112848483496598 -0.16914170055625039 -0.07812297346211383 -0.10449685966461626 -0.09403441334443387 -0.0755477896886199 -0.029720516754395597 0.031599738320799126 0.006653546507946107 -0.02014428025559732 -0.037283756525052496 0.12635599545975415 -0.07428154066045736 0.11570587766534045 0.002548075667086131 -0.053579990192113826 -0.1350749811529939 0.06885358331836064 0.008224151982128971 -0.036576380182507376 0.07742752453622341 0.017386594814974878 -0.06963797661212422 -0.009185085267028653 0.18289828329552596 0.04190647994207166 0.14319633174741525 0.07176454781233678 -0.06326964654984611 0.0933837604056274 -0.050010707197417535 0.009423819920730773 0.004989798060992202 0.0007775672809956783 0.06915474456964692 0.019296249891888134 -0.005839646049417555 -0.08963670252315943 -0.13520210418358414 -0.05690493539827634 -0.13844048467260822 -0.03807358005507344 0.19557756884787356 0.011345116894934686 0.10348089539529874 0.008278609550062621 0.1914955549638032 -0.059757161678264226 -0.0738592806723051 -0.1172174137657824 0.0028958298704960567 -0.22173697883158675 -0.07383790655654082 -0.023406765334714304 -0.1267265769501841 0.046297256962787525 -0.04625336877838084 0.03140442478107496 0.13064174032243908 0.1854313167539503 -0.11345377268288376 -0.033367803541071814 -0.03999221339810766 0.08998135535480647 0.06483169163929803 -0.14368535657276235 -0.05180162904060933 0.01074778184239531 0.015066220700009812 0.023817678557151965 -0.06208181816464963 0.22657576975644897 -0.0644645176916269 -0.0252657015551066 -0.019039305368869063 0.12767346755171724 -0.02804135582193992 -0.05329281226131008 -0.04243571964442552 5.5390994944671915e-05 -0.06194540021039047 0.005691955491715404 0.0981708530102016 0.00743133814070962 -4.920409486729356e-16 1.921787644950651e-15 4.79189760504502e-16 1.0969028091079216e-16 -5.7759295178916685e-16 -8.533204083128461e-17 0.05114305021242387 0.06317209784440928 0.08228677124443243 -0.04492083379566748 0.07441758439117988 -0.10874897877451416 0.001047304228959265 -0.02830528444533298 -0.13314792479483142 0.10656070132532917 -0.1820203670755806 0.014783615653601116 0.005226193177287343 0.017227852499226967 0.030220472718999823 -0.08626001037562268 0.03686300613192213 -0.09243252226879312 0.1513486409372246 0.015159647056575673 -0.14087908158708556 0.19544181981116557 0.005780377694866094 0.05053640123650001 0.22572278602199847 0.08609031517308052 -0.052282797877678144 -0.2810511537475445 -0.15085422708362312 -0.001461600239906283 0.02706722289840368
COX26 -0.08001700408413778 -0.023397060572871952 -0.00694654858000086 0.04855690627714927 0.1768890779930441 0.25321459288214976 -0.009235899653559943 -0.04502037039264709 0.0601701518512615 -0.1794601802691601 -0.04828165925234931 0.06023926853086653 0.1445530808189555 -0.0003896744625552156 0.18447348432401683 0.1073601263934834 -0.08025747517619669 0.19828360900287648 0.19431162341247674 0.0012534667749219018 0.14649014579187222 -0.09639505739106115 -0.07083471731773813 -0.30285726774679966 0.028856014692813 -0.1689376738933717 -0.1647210280111524 0.026760463738580948 -0.31863762294299286 0.08122689608986013 -0.1164318541088289 -0.31474565355977513 0.23583390183482633 -0.2425229821699471 -0.07679057934228398 -0.1334599629888908 0.020943794270800013 0.0618828790766134 0.0023031497793829275 -0.011049474153781075 -0.2201430199118248 -0.40153608077116826 -0.07537634595238947 0.05797597102385528 0.13933836924754586 -0.050663325237071996 -0.17900221435777983 -0.0211509244042302 -0.18184271271945304 0.16999545048909867 0.12967738011836008 0.0647689004157378 0.04990384339396702 0.03141939023976795 -0.09763130139306336 -0.21772852791766156 -0.13800453508900515 0.22281346910912847 0.24479785768151133 -0.03307787327312864 -0.37011198566071507 -0.3876175057056155 -0.31554864519034903 0.21180735083024674 0.31019924843117774 0.031186250336794556 0.019149245460374095 0.16561097493193397 0.12610918895012413 -0.16537131332308624 0.17094275144411916 -0.2630348245953032 0.05206010398658272 0.025416010933883466 0.35055137545690634 0.20224856208608014 -0.14682363414281338 0.044362736804210566 -0.02032475799134633 -0.3070147433728321 -0.05551724106665957 -0.1273223092070807 -0.15625735050016656 0.1674818063103938 -0.20940389169676865 -0.11226131433250038 -0.2585437530577526 -0.20017230760759047 -0.1022372078417064 0.0009198292858029188 0.4957961630488891 -1.4360223182142942e-16 -1.3516852182459606e-14 -1.918008665273746e-15 -1.9656836399313187e-16 7.978974004945123e-17 5.360784098251629e-16 -0.1684994855490465 0.14224240153450302 -0.1756723126975237 -0.21843080899611175 0.1915148537370683 -0.25406994092552876 0.034338066928146734 -0.10615872904313593 0.12979011273115532 0.03465782083058057 -0.6658037573922212 -0.01116287986422722 -0.4061541643266766 -0.07341367808011896 -0.09163821930039565 -0.2606623084123963 -0.4275051683237566 -0.07869738390781691 -0.09039821857343862 0.0008718396713359337 0.0022779163853410677 -0.383788057897438 -0.0161258122306967 -0.8093917424805946 -0.4440435098472423 -0.014639527555301561 -0.5966142130608318 -0.27084274473962383 -0.2599812601464732 -0.953802581216081 0.5267154865317482
CPR6 0.0437903114142897 -0.03865861229069712 -0.07169438160093611 0.02487874387127339 0.025184811208996655 -0.0031999338559784516 -0.0095701195720248 -0.09478250688203606 -0.019884256487816034 0.02740902108480535 -0.018081941326814323 0.008729987894998034 0.0011384409039234208 0.08544880209458557 -0.013655597142795238 0.0015685361552668711 0.021213147682424358 -0.023101396276986343 -0.029047484767222714 -0.05408195273498654 -0.011644467465192909 -0.0683773811158582 0.1376048960890743 -0.02615190301544689 0.041071864257830396 0.04332450067097032 0.063245674700547 0.01332389636209522 0.008243173044718766 -0.05779541449773208 0.040890884183231786 -0.04613475650205487 0.045815461674427606 -0.050575252326342135 0.011506653686159189 -0.000976621112470783 0.060781172108325815 0.0032938098229681315 -0.012966017373322205 -0.0299521291806228 0.05252398001306274 0.05408372231174323 0.046821625908658994 0.03293944548469135 0.01922227940075441 0.0396590102211455 -0.0208836303045556 -0.016365391038515097 -0.010744615470509228 -0.03174790313752913 -0.003579741902512378 -0.005898401763553777 -0.03159283683812084 0.01627299493387695 0.08621838229468998 -0.02179313460852367 0.012371658769486354 0.01956467108861273 0.02812399747977113 0.0527153555964335 0.0244893975304924 0.03845431374093394 -0.10058243294543474 0.12117998284758515 -0.01205077878351407 0.12073549053078748 -0.06409242034985818 0.010401371094476105 -0.0070310146728308764 0.019514175991591255 0.10342547133684812 -0.002671666758866698 0.01137464492995342 0.0487362216003444 -0.02216017387921785 -0.15057649401991519 -0.05119285059882139 -0.07149832391333268 0.08718863974769736 0.04415240386585773 -0.013581278397149702 -0.049323974946755986 -0.059815552953306816 -0.001293552022301826 -0.07142369441942407 -0.0879578891452077 -0.005659663111631769 -0.037526165242149905 0.032890691914701516 -0.05419139456713956 0.007087413668800698 -7.097518432264461e-17 1.961749386679767e-15 2.8146289966706196e-16 -7.055755282120146e-18 -3.6887939330501653e-16 -7.130832262385792e-17 0.040683221054876643 0.10083370383710547 0.0022463638653331184 0.003418145867818409 -0.04024119304050675 0.028639349528812353 0.0013236728982691003 -0.0019140134284579883 0.0254043569182117 0.05286447148872011 -0.041197543363649024 0.08784936423296756 0.027143098059379228 -0.025016421570016066 0.0728562302207465 -0.06113563812390667 0.019965439463340676 -0.040974100362219795 0.14935703227063452 0.007882116656642658 -0.11429370221375464 0.19860959928273356 0.04333072972984283 -0.04355750911883914 0.262117611831003 0.036194783356188795 -0.012903100206461734 -0.31161762620796496 -0.10683718497676885 0.02580204429654077 0.02691766965661093
CRC1 0.017511265888056664 0.10264088918527094 0.14177914943993172 -0.025074705630374665 -0.02428949712308301 0.1462807690393623 0.04989029324720552 -0.01927978915324293 -0.10017816863574924 -0.03696906083744069 0.0598499627221896 0.03907201295473337 0.08877760556276679 -0.03414544211752809 0.0022080461207156666 0.1964766962974664 -0.03928893770614539 -0.2165408217847969 0.13116918327904664 -0.056996540811304224 -0.24203624682984662 0.0706362300190614 0.3132182963476359 0.11650135372242648 -0.17490764486095045 -0.11640082404108537 0.0019605834004534886 -0.10077876263170413 0.06005145702588621 -0.1284103950658476 0.08243861226562056 -0.06649015736936462 -0.08589435507649991 0.12122823598947947 -0.02680359771915215 -0.011933497788543938 0.298828155587624 0.05763997650011858 -0.07993995599034893 0.29083808823643764 -0.18479331539266092 -0.04660288886965127 -0.09519640426933368 -0.007806153756981905 -0.12255683624646276 0.10486250057822938 -0.2445556606673231 0.041232365728072665 -0.19056114903699603 -0.015659611785097474 0.10164762430264707 -0.19455671081892653 -0.24983776168386307 0.31923931018401314 0.11279425294657904 0.08968877952652811 -0.01607617270883231 0.01029388485304663 -0.13427179411291956 0.004531597354041442 -0.08448913210321667 -0.11038870315731025 -0.10429057362798101 0.17700265942794918 0.013896489277801759 0.08583832346132474 0.13107997271153818 -0.06355914915465284 0.16468731376807105 0.09270167631628219 0.13378807802994444 -0.08033636208774855 0.03776483852700871 -0.18486013459307127 0.09384407531953837 -0.0498965395464273 0.14214157946393408 0.21711435950219807 0.30507688856215065 0.01333748774222176 0.00814454356403868 0.4791761157630388 0.11855679712341032 -0.07311782961741457 -0.015394188741580233 -0.06220930429817641 -0.16463786725603455 -0.19771669623878754 0.24279876750801216 -0.06712274770289654 -0.04147844225850556 -7.002692166460303e-17 3.5269849117983046e-15 6.79529249762312e-18 -2.8370440380928946e-16 1.3661602914891173e-17 -1.2792917255613058e-16 0.06631621518996653 0.04488693974273118 0.008571452729224029 -0.09276633048547597 -0.03068022983670963 -0.07379158637083968 -0.09575537499562697 -0.08024183671290788 0.10523661911587903 -0.09245063234563698 0.3428327234919234 0.13586289400426085 0.12866276297778634 0.09824878930726369 -0.06872958846689589 0.40306935881883826 -0.11322081914598252 -0.003342500353743997 -0.426108826273454 -0.283382723252532 0.17712658890293417 -0.18086244307354007 -0.21098371796364881 0.4386445827909928 0.2784929145751182 -0.26114723790010225 -0.41690704114241467 -0.24463965850553604 -0.19712482124253178 -0.3523662523867819 0.17717254346010763
CRF1 -0.037049086909248574 0.049022304463393396 -0.05650595673970135 0.011184695916335119 0.004417211980804019 0.018507093025438712 0.08980497421053762 0.04076134357852298 -0.08360933156184987 -0.06349123705815735 -0.039089636125443264 0.0009017631844956827 -0.007028231172715642 -0.03261125634338611 0.01100155349752016 0.016764786425343254 -0.029076118711660562 0.06346324460459271 0.13992280407020088 -0.02797015324397987 -0.03422640672962786 -0.01885561606409794 -0.08609009148991174 -0.09933349239299417 -0.019645628264982267 0.08895653426375874 -0.06035662113128462 0.0950462904663675 -0.05660393330645329 0.0493603200644339 0.11871043670488735 0.06119154224992349 0.04456466005502128 0.09284155199239034 -0.0879550056929364 0.01152130873273125 0.008595521047634485 -0.0010690180455567118 -0.04687516272992709 0.16214298566617047 -0.08977855062433845 0.049192464762136325 -0.04787785664923289 0.09094298595956182 0.011589387769721233 -0.016389582649609588 0.03920643309441332 -0.026246448349857274 0.06607458375392006 0.1186698180040322 0.10357793682030031 -0.02783174270687226 -0.10133618919117052 -0.03616456843011229 -0.00966247187054838 0.20744895777432715 0.01957078452577552 -0.08114834874247343 0.029370137686969142 0.01511551209928659 0.027486799608571588 0.04674428886116909 0.010790503876796509 -0.030058223381774572 0.04129785624643688 -0.19864022121551744 0.05603004841734487 0.16923257220510388 0.1504453780955794 -0.10191756946520872 -0.07480024519918922 0.0343055023085909 0.01161962168702942 0.10186722067262659 -0.049046851752638405 -0.1358915315182942 0.07137214983152768 -0.06498585441097678 -0.1700652018469592 0.12473065578659287 -0.0521702651361509 -0.08216574694786993 -0.07169477016583196 0.0038370204018517316 -0.1017058048692214 0.021505652680950713 -0.1046731594422386 -0.06370144386877104 0.004616067498707768 0.07911761846053639 -0.00203893512954363 -2.214033205180965e-16 2.592515496149401e-15 1.5615859267192478e-16 -2.9216811771009186e-17 -3.4393089078886425e-16 1.1286790208538082e-17 0.07527143065244761 -0.028476971238075164 0.019611364376124714 0.03400394043787469 0.001436338019322565 0.12808422599621166 0.11674251474242138 0.3298764930884705 -0.0783766848470129 -0.07503239740455624 -0.08002048778592649 0.09873758180234359 0.07961099702421041 -0.18237786979356269 -0.0046742142060887774 -0.08116287976001764 -0.10136092414545088 -0.013593420743099638 0.1195910357358959 0.06618322733685617 -0.19760301278855152 0.16445615091240753 -0.17776921571330553 0.07796864838320133 0.15370078795732567 -0.14186192421074653 -0.03918977515299355 -0.27634974284120134 -0.13601756389620304 -0.0532568861285684 0.02652168750832274
CRG1 0.07132047311609328 -0.08992453017852663 0.01924220721539185 -0.10304801612140047 -0.016722591531058005 0.06943421589197415 0.22572146751485006 -0.051580472577798846 -0.1967210870690792 0.13957958573481746 0.04762940815375237 0.07069472461120777 0.11341654860380833 -0.1323464428655604 0.06768131554608073 0.10028392817975951 -0.12938385207049372 0.21202826638532812 0.16081358354345907 0.03112974717342877 -0.014332246354254084 0.00676327689632431 0.20188636239680258 0.10649721622161477 -0.12501824625635732 0.020816069196405235 -0.22957773006477444 -0.01734392207889123 0.2215245628358115 0.08167329214283808 -0.10195305568377452 0.11846625040605165 0.048303833701516 0.05280586093142107 0.2037763653361469 0.03772383295024906 -0.027358296691694862 0.016303195215898764 0.026452388579150003 -0.02574716779005978 0.11868717280834999 -0.06535995882640735 0.15239324638962357 0.09907072048521634 0.05596140846402542 -0.1504121230235723 0.0846692950758718 -0.06071816921059515 -0.042487905916601135 -0.0985318694656637 -0.05221112548685331 -0.14394667137744604 0.06767515489704787 -0.031109515020263403 -0.08725434107099181 0.061488823601936804 0.0027564211346943345 0.02083936349821833 -0.13832345278005367 -0.020350217814225174 0.12298934591970394 -0.17167859978590658 0.08121368016070259 0.03927378603480545 -0.055503024249708655 0.02194619995158362 0.10967749028577695 0.0366891802525691 -0.03972759709085921 0.009424481377386494 0.08872510435369912 0.058091579154881674 0.01532502199754295 0.01157551375028322 -0.015169026592144752 -0.1850654799592836 0.09325548597368995 0.04965764196548662 -0.19234320204025052 0.036868265745523016 -0.006851439838085914 0.012889242802213204 0.1899797244221615 0.02396978367362783 0.1689432483910085 -0.12089863277431666 -0.12249716087043336 0.0970862302360367 0.03306189712020306 0.2810124940291193 0.05083529638664713 1.123893701433856e-16 5.607565463939805e-15 1.1921294730295444e-15 -1.4678178561960554e-16 -1.7454116896958666e-16 -2.35613700659762e-17 0.1578039854053775 0.4934453761291929 -0.14004956945737243 0.01814858717679807 -0.018043944859938838 0.1540388801315075 0.11881970211140075 0.11644873094231585 -0.0323082048868789 -0.09725493944379264 0.14412690063706923 0.005207466396670993 -0.08512070824183815 -0.03557339951489492 0.04180822275751305 0.1972580624686997 -0.08389073682030374 -0.02867922141539711 -0.3062615799090943 -0.24626435393362747 0.2482159164644024 -0.223905746437755 0.026356453727920174 -0.16351683970842068 -0.15220318233419605 0.29096467681044574 0.09187358042459227 -0.7327732591736626 0.10990268399771246 0.7133270812957215 0.680995007762616
CRZ1 0.12101613565867908 -0.09795907403237722 -0.04014682222611132 0.034275332773182086 0.04416388485865525 0.035039516515803885 0.390030362155102 0.22326612640654575 -0.05153991329497244 -0.2571493801278809 -0.18984051488248826 0.057366820515475835 0.09786647974391736 0.2526655462449115 0.17653941403994963 -0.05982782115903803 -0.250099707863301 0.034385070925347365 0.06765553672625407 0.1338230061910554 0.005506109197946827 -0.16230849677339543 0.03927600285392387 0.19435428546302644 0.23984052906274964 0.08323614579153192 0.292478898912475 -0.026388549379143957 -0.08430765735483393 0.11520219285315277 -0.11458678254094837 0.09532176444447402 -0.1539039916174386 0.165737308827438 -0.0660393271077594 -0.058216667332878363 -0.113868245939377 0.26657578501531115 -0.15469964982659942 -0.02509277220696118 0.2303775600837922 -0.3185652425669568 0.09015892742161905 0.04097578654522913 -0.23430760692072916 0.008897714432444137 -0.2132759561494022 0.23661849565658086 -0.13135286325594597 -0.09654058304788676 0.13929885561939762 -0.019251608430425098 0.2129622312380534 0.12588224862664715 -0.02041160242367106 -0.19163007016315362 -0.2935404377391906 -0.3021541901700184 -0.6256362641314988 0.6452412427100803 0.3406036436158264 0.3395877575083616 0.1854130244026599 0.42324628120299607 -0.015167746518460435 0.1968000402655823 0.07400490269582474 -0.08572533576795174 -0.2339379399025695 -0.020835138760946288 -0.18545722260441735 0.13708555947589826 -0.16269924419676787 0.05632077397130562 0.27863081682193114 -0.3273103154875528 -0.09726236896100873 -0.11637105221662196 0.12764928287619265 0.27401061367902346 0.027065875272423826 -0.17748965712449855 0.19310450118590441 0.23164069325042932 -0.46449381321274325 0.037075002247759045 -0.060411900116029954 0.1081896655234826 0.10114077861913333 -0.150099920052963 -0.06467129586824538 -3.705985069463446e-16 -1.2563201466818552e-14 -1.6283204811475486e-15 1.3584601852921891e-15 8.608249210169716e-16 -9.360987336403437e-17 -0.3162636239895081 -0.10456187040729442 -0.09647906259342606 0.08458919147706542 0.537168687110406 -0.14699772456931923 0.4722473703349292 -0.0179568638747399 0.0996144099793427 0.00026459843017018176 -0.13799693173551558 -0.2482436668041873 0.029270988589471473 -0.04617826852874763 -0.42276406142694756 -0.11396069030053023 0.03879565377018238 -0.14118969177916826 0.06109075824292134 -0.14588263108831465 -0.10550888351011792 -0.23429671333991525 0.05261970165893839 0.13590261296443015 -0.1571817058182289 0.4399511620147331 0.33663766955104335 -0.2061858683702934 0.13054265485336816 -0.5538567009295291 0.8123131886994293
CSM4 -0.018609353577095287 0.14660499594225573 -0.04493807081656737 -0.01919919270493992 -0.018253772078184936 -0.02543783847503362 -0.13571223224799264 -0.07753494090151873 0.07817405552331633 -0.17619428910210744 0.2131380992782257 0.057613627540588186 -0.14230949072839935 0.04785326791569918 -0.14644139835784672 0.17016728444826576 0.22517224380562728 0.12245280759468792 0.18469841476665153 0.11266013161826814 0.17457660974024466 0.14768431213592634 -0.06559533209794004 -0.09842964343411534 0.294460945131793 0.10585239695769899 0.13176121654069659 -0.061179671146882705 0.004912894050463202 -0.08446403384934537 -0.08051589866436737 -0.10782297241076218 -0.18570860496321664 -0.05395015324797262 -0.1428438725361035 -0.08646266049623344 0.10362119680940514 0.3164866450919135 -0.18002356036204878 0.02905967424073105 0.05735589422908231 -0.21481581445459105 0.13537854062434398 -0.14468766125574634 0.018376783772143617 -0.05432596933754301 -0.14433482728232905 0.09830265395777336 0.03935518458708396 -0.10672103279369385 -0.06644626630388432 0.049326376936763026 -0.04054354607596529 0.07696794429259514 0.198409817613233 0.07886142599207391 -0.01751981348569644 -0.10653893797218852 0.004132118740421068 -0.1964169657424733 0.009788965835493713 -0.026286638839632216 0.03518876180880393 0.025017048593703756 -0.1092477468290567 -0.018021866323364038 -0.04297550024292645 -0.12448032835483411 0.09035106903800837 -0.02850103876290242 -0.07118800889575803 -0.06289895929243179 -0.21014001495101794 0.029356183191806173 0.05335120260852282 -0.04465277468788623 0.17583803522407862 -0.09061155668331634 0.014464905646044664 0.0356032534570016 -0.38995431977953693 -0.008198321040420734 -0.08505807785841875 0.06041838648942764 0.03167144227078 -0.05808826804341346 0.09173571419389684 0.10858764581877595 -0.07735678512645912 0.025572214882154855 0.3053326595705108 -8.117440414305457e-17 -3.835416035770923e-15 3.7937640859496563e-16 -2.8035034211955845e-17 3.5433288636107094e-17 1.459711338494114e-16 0.03902184142418217 0.01618183657487271 0.43000920080033944 0.23918331987193633 -0.09668915389367108 -0.25744143023715704 -0.4875501420059636 0.36821735656746085 -0.1876728368133115 0.21629912433685436 0.2555581745970725 -0.3474133142166915 -0.19692953211045788 -0.5371674402934115 0.10256444264514827 0.36310202129378794 0.37244027007238356 -0.35361164046264826 0.15282061686971377 0.40037638526884706 -0.0024718352421205883 -0.49903426050304744 -0.08926701164503187 -0.4038482867276986 0.647517713453142 -0.19242938753666353 0.08447769268322552 0.6383386245713808 -0.6099845514217651 0.22010394415247533 0.6501393756200491
CUP2 0.2535633405863274 0.10702555602522161 0.003888776429305017 -0.16184738165610477 -0.018584934768769896 -0.1921299298492095 -0.10544106223138199 -0.12126646343131894 0.10746091848080429 -0.24169753323548146 -0.24089758369896924 0.007861626810535156 -0.1525438837644484 0.13802040792881856 0.022770507472427585 -0.08071352629155032 0.13314313655023752 -0.31206724240958866 -0.05587705674085471 -0.02501657111290128 -0.10722840716455836 0.017962942377487984 0.2109255020903144 -0.27929473099567925 -0.22367428888297483 0.21679071482108522 -0.08125085629690126 -0.012802280125775646 -0.14856050288607217 0.1794402922777658 -0.11933878698988895 -0.0926530982791619 -0.11147893681146986 -0.19247422258922375 0.09080812826384324 0.06586395892253467 -0.17337304979866155 0.01933821815248469 -0.23499312973409425 -0.09532701167445291 -0.22997830164191851 0.0942679235226869 -0.07956192478570141 0.019577406026828257 0.04086456436090073 -0.1341857200596424 0.3287706777135493 0.26632118522142134 -0.0692383849164262 -0.17484213680617314 0.13341167682436267 -0.20578750484284244 0.11612588502929912 -0.16045868846239508 0.17107076238271055 0.3027112535144545 0.1207817893385584 0.3475031764346973 0.1539578702086926 -0.02246230124302472 -0.16775569802773774 0.12548298356449697 -0.032921042960082775 0.23177801360133138 0.0828323851305547 0.01229748501771468 -0.05186746619494756 -0.2750772856461435 -0.055899318558529136 0.18787380849263133 -0.1758944613046682 -0.23010609343388652 -0.10140851442389216 0.2857879050818851 -0.3269544914876521 -0.17942240063683731 0.16003960908788284 0.4532133059345583 0.09191451558949287 -0.46354484075348845 -0.2209410235076245 -0.08454771950351476 -0.12799258092057006 -0.056059493603245275 0.16412011115322986 -0.08599554809190159 0.3361562174748587 0.0419826543306905 -0.479487728649277 0.3440113294263437 0.14217465766375437 1.4513704802213721e-16 -5.505248794313043e-16 -3.7277068031059792e-16 -2.0924405566980958e-16 7.851883498499479e-16 2.400290266796859e-16 -0.05135315406924999 0.17264616107005668 0.47095729392696367 0.0872153639229068 0.6611115119614894 0.25458087250739697 0.6254040457393525 -0.07015087586744374 -0.22642885979538274 -0.2552057573543265 0.4598875105903986 -0.061384818656130775 -0.3084459936198766 -0.0948480935953225 -0.456080927974983 0.2129728582908949 0.4581820321929274 0.09371513910061545 -0.5413793350131941 -0.26928210276795894 0.25081051128175286 0.23193188440464135 -0.02849454624353458 -0.08963624188716689 0.28424924414439634 0.024410010709450588 -0.04951589065516007 0.038001304598549626 -0.17626694595050899 -0.468811409070062 0.6188206703591367
CYC7 -0.0014402627077827078 0.1001938659228356 -0.008569101417859383 -0.1105083554370125 0.012808057863572262 -0.02774899620804064 -0.06072288771415438 -0.18015744231112762 -0.3908915979650903 -0.06759074842143765 0.2052545048865935 0.04119971429798011 -0.1921838237576155 0.21897907201127628 0.12388204872475546 0.089960391096206 -0.3002547184947878 0.2763264896964654 0.2063683514522078 -0.06808879863245387 0.014296636465527953 0.10540471517208422 -0.20512578489223482 0.10868598748500237 -0.06305376536038712 0.35481239164684886 0.27360478333201693 -0.19664211446193836 0.12819752713453458 0.3101459634390731 0.2324371910350328 -0.042803087379475725 -0.1214464455105159 0.11185727747305088 0.04112048733776988 -0.020619584841280306 -0.19618012257880177 -0.09524801910666263 -0.10553743697653645 0.04087398151077352 -0.11310764633719607 0.10177210578979042 -0.1656667312484521 0.12371248066145278 0.23943388142281416 -0.008757577215766862 0.15193522433687298 -0.18899721134682365 -0.27081084224932683 0.4773196197455184 0.15690821607367092 0.16667875345080285 0.07172334372634769 0.0742678189344219 -0.22071518739563048 0.2206764698574029 0.13092395748018773 0.28340324088657787 0.3183599649671921 0.3275547140704805 -0.2621589052061794 0.08191897616733483 -0.10603867222553828 0.16878931196096217 -0.19842009175423977 0.2687176169910292 0.21958184475695702 -0.15167166139591898 -0.07548004616065453 0.20638518895841654 0.28564286498008357 0.030520329105342855 -0.1784265291689293 -0.16495383947747227 -0.13923791118741047 -0.22682398868870876 -0.2655662653244126 -0.1743618012162949 0.17219790732300894 -0.39744106780368227 0.09389788793575887 0.2539600393712458 0.020734255492215675 0.3939004520908103 -0.09907465084031802 -0.0980727813420219 -0.03439869232071653 0.3152006327171502 -0.1757990369468041 0.09698200817411912 0.304109096361522 -2.484425441295446e-16 -1.2607512879365569e-14 -2.4330005407551854e-15 -6.524129611914946e-16 7.095082701055831e-16 -6.482112438949688e-16 -0.21204500269550722 -0.0028642783795151078 0.5236973660353946 0.24294586436098184 -0.2126825651191077 -0.19259201355920724 -0.1150298816920609 0.08176422417985833 -0.4401519493506685 -0.23664240479346754 -0.054023065641596264 0.06594869433992329 0.7547384975329097 0.1388050609206579 -0.35164401061453726 -0.274725473270257 -0.2907717964502324 0.3016471678904284 -0.32713731220696596 0.2880850896387049 0.1569072184664953 -0.10713760200190284 0.10874542079655126 -0.22469291363410246 0.04865593979216969 -0.004861668044655242 0.039919856274624625 -0.5365471524360201 -0.024772661947223305 0.5583719650679346 0.5143809738682561
