383 128
0 -0.009131641892723736 0.019201650872214125 0.03675423437957559 -0.17543611960829208 0.11986967098575467 -0.059092146135084046 -0.007290718355828693 0.03305328920609324 -0.08703861471851165 0.07782551903339213 -0.058819930799040944 0.007232303390378918 0.15664711905737533 0.014570460801122951 0.10654633778776196 -0.021232995508682958 -0.09065521317429365 0.04045292619703024 -0.07326899331303043 0.03624634288005804 -0.014615186757908466 0.04889127933501314 -0.024964330370526748 0.09857583875937229 0.008078789360404796 -0.01841377122540363 0.0930430623970244 0.07470174975338605 0.014531297121308689 -0.053324259139691244 0.017523026874866825 0.08630693180734564 -0.18056347634827258 0.016315827657440884 -0.007874179345165268 -0.09693870162564405 0.004295201219302878 -0.005037328794389748 0.024311141244020618 -0.02235333973077489 0.0852105791979698 -0.08469789533010258 -0.029810287298120703 0.0332629158391363 -0.06788939578386108 0.07088859654916896 -0.06359953478859955 -0.08099433003423483 0.1335048248927657 0.0014493727642680594 -0.0778553503239277 -0.08461587057087559 -0.10928075707442687 0.08394237253774431 -0.08114620175600223 0.011575801360146706 0.13915604781593097 -0.06580772447603626 -0.04181817592782892 0.13458458882313254 -0.0007411028994905355 0.07848839225151381 -0.01331007429843972 -0.04299202791675805 -0.08234601366576347 0.1525129417306993 -0.02242572395372441 -0.1930602170063217 0.1173442479449186 -0.030686366592217604 -0.04636106780128378 0.06059558892385387 0.1809681678281353 0.08770477924621002 -0.003424404672318856 -0.18966262052148936 -0.18526369066925671 0.1194310984171878 0.03807155236189415 -0.1939964373085892 0.010970575709444064 0.018201793463977566 -0.02845374002625842 -0.07712737915134109 0.07827300149842255 0.027386268542318258 -0.051043942038531624 -0.11201604386824213 0.22426234705115441 0.18608817286710572 0.2372881449689791 -0.0018033620702796634 -0.07790665415676098 -0.05764992545133869 -0.010655905338943087 0.10401641762097784 0.12847906831998868 0.009537828913786515 0.19626590929084092 -0.07884371432364223 0.029798335677943676 0.13896272947139543 -0.02521084245522882 -0.09757350295762361 -0.06445114056141013 -0.15705099222855434 0.20876770263978497 -0.08551506861495463 0.1291399257876069 0.07692387852425964 0.03020447447339251 -0.1168648748344194 -0.11196782336174142 -0.23293654604328473 0.1549536814930489 0.043286300736771643 0.05305747929420154 -0.034276284133157094 -0.05220560486882 0.06451748729984096 -0.27890098929077295 -0.05342469956401633 -0.02313214783144006 0.0811868272208562 0.05891306526321238 -0.13365812563896923 0.03372637946498648 -0.13120031969524729
1 0.006108876128323959 -0.24233543351937062 0.03059725453435562 0.10676646999531127 0.08703799839150109 -0.21537197791802265 0.020038085712501156 0.09331978423073911 -0.042739056703623914 0.03590215052401124 -0.058625371579963136 0.03958361649684933 0.039304656040672854 -0.020153548006721197 -0.0359300652169207 0.04828434848586497 -0.16872850804279207 -0.015398183548590256 -0.02595679024834902 0.16856700956735662 0.037858558135695164 0.11046032212175493 0.004105890411258829 0.06498110497106381 0.03179886877913865 0.05486670861741235 -0.005673521082408061 0.0018339623719222156 0.011343603505451397 0.022402257476489114 -0.020993039390720777 0.01348558889043282 -0.005650365976743648 0.05570497667979717 0.012924253275888852 0.02479746923523264 0.03057543340729103 -0.13471600143625306 -0.04356487719711267 -0.06747395101891407 0.033735546860161454 0.005862930007457704 0.10550951209787006 0.01569836634052745 -0.00942299028659424 0.1156558005568587 -0.07661179011206692 0.10273933762136842 0.028386447270213378 -0.17314021412655953 -0.09955567483568876 -0.04237239409472928 0.2502135901337432 -0.17003114680912856 0.050931477400529085 -0.15155954019454243 0.09584064266137228 -0.14465392813848119 -0.27024452689599443 0.14683374287908352 -0.15050240295097572 0.24312619507515068 0.11314389536480203 -0.014932388200293578 -0.19047457472259324 -0.16219564321292687 0.009746088199556989 -0.21875581167829788 0.08808058541540272 0.030469207378587958 -0.08098407743157109 0.08426217569144415 0.012933956996543006 0.15631607617826038 -0.0397682896409041 0.006447678895966038 -0.034911754729780316 0.07529227793945381 0.13266059580688577 -0.019769233441515266 0.05363769735455535 0.07809543475939214 0.22754104893828953 -0.22784898191383154 0.02961857954988935 0.14629458471859733 -0.08468282076595293 -0.022699382105459753 0.1665907466703265 -0.07097227853288879 0.32209739292929457 -0.01228095631015977 0.1416671419248108 -0.2519112090460347 -0.0452949143239321 -0.17553122138703164 0.14193120889469404 -0.053386929827830686 -0.07761393914399212 -0.0798690077545273 -0.1168910108715697 -0.07441457194451655 -0.4614117627842802 -0.1384292810821893 0.05664816163342238 -0.03445061728945955 -0.13822684602144858 -0.21422265416588204 0.06324505475786507 0.24346411064638593 -0.17767989404656842 -0.20677323644270076 -0.13063536814960192 -0.03661310512852283 -0.0974402333836935 0.36056890743755493 0.1092029077774495 -0.11747488860141804 0.2121545947808543 0.05687406734693108 -0.19502015179918827 -0.23128501071623858 0.030346011036921895 0.03587462367031064 0.12695702919261553 -0.2708300966736963 0.009174106832084429 -0.20088677662458254
10 -0.003539573319415534 -0.05594892809462652 -0.09086410332383749 0.18592250065669416 0.038659869909181986 -0.06797736009426317 0.050835705426459564 0.14987400570440737 0.06438106778197376 -0.06013211347424573 -0.04855169746740979 -0.10196810285461219 0.05184324392648455 -0.02716333130672995 0.1254369340398885 0.03151020863932315 -0.049779963425186445 -0.04697137863011114 0.008334268153195672 0.08504619603210793 -0.03046960793763386 0.01692310789732361 -0.10808965630889246 -0.05024552506425678 0.057013466319405647 0.12240987645971879 -0.0390846229069511 0.12344300355670859 -0.06991785166237983 -0.1350878809198978 -0.015540327549207079 0.0582804958347211 0.1697996646577601 -0.09522641281795452 -0.013587171701924448 0.0901014995846543 0.014562704594191338 0.018862704893548535 0.1375651526648224 -0.09316342432971626 0.12805767002489485 -0.01578468520928329 -0.01856145355535585 -0.05734501237335518 -0.13286620990318393 0.02252054974125042 -0.010479874062118151 -0.01786000409506888 -0.2573671211091079 -0.002185343184151624 0.04002426014162979 -0.10348747976139615 0.09195445351024768 -0.04939261758499787 -0.2283139677790349 -0.1549941211824171 -0.08685609304198819 0.09866489325178307 -0.12870461588871837 0.01582230383335127 0.015878082663950153 0.06201048333832433 -0.2741836875424524 0.0511925175754244 -0.11284983108060472 0.22523705585227222 -0.09135970676958305 -0.1238136181273587 -0.1533373731400943 -0.0238385164662389 -0.038636330119502474 -0.0032498101857301813 -0.17701755062910413 -0.31972096192040284 0.1503429248475678 0.2385876802744018 0.03285202680801916 -0.19895694032838027 0.06185770273577421 0.15195539320685617 0.16606959370592883 0.07896086516182911 -0.6731457507719946 0.004543652471394797 0.006961435132899182 0.2257837157337024 0.059628114504788214 0.07209917663787409 0.1805704661478916 0.07438913898691954 0.17017300967427965 0.02682169720178558 0.0454486265569438 0.021555946630489046 0.15044568174049402 0.05282817999269495 0.23424400769244824 -0.09261394441296 -0.19685111288406135 -0.19910154018630163 -0.05067471461300019 -0.14110864059965988 0.06946935647577725 -0.007424638331024097 0.10413178244563674 0.05617758675352197 0.23695014034074435 0.18147367707835468 0.15528958865813305 0.06957587678502787 0.014178499189134533 -0.04090055485855247 0.021234275149558862 0.010342756252364466 -0.1859313067664313 0.05991415082180288 0.011584291468519903 -0.16127067055973057 0.09116627770690768 -0.1163140156717997 -0.17725935626761466 0.0025668465996833015 0.10554541747844659 -0.06419718140366476 -0.019210350280158526 0.026233404782115322 -0.4125711841948675 -0.6168938046557342
100 -0.05253532409592658 -0.05325351399061675 0.0838431236948104 -0.017186361201232108 0.04594501279042384 0.01930392733295503 -0.020688293476230968 0.02411581891715849 -0.010347254555456004 -0.0018267838827481632 0.004490840081244557 -0.026761284027799846 -0.010425274522087318 0.10179186254650081 -0.0554844891177607 -0.10724563571734055 0.059169761020900984 0.33968492063647643 0.24255488683947185 0.03547671664539929 -0.0606757186314854 -0.02677570612127865 -0.17892065006550195 0.0533544202037604 -0.052932670463926176 0.01195296838926509 -0.06771828211848635 0.08120166141197654 -0.005060052193786572 0.06593462497262628 0.083186657811875 -0.013887041968019587 0.02443447376035263 -0.08420586603893317 -0.02513805210197811 -0.003534264474369311 -0.0649986293840591 0.06987155362073683 -0.007299493891470056 -0.0126969927456499 -0.046423340625470114 -0.006991714938848023 -0.008941775766723987 -0.023651714656933116 -0.05138493230508603 -0.06948058490159839 0.008538228358929376 0.04326061198441852 -0.10684571172528066 0.015459364523646508 -0.1285089623941948 0.06190055401107423 -0.1384199412825614 -0.06809898857195953 0.022865820162526442 -0.03827623151956436 0.07786636974792524 -0.07190887191742731 0.07789750584427987 -0.12831302650890067 0.013533091475331962 -0.10106096261873226 -0.19529600630185856 0.02052430690146007 0.13353581695365233 -0.029311137982409384 -0.16677498639521784 -0.09824388556565618 -0.08011296973190768 -0.06295193305050241 -0.05446036556065768 0.041983023833676726 -0.0011567523242379172 -0.03338718640304111 0.05207834781584372 0.30756117293440544 0.11425822923105401 0.16804065184210198 -0.17615238186834367 0.09260183597359017 -0.022998998657146084 0.09863934027518037 -0.051756574388582055 -0.10841591941089933 -0.2307510392667151 0.15033323996656017 0.03551831666468228 -0.2827330588317985 -0.04479997244937668 -0.0879985025574681 0.2065990215120685 0.03299301414050694 -0.15622859265437078 0.05686774256702914 0.06202393045780295 0.3376933994593714 -0.1725172034038921 -0.043823783874576513 0.17247168955105138 -0.14047383093679022 0.0733242184558445 -0.225582429235539 0.14280977356457258 0.1313159050045261 0.01567661983395985 0.0356703630940331 0.09877892228347342 0.22209666842365014 0.1689518724222626 -0.08728806285975467 0.36794774564998733 -0.0770520170290268 0.05551806264189722 0.29169791887570606 -0.06577297886340547 0.07244185334765553 -0.12305035402539127 0.30476414820246484 -0.026683321783202277 -0.02094412033158521 -0.06959235529119583 0.04307055757151612 0.15655036604418415 -0.5237859982499723 0.28268857920448776 0.05857225938736867 -0.6765095007984051 -0.8587543686659591
101 -0.05650866438135678 -0.05063954919340523 -0.003969434351791407 0.028719013173152674 -0.02264464675684166 0.04304852391341544 0.020817619684629862 -0.05361037146669254 0.10928620243943729 -0.01658627637008564 -0.07589454563895902 0.10255539522592194 -0.02606020658239998 0.020920236323077795 0.14443915596171675 0.010099328043121867 -0.11940425389303519 0.06880534551601425 -0.06575107519738577 -0.0033810750466658998 0.10213756391298254 -0.04970801579316137 0.06417765230922139 -0.09837569584084056 0.005850873662259907 0.06218446958535653 -0.003991600705187138 0.049901684112515415 -0.013985990360244862 0.022927291107236843 -0.08919926220889568 0.04186822894283172 0.015783295077447204 -0.07692390870446308 0.09810401171744405 0.011541342015276701 0.059649717735463265 0.07528727554360821 0.005407134567305726 -0.07298800025575934 -0.05392560784789174 0.015499631971725363 0.004842543281538131 -0.01156578505323063 -0.026868806861884472 0.023763038805774243 0.028175040928214354 -0.029777152580903615 0.00968412858723852 -0.015591465336581843 -0.039639753605238616 -0.030743490275123134 0.0099345306641716 0.003775877767904135 -0.014231238865760533 0.016226695666537515 0.049084399406168024 0.04754604087950595 0.15860876288351822 -0.18420048726966307 0.06224425741797513 0.14758841370998355 -0.0008478216717997656 0.01400909123889497 0.024335785576726013 0.020214173333754228 0.08831616646945199 -0.06617413041164044 -0.0020579896933680146 -0.054708775458242404 -0.12255103833609439 0.04049688571770289 0.124092553117432 0.03486850157579504 -0.13049401961000176 0.07094840642959978 0.07086414655264824 -0.06772287357117442 0.10451348680756713 -0.03410473105706427 0.0018217209158855477 -0.21562352984944538 0.07764661271025076 -0.14649669757483136 -0.04941965587994771 -0.13991754389326425 0.08798580421876831 -0.05766250307554792 -0.09314024798008642 0.007810717849112239 0.04072156360118375 -0.0280137194418863 0.08774104729059257 0.0398549640682085 -0.012372190384692951 0.06352598267486836 0.06818206205413598 0.05069513033042507 0.13008510008725324 -0.006002186728141773 0.0039077266583018785 0.018394584637558418 0.1265576894469694 0.04114570021159449 0.027590005469674415 0.002863988008240613 -0.01074607419999221 0.008778250282527772 0.20783136180632666 -0.06942338384245272 -0.02759840357236906 0.022475856010324487 0.07176702643437896 -0.1504204199885391 0.09690304531389735 -0.09604616768291752 -0.10849432732880118 0.03746314377589989 -0.0742120652314885 0.10100310251327935 -0.2537936032517062 -0.3426021361815845 -0.012834436126336085 0.13974760590231058 0.21477418742756313 -0.2639302797900554 0.008066437922612227 -0.15584573277556557
102 0.049277509687631275 0.028742203731370104 -0.14359542956374596 -0.01192147012369647 -0.06292360121105942 -0.04739274055136808 0.11259931722060007 -0.001223101478614227 -0.03858772773052602 -0.0015261403511111348 0.07626978081052319 -0.04896080428072998 0.009377598560259949 -0.027670240445362853 0.06383246064609914 -0.017446489019634755 -0.14726773554949985 0.05443020121099952 -0.0297529052670005 0.01325791068164909 -0.030551439078481023 0.0015861166908878162 0.04845074563488822 0.023774011672146354 0.02708756778609551 0.20670507336268898 0.07426697955881917 0.028867681651091846 0.04787168895361581 -0.01746220093991826 -0.10000955703813656 -0.025274805562751922 0.011569712894479079 -0.008482279760130522 -0.0040335458592388775 -0.07046745533763837 0.028834793892579418 -0.03325098919243246 -0.08462004731325269 -0.12398842097334362 -0.02875788629652673 0.018867575917670017 0.02306725158847646 -0.06378328447876151 -0.1969006312560499 0.04051040892284178 -0.04125944516705651 -0.008036804097070077 0.005663239278444098 0.0012564427500337532 0.021935488586312217 0.062319127968887715 -0.08351121920502572 0.020107075146186648 0.037380901553418805 -0.055363063785179016 -0.034074376945507946 0.03394815871796062 0.008849199408180887 -0.015471944441635957 0.07498457131393776 -0.036660494165077086 -0.019082247799894054 -0.0027990416455587466 0.09954521318318477 -0.16395534158612626 0.10998611884426548 -0.054460684227254724 0.009127591700225446 0.10894524054548607 -0.1158133208017544 0.10127136750510111 -0.11670445535890654 -0.05388593631732412 -0.07978887793307973 0.08132654171092776 -0.031877864711463894 -0.02220257373378264 -0.00813657122776388 -0.12284563485466811 -0.024400548902716725 0.09195276982753997 0.05134101906665073 0.09016372771996903 0.020809050142978163 0.047577000255548375 0.017521398891641133 -0.03719103874679264 0.029202346431978905 -0.06064441410124051 -0.08769733030974798 -0.09341137771376316 0.08256129691643925 -0.21625778746444627 -0.0016426010858284796 0.10358209848441483 -0.12174781864042243 0.07536676012911898 0.06886199647018978 0.01880932776948073 0.1408806809816623 -0.05877635328564401 0.025704623110301215 -0.04225798197645736 -0.0048231427469197586 -0.14639655345754657 0.015987884493915295 0.04692575876391521 0.08488545416607166 -0.11715647481982591 -0.14493688148036982 0.43709930717811946 0.14247336557645462 0.2001428385364951 0.34786678188211173 0.07151293277375502 0.16189095733968498 0.41929770225715557 0.8044370990534159 -0.4024744155073427 -0.03377998125663777 0.272809263541977 -0.5143587829757642 0.2797347720323705 0.28725578253460143 0.1558207940881129 0.3870081997409986 -0.3338348325255626
103 0.05756149160707701 0.021319995686433828 0.03195817251208975 -0.019495894396519248 0.07637875064747388 0.19217138680004922 -0.09759307246830665 0.19980788101214642 0.03615258470768512 -0.17060656414036302 -0.023028564390499284 -0.0377762699665945 0.027847823650028504 0.04718384187229036 -0.02900432850690932 -0.01186626466009994 -0.055464833643753354 -0.0022110244557012435 -0.048308883235367035 -0.09961148731713562 0.024407916526510087 0.02576036022238919 0.020693178689314164 -0.09212481754876939 0.03727261067108589 -0.14888443634658022 0.038548840776568734 0.00991050279001165 0.031694372591810724 -0.018796968560501708 0.027447773808371084 -0.19365750168685525 -0.09266779792940448 0.006500793562104864 -0.06612697464766888 0.08306596050688697 -0.09181802310212633 0.0822715534469272 0.09323451106104468 -0.020602588118878287 -0.023652516764806546 -0.034473014217186605 -0.0050496820742059615 0.05622817045790958 0.004093666792328095 -0.052659292406611574 0.06237783453100185 -0.034862803241639054 -0.02362950270122314 0.0434389207583009 -0.022047376535267303 -0.20582458341281634 0.012655278155795377 -0.038994226541651425 -0.1355542316656578 0.07613422401564279 0.012732584191257657 0.1261043026458247 0.0368462857221925 -0.04754253984531809 -0.08636852535912809 0.15573338899084754 0.1475761939109678 0.07356496153329266 -0.1280929971604386 -0.19075197325840051 0.12826418103647622 0.012728947144854591 -0.05849513950934618 0.10440476001377964 0.02252105911916585 0.004589534680011297 0.046488179470890095 0.07387414682809197 0.04314805280406247 -0.17707471148703077 0.014807134744883009 -4.2585871775627754e-05 -0.15567449596202354 -0.03917374417542892 -0.23282953113780114 0.06534637611700082 0.046393422932891774 0.15069229927656982 0.0018170757508589599 -0.2437708759777618 0.055505621151648345 -0.035522057401668444 -0.16811430137380717 -0.06457979832358181 0.1251507302786398 -0.04514961995470143 0.1454595013375192 -0.021263318496839777 -0.041482422411410605 -0.023486621550885083 0.09740301030185693 0.14776496857268726 0.26989515710988954 -0.14952552093639077 -0.15191542513406883 -0.15654134479572956 0.08593512140183046 -0.23534068361293348 -0.1999935985525729 0.442042460987166 0.010574911563722901 -0.08097005007592137 -0.0088108867055032 0.3655500299969791 -0.07947651065869707 0.11110496501445416 -0.22798134827737337 0.04052794489077039 -0.2413373443642106 -0.4063052313870553 0.05729282372330805 -0.06125842254550136 -0.10161797153331271 0.2223820348085627 -0.17935984590561044 0.09578796245696723 -0.03357451870170731 -0.017939605267511757 0.2625217859922525 0.16638622684544446 0.39282642397404954 -0.26364502803315976
104 -0.033100340574986384 0.031875823691007825 -0.034247442249632574 -0.0037420041616419105 0.03655946057006943 -0.04487179235633564 0.02139477892583271 0.04067454238242887 0.020319983525080618 0.14093003586944886 0.013032728284290739 0.015035567099751918 0.07591647424963567 -0.0403773583190317 -0.1520224406631624 0.053186926406277577 -0.1578508449707579 -0.05335717842384993 0.02829962537631048 -0.027308778979687823 0.0877536800895229 -0.12239961643570335 0.06184574748140673 -0.024036321369675335 -0.03360575452115094 -0.06875387084638024 -0.07645535518625095 0.18690202956586277 -0.06170601318895307 0.16971354425668658 0.12146959611573165 -0.047257740593569894 -0.003904919335286763 0.07706860925675704 0.16016608010479313 0.17477754419378702 -0.01632119731656 0.05184923901961916 0.02543562952158142 -0.038069120166344055 0.05398763788488692 0.022135720757214327 -0.003551100592035184 -0.03366544323387246 0.053718919055023205 -0.0632817948015199 -0.1351576959204196 -0.07468331371099987 -0.0916503108391306 0.021826303083664338 -0.1255489113101821 0.02441343416596927 -0.09360828196890525 -0.03195174644930197 -0.07333477631679662 -0.04482487019099008 0.06936328616834346 -0.03606059495770294 -0.04807271815449169 -0.022072976429679318 -0.018924708806012682 -0.01573607995395228 0.06611225410300989 -0.13285076490133807 -0.20965164652717394 0.06293160070467946 0.08129507095338553 0.06994814557776655 0.06186546314328209 0.02795025370037714 -0.10403588849877025 0.10774575039552912 0.14168280367602795 0.12985225582900392 0.004135440520229863 -0.02623276558999965 -0.19325119701556345 0.1038799197679982 0.13145228464973757 -0.19761489288709955 -0.043685920459666225 -0.15308551756718136 0.08813076860639713 0.033863100028611676 -0.2181292867308925 0.14181305999550586 -0.003156812407155748 0.21201644633891387 -0.12793690488476386 0.054580588260329986 0.1829148053119681 -0.03624322122408166 0.08485938010267013 0.0928719740060353 0.13597202093440275 0.14656056053373984 0.5417095275511669 0.04879740176213775 0.026028354781124984 -0.15381031613404492 0.11833484474116872 0.3023171897086903 -0.16018367129843794 -0.10806298275037954 -0.2927535931087632 -0.05512117876183372 0.6227010058878382 0.09284377331714218 -0.031286702448131455 0.052437061736772136 0.3750663504363795 -0.13439826075677203 -0.04073712328275017 -0.014240135755343594 0.04416911976646092 0.17052919118184662 0.11743622370530965 0.06704087190238682 0.015016711000764583 0.010982428390456206 -0.1233874627861936 0.2267093833170898 -0.011523820453018292 -0.2697269364821499 0.058542727250679334 0.09849664047548205 -0.36948875975186796 -0.6098456079582582
105 0.00597641973326232 0.040695403238801046 0.0371689718678241 0.13135025431993877 -0.00950826095661492 0.08895739694286779 -0.03345265673717081 0.0022226587354952474 -0.11917346236845155 0.0005340382311531862 0.03818044207126118 -0.021284800594902283 -0.004480511364632124 0.017301757484751993 -0.0035620452226105426 -0.020999972023605852 -0.0988908628493417 0.08705419639473276 0.0012887135145096306 -0.08635118029723102 -0.10919168519218814 0.028326522994582014 0.05390695015802964 0.031334490672696745 0.0013475185196503343 -0.20175663325866253 -0.005589189042957181 -0.06560170512546024 -0.1663346847770206 -0.09327894689760002 -0.0652951267263881 -0.24337041157860076 0.17371040411998476 0.14740191883815176 0.08403282058483226 0.09456834596889073 0.1582018826473662 0.11556532472851602 -0.036254064009022216 -0.08346474033391393 -0.03894715604994978 0.02544098496561411 0.03191008068684505 -0.009648293799624905 -0.023417637604176648 0.10481627017171133 -0.00865839593615996 0.21224060652283977 -0.12438371952796215 -0.044974828235998764 -0.013754256173170599 0.0681902122227575 -0.007196265344686039 -0.5136394036722294 0.04076443568083352 0.03778013308164814 -0.06472686700436985 0.18463185979223495 -0.0018790080463916953 0.10064019579596596 -0.2378080209178051 -0.025214496001683344 -0.05151340954340445 0.06528732641829132 0.1270843025333519 0.10796590342595118 -0.00780992763407678 -0.13318519760158457 0.08563664290220498 -0.0075053966884152815 -0.07141249074726898 -0.17160026484606405 -0.15906404041917271 -0.14898923560706165 0.006491492336189396 0.11448083466400653 -0.049344207846331194 -0.054390289090488944 -0.04636353654173152 -0.13039598411145556 -0.15462505864843876 0.11220219524849166 0.11174123939590111 -0.12362819615277468 -0.031729687170546875 -0.1195408823442826 0.020241766730929676 0.1688191426938229 -0.02678170430834796 0.14017180713980498 -0.13471248373066688 -0.12193265895087475 -0.10362048380977047 0.051480137803197434 -0.10911570743160483 0.17661869609685318 0.01562692910739773 -0.018583719708432405 -0.07764966107240565 0.12388909731301874 0.14836907283919 0.12123064554204707 0.11815745514963358 -0.052671673029976974 -0.26155692851921875 -0.26652734513563087 -0.1074926043118507 -0.08053845318682361 0.06396326092915791 0.08744464039023782 0.07269632611624725 0.0007027118166363871 0.19658200341733795 0.2362262775014378 0.25004633517174135 -0.1520804641310931 -0.06922625211037235 -0.2876308942940741 -0.05244170747434601 0.022576437677502073 -0.18115669035945586 0.014614422502786788 0.12166541390847813 0.12279370575769066 0.13965127860178975 -0.25800389897584847 0.1499001639779429 -0.1335617809141034
106 0.017465988067513497 -0.09461405096900892 -0.02699430177048566 -0.06023985492791083 -0.05144999875309877 -0.10298550007639282 0.07287265530330021 0.10296410103317584 0.1842402151957579 0.012094872416695024 -0.11144010884531959 0.05298538744057556 -0.1104495589413679 -0.04364855731410783 0.16140436737197228 -0.0840500263110416 -0.02333406882827845 -0.006616996533777119 0.013857179858971731 0.08813191354612208 0.06216270960080757 0.019158578335367927 -0.011178547026219022 -0.016945701803744925 0.005477736304236887 -0.25437595053549694 0.03929450787402133 0.04626443625989631 -0.2018286682602855 -0.011240414872441746 -0.02704797679172313 -0.10855023600182491 0.006339953260523205 -0.12281375375709139 -0.0069947362304935805 -0.1400178330351928 -0.048994314630900995 -0.04929400726827489 -0.06819130118495241 -0.0958053012564535 0.006216283641613311 0.17511834067291718 0.05573417417264216 -0.048239298276285085 -0.26755102136897735 0.06904533117102328 0.00261499426627806 -0.005742888666321271 0.12339582363819182 0.04523406030330669 -0.02042530494991732 0.14135356555260692 -0.10822809275073837 -0.05208491447738701 0.01792905886677251 0.0546812372718238 0.08176504078275464 0.06438431590746584 -0.1666004589513389 0.09987838090540806 0.049677974171814666 0.0012173782317308676 -0.12118884730143958 -0.029515291985487198 0.003299691401739508 -0.006177573045196313 0.07698710814507193 0.2541781581909016 0.061623155278042276 -0.131938635888194 -0.14828385201881347 0.10607120938960632 -0.053229131025482795 -0.029131342823270318 -0.04376545462739698 0.03642259315574534 0.06197535181216349 0.07858580067363777 0.10078880064960051 -0.11414762486932788 -0.036255409099898134 0.3804279017862518 0.0010180827905804165 0.0035207847305425027 -0.008047316236299878 -0.08125238368044031 0.11552410052909928 -0.43064108648764426 0.22747124422309475 0.22221502871563492 -0.20596423893273358 -0.10278555095578214 0.25484752949782224 -0.36727635986036467 -0.009264737599976926 0.06375529880563693 0.074525640181787 0.05891816660125493 -0.0325506348596278 -0.024152786392676005 0.036568023654948247 0.007042747120216611 -0.18795054799145186 -0.008215734870555207 0.05937891157240536 -0.14081134562028308 0.019871008586101104 0.06158522138486651 -0.045920324359210486 -0.407014186358238 -0.016502110775918694 0.17287232307406383 -0.2816448157802864 0.36507244028263214 -0.027849143951707126 -0.11600897378858806 0.42720791658595386 0.06655390819001927 -0.48806998167617743 -0.2597658268842157 -0.018630090889206273 0.21210684475152217 0.2662844821559216 0.10851371301878444 -0.09451802695824574 -0.32459633446172054 0.21361330738323103 -0.15519118823539524
107 0.018402730011628527 -0.02969008028131495 -0.08804801090788696 0.17057819328385912 0.009138417842947196 -0.1732982546983803 -0.053159760441505444 0.11884521526592602 0.02326139661406959 -0.10782336690038484 0.1015537852463268 -0.07461235963234548 0.014855868952341287 -0.01946420378563637 -0.1646472934427122 0.01902278894744783 -0.07856030996238426 -0.02675189472218261 0.013256467556615368 0.004473755635811435 -0.15115841055444937 -0.007625953497815775 0.015016187233644361 -0.03212222064265497 0.02623821278031003 -0.0328047403654338 5.4448560233951255e-05 0.039164691153748266 -0.09448742680639872 0.08426641325467012 -0.02110214929493219 0.05780879618818916 0.03503634923550157 0.04718245475865822 -0.07065851775002732 0.02845756754587156 0.03848953485714402 -0.040703557486422084 -0.0020614202602662088 -0.013626885816871983 -0.1409265992032438 -0.04437264493531514 -0.005305365056726364 -0.0023500317532444428 0.037918240822695806 0.0930211963492814 0.06664272812406595 0.04683291148166024 0.009794608862627063 -0.14453545325648015 0.13791489440181928 -0.006979468312823849 -0.060553930356913775 0.1259434398432272 -0.010948416483497475 0.07834303151317654 -0.041446633664649526 -0.02543983920973956 0.04935509853047053 0.018562765764112782 -0.02353569446125672 -0.020378312291742404 -0.28270787334992825 0.24197640022799474 0.049641801630590315 -0.1348187001159976 0.04806914327340352 -0.009092483101401207 -0.23000443913171517 0.1245500998538047 -0.0484126298156637 -0.20182314068390306 0.019268211456395515 0.15191834284343705 0.046381515988440265 0.1642765060100725 -0.0075503242735674575 -0.030341285820991954 0.06163373619531678 -0.07808872666418872 -0.07510234904760267 0.021666356297485628 -0.13343771421780076 0.06499071857312164 0.15943973017098267 -0.028864711132585444 0.14332340116051848 0.04028672947424383 -0.11194183640950704 -0.01974686090026578 0.143863423425155 0.116735755768253 -0.1299625089906257 -0.06784342740610871 -0.17956437636463118 -0.1917118092483125 -0.04723454128264879 0.28097184125094815 0.025157868233382556 -0.050872796940931345 0.0796162210943967 -0.2210912179648947 0.2556087275507584 0.41236878525081916 0.07042372554923537 -0.0810148886568684 0.1410134878340669 -0.1350103837332365 -0.03986717037800038 0.057264723561402 -0.07769468500113558 0.09967361853122292 -0.004071230674439788 0.0592436270777518 0.020434904467500906 -0.011955505310376598 0.011959830193919179 -0.10005898655881951 0.0408680467784226 0.15683596585731963 -0.20516014572641614 0.17833005214611788 -0.061249789278526895 0.012392909100416708 0.0400356091862643 -0.07245254303611384 0.14427761715780948 -0.13956845025989056
108 0.15833001474091735 -0.011235829012340647 0.04437129053769857 -0.03483277116034971 0.13463631712700347 0.01050236618913988 0.05123337104199375 -0.01533918569239649 0.04114999659516467 0.06239400142796149 -0.20310792758752236 0.058634171292133996 0.06684974927480719 0.029711603276382385 0.03905267135482971 0.022458118970109502 -0.0417189681826944 0.04729401182689064 0.06643859065069144 -0.047687100002530944 0.13469054555250873 0.08648279816412095 0.07000390026438794 0.10128033863826548 -0.01935183319888975 -0.10273834328211864 -0.02561160661922168 0.05922870856827466 0.045749752879835966 0.13136648259992323 0.048954222448907604 0.07889210351348835 0.002585075264877475 0.0756304966410914 0.04631643115026109 -0.11083091671663353 0.030528196688693783 -0.007550098561355578 -0.05155697152049985 0.05674372216024891 0.00125303069365145 0.03529452745600004 -0.0018011531935348598 0.061571686831810996 0.026410793917367482 0.006054763970419914 0.00661068272788247 0.009962830533993041 -0.007982530913437768 0.02056898875952429 -0.029169873608962147 -0.021428247489733335 0.012020631606073272 0.10802456277326797 0.002631516799745603 0.011702177058783075 -0.015561982515810266 -0.1745778997151262 -0.03321577022649186 -0.028843486782598543 0.23052472490380646 0.010935537931045305 -0.0034129769235302972 0.032781818242471165 -0.02119893631669099 0.03154563793388097 -0.036594806100739244 -0.0959410176013979 0.021365305112312324 -0.0449363466987924 -0.09359553167751627 0.1309730090307891 0.04453120734001998 0.32428335502377753 0.03419229049835005 0.5985354986286293 0.009013866121646336 0.4018788948569521 -0.1455477042774333 0.06033563244523158 -0.0017231699385985792 -0.03898863818144778 0.08461972420601303 0.036403572118898206 0.3671759828721187 -0.018584691960902847 -0.2729678604029341 -0.0410957425488262 0.28967921026580523 0.4026117316220097 0.28177140751207697 -0.14424569092494077 -0.06132987354242808 0.06889869538819747 -0.11731294806898457 -0.35433635147634707 -0.1638377781465714 -0.05965951345232222 0.245795988706663 -0.03214088528184041 -0.093565122978007 0.32202947102977586 -0.011223900270102876 -0.36266229768273056 -0.1882428650464802 -0.0816835544919693 0.004602385549649872 -0.19100001332680336 -0.11027992296866794 0.25475232111617546 -0.03131909891961024 -0.19097366864937593 0.09740210255272716 0.05358277780514986 0.12563855021127734 0.11404748101638387 0.05442616570797026 -0.19116349379826394 0.10668750190774061 -0.06165086171457444 0.16121525392036873 -0.47341890779266294 0.09428237533245165 0.2781641637124903 0.30083789456607624 -0.5396825407102959 0.04597707122895106 -0.20689806506425115
109 0.005133841094262023 -0.05165818267000659 -0.09334263950330676 -0.08667419865980545 -0.10653308063011441 0.1830774190286618 0.02504717771798748 -0.03456098794469158 -0.011255953221923985 0.2196531239617599 0.061620382178056037 0.052003194472392454 0.13640084895669813 -0.02944429983994782 -0.14657823426141453 0.10383237654213974 -0.23718819234230362 0.04688555264667825 -0.09244630510267467 -0.22922345262193816 0.02937273564585818 -0.0159363185164492 0.06440799572256833 0.051510969751696646 0.03053529561332344 -0.040129775926108766 -0.02059495690631987 -0.030575877535941914 -0.005222491305065407 0.018784607955314368 0.034273145859065955 0.07043181842157156 0.1094664700633268 -0.07190174070095234 0.008376376119440209 -0.11132341201048304 0.00940311581773308 0.07466434224167916 0.0607352788373857 -0.045517166908133705 -0.1602992840118114 0.003103785487231823 0.0027061172272653334 -0.10363106242996994 -0.08273943815519108 -0.07713388105447022 0.22946581026242277 -0.042491016139495776 0.011303826090941873 0.005813543417904176 0.14955952372047615 -0.01184614948663544 0.11225491993880041 -0.022279651322399084 -0.1648934128777388 -0.11601041886078887 0.010715940361651908 0.009834956497149758 0.122937334433487 -0.05413509217676553 0.2013519874073724 -0.01373420329019701 0.011379388490660067 -0.06126176384312775 -0.00400529577488459 -0.007961031675573067 -0.07132433522927088 0.035717774790709554 -0.030507818681200144 -0.23196043440008168 -0.02842089365060566 -0.08144664553405657 -0.2308149845078266 -0.10231135643806934 -0.045561485467977614 0.20648846342989935 0.022897495899327863 -0.26746469462322014 0.15594742785197513 0.1301225565678849 0.10386410603161038 -0.10450064890766153 -0.22478497699379138 0.04112205093800393 0.14367118429227632 0.19783378213710187 0.11606465213268889 0.022404774151266987 0.07037678058734473 -0.1217999877174961 -0.10490142597074675 -0.24550473340987636 0.00882366888677008 0.025235286521454455 0.06390953862924618 -0.12954822704867158 -0.002594150496514975 -0.0734796956652127 0.06592471980243104 -0.06316157690516469 -0.1117794303935257 -0.21911941765183598 -0.11077221611805328 0.005388022289735592 0.1087216872015287 0.06251589035453027 -0.11779694583240215 0.13636451654894965 -0.21585587817512855 0.13953696848960914 0.07474394638214565 0.0656744267179918 0.15743758444779818 -0.18933543776479286 0.12703192998552104 0.08462222179537138 0.04944228051472072 0.17426438940703953 -0.011480381866733669 0.09566064740699246 -0.2481541739543832 0.018504318528131006 0.18323308410428776 -0.10261034865171033 -0.2991219973045419 -0.14290181272321908 0.16038429604310162 -0.18539598198702853
11 -0.007625659334069142 -0.07528174485050262 0.032017913063179436 0.03218186276310681 0.12423627458513652 -0.13055299360080205 -0.08405539140113484 0.09025071519569253 -0.006999655028956681 0.15410297258408565 0.04784540751581422 0.012249618731593168 -0.07483604575617796 0.014883995646995118 -0.010721535408698833 -0.0009077097245009584 0.005153608001534066 0.01619548209178595 -0.07863540165191087 0.09918327309496569 -0.10792843416580129 0.3148870522688962 -0.0070366580711436295 0.05397583943262025 0.004663383130825897 -0.08509046443713339 0.007123578471117658 0.008112498360949849 -0.0469401401845435 -0.0036480472187689905 0.005558413443296017 0.07026034692230923 -0.1006361575778757 0.0063316461807278795 -0.07310657935028063 0.04420014199047648 -0.02156225444728375 0.10266128225075792 -0.027014569577430883 0.06942237706226455 -0.17193612813190753 -0.05394560062351974 -0.050608822541756214 0.030941104823206864 0.11174374874039826 0.1788241352564776 0.050756672164209225 -0.009576753654486233 -0.06904048006262477 -0.04173332762320173 0.12491200268883335 -0.013241262017943792 -0.029786203810497954 0.14810326143303648 -0.09326220037788027 0.05863508337621604 -0.11505694086423074 -0.0004002348437234217 0.0845335713265421 -0.00430555471358666 -0.06692298993778298 -0.11312467050413977 -0.016357100775070188 0.044433853800954076 -0.05709338108013795 -0.03477869495060268 0.09404340812383034 -0.030748340289014454 -0.14531968136713877 0.18874682120917452 0.13159628329937106 -0.25835782183627726 0.03211284611900995 0.13237783760337793 0.14793322380097707 0.1461228649461241 0.06709523147243235 0.014556548510834147 -0.10380207173944511 0.019629490237722366 -0.1028012072322493 0.028632524103907184 0.06199564588388248 0.06681783724652564 0.04373928289161953 0.07549628143397513 0.23717322892089376 0.29463666297684354 0.024852314552027955 -0.08482716513043449 -0.10994077145081338 0.0027187787445200166 -0.10425811023300005 0.17135070796058052 0.1158439453356276 -0.26753031139298067 -0.0666082520446359 0.1514401034344842 0.205069452770885 0.033958926007934 0.19512339451323948 -0.18508282960164163 0.20574522929960393 0.35309973878910583 0.011239490466142435 0.2304464903874731 0.32761749804208595 -0.14184525167849316 -0.14674513979130716 0.12026970030079655 -0.16947759681077884 0.14183065153415844 -0.039719310838477954 -0.05004791213537203 0.04887600075325334 0.05418717737042483 0.016519594163385085 0.002301261483477661 0.06027048734132953 0.1255688669034835 -0.17364086403469622 0.09544453480630409 0.1711851805839016 -0.1899897497762483 -0.1400132485526688 -0.14776349343469164 0.263372687473 -0.1537210696222035
110 0.028024416494529653 0.014623412979707972 -0.08766147616751359 -0.03828906378950071 -0.04872276225322384 0.01964728065998126 -0.01920025607144092 -0.011964829203248926 -0.04734376526515099 0.01872686739448209 -0.16198052164601787 -0.016527220351213207 -0.035011678879483144 0.023332401578004036 0.09485510422203115 0.00865912776182742 -0.15175359745693048 -0.006681582748273835 0.0784061701509201 -0.06350586239518516 -0.15371415661555848 0.045920369021507305 0.019623346306631838 0.20963363775035126 0.009102073018807668 -0.3361845945859321 0.020365936438125315 -0.002289319842244507 -0.14407272511272584 0.030168211959721688 0.017726182316939693 0.0454290957830267 -0.07349630702469419 -0.05404332087417826 0.06182609734058449 -0.05284563551467764 0.06876156865717065 0.01287098480420872 -0.03624075461223502 0.043360277680982315 0.10831112694739801 0.05891877189648339 -0.12584908908565431 -0.12442854181087953 0.026217428419950922 -0.026723195682961717 -0.005941882744460051 0.11195525551267974 0.01827936785325241 -0.08966302933268337 0.11103693117408195 -0.053697805125834344 -0.007439294447504799 0.09373149072881433 -0.0047889913633449264 0.013644307951578734 -0.08564606791091046 -0.09590147662585682 7.963886199165523e-05 -0.13902835578023806 0.16290870353875203 0.011826672687429846 -0.06871569042009945 1.0689193747783203e-05 0.10357354121750165 0.0032014131095829458 -0.0005993722388888608 -0.1277452808753762 0.08514087202344726 0.11022165821747403 0.05395800322328913 -0.0112480882415551 -0.16588675306561143 -0.09099298176417443 0.018003048693941533 -0.10714597726565298 -0.06876694129208263 0.04632683383827999 0.05740997536832756 -0.14514561776763812 -0.16661508209792197 -0.07491397270250172 -0.13163013088132755 -0.11594917958575135 -0.035283227743728114 -0.09745439324825514 -0.051708985807379974 0.017554796252263444 -0.3104226639757987 -0.004402764682400287 -0.14990382967732488 -0.06479285383190875 0.11660492130898464 -0.02920267227762782 -0.01787861040507198 0.09685390542905453 -0.17296266415850517 -0.05662304558089318 0.0360920526229424 0.1243810745488478 0.3821635545258509 -0.04418722605706309 0.07697264242784023 -0.16518052397505303 -0.04674587577150057 -0.24480043816977076 -0.02132706009154668 -0.07501976186576391 0.07515400771810012 0.1544831538881782 0.0893938988865902 -0.10789415512099802 0.22484369432190365 0.24056398036172205 0.12078019863825028 -0.0604458863381141 -0.06407395171653914 -0.37236389466658065 0.12582561426240407 0.07872133776401595 -0.18657203475842152 0.04195711361220109 0.07479130572738209 0.10359814549711162 0.1291708170309801 -0.21980064930492257 0.1429116460860319 -0.12605152575409273
111 -0.008778129781131794 -0.1116940155799747 0.03133720128968238 -0.07578042145529358 -0.07623142080174 0.00244219920307144 -0.02827687728187899 0.038904811690153085 -0.08827756207979814 -0.03482653152776626 0.05857349492194292 0.013715140401572193 -0.11136387970365155 0.0026220614288648566 0.03451475205015854 0.0009098999550865291 0.0928911848325303 -0.005577937362445861 0.06962089439546507 -0.03781772967879372 0.03792329313877588 -0.07267994347332789 0.15916173253645133 0.11151880039900462 0.3430573627646075 -0.005908597918254445 0.06586329205939093 -0.05132396310032244 0.09383751688063503 -0.055181333409678686 0.1015985287957861 -0.09324677266942817 -0.07962592690190082 0.2069900505878023 -0.014741928103737088 0.07742083828921373 -0.034764240531679085 -0.014906608489655622 -0.08967259397642308 0.08537349844129967 -0.08490898318376315 0.11392136879580549 0.04301190915204251 0.08377444751383574 0.12952720832516387 -0.11513408148068328 -0.0622771339497823 0.39828722587796755 0.03896629618830464 0.17984249990529802 0.009387693822334509 0.09465912854225819 -0.1315116413549092 0.08043985187630467 0.04459865192485815 -0.07495193470991124 0.06694445708277671 0.14127839651534504 0.053419862778022256 -0.10525621486651017 -0.1513374058105367 -0.07214723701647488 -0.12034711147087505 -0.17825157620971635 0.06521227043032281 -0.1562533761469321 -0.037116927337238315 0.2127071817891789 -0.08764152311310598 -0.007070149002118364 0.11291538632552788 0.12672023513768024 -0.12042053394519896 0.22024837066793396 -0.06049628934556076 -0.007576816759954622 0.08375526262968619 -0.06624158770771847 0.13251357797498123 0.05983745611617536 -0.06267021392063085 -0.12523972376553688 0.08607594863977329 -0.09018728734871219 0.05688646720898323 0.14030581044302146 0.035126174775296774 0.11991330499160532 0.026396291643223626 -0.0013743843389901274 0.008347685660667096 -0.18047539948299815 0.041143511666579397 -0.19070287858589122 -0.048796808663012704 0.008119126393478367 -0.0897774486520808 -0.026137010894055495 -0.05925517588882919 -0.09883714332943055 0.04423593458828253 0.11905983060039027 0.18753479201515022 -0.07558477275430373 -0.05538048795336736 0.2799426445675049 0.27995230984638575 0.3662799518832099 0.10009189553570097 -0.08820333724583831 0.12126383418043032 -0.06948371018064309 0.07123201250804702 0.2741728989605905 0.02314059094940263 0.021171582313140213 -0.134059464189009 -0.08101247636150329 0.04896328911722 -0.15698733955892882 -0.05303027392031842 0.06639407673898468 0.1350074264012593 -0.18808904820321523 -0.09433447547021144 0.21588379889937748 -0.7123404123370437 -0.9589447046090186
112 0.01130611281720434 0.029620433028712118 0.028893948698455112 -0.04117434072635639 0.015796070123982896 -0.05198166131236826 0.06856569025859226 0.014007474718712656 -0.024049609858157357 0.03346681643144444 -0.09077476559043232 0.09825149775546885 0.1019987403551382 0.016368330340906952 -0.1003522603016372 -0.0248045159854159 -0.05514621354706868 -0.03556106346142727 0.017346916801257894 0.1580258579252469 0.13458030434288298 -0.1600328634445731 -0.048851663590793126 0.07949558201456354 -0.022704358538616003 -0.009231242412723852 0.03773183788348528 0.02428787985303737 -0.059288669627903884 -0.07626904168357176 0.01800569310301067 0.05822763453682709 0.04374755449737267 -0.05531393141263036 -0.027542260729019077 0.10198250564352547 -0.017036174598710017 0.16021263471544359 0.08959330279813142 -0.005679301842686274 -0.05042805512101088 0.09332511392697826 0.09925931682231799 0.04977995424100233 0.12268955203751543 0.096006871825044 0.0682789121223421 -0.020028000220465584 0.007296796105109625 0.055636752899294775 -0.08059117203354002 -0.008883885553710384 -0.052698976948057696 0.017307585207030903 0.06132443933927233 -0.01858692408457856 -0.03840596537185985 0.0834115202683953 0.18261573865485795 -0.025186154502352974 -0.12830635706476973 0.05271200908173959 0.011695719996712822 0.02192776849667743 0.1066264976766071 0.04011693628962451 -0.032580535206307264 -0.06256871851201402 -0.12228146573078785 0.008171200475200776 0.1426397359601618 -0.20380092203855638 -0.1467338932798079 0.04341437750191555 0.020078312241157477 0.03070456079897084 0.007118040503655322 -0.04654208034635372 -0.19829067800078892 0.03383491664297996 -0.01702220592766255 -0.20398117436821897 -0.057763231638783843 0.11816229388356723 -0.15458093683325522 0.03365160970123275 0.1629686795873006 0.008630040816887721 0.01853097718051312 -0.10872768525756513 -0.20133748673216376 0.10058001123378024 0.0056648062260930675 0.06359934906904897 -0.1013731448280238 -0.12616176697063136 -0.04270979217227283 0.06014877929892161 0.016864315510390873 0.1443990692228672 -0.060555740435930254 -0.003171683539746877 0.11248527586875254 0.007424037086018668 0.10918570580363135 0.10770071493480264 -0.05539565713824127 0.2049696727207373 -0.1374420158807305 0.20092051569014438 0.11247073865590987 0.10494988513941947 0.10361735054527207 -0.11866053551498336 0.1858666447310927 0.04237153943357883 0.10358489498770024 0.09044134825999801 -0.0004824351979869002 0.0029510769286697565 -0.22860420678155186 0.12050203835882572 0.17163809614903355 -0.058472556641035046 -0.14415419108520122 -0.2221578362435177 0.16521007772612575 -0.1083393546089442
113 0.03804775616556316 0.11866829496840178 0.02451728099439187 -0.012882092677703199 -0.008416006942517231 -0.1132021598938781 0.04604211077895781 -0.020165950236380847 -0.02585246340165055 -0.1327712071240519 0.01626668290195558 -0.008776364556925825 -0.011560463947739462 0.014756314640916677 -0.08755164272935038 0.025207920558772377 0.12344417952560868 -0.06565860047716138 0.08321661837084679 0.047747224303692146 -0.063959863968235 -0.12704703562000488 -0.047809184808453815 -0.02942600299537024 0.028903827839183428 0.01656364061363326 -0.10685760514879102 -0.053772013999071 0.014068422700410416 0.03187829912446001 -0.07454792689447125 0.023757051531863388 0.02255898827346264 -0.02218517137777478 0.13832661395755425 -0.021947649619273202 -0.009680159580296442 0.06098256969831765 -0.004977326812642201 0.04230678924820736 0.02531794507819765 -0.06770425302938661 -0.02437946345490202 0.11067713453731477 0.009866060661150769 -0.18695944218495034 0.0011239102077223034 -0.024769518353607568 0.07845708610750314 0.007789021752452748 -0.13044768090441647 -0.02684731394581884 -0.027555636199542467 -0.04243529581431067 0.1173225417252073 0.12276956979176853 0.04414500654306306 0.08098790915729194 -0.016547421539921104 -0.09190295817285986 0.13136527593293262 0.1408746344390527 -0.09790640878769571 0.1605352445036148 -0.0547095575337553 -0.11785921866878675 -0.04998711213629666 -0.10320135882077074 0.03457204084773223 -0.08072588698172437 0.04793264795508286 0.02403284810085965 -0.06576295099857271 0.08831088216362613 -0.13497573166051915 -0.06629706812134052 -0.17759830372710234 -0.13222416099347942 0.05447535529421536 0.06880178144520825 -0.0031060164952621573 -0.03939874740278598 0.024420612448526634 0.019399176202107658 -0.08506539502923456 0.11625449077721267 0.025766184847443245 -0.08207251546220691 -0.2027809558164534 0.11780053121618919 0.22481444863033148 0.11762904094692217 0.060089106298000475 -0.082186477847101 -0.07329220338173699 0.020286936168779714 -0.12794648804604902 0.1712591916653595 -0.04325536743466433 0.14634826395157097 -0.22257810664618283 0.25123111135630705 0.03150481572676421 -0.031664545902265834 0.0008088435709435912 0.047248823088173054 -0.22413083923659757 0.030227082302809873 -0.07376956963018552 -0.24419968320995333 0.28922812347375576 -0.10750530485885211 0.024994821592211516 -0.24504967206198397 0.007174524785313408 -0.028977858798605555 -0.1104034316100566 -0.0778222971987901 0.35695919022074807 0.027271098851975956 -0.20362619584236907 0.19953587817871687 0.3152799202574531 -0.0668092176972906 -0.11309128229501164 -0.28767584367772814 0.21478603180299158 -0.13298861668712925
114 0.03476192619348013 -0.058211954713641684 -0.04900279889202803 -0.03663189647524242 -0.001050476955720119 0.08075220369162188 -0.008655833386088094 0.010871367481486505 0.02232831866828679 -0.041717039927887244 0.04015719306096443 0.030932743989664717 0.0553886715585633 -0.10607132380784295 0.031167349802464474 0.03175179270661122 -0.04718818070847476 -0.22071155955358468 0.301538496377931 -0.005525977384206016 0.025064169086015865 0.14557229717084846 -0.20661552662716076 -0.06214477708861608 0.07952304866041152 0.02874820501842554 -0.10024705503270716 -0.05258952077228577 0.02744729796925977 0.042289760315536495 0.083244468459978 -0.048241959105402875 0.0112449343130336 -0.06900478680881893 0.019075534231493427 0.00852361917863674 0.01915155832073825 0.011390323280606697 -0.04575665903702581 0.019583888235847946 -0.09273223649510166 -0.02598669077976757 0.01878844569457909 0.027539083736857747 0.10279287014475687 0.0599159489264337 -0.016941490570233655 -0.05363775223329848 0.013710841170242008 0.033513473917593364 0.05529749037307541 -0.04970619693783888 -0.018813287469389862 -0.02012006609742432 -0.0736893832011592 0.02021307677071919 0.059762593161037714 -0.15748367311704503 -0.06452445238829857 -0.017766740793176885 -0.05513727046249928 0.07529493024271451 0.05186297985344173 0.017308095835558323 0.008699576241033099 0.09121649103905968 -0.03211828338855672 -0.03713847980491118 0.001066091775425678 -0.12094247200784483 -0.0923394533971369 -0.01579513624305546 0.09742052944834156 0.02108500505320914 0.06000781961613289 -0.032373474098216 0.03154366385498927 -0.03327864419639808 0.08487956055951873 0.13107366795826186 0.06544303606539188 -0.18512718432330422 -0.034377178805188514 -0.031812156065744904 0.021029692211162822 -0.08583588923867902 0.12366794614157284 -0.050222474334688315 -0.012291326785206112 0.26712441235028567 -0.09040925707898811 -0.029506992932183763 -0.1537766953096947 0.2373729684269187 0.05397069581515317 0.004807474038036987 0.09370485248530655 -0.07811393435982925 -0.02302986733339035 -0.0009042263201729657 -0.1407420416337522 0.21227608192102446 -0.06580860158734361 0.06316419071420361 0.15942010782358884 0.16345587120790417 -0.11680321039635512 0.07505836249485906 -0.006365458584233667 -0.237571669473715 -0.025905802969191934 -0.08402995000614867 0.3762575432054198 0.5898572417196539 0.004334061681061981 0.10715667288657962 0.357195507002116 -0.14917358857827315 0.3279236186527072 0.45132187237259985 0.01112903635583266 0.5606832940227336 -0.8317880151368101 0.1312086143632541 0.02730191603061274 -0.242650446573562 0.08853959872748716 -0.273630305610932
115 0.013889671554192672 -0.04399871063050589 0.032694087591113606 -0.01667993068845753 0.06757503648671746 -0.05204980546266124 0.051638820460637926 0.04180394880883566 0.023382596664817745 -0.0591033122299657 0.13670387950072682 -0.00246117281346549 0.03652497005586324 0.010748267715295601 0.06974820635026673 0.011107884189016438 0.02120583709050885 0.0015711530158421365 -0.004407510107260607 -0.003470313278084477 -0.02616390754545626 -0.10843149504150522 0.0035400633794290455 0.10118529668789317 -0.030763612041507248 0.10461288343200799 -0.01555100334715174 0.0013431028684153376 0.06327004245149974 -0.04237111870665171 -0.0634228189418585 -0.09660037193369299 0.03484461266828374 0.05750799897261573 0.02031677339810032 0.0008253187372382158 0.019768933020769368 -0.003441298413841017 0.008877347858049806 -0.026230898265062103 -0.015259129050301795 -0.06016889109498841 0.06620481595446077 -0.007948707845508328 -0.018216522530804236 0.06252522756443707 -0.011219651744395206 -0.0033026236057602434 -0.02661257024728354 -0.013135068246348924 -0.14823579089369612 -0.0284660919525027 -0.005238101316807362 -0.14752732091142395 -0.0046859789271696045 0.05082645646838465 0.19253720692837367 0.03080146361373778 0.01641771418532841 -0.009775815501934116 -0.05521569992354255 0.08719587600190244 0.010701137816455708 -0.26419106068398873 -0.11612570347097809 -0.041177610562792136 0.03507000466391343 -0.06549680177899685 -0.0033934779826639513 0.00801190366978776 -0.00352285366437968 0.009703356685967076 0.04668579501437892 -0.0068017750614642125 0.05554753937264941 -0.02736739175538172 0.08560426325414722 0.043446058956470336 0.021164859559955583 -0.1552162002698018 -0.013120288073708615 -0.17531039896449446 0.04138898672975275 0.06379683725683678 0.025031498499628768 -0.01383339158343171 0.008691191817845067 -0.10358136910407728 0.09222807474274766 0.06894554793960755 0.11095999308280832 0.05947323923164252 0.09195564169202773 0.011071611956586274 -0.036052859654182 -0.11480358050816766 -0.0064412697853433315 -0.03793162378652427 0.21761272475407634 0.13004786171930355 0.14028342288334464 0.054415424531714995 -0.04066500606367695 -0.10999015890063904 -5.317790833390825e-05 0.01744681544209215 0.09419245085140665 -0.04770878521927554 0.0036476295170739495 0.0025014640573069002 0.03657817061527099 0.006480096995278818 -0.08266776450813157 0.021375418320255555 0.03504100365128101 -0.022299928288048967 0.14112032490311 0.01485634469322221 -0.1058478276455468 -0.07555295927286831 -0.29718478997474246 0.007636594084236051 0.07157261343099902 0.043319262690561945 -0.008184405551622045 -0.18710348214614805 0.0801257726762671 -0.09251753821379041
116 0.004315407076452093 0.049010625831811594 0.056929748730157693 -0.027783146471883513 -0.011452867147606613 -0.06090938424671282 0.04091610368323822 0.07584791715011095 -0.021629103699154224 -0.012472840577215793 -0.08044814736185549 0.0064946021010314344 -0.07378948220074763 0.027228412768307668 0.01142429129893299 -0.03172372338842449 -0.19524645478134903 -0.02086720616320127 -0.00558566525261003 0.12406732838743013 0.02136405964342531 -0.1136227508870819 -0.034107334157602705 0.038362164735276684 -0.010689007597011822 -0.07101809599779603 0.011902342721675792 0.011217781699747468 0.11055676385187171 0.00626189337991127 0.09174845214970638 0.03981928397642407 0.04650756350438917 0.05409108229459796 0.032306844934753054 -0.06971186615174998 0.019687603246722307 -0.06362009551304137 0.16605692769634525 -0.06520880808782516 -0.04723955286840959 0.02361247960555497 0.11930526834088916 0.04549357602799394 0.012185997770459507 -0.07292537774773451 -0.07910881583546317 -0.03856903267960042 -0.04052765718099349 0.030056850238993068 -0.021207155603204044 -0.059369339330401366 -0.09828315666680698 -0.06526368442923965 0.07963156314073268 0.08211688683834795 -0.12715505872437097 -0.03955042726058162 -0.10032529846441518 -0.0720613786285182 -0.015691824607234086 -0.008134601643509036 0.05526236857939214 -0.029960000556185817 0.037015205371171235 -0.045249682981268954 -0.10567055702823239 0.099760957891278 -0.03500519186312753 -0.17802604311298897 0.08568900153348366 -0.21730140163259676 -0.03737658461595345 0.15545270564407884 0.010657701388391812 0.06680310075274257 0.163913862561161 -0.04525697016922029 -0.18132031978487623 -0.01267168639233128 0.00853600110619813 -0.028942326394393415 -0.046714564081155374 0.12788376127515466 0.10379672303383339 0.005207964844855552 0.10889466081815329 -0.1702902349449828 -0.06487553779793231 0.07484400505303329 -0.1266655534029797 0.0047682482824219765 0.29515606977420855 -0.08662365134288742 0.08149140419688851 0.0893527238411065 0.08734396575959108 0.007797515755460978 -0.0990614398859871 0.11143189540429624 -0.07653059320100301 0.01680478317946882 -0.04817587516740995 0.027626684162150764 0.0645549022360736 0.051123475757208055 -0.05018274258727184 0.1707349268347171 -0.19234715655003945 -0.03425010410863062 0.0007337012843400082 0.09681352451850589 0.010254358680446059 0.009758301249769943 0.12035477942495652 0.03623835456158838 0.19982828373734007 0.17462896864268926 -0.178615551344118 -0.013962187497604884 -0.26236868549144643 0.162810399489429 0.2560988394479156 -0.03904295016056849 -0.18070486750079653 -0.2570245300879577 0.20485705265379986 -0.13015382187751004
117 -0.009462364498174223 -0.005269207156858569 -0.056130458497869844 0.133441934185197 -0.06004922249172568 0.0016179916791195053 -0.07474062887839783 -0.021976469988663754 0.020565677940039783 0.02631932592301052 -0.07522758680735593 -0.00799281108879703 0.020832520005578354 -0.09827489784553883 0.007791530894932826 -0.0026265129650553665 -0.19334562124046997 0.08788130275391053 -0.03413140479593825 -0.0759077108137796 0.0591582432868347 0.05415819844742604 0.04731394517432018 0.17834379768822545 0.01738838629162832 -0.15202264031097842 0.006125664116530205 -0.013540087175730174 0.2096691169885633 0.03081407902566228 -0.04581502601564768 -0.00773988240163177 -0.050749830392264036 0.0041189934649066276 -0.04142384542619378 0.03350665130380302 -0.13863539910573464 0.05634254254957748 0.056561423251323815 0.17771373568303156 -0.047790072139210674 0.05693361580335098 0.0484053794055408 0.004901776358217491 -0.204558628946687 -0.07245087204943253 -0.037156138147560525 -0.14227230134485436 -0.04116818527316767 -0.03272458260133282 0.08522668199594537 -0.10977250631773837 -0.012586379071046885 0.0586471845320283 0.23616195067468312 -0.06430607440512466 0.08858180097883246 -0.012852064203584533 0.011749395231110642 0.09553340456302888 0.02595059029481799 0.013592843087414309 0.10972094595304163 -0.008281480899601585 0.06231972963280976 0.1274764665942032 0.1825813736571081 0.22735414315158337 -0.07370976342573113 -0.07148473305322905 0.02300442005649883 -0.10182014992595463 0.04930315941197881 -0.17577908878381523 -0.040185779132238954 0.018701366837686577 0.04405001384200349 0.1014478833549415 -0.021656806332762617 0.07418375037601815 -0.010885604437051197 0.07273775996816287 0.021955668262785086 0.08844701165732478 0.029341316351459562 0.07761510414230745 -0.0027080908365396013 -0.04197246487880146 0.005219669058702767 0.016655940115735842 0.012193211598625053 0.035910467381702775 0.182428024348425 0.12881679909813823 -0.5312866050154351 0.24206007961569678 -0.0710659804000855 -0.28735392312377694 -0.15518726987801326 0.04400601223199064 -0.248521238302282 0.10267355622988615 -0.0023311674509490163 0.007535314825092166 0.1643192574097477 0.03636430325937794 0.09642495078907432 0.15988954804620129 -0.2090054833534905 0.10072333618284944 -0.06839872467630483 0.15409954849436683 0.06776467128173888 -0.026485717374150345 0.10093592936994765 0.19170846628827473 0.05882262704035597 0.3302574219111316 -0.10786987372004134 0.19457716089158564 -0.1807533887049396 0.017140416147631832 0.2630461836438317 -0.12998445675265718 -0.3759287668497392 -0.17263840615761017 0.33497427861828816 -0.20226449098074112
118 -0.09842341062013309 0.014288228699377245 0.18925684214730504 -0.12000858625330854 0.13301805684592838 -0.010576522576609992 -0.12834728372023713 0.04957767786808624 0.010857911703300919 0.034303806443231666 -0.16598330061659072 0.005124276642929784 -0.01449480848145996 0.07226524133858168 0.021082607871710367 0.00011750176617002658 -0.008561371376404175 0.1555305763459268 -0.0320917494027613 0.07215020299074368 0.10497613847555103 -0.08907941666656724 0.023803692494946748 -0.11929321333784924 0.0022229580745621287 -0.07593948205356081 0.10368652753662835 -0.09330193809318786 0.10124556204132852 0.0376778401261076 -0.059970266504055646 0.03857632809288243 0.16986813172875512 0.07026419165562658 -0.016355845357207598 -0.056461746749595525 0.07932173193332613 -0.24418628374899454 -0.27340543379610627 0.03681657755243427 0.14964305398931915 -0.027455290546259864 -0.11423754769118244 0.1046675363825991 0.017986198245282196 -0.15135245452569035 -0.09733947575831955 -0.05959483590764189 -0.12158641732478213 -0.0699535616846487 -0.03448703923648755 -0.08340413131490998 -0.05420460893863352 -0.054694217950816804 -0.07358521944671635 0.0236620129575514 -0.0855838349758146 -0.0172925455337198 0.016712735878421682 -0.06293240636943938 0.03018205361598325 -0.09447152205090117 -0.12003774107816394 -0.21414510777027299 -0.07126192606088894 -0.028085036746791425 0.06697319049904467 0.03488810758258495 -0.041821604085174 -0.2258454442956932 -0.1741388081305837 0.08631709357380267 -0.006271022030120755 -0.04346597309136093 0.23279962112600616 0.22935763056139968 0.25494763124072223 -0.004880186254972953 0.06100327284691927 -0.012545489678751104 0.19491266753308978 -0.01748412024070858 -0.19455636955198924 0.13878117293405898 0.0333578632668725 -0.02087424546329402 -0.06879901912634681 -0.07877999796773544 -0.05673698240343526 0.07128428373758561 0.06293519648234568 0.10302325306229863 -0.17037191438480556 -0.03448275784128092 0.26714316275337935 0.11568173246013586 -0.1628559766679837 -0.24048651260124765 0.0029175837230986687 0.08216160148328537 -0.014465327504115383 -0.1383269617892605 -0.16708233566598898 0.004313495688531109 0.2539106975894077 -0.0035555483604156777 -0.1590784779312639 -0.4368278229910484 -0.013428921113475921 -0.15927329080535085 -0.39609613435151325 0.4444319149814685 0.5067655248802407 -0.3261294695487336 -0.39794558213537273 -0.3968981503970246 0.5061357649245757 -0.32824393699967147 -0.36262390758683427 -0.6071369521845645 -0.028693898748197784 0.2394602910618922 0.22542626317672607 0.19771932458100286 -0.3829783161092647 0.06698904943648694 -0.28708725540306634 -0.6390863981928273
119 -0.0016934729218898632 -0.06951801867301978 0.06371964792643761 0.07118542535233417 0.055212258210437105 -0.03480075492884622 -0.0542222168040497 -0.1607510044025173 -0.06310925007236122 0.041595303935602644 0.06093640875202172 -0.11703303081648826 -0.04988585816155375 0.011674754817778151 0.01493344266791153 0.012813144851338266 -0.03996015074544742 0.03514070958389745 0.010913779152875867 0.04241961348005419 -0.05692828357891616 0.01983937394289033 0.06669102422278068 -0.13118347793300192 0.010888768436430076 0.07933321888761392 -0.11732542157664312 -0.08866074814746462 0.1731742752336722 0.02947152959983711 0.014712303042643116 -0.14681513867108967 0.058688594184449716 0.04989125244304137 0.08964004505727395 -0.03644595289646659 -0.03204592397126974 0.027947826609123996 -0.01182392310027464 -0.05347832172509225 -0.013785244453839975 -0.04842289230056553 -0.1825838640469681 -0.014307484612768737 -0.18203157288742428 -0.002245932384158982 0.018351265066425974 0.00573206425635168 0.005196289742908487 0.07959959393356802 0.03320250877427507 -0.09431854822386215 0.05478780924646681 -0.1578531676203916 0.0556084532094757 0.17233840807537695 0.004609237680180694 0.03975868232883057 -0.06034952138282264 -0.05528083691617869 0.13440568505504444 -0.011945908438266917 -0.12175263807732908 -0.0717977318882019 -0.08228006024765458 -0.031084675801997103 -0.0034873436898332105 0.16875012721374266 0.08624556526873794 0.06345220400647295 -0.012203442536460222 0.18825831846287996 0.08084218181635738 -0.13886758305842245 0.08704908442572531 -0.054942311945134464 -0.09759138169519722 -0.025571640023220814 0.14171782517729256 0.008203639921810106 -0.2030853517329872 0.19164477899232818 0.10336852576636515 -0.2199490570700263 -0.038951445689602196 -0.007208635881269103 0.12906708299442074 -0.12453538152046376 -0.017813437436932113 0.11779743558115016 0.027279609625647138 -0.015440194843690903 0.0362769152716495 0.06006001339092924 -0.05035403213588486 -0.033672417017909094 0.024360087686984732 0.030313795550683396 0.16884771794085057 0.08822370945960978 0.05832208746960821 0.09714424551519477 -0.017383113520918234 0.028020692779422224 -0.03769814030963819 -0.03714861938789816 0.07904331537841773 -0.21328167091987235 -0.17655664344495656 -0.27376756476069797 0.022246995856409667 -0.16245006818542887 0.013746556044722599 0.011870155888120988 0.04442966639866113 -0.18181251603359735 -0.29219286077708323 -0.3015850770639556 0.3185192944450491 0.1587061197355513 -0.21215454842508086 0.16839859191154702 0.4802916711995753 -0.2147850092117819 -0.07035956404526064 -0.18720926764410775 0.4108888283351738 -0.20657964208996657
12 -0.06042077027124668 -0.0592521031425414 -0.08216279323604803 -0.057044888199738956 0.09038732270862 -0.03380262165663536 -0.029578287495654394 -0.026514934523987364 0.007965557814099135 -0.13071598133866957 0.0025498828335020554 -0.02849815016400592 0.10692450888292374 0.04579717797486892 -0.10877962754360523 -0.015561010355224137 -0.00642819807422493 0.0093907618552031 -0.029367129979462454 0.021089645908751713 -0.0691603110860991 0.14709048843952974 0.007516993358505858 -0.04861354425723111 0.06041990912664472 -0.07999304897464732 -0.17878496967247096 -0.09408486790493127 -0.015014343480709376 -0.04990708710365129 -0.01962853683901723 0.06916800789806293 -0.04675151532400724 -0.07215568214896834 -0.13503022754750688 0.08839698590367503 -0.13548664773523533 0.2171924665709398 -0.05553147959660814 0.25485257094065533 -0.00537313082262982 0.022640957674505684 0.002989043702817752 0.003829407034013086 -0.17196082317045994 -0.12336554498996294 -0.1447064828706409 -0.1600979305668265 0.07277675413534354 -0.20686329326958788 -0.06770431623686686 -0.02055326515665812 0.027307824258007714 0.061660958187802616 -0.41266443779342343 0.029677695619943847 -0.01706766758968978 0.03444981206382041 -0.07073730176715644 0.16200908055612542 0.10769748768405216 -0.1297768894618378 0.21260698007507584 -0.0045259225462441575 0.07343015642451024 0.03249926748755299 -0.047088520911980014 -0.024256068176051096 0.12956813474988693 0.09901351915079658 -0.009251908661865333 0.014728876693323206 -0.2761174873241836 0.1605866562744873 0.0221452576027677 0.03950466784511509 0.05753662697496743 0.08659153406803065 0.17458915241673148 0.3559255153497795 0.20826010069697987 0.43985523331919185 -0.2297463990208762 0.132477492573325 -0.24951172719351566 -0.21357256289974288 0.2783244461763778 0.5197794876282631 -0.00526459569860594 0.1743643851960923 -0.024692402992451585 -0.034220442614902674 0.11507476210550693 0.002094037874635894 0.011583821275492215 -0.0053678901847840806 -0.21344142301628152 -0.4965869885298626 0.013166926446456383 -0.11258090835593323 -0.026862039913190132 -0.0457189102807254 -0.010791054554282684 -0.10554430274944064 -0.08714460698196003 0.15879862695017233 -0.3659868963205261 0.12563487691825545 -0.0699494382270106 0.14005496523492972 0.1690766651190602 0.01020142491741942 -0.004218382595135592 -0.1737028340822621 -0.13354228998662676 -0.14511162606371084 0.24643976922051875 0.36573280222999593 0.10690209889031571 -0.32832045520123826 -0.07680080590983918 -0.13249788806124901 -0.22693383535864659 0.30742573315502025 0.2776092958500096 0.6279404774310222 0.725191671726857 -0.5283656657504179
120 -0.01557471569977964 0.037816977718735045 0.05502577971286844 0.026549901116140574 0.08128728920447924 -0.12501565641294546 0.07803262568128859 0.0364112369246586 0.029842941344810504 -0.08962547357820838 0.11312626351805376 -0.052036324462169256 0.00627323171576812 0.009871951085030058 -0.044717413947422804 -0.00865482829015709 -0.05727697842629827 -0.014128653367032819 -0.007149202078899057 -0.10397194044891457 -0.0073967051989728885 -0.09869959684969645 -0.037139067652668965 0.10729949749506658 -0.007796514167915442 0.127294427720441 0.04914774480342695 0.0044538283561624285 0.0920656920024313 0.025379995091681935 0.04787891063065626 -0.09792898153594157 -0.0036146286020302862 0.09765883126528624 0.09698338054600389 0.0023242424404188904 0.02177353742032121 -0.16921130460996578 -0.007389539018203261 0.09658269506431562 0.0463671294295832 0.03619363149926908 -0.05122803718807489 -0.07368179020815734 0.0932124332794211 -0.03945016572005599 -0.012325069709461938 -0.03697824387155033 -0.02310172531224708 -0.05339448504975855 -0.10919755446130647 0.07749007876246408 0.09642734199812159 -0.10947836508699366 -0.1601935871906987 0.010274070652821755 0.08181357243886268 -0.08427353365552477 0.04345111301853593 -0.17625486252946135 -0.05184983928789724 -0.01043131089480248 0.08430021158132064 -0.008710709618538821 0.01779124837142785 0.0264660911866811 0.022033044535184645 -0.1304179449846369 0.23304917509614034 0.10419753229252642 0.061518647713582654 0.11965551267654168 -0.08700062543911741 0.1405584459096881 0.22985827747275592 -0.021828715193463404 0.16858241995356238 -0.04068802274025521 0.09931972011966464 0.03679529814206526 -0.16222113078123868 -0.06251534020232583 -0.028917737385993687 0.1474536069184523 -0.07172509614795503 -0.17226136175427587 -0.18314797379403297 0.027818435356185122 -0.041669263346795944 -0.0278496598731864 -0.15554986639947968 -0.013086197013521043 0.12018943265786342 0.03887834264451099 0.10220444623161598 -0.06729840650127156 0.0212808680852982 -0.16119373732408465 0.09535758604969745 0.06893513337299377 0.2032753204355468 -0.10576535318026757 0.15025996299969419 -0.09299858665419651 -0.07389899434545895 0.1772796432132654 -0.08159848260487035 -0.022530155948228325 -0.13414452254326933 0.22698211490640363 0.05907454343846862 0.0043307106202928386 -0.0869488416620887 0.04958818253992644 -0.047743276262166436 -0.22380335747712685 0.11868092909271163 -0.005499243245374252 -0.055300625085609866 0.05203660478045643 -0.30805834039045127 0.08793155901027516 0.09262059057176203 -0.003125408020512046 0.033908349367154304 -0.08676978022465845 0.19869531605991722 -0.13248645919578608
121 0.003162106989029209 0.08680240580725279 0.0005287447683673207 -0.08452381789022569 -0.1034739494875134 -0.027219647680248257 0.015422889493647665 0.015736222170137613 -0.0434221423576708 0.024087916363271383 0.0634707503175265 -0.06820746687435994 0.04966999201993477 0.03343884173101122 -0.08710956746218557 0.05571656954325518 0.000695989774499332 0.0060270813395031835 0.013201204355414803 0.07127946938796556 0.004398947902499372 -0.1836777406030205 -0.02093753107981872 -0.023112917579211297 -0.01741694837367716 0.02387578619665392 -0.006901282206532063 0.012431028790052489 -0.03479199472131284 0.04406435798207765 -0.03084097903031706 0.030546907818849122 -0.01873721476303549 0.0032128559548886817 0.060475370124882716 -0.09203639226106947 -0.003253015164402256 -0.025968987892588613 -0.05765149217781003 0.09051454866046553 -0.026320898429452132 0.07869279179077206 0.05620885459770693 -0.1471149987127238 0.09187503027775148 -0.04583333889364466 -0.054358641801892996 -0.04355057892227549 -0.018853079663428435 -0.11909482982765293 -0.10255254498285205 0.008169932131653311 0.025633772900154287 -0.06991061379049815 -0.011885455279835363 0.020576182219172543 -0.03533868668714334 -0.08518854069727068 0.0577101070886452 -0.09586891318189227 0.052886548628713115 -0.005888144207339221 -0.04339351027545942 -0.008363011300152576 -0.0594561344142943 -0.19334134555009083 0.01919087852592294 -0.1326181498050972 0.0679911616975248 -0.05037632087477013 0.14280349841135787 0.1228193978307709 -0.03570825613225144 0.20523069868333563 0.036244362549328196 0.04279882541532167 0.06526793504403762 -0.0980725200025498 0.003741020275108113 0.012163715436241817 0.10581505067051401 -0.03213439819698023 -0.038537059789288466 0.08977013502885837 -0.04590729754063799 0.08507240128318463 0.014196818491240906 0.025712834109545238 -0.2305199198146229 -0.12266612048235642 0.03591860523625888 0.0548542494652315 0.03439862842597358 -0.027034076169895227 0.09725078431145619 -0.20443667961284187 -0.02930609504057079 -0.0012035585257035312 0.05196171699854992 0.20241710702831422 0.029230445483343654 -0.0832668942770683 0.04394213476140304 -0.040105353573081856 0.06406899023196197 0.06927728548994622 -0.06838319199139901 0.17917645144637823 -0.11704815742238246 0.0207463313317688 -0.010745027835809393 -0.02749218274830806 0.06125157160728851 -0.06695748915430794 0.14027368425360115 0.06037056915107013 0.19628093786033962 0.09419500957264497 -0.045604847675875776 -0.08019292721180708 -0.2697581421861537 0.0844964133317233 0.15143101905752201 -0.06749635260501215 -0.16135761603368848 -0.2783226527354267 0.15980991221043003 -0.10948942157018118
122 0.018013742136448494 -0.04868130201372631 -0.02367610585010053 0.0705309315753491 -0.13451945989688732 0.019194742701799293 -0.09177037706746335 -0.030436346645450734 0.01413973918061972 0.023483636791471616 -0.024819611937614065 -0.08144217681439651 0.047668016765885786 0.00798478255215926 0.12883892235046657 -0.03109779496695914 -0.00851661164076931 -0.04396673402047874 0.029554573088798827 0.06381381783126872 -0.17207036060110076 -0.026619514389445986 -0.073794273930843 0.06825325731763006 0.010740835786053868 -0.11801176622246783 -0.023444409427268567 -0.03757758636107964 0.026488692683548618 -0.1323455185941072 -0.10718557004973907 -0.031493843011542066 -0.08514348514503677 -0.03548544234614157 -0.032435512155518424 0.06882823415040389 0.15716515673949874 -0.17436949931985826 0.009114064896784943 0.08903092506622237 -0.006560886051578257 0.0576795913856068 0.10687858950224387 -0.06825948837476023 0.14607244364145405 -0.21159566195083163 0.08248235812766191 0.07638208118582779 0.13190718319037015 -0.10718097084203643 -0.20213172427279757 0.19102919890397924 -0.12695219649413003 -0.04300407514914803 -0.015440039733332923 0.07048534018038234 0.178696701330681 -0.02059493997329105 -0.13043547668014954 0.06753645023039838 -0.18171922383097505 -0.12159864414672385 0.17297951158026156 0.06371948149148011 -0.10489517846839239 0.05049274188916834 -0.018678975141621715 -0.12165087723204633 -0.17836415738675185 0.20253473428184895 0.011763796591040297 0.04508007180140232 -0.18182841691684473 -0.11289151995165533 -0.08570637824302056 -0.09579340373247087 -0.034663543340284056 0.03578538684134954 0.06247537358202625 -0.046205130242554876 0.1482042682919958 0.0037239673693562295 -0.047453646017952544 -0.030629627726804973 0.10386674203926412 -0.019596617688453624 0.03998323545600705 -0.052564563805365956 -0.06377433234736206 0.01049683805944461 -0.023796992496678698 0.05274720993322038 -0.05871758404333116 -0.06382289177946203 0.11396857380656819 -0.11827093422863866 -0.23420292195727097 0.025531854328910038 -0.19720216653016898 -0.09582173597312742 0.04629349520713842 0.12334029262523644 -0.0224138581432473 -0.02385570999859135 -0.1159765767250779 0.2189544785929141 -0.10350597194273498 0.13792486305696686 -0.011252971577298317 -0.09813963778417739 0.1831539530746511 0.0072101408720437465 -0.015218454614879915 -0.2494858859583348 0.02887422312114459 0.2767649349164097 0.28333015233875763 0.1381040583669915 0.029450088131790352 -0.3544868139576052 -0.12144964429037244 -0.08371105588085842 -0.26720284200236866 0.07912016700154237 0.5438869049139436 0.5638716203168352 0.7121709286041222 -0.4318934202036334
123 0.013689141176610213 -0.05462766771728693 0.00926941402368485 0.008401326617402725 -0.026459263922048813 0.011146504071255886 0.03410025821003558 -0.008209374020126526 0.04258035712936772 -0.04607728021132056 -0.00564096483788129 -0.03270763238481914 0.0012293389906398104 0.09278742244603104 -0.03406835105426404 -0.13662653462504154 0.027666127106669172 0.009714918656962114 0.014646113770653113 0.0004977074604651036 -0.05141164118293127 -0.07896055893838637 -0.05487109436693664 0.017538942283297415 -0.005938548826634009 0.16020338127024653 0.007476885810266109 -0.13706788570887093 -0.04140522049395233 -0.15037165987363463 0.15084007393119742 -0.17914578174827137 -0.04732415961753801 -0.10511945122247526 0.49778895638023846 -0.5384773927095801 -0.12983123185598286 0.5951087911150961 0.29473880493553617 0.3147241470075344 -0.17550419940425482 0.2075604811494591 -0.5132629545616432 -0.156229066200414 -0.10314199600720327 0.2372181429999717 -0.06042609798532858 -0.021271556115527782 0.10959751806407826 0.1579105427018361 -0.31524968275075477 0.12282832069131286 0.022835260421304352 0.3001919804096558 0.16550525600848162 0.11246555042195533 0.11642427186701278 -0.12619234171380675 -0.3733429036616332 -0.0850855837195803 -0.5072600890341107 -0.030539873000005154 0.19819048504502368 0.21609383797899243 -0.29566718164643446 -0.09467388215316186 0.1521626384071539 0.30685386420495997 0.3454062021178817 -0.05358228348960133 -0.8449156137787902 -0.30367695328480254 -0.24719519780660543 -0.07748514617553268 -0.3910482629161988 0.07868372862632338 0.027706983948755717 0.2263367343646233 -0.1335836586334793 -0.18128908835721583 -0.11461230273043334 -0.4144071375205551 -0.3076870153028673 -0.2234429937629961 0.4469346142223847 -0.18360283827274712 -0.15387170351760573 0.46232253863339057 -0.09848307440619955 -0.13138219040443933 0.13234257280689218 0.4247009370988701 -0.27923864210027444 -0.017390361980518847 0.11508628642070799 -0.026592319052437714 -0.04769601910710971 -0.2685607552293368 0.019534764254343345 -0.4129244747913187 0.1994883210570052 -0.3062959570715317 0.1352921911818241 0.07522748199190459 0.2422534847628949 0.034045409861816416 0.017129505063376117 0.05626860499877321 0.4274499865856306 0.16212008432817446 -0.11780930805093075 -0.025191719449323063 -0.12923321167879956 0.030069113521565393 0.006650671628916457 -0.0633587518600334 0.09791890179883109 0.26485602641238426 -0.1948712203715929 -0.2891537856767713 0.7759623159042884 0.28884206239649013 0.30281476564236437 -0.14585743796147235 -0.37393624945690424 -0.6418423041011307 0.47856835534904935 -0.37370852582899045
124 0.05759487671514462 -0.022699150126775175 0.006275737323637125 -0.13594717603085954 0.10678138792865777 0.025792372982733607 0.06682203972353584 -0.05862876177636508 -0.033532203329825656 0.029676669934832086 0.07785800187238331 -0.13925462334288194 -0.08687022332838916 0.02028373055528597 -0.07597196798362084 -0.011435946450543747 -0.048000229044667886 0.0331091628945384 -0.06389422762254197 -0.12018925885027483 0.10676724920202701 -0.0132758678866014 0.0009255378148309067 -0.03940614649258379 -0.011174547707894476 0.09294043175342236 0.07775619853281698 0.01579546554110524 0.12767900306510468 0.02680876830925919 -0.0704388754010323 0.002509504442657841 0.0606940505917048 -0.048057469318082614 -0.0735201481671609 -0.01832206032853522 0.03985152703259831 0.015031394574105196 -0.047158972582282216 0.02070965179672485 0.08101481336936227 0.0111424145096334 0.04475243948963109 -0.05080343969465361 -0.09910795463639986 0.004047619234534011 -0.0016177841234335806 -0.0664479041023076 0.02411979242475779 0.013415081883968246 -0.04598390722522364 0.043101489284482625 -0.0016840247110646975 0.051479388219959336 -0.03168478790891178 -0.038830248406512925 -0.1079733277714234 0.04049269262585817 0.015009482337096139 0.00424066518768474 0.0652663790445327 -0.03859745408300234 -0.05298371638689786 0.018137386886738945 0.0236823705735013 -0.013882352705936848 0.17157755573331532 0.03203570866534379 0.03740864517119691 0.07468579290159617 -0.026363081602266643 0.0689753032343867 -0.04835016590801334 -0.0021879591758057833 -0.04181971852217797 0.1556723087131339 -0.016468149019968608 0.031073900081347323 -0.08400445757019645 -0.07814416451633112 -0.04018030516299136 0.16151798097707773 -0.008988415398096649 0.06204160110220677 -0.12857324156981043 0.015578777167865225 -0.03255725891101873 0.06723800172804928 -0.0903652308832835 -0.01735874734992598 -0.18006179544244497 -0.020881356411728384 -0.1862567414844327 -0.15523419768723404 0.10601721433599882 0.10995700939347522 -0.08727896263575834 0.024920090379252368 0.007911614175668217 -0.0226588401174309 -0.09013288808768895 -0.08479296163762526 0.03729254428447218 -0.29569888565337055 0.14307024200839671 -0.25787413275311977 0.32064552816323166 0.10667291478247529 0.057095438917315555 -0.16630258204377202 -0.002513551533333657 0.054182585373719984 -0.30021278411017643 -0.13666281064379374 0.32122960412062324 0.07214085841542538 0.23093072272530243 -0.20088205551730895 0.2076127735895275 0.3614963520009939 -0.04887568241434623 0.40844849770100816 -0.5272498787473778 0.2539954661383492 -0.009633376274566898 -0.11722171060195499 0.006516808512401791 -0.2631856207557502
125 -0.0011334167351713426 0.025695231379114874 -0.007316068395715644 0.011665803384453624 0.01937181231013942 -0.0015779844863016681 -0.030221173018342803 -0.005825261818447327 -0.029359908587153507 0.001273525794602054 -0.03332454955154955 0.028773192562065304 0.051081952602406486 0.018531665194008635 -0.0018794887464589534 0.0008962136032370114 0.04753098334757747 -0.0060666234566393844 0.1045880671430441 0.0072725524316518885 0.03771912130938078 0.018600355725433004 0.14773930429346943 -0.05517543268171176 0.08250594458127108 0.006778782502794718 -0.17198651344349003 -0.13086286159313965 -0.08999875278162034 0.050328373545038524 -0.08233778361508226 -0.4015347980254442 0.17131831508357537 0.02228923850516178 -0.07050221207402765 0.07512141967618816 0.06350384475225848 -0.4298978148271283 0.053025074050574154 0.21231223953921413 0.27009584486780736 -0.2120946821034509 -0.2658863958412551 -0.2430279350208622 -0.4187534995440082 -0.23162949050550297 0.08787931747107083 -0.15556247232902676 -0.060405898027964255 -0.08877274003829302 0.3691046859547802 -0.0360628297724838 0.04561647201529025 0.2654896062737894 0.5344792280934753 0.15940813455076777 0.5828337700593378 -0.17814331571169514 -0.09735070109182756 -0.013366140084324723 -0.14525155580684865 0.367660434398701 -0.21403843100635092 0.0674384761617565 -0.28024853738857386 0.11768212256531728 -0.21979877924743363 -0.4970326825208872 -0.49529175974172696 -0.1116993041302463 0.17433327606980248 -0.15588561632260237 0.15733541770989412 0.6562639055999561 -0.13429890554590318 0.21080316534159574 -0.33632269139712284 -0.24788986704933327 -0.5975895420372189 -0.32257894901956674 -0.19403076743149436 0.05241010907815032 -0.02178749213230401 0.1430707087773319 -0.32019677505119704 -0.06719026775369102 0.41292612157794745 0.35609312871991294 0.2834244908254733 -0.06473381721312457 -0.6316005873453242 -0.38162806032197744 0.004104496772593736 -0.2918562814003465 0.6223678244301573 -0.2368437982515191 0.2953818732563933 -0.36918007285482096 0.2151517604953516 0.04227929120030474 0.3621817759863388 0.0039488562662391554 0.17640294212898286 0.10259307503924128 0.021752722706657086 0.0014052980116527093 -0.18803209243590532 0.1651182180782781 0.815766180692507 0.025669686233960952 -0.18274059132238205 -0.09736179925311382 0.12658814570929508 -0.1617250314145562 -0.024946275830681118 0.17464185480337158 0.0436250055566983 0.41542048007596544 0.012337323581406351 0.24744916061491434 0.6605632157205265 -0.005583654763093708 0.3851519859985589 -0.17466706807506488 -0.4879591374784785 -0.15589469827189753 0.5682183702176256 -0.36876748291821104
126 -0.05498796982550674 -0.022276253182073477 -0.05813245050907099 0.0792624915031454 -0.033343796706898896 -0.005079745811255171 -0.059395681569184504 -0.14481773660080097 0.0022347448958540965 -0.1060933430709475 -0.08807908083685517 -0.03084749990203324 -0.012299107801347084 -0.0757374267673495 -0.06529999364600465 -0.029063870141228142 0.11953250179647225 0.00014351418742864508 0.009461767085158812 0.09585300034776648 -0.015598334882609938 0.03741549236819948 0.003911467864021129 0.007484171030770162 0.010426465211694063 0.09327899270314402 -0.1300821094558005 -0.091003380156025 0.05501794336844811 -0.04241382291119573 0.13600889785115036 -0.1100259018199592 -0.08141789222926553 0.06931034042813114 -0.121960505967164 -0.006963936503291837 -0.021992080538130412 -0.10707540946201291 0.12364811534622294 -0.020858295398363084 0.011490683347705456 -0.31768913584797637 -0.1588447466039234 -0.07133825331298382 -0.07324874613270022 -0.03952037666871471 -0.006228053842549005 0.1215431129317597 -0.12158539599564473 0.06596222894369878 -0.05178721367579083 -0.19818099397851546 0.05311906790077312 0.037170065410308595 -0.022095104941548274 0.03551905966174681 -0.07347917002508408 0.14904745423270854 -0.12363993113073372 0.014668730313224085 0.06065431006082521 -0.12670878511234943 0.03367512189060006 -0.07811412113053785 0.013715908408229253 -0.10864903187082797 -0.22317270485765037 0.300912188711376 0.05916036478684738 0.08468414952709077 0.2096867426611131 -0.04951267338213943 -0.06275408199951811 -0.15829561303843576 -0.18081880070836748 -0.11434711989392407 -0.023966227415259365 0.044574132699498704 0.025951133660778333 -0.01734302667414153 0.03419076039960896 0.15808419736995163 -0.05826351751535234 0.006499233976660029 0.06976197104027201 0.20712386564521867 0.029090455422091453 0.02497110183849172 0.13759133850830282 -0.017498603808686505 0.4225922133045254 0.08982679503919362 -0.04736533724118804 0.26846368811286264 0.32723385889760565 0.025444200576834893 0.14523694225295974 0.07825277962290675 -0.06035069698399863 -0.07706899888781282 0.19145698088819263 -0.27291693409346757 -0.11198494310228498 -0.31577960716737685 -0.31053640402110283 -0.04418941044006175 -0.13484448718955452 -0.31650735108163724 -0.008058321318979251 -0.17035394186884859 0.1668521750954279 0.19910720300224177 0.3896993732527404 0.008760373396501344 -0.26105127520177457 0.17795568597877962 0.14130979580944275 0.15473607972538667 0.030819582619198455 0.29985364589911545 -0.0977343803394664 -0.07136777221886423 -0.10885114343558346 0.28442165747580567 -0.44374973026565023 0.009209034331107596 0.07745190694043048 -0.31172451999294143
127 0.01309875049939298 -0.00435157015858576 0.0448315500874322 -0.015148354659512947 0.003136360053159711 -0.03031223596512698 0.015838712152311994 0.2094303705994334 -0.015378173471530652 -0.05603920547856147 0.09172805309905734 -0.0530522925907609 0.10932175726870873 0.032687677081904454 0.056515052581954106 -0.019503671641248818 -0.08597204674461975 0.003313146687441482 -0.01148852326148064 0.02366719123891631 -0.10850628068004398 -0.10227267926818881 -0.006937443948351236 0.114096177188072 0.03669447904994933 0.18131509641334606 0.009497567801798373 0.014628575980497743 -0.10250113001245215 0.15532495472468988 -0.1470928346966936 -0.0026692019847005077 0.040986725342710056 -0.18619074556159354 -0.18648373700897852 -0.015788255484549957 0.0396144826079738 -0.08651841964112879 -0.01492717078174554 0.07211228522100979 0.0017225990722340837 0.023129136483769776 -0.11119837511911458 -0.08527417801574022 0.13606580322291356 0.17979902761863525 -0.20695880678837278 0.012617475267043642 0.18678028699594998 0.03833305425040943 0.11874727358759586 0.06952139038428333 0.1425961173096795 0.21318206915343452 0.15126076465534657 0.07628318761348923 -0.024866357541114006 -0.06043248367093567 -0.05600740639252157 0.07307817819742787 -0.0015269892149162643 0.05059947338743039 0.10882481622140183 -0.05829797436102513 0.08035293544430169 0.21903281859264712 0.20184507883944405 -0.045379872558970955 0.09383494650853631 0.14501596695032412 0.09125184169534269 -0.02601682269615918 -0.05199244810863519 -0.1058052183769857 0.2438696222415332 -0.13812985778080505 -0.1435734672143062 0.13129017099237766 0.06144239771641823 -0.13346380780585382 -0.18406786543515485 0.0438833878356533 0.01641569763267088 -0.05519012598755636 -0.013291579875625266 0.1721399746626383 -0.11850676985883182 -0.16293796060357013 -0.07115923891188143 -0.01571020096273731 -0.2556971537008009 0.1934359292354491 -0.21366804185974275 0.051366389013436375 -0.02247007325947326 0.1245948023619442 0.0007129031491658958 -0.23112347036497644 -0.11027859914439485 0.035951688933377725 0.20057560188967244 0.12339812527369891 -0.14493809777904842 0.10903138447331519 -0.09071188811822692 -0.053202484185087856 -0.052712047092134576 -0.37380121931570803 0.009183331315570297 0.16991910311206282 -0.1363475235832804 0.07195305838166524 0.06791837746002696 -0.22923991066448737 0.1286178560386595 -0.022277110729752775 0.12764848252458535 -0.2605440007717258 -0.017049897078682097 -0.017318262904131892 -0.27174245899362165 0.10229768340219618 0.10715936411269023 0.009486856249418855 -0.04277556631374703 -0.07940177682544522 -0.008120430423723464 -0.22104884749402065
128 -0.0646854419086677 0.07574550779091693 0.0704699693288789 0.050594156524350495 -0.02449471387067871 -0.15459895674830318 0.03701695616577961 0.1769245058835274 -0.08393916819146637 -0.017754216825707825 0.018449463400769913 -0.006000582788988796 -0.06852292517994925 0.06785490700915625 -0.034567228788068886 -0.029874284812106383 -0.11656552927276263 0.05609167213886262 -0.06593308628274276 -0.08265414804511362 0.017703866135560384 -0.02522557237007641 -0.00356290092013613 -0.0484217256952373 -0.03676850435737984 0.11746761630712792 0.04273372334108785 0.05411124288634698 0.17793786589496946 -0.047501593630088636 -0.04567026314823739 0.07655059961132807 0.0042374727905759866 0.0385402558500797 -0.005149956208475066 -0.08674891534305865 0.013458220265898923 0.036091708167578396 0.03176554658882795 -0.009919973434806878 0.038618939605842756 0.013857209346467636 0.007311370743919516 -0.03840526173275649 -0.09110829082295797 0.004677591832129991 -0.01153196523525301 0.018839623685387438 0.0007980339431639115 -0.00816939783926162 -0.03842039938417306 0.002107601374751914 -0.003715491783731222 0.09894523018801189 0.041971066078919636 -0.023829470795932763 0.03481902534370804 0.0569819094679249 0.031643112608210275 -0.029727110653250975 0.035456457365668 -0.03389982493735136 -0.14507936561435208 0.05990088737876195 0.11818019806823925 -0.08750334236523118 0.03239547555382621 -0.018822278795511693 -0.01704490375680934 0.07966040548579831 -0.05858953607776384 0.08052893400965296 -0.02405013863131696 0.0790359462562872 -0.021254970817913322 0.1295851928631312 0.008968095193538273 -0.05568410419460784 -0.05728139695158221 -0.09728317983228518 0.03572404610759637 0.11128116136969872 -0.17381019139705403 0.008999187848712566 -0.02759266052709769 -0.013102256511962224 -0.12294999098912895 -0.02607659074217397 0.11484581230686534 -0.13129931110755075 -0.0035773931243564937 0.04543725225084869 0.027305018752427808 -0.26915279694517513 -0.3751270322090373 0.04112506906790503 0.05410945505073775 0.1536131128513026 0.2974537840190922 -0.07424548692123642 0.0726892620839648 -0.21523287674085506 0.27646910268420644 0.23481486512941835 0.031971064292897866 -0.23882991692701275 -0.09834795906886666 0.08335271950184349 0.05597148299532298 -0.2335528072844663 -0.05250028358209163 -0.009858140197748387 0.1603770652037669 0.012384587678649995 0.021043486555608202 0.12396358178474313 0.16039922673332122 -0.099968755930344 0.08317681103524957 0.2562637086182091 -0.07677314402772234 0.3525751713927039 -0.4913709931744869 0.16808165396902675 0.09436259510837484 -0.13233045295644105 0.06101825767585827 -0.2060636749157883
129 0.08216502301733085 0.011193665384380791 0.053703040958205515 -0.01970273883644033 -0.04184216911327595 0.10306434371698843 -0.0264628785384186 -0.007390061928135031 -0.07616544936998505 0.07642103639833363 -0.11214887005992509 -0.046985325825098165 -0.01893618727568004 -0.015798691471871323 -0.016721981134415472 -0.0193568244400826 0.0326826303632763 -0.001229514518629944 -0.03907433043489776 -0.049602918841366056 -0.07516706284007893 0.16984994979272214 0.05295024820537514 0.11890350300599964 0.09647137959953336 0.14235784229049767 -0.09507315361084324 0.12308866745913807 -0.08023095827408958 -0.166572678100198 -0.12368583881468029 -0.023106285969564967 -0.17846663366748988 0.1294691327569182 0.031145510397765752 0.19452034960008263 -0.03804543403974214 -0.15475080502602778 0.014782741735352649 0.04175321420248464 0.007157830955317942 0.2123286586705182 -0.02615444961209098 0.1430985840091365 0.014171514278653942 0.2169721012168799 -0.16696419909711674 0.12115951391950845 0.1128726079281496 0.05489397489624068 0.024137319336584775 0.09420294764370861 0.03862843339409537 -0.03581558500863324 0.08979623705692066 0.08453112196993337 0.050105738853008897 0.019785891869847128 0.004120017422613438 -0.3077970491687232 -0.1592923402178741 0.0213833117969219 -0.09379482787043757 0.10200577721789662 0.13433987299801758 -0.08374984174773215 -0.1756875545166077 -0.09949124854624174 -0.04174644447499281 -0.14795868895487058 -0.1317857220832053 0.12974102349563224 0.0703894788897131 -0.0653686762995672 0.08791945297993006 0.020541614855690754 0.17332444953296364 0.3158045389293916 0.0068954148558470875 0.17732363758558067 0.07988636699964066 0.016669342545786562 0.03963573100861932 -0.1767884631514529 -0.18048888182390205 0.08334485187783612 -0.019978914012772478 -0.07141308357798429 -0.03586707178800898 0.014220779710803592 -0.021170782775292194 0.10997778473700334 0.3560118490230477 -0.002615746887427103 -0.05357913328948849 -0.09717025005429715 0.07034963964418536 0.2153649814130225 -0.13545160385903143 -0.12363989886747699 0.03475395593816589 0.056089555160416964 0.3315757330235871 0.19899406837261058 0.1938131122922795 0.38409591052959463 -0.22626394234959557 0.2945110841505713 0.14617510100010536 -0.1365803666715634 -0.37949606339536696 -0.15747188322134628 -0.22337843997827206 0.16612254457106498 0.27074720942602526 -0.05756290989494626 -0.30172262445468145 -0.21802815196733508 0.027363871109632707 -0.08687886307985947 -0.02316209509929774 -0.1824396560218542 0.0989239810554635 0.16722884496957 -0.30053039966877065 0.24398793318841472 -0.661091422774522 -0.9854984236586821
13 0.012292982900620626 -0.01466144621149603 -0.005811873476278107 0.08344840093232815 -0.08124829298044975 -0.1350712265864102 0.040039500589216986 -0.07794216284439978 -0.015188125796607959 0.001493491601870131 0.02934451435334962 0.09589464530518389 -0.11225703252974822 -0.05273694171026158 -0.06484475728001933 -0.006877592646306652 0.023436560768381277 -0.0412497130942741 -0.04360490691611579 0.09823180660404958 0.0022935348643730274 0.09865242447106003 -0.10803035612418657 -0.10175318943996357 -0.021150960720176123 -0.1615263958926088 0.07981998622272472 -0.11108336525035638 0.10838904895171174 -0.14549517854407354 -0.03776827410376726 0.006380626629466644 0.05448780903311851 -0.055310670494642916 0.07166298259179991 -0.013616015855402315 -0.02007203419274576 -0.011444785691244323 -0.08370587179295594 0.0336289668480431 -0.07058452131654115 -0.19372753821568645 0.060764099257920444 0.14171672350319642 0.08005893793047333 0.02695930913028604 0.16868033908364677 -0.0555854964926006 -0.09617720597941849 -0.08607344563326697 -0.008326956694308113 -0.03400498890611124 -0.061481408178464994 -0.16266083790884137 0.02357907876164248 -0.08124992446740387 0.13084349348828142 -0.0810785505908855 -0.021905487813011056 0.1568280719484689 -0.12350473411338204 0.0059294567630130395 0.159029468114554 -0.11921129909899437 -0.07044720445392291 -0.08813720531286688 0.004129713524175704 -0.0934801141548583 -0.05396821610178643 -0.06926344132382206 0.027233009791977538 -0.1863239493164272 -0.10437647896817011 -0.032894165112190246 0.0828139251938687 -0.16589367502351557 -0.023144641571480426 -0.197896725223403 -0.08367868301889571 -0.11974510645089156 -0.003416022009939808 -0.04367779093337237 -0.05338875120669882 -0.11968706083925232 0.16405946092989016 0.07063159778263095 -0.035529640027504736 0.07274878678743044 0.43637305109768415 -0.09986745063679145 0.23880847506132738 -0.2029084077022222 0.08113819436128955 -0.11902815119798432 -0.04169893645930811 -0.2619941122415825 -0.31629649652161473 -0.016822990606301658 -0.03743262755919239 -0.08585303001371385 -0.0656276595384665 0.12131179384198133 -0.11548510149311633 -0.30764415603154827 0.16157744026950735 -0.03445878170598639 -0.3205124459011519 -0.2798678305273058 0.0903104883737048 0.07602187474655803 -0.27758876608667327 0.09160573664093515 -0.14491914312178142 0.0017551445385464168 0.08964870105582556 0.20850210409329156 0.0005168695609925628 -0.05271913018094979 -0.047443906238544074 0.01042127225988145 -0.07623927335097366 0.022324626456049074 0.09365597097614123 -0.31008269119605586 0.2202848937479787 -0.013742673227587484 -0.49065386355057744 -0.6853011120405507
130 0.009789155258906238 0.024929239980142813 -0.020699070594181544 0.013258020790025152 0.012772702494609038 -0.0442753478673873 0.07123167168830526 0.03195074379633305 0.05630672746195385 -0.014674320083651073 -0.012454958409029285 0.017459505159985636 0.02727837434972181 -0.0770062871086521 -0.0335022406335367 0.046791406198643894 -0.053264295862775334 0.030976772191191455 -0.039112256978905725 0.039403514318480354 0.016242643652383978 -0.004942010966051913 0.08293681936293949 -0.02413477519792063 -0.08941432499612803 -0.011614993908985035 -0.1759881564692275 -0.1864306190912204 0.044358954811823774 0.20757240858505702 -0.02744568710795184 0.14737332438456574 -0.13191861497793028 0.21431479524245722 0.32052536167476814 0.03629778844808858 -0.6126962242895762 -0.19443958693331825 -0.10291395180154057 -0.3491845532328575 -0.6494031699420658 0.08145636766829624 -0.22086175978449413 0.10787146748229996 -0.4851921005891341 0.27257517430465533 -0.2600437416811422 0.16600598697264662 -0.15826320411447617 -0.051846883990557535 0.021422756300271097 -0.42162266090210293 -0.22052891219266468 0.03086891843623476 -0.14506110225499289 -0.16205172688737207 -0.09353598579101113 0.366165361865421 0.09781119800159407 -0.040637078769222366 -0.22283494284041497 0.4212976858542081 0.21996456218613686 -0.0706061197230366 0.2797065383131818 -0.05245973806644999 -0.10777664006957044 -0.39499334472397424 0.14070723378630617 -0.004942614365533511 0.23467141883293036 0.10949839028310827 -0.2026272132402948 -0.26897913301793586 0.21534589141767485 0.09658308985945883 -0.22569973504374968 0.22234158693223785 -0.16369123779639302 0.13958674178000602 -0.311118396771562 -0.5246163885346086 -0.3481140052755393 0.4997782228168669 0.01998276960289962 0.28659012235210357 -0.6207476151049217 0.005100195275792231 -0.21466523284345146 -0.15613216566862312 -0.3647037333542437 -0.014692743839391962 -0.23595283319702418 -0.07866852303379816 0.27801142101697074 -0.14748275616137108 -0.307413140444393 0.2882422144305851 0.02101802570284049 0.369136654633371 -0.33064490083052783 0.4487015310489069 -0.3942818434698931 0.2183332393947975 -0.033803890301856675 -0.3505928992187982 0.16795032423605957 -0.013525894736640856 0.4822464860245036 -0.4501935287698689 -0.06911710055528018 -0.13161842415759756 -0.07143681902284875 0.22654414035739204 -0.2724091912713104 0.33704467629546436 -0.10773117666681248 0.14968394568773558 -0.311272508802324 0.05112223660626321 0.2771685598608965 -0.503007405290451 -0.09095663387081332 -0.14536408174273668 -0.014678861348499639 0.6361843213903656 0.9903038552291871 -0.5767069431998215
