382 128
0 -0.01121429839275689 -0.0351836640571495 -0.019258457597669042 0.0257357826229111 0.018232583833663916 -0.0070208176025291875 -0.008488193563826772 0.050037898446763415 0.008518232840066291 -0.01866182846209705 -0.007067655110592712 -0.0564057799950821 0.01514584766376584 0.009715753398680782 0.013103679452150744 -0.02061783816999695 -0.07602631830704437 -0.011274382528931988 -0.03445770176568331 -0.05616014373954166 0.00459029627892529 -0.0741033778456349 -0.011979971497755443 0.01930139430353044 0.04040421256028464 -0.019426063970704677 0.03167387434969854 -0.13642437208977712 0.0014269755441059296 0.030105932550598437 0.0011814624338755044 0.04153205159972661 0.04670657754714854 0.03728703029021802 -0.04316996834008861 -0.03105198200748813 0.04269170287689499 0.052471287313897524 0.06643734605944115 0.016404956528176508 -0.012357071229625987 0.005067573719909676 -0.00043181182560977026 -0.16643639383183087 -0.08256769139633559 -0.05990863133071724 0.0060230486363014955 -0.03673988675146753 0.025823289986699055 -0.07674673476674299 0.017267114372846917 0.03149385104809361 0.061444451722414514 0.10423396979574315 -0.003262057799265449 0.09324936857308318 -0.005896598684573497 -0.04144246698771922 0.03948186678893225 0.004923891640182477 0.2311035643428179 0.02714625663076689 -0.09912513974913488 -0.13538048197042696 -0.09338688158160764 0.060244927779752246 0.050679421147592135 0.13383524340852607 -0.03146640828090966 -0.049683890433827864 -0.13791089675357837 -0.20474484561212794 -0.012686078921001013 0.10503890224621878 0.09151651215323241 -0.06050874475068214 0.10472638272476466 0.015047838566770796 0.03949713284455324 -0.08720046027181938 -0.055688690480268435 -0.13373918174989535 0.05813207603686583 0.09002367862482452 0.005011569444979462 -0.02493622273356751 -0.017415867584355683 -0.050164223914600035 -0.019689122274295354 0.0405561832956763 -0.11808754282173928 -0.036943933476164675 0.10559946997238479 0.0708063299840758 0.000971825168905347 0.0802582018415871 -0.0511613365250095 -0.05965026894879679 -0.02020033598662223 -0.052221141431221585 -0.059208071683380874 -0.04202243384290557 0.06791472957610759 -0.012111245187724039 0.04667276676166121 0.02110307520950218 0.0096750651142711 0.1611301149433606 0.07138418282612446 0.12478148988141695 0.2768602351956472 0.0029998781150577065 -0.09676339773518264 -0.17619834827419384 -0.03907476965438124 0.0436286464130814 -0.21082391698154768 0.12114460694760346 -0.014248391430551925 -0.0825834454381787 0.2741951061147556 0.07611120238828643 0.1317385117319668 -0.1410834422395665 -0.08895668392528608 0.2556991385058818 0.0375460403364051 -0.12783149010934286
1 -0.02176557490656674 -0.1233034938267746 -0.012707600990215296 0.028548806152949278 -0.062143665798322194 0.1153555426255244 -0.05850853032920907 -0.06155467770990079 -0.005482920255310051 0.02686966365147277 0.021098458841083592 0.0002640175164906885 0.016886894021707816 -0.06190711721025737 -0.07617489006412759 -0.03323263952354091 0.003059103831360548 0.05121032747874273 -0.16188558274851172 -0.018838480067257097 -0.07246508158148633 0.023812697273009147 -0.04611752325538197 0.020063486479635025 0.06687994472694692 0.1275955530496313 -0.0008282169476300231 -0.2031321993387827 0.14425992797617077 0.05711836935133965 -0.04165428129291049 -0.12611871624256815 -0.010684805464124201 -0.17197481180702703 -0.04137538642073118 -0.032834678107261414 -0.11791793421136282 -0.263904973175405 0.008152679663999175 0.02464006480713447 -0.06440653542778547 -3.49193846452027e-05 -0.020419112850909457 -0.14662708365898489 0.05127840569701192 -0.0019573646570581536 0.0077793482047290256 -0.04221567739239717 -0.169312862689919 -0.017275412562670334 0.13903142105140215 -0.06825262722171285 0.02746684006465139 -0.27578569810473746 -0.05434629165930817 -0.01338848795620533 0.03870752125946026 0.11012848427424038 -0.15116867788027616 0.06463950227392025 0.18074742414440145 0.08406932949824254 -0.10336639108492951 -0.09408478078173939 0.12431613740500798 0.018720515446049933 0.23620199900557165 0.3176239968666256 -0.010311230884851712 -0.031890196604222654 -0.07927292525039917 -0.16326282251485516 -0.10365327781841849 0.23787906320988988 0.132230148566001 -0.3320431123456409 -0.13185232359637475 0.016894286716749803 0.029073035585002915 0.10058648980152397 -0.05668377587563452 -0.17157642407142287 0.06169620654963765 0.17183461344434317 -0.23259005537326943 0.48986354247928865 -0.20805189779936606 -0.1897524389741712 0.04081680190573642 0.0707681356935847 -0.06979989057028359 0.07528597196005771 -0.22077130437474432 0.007251721302229331 0.05516890432337743 -0.16690458725446392 -0.12433708684831347 0.04593466785856499 0.056130044061404614 0.023919126568351566 0.1315562759566838 0.18187032068282497 -0.14465378337818 0.002494965693951324 -0.11250495001157489 0.06493190769055149 0.15962630925307053 0.11052965878979643 0.17961375788394573 0.12844494779257074 0.34910532746802353 0.04276466063107754 0.09381691921784704 -0.05016877429745882 0.17053263611534075 0.04936589358817109 -0.3097589061383193 0.1807193901508836 0.0916067829454763 -0.2534879578907526 0.2143110388332389 0.12358617677554318 0.14137087053571057 -0.12003989566175968 -0.04316443632976507 0.12388703040319757 0.1845826590565926 -0.2552672916018023
10 -0.017678254023422598 0.02113962530871959 0.013329362475011963 -0.10604827986386983 -0.003100414344854896 -0.08441616602442863 -0.02143535802886477 0.13444732144810395 -0.0110366742391063 -0.06633569122290205 0.013218073558971997 -0.2223269381100217 0.034211996962833974 -0.004198119697243635 -0.10093391584703307 0.014848040677656806 0.011752060969513894 0.0042682772049459595 0.06530944283291797 -0.0059900297206706855 0.004041487915880189 0.09230438946516364 -0.038846665333934834 0.12084042120739867 0.04406539671491442 -0.02293310544544699 0.14320756760322748 0.17249782211287878 0.028639958028678504 -0.1068872038021571 0.03781257169834642 0.030461431500547854 -0.045380931097280065 0.08305218687752063 0.07279541288611162 0.021604063181037424 0.01349262280919164 -0.054140578448226395 -0.021045133444791322 -0.12011014322397047 0.006210800779392345 0.0632935353725314 0.013795140588500671 -0.0234565778725214 -0.011232582367781144 -0.016854588850416786 -0.011575725162642707 0.037988159915911764 -0.08200384899158578 0.019319539373005686 0.01909031140918415 0.055323064660538046 0.06775922242127981 -0.13964594788664614 0.07566153883294509 0.15314418964524276 0.008999113107156531 0.0728558464001783 0.13538161144604008 0.08835239216182812 0.04532708914141949 0.02479714645721998 0.1136031803446233 -0.06447540991853266 -0.06092004737037754 0.027205254445069656 0.020504596527303107 -0.0068860314968543805 0.021490302030077808 0.14925493744161267 0.017827947752961242 -0.0636443772078266 0.05730510710055519 -0.1290702608954327 -0.15067898043174097 -0.018301407407160315 0.014799807832453913 0.10115322889119374 0.1196822829046175 -0.017408541166461084 -0.05570214757069279 -0.016018381194601725 0.091138562418854 0.009026637692433566 0.07368648013145104 0.18792630682738276 -0.025044583551423572 0.20887688240310637 0.1474988240043635 0.08873883093844276 -0.07053361749838459 -0.02763190209118317 0.032926707362073405 -0.18223820403960456 0.10513405804393977 -0.058222511954986116 0.07485328241142922 -0.16562125965159577 0.17674740150461282 -0.11451281487722217 0.11326655885071331 -0.07545545517453363 -0.09435670251220513 0.0384305932869725 0.08062569308926029 0.10161081869284047 -0.040552207169891635 0.21808162427487715 -0.0891166907951222 -0.034197315885070065 0.10869631808836572 0.00028254234391570407 -0.017832976772692223 -0.07507520324915244 0.03789538899478158 0.07174127219777633 -0.10469850894769062 -0.020039811655070603 0.06906487423011352 -0.14227804465010999 0.2209575271815081 0.12861002276669461 0.2423076491047492 -0.3203166700748698 -0.27303330916971585 0.4240162385557292 0.11490903897018846 -0.17795220712292703
100 -0.048171821271275436 -0.1500292365252131 -0.14538124383749187 -0.03362015266250783 -0.12317128535235695 -0.07866668964862485 0.06748137653319028 0.06329767241608979 0.017421940749123618 0.01129613417111244 -0.12885264060057608 0.08241868907636517 0.00337424493765926 -0.06897440295821719 -0.09168429246600265 -0.02796848029695099 -0.08823323119207382 -0.06248253205347778 0.043154829613413895 -0.06993247504922556 0.037228070989751935 -0.08489122816102007 0.006450748695623803 0.08667143670607474 0.09832632369402869 -0.03837191978222377 -0.015862590818807896 -0.029688562409263087 0.058127245495328744 0.017739032950574187 -0.06957936705434803 -0.04228797081748401 -0.013673635666731812 0.03309858703304232 -0.07169769417708839 0.01756639453125934 0.18460561832105205 -0.0034621053092119113 -0.028798169245208702 -0.06239227700906412 -0.06225560762309691 0.14688581540344342 -0.0007800984427845427 0.09310498801243662 0.06454053432603327 0.043547963828884026 0.2242670054349496 -0.04053276697345681 0.10488953705385433 0.0585404114573689 -0.026614626275703792 0.24003680545432463 -0.031471614623836984 0.049794155700680284 0.096548388873491 0.01808508214863182 0.02944409416653641 0.03352453768320772 0.22834550415651295 -0.07031223695762394 -0.004994862147997414 0.28559216928382103 0.034823012100048546 -0.09504431418508828 -0.09899602150086527 -0.07274188755379554 -0.015999976402857576 -0.0978757362111898 -0.022817989310105206 0.08148674857603314 -0.14411252108084768 -0.0614746091450853 -0.03285848126474156 -0.030805739721165792 -0.011952666291097615 -0.1460688891137247 0.04456128248687916 0.05935025076618707 -0.001418408249694356 -0.03129782060941761 -0.163325599102883 0.1056210084590069 -0.03735976868493152 -0.2077175740476355 0.18044257035765554 -0.004647707722891538 -0.007933125263397268 0.060387019347479545 0.1479360189505525 0.07463496101447872 -0.19512292511469884 -0.12027471730714674 0.041234142280116605 -0.03386707701343156 -0.16127434166121812 0.08905327853658744 0.04575425677197333 -0.06611743505904928 0.020105157554511466 0.005967476691050298 -0.15079078202943266 -0.12151342665901942 0.00481743933267049 0.04023209206515672 0.0234125354039173 -0.052360882688626965 0.010404454307789858 0.16362914861475267 0.1634598488371468 -0.13494703897359403 0.101009302401076 0.028340650342422828 -0.025861244051614 0.08793880397735726 -0.055935746207402534 -0.06266917984374908 0.04857135337551266 -0.0657894066306567 -0.031136859850756007 0.012020541897129668 0.27707877306671036 -0.006189082181723481 0.053643885539500176 -0.1076427657144665 -0.07779455409364322 0.19376789195672772 0.06878298579961764 -0.1268567391740352
101 -0.00024165590732616352 0.04002883353220586 -0.007436889239733608 0.00013563905570942558 0.015321848471201976 -0.03308554549671275 -0.003945436346111234 -0.026341393204573786 0.013586108466037073 0.03579408523865526 -0.07255818414402285 0.02968820957155843 0.11605203593505331 -0.04765398434141587 0.07894180099892967 0.07137201252196607 0.08298862163063697 -0.18314822611197348 0.02298189567965823 -0.03567143421696862 -0.22569672603442836 0.022912000911089588 0.0805516187080581 -0.019021346399754554 0.016745154085678855 -0.027194699181171997 -0.03535206886700808 -0.10881930146821989 -0.14903642570080416 -0.161814191950597 0.029080489213433584 -0.11592407229099361 -0.018295514323914665 -0.10002455531025342 -0.0800039901809518 -0.04661222096616593 0.0007375916516505013 -0.11178224208493476 -0.02829618098860117 -0.1094692148721246 0.053211489431393255 -0.08568599452669053 0.09906053524041682 0.03458454241646855 0.07008555953034055 -0.15942993700029884 0.04490714490359188 -0.12405349189885859 0.030177269079744617 -0.091823726609907 -0.03490082782766139 -0.012052198602939759 0.09265077550763041 0.014521937538727568 0.14231766318544664 0.01239427988836892 0.0142531160993379 -0.014815836144856789 0.026118225839691023 -0.13576585211271489 -0.09687396237955564 0.07478241781487406 0.11240974616357513 0.1444103390854667 0.026005495133942635 0.12708422586234047 -0.16310531742618448 -0.15380542401259975 0.1201320491065325 -0.052812207707095805 0.1874842803167112 -0.043484628481887756 -0.034063000301377606 0.02707892056686216 -0.010989254557196721 0.04255041663560295 -0.1976326133820825 -0.17117606416514503 0.0366732623606388 0.08471690376591866 -0.07039269793177359 0.10962712408284504 -0.011854839615843294 -0.0010758817538451706 -0.05695707027900507 0.0968512465103855 -0.10730180514022279 0.07895628983198914 0.007112160862947024 -0.12552884883427531 0.002114404597018479 0.04319939123073013 -0.2550410725904313 -0.053593035804340154 0.06464911130696667 0.16384196050990035 -0.09642559289953308 -0.14873735775748562 0.11360165338140317 0.10762830114150625 -0.12874297011986277 -0.19832995087370933 -0.14867515165126516 0.08992176922242949 -0.19257018225165518 0.32778295769993365 -0.4696435373480006 0.12466543190270708 0.04022339052821997 -0.10425174904608017 -0.43127043652353975 0.17895748902287983 -0.3923422307034067 -0.5799856920632513 -0.40891954184566304 0.22789644920240062 0.22593318501549592 -0.0075952527208115175 0.14740029472524996 0.29446573560215655 0.06430039918219764 -0.1368749177719233 -0.3502714048259143 0.11906418348436118 -0.2562807418745161 -0.15579639515022617 0.5890118000445282 -0.5359512044135472
102 -0.005023345035528156 -0.16669285328161673 0.06049748049231146 -0.10155872358732473 -0.07468361822626347 -0.09510027737233966 0.009629718016764204 0.043463248081009084 0.018685086250591433 -0.07755193994335738 0.05446123922895699 0.026893651150313485 -0.005384794689869542 0.07403893930056195 -0.10769738223819587 -0.015282183960596931 -0.03588911077044066 0.010401987841110901 0.04152933091086087 -0.024897327936333178 -0.025744900153017614 0.008936960472040808 0.020558520389872 0.06348226758496887 0.050537223292759836 -0.0008715758133796742 0.09125894358846005 -0.027651218357096975 -0.023157669423299266 0.047143900715111625 -0.12261768816660165 0.0069617834285325125 0.012753792229394552 -0.03933160369920572 0.08068116498110607 -0.0689629837726106 0.0340783163562492 -0.04021061990024808 -0.049050407708536595 -0.14669416379058614 -0.09246332346337836 -0.04550486734277572 -0.07511337026039451 0.021387886239180313 0.004097090514888448 -0.005838515950164031 -0.01124373562124717 0.001314902950839576 0.02017123565857228 -0.16334541637820887 0.029168943315231562 0.12274365962746271 -0.011140000281686007 -0.002430885521045049 0.009106455260834163 0.08540817727914685 0.17112456683031435 0.05068280211047365 -0.12271074356859978 -0.07481367071219766 0.0819968598043406 0.03078483430429586 0.0978209929113736 -0.012221892515928732 -0.04773976496674362 -0.018944800617905717 -0.043474377458884376 0.02771989497102675 0.024538063324521665 0.04237737933009838 0.08171692468044692 -0.11172307725292493 -0.0043689496770867135 -0.08760842816173178 0.010392342032248595 -0.07620648103651527 -0.007058197919014094 0.03834719002192473 0.061340776941265225 0.006576733496028781 -0.07563885834729363 0.16083720179334704 0.13378120843060126 -0.08680354519566291 -0.03762969219416528 -0.0013957205494783687 -0.1986411994065575 -0.011448636573081629 0.05532805199678328 0.03046088471146617 -0.19068850751710092 -0.016893970398949753 0.02133414426111991 -0.004170160841350034 0.03136685437027186 0.024220627155795985 0.0815577314211885 -0.021783498909907346 -0.006679329915662107 0.06437340540082946 -0.032291524078487815 0.017553955771252912 0.05325189907980483 0.06182511432640921 0.04026569580204508 0.09107428377707834 -0.054389191766816114 0.2123647764429115 0.07791046358818007 0.07894186710317394 0.04795084247601045 0.09721920185932122 -0.1195685975147749 -0.11833838254840019 0.11128956488887141 0.033807129791969585 -0.08297637936732065 -0.06575809537741999 0.13585451249458635 -0.06625081924813404 0.24623511968875397 0.03487091778373127 0.1853091602531279 -0.2644001970107363 -0.245763755074436 0.2991680868676923 0.11166826769068323 -0.1731071291241988
103 0.028527062209886794 0.10217973784318111 0.05033592028367979 -0.1384794277523437 -0.004842690703635942 0.056268433381517324 0.05031350662410812 -0.07142161172088678 0.02428835140369958 0.05974147966987682 0.0367701733688767 -0.018919503310288733 -0.0003744893584675744 -0.10960925166186863 -0.03497099190831185 -0.01672749987723119 0.011257885796539071 0.02219781582452546 -0.007084358797359416 -0.024270876189768437 -0.038609737880160686 -0.04632252339285162 -0.05288021868944249 0.24517443764093835 0.05066730358016476 0.014839958449600907 -0.07765840572527637 -0.07163213319065034 -0.013068687686228424 0.024593145835745345 -0.03991124136194239 -0.02680624111711707 -0.03163985674036202 -0.0001664152530626366 -0.07992759202019627 0.03430364071143282 -0.02626486552520399 0.02107540683882216 -0.045208815446333546 0.04014384322554613 0.0431171850963298 -0.0017306131204167287 0.06469973092042286 -0.02758785028046985 -0.03692349945598074 0.041833537408466064 -0.004141386620410853 0.048369992452146945 -0.004355845097085119 -0.004391427548063039 -0.008146769709022004 -0.020993235938055715 0.024400723015799586 0.019086558795230035 -0.0020359169157402137 0.029989489613017783 -0.13366344317361958 -0.06167395967046151 -0.07695175173405953 0.04744181286048571 -0.03532273402997218 0.09071568711091348 -0.050652900927801676 0.0050163325730898595 0.10389037620644125 -0.10650978669442164 0.0031838332734524335 -0.06905712362955284 -0.0782980909592959 -0.053526540539534415 0.005608366509599712 -0.11576242925457818 0.01383015464438955 0.15456955346097756 -0.01921410184737088 0.11947025030065354 -0.1868732230168254 -0.08116857776853341 0.004435910954600731 0.005547817929696218 -0.010667330257214164 0.10993670598368446 -0.008683689025147672 0.20544859268571802 0.16693057636093267 0.14073366781835975 0.03422213149091212 0.038263179323449616 -0.024072442982521258 0.009733014238496353 0.008634900497481992 0.055753529918288976 -0.060276829216039905 0.001891656049558049 0.1673902132828718 0.059193890282427074 0.10930637243340034 0.15559970170993798 -0.006109566250792267 0.028378762913899753 0.007015724632935903 -0.027678764980071928 0.03462310388460888 0.05560336955836352 0.12051868208457722 0.030380053907306692 -0.041583186584505896 0.04351081774513738 -0.030037222403713777 -0.02118486146298963 -0.18127872966677064 0.012347403979323615 0.09481981829535924 -0.07227170235625982 -0.009374940370637456 -0.33450092158870226 0.059452593905588935 0.4564621215717199 -0.0568839804230649 0.17480184676017416 0.05932836939151279 -0.6392284575723747 0.3963209199122744 0.2697903859170264 -0.03731583839052267 0.18557776783185975 0.07410143788306277 -0.2031682657939079
104 0.16400934541116122 -0.06876866458068753 0.08116128195071569 -0.08891847021007547 -0.031564599974005667 0.02178212777672426 0.030123857563643094 0.003742685187450943 -0.021121552248222295 0.07506588790665955 0.013377355999149389 0.01658253919501118 -0.06790682988585978 -0.028366308477514524 -0.049278331014112664 -0.14744542044693856 -0.0038688633580611547 -0.07501075800752334 -0.03546309198485693 -0.06183700540710639 -0.02021372494754797 0.06341363558127017 0.009820649189980426 -0.023806633286453514 0.0996378540904772 -0.012403883983148626 -0.15993862555937424 0.10225132229224698 -0.08396906487271671 -0.09009820466159005 0.10089911303723896 0.21837880805232612 0.07164672640117162 0.03363643900392414 -0.16994612671346573 0.010613187311756502 -0.018164020972975096 -0.029181867011726453 0.07272820181050492 0.03585578080219158 -0.14183441422741214 -0.10726531530734311 0.19518831300107964 0.05949084616032735 0.08444272338037803 0.1492641331312946 -0.04060526484420262 0.07944042357761535 -0.031617282690147394 0.054679777171547844 -0.07345773730853962 0.03139997298874784 0.06295973437584317 -0.09065949846758102 0.014322346909179917 0.08172079529989823 0.03686857430801274 0.04761288559996908 0.1034649434616414 -0.011132867707167171 0.0822872674321544 -0.07347133078569727 -0.07341119574648808 -0.07400234065919273 -0.1600183619054659 0.04673721903570571 0.04170410565164991 -0.17883826103026454 0.03950023585748028 -0.011019997393935103 -0.14937779122235215 -0.08268450078602199 -0.17352176029160832 -0.03997019398549075 0.05612126025314146 0.25782996749058995 0.0178811355498537 -0.036595834575649 -0.0031360239397730345 -0.17883524638307027 -0.15384465482645218 -0.14748919169579436 0.047939469166747566 0.1540320316635527 0.20495055351504202 0.1591635598013127 0.19923454873509847 -0.08101099134752666 0.03717951001561248 0.12518420052922677 -0.04468166213086927 -0.001306081422717381 0.022381806211217294 -0.11700041650724279 -0.28769069707719586 0.32095873669301744 -0.1258846941386692 0.19178633424329347 -0.12888359265914637 0.15509982321863652 0.014577594932869843 -0.2125848076129666 -0.02016724406016007 0.4154282392541661 0.09737978637873297 0.0757506749552627 -0.15419228726974518 -0.026352088421300095 0.028785647524894736 0.02568071614520652 0.44786819522122084 0.4687471102995263 0.09973755570870406 0.3851633331995305 -0.22358959863392527 0.17757870252085434 0.04800014940476519 0.17620226080381807 -0.11483147289592602 0.1501504913539796 0.12978217930371147 -0.29236469783484276 0.010702929914548031 -0.08582037709771433 -0.18297527502682778 -0.10432920779300664 -0.4068308694163007 -0.4149587311139018
105 0.0912620421149925 0.062433889356286985 0.13923438700702634 0.07844035227790154 -0.02253107661247527 0.004361430737038009 -0.025658615608035944 -0.01782723043367824 0.011940363364311582 0.02607296749345932 0.08740882122495565 -0.08752861864035276 -0.09494372796979922 0.10171872298373948 0.03243860663646337 -0.01364508897941064 -0.06490870084670414 0.03708290355361285 -0.13628572677072964 0.02599219937481315 0.14439958547778364 0.03546544332666754 0.06530821334828757 -0.1032463189222282 -0.07248377629496358 -0.0851461326328343 0.007674526353721537 0.10578877216950008 0.023639821050081486 -0.09563782646309375 0.11330014972138522 -0.11052014229977755 0.05840948886410479 0.06621026499635146 -0.14260977282377726 -0.01980402075614666 -0.05653389011689931 -0.11263441219435834 0.21769525999991093 -0.1863988902248363 0.03062962309623736 -0.06499501705070042 -0.009096008370756256 -0.09469139026924106 -0.011284036152014607 -0.11556478746253838 0.05236317318992968 0.2069913536523999 0.05818066766514789 -0.05700670340252644 -0.05235854513956842 0.038092459494099444 0.03568583742402132 0.06092179622046558 0.03615118408127934 0.026080273491841832 -0.1709152671768286 -0.03875423616115303 0.06502843360759028 -0.05729531312791419 0.17829804271506203 -0.14244777400340627 0.007731966976969116 -0.08593215750724693 0.06308173347291708 -0.0527517416147151 -0.06646694124637871 0.0024447072969212115 0.05113806634976324 0.034609727944967625 -0.058448923146295545 -0.03297870275479629 0.0962420846358674 0.18349602098688267 0.1565150422619555 -0.0967909376259242 0.3986284142160214 -0.10192820442516454 -0.10041959121444254 0.1629851243687368 -0.05728576051214581 -0.05928943023629282 -0.04387584680676238 -0.1160459261551236 0.019752100545398863 0.027851686848326212 0.10224219979464486 -0.018180790134860788 -0.11377847730122574 0.10868406171062005 -0.16652545188782994 0.07767093991893978 0.10630768969102299 -0.08380607714456235 -0.019943581385522154 0.05629953309374465 0.003564245844685043 0.047531011508892974 0.20342324899097325 0.22231238599597009 -0.02660265936638564 -0.060892282274357626 -0.0021229978454098933 -0.15220478206473315 -0.0012209948272044273 0.15497950111018724 -0.3310854952101575 0.03754844483522893 0.26976374231871697 -0.01043375661587871 0.06776681765703188 0.14514940114517816 -0.43197055432026465 -0.21911006419233375 -0.26393711858008195 -0.018513572175835383 0.01491094123496576 0.14316448905134477 -0.13946293305539226 -0.005855960447919442 0.16463147462393102 -0.12424828476617056 -0.18028878910622534 0.11670428994556278 -0.03378967287561812 -0.17130388255449688 0.3237260920276444 -0.40429930032428874
106 -0.03933059691079767 -0.033304106232462695 -0.014475356504292105 -0.1804686907466929 -0.039118547125955944 -0.045355966766506606 -0.011613271685562932 0.13023040937733193 0.025057498674350365 -0.00021865041188842167 -0.06453069053387683 -0.044598228291879524 0.02211695525476614 -0.05300741453904447 0.12576603741089393 -0.03023037693942775 0.1153461990938316 -0.07254046095773971 -0.16486798355333296 0.09590343732477377 0.03917144780600954 0.05008036942953515 -0.04314342378805775 -0.13467279993825054 -0.05133462437300946 0.012088127954560103 0.010013808447627457 -0.07719899900092211 -0.012884895036109257 -0.04391963243407013 -0.06685175188038606 0.19312675703017548 0.009039062735545009 -0.11395867684506117 0.04398908235465716 0.0823103367970858 0.08383675783095824 0.025305453592785163 0.017467754892692925 -0.07384622286152578 0.04999833825494387 -0.14624456652200404 -0.06269963142554973 -0.04887364704078201 -0.013470097770164979 0.03821357652351447 0.04007548541025785 -0.035099225065201745 -0.14624872049395876 -0.10481155973155891 0.07697089146623957 -0.09309347628324303 0.04188142205665302 0.02795451441761585 -0.07069006146658241 0.07950324427067423 0.12444237240453535 -0.1555866190884441 0.05347976852188913 0.021105940926461522 -0.04936676310079627 -0.15658568820329 -0.042378529166136464 0.12091624971156778 0.023417381395739685 0.07056629662446277 -0.04761752761054063 -0.10471650261873248 -0.2173472219765944 -0.3253186384773383 0.029256611446521665 -0.19355474158878067 0.0054076795632255655 -0.2251565398301343 0.019287884935692418 0.04492341302033061 0.09090578233764783 -0.005093603256974684 -0.17601127292164137 -0.05739637640304154 -0.011333555137875135 0.08851069215418755 -0.06754539654895762 0.17473861032505628 -0.2154244151228629 -0.09034774312030835 0.0055796264334552976 0.07840257983626077 0.08817543262936549 0.1140954285255092 -0.0455091671613752 0.10780548480155497 0.16183794068078508 0.1850486450209949 0.004686957209298436 0.06968918194912517 -0.3241132024534619 -0.0345721161414544 -0.05203115407939232 -0.12377775430566175 -0.07977533643368465 -0.07206433075380787 -0.1425084496907396 -0.04316057566814539 0.1419273560929981 0.04958669090258481 0.007529355777140907 -0.018694186350658414 -0.10851465100396364 0.18055310167800567 -0.19016426873831138 0.13558073277190874 0.1336277196092802 -0.18208456932936629 0.21109089975907278 -0.10863328480993859 0.32654634378387537 0.3767028754244482 -0.1587145233043352 -0.10380223240011774 0.14503293584343288 -0.04115414585441779 -0.11316650629881099 0.11896784229827255 0.16067140863551618 0.38761907660177397 -0.03516708758444583 -0.14368634412635686
107 0.08931230706700162 -0.21934912505547075 0.023563079369586837 -0.09740506098741575 0.007258391066018435 -0.18450901061658317 -0.001845118515899646 -0.03455145242595124 -0.021695748083499507 0.04042949031308585 0.0010304401776802862 0.05977676215568068 0.06965234103276728 -0.06395450973977324 -0.05045066399105385 -0.03323502680766505 0.008491542990809915 -0.010402226401322642 -0.19492382332220368 -0.09398052214962446 0.03309837177150661 0.04956231210216464 -0.055541541363057056 -0.2357602645637001 -0.011914199465723956 0.0785181721159255 -0.19109284097749538 0.2778528794756238 0.017489564146622644 -0.07134394364736182 0.07180930480287853 -0.008023798524827323 0.10759692319478058 -0.07265938104975207 0.13916556956595888 0.1039858949142052 0.020746164094242247 -0.0893025742245459 -0.12960802690319095 0.0554977117174269 -0.0003296584917372196 0.04878410119150818 -0.1104118250615443 -0.1956647205939721 0.10618945755325769 -0.060508088768734945 -0.01172931474254556 -0.06068484961775601 0.0017243669116449108 -0.05148450236055423 0.08889797320495486 -0.054335101007766076 0.20970735062951892 0.011257016179346943 -0.09263857052728165 -0.11077799404488077 0.03729986980268359 0.025104672567031392 -0.2068070989604441 -0.04848573295616965 -0.08765676122425846 0.08091763559383602 -0.031236308922235435 -0.1306046011478925 0.016776248369365372 0.00940249855709497 -0.12183629418255564 -0.06064395022522422 0.07438452553365694 0.024081407512236735 0.009768419641604598 -0.04423482998259646 0.10371339767061799 0.023794422387277813 -0.19034227621681807 -0.01650328876138269 0.0721170075745325 -0.04388282172723892 0.028517014619146682 0.241246541217259 0.04681999112224405 -0.20566981606279805 -0.01570325479563952 0.16864644841150278 -0.04755639004631993 -0.19779855428209409 0.0770033462375709 -0.01824587442635095 0.14176647406915555 -0.4051917519566938 -0.09808124212471295 -0.02962318665210985 -0.29004096861332357 0.24396163564770282 -0.06960257019191955 0.05602047967951166 0.18503062389389963 -0.4260811184005899 0.2503896066822781 -0.0199357867568647 0.36387747769984 0.19541668392883463 0.036863085489191164 -0.008245518000058594 0.30289666618679245 -0.025315926364674304 -0.2785541816040922 -0.0513363181076134 -0.2551472499517046 -0.4217316635986596 0.146226283028209 -0.15599256315654073 0.0994315024424449 -0.04653783806948113 0.12395324318640244 -0.021472732428918544 0.09682320236208844 0.1300059556287107 -0.0970632282677924 0.10945041073164521 0.07619800762204439 0.03498984380689183 -0.09718065363582117 0.09030927407968253 0.16852118265135205 0.24260786997881634 -0.11026826250153554 -0.1741215926390514
108 0.003080002001246138 0.042714270402375645 -0.03865938589476381 0.08646862497365036 -0.03531605085303794 -0.027545088594487652 -0.0468176254448097 0.018928880012139365 -0.04703612483748708 0.019387683563162512 0.14725944524539789 -0.04039647059105016 -0.10622155608747154 -0.12754319181708806 -0.08048559106010779 0.020337915238201602 0.04844442811509251 0.0826998180210815 0.0019877346308254636 -0.08161287285674183 -0.0632875033598568 -0.027752816159202835 0.06825783739835925 -0.14576870756627494 -0.04836149451314417 -0.005312868588322214 0.07653763357734658 -0.16179168310931696 0.0376720510845328 -0.03204660000810857 0.10791334311523054 0.020786085133271594 -0.09265385758723033 0.006013371796084049 0.012875390860429475 0.03389758122365465 0.025619513465874474 -0.0008695661360176355 -0.07724543879119171 -0.0510973878340621 -0.13607451349911967 -0.06233512100571001 0.0030240039396636402 0.1334790450708005 0.1475951051723319 -0.05132730826967168 0.0842503607508168 0.02301676704735037 0.14600160812816368 -0.033370044583476796 0.02562598212239678 0.09273708936863558 -0.022034914709340523 -0.07161768887902188 -0.113734230700538 0.07961065781777449 -0.17344580382281302 -0.07419032566610596 -0.003425376620453924 -0.24560880695116827 0.11110046687793272 0.01423326234585457 -0.04621483730574785 -0.02431716297136027 -0.008447947008096516 0.16972490874757326 0.16958788904482833 -0.18580228725679585 -0.1669823352018875 0.049368199855879556 0.006948568140069774 0.03158570796212933 -0.04310695475695839 -0.10463382960092327 0.030539771083738475 0.11382604707147956 0.004325712514085134 -0.21647459535350086 0.015825793933554235 -0.017553026278870225 0.04768082969120122 0.07922494331858161 -0.04687569404526737 -0.1470303631956741 -0.06446011145782257 0.01831221477628527 0.030410667327964873 -0.036613909130031916 -0.07443401653777623 -0.07115256808244387 -0.2781644104280104 -0.10531747982636648 -0.16225369776331997 -0.04344191487299697 -0.08371559870031835 -0.03205202209170878 0.2040412972831869 0.20867503580951463 0.015401109051497214 0.07353512080286996 -0.12047445524170607 -0.012945094984733639 -0.10921294546192807 -0.0181054867331153 0.056166176419952585 0.011307868708396387 -0.2422751183471259 -0.09991817821053732 -0.04778559856926807 0.23159126190312204 0.13106934961513592 0.12287604950060785 0.12223729423652596 0.12211182365565236 -0.1850489285480365 -0.07873819921698906 -0.08561467021845551 0.06470399194043039 -0.03970103596535081 0.12869503679873434 0.2305316951973741 -0.1608364154526975 -0.029144881939274482 -0.0026472369468176155 0.038084615343181215 0.08981232654393528 -0.09237897410002098 -0.156041629583513
109 0.065284619295997 0.08838089322505288 0.004581270333222717 0.011121422851771045 -0.027862005362255905 0.04975302187436828 0.04987593999467944 -0.05055026345750763 0.023503488826400805 0.020062389941366186 0.12150326090831927 0.10688918648876522 -0.0029825732369368864 -0.00662828729373403 -0.0375038701386552 -0.03693957125550901 0.021079730960065164 -0.023675098848108797 0.012560746547082448 0.12763764021822135 -0.08279701064975829 0.07379001505902469 0.022806955925895444 0.11038316573402013 -0.022728119353520825 -0.0925510404960215 0.014989503609678248 0.1909042482857652 0.07693720913593875 -0.1519967833137298 0.16180558625277466 0.027729782418715175 -0.030604859821032754 -0.08481753153140138 0.03550851727643784 -0.12425176788436708 0.12735166745602047 0.03834606710795668 -0.008450207071323114 -0.054820326871971366 0.0755746343052581 0.03531219484592948 0.09523249863488455 -0.05941893667890485 0.02200972360162783 0.07914839703314616 -0.08557750509827294 -0.19952147886933416 -0.029509281714731706 0.0011778288948536978 0.06479576192884137 0.020436610216014558 0.0011015978052596278 0.10462582821725269 -0.008874994505641652 -0.0004839641441961657 -0.12710015881460895 0.012609485048167479 0.26365860820313924 0.017267867503523424 0.04065429965117315 -0.12488894113311923 0.018829755346568312 0.02565598117835682 -0.03163124014733844 0.3483649434527064 -0.06391736812719868 0.05633058370990984 0.18535488628648744 0.17880551673385495 -0.04984183575398446 0.04119378671330011 -0.006222440257389472 -0.044808967992490414 0.06342931252707859 -0.14860020406242583 -0.12425041074764945 0.04233072999011802 0.05797689755558084 0.30330293015459553 0.06532009990532979 0.12855200032668443 0.05610181143664521 0.3039247604876984 0.19998774326023003 -0.21849007360220415 0.02514052688904011 0.1965628194326971 0.31126874977157787 0.09818413282677492 -0.5340691778714839 -0.10495914655329679 0.21336130957187546 -0.21527893250031752 -0.26621853301290854 -0.06257633825322602 -0.27266535629365074 -0.23552682880686582 0.003231318659529465 -0.08991152293376342 -0.28294122534643956 0.1339935166114269 -0.1421851589979515 0.10645939575529377 0.14550778135570552 0.03021231070785107 -0.044240145736105234 -0.06164420734213358 0.0994200391182635 -0.07021589531092975 -0.42757955337269726 0.10653449140584502 0.1269125097412606 0.15518099207465708 0.19069138358302345 -0.08823925808949262 0.20053638545242597 -0.3299091721272971 0.21848221909185422 -0.05118630641848562 -0.07201433319543063 0.03192797232189048 0.15030495138791622 -0.3856362153103127 -0.47950429728250343 0.48328530344816895 0.285983005073191 -0.2960937352461668
11 -0.029830022925873678 -0.10030197584017773 -0.05375716637672274 -0.009771399423368876 0.12370425428033512 0.01348963724697753 0.01365066647970525 -0.07350536566320345 0.014758730315044299 0.05958169117191275 -0.048469466690160966 0.06938891824243013 -0.01604659231807846 -0.02926956293737125 -0.014919259195434197 0.05277660729756795 0.1343211817625884 0.05705046722142769 -0.1252844791509923 -0.10741320672612625 0.13756214258910454 -0.0319428252554061 -0.0032716294486064127 0.09413733644153498 0.020228004884145993 0.05241056974954183 0.1357743635048032 -0.12863161851900792 -0.045085827409078946 -0.1571449708224781 -0.0262315271779143 0.07798462541120336 -0.00073245382070661 0.09705062013934417 0.15929159706250204 -0.05907352666334368 0.047199748674109844 0.037038471623400064 -0.09458561860590899 -0.05711091083827615 0.16883836383617812 0.11605177524237546 0.07748828734407918 -0.0949082598767125 -0.17606053916979764 -0.12908453916649554 -0.021607170050951835 0.2565198944210349 -0.001246293831932926 0.1214002927173542 -0.09100156676867643 0.049896842109135434 -0.15159243294658437 0.04618896912952089 0.08206706820975146 0.27363909495964683 -0.03867883789513843 0.07941657226171374 0.062031999430016395 -0.1657676899242311 -0.004259737158075401 -0.1182942187475528 0.2083995872004891 -0.046492209992867566 -0.22489056738600102 -0.15687947422615664 0.0017944362899913534 0.02376288146917439 -0.2000749150582379 -0.014523094944278553 -0.11936122964983473 -0.2654512098900267 0.15284203940106453 0.10016062854264637 0.0003571578933459813 0.26853935095799125 0.10224207154683601 -0.03731938218104578 0.12406570403938719 0.09714276268310278 0.24705411915379732 0.0664083584139244 -0.30711809500310916 -0.09232162654077439 -0.047912378287075376 -0.1721701311294641 -0.1950373303866974 0.15947321938068676 0.2556566359559833 -0.038483350906036023 -0.12022129305670927 -0.37136334874444743 0.2937554063584414 -0.10355355261513904 -0.07665348642006158 -0.00808793560605258 0.27512988988222903 -0.0781530468794289 0.012593764486941512 0.27711635065236073 -0.007946643869660939 -0.06546736898416959 0.013656944018561547 0.08430324013390647 -0.16607428963167792 0.020846903701618607 -0.05305823804289344 0.130797993670735 -0.022886109124717616 0.09486808817368375 0.18493097003493264 -0.050573949189966064 -0.02193725087249217 -0.1027766923004145 0.04085564805901446 0.029301346775435614 0.0021141425586933735 0.05868173129201522 0.19313340233427398 0.08568671667719528 0.24382280018415484 0.3774743913945877 0.1017850370569407 0.30416060528972483 -0.10729384530748223 -0.07198844285285737 0.2492902838590073 -0.43518891616397726
110 0.03588395808067096 -0.10314204170035772 0.03353064443488722 0.12769205328644867 0.08585186128499694 0.1704214231734109 0.004675070781422403 -0.017985880965291568 -0.0013884044057924298 -0.048307660654315354 -0.003453841665734904 -1.8765614966004803e-05 0.04581424469468404 -0.030849125635434817 0.005133854074384407 0.024488647484698423 -0.00114655569770961 -0.07683836024523849 0.05697101414640736 -0.06649302462044553 -0.049920316677464376 0.020980442082058962 -0.03501024031317202 0.12070342571485003 -0.009947304400148333 -0.05953864040498528 0.12788470096162277 0.20553849456030596 0.12325179284904582 0.13705064491938618 -0.07837077449653454 0.05295909566621743 -0.07236612861112494 0.029468038716476224 0.12898843156854936 -0.011861498413733419 -0.012042622448732668 -0.012837295855932178 -0.011890545643751945 -0.10819639000848567 0.03337678874431389 0.047275832697902115 -0.04880782764447976 -0.12924184346520282 -0.004528990663259655 0.11056294140738296 -0.0981530136501484 -0.23863999442732056 -0.142326967502081 0.0013556943164110067 -0.130170856169438 0.10305421798393011 -0.016232249758122857 0.02085284930368923 -0.05029725299863651 -0.007247227108809393 0.0006844853533026534 -0.06997335490840487 -0.19730007745363032 -0.0882033849962447 -0.006039002478248519 -0.08172148086592892 -0.09557575642538106 -0.035485709358290304 -0.32082422101876606 0.027377433603161864 0.0459340091655429 -0.013230203623623692 -0.2613337623606875 0.08116996132856798 0.1412502429126744 0.10357355526141834 -0.014675056689512519 0.007154801595189616 -0.11145276287273662 -0.2050810491869898 0.05515476868365517 0.06243416890731539 -0.20354034521406825 0.1512486055393607 -0.0679044161149046 0.08562526253480468 -0.22167254874151232 -0.13729935457142567 0.14175331676013145 0.24546167062905552 -0.018422181557057764 -0.14810221947234847 -0.031953706005448314 -0.062299123513320155 0.005688991776367227 -0.18594079039131364 0.2701063145890939 0.01592825303619079 -0.10438736352880588 0.22008823882197198 0.15941389548473056 -0.015903821650375655 0.021093570079025355 -0.010835924692927455 0.043788471667554486 -0.06104154796204638 0.1281282319515483 -0.03401945626975104 0.1571246124303587 0.02335528663102903 0.009864933588690093 -0.19504597050637115 -0.1792987013596251 0.03775449075627312 0.13280123505564376 0.021419355566720245 0.10158165501194381 -0.1683290745656449 0.21759577253256443 -0.026564639816602682 0.21807977999153075 -0.04668974077841358 0.05012269001451436 0.18904254031919626 0.2490983021020931 0.062294128168154106 -0.2774954659702447 -0.028362864111788545 0.3801775218168949 0.2408261442416044 -0.07840388853095705 -0.2212827467688592
111 0.023042477998486955 -0.017309039389500527 -0.08512335621654753 -0.04196471630058309 -0.04479425037496054 0.0659896924743693 -0.05670812633888554 -0.029518337960273807 -0.01107986373286145 -0.10808057298971313 0.12954198978028025 -0.05128121443347866 -0.06029506022908546 0.061038754536561865 0.0018233705648600664 0.008121255330203104 -0.002496564747454471 0.040249155941658114 0.1027769371159203 -0.09959980030899691 -0.021447193197366057 0.14819363753554834 -0.05125695952607812 -0.264566543703931 0.03821318214630676 -2.1183759512392327e-05 -0.054221716561958504 0.05915337855674417 0.07021449665636996 0.010740617443264504 0.03605878247119463 -0.07223445186731713 0.059795069239698614 0.08168180594767872 -0.00869356732701712 0.04818994664464694 -0.006924359084483229 0.08757672035639827 -0.03835981843183832 0.0020955753153635613 0.12098311960293268 0.010450738436901407 0.03769012813411069 -0.03276585427700118 -0.031936289236799434 0.002148747102043392 -0.040532795627793446 -0.14476563816025192 0.032002161832159565 -0.07566774682443045 -0.12008254606485726 0.10025855988260106 0.017860770504534097 0.05501582267494423 -0.06813995767702105 0.06107918555934853 -0.03811316850643454 -0.013953008797406524 0.07344975244858504 -0.012504869977979002 0.09568969555739357 -0.003987563567200568 -0.012704974257761709 0.16483446274702496 0.06009035394751767 0.07458416718405315 0.07180370363340251 0.04636322993631068 -0.04332232951921213 0.10553982717000096 -0.18219270106453414 -0.12149849191535378 -0.021775283762591063 -0.019001346846202184 -0.12009259839118354 0.001143483640264295 0.01574300484330344 -0.012755112444600586 -0.0830214459909776 -0.026159960612156384 0.03241233288765796 -0.016729107152010408 0.1857915605168206 -0.003742088700960872 0.060076613524184835 -0.055456561113676944 -0.16944732781073485 0.027811716028967592 0.09417291540675372 -0.01638589728950122 0.007752045862818408 0.07667425675885141 0.16346567247826863 -0.05962589469844058 0.0046600519314550495 0.12488013798199195 0.016340001092253278 -0.026080451783224694 -0.1389311342828845 -0.12232100141445537 0.08915799489206976 0.01002811404971298 0.004272021681292437 -0.06556705490547206 -0.05633681608267973 -0.1600386412627907 -0.08104363128509441 0.09384678632686184 0.21351537632653042 0.22194203681402863 -0.07738123610242201 -0.1495932852887138 0.1074007707090826 -0.3471395435013088 0.03522042935073311 0.3083751450397547 -0.33290014030954374 0.4055041819059854 0.09998865005131534 -0.21723161224119994 0.15081261416716918 0.11877294630773408 0.2512712362304018 -0.29992516587889284 -0.22988606709969853 0.44908721362724335 -0.0027398751361038557 -0.19481642272638344
112 0.08687985285064406 0.011252674529717767 0.021691965936193266 0.05687200384890229 -0.13451715579093337 0.05074699104155834 0.04467696007123082 -0.013995180302270979 -0.036071634750481224 -0.0563154763480641 0.044447173894963624 0.0231964374183915 -0.06423869853546675 -0.03218652142389622 -0.042274742021653586 -0.03716626431806153 -0.03935310251363702 -0.004324490634943138 0.2632874140260357 0.001838494224225531 0.048132879697765175 -0.03390293742783816 0.4538975931857308 -0.03501966627795844 0.11468863050956685 -0.09981834002188161 -0.016626524863345638 -0.1154313042464105 0.09016462305296474 0.12926333711338905 -0.1183862635724081 0.14731993101131854 -0.12183604310695423 0.05664396696110803 -0.015134351451494244 0.04622729649961889 0.1808637014431182 0.050630235970457675 -0.035329732589584634 -0.038774413131976666 0.04564845434555297 0.16927363299339246 -0.04090290187974475 -0.029957405152526404 0.234014146846355 -0.1036046169776868 0.00011480388316120909 0.13060716112248036 -0.03751793963016738 -0.08335850376964535 0.1083176611571269 0.08606874661486351 0.07049341879898759 -0.17307326333302164 0.10190059431928246 -0.02072523685822137 0.20074798354569498 0.10037362200010802 -0.07560692022468403 0.1570280826851016 -0.11495811026181749 0.3165146525843396 -0.11119487896977155 -0.12468443699130277 0.14366928175693594 0.21305617581435754 0.053289337291712716 0.01936884598380549 -0.07295798287751384 0.04165789426986395 0.12975141502402096 -0.05396269110345958 -0.014532099515655903 0.10981150162171667 -0.07887559256444654 -0.20192959240926636 0.19151952588307408 -0.015899472696356404 -0.08697411936241344 -0.12981975754348477 -0.002336036600899598 -0.15290023966731264 -0.04715697446824897 0.13345851887537033 0.019116169377726703 -0.0067980263478758934 -0.12342219404347728 0.24662139070651187 -0.30582980281676253 -0.01930438429358291 -0.13675879273461744 0.19745440759330116 0.048585989442745954 -0.3172175469745881 0.08573642891931163 -0.1489603396693115 -0.03940607944812302 -0.17189903948697324 -0.034863601129149664 0.17068306946742642 -0.09502051718649052 0.2682507014299678 0.13868110949088433 0.12242102237948929 0.3767504917279509 -0.08466823995568815 0.4988661262196947 0.1314150058134198 -0.04584583268230985 0.15534456249821527 0.007880728406558922 -0.18450632858798627 0.14334093394511 0.1910988077388325 0.0737950020061764 0.08105908372773918 0.28759174556113576 0.05736317858556631 0.18183282613073729 0.26557648684874463 0.10865011850663063 -0.12200154349414921 0.12093688747513977 -0.07928334144492966 0.032330898624363336 -0.10796246119338875 0.4872995966141502 -0.4907993392590481
113 0.02946667280783166 0.07188097393205237 0.01113116921431667 0.0016907211495721544 0.0692997387699658 -0.023726765226576366 0.05025732411129989 0.13837998330322313 -0.06932162106740397 -0.024333064383431722 0.13933624298870154 0.07732265245706042 -0.027491482692089352 0.021751097955477156 0.1855208161612081 0.002013825337199953 -0.22262433234538312 -0.011675923571917626 -0.0030563240567300005 -0.006722828979929242 0.010257121202399163 -0.1052865385931255 0.054073978018969224 0.04891621784025507 -0.02561197169128408 0.0043768122285132455 -0.07024993284597403 0.02343471255337483 0.0117428466011009 0.0021637566763177893 0.18129235421192513 0.009475104835091192 -0.024811598004874234 -0.04174046604745862 0.08816624549342728 -0.09380823723204634 -0.1006159696940268 0.061387535583039866 0.06525342262438526 -0.07340374500599409 0.12109513378548681 -0.05535164208713031 -0.03725988531928762 0.14324285078925506 0.19508165757673077 0.09767516519690983 -0.008729862888082767 0.10256760535943751 0.07139772456567708 0.013331921215559319 0.07715911324784017 0.07128339051502543 0.07923920974200738 -0.10890401392084867 -0.02679540205193982 0.14884515543251395 -0.14872735985497992 0.2495250005441342 -0.05297187347731097 -0.05780633814473879 0.008529250651934763 -0.23865546243840371 -0.09212182259678783 0.11019934935720589 -0.07525970945660146 0.12079884032754051 0.05401678165657711 -0.07470653480795124 0.084468672161735 0.1363718794625621 0.1495871675999315 -0.09724047071586644 0.029405109054684152 -0.10032452189965382 0.023366796648540415 -0.07648539792316636 0.05822534159616962 0.06227745291174321 -0.08641087958723755 -0.08662335498713798 -0.08398930561038731 0.0925717580513521 -0.08618046254570967 -0.10815558388727185 -0.059210601730404135 -0.03785010338147893 0.16036452641250504 0.011084308656396577 0.24296697219328647 0.002667509428657982 -0.18142525002985263 0.23650191052414712 -0.10513850983448075 -0.08566099657941645 0.07140792224901951 0.14229876068185152 0.07789760541852711 -0.16422958506653565 -0.05504486729486198 -0.1679962962159918 0.19482444138621627 0.056429474197663934 -0.0027530936662067034 0.181263724970984 -0.27689493486752936 -0.027969061874586948 0.18297406997157276 -0.07521961076564837 -0.25766523706167394 0.13808150249093307 0.02353611189299775 0.23248816092121183 -0.02154075161915743 0.02723560549845025 -0.08880332281822303 -0.10366336435023671 0.30376043680074283 0.15560644094072157 -0.29266026533945727 -0.08746734009191671 0.22218857943216233 0.11441757563334617 -0.2134731401357929 0.045801987395566374 0.19060069070649324 0.38073443535995144 -0.051838518491321026 -0.14219249656466923
114 -0.017217452251244394 -0.04866068398161434 -0.026240643135219427 -0.014215182770800838 0.05898295488890919 -0.09790488284292902 0.06048267633656039 -0.0036510991805818556 0.016117356661147962 -0.08111419227313997 -0.004002895140278513 -0.07128263603533559 -0.05944855738827342 -0.09279996370772726 0.07941380610755555 -0.01932057056074418 -0.03893072310637779 -0.032683433541145945 0.04686111470146644 -0.18820126092143474 0.026942717015279023 0.004892688700318203 0.033847831287849385 -0.004667728985583981 0.04794570630012507 -0.039173162399748385 -0.08722892238742007 0.05297782505393982 -0.025309748045885323 0.04875978550883694 0.08161792287235382 -0.09112589156610762 -0.04089282453016416 -0.022079819232581784 0.04202698747973478 -0.07773064822108616 0.09789644397306266 0.10200373533633826 0.057429641268277154 -0.06102506109697368 -0.031869083408770725 0.011687636964300877 -0.03226366160958875 0.24448675489350669 0.11726218188335027 0.08067491114024349 -0.02226117210052924 0.07929299237343006 -0.0002197140733559404 -0.06810125789498062 0.1026226057786887 -0.05575844743677502 -0.12334117434921318 -0.06396713025755087 -0.03882732529279999 0.07578938174924127 -0.0900573231743571 -0.07246820323273688 -0.012302678843273357 0.08931671098546914 -0.06769260519457881 -0.04695852015157972 0.0854436258007008 0.06651761091333055 0.026178702146000144 -0.08099802738765677 -0.05311103778944343 0.006790591331197482 0.13301019167352324 0.005968998133890756 -0.03860504287695886 -0.0005232854075355637 0.03936615431973771 -0.12932188812300607 0.12861453638568524 -0.10844479197189837 -0.04131486377532607 -0.07865442115802289 -0.10228175245411596 -0.1924884638257822 -0.07307437316745696 0.1911578823429853 -0.15294496842674216 -0.04325763239604662 -0.07313021828658445 -0.08251148414800921 -0.09722636170058233 0.06749198646142045 0.07673068566058278 0.08014659248938684 0.06358507985987445 -0.11484180164000449 0.013805291317334786 -0.16940804649929544 0.1003605306291956 -0.17987448366982622 -0.20069749276695842 0.2837079412871828 0.03444314266472962 -0.12930743685275015 -0.261170177434848 -0.011106147244697264 -0.03807479031800657 0.034234330301412506 0.05535959840227932 -0.034041401179894806 0.15852861485036773 -0.1537670561276258 -0.042942715766075314 -0.10233012569726342 -0.1920914372128618 0.10645718033439817 -0.32043773259769204 0.15187449011662627 0.17736416714601905 0.008530513105969743 -0.17748995958736982 0.17617220924659246 0.197655292972649 0.06993891064374715 0.1983013410553422 0.07828867626083946 -0.3391322740352778 0.15133903299164506 0.344511205816687 0.41031032967249426 -0.12355627811141347 -0.19115142934778842
115 -0.05646707201009981 0.09338736326265917 0.009735612107783708 0.19225016137843517 0.00714984819352436 0.16757622732233776 -0.19258417384904947 0.032523565519658904 0.0740255760846473 0.12241446276727375 -0.06303888278450202 0.07600527513976559 -0.012084759780228875 0.03967432396895625 -0.06718799895418559 -0.14630209839086825 -0.09352340380666735 -0.167205250261037 -0.023647018182660143 -0.1018222160024905 0.13195535326606378 -0.013721775900939284 -0.08345251250883198 0.005032799827623801 -0.025503437094724985 0.04587368531874395 -0.13030972567446675 0.06536145768290767 -0.06526227777018331 -0.0321067961097177 0.029581859518595727 -0.08225960966344104 0.1263479135015068 -0.02049577734493227 0.06363945500246052 0.03376766980655881 0.06676898169978558 -0.018693683354979524 -0.013067488124498268 -0.008314681908657102 -0.023385581178627737 -0.02680809529974783 -0.1357204006028427 -0.02440835912714527 -0.16364147217000172 -0.007279208301912877 -0.06148581581218198 0.052086780574302896 -0.02743606547950761 -0.020694085030747964 0.01818101431475153 0.014499293175555863 0.008926823184989262 0.036233311507119545 -0.01263784548395376 -0.03877890571660562 0.03867381320626722 -0.053729412881205994 0.015075634534624146 0.008159977429380308 -0.04119987261103586 -0.012731031225629083 0.001249965191816694 0.017293503106389146 0.02393342447441345 0.048056602456889606 0.03363752932313991 -0.07741801701194462 0.02514937324666948 0.21185822844588492 -0.025298994542601174 -0.014817103881791686 -0.05443581188733585 -0.09836658877686257 -0.06569431032584544 -0.19208274311393775 0.024629290981922968 0.04334638093314285 0.017404115457580357 -0.0060095873869145935 -0.03478433633122289 -0.03378240863422742 -0.08526678041581835 -0.011057888415742848 -0.1742740444832618 0.04688375809696683 0.007720294171576096 -0.2367208952981252 -0.09479197663284583 -0.009279519567795814 -0.18054698332604827 -0.24182480077556257 -0.1665974671789759 -0.14669040823171117 0.2607068396029971 -0.02346621940733566 -0.5506279484315969 -0.24722393776070692 0.05807697554351505 -0.0751264131004655 0.08921858628626936 0.36566348613848354 0.5151879525114582 -0.1673406730806422 0.08474279415435006 0.28301774596655105 -0.0569719491709626 -0.02488192514583169 0.07030074568966506 0.3881979315652933 0.10367736914241008 -0.4545512286801749 -0.2857053751838442 -0.03848718767381655 0.18009163387881608 -0.17093659469678635 0.057602253687691056 0.06703774075944258 -0.2302109884151749 -0.06924770556591163 -0.060331392300412484 -0.5681108652467382 0.26853864535545074 0.28675360214715223 -0.11947623419607466 0.00871859677115586 -0.10579667593306111 -0.39471068166000406
116 -0.008124368100900404 -0.08887490824460344 -0.07948843415160045 -0.08954659756052634 -0.011735936704465391 -0.06400957279098712 -0.02488899037130575 -0.13583283422913395 0.01625853847987714 0.029957762584246962 0.0982142646629182 0.0736858983959289 0.0067237950902415715 -0.008372135312768515 0.08835450214070852 0.002698601102217142 0.07344294330362956 0.012723605397538773 -0.03541014365239942 -0.10272764687192414 0.01361734403444632 0.20049143184794313 0.011666142613808763 0.05430185520083925 -0.035108549952332584 -0.0364505761815005 0.027491551083233926 -0.057558223855501245 0.03803054183694093 -0.003681299087559123 0.03894937798778028 0.0014111618786053098 -0.022468896454294146 -0.023698733392578927 0.016647922318531357 0.05729048330836535 -0.02389012623549651 0.009647731705619314 -0.013751115203040964 -0.025658168352626087 0.043250497545311 -0.004161565520488618 -0.0264293282693289 -0.0405160264514468 -0.13159050793973995 -0.08441960227897718 -0.001098782539343653 -0.0009707652539415808 -0.01801762213723596 -0.12224631557821314 -0.08319444664022449 0.02887590502536218 -0.14791275133538595 0.047941526118751424 0.03493258362775494 -0.1076206910489243 0.041253345240829464 -0.003817364033679834 0.03314803101120514 0.11434748093009096 0.19073066324829266 -0.020069479038448346 0.09659185460496113 -0.2762733661370969 0.15064304041573273 0.0597702005869129 -0.02614630337335042 0.13641747953151423 -0.07301630944042119 0.1257295988214442 0.11409377116914178 0.2011777165262882 -0.05977829576666964 0.1337075845435963 -0.07387816298255974 -0.10040622442839871 -0.05994258802350196 0.0716702329965447 0.0008797568916888395 0.05311579354498925 0.12874901340930747 -0.20452867436603347 0.02764947281996591 -0.08600248178341317 -0.010526241709743808 -0.12685362055253455 0.1964339609326675 -0.10552379783096788 -0.28345989331268945 0.248807302758598 -0.015302822773578273 -0.03280159232310413 0.028346838597186178 -0.08106729194960652 0.13993341552907393 -0.12833524822781064 0.02060523154409149 -0.05524725446691699 0.021480690192298653 -0.07192219910415741 0.09497608394977414 -0.020150000571768113 -0.0894969653760945 -0.05805604010075602 0.07354283788792976 0.10827673741908216 -0.04896164718646612 0.05614524450793207 -0.0988357601172657 -0.14317035006529474 0.10872464250256227 -0.14686431059657318 -0.0053678104770906385 0.035273643345202964 -0.05647026927118752 0.06759705396680636 -0.0733711326773147 -0.20893635296912852 -0.2939287887452761 0.015049705432236916 0.29495151491285493 0.006268839604905105 0.011638419926722814 0.04144747450130671 0.01086838034240568 0.21449530634368077 -0.0018702015639771512 -0.12281959450292064
117 -0.020293660034563715 -0.019951340215806298 -0.06133908397142609 0.09601076506978631 0.10368748508042193 -0.06234162593132931 -0.013400695500265168 -0.06041552216533494 0.00954502567510791 -0.11211623760979732 -0.15303368889648478 -0.07793203859621982 -0.013544801018608268 -0.0296191095576419 -0.059211496169958744 0.0304881507655652 -0.010477207881586195 -0.050719122594821454 0.010773080679627395 0.024708430153655446 0.036995260123688804 -0.06566321437383808 0.029593841588515583 -0.03581786536603169 0.043933322504226 0.010865115977179707 0.10062258947137712 0.07566483811744908 -0.029559154773703068 -0.09806224550736571 -0.015933511641760205 -0.004816809704858618 0.04317386115701874 -0.029452737805547545 0.05363489880353896 -0.08136878987448523 -0.034593656990743446 -0.01446442190078033 0.005157552481397536 0.04222217414008909 -0.03606406596468393 -0.004071540533613309 0.15170610697314335 -0.039718716741160544 -0.027945336067130663 0.07320881858100722 -0.09118857062118166 0.10825819649295469 -0.023682744841736887 0.08659283333241533 0.09031947245598662 0.0254212812213655 0.11927185452450645 -0.06207442307724817 0.08840455306495441 -0.04560890876771625 0.08692681143635192 -0.05260529823980916 -0.0314841905425744 0.06507530219257017 -0.08512534891979838 -0.06366289271862607 0.014729075702146573 0.005167210480392876 -0.04788958756307387 0.0008115612864001026 -0.04786631927755152 0.058005231314824664 0.08559721062386548 0.07705534544127692 0.10320100908623893 -0.06192721430987537 -0.032674827059115175 -0.020036579205876655 0.06815377852462423 0.15322112350164285 -0.0996344092241815 0.011625694365284057 -0.06513912025379015 0.048104528463635346 -0.07731624914433852 -0.05478193998676099 -0.019487927963684225 0.2034692903834531 0.052455156587043875 0.1958444472856743 0.00110305573540613 -0.01515183405502367 0.022908658531311042 0.0037451168972096114 0.025711184966976195 0.05000005197438608 -0.01864907344983407 0.09873930772722882 -0.038683569677805306 -0.01730720609473662 0.026072762411884935 -0.08979367615758643 0.04016992530983931 -0.07678239814841367 -0.102860415363547 0.11562950005978138 0.0716791866914461 0.050029867212614355 0.13213043714557457 0.07248997475369792 -0.019611530959986984 -0.24167605810230555 0.12741580447348846 -0.04450838262776038 0.04499738933277496 0.1350354908648775 0.005409040639449825 -0.11545620470699362 0.17838940372947784 -0.09003962274068132 0.09364231620754523 -0.030737298745100453 0.02072300061405046 0.03782362907683418 0.24657867497189837 0.05786910024902834 -0.28553752960857837 0.06758531397282554 0.31510424362648876 0.3134695900806596 -0.1204531485252356 -0.16196993400214607
118 0.013633395825740687 0.02700350160591079 0.041501339849532796 0.06669825203573898 -0.061735480826630815 0.10862145986678563 0.009808268336447632 -0.06508726989957986 -0.0020077125601563267 -0.010034493643118012 -0.013358230476772577 -0.0675126056994534 -0.024571610551913578 -0.06690483038912957 0.04935179622185111 0.009513535906400269 0.01676389303447502 -0.08554264584030868 0.2133781833346326 0.019435016845093273 -0.04057038658317685 0.06303918535031709 -0.0012037433867473379 0.04145652478604598 -0.026202229559864763 0.043061116599440195 0.032425212594238556 0.15941032752804396 -0.004938517420039737 0.0545162645103717 -0.020897837234248626 -0.04896345934410675 -0.08270235596482366 0.053067642690261915 -0.006655508970528514 0.07872003608842859 -0.009793936072458782 0.0006287678532921391 -0.13102607811572797 -0.17397136008302355 -0.035975805095371294 -0.0639920893311837 -0.11615762533702088 -0.09853267552842457 -0.03272135216741075 0.09189435488554157 -0.03874483007571051 -0.15854651658132946 -0.15394443725240603 0.11666501710528707 -0.07647539966741641 0.0016268080887560364 0.06721900164749309 0.008502309094559492 0.029794353471125787 -0.006953890420194324 0.0006262370711493058 -0.05944593648974127 -0.10949376057947625 -0.027353971570274863 -0.0018794337890240458 0.046336587721357014 0.07648423458929009 0.028722260232691844 -0.09496324618407431 -0.1049976330556806 -0.07752952516369427 0.0013452864597922251 -0.15955221088385607 0.06233733733311857 0.041219904516273054 0.03509279281165302 -0.017625784425712967 -0.10970204840100757 0.050828213148048994 -0.14842481101739372 -0.05087396023060362 0.10765888139512324 -0.0731869293938118 0.02401180369652331 -0.13199971100605978 0.018927120642523127 -0.03997508335806931 0.04686242842908355 0.047328868338460235 0.21412418884480727 -0.025678753208773008 -0.16480582531650143 0.03345982226575535 -0.06561105895282147 0.17582100183483934 -0.09631353838306403 0.207896878128528 -0.09836235989808272 0.020511158140944064 0.16433943332068995 0.07417292479099064 -0.011097443478791566 0.11615796285673813 -0.03701323323350552 0.044680463858099276 0.09737975122992133 0.015429755246699595 -0.10656038112643611 0.08345977774356889 0.05456570282443761 -0.10743106688928264 -0.25372818386325713 0.10323244875986312 -0.06267226926621627 0.09624726391606184 0.20568163728018266 0.00676061052438622 -0.1884864425576373 0.27500402919182954 -0.1259496148362943 0.1550920137591198 -0.13815597860906612 0.11704820126915015 0.14507212526026128 0.20719571979933807 0.04266112130794767 -0.2760239093851736 -0.05143385537267225 0.4748677320443671 0.2936253056308218 -0.18591495849754766 -0.232300639436454
119 0.06756354672474428 0.14075056163731237 0.0614970807655144 0.07075597056115301 -0.008116185513119697 -0.10852312371480329 -0.08012590171681028 0.08238086555601537 -0.26567918000266905 0.044186321212361705 -0.07446124479072429 0.030078853031014832 0.007705518140466703 0.0967223050964093 0.012293303397421167 -0.008462925831092321 0.032831669640201705 -0.07972993024201037 0.06079766288024914 0.0034424278216370896 0.048146580373425826 0.06841332612830453 -0.08104879828436563 -0.0812710216746028 0.07400901717414224 0.3185450447500067 0.028163893813144252 0.1303615856583311 0.02398447344703599 0.0896959489526799 -0.009272452381518359 -0.08141570855946276 0.04465418407793064 -0.15601942283821105 -0.008769792808865062 0.08691940718257071 -0.17401690598230046 0.16982984387507907 -0.1013235956188973 0.09444329879715314 0.07110449790571823 -0.08375761368688575 0.15451482048296877 0.10938538924707432 -0.0415743243248822 0.09945288032287036 0.03289369618661461 -0.05232854529135747 -0.08169735610329891 -0.07471916796341 -0.08589471363203928 -0.018279870786601385 0.20656399055849328 -0.03394063896226062 -0.052786971347811906 0.14745892475961805 0.05215910846710019 0.16110065797277426 -0.11762694797747061 0.11373264308908555 0.08521587977601167 0.10257839439050664 0.05768200815256588 0.10111382609171166 0.17963560892548838 0.04568036833690324 -0.17008757237476854 -0.10177485681583905 -0.013556887632521221 -0.00834948820219498 0.03709331809912208 -0.008926729520026046 0.11087322748709028 0.25180642443504314 -0.18999198787916977 -0.042130665235544464 -0.22864793310848405 -0.04075691045140031 0.18787891019208983 -0.005499278080035102 0.06557746410918176 0.14662740366473406 -0.1406437631210205 0.21054892758056135 -0.3368069190691719 0.145913321435732 0.146188687611322 -0.20098750899870624 0.3070016124983705 -0.13089352214810418 0.03085223817792935 -0.24015521312035876 -0.12175850943525465 -0.018167468452866653 0.13620254878383378 0.028824525970513718 0.027930721903911992 -0.10164584149630539 -0.36435820572900945 -0.03179241374678456 0.24696241472238895 -0.008302919721977832 -0.402363531829015 0.2693047537013892 -0.30914089218451213 0.030370979679477758 -0.288686022676962 0.04170853328634321 -0.1847377879851729 -0.2598959417765122 0.11332958356266169 -0.14135850486107066 0.3567259766583565 0.4705622697096589 0.4314210860466158 -0.2796875454422952 -0.28717886631779355 0.26400898854968474 -0.18961109900768594 -0.5741005529853188 0.042483027726301754 0.2871447410815191 0.10173196254030467 0.13673507650453218 0.26617045596084954 -0.31722113445905453 0.46084197037395475 -0.5940420581907718
12 -0.037912472912117516 0.039396521120576705 0.03623218941639668 0.07765694497248912 0.11848710865665994 -0.1146700122853086 0.006703162836762186 0.10148833373173699 -0.05368704444549964 0.02372382230508303 -0.1284572413726607 -0.047739769502435726 0.005623895570643517 -0.12697937688100533 -0.04530504247549642 0.0248468074793533 0.1456910181737296 -0.0646513139578645 0.027708951126546293 -0.14065127369724825 0.027215633602758495 0.10894511856399504 0.03315792200681737 0.058200678110012956 0.03224735105228957 -0.015346602273350479 -0.15487260196021105 0.10158160788617202 -0.03888230927931628 -0.0026696835828813985 0.11151184771033618 -0.0031858847856544277 0.10880012044255634 -0.0512967512558372 0.0771718009843137 -0.19907752462215825 0.0164612889924869 0.12286135862938334 0.08541448764284759 -0.03686210975643618 -0.00944631336927189 -0.07806851796293983 -0.020744996707178456 0.025135749752938884 0.14590269042592105 0.029120425792662535 0.07299281278350873 0.1464788175880928 -0.032903236308950486 0.03996157699217095 0.2299574964298597 0.11053281053877713 -0.14993345506857172 0.02092849653440711 0.012037377678392091 0.10620529105636209 0.016572261387483248 -0.05057773692096205 -0.04353139089902584 0.07882688049657652 -0.034430568152782316 -0.038344206423055575 0.0013093911696962436 0.060253933358664226 0.1003989889571615 -0.0008766592697154315 0.05049864165090591 0.036121847481131404 0.38911892787043656 -0.02934848565728537 -0.10359596610875511 0.11561406821111225 0.01074770202486334 -0.21645356214018555 0.024281875799803794 0.001540462225342824 -0.01791809788867878 -0.026660114950083094 0.09139720537757867 -0.018298244834942592 -0.05579128443964389 -0.010864602908450576 -0.045196726731199496 0.07102995051049586 -0.20183572243381848 0.02487691855379949 -0.09966254789212893 0.1813735027391863 0.18562901573244436 0.24743345991723967 0.040232993816019746 -0.1579270415653595 0.23892051985467022 0.04656929504762467 0.19583681912728637 -0.11505588745826725 -0.053093889168833404 0.25644679000738013 0.03105233841751278 -0.013895048904798089 -0.35839025544303793 0.5089487090530271 -0.035953117007704385 0.23589751428447764 0.012508736460067315 -0.006386845961822299 -0.03120856383445214 -0.034663091242791884 0.3340579119326829 -0.06329784045016475 -0.0955529781234013 -0.030019699445999016 0.10496779602798272 -0.059296620757556096 -0.2534355962762753 -0.2818413453134838 -0.2871603619928628 -0.18198733203807 0.10724382083864722 0.06488652673509446 0.09618937147104312 0.06729994778526709 -0.1892841661475254 0.09810779156735484 0.2586238529909952 0.29465800761051836 -0.11134320729160212 -0.18242135208187205
120 0.050573073152456134 -0.009808979599351677 0.07932510376951837 0.06675823781938749 0.05466454662555603 -0.000834905683868313 0.008935449974304704 0.010532574970773693 0.09915619349394474 0.0848685756315376 0.054001553402230916 -0.20232445315911124 0.06231398528341064 0.04702085328723685 0.0636185730584072 -0.001216528676198409 0.07025165722732174 0.02986340096876714 -0.059004196005387644 -0.008092045375774863 -0.013688915186648255 -0.032125238171703194 -0.013886893345785665 0.1435372699227172 -0.031351224837250335 0.06720863419231922 0.006607621816332867 -0.1745251552703254 -0.02654680381381379 -0.04706878018464663 -0.03007211578685523 0.10322230768999677 -0.036364744836583966 -0.08732407900896727 -0.10463052816438757 -0.016627747094701117 -0.0736679854220239 0.07825402211701937 -0.06956542332548622 -0.0886676674709887 -0.10625255069279219 0.08043919306307357 0.0838264126350752 0.011885018571979692 -0.08870283475393649 -0.06766494140155487 -0.11427682668826625 0.1129331442144156 0.06576661809237522 0.1419796176832023 0.08385782202659524 -0.00559498735782963 0.07912243908517541 0.06478761951988045 0.055737979786679596 -0.03635054211274418 0.04035021708006957 -0.02296332901253809 -0.0670269077159375 0.02816215041026215 -0.03866752888078807 0.03218227601404749 -0.0045711322669373475 0.07729576765938612 -0.019689709171171712 0.09852441625148743 0.05835830026588142 -0.0382208120389738 -0.05954544078423307 0.08261086292065631 -0.11946526416954138 0.003936539049709994 -0.057369451014122747 -0.056524143530523686 -0.08748641515276885 0.12565838129024776 0.08206316320134502 -0.2335425070313324 -0.032789779628364414 0.11243704272033697 0.12655572390652062 0.12745544088377142 0.10496641593245727 0.2746415907574017 0.020178319458686447 -0.02679944765408697 -0.11467146687670793 0.17263428525013527 -0.020618246148187684 -0.03159146866448598 0.22387869049478426 -0.061878230023680446 -0.21478690203805173 0.05265724095804112 -0.09265611572307439 -0.01084203427641671 0.12826109670342495 -0.1639001362371957 0.019733590981184115 -0.08132444159786274 -0.18753949138067808 0.24228521381477533 0.0039661841985203835 -0.046609291340051526 0.0815278270677904 -0.1406079297703005 -0.21154970993511016 -0.21095339008070788 0.2444539034451906 0.0037894352149940138 -0.08449088471865311 -0.07392881124088231 0.18697547748134524 0.08381267045218539 -0.059523550474699406 0.10477666876322583 -0.19440766401226034 0.0684885964875475 0.07841586222087357 0.1120125389026524 0.2219694153866368 0.001947578896612253 -0.2775042446696925 -0.0604751998589342 0.16147376044931763 0.2177217597490014 -0.2679798476019892 -0.2408208495831782
121 -0.0008507103726971037 0.010247231366167614 0.0803917774245694 -0.06564615398388202 0.04765450921760732 0.1518502510081014 0.06693430446475972 0.018119150250697047 0.05404354031752192 -0.09774364573073743 0.005647262340589683 0.09912291149118513 0.0059416556155833695 0.017578636532378095 -0.03374119351130081 0.006685678328333809 -0.06929023517334108 -0.05719861744623666 -0.007339151480576519 0.019590592722764935 0.020966608930478824 -0.10108169455351408 0.016751608169815094 0.05641340065203295 -0.06488550645369988 -0.005400464191258327 -0.10175020094746605 0.03219980606766486 -0.03163768478156294 0.05795040119697828 -0.07918736355830133 0.01448228708623405 0.017259409277782176 0.01095064710162643 0.10489901348359125 0.0520070108797356 -0.09352626803453644 -0.14604517192351996 -0.11002271228996115 -0.07218468201156616 0.12213303314012193 0.011629195638652423 0.03421282050458284 -0.0029604456556803255 -0.009226466789956377 -0.052380435082032634 0.07062011680802592 0.0036195229125872115 0.05621835450311357 0.004623081516949023 -0.1525888390787223 0.07693987062066866 -0.01153794003029115 -0.05253278340570239 -0.04632829374527089 -0.008911885687954112 0.09186716901614422 0.04308311763658135 -0.14692000318971832 0.04355958533801073 0.007083290316833287 0.00553143458129778 0.06725642645297499 0.09299281229852491 0.07525340204331891 -0.028673019819179694 -0.10146066877120881 0.09171687420518904 -0.2159376445692213 0.21746227971396057 -0.007584560079770726 0.02263973470557235 -0.15102116767879004 0.01727370294836268 -0.15068787111629134 -0.006959703918107033 -0.08901173175295936 0.03948810169397573 -0.16724508254113424 0.18856202034164607 0.05897335304633626 -0.07469532326006174 0.017479755893455937 -0.13941390697780362 0.005108767495897757 -0.017534059178929685 0.13160771906027513 0.0768994233760385 -0.024594735556491887 0.027456797461290084 -0.006096441256149883 0.15882753590080692 -0.07753185259977817 -0.05626728161602955 0.09807384774155575 0.05029087158604987 0.15753869154700328 -0.09912193519642147 -0.08096136359820437 -0.12500661914407984 0.051616627050051406 -0.045169197280132925 -0.01862134503384376 -0.006882097895148424 0.045446037549913734 -0.03230453660705491 -0.07592066760648984 -0.21478210060127303 0.09627885219719332 -0.1604244850779414 0.027785871251501715 -0.025108891998591062 0.07150439094123624 -0.050638822991548794 0.1436723570966775 0.13289375258845795 0.0354530952964202 0.018220586903608043 -0.13997855761740502 0.022510275051753497 0.3234180704358391 0.03799316451257731 -0.18970566999972993 0.04003493292620072 0.1726247860211229 0.24972624229590168 -0.10134088306105504 -0.14609910815383167
122 0.05349206759214201 -0.10237466579891828 0.061773848246972664 -0.013032524421195596 -0.0264396105843653 0.12103270178338937 0.016874209469799048 0.018214064739944105 0.006037379645981336 0.10402775026963852 0.12446102950767322 0.024289223680852064 -0.03701504805584182 0.0417734080558414 -0.03219281673262391 -0.004655037700150565 -0.23055861555185087 0.01723183893382706 -0.047380292474091805 0.08299028009002976 0.010777887329554725 -0.16689967350206666 -0.04735032391101568 0.006042131928650964 0.050487073705191156 0.01681532766572408 -0.15825923988588717 0.060610940737794224 -0.09046850433352978 0.07517615893246332 -0.144611791590541 -0.009997416778547643 0.01775265257174205 0.07658315148896427 -0.1469630638087155 0.0061914176549582 0.07877024210015332 0.028018963667590213 -0.09463211741693416 0.047628825821321955 0.06531633529893653 -0.1432634461025627 0.017330667518711797 0.162330168304172 -0.007841152308737184 -0.0020737592697976375 0.04730370086309918 -0.08871645094140547 -0.016815401946374393 -0.04025849550249101 0.09816270738909996 -0.06336258159840709 0.0034288380611764736 -0.022584359886356653 0.15858625721742262 0.020808238530560363 -0.03469776074258463 0.04042105459879569 0.14980699863276337 -0.001553628320153279 0.03070073370452586 0.10921639854958065 -0.03482657363182814 -0.01773152585765599 -0.03462299459601862 -0.16020172788375886 -0.09850412537735456 0.028273871866729805 0.02357685813064088 -0.12444433390502727 0.03584551718203606 0.018482086321504675 0.1008137563282486 0.06726252328151705 -0.07115396032477163 0.09218496105778937 0.005750261067616132 -0.020756012323628868 -0.07990815526268852 -0.20281864826712592 0.023449991509745416 0.2591637875688249 -0.10974067853437965 -0.08119298877277024 -0.1589088839571134 -0.1959896518173914 0.06827422927946232 0.037161645498884156 -0.08945907317627423 0.023990429762494707 0.10180778542594113 0.06675196163530031 -0.1846520786118804 -0.24471227958377412 -0.002570446554474038 0.0034571231281434853 -0.02346503288929099 -0.09121181077544879 -0.041179484420167674 -0.21203654004516978 0.04753328071582022 0.007863561565080925 -0.031082013828329254 0.09180442675318953 0.24890748368345725 0.14877235962335847 -0.05012777242230425 -0.09840129365756234 -0.14357922322446207 -0.1357352722670845 0.07820334166726967 -0.010217676288948324 0.09134095158605728 -0.12795073945033875 0.05699751938384748 -0.08032457744824492 0.11844064797181816 0.1331457802418399 -0.09071021479790133 -0.06735405769697103 0.21656622717881696 0.17324481595552357 -0.30195668050337066 0.09869564444615214 0.2739213974801887 0.42538139819275805 -0.08974630295483055 -0.15941800753345567
123 -0.10535641327554553 -0.06123844974751852 -0.09161011709979999 0.029674444571152776 0.10508692932474581 0.13239245694531374 0.09070183038931211 -0.14580482392289593 0.05584173993582642 -0.16593878046773536 -0.1900812723043083 0.044513378038950877 0.04921348042568091 -0.07147645517347265 -0.12877519484168495 0.0032709473171275076 -0.1666889437190879 0.05771283879865015 -0.03375687587008066 -0.040056349469279176 -0.00395740070413504 0.1344753699712744 -0.06175643352501872 -0.10903763070376617 0.04876195832003965 0.10543254270746706 -0.12288459799101462 0.2096998347708182 -0.004889673255166184 -0.10384223254921397 -0.07976961107075116 0.09838018303415216 -0.02754162973460085 -0.08858389373206671 -0.07538027974861936 -0.14759603795324408 0.04049894909646314 -0.11163907431336621 0.06187285147943706 0.027820358984246233 0.016767244763382025 0.03070285350926213 -0.1625159430048944 0.056860824295646345 -0.07192187515987812 -0.050017008512593775 0.06058746365548625 0.1041067858340899 0.0873326942321478 -0.08952677352010147 0.044689200525447774 -0.07976702650425566 0.057348045578161755 -0.11088522968956578 0.027643990498940677 -0.06788747363697908 -0.010435301667343602 -0.10496974638592708 0.020321258756728026 0.11377935039125736 0.1095216973225743 0.09544357776996253 -0.044202981386481585 -0.09614134839450963 -0.027845015393207995 0.016468592218708715 0.13104331985323758 -0.11711895731680452 0.04176696023858255 -0.31403904842541736 0.0880842081033219 -0.01911948973142534 0.14332398009825933 0.1601348009006195 0.03708927160273547 -0.003936377661243032 -0.1268767313210476 -0.11546428270500084 -0.010271872771264396 -0.04204478009166598 0.06191245761887535 0.18919352134245263 0.17048264879715166 -0.09417301883778666 -0.17839266376210158 -0.0790189777136441 0.010730087419993579 0.07445069233957498 0.07463867590470318 -0.021252553329475683 -0.13651975178069936 0.10006043768193999 -0.15035717332473184 0.0326163914308709 0.13364853236226795 -0.343649530173769 0.06311750706524359 -0.11859365289953179 0.12529267186108525 0.20183441651805267 -0.17004679568961734 -0.040190492257047926 0.03725513107221081 -0.2613932716190109 0.08061303697020059 0.20775760600077497 -0.198676311759338 0.06712704042461543 -0.08639626960436131 0.555015382100923 0.23358928779251598 -0.07009554953153278 -0.06324226906892873 0.26264229555753404 -0.10328477273857406 -0.0837852342803764 -0.023973263741724347 0.0014553985377691201 -0.08152857645466158 0.05167547119602137 0.11557467448962372 -0.3422407181691888 -0.004350618296664111 -0.16549839930099156 -0.1424375189426784 -0.136789884429467 -0.3364643557726611 -0.4060510664786921
124 0.01031483981679862 -0.008400720659921139 -0.0058560613650941945 0.028279143739504336 0.1938749615704923 0.018675146515154836 -0.07030086349243501 -0.08045536996520287 -0.04421141889153433 -0.06168962061426348 0.03762148786507853 0.058662239362241235 0.003293470577434278 -0.032739526089162946 -0.07341728180624549 0.001991874582799576 -0.05798466085168287 -0.08210415163154779 0.058094732317599866 -0.16704423264927426 -0.024494864139913503 -0.12259143757195849 -0.11226160032135866 0.07374576612601734 -0.06929015629645542 0.0742398513669614 0.07978398609618846 -0.18486719287410464 0.04022576094502103 -0.20955944582672734 -0.2009440876377029 0.15550274739173336 -0.2693918390403905 0.3227198754241752 -0.024318335369384755 0.3465811616822189 0.06946113044233428 -0.2560869806034203 -0.02902333804992966 -0.14940192447042053 0.02210490695655097 -0.024143792044942186 -0.30480524572065654 -0.10151518819262888 0.036002991996467115 0.3156748691438605 -0.3353366078199202 -0.07597244068331942 -0.4376802966412307 0.12876854599122853 -0.06649690408877004 -0.2808047925389778 0.30126118202565616 -0.07538568212189305 -0.26880317173927837 -0.2682840833198264 -0.14759993671860552 0.23719491195648942 0.053201307387619245 0.038128877844076946 0.24400481515847344 -0.023297419053246168 0.2642465206143733 0.17181977771701595 0.33017325794920865 0.0761684478575877 -0.6026533874717243 -0.36831030319641445 0.14549867218978516 0.20365359498982366 -0.15908488762316103 -0.18548053654716742 -0.0217587666003905 0.09775203943961873 0.23531749074175007 -0.009007240076856857 0.13760501092278918 0.3863776189386135 -0.10889273657614423 0.120479482732926 0.15643736513460021 0.20071944815036777 0.3789582618982546 -0.1715920713310762 -0.06685835472719727 0.0491057214724814 -0.1879326607824417 -0.07759944985962687 -0.11375882976259172 0.1329366001731742 -0.15851629286056096 -0.05466739603769094 -0.054183652348344546 0.22563752631198067 0.07687999648557117 0.04262106512730357 -0.01840121289165965 -0.015410427343677712 0.17823868341189586 0.42385611378559135 -0.5677282488658236 -0.33324902068811685 0.3205268773897717 0.6581223245592589 -0.059609922662682495 0.054800660013217956 0.19995058336383068 0.3047493685503657 -0.10156021088640348 0.06446957511252059 0.08711013495364157 -0.4728515521126256 0.4939494625937427 -0.0921032901892195 -0.6494282715152311 -0.37708755516895776 -0.45234973080804686 -0.28514040942597835 -0.34959743417015826 0.18309653477340052 -0.7454535996810676 0.36188225727082796 -0.3408498056498293 0.28447102160035453 0.42030297646597636 0.7175362309268469 -0.11402592525319748 -0.45114995178980305
125 -0.1278297393092039 -0.0659221882062921 0.10874496427684485 0.10221580587877399 0.06368396902171047 0.16799376582164705 -0.1473271566386615 0.016850823251744765 -0.08953946966661598 0.04490924080798938 0.07630474397607344 -0.10227105930263145 -0.0465267674532952 -0.03539045030637704 0.06152430038185786 0.029971963885447157 -0.08846869573151513 0.1383175047824896 -0.059786255147233236 0.10354403737694834 -0.030296492291496228 0.05265048515194178 -0.011931431371587836 0.07626839562158697 -0.06537745440290657 0.030170920713409856 -0.06161516284199107 0.21755569124369872 -0.0618676324904863 0.007831169357499529 -0.07554318569606015 -0.014413595821013734 -0.14257749353170676 -0.00831406336719217 -0.1286798845832896 -0.06391815823133122 -0.033252799358285956 -0.12443391281260348 0.038241325074801165 -0.08714843457670378 -0.06571481761774497 0.15673308111836554 0.010776050462697516 0.005909963029399598 -0.07091052489818199 -0.027497692438494866 -0.056170104336221244 -0.01968911003069424 0.0714249199799302 0.0284663139405165 0.08597715589444387 0.002815656465313297 -0.09065447201492179 0.032837550077731995 0.04177825834665463 0.08852664377364416 -0.08705419291546908 0.01579734490925957 -0.1181214532735906 0.04836830524170209 -0.010398815027504846 0.06076833803596884 -0.09406663542213037 -0.05619616528403542 -0.017675384218009994 -0.0063111180126160064 -0.08998256778765006 0.07996842883661806 0.09654468642127022 -0.0840521083945784 0.0377152992940558 0.005778213192602565 -0.012680194317433904 0.12906623297157088 -0.006053877576933004 0.007811954819611455 0.12087701856799628 0.035345955753033904 0.008365708384839502 0.1317790017226898 0.042144037110173505 -0.0006563285063864907 0.049475696494473274 0.19465837309820133 0.05691485834116719 -0.07976495067756637 -0.04148116615394155 0.2157099146471651 -0.060397479971320125 -0.02387770627571624 -0.07475013071288354 -0.23468282721224182 -0.047870364150387625 -0.18290169379377677 0.09217158493839132 0.3282962348296964 -0.42815142481221646 -0.06922731754408057 -0.21652642828709517 -0.017050652459461347 -0.19571533685603823 -0.08329728608808229 0.46611329584523487 -0.22604757660361238 0.11928987077841312 -0.006473606053315677 0.0713541229878924 -0.04639203327743398 0.4555784644863553 -0.01425349504406429 0.7208813131424712 -0.07469256164625909 -0.5211175299635235 0.18926982935433134 -0.1554177657730969 -0.18041155460273114 0.09820575686970177 0.1676603260670263 -0.33574407803747336 0.004175645383097475 -0.0493023602309388 -0.2942525604549374 0.09648537830603018 0.00735149581183998 -0.07697788883813787 -0.030175830717337166 0.08016264426946394 -0.3419869365966388
126 0.012131578422918073 -0.046990444750790054 -0.012796811090715949 0.02557969525033373 -0.009038531223939014 0.043469618728335956 0.0030135713858188903 -0.047048209250947375 -0.010104857916625238 0.0274335640008146 0.026469370527377703 0.009004687537163249 -0.0072390707551093616 0.1311273410575371 -0.016637172855885354 0.05051832336584533 -0.019170786186505803 -0.010493343743980988 -0.05414044436966957 0.05452882747401996 -0.0530246909805198 0.018260332155709116 0.14766660232956488 -0.0983260068072354 -0.205120193552496 -0.19138690622015317 0.07392129658050153 -0.05665982249823444 -0.007262874246827914 -0.0014484247280474258 -0.009028417659050332 0.18127119876719497 0.018132268739535745 -0.3831480354308909 0.22692910821232004 0.046643413957157 -0.23657784586685676 -0.45076816356426425 -0.08481908624806907 -0.14266841231551758 0.10690871123860991 0.2921303645565313 0.08470430312657133 -0.15301077707877717 0.06705543260585167 0.156541647147168 0.4242775361986446 0.03950188860466905 0.014407280712172798 -0.20801901411643617 -0.7287223744596317 0.21240666942782363 0.08835904093437845 -0.039374681809697755 -0.7292477574852655 -0.16267491636877046 -0.2408266637684967 -0.0013366195868613744 0.43481324569538793 0.151359794252619 0.01227779842815948 0.09306575650361675 -0.11019764028275485 -0.08545463968767354 -0.2822979888507241 -0.3775099420015744 0.28329035092379895 -0.14143110642521364 0.5506097080710476 0.08584324448158842 0.1725552763918864 -0.30561681096642457 -0.01982986823117712 0.025124618903128955 0.015921487679726905 0.17086959046938474 -0.1544233594680184 -0.07591702631616241 -0.14754422113180563 -0.8092565612356089 0.11603518037274552 0.2795808046270665 -0.11113886456107576 0.4503622323246089 -0.39083168624448467 0.05050030202552165 0.3186653800197628 0.3379203487608474 -0.1492309609440734 0.20538693673651912 0.3181647339698649 -0.1621325708740949 0.13641010315846736 -0.03512932247761411 0.08575255986930547 0.02732488536955658 0.1712618616625041 0.05875113178427323 0.035712343901205354 -0.0935360893855652 0.10061570999737736 0.7099588399580907 -0.04278470687445657 -0.08377494797222769 0.06578644405197205 0.18515867711849737 -0.06026203562237458 0.8428173544649951 0.5316033305965006 -0.2898786439323089 -0.09996028795502132 0.08699376762161445 0.022008571447262475 -0.2569322217896765 0.10466107518496909 -0.2964366045492236 -0.18274227548680563 -0.3003268991709674 0.2652148617387789 0.2761250926333146 -0.6195491824168393 0.058984273019223064 -0.28399328355374004 -0.19563601427175395 0.6519041674004393 0.2579503751363808 -0.4477672123241839 -0.5078724856285552
127 -0.04243109140010522 0.0028185139530202924 0.07115061941514507 0.1320222467906325 -0.04319786047324041 0.014455075837464174 -0.03329784855847167 -0.008270908717923558 0.01502508577046869 -0.06368044075563714 -0.11927027731847349 -0.09349605327101931 -0.052891095586100105 -0.042274004324647375 -0.021039045565078587 -0.015333714201308923 -0.11534200260049622 0.03841588724043152 -5.158532406596402e-05 0.022068918066122368 0.043764945164982375 0.020902575631249736 -0.04567728579182765 0.006693887701867064 -0.10237556606142716 -0.0434697621439828 0.03144341553121045 -0.027385544905747978 -0.0074980702249716775 -0.024576648625411316 -0.005628142762643594 0.09886683872945741 0.1188380492199521 0.07187347931819515 -0.031004693271643433 0.09366555460677452 -0.03328119680361222 -0.0005972418369290571 0.012325550895116 0.005097025777276892 0.07118384870947327 0.12883138244155132 -0.0455793761500305 0.13585159865421614 -0.24263923607425275 0.007680451291323348 0.004459505424800651 0.1835854893849666 0.06443344358626699 0.005351839999733066 0.10546602287245421 0.038535235781620325 -0.0587578261772774 0.10026663059799774 -0.15129679034251386 -0.13442601322000125 0.20917299750590773 -0.03271667709025788 0.07580891750647523 -0.06459041286954186 0.06884304441495528 0.007720081229759471 0.1478419514853923 -0.08308420075595403 0.14745810519826127 0.05637263460255441 0.07046809316650579 -0.1617856935127388 -0.004697663060988412 0.09194251102064113 -0.03211686383304699 -0.07886099043001173 0.13489238395647488 -0.06319045520813532 -0.05380191186213194 -0.03088285413038376 0.2288492459895559 0.015820756988579755 0.009451212772762408 -0.006869033725168543 -0.06779697862280318 -0.09291556490879407 -0.1645993894029263 -0.21554327085070296 0.02830164751440053 -0.28150750529710433 -0.052499502808248215 0.14643652876017976 0.07568006854983135 0.06153983064235664 -0.007954584589542525 -0.08180940203274585 -0.19515566258630337 0.17117119730992156 -0.35042035767939334 -0.314544429267001 -0.029198260900957937 0.3261830855737189 -0.20774601046669983 0.07112152571529 0.15201784347318356 -0.10983811113789997 -0.28972788393757926 0.23587033164794421 -0.4527535095166531 -0.09849218514738392 -0.28853380187994654 0.014787655572540862 -0.0933306586120011 -0.08896337275439327 0.10754977420963958 -0.3667193106867653 -0.10454823701893512 -0.1253623076546377 0.248746689989922 -0.3410594866949646 0.10550549657566165 0.050920783661254944 0.05831736467554886 0.12550562247523003 0.08695889659862864 -0.16512141329721342 0.36721774410103164 -0.1223445443952301 0.3673953290494147 0.004739007943746076 0.0757925607687404 -0.286283683574783
128 -0.012787039879195562 0.07283896240539024 -0.08835001249564395 -0.056994432885508234 -0.011573298553447634 0.029050947286198947 -0.0011667898658230553 -0.11639952490270987 -0.009500006701751225 -0.021299308549737276 0.13898618735567758 0.07357663245644402 -0.0026450390357757453 -0.02326791217514928 -0.13768714160681045 0.031197611226680976 0.006350254392216639 0.010658530090717626 -0.06174587030077135 -0.11069436623936926 -0.047530656541553175 0.09577094791043618 0.003125084606328666 -0.009029305277931183 -0.07431309888244172 0.1028064229314379 -0.14131328031030874 -0.21254273059656456 0.17397864206272057 0.056350774627811906 -0.005007988515514169 -0.03675367453933754 -0.06630559671127986 -0.2280931252656053 -0.09704407228934188 0.07050310732916351 -0.08710684977789214 -0.22066489278683288 -0.006151987115578553 0.010857024340156509 0.09351874291973442 -0.05950688649899326 0.03818595940089541 0.18685247897132407 0.14519397056725636 -0.05639766208947669 0.014314227802025197 -0.024798981616317443 -0.11214584239449436 0.08182854280245563 -0.024369269901498826 -0.03972250778207257 -0.07378954692537089 -0.10348486130816227 0.06255925589891514 -0.06097047495995852 -0.029682511106199752 0.01379518209112698 -0.049494819138606004 -0.008076200908656761 -0.12546417257247922 -0.042137975661846426 -0.04653138118350021 -0.03151424413154589 0.05225000528225909 0.08868447098228924 0.21721813546493796 0.11307972935573532 -0.09020124073431508 -0.02122663969138131 -0.3460478330515873 0.06060925788738058 0.04958890194838361 0.19841858140629465 0.04380612538966448 -0.229356999939061 -0.0646113722861828 0.11818533921748918 -0.37075141682540413 0.12089046379131473 -0.027526284923601797 0.11525597155838833 -0.04805057119281457 -0.1133275847865245 -0.13064632904121284 0.2717676161771782 -0.1271706209260421 -0.04762419127702786 -0.004920367634562557 0.07717602598753544 0.1585546117562048 -0.14299248272948803 -0.19147218258420684 -0.019650851442049304 -0.11369861441451333 -0.08951149482370133 -0.09175029502623233 0.1713878956536483 0.008476968405221793 -0.1397523905865386 0.06230259557777408 -0.1268705952394225 -0.1793207541322816 -0.10974842753680972 -0.08529081442282191 -0.07957911605324951 0.14053079556828543 0.05734573120933454 0.3343902896757324 -0.05374510700782746 0.09946701499930977 -0.1485946767990823 0.1991541702633135 0.11736361252391256 0.08393720429218075 0.1227526087643745 0.07992041279525293 0.1845905772525733 -0.07848797104753523 -0.2465677949517139 0.3094332383399116 0.09635173092849879 -0.12124348614786527 -0.02241489673220375 0.08430253529344073 0.1615590209391476 0.07914961165027191 -0.2083647797514888
129 0.131953006412396 -0.006636931238942576 -0.033850990000250325 -0.06310827181465407 -0.059419255774759365 0.04053720547931015 0.10570861824934587 0.010781823286673847 0.03555131029920115 -0.00520833775189548 0.014098674422339249 -0.041922656528536426 0.019613888655879805 0.0009555557770746881 -0.07819298587675859 0.040044452321891015 0.03030408389287262 0.16904396302976288 0.005224632818829596 -0.04947005108860755 -0.12492057202231856 -0.018947223697808435 -0.008803354422047906 0.18856234918942077 0.06246006454545342 -0.009816346412840595 0.02207908185563087 -0.08791424596152599 0.008943397253326164 0.008822062463002912 -0.01079104771204576 -0.014342917899949039 0.03215672903432752 0.01937652499881726 -0.06137174225244217 0.04209974560444628 0.018424731715400496 0.03586368142251694 0.00489233823434722 0.03887951561546898 0.021160118599678444 -0.07520171194658525 0.03458048444270155 0.001899359676753864 -0.11140471511832808 0.01233737705750028 0.01747502975528952 -0.0038676241468027536 -0.027528721317496053 -0.031803351131850933 -0.007775626890844495 -0.005303401994030817 0.004328523385785074 -0.010851829976122575 -0.046820500404462895 0.008737924886582324 0.12637752837216645 0.01021901800079644 0.1569150205125508 0.02966553968870382 0.0016726510949710005 -0.07214033184715413 -0.043297131679557996 -0.007856996434175563 0.022860391353579274 -0.07253296519225201 -0.0071666280292413355 -0.023558830088287193 0.008976039963514057 0.1673641943048107 0.013654575581238402 -0.03146670652521016 -0.002379384659226094 0.05690075113779213 -0.0004231544477989242 -0.05611437277376871 -0.02332169156932712 -0.04407655661951354 0.014038951138455104 -0.04543597415852887 0.024316365318209826 0.03665508002297441 0.004586857663535541 0.013305098319548405 -0.1132559905276537 -0.029187956492337304 0.016448219980591452 -0.18855071004774263 -0.01469683803301229 -0.081969257449758 0.1600721917810439 -0.06638537576694914 0.0652709034388469 0.04810675088180108 0.0865518788439322 -0.02382155349145701 -0.02459883376443086 -0.0528890526828122 -0.031334791812491686 0.02412179247390892 0.09952755051247195 -0.04886305774618054 -0.07383778877031567 0.07115995333817113 0.1328823084236037 -0.05075722288955336 -0.01302880086872445 0.013723065762354185 -0.056598504257161064 0.0033230266170165817 -0.3716473896622258 0.07414666911759689 0.21691383400224112 -0.17570627215581075 0.007562075682612189 -0.327137074003953 0.0653196986947523 0.47178030637439583 -0.03899608489106484 0.08858048592031728 0.029436804604334794 -0.751670942939147 0.5067101331978706 0.4048780893837409 -0.0027056739431528436 0.23212721785730542 0.06751347742623046 -0.22566369444074139
13 -0.027243804031314305 0.022927872200175607 -0.07775259854038122 0.03424752389619465 -0.07233152735748767 0.07040371661421578 -0.04306475808036132 0.054419588010545174 0.018329281031692006 -0.20050639573780485 0.08154479699231021 -0.06148188782247395 0.07283055568216346 0.15762255742108283 0.04611637887674655 0.09412397027756665 -0.08582537735276191 -0.05190643547160189 -0.24266303354741262 0.06828626728737394 -0.029642513912459756 0.10782392054281105 -0.00365423211157435 0.017138479262760353 0.005800110393831768 -0.028666609825453868 -0.16663036019637553 -0.17415039531732202 -0.0860999954200012 0.05619717337743055 0.011683168746001102 -0.08325303453907769 -0.01475992289436133 -0.018445036754550163 -0.05012568366641072 0.006923085521049793 -0.12377767096061819 0.07626345996951904 -0.1773774860340563 0.052580546940018014 -0.016221299944977847 -0.05929187464234021 0.1865339951499912 -0.09056416638993503 -0.07443369682616942 0.23223554444532424 -0.015983634322663285 0.046538983061003965 -0.06394721969881731 0.1626072982068789 0.09707299599134098 -0.12456298033576312 -0.1769400302549054 -0.09939609040916425 0.13969911197630544 0.07319016848624942 -0.04321651516017041 -0.05419634805156306 -0.008154222497265181 -0.21252166647499102 -0.0705847698405879 0.10951947806618169 0.029096044899310922 0.03972376836033284 -0.1822747992490078 -0.08116394411290535 0.017770492417956123 -0.28025814015713 0.19206375250617116 0.04742989315843556 -0.002276602416436791 -0.06531487812017968 0.1795343293309961 -0.006060699653151879 -0.07386936006646652 0.16596752093498188 -0.16794421803944534 0.214200825978308 0.2595533891399239 0.01136741561415397 0.2598539096498675 0.2044503984361609 0.036553322155591254 0.09597304474526393 0.002974334707821446 0.10041762241276282 -0.08422376385781027 -0.015212391528235576 0.07510937523639571 -0.1315623457874138 0.13320000874659874 0.004058145286475836 0.2697445473835865 -0.013773582541836405 -0.13311337839974097 0.17334391270481342 0.14358514715637125 0.03476325319391094 0.11634788009203893 0.21745790060980139 -0.11425234830136535 -0.07989905337367699 -0.23540613087189183 -0.026466089332659416 -0.012810713351003903 0.06663855651322448 0.1432840563321126 -0.18383141384301324 -0.26777921299608726 -0.03355222131986091 0.04594732944862342 0.08337483412348709 -0.021821039581976436 -0.11735505080108492 -0.020170688000618466 -0.0925006827678025 0.2052186787734067 -0.14777028784476995 0.12323889262846274 0.04422654117659441 0.14033347739416538 0.18122820784612922 0.22227196746300792 -0.08956408739233433 -0.12544465544201297 -0.4087207428364214 -0.8407513994511522 -0.7576959139749448
130 0.06108130781327624 -0.11106278419217742 -0.10120779004607952 -0.07056895803331376 -0.020660579210382814 -0.05047198344473379 -0.03063088682961208 0.0055810326421150275 0.06333288746422533 0.05980811836837227 -0.05018225244764013 0.02767947014747678 0.05957928116840857 -0.022820131374439435 0.05225551311091385 -0.006780191163240738 0.14382797861579397 -0.1582873911946605 0.055064224862998966 -0.03416329309698406 -0.1470810656974599 -0.08510078852961912 -0.016675896180499125 0.15645454368406908 -0.019182187581033426 -0.057815326130199275 0.03585036499524557 0.02134368101559686 0.15635797766364296 0.033876711611270094 0.05870053119171044 0.19234463841118815 -0.08486331208096752 0.022996743437331282 -0.0321502098344841 0.04210631935920596 0.023472686729648497 -0.026766281907905417 -0.058894644460040745 0.16813054627239768 -0.13043870331687718 -0.011514735577913679 0.13196284750023188 0.031644697766343044 0.03334130650781506 -0.01866107994056004 -0.11094225730099296 -0.1755873409032976 -0.02533740580797691 -0.1982360745213123 0.0036526519520926975 -0.00885053101050851 0.23427123467845287 -0.09074070461695267 0.0028405664716576475 -0.07362434376485606 0.1058101975005273 0.07572864286043027 0.049181573439780524 0.029285080879019706 -0.10583158855024602 0.06900733458003175 -0.012686195167421368 0.23645548786715911 0.049812071533510666 0.2296739095649029 0.18954689521448392 0.10897532461349477 -0.006534966699712797 0.025418245543970864 -0.05418390960144702 0.1397913045156941 0.11100919298189617 -0.05180531067473801 -0.0035306186234528724 0.07223914559104484 -0.0659845433007565 0.11944483659118758 -0.02613285080761788 -0.05075828351102138 0.1952331930855257 0.06933167122287748 -0.2661286468092705 0.014800368958293115 -0.013988078176929788 0.1513487958419979 -0.08451617392556247 -0.008079925253552622 -0.179852112035386 -0.18485749854005382 -0.015206088501636487 0.1900400563874116 -0.0629277433461489 0.07122864939911573 0.029978823982223356 -0.045123287741909955 0.04383970183603583 0.1600656514206409 0.004668486140384769 0.14253206067853985 0.1281553638284089 0.20351452922456179 -0.001925270738111406 0.09729059906328971 0.25402217363399 -0.12546518571365872 0.1516839890016565 0.05573115440430477 -0.047778076705676555 0.0950265799267632 -0.13585299130594677 0.020607025831922133 0.22836361703944308 0.2646868642214048 0.11611826663323971 0.09865574381095915 -0.1608403415228619 0.16241266653178293 -0.10795652350473542 -0.40033831266467923 8.652205093141277e-05 0.3593345766386497 0.0915035819239815 -0.04481753531332052 0.48323558809617995 -0.6316456709470829 0.8094175481545619 -0.8838742113727547
