418 128
ABM1 -0.2043003971210974 0.05135217889386326 0.15305076874563825 0.2244429972951636 -0.19576047622133347 -0.1765754813731618 0.045007277130309276 -0.005249913748494058 -0.2889374579935834 -0.2907776436189483 -0.33391016987868644 0.6230291032877187 -0.29133298823639087 -0.11031235440562977 0.08993931949306443 -0.4265807603668019 0.33020174628300175 -0.11223812714630767 0.06365923310565429 0.16965778555856684 -0.19486803593224353 -0.3242707336087684 0.40995256684463593 -0.1823298025997868 0.4637212409526206 -2.7065139222475e-16 4.510856537079167e-17 -9.021713074158335e-17 -2.2970127272407824e-14 -2.255428268539584e-16 7.950384646602036e-16 -0.24105294718320358 -0.3961996180299709 0.30386734167174473 0.10195691349528342 -0.6067898761918171 0.03446549683763283 -0.029129718739313127 -0.002069662307157125 -0.11031246268317844 0.13022801257906116 0.0358855722361369 0.21832838908305696 -0.06954809616588366 -0.29927274892135414 -0.0033608918772260695 0.009009176968488032 0.18349769634189983 -0.3737215692270156 0.07086655935089965 0.06327427952419475 0.12180676347420621 0.288128918133779 0.08025445242852627 -0.2432766156485674 0.03992837574780702 -0.4309808399262939 0.16330753082478205 0.1334347838624944 -0.13694221542659007 0.020546634433389298 0.19570884006746253 -0.19545142202146293 -0.0604722298958771 -0.17038405884403363 -0.24805894084597552 -0.04886213379654908 -0.29863472225087845 -0.1603541768649986 -0.09857124626646295 -0.32056447107854513 -0.30968766441853535 0.18832179243761146 0.33915209997934165 -0.05498933565545166 -0.2203556919628551 -0.01521293497298647 0.28419581344952727 0.1479927017989116 -0.03140284063169203 -0.15257635420805965 -0.08699251865772996 -0.18945903369877587 0.336860074669189 0.35917808722392197 0.2945192484449392 -0.1556451178709576 -0.35336114522490875 0.44372855635585245 0.1761670901741435 0.2888627289670614 -0.004382606262368901 -0.026935443680498133 0.5067516602333142 0.02683241734958706 0.1790626916119723 0.02802477327095087 0.7508158250473674 0.7390773078360212 -0.12767370102055495 -0.05597134393497816 0.062126540366270556 0.05675501413721212 -0.47701116323825615 0.8420513738802541 -0.06912167340227612 -0.5443222914110846 0.47712093493675 -0.9866725717214226 0.1654389380819168 0.933578290655551 0.1281228448056513 0.14380090012621866 0.8248432982684997 -0.42054282124603676 0.43978159953867996 0.06981704604796472 0.364418641494357 0.0869511320508533 -0.32902470502648745 -0.2357479116039472 -0.32485015477415574 -0.07876602472273558 0.045342726441722346 -0.06323209892519885 0.08948109064922445 -0.028029635029175416 0.18675853703142964
ACA1 0.16480656420961068 -0.09909148347477567 -0.2794045324866362 0.21691924632003448 0.06202427836087009 0.202221588006599 -0.031569216259000665 0.11485282260840972 -0.1315950278011977 -0.21720016286009944 0.17296648335563944 0.02365887731226845 -0.12558808737904978 -0.021438222571484356 0.20130822084730182 0.2410562674043796 0.21003692450850736 -0.20636133650433708 0.06700383889919126 0.3222241584269668 -0.4536947798645117 -0.22353843276224722 -0.09559105667079529 -0.05362991200936871 0.2564264123413088 3.4959138162363536e-16 -6.540741978764792e-16 3.1575995759554174e-16 -4.950665049444386e-15 4.510856537079169e-17 -3.834228056517294e-16 0.27167818979660596 -0.036738677886680345 0.23610675665586192 -0.17514896430320084 0.12717234643481665 -0.04318682433484885 -0.17018578045695176 0.37465747457072945 -0.02904662819122631 -0.10790315001748564 0.030265163697816615 0.034850906480160766 0.01705668342657393 -0.13987244438552104 -0.035591943888370205 0.23730227699075915 0.15182988054920804 -0.0162562677185808 -0.092742464452834 -0.06582697330434355 -0.1304767357218964 -0.22322809759554685 -0.29833737093796836 -0.5956012781047242 -0.07682867594675229 -0.06050898109415813 0.22545765904407356 -0.1529289885967512 0.09170035533499278 0.3280272210505467 -0.09746327827879799 -0.2740638618959623 0.2958656204817433 0.007862150916649258 0.11829766116565078 0.3269037299927128 0.2313734792099143 0.008392749567518516 0.18302486524384798 0.28815504051625085 -0.20163744345646725 -0.39680940723067754 -0.16250743273149945 -0.2202640852687694 0.5506887204823472 -0.047790569817009326 0.05135992242202497 0.21683542344859036 -0.37266140455977825 -0.182938475669609 -0.19396507623137768 0.05268341175086353 -0.17711771056090647 0.04509430092626404 -0.2576649259281813 0.4187648001331308 0.1830754849795235 -0.029184031681114463 0.5567840066988586 0.04075688196074061 -0.11947601077684894 0.48877277983765205 0.6373066487471133 0.16838362537379045 -0.22466131271250345 0.11674573838761405 -0.25032758634156993 0.2894251323908728 0.0387624927306013 0.35531357352352405 -0.19159199811392752 0.17668790038652293 -0.2531053637357492 0.49308393918792254 1.0521048731611358 0.09794285300938818 -0.3379338988076619 -0.3365133266620908 -0.1663326030862694 0.24937090959676278 -0.029488046224119237 -0.17115851932545104 -0.34124861299462905 -0.057585659389662945 -0.32781854643484687 0.3023920442338606 -0.32597513429301683 -0.4328386623456723 -0.08334942209921335 -0.28728539425683697 -0.09062262644810311 0.4677800346793371 -0.15747798562796167 -0.5515473965717133 0.3640361109256874 0.9838808723909289 0.997680932739667
ADR1 0.11792777513252518 -0.4889388030057532 0.2084918495545241 0.028065699674638095 -0.101486327858719 -0.18313454433247633 0.022445781007713352 -0.010179029145656375 -0.14004544474104058 -0.03960812397424455 -0.03613142858841772 -0.0005254446133997056 0.31271882582240623 0.19379651060435638 0.045320274363835795 -0.07849004049936203 -0.03287362110998884 -0.7659606337084854 -0.0460834269443684 -0.4211993004526479 -0.0365902832248611 0.33545583708210774 -0.1703031082633159 -0.5486592895332536 -0.2817488421232573 9.021713074158333e-17 9.021713074158335e-16 -3.608685229663334e-16 2.9546110317868547e-15 -1.1277141342697922e-17 4.0597708833712526e-16 -0.06896326213137755 -0.04110477359064137 0.2958629867289434 -0.051459872808079773 -0.020587801483792374 -0.056515993232243364 -0.4032111197843609 0.07205663706475093 -0.2766768767604281 -0.09001398567147711 0.10044712337570486 0.1795938292345347 0.3741022022824338 -0.014995390155972038 0.333438547162752 0.33083346535649605 -0.17059917880018646 0.14975558257116098 -0.175013412967697 0.13235276816903818 0.34548471810330134 -0.11692980003286124 0.12741524787964073 -0.11390670884055554 0.13969117093029168 -0.204764790107846 0.03541759193607504 -0.06700357816650324 -0.1778290822824804 -0.12048296999183233 -0.1605337655623949 -0.6957594416260234 -0.2625988991881635 -0.5790615876332618 -0.3294016261249078 -0.3226873127400113 -0.02656776640675471 0.3107530634416415 -0.0738295231188585 -0.35565194478889894 0.13647431419744424 -0.29518828961691834 -0.03884737786214662 0.42822002254555497 -0.13225027090857444 0.3959558889612625 -0.16298267775380476 0.3149505872320597 0.2801683102779703 -0.0162923089611738 -0.2603096928206317 -0.0836383269196544 -0.06561952221946347 0.6412383099085973 0.023382603566877908 0.5083316581305821 0.09282203397612572 -0.12751429944905537 0.23409757907267115 -0.4401506631359961 0.3817288509520379 0.12442638241522606 -0.15513629031170875 0.003369559446775775 -0.11762131152106947 0.6913318364524093 0.16460321899447447 -0.0713047678144166 -0.42826740834262167 0.054998681760276176 -0.010422383706288898 -0.055225352176293256 0.23099633600215372 -0.5137528296428631 0.2946519939143957 0.12755885233242514 0.3614549369398407 0.06809623314835489 0.2983862746375019 0.3595860051561962 -0.08855851511299657 0.23856726242561518 0.14140316220570695 -0.013745273675938703 -0.11943947277752022 0.30317517043691566 0.28113126022629303 -0.7623367522800828 -0.3099375058528161 -0.32340877221839354 0.043596341690266625 -0.04456904166953973 0.016201166269105678 -0.41253069247365565 -0.22070881021226585 -0.2572079308394653 0.610041726232612
AGA1 0.1814616789610251 0.2057655007494633 0.16166465720005166 -0.09400038072873332 0.009047557537001236 0.46667832702090883 0.02322579747493091 -0.017236483063544222 -0.015716136668122747 -0.048096175277722704 0.3687197801967708 -0.33212607701394375 -0.14933642082702053 0.018307439952303103 -0.10303129128259803 0.1689278044781257 0.17390069947528783 0.3917597548918794 0.09824862054979477 0.3219500616697407 -0.11204935761436485 0.02684858689342747 0.2341405769439809 -0.015644561593597502 -0.13588371872447066 0.0 -2.2554282685395836e-16 -5.976884911629897e-16 -2.2554282685395836e-16 4.849170777360106e-16 1.1541449342917406e-17 -0.19349261100609627 -0.06247607187448738 0.2848464557361804 0.3156258801013901 -0.2905735133495722 0.6603503417793366 -0.02988471120467294 -0.2001047017274893 -0.237162751007091 -0.22224589348882928 -0.059356120952059326 0.3218377860161032 -0.19416736891830483 -0.31719564297348996 -0.01159778554559389 0.22965443206593913 0.15879029856377283 -0.49983040875301704 -0.20335342530360093 -0.21224596940160367 0.5176042541249106 -0.03354764377019252 0.17483643090057924 -0.28466244719836536 -0.04112447582900765 -0.0840257944858056 -0.10704527684578517 -0.19108099417563226 -0.07046536058137019 0.23964526728386598 -0.05286549570973355 0.35043433221796066 -0.21453792211688746 -0.26836381857430924 -0.4294061744214121 -0.2877924475035383 0.362929268277088 0.11323074974034068 0.48276961566333376 -0.11084572861123691 -0.026458362991262595 0.46863257110726003 -0.08226166697867435 -0.39118231131647163 -0.07739634489862139 0.03272343769314193 -0.044331236131348845 0.11359028343203952 0.05582047818445435 -0.35881440314751367 0.15615694005654726 0.203211741840802 0.01846316398663087 0.11675282413910823 -0.20314446874806283 0.04770367966475496 0.07677826327939231 -0.2476760167676755 -0.31538164101924 -0.3223508861869712 0.05096527532431034 -0.2204062649694594 -0.16982558405322518 -0.3318376247808707 -0.18233882850249913 -0.19951560802401747 -0.037318260708723135 -0.31831638922727173 -0.2474547367025977 0.12699550282162997 0.03809730028658593 -0.058137878081696896 -0.21404265766743263 -0.3528128211705209 -0.3176945999857926 0.06603468612844611 -0.05863645032325166 -0.31181969895372125 0.0681851068253009 -0.2656858213123633 -0.06707942969153748 -0.07894979543876056 0.1355844280284758 -0.03286085847271233 -0.131955649949605 0.42937674368747475 0.11644590966073441 0.8975258546297536 -0.2697551695589609 -0.29055408563446744 -0.265236537587803 -0.006859373359961369 0.1947849808556265 -0.1354434026556596 -0.019229956306588386 0.15240964211984273 0.28855761777571787
AHA1 -0.13399615890688585 0.003046100181709593 0.0031300588698695776 0.08984805691571902 0.09759269849726 -0.063965048342643 -0.0539678063505076 0.16426931355306956 -0.00402120963509534 0.11162724584246107 -0.004678402221862473 0.037276848903173676 -0.0005948973725220614 0.0032729088363469432 -0.0013044295935325128 0.047522175671546624 0.0684556652166322 0.014948318273351902 -0.04145387638078612 -0.05773133896633446 -0.08448132310491542 0.030334842741234144 0.06118221748319528 -0.061609346004115495 -0.007965378333654771 1.7479569081181768e-16 -3.9469994699442713e-16 2.8192853356744796e-17 -2.0073311590002296e-15 9.867498674860682e-17 2.2554282685395846e-16 -0.02762085900276835 0.016166149475800213 -0.0006861327825515085 0.028984445771336242 0.08054473507819261 -0.057461127116231685 0.017176851827135714 0.010959456533688499 0.006542639492303638 0.03568452074729896 -0.08135743316157192 0.14118372023643075 -0.06650429737143283 0.048492126324143195 -0.16708027751230264 -0.08871428148971214 0.21234936248076142 0.17996425354060028 0.046711562448806705 0.06346320440843242 0.027738718199160024 -0.045918544852127416 0.06981171108545955 -0.07015728235709583 -0.0695184667308027 0.0008490918793377552 0.16618853315388313 -0.01555635586969418 0.044660650335001696 0.002222971782712634 -0.008401515719484913 0.03911752802974692 -0.016230127203969203 -0.027885935490106966 0.060845123032507276 -0.11127692089950648 0.025947270684209982 0.0156161201023197 0.0024206677916218367 -0.1398858803503212 0.010734617734223031 -0.00828168405919499 -0.09525361519022918 0.023866540116017076 -0.03300162001312476 0.08660087442785314 0.062307013777724074 0.07786374653221728 -0.004548565485604056 0.02164758901142 0.09561626848191229 0.013543364048003643 -0.1153940557214274 -0.06783728894756108 -0.028307524445392168 0.03427802598154209 0.13134705075648762 -0.11843111815856089 0.025780825978765954 0.06096337151500298 -0.098528427472077 -0.1300718452533119 -0.006881409675388034 0.011675783100566705 -0.030028182151249118 0.035718197761032223 0.09180507650448941 0.09883375961911126 0.0643200140632461 -0.07541064631020107 0.048341164049029335 -0.23441503030034622 0.058679669167651737 0.06637370543987584 0.1887797067804939 0.14396537511317975 0.17435262764455098 -0.05883147653434841 0.03254527397861332 -0.07113044716598874 -0.08170888529687025 0.056952003068704724 -0.0018525532739856647 0.09514532319448703 0.04625714054522182 -0.0021022336661242922 -0.1493423948640973 -0.014311805493192614 -0.19222379692471867 0.18268869149760827 -0.07684059461723673 -0.042434246508442644 0.22299903896253512 0.1454893972160103 -0.49112338181168363 0.0962364382478965 0.19887010124909535
AIM26 -0.012742230757872335 0.24009466033158836 0.11647712571957528 -0.13108377122461423 0.04357930798246284 -0.2533661026696566 -0.10042821728095687 -0.1455547732347774 0.14692605593396396 -0.016174648005327273 0.10924609891139662 -0.2505157514251541 0.0338404520641867 -0.04737972868869225 -0.003687914395303151 -0.1969576526292466 0.04927082651216236 -0.04801997450251659 0.10928020747616021 -0.07971774434997851 -0.1028862546848591 0.14236491591996225 -0.13107772628191922 0.11111880027314293 0.04080510043224719 -1.5787997879777082e-16 -6.540741978764792e-16 7.407672219484696e-16 3.180153858640813e-15 7.893998939888545e-16 6.427970565337816e-16 -0.13306400261086035 0.05738390229558561 -0.024108450482310993 -0.04562443729166969 0.0023486826090329425 -0.06205169952055243 -0.019511799072992816 -0.027718946456397654 -0.09590529552569553 -0.0814888663687733 0.2009398804468533 0.012258587968038281 0.10761475734816728 0.038660698364344895 -0.008711656965995122 0.015195174282862713 0.050538358372107156 0.20601002895193815 0.20909367589156339 0.05048183803862478 0.028558482054626112 -0.005863640615899306 0.005550757424799935 -0.09146931484632959 0.04261731411211641 0.08440855375717017 -0.16287825249733254 -0.08198394241738673 0.02699137353363421 0.1695739009842529 0.042862849868409124 -0.3000380505086548 -0.0021728076436503827 -0.01743126877448972 -0.16274812003575426 -0.17129698989386774 0.12698407661536962 -0.12472636546682213 0.014096606368317706 0.13916019999427204 0.08540607652019061 -0.10936555238118438 -0.14273967986596697 -0.13088813855299994 0.02002058289772272 -0.3398239014207453 0.05287736658591936 -0.10851188340526385 -0.25989873940615194 0.0029272910033427833 -0.04460623349754305 -0.08229449051953086 0.16320496538028273 -0.3443549753235378 0.2704047292252961 0.00998220576077053 -0.018037193808239472 -0.08420081230698816 0.10573139029432546 -0.20686036108176292 -0.17595210695788524 0.21924406994686946 0.019302688637662973 -0.06737340925167835 0.2270786145382576 0.25577981928710425 0.034583898438745674 -0.1186733111654789 -0.04873017476321832 -0.025805690592796134 -0.04098705880761648 -0.049542929030180476 0.156972785378432 -0.2892286409925089 0.056272642105289136 -0.09168865337351965 -0.0070520342981966536 0.09745246032359138 -0.004539937772276039 -0.05616630610344688 0.06220899675485809 0.049607250601395834 0.13101987959138536 -0.011792856539961866 0.036804489057147526 0.14487392180714573 0.24277027371817564 0.7731593217161447 -0.2885928660979671 -0.26326964852960305 -0.2566934428352735 -0.11286678498486169 0.05627683843053714 -0.030090605098572448 0.03903513051343392 0.024660589446105073 0.1469273703816574
ALD3 0.03817386510574175 0.1451989799894498 0.08722697911590849 -0.02427438908488763 0.01883019335034359 0.0302060872332084 -0.060459878268211316 -0.053468261849007076 -0.06385284599742379 0.021379341022066966 -0.012624777456599874 -0.09452266677484483 0.018995861957786898 -0.008658094316342879 -0.11144556841520953 -0.030824995458542375 -0.0898577672684173 -0.08028935973904602 -0.012231997918817676 0.032916008387028184 0.05711076364006662 0.05187317262015321 -0.0248544898410819 0.10795433103843838 0.014463694789195883 5.638570671348958e-17 -6.202427738483855e-17 1.1559069876265367e-16 1.4773055158934273e-15 -8.739784540590889e-17 1.2968712544102612e-16 -0.007914980338204062 0.04838442597379931 0.03853604917403696 0.10972168443585513 -0.06023798504192079 -0.06091641405594075 -0.039510511212774886 -0.0666621474209549 0.04454304059622566 -0.04521935326191856 0.07771768635291654 0.08219079161408822 0.031078918710061777 0.06229286955846988 0.04579311590361934 -0.07553494783773963 -0.02027391018500354 0.006472585242252792 0.040078752038510024 -0.042547101888394674 -0.007252117881672385 0.06358031841137807 0.04595935903537071 -0.013507659665719795 0.07619855449676158 -0.015531594908536705 -0.0316315371925994 -0.0614917537489912 -0.06337448282592603 -0.07433393255552649 -0.03961682831270259 0.035159525834875575 -0.06775442465471844 -0.03879299097679403 -0.06648569690919395 -0.011521907435187304 0.054844698128227815 0.04040042365470859 0.04908876574209589 -0.02893758084150772 -0.001782113251339012 0.07086334921016578 0.034057222867837744 -0.04068356390119795 0.04977785748930179 -0.02634343531573419 0.05522894235859589 -0.0443435119384889 0.09996934558621447 0.0018647922866875508 0.09504224666258666 -0.11054774874615625 -0.015183941800699619 0.0719571582444972 0.039522738816179494 0.017140404106245996 0.009283503484721877 -0.054296542494983724 0.0912429664943369 0.10282095955018733 -0.08385323700273217 -0.08158655895332251 -0.11044190855501669 -0.11324348023927283 -0.046581191700983834 -0.07948206645583279 0.03450260067134139 0.0634121220788793 0.06533315987557116 -0.057222387957973506 -0.007366881155026847 -0.20336122423082453 0.09367400462486504 0.0331720595517062 0.1228339671708714 0.035991441789053294 0.26167971747334196 -0.010221242175070009 0.1085960257384611 -0.0281615976298324 -0.020916160927484325 0.05258029407686891 0.038655652937539815 -0.004257252818054872 0.08266473894222352 0.06330232509146502 -0.09772293084796158 0.11446136701916154 0.0030203882769937198 0.12392959197911964 -0.1446573646729787 0.046254043618764444 0.11941288882420614 0.08109156320588858 -0.4087226125926341 0.062154539671914505 0.19652931664480033
AMA1 0.008678506123206654 0.053984241020189706 -0.044585476119546226 0.11370385611130314 0.04563221392871239 0.04459677284578803 -0.024198373752658462 0.09837366368316396 0.04635940205923609 0.06568838718968925 -0.014942485265915172 -0.04331607046524664 -0.021479339069073056 0.021763666080408774 0.0761463015056001 0.0029508450996093886 0.024042431387280783 0.024505381333916453 -0.1346592879442001 0.025672036538417566 -0.06864244850898027 0.07899840247836094 0.03442277410778056 0.016275690549566887 0.07102818949177796 -1.35325696112375e-16 -7.893998939888542e-17 -3.946999469944272e-17 -1.7028483427473857e-15 1.4589801612115436e-16 -3.101213869241929e-16 0.021232830605783185 0.0012636469153275137 -0.050591218225730206 0.12855486687285997 0.09186895772757023 -0.00876208788994924 0.10974320001556306 0.1417117818000006 -0.10633947246672937 -0.030390843325347645 0.10206325881081721 0.05488297317475203 0.014829020676810276 0.02976121644389543 0.091522629977929 -0.02903944588692722 -0.162760745211499 -0.03936446145694333 0.026416742720626937 -0.05235795008323406 -0.01404293863109221 -0.11524939192635042 0.14830705434543037 0.018501232617804966 0.025059853507134192 0.09751084365257091 0.05489442357099722 -0.0059905162007705326 -0.16626436826304344 0.1096696821061295 0.08410954080878037 0.1259010132453583 0.03734277293015892 -0.010457279999332438 -0.108404072841287 0.03622409508242496 0.07901738331019238 0.03869024426744997 -0.07602793779603258 -0.022962481400778285 -0.09838111098742466 0.023047214222264283 0.025380104469019726 0.08627688336089682 -0.1442513305056618 0.01444171190085114 -0.07480422045493582 -0.03484101243272081 -0.11753076273317753 0.07421862577255997 -0.025480076547015184 0.017390766152778323 0.1230151664207407 0.08335465337285614 -0.009021686648860213 0.09720081437596748 -0.1632360108971851 -0.04348318795372487 0.09700382158239672 0.11762012343588384 -0.07459522926170284 0.045310536178640795 -0.08047203457219154 -0.0719721859291605 0.023685359435598557 -0.05091163729139033 -0.038534500694373336 -0.06731434809962433 0.010894758200547345 0.06613538139946577 -0.2272024442833619 0.10629395339701309 -0.01851409822887217 -0.029668501660481794 -0.08018882114401073 0.03714579771077059 6.391978202877288e-05 -0.040542661291722855 0.045113696064567034 -0.023034693880267045 -0.04988708808572956 0.032988824157965335 0.13030954493063004 0.08832623128250468 -0.07231153266316848 0.057551188426818695 -0.07212184678098754 -0.01771828056929218 -0.2199935184110634 0.2786218561941014 0.03247254116282579 0.15888477945479543 -0.13073842056359625 -0.15481895975918814 -0.4660327249736747 -0.15646303256024427 0.22394448311331905
AMS1 0.021002071120456014 -0.17195371640869636 0.09669568185417521 -0.04531060989958626 0.059389077973640236 -0.07883574468306327 0.0007067196408870749 -0.2247208293019287 0.2162731574046512 -0.16470117168839185 -0.2543624439123305 0.09635200129858852 0.03815423675873431 -0.10803776599259597 0.25730541658338285 0.07476705514856423 0.3675243049941804 0.08746207867635387 -0.16360549102092417 0.17447304580427175 -0.21018666180088075 0.12856023374493777 -0.25422274457950506 -0.028765441660974396 -0.1670215076889892 -2.932056749101458e-16 3.946999469944271e-17 -2.368199681966563e-16 6.814212656325217e-15 1.127714134269792e-16 5.413027844495004e-16 -0.21806134799901578 -0.08671753706770058 0.04787149120085497 0.18734787720783302 0.010854504740909123 -0.10564708111698355 0.06237280510161388 0.009232432827424884 0.12068741756040326 -0.23549216699730988 0.05709715697351739 0.29583280908873816 -0.11535218229744096 -0.24175892904958615 0.007222521531797675 0.02201493434660663 -0.0884258936150779 -0.09100790648864733 -0.3525707041555243 0.0207461402356956 0.07925578391768953 0.09649782467768629 0.2181143357887667 -0.0938840812842564 0.07274972922610891 0.004269410050035836 0.030671365560467907 -0.10215952923743189 -0.04379722869409435 -0.17337754620781426 -0.07223692149930032 -0.05287144277741368 0.1269585323860481 -0.13354444873816226 0.11853586130209759 -0.3755811956010999 0.1260370135421919 0.1468949005898275 0.1030739784942753 0.14471473662304238 0.10405032917244908 0.1876829667080239 -0.03499265845097597 -0.1802395665095249 0.010058303658395626 -0.06504514115271885 0.015040717931576086 0.12323317115085354 -0.04483399265102332 -0.1371826729884034 -0.03330907073203313 0.2402012423427121 0.0016864719537414063 -0.19808372710699948 0.12150981327029252 -0.10144712088844703 0.01221392053286251 0.1591681823191542 -0.20225671796197198 -0.0468781841984791 -0.01450283022847986 0.26529067023091996 -0.0862820718849831 0.022670293455601898 0.09718206447313885 -0.23170826168221448 0.11131152975507823 -0.04087545245944445 0.034257378681566655 0.06336536303287227 0.05729282940287616 0.44871580197624134 0.06566982220669657 0.13267517278017674 -0.021453475966009126 0.3745907097058794 -0.05124794311554215 0.3317143540665956 -0.06374097251927692 0.026247666318604854 0.11869777405857586 0.25802487008918845 -0.42034304486290863 0.07166284859227845 0.23056379462743584 -0.2635756039222878 0.2756276082056547 -0.059308471992861884 -0.4611726575857461 -0.02602972461293115 0.08373123532338936 -0.539333999316946 0.4564351460707646 0.5128851426369941 -0.5514189898260582 0.4986890082503584 0.4520481023335298
APE1 -0.049742537596232705 0.03908212257147949 0.07219643456043533 0.0761700216181386 0.00887172002672258 0.05769579038446004 -0.029324763971424025 0.13469161795252813 -0.05087598335727345 0.008534213583877072 -0.08563785476557727 -0.05587815134475956 0.09286543483786625 0.07542570189464726 -0.025507436231612193 0.06374716122705969 0.04986036006359913 0.0031531476660509082 -0.07456195605833464 -0.02448304486986783 -0.0008012144524295511 -0.05299461600731497 0.13025418973377442 -0.04577862869178937 0.03087186986248781 -6.76628480561875e-17 -3.0941656559027413e-16 5.0747136042140633e-17 -3.2365395653543027e-15 2.81928533567448e-17 1.8043426148316678e-16 0.06204095604349787 0.11438265847969517 -0.054070433846970696 0.1614109033902789 -0.06380393203082146 0.07523529653234338 0.013428287236688787 0.029655195180100517 0.005896914607121179 -0.0578929857025304 0.07286556031310763 -0.02066206577663067 -0.08921455223832994 0.030415621806174083 0.02148662724505272 -0.017471594078960817 0.0494102981412711 0.14964143203367736 0.16179961192751816 0.04180968683777534 0.01921043960128473 0.009965080675185187 0.059440846687504226 -0.04318622257592711 0.000295418013048607 0.024725197458413815 0.07794837514704696 -0.09851415634572243 -0.04472588791443482 0.03797368095342075 0.0038448868289474676 0.0020160633328979017 -0.006715694451167556 0.0934584833659344 -0.008103847657562177 -0.052700901922879816 0.01631857037910165 0.003213746398532862 0.008599732369687717 -0.058633229537068766 -0.08665984361710698 -0.09156282975353296 -0.05708049801336438 0.1510349085649072 0.046418564560809075 0.03861805171824619 -0.031328677189904515 -0.027996416390637293 0.026953026133865316 0.052496304618407236 0.0887015957656169 -0.005450066999949868 -0.034772824665039476 0.06812905697777925 0.025589174017994862 0.06079291012441329 -0.014727602440514 -0.06289670015927482 -0.07004715264699411 0.16173406746479538 -0.11659297470198053 -0.04960334629675089 -0.13728389649935036 -0.07908718348119853 -0.1092152496124198 -0.08553520740974781 0.06008557136176338 0.07819337344568562 -0.0024677937924708244 -0.046537736266034316 -0.17583964801184088 -0.25405085940689015 0.0731337940573605 -0.01495151085835178 0.15607544501322018 0.09531526461656828 0.16922110594528342 -0.03836489854116472 0.0683516954727901 -0.08475757915337401 0.04800076628683222 0.10497378396628823 0.09139657160641951 0.024054656991409806 0.04038945246030163 -0.020742831257677015 -0.20154449822328316 -0.004591093872773016 -0.07662674165884126 0.15677274919211379 -0.08968279886422799 -0.1358848757871575 0.08361913414559463 0.023672079458627066 -0.4603807335765373 0.03234142518932553 0.18598641587651715
ARG1 0.08325103330036705 0.2576983327041878 0.00036461186480963627 -0.20690543972531145 0.10111364851635327 -0.045650208539565584 0.12391122388725623 0.09389437935236983 0.02913546762406656 0.022749960393029324 0.028958776663512938 -0.03774403196765636 -0.07792600625285181 -0.17686484204757016 -0.03406426814741382 -0.20785274029406667 0.22909363049376308 -0.07107595668131539 0.13825498468729522 0.16979932798888514 -0.11150124902313946 0.12936406126915373 0.037398016491366946 -0.08139351619231927 0.05820590555107354 -3.608685229663333e-16 -1.5336912226069167e-15 -1.3532569611237504e-16 -5.864113498202918e-15 -2.7065139222475013e-16 -4.510856537079169e-16 -0.17886890883916762 -0.03174373834422474 0.3138610614841175 0.1766728860783448 0.031606516617154634 0.011467864419414657 0.4748462852464731 0.0997474190111954 0.02870614136507082 -0.3408335021442419 -0.09017666255092599 0.07856244400253044 -0.050808659377352225 -0.07036273929118615 0.044600474487173185 0.10410746682473267 -0.0690239052720585 -0.14894461727955033 0.015311213863835379 -0.32667739833828896 -0.02184156628572604 0.15520333397401517 0.1621802405915043 -0.14570775113683096 0.07445958907429247 -0.09699021447796023 0.22980353922497346 0.43006052410568385 -0.16519225991128272 0.2752727659392806 -0.4837897289138469 -0.0788125058682046 -0.12146987164772174 -0.026892217313261347 -0.058926183985910326 0.14232442401381337 -1.1700911431129493 0.46180265036260226 -0.45091510512634836 -0.08490502492039309 0.07115843900089848 -0.47577720632983594 0.17233000131590526 0.21597954260023017 -0.12597596929256702 1.0136717356019118 -0.530747402877432 -0.42605301864797035 -0.07854864719226845 -0.0907451786069111 -0.3299369900037126 -0.30853133820042034 -0.3478800323442801 0.3430504562159904 -0.28037206048799335 -0.16516738017298252 0.19851400033356126 0.7012161430919736 -0.6619675796705322 0.4520431090263254 0.22145248317918287 -0.8461204345799496 0.42913962723464344 0.0769158793002075 0.33195297520675987 -0.14177177415957576 -0.2947570550289182 -0.6170534830902685 0.8577323911319602 0.2653979377529058 -0.18809289697214907 0.5062204969826171 0.1497170791405685 -0.5484837894818659 0.6190057643343032 0.24562315854593808 -0.048091565676805226 0.6520893004859543 -0.0253870141043881 0.2684909431947471 0.5094247083713563 0.33324803713875484 0.11242110531512826 0.05676844559471534 -0.003702207710427293 0.5638695484808405 0.0626039670447532 0.7660919402490056 -0.37515446777390443 -0.45650195429340973 -0.5012390793930755 0.069037013998027 0.48149048981554876 -0.4977093396649755 0.13904924318381962 0.08324420127268574 0.3546005847607903
ARG3 -0.0583089690744789 -0.40082787780068135 0.1346227050940762 0.15880596804203775 -0.024100766390155688 0.3140893877545079 -0.07511434664606212 -0.018047819874044458 -0.07106732407283173 0.01352026897256937 0.10898525887768307 0.3281148448921321 0.4187199789251761 0.3412301530405251 0.23925763123642532 0.27719529002542354 -0.2869483161453855 0.18580502446526 -0.23904240836690105 0.2597200580929016 0.1708561449915905 -0.06600304803261292 0.03679592191893417 -0.3506439743428236 0.020555868092599617 3.1575995759554164e-16 2.3681996819665626e-16 -2.2554282685395838e-17 -1.1502684169551878e-14 -7.21737045932667e-16 5.413027844495004e-16 -0.18235558958219078 -0.2599383203222199 -0.04557829685570743 -0.5830024149226218 -0.1309732600864673 -0.30024579683174013 -0.04034020562694245 0.039722560533137004 0.027334433372620228 0.22920562625084026 0.6006517695226554 0.29188884298055523 0.0745460107364457 0.16906636982480464 -0.07094767914105361 -0.16924579414642138 -0.5000132620112195 -0.10326202380085325 0.0509089994061934 0.27578736209204024 0.8122900657770268 0.37168884637300065 -0.02931435144352715 -0.09546776592806733 -0.2196971034914141 0.31438105367574765 0.16728313769841158 -0.3449834926195235 0.24312407052347682 0.1470842170556133 0.036662584796871525 0.19929181760374615 -0.16128969104952048 -0.2944984315010904 -0.11230694338536998 0.1092409097365473 0.011913881512699771 0.2601809886726813 0.06495618246059354 -0.0482028236114597 0.0629103988003061 0.06811851907706198 0.35084710766697674 -0.3371592660624698 0.004765791331867071 -0.01595961449753256 0.043089314658224166 0.23584256985638236 -0.14952555976191081 -0.026587756829711404 0.5142980027000206 0.1657820191028862 -0.03276651114047246 0.14328297449254784 0.2501693698150786 -0.4316114423815391 -0.0362943961020037 0.33196297889797155 -0.08947386803811283 0.42302308212890183 -0.306151354765145 -0.05464041842672873 0.4229729783246308 -0.3468311456472533 -0.019485544124225238 -0.20555337048261685 0.23280675101582296 -0.7281758318582291 0.44287258090825243 -0.4443963088370542 0.20862437575332624 -0.07450142247667199 0.1893088110828416 -0.40063239178173893 -0.15672085650479475 -0.09154595458348423 -0.07115972977090049 0.4101959758584912 -0.2687499073560383 0.09514574172603825 -0.2110772958841283 -0.32174748201920944 0.2757488759140585 -0.08749856211555952 -0.6608126367268113 0.2792360266686213 -0.2839699166274197 0.4007092588627565 -0.21458320761827063 -1.0127712717267894 0.03435861766926468 0.3666827945216444 0.20517538610077243 -0.15399139698956002 -0.04390412098201252 0.5549392796062129 0.4901382340257148
ARO10 -0.12856950006352272 0.051198211885675096 -0.03287954699058031 0.13751138883220118 0.020581579936605532 -0.059687647605092146 -0.08387470159431823 0.03024343828969009 -0.09883548978021184 -0.005057846797474093 0.0061628970800019665 -0.10345471346912236 0.1287304013453934 -0.057915562772228237 -0.0984957630035319 0.0652999088488294 -0.07979978125061962 -0.04093738706136195 0.06110399198797087 -0.0348523207204234 -0.04320125829276367 0.14156358948166398 -0.06313505440905721 -0.0012712091654507888 0.1695323514574876 2.5937425088205204e-16 -5.243870724354532e-16 -6.766284805618752e-17 -6.17987345579846e-15 2.9602496024582047e-16 2.7628996289609915e-16 -0.012923273889697601 0.06569698272791956 0.11217019328567593 0.06136718668207622 -0.025346332634329234 0.003395684065522894 0.06434431898674207 -0.152856233994194 -0.0055126274423796156 -0.17212952408021415 0.11505306631528463 -0.13180360215761985 0.07043940918799907 0.0875308755099961 -0.08167705132452939 -0.004768016034532732 0.058315691022154524 -0.03640978414311447 -0.11101278492993219 -0.14650481891352016 -0.13798763046709314 -0.018497754995715925 -0.022458359158936122 0.04417809865601637 0.07382151091913933 -0.11374533504984402 0.14019364085733652 0.03479415581828168 -0.07369274078766028 0.06393179276696832 -0.2718930801562834 -0.12766684418884489 0.13064564970588805 -0.012560116439334393 -0.027245751199044103 -0.12056097011875361 0.1373532612376132 0.013616566770528579 0.0037214446619343667 0.12201909556515056 -0.06527267604836733 0.16344993672263472 0.0025354842123228795 0.1101243530724749 -0.11964738448738696 -0.11107294382592285 0.10164478271652315 -0.034507961035556554 -0.15648206216452082 -0.07042800755846997 0.08287094580960554 0.08565848598466222 0.20888728991627414 -0.07244329999548985 0.08380255304014542 0.0703844991326613 -0.03833014525437782 -0.061177163121480665 0.0024274297331102904 -0.02691813785449399 0.0020204357909942494 0.05896567324185861 0.11822910035241659 0.06126108911721333 0.03060967201598927 -0.14772187043495183 0.011624740887436391 -0.10712447353043464 -0.08736142153167209 0.19161235818974626 0.028021640374251963 0.2778671357936687 -0.09697110501421445 -0.0271231903293414 -0.049272545091166936 0.14063412811918027 -0.23776353400987593 0.06184381036703257 -0.14444791797209208 0.012204454435970164 0.19985872135233435 0.002506063455740987 -0.0012633691035085174 -0.0013975854477571187 0.13702474081495802 0.0516049917942534 0.12614681865104668 0.027941752755188586 0.09604432900832989 0.014370690633871298 0.18661757637512993 -0.14353567911225754 0.37818195902256296 0.4498774187913068 -0.5005709657558275 0.5069035834455016 0.43371693387254323
ARO9 -0.0022248770904266116 -0.1677616140098906 -0.09550075260572187 0.06419167931368953 -0.0957386436186161 0.3908339528583608 0.29258308452612125 -0.10392309072540878 0.04413382888436182 -0.058514102594981375 0.054620911579241864 0.21402878061424477 0.02255982543046455 0.03779664339236865 -0.0890228211876378 0.047169292069659446 0.20503987959961603 0.143173039499251 0.055538016505067386 -0.06856753016608265 0.11305648162896939 -0.07362740669264604 0.0008299215715983137 0.00550003406481731 0.09621479271387445 1.9734997349721351e-16 -4.2853137102252085e-16 -1.804342614831667e-16 -3.57485380563524e-15 6.089656325056878e-16 -3.383142402809377e-17 0.010453552431223694 0.12280662438113303 0.034372977721382605 0.05310556449224771 0.08326271185793872 0.11062711752087671 -0.03448325999375844 0.01841567375553864 0.11039114145344572 0.2256058208301391 0.0005221156364992684 0.10766215821981022 0.07821709052883408 -0.25681712223640263 0.09824700881041305 -0.003466849930454999 -0.015050939531195648 -0.07368229931559103 -0.03888608907636074 -0.08093121741954697 0.1066306047439703 -0.1417811668332236 -0.18109410950991908 -0.007708964702433694 0.15148809587863193 0.14089860222469303 -0.14890055682924344 0.06408685314693192 -0.22313521416589327 -0.0020490720581154372 -0.11120136641717158 0.03019533167418563 0.1066086234087263 -0.1482393725231436 -0.13101183508423989 0.026198208667550443 0.09298231447916794 0.05818874003525424 0.1455411807922215 -0.135237326011705 -0.010665461974340868 0.14131089312522988 -0.014544533660520078 0.06994364321806436 0.032329378307784255 -0.035612700890259995 0.19153442895430792 0.09488662528692068 -0.06777701972367886 -0.0005833422577637055 0.04534450816704082 -0.12352973540488257 -0.08170433042741784 0.08262722435602801 0.029931682152698303 0.028572343289100754 0.040956942234084914 -0.0776156119916654 -0.17657569064947726 -0.0795030957139694 -0.01352961807551534 0.0989942192172483 0.04851015178349893 -0.11700371190836246 -0.18259441460975104 -0.006279756950057915 -0.08095300051219699 -0.17630238986264382 -0.04034096460397108 0.0539983440878764 0.210415093084558 0.043434567989943135 -0.2137551497201026 0.07045889009186936 -0.03482367718625824 0.002552687853085933 -0.11383845280786357 0.02708939723230653 -0.07795250000336797 0.1617292998479376 0.0720072806540668 -0.054122348254507395 -0.049820322612103285 -0.04340937359608376 0.051212562607737995 -0.0035836434920606527 -0.0599204660661716 0.15082463346576414 0.0238525306567767 -0.020911482672356582 -0.07771641964465985 -0.12781151853672837 0.37122523398534113 0.3045789979932806 -0.49905564204629804 0.29516621413343364 0.3348537919950609
ASC1 0.055343830678810116 0.13695549180793928 0.1077312800111769 -0.20103122723472783 -0.02691169274209121 -0.09249130082887579 -0.13709180475072869 -0.033813752650061764 0.05587497931528268 0.19781859434948207 -0.050851502427004446 0.01205604496378949 0.039385078557066654 -0.10013627899957764 0.08218740882887098 0.002654042756557554 0.03453534788473894 -0.05170441480317048 -0.06425184297266075 0.14479736084078682 -0.01802375396434004 -0.14693342465270695 -0.1114024460568007 0.02539728539936033 -0.35156934760229724 -3.1575995759554164e-16 -5.638570671348959e-17 3.073021015885183e-16 1.561320218896527e-14 3.326756696095887e-16 1.2404855476967715e-16 0.17288630347389164 -0.04731804620352064 -0.04673407477530944 0.05782275748362998 -0.18545686134693695 0.018756184577392802 -0.25397610227225403 0.09222623478951414 0.018886731157560285 0.21804894036994674 -0.05545509698890406 0.014779354745896494 -0.16773542261260077 -0.06101998348027037 0.08024982383899604 0.08044874872455789 -0.09695930266629461 0.1288492485831412 0.02611210917978952 -0.04830764048380996 0.01755639636532524 -0.001282151838023592 0.19180067786600283 -0.09631345152430408 0.012116500171633952 0.10911002088306514 -0.06432926181005748 0.07645024787359857 0.05462175255990694 0.010778644254733719 0.16542770751511027 0.013548858149320447 -0.009112507945253475 -0.06838304712803171 0.1665994829807086 0.07523325577265554 -0.07484783992349413 -0.05039687248012463 -0.057557610115532724 0.006512326342497588 0.16643512446686234 0.046379682009908385 0.235106961522174 0.11385348694133282 0.08443389369842168 -0.029959431687631835 -0.049283760559519885 -0.030671747633319684 0.07113444621919603 0.1009808085929882 0.02036081264751509 -0.012616842412871119 -0.01726185095723123 0.04410765289978677 -0.027905987969175507 -0.19782016321139093 0.2784773528136471 0.13737150953389088 -0.07373721025195429 -0.020389153518061573 -0.014546797072800068 -0.01571277829271556 -0.026052622837950918 0.04068757344486557 0.06152290534045283 0.10085103590595124 0.06818912030775767 0.0793714685639744 0.06121487159431727 0.006604934674236943 0.1289507399812753 -0.07494598442846463 0.06245041663075476 -0.02718913554153741 0.009352325329243062 -0.2610353611467512 0.08566370048152218 -0.013189841584948415 0.0015640907248645568 -0.041932233658087306 -0.1985056863909625 -0.20112619056100992 -0.09004152266911893 -0.12686665012278237 -0.056987036399769604 -0.024388441442682443 0.05972225949807136 -0.009893918586902757 0.35322708667823144 0.03141434714372791 -0.3839760315186646 0.21069590582204523 0.16509052665326884 0.17698128029731006 -0.5446719130242547 0.1453574521151506 0.2338974616940989
ATO2 -0.303549065571963 -0.0013472430361741944 -0.41360190165250243 0.20226339551379086 -0.1335498703309166 0.1573102649967203 -0.02258695608186745 0.03714158514868443 -0.32020791549298533 -0.03996179644653687 -0.3070871509616411 -0.04608936820738666 0.03432850911340046 0.13814461573295242 -0.30780883617725147 -0.009248383409886504 0.2132034312671561 0.20329948646415014 -0.11832795427732024 -0.1741591877184562 -0.00516690972448435 -0.2884807507626498 0.09976265260434988 -0.00940628673062321 -0.1280981804305365 -3.608685229663333e-16 8.570627420450417e-16 -4.5108565370791675e-17 3.2027081413262088e-15 -7.668456113034587e-16 -7.513395419572492e-16 0.4521731761023695 -0.21622397199789287 -0.23518136647537585 -0.46169627940510516 0.12850424074217612 -0.12355177842025675 0.025828281333481605 0.03453394795789775 0.04733627743746417 -0.21478842979839102 -0.049924888691911105 0.29653483099063777 -0.21634414182285905 -0.08457147655119904 0.1281300118637106 0.5006009681271626 0.09737226781262642 0.04600038242593122 0.13348408267547401 0.19413298918751634 -0.28347286991675563 -0.10596417822710678 -0.02534621593186328 0.046160757565725075 0.04797183008797122 -0.15428371501647553 0.14474276170793823 -0.05995248492663469 0.021543680082879886 -0.09217515712036933 -0.06156126353005561 -0.19688467683263958 -0.45714379983225245 0.13333609362892287 -0.04274407017472282 -0.05544143378054304 0.20296014875440022 0.06494169162115805 -0.2125724144885638 -0.122568555488322 0.006273932355911772 0.026872590753802023 0.1953512875909211 -0.10240724077965721 -0.2033340476757645 -0.07432212472787811 -0.11750811004648584 -0.34077419916726576 0.1426670532368707 0.06372438669268414 -0.22365981895566453 -0.1730526797228004 -0.04395723973167906 -0.11022245748220155 0.22671444857805412 0.03503397736150924 -0.034388551538305445 -0.0883841568192562 -0.13059000532396867 0.046420828699466656 0.11019281011890526 -0.06451095050146873 -0.37020298564723586 0.6380361700823158 0.019122698803088263 -0.2569149025541618 -0.19352439340641447 -0.06697619244342512 0.42510038867009503 0.19913339469346164 0.07343017879154556 0.043879290123664476 0.06998554955224465 0.17734157803043404 -0.49085715087779846 -0.010289741810582745 0.6185316370444731 -0.09006396343524192 -0.8317470544711999 -0.4530627534349815 0.15818456142480652 0.06334048708894816 -0.2575180838796986 0.1006591258736569 0.32839263863950097 -0.2628355631136042 -0.22034068969116258 0.05417598959023382 0.26937476287042394 0.3081480709557968 -0.2696154319793081 0.2810453516132441 0.9943875860005169 -1.0110370785801555 0.6555247152908237 0.06645116441128142 0.9110357427649294
AZR1 -0.09674292925535295 -0.09864947165144575 -0.02896417421312841 -0.20829405041657925 -0.20746963897888968 -0.22427287101415017 0.550358247156893 -0.00777362074383421 -0.06193008747044083 -0.05483038064489455 0.27456877125844376 0.04518811662420161 0.12539671565106206 -0.04713590355434784 0.22570254905874623 -0.006052054052895712 0.008240273264029957 0.04438483503344079 0.04854634261447445 0.0002596528847935454 0.06709078275689988 -0.04421184055379861 -0.17825811105958264 0.20637286489933349 -0.1695330747518508 -9.021713074158333e-17 -3.157599575955417e-16 4.5108565370791675e-17 1.5207929921962064e-14 -1.8043426148316675e-16 4.510856537079169e-16 0.0023286765753572523 -0.19583840893341928 0.3185404949793178 0.09264494750133667 0.025054891500235238 0.06317120811200096 -0.12646186739767723 0.0781689938494572 -0.5575858970419998 -0.13057573010731538 0.07167245004936786 0.23462528948569703 -0.030113795234126786 0.2660748415208033 -0.3851142897185518 0.17293763891726108 -0.06507160534051781 0.02393911505265572 -0.2570755358171142 0.19298252894577853 -0.126474649374142 0.0005793313787373864 0.2877663546639345 0.13848770059981907 -0.04256266273625046 0.06371537942697955 0.5109806425871415 -0.09364745971287643 -0.10562531947378682 0.20824276313389686 0.19443302521516234 -0.1304620295595518 -0.11300317968992292 0.08900655082028465 -0.05806015161001605 0.21105939134408896 0.04429116965439576 -0.06663555481028974 -0.3108395585917875 -0.41787164851872927 0.12889868812688243 -0.40102964580336165 -0.43802518650699407 0.3406285673957868 -0.0008724319770449215 -0.20312005015265489 0.10031434355679929 0.08100884604877141 -0.14220538946863798 -0.0781088687366312 0.20360325785859407 -0.4625830105469396 0.05373928216172474 -0.043902420880136496 -0.24076927481468585 -0.4210465057698277 0.20659417581734577 0.1730980470413256 0.10674586108273247 -0.1517946012369782 -0.35304757146014526 0.44395413937061173 -0.08630128914762279 0.2120395720059212 0.2317082573482196 -0.11346106025439293 -0.06401697239303752 -0.05854792634174897 -0.3434961995856165 0.1264531760965542 -0.5344325948412466 -0.2009546648414143 0.18625566160199789 0.24163545652106352 -0.08006246417409049 -0.012496334963030964 -0.13212722649040015 -0.13724760040381345 -0.22800237660828268 0.04909839930938155 -0.7332456912736897 -0.18848532013372163 0.03606585452525591 1.1841382352690897 0.592156350389423 0.5302575200856361 0.002567865142165298 0.2812440016938922 0.3956397623119002 -0.6812761812627621 0.03221473371130489 -0.7790734862441384 -0.18783592534592083 -0.41802124296711823 -0.16291479848579646 -0.14335012959965363 0.19568987267086735
BAG7 0.16819549945523654 -0.08962977233429895 0.04737088577625606 -0.08315463518539468 0.2794753534199486 0.12655746037054713 0.11423071857200477 0.0714982048656806 -0.2720673445670104 0.027369438318982954 0.012174274678372028 -0.15602252553313417 0.08910449373133648 -0.012284032111551128 0.19172813534649166 -0.14526950712599562 -0.14805248668654342 0.26501665759117127 0.19926415041993858 0.0826742414912284 -0.028999046681186698 -0.0008631214892915442 -0.16511442202002785 -0.19218102272160334 0.16466973849240804 6.272909871875715e-17 -1.3011001824137721e-15 -1.8607283215451567e-16 -5.164930734955647e-15 -3.2139852826689076e-16 2.2554282685395846e-16 0.3336450243352824 -0.04490784308131008 0.004890785601927794 0.3448699545414952 -0.14905117195884085 0.04919770426992337 0.15450426788445587 -0.12848457296703938 0.22092094439778864 0.04713091572874073 -0.18233532874966416 -0.2783254460914753 -0.07717555807633052 0.10740225976085682 0.12655672046243738 -0.05722407498418946 -0.020868870934343458 0.02751868290120863 -0.1954405850471128 0.039665989448627544 0.10682793954139452 0.10442113627275763 0.1130892337288635 -0.08358414646620255 0.1341877183681112 -0.07119716392644808 -0.04213831255560605 0.1534154893139835 -0.18187596860188923 -0.1211044194321619 -0.060959131597112755 -0.15605692913681407 0.25755088724485925 -0.06391226925488488 0.04680562929070746 -0.021512109208054412 0.04686546452648927 -0.12189612442402555 -0.08637599464528486 -0.14530578076931094 -0.1546087537900921 -0.22493140401415979 0.06616277818120239 0.004111794883848658 0.08951996361569085 0.023280933797615293 -0.11248342265391828 0.15513845797065876 -0.4551199598422394 0.09553552747681351 -0.1483838832195118 0.09609850119070291 -0.07043714995810768 0.03894955023881409 -0.24669938696304722 -0.11144446800495458 -0.059961375235330516 0.012186240422859672 0.0280184265283904 -0.02916454024328718 -0.07383113175099862 -0.027242501160750006 0.3434417661910147 -0.9919234128767906 -0.041896219779635056 0.10566454403091433 0.04480471412807697 0.04818008385162749 -0.15829799676497253 0.09999329123218621 0.2600751285824315 -0.4501793747205241 0.0031239125640089216 -0.1424398688511756 -0.09854791237082317 0.059687582144420596 -0.09144374351287651 -0.0725782910264419 -0.2129275052981319 0.004451628215497037 -0.13252694333629766 -0.2842312503215171 0.2154231727540136 0.052618204264031104 -0.16772086983953732 0.00357362238083369 -0.2589009036720417 -0.016946619429322695 0.09715034120387032 0.36701560601218586 -0.5133954375993823 -0.35251000579563546 -0.039746830183596336 0.7699206396880133 0.7937939305618833 -0.6520510606677488 1.0905211391433094
BNA2 0.06661158564987274 -0.25817380788764965 -0.22008498126907508 0.04383236947497121 0.09902868616922621 -0.14474365614521126 0.144141231228167 -0.05724129064749952 -0.058774320561833286 0.02312123812942383 0.01869029499486996 -0.00564454975053844 0.0754344771888312 -0.055696219052951 0.058375542843231744 -0.188459498966341 -0.05715202337990039 0.11385288065845556 -0.17423398690218064 0.1208748265631382 0.05047507737825636 0.1365987096773679 -0.07797626000909653 0.10890616991077018 0.18705772165630655 -2.7065139222475e-16 -7.668456113034584e-16 2.2554282685395838e-17 -3.1350452932700213e-15 -4.510856537079169e-17 7.555684699607608e-16 -0.19455610388912717 0.13252753092965047 -0.04696677385439542 -0.03080153486431482 0.04109566285841938 -0.282494190364824 -0.040972954659782436 0.02941595520542962 0.10301276713949552 0.24747542634756467 0.007461341352832019 0.08623590021795614 -0.0924669290141037 0.031772101741121064 0.06661243014863347 0.03326741864223491 0.00014892846312937054 0.1411517586042748 0.0627525361208724 -0.11975189054559113 0.19371724053944894 -0.19914353307998248 -0.02718265078214877 -0.1637657582907567 0.009751636791670517 0.0035947733722579 -0.08385252805833053 0.3275812989755193 0.09950383257618596 -0.005838582867179156 0.07910261847678568 0.0003674732822406532 0.13121804230240458 0.013801797730897096 0.0978341196759825 0.07456417553892687 0.03477373083969956 0.1969375171785071 0.010421474208479501 -0.06909336590983882 0.021389004662604023 -0.04955250167423584 -0.014764254564935587 -0.0062813156611512795 -0.23818433696508345 -0.10854614633804978 0.06890295587144799 -0.07833175613724401 -0.1640161470977588 -0.061853145677128234 -0.04873684910250564 -0.05443118144971037 0.012447814533592106 -0.04271795132356417 -0.009322649736441311 0.04727859648221637 -0.10853980939879368 0.022194032491079617 -0.01699337586806934 0.18249896924839407 -0.09816487681694631 0.13300304008605737 -0.19502644996978014 -0.020472975897882405 -0.03022211248768459 -0.09697226705696324 -0.07207665278104088 -0.17809348802801123 -0.21031988176185895 -0.03567671594219327 -0.4211948453735141 0.028978846823567626 -0.13272122034965034 -0.0656710387017891 0.011748490332332303 -0.0031315360067619706 -0.04252549202801375 -0.013595431135177 -0.05550064633975154 0.12747557811039212 0.031600199341894904 0.03247285727242285 -0.07482117437650135 0.005537712500971192 0.0997781905939735 0.07286324088841681 -0.09242139667174776 -0.011365794917233338 -0.05929734992640423 0.05101525866898112 0.04414050439556004 0.12560201916369815 -0.2968970255018248 -0.1807353783552935 -0.4335092198185868 -0.2789820544576511 0.28825803072527195
BOP2 -0.0879026761685846 -0.1874278614085615 0.16122469393067856 -0.021839950932413626 0.04047325872644491 0.06129318767916247 0.08736248321132715 0.21216426992254564 0.3853730988151565 0.028766097820706226 0.23308486433932998 -0.2590179057979718 0.00034923070772952333 0.13980968726753296 0.2011990875948825 0.17507390091040378 0.3518741690337011 -0.08414268469107611 -0.013804332516526656 0.1734095603201572 0.08578288295727342 -0.04242231417802399 0.19138669910409795 0.17011355774167966 0.07856496782685296 1.35325696112375e-16 5.300256431068021e-16 4.5108565370791675e-17 -4.465747971708376e-15 1.4660283745507298e-16 5.638570671348961e-16 -0.21097527492478418 -0.18675511139181689 0.03657838757155695 0.055299889508332103 -0.3490511430808838 -0.18037114708092997 -0.03461538494384639 -0.3008425245312592 -0.23784606563464475 0.20489985058717128 -0.07851844667789172 0.10850657186214879 -0.08273351016879346 -0.23988095696193515 -0.16029138106550447 -0.030107987400461 0.1008997258778105 0.1041143836106667 -0.1553518583462057 0.4056469382304553 0.10810653852615894 0.3503497982379446 -0.03262246951705788 -0.06354107777509867 0.2435819708820327 -0.2161933858016767 0.05994057748627427 0.22134117564063938 -0.16539748604130383 0.13186783706777153 0.1493346044911561 -0.15510207157025618 0.2296036065538896 -0.010873340210203825 0.21010253501691056 0.19413228131418625 -0.15571521572306526 -0.04972445612731129 0.1330713335304858 -0.019182246505625646 0.001647630071779604 -0.18452823888497422 0.1610711263058913 0.07509757298448705 0.18974529416166913 0.0929451445311236 0.12784473911203822 -0.06513088953836069 -0.20357034224855047 0.03161933098023709 -0.11614765471554528 0.02116231973154043 -0.21029021989993324 0.1592239289796962 -0.05503432724300826 0.394240854262159 -0.14127946562956095 -0.28759004804294325 -0.04852525670120843 0.09609523758855376 -0.07948751204115805 0.06026098098743194 -0.6192043526873524 0.5805255230619001 -0.1499900196447785 0.17929535433564406 -0.2014236169892194 -0.3952241546016451 0.10614233182129715 -0.12822108937247495 0.16375140506436536 -0.02381290684375264 0.20359600318533802 -0.08518633002183743 0.5315473478953144 -0.034855646649510366 -0.5474445972705807 -0.15493395739491866 0.22064955402880118 0.19000789177644006 -0.05585003424653021 -0.11926506136702252 -0.2005661449314012 -0.016976181169371732 0.08053730420138965 -0.2749721257335626 0.01374827430372727 0.10808994328099081 0.40302434840685175 0.529505814505824 -0.12135869322550645 -0.11040211745148525 0.8382346325523281 -0.2796306894015027 0.7359587377616773 -0.5376900597156946 1.0973584662763085
BSC4 -0.11014072610584412 0.009910035776869608 -0.26237618170112265 -0.48654054993134876 0.22009378997767207 -0.10119880310382766 -0.15231177009674002 -0.15354127116357225 0.07324657760232149 0.15811909140752117 -0.05536813592250738 0.036778049524220154 -0.32811361890509105 -0.050562997425369814 0.17685170344390208 0.06500992417116701 -0.18804054129656245 -0.4762382481453698 0.317097789230853 0.031902527432076264 -0.18610412485272002 -0.030980588984907746 0.058679728757310735 -0.03314322051090386 -0.13562376050625113 4.510856537079166e-17 9.021713074158334e-17 -5.300256431068022e-16 1.7197640547614327e-15 1.0149427208428129e-16 1.8043426148316678e-16 0.01728148192699583 -0.2211998703134358 -0.09898306643220371 -0.175022934319852 -0.21574760202612142 0.13691325749548394 0.237983343285674 0.20201965842800748 -0.292251780835387 0.2220056604163434 0.07222540732173946 0.32230735813134237 -0.06732038619001751 -0.061431423905726576 0.24062481378112965 -0.04535850404120197 0.22114354548917511 0.16302890920245658 -0.16844995887505748 0.09263899669314872 -0.1339384429997673 -0.20385268192043957 -0.29245537136342525 0.1840442654713279 -0.12371383942191921 -0.2095278229612022 -0.1910240063079718 0.0006422048773053238 0.08827185796519799 0.0035308891989333383 -0.03135722814492597 -0.22476205532234683 0.31911185644848666 0.12532608387124192 -0.040499666069004715 0.10849489560151931 0.09987683790170797 0.11747046645505585 -0.045233748690744015 -0.07482528622302714 0.03563564072520328 0.013676258953271406 0.16318040196010158 -0.04492493376521952 -0.3783904187308155 0.05179460509224438 -0.08487430704367349 -0.1633346301039589 -0.15751921199331081 -0.29916583325471047 0.051938773501559496 0.41150991196246167 -0.09528162964531363 0.1552015734382068 0.16744377211326186 0.4015760635100367 0.5043826801578106 0.7455430126280511 0.32868830788216113 -0.1748385131532844 -0.5090848320539476 -0.2849680430441645 -0.011302387925852832 0.034489122867309874 -0.5033367017005166 -0.6014135989569777 0.4043882499386375 0.11646937299999374 -0.4615252038895594 0.28802172496476425 -0.12300609033075129 -0.33025787421385394 0.4945386983604945 0.15239777500515958 0.11245803058790213 0.3546872019328185 -0.11096369463390304 0.26404688537305027 0.08841985538153559 -0.35517283337126815 0.19437101975468185 -0.9924306423948196 -0.2997283963722631 -0.33345058318997567 0.04096454387939356 -0.08203496134846985 0.8759619012207431 0.029212848984693954 0.23272040020744122 -0.09309380594958719 -0.6152501761239959 0.29067400999259974 -0.30373532174722223 -0.1983990897020716 -0.27591341081078763 -0.08963115322346304 0.13329542239298137
CAT8 0.040566785700839 0.3536752263602592 -0.049995292671629665 -0.06465404199475275 -0.14860942115703996 0.1704548448505876 0.16036614149952286 -0.19523124326644734 -0.03867770057997229 0.1266238981923447 0.12315035007906944 -0.039369278769651156 -0.27728299623744024 -0.0351653789055164 0.10653789784068225 0.06384384927742225 -0.3294964198570448 0.27462932381203303 -0.162611280298377 0.27248751419184497 -0.010072995909005953 -0.07183969927637034 0.2685164088152454 -0.1651876628313868 -0.056934709729297796 -9.021713074158333e-17 1.8043426148316668e-16 -5.413027844495002e-16 -1.4434740918653336e-15 5.864113498202919e-16 4.5108565370791694e-17 0.018031358955818543 -0.07422501620365986 0.22057813296311013 -0.07197956854931045 0.13210469314086237 0.427494051189418 -0.06232324029412999 0.2992876914476457 0.5056165511848096 -0.09976353919757276 -0.10421187654215447 0.24666516786879197 0.35268525573773807 0.019063982873974112 -0.021308776825418915 -0.10582419183612356 -0.019521468386671615 -0.08883105465290056 0.25504494543015277 -0.3544687213107826 -0.01888336349247145 0.12451820150436528 0.32144742674529414 -0.008930359379767484 -0.11910917901650378 0.13841832631174752 -0.08348310269405991 0.11510713116080998 0.5418054938574657 -0.10561900502875199 0.09117096282767621 0.056837216231243555 -0.04618454875140644 -0.11010470464087127 -0.23435614887773282 0.33472835357585734 0.1708699557371525 0.080684887920093 0.5278605778833296 0.3403876384650442 0.09418871050186452 -0.46658683024208597 -0.3930746496658492 -0.03308624366510103 0.14947752089593166 -0.2091755910896464 0.12363258444020063 -0.05315707927680388 0.07458059728789493 -0.21593734312894258 -0.3214627604516345 0.10301390578432429 0.2004116406445828 -0.38551086425910497 -0.044144169017381676 0.40855549552862475 -0.04547014470137442 0.43898944074555224 -0.06890565847881593 -0.026079917493254764 0.5202222554869737 0.5332671241559328 0.13448151944568057 0.3616599515091249 -0.8062035093968126 0.3600795112805073 0.2441717249995363 0.31393929156858785 0.5546616477556761 0.35405759574977497 -0.3984984785054664 0.051831253160339 1.1611480168438701 -0.3562246867926528 0.07932186196650569 -0.1316271749989418 0.4826052511970613 -0.15775293243919877 0.15914211881556053 0.7173165922085086 -0.24092732555059443 -0.04284502029468464 0.05490128857717329 0.37549966311800126 0.26407017514784925 -0.056353873918836374 0.1575902413398324 -0.41274674484988666 0.07667824387861927 0.4156317230043786 -0.19091848279189153 0.07229811927727009 0.956764634659063 -0.8025829388480734 0.427628073659247 -0.15462524373376835 0.929507723287546
CDA1 -0.046603496954080906 -0.06184243803185105 -0.16373495096391244 0.1801564461566193 -0.021312170149478164 -0.015383401221908989 -0.08715176197678987 -0.21425478977942533 -0.07791233344733522 0.03219125933823654 -0.036901529875628565 -0.042636211621362226 0.034833370599640784 -0.042018304578953204 -0.06096974079642489 0.08829060549439696 0.11205174375626414 0.05041840973920097 0.14390643315742563 -0.20981785039233342 -0.08048693103048174 -0.0015867881647790851 0.1194767523141942 0.018826466458408048 -0.14274782928893573 9.021713074158333e-17 4.510856537079167e-16 3.3831424028093757e-16 1.7592340494608754e-15 -2.7065139222475013e-16 -7.893998939888546e-17 -0.07769084234179632 -0.173265674700731 -0.006746764384834135 -0.01836254365899911 -0.11053924573398995 -0.08921067217123085 0.09799722120088047 -0.042741166451087914 0.1759692698083341 0.027428895753920067 -0.022372167903846826 0.02120392986039242 0.008951548078653674 0.10519312324083911 0.02537252973797672 0.015549725329804163 0.03074161088969236 0.00629303477633006 -0.05559760558944761 0.02436863235050068 0.10153151231893938 -0.025552250489363056 -0.031114089399971498 0.0151244018568096 -0.15773316758336725 0.01939509322451652 0.16340211318445777 0.0829358043766175 0.048417268316272806 -0.13867099038970904 0.09078122433396058 -0.11042766624164425 0.15722701994701815 -0.16714594715304473 0.15711065604303417 0.1304758533337153 0.0322734972771936 0.03045264136314897 -0.01422840176905775 0.030068940210932243 0.13999661242045494 -0.0737497484746283 0.09062854242376518 -0.12334795558722858 -0.12763555955874575 0.039725350735005265 -0.0026771260602656698 0.09710569685810076 -0.15755650413923886 0.0924138248206873 0.026969771096433927 -0.3068926350851263 -0.033196403170309384 0.06253795537523987 0.00412801119442993 0.17208550112619167 -0.03702164002159119 -0.0465922673814683 -0.0007638842072475453 -0.03966345803578174 -0.04255497292913704 -0.05998669592443778 -0.09361121361546995 -0.04665304636479614 0.07161707638883823 0.07509428486941822 0.017394805273869194 -0.2805885868635436 -0.2521868962399354 0.07200751222379352 -0.19667617021870193 0.14875590110067638 0.0778219227707397 0.05907296182616749 -0.11243613682265759 0.007990115614755613 0.048353583760661484 0.053276463381036344 0.051121242814345165 0.06384405975620067 -0.047181902786249695 -0.08818055964046541 -0.098056647199124 0.009691767093872134 0.005405463687106434 0.07361371094924483 0.1654272718697664 -0.08554046562250776 -0.06531940533159088 0.088700023535259 0.22032723914007288 0.25265821373062997 -0.21281258522475324 -0.26591375689337543 -0.42256216400671753 -0.4006236666694055 0.37856186810749565
CIN2 0.018829210705303107 0.29963762111618153 -0.16743471659936646 0.19501364295661258 0.013350956440555471 -0.11349545602371222 -0.002328161277363707 0.2507851640413592 0.03160966989230759 0.015304643270280777 0.03693263553675744 -0.020594882011524308 0.2298390069116978 -0.014476352352653961 0.22602374110798581 -0.04934057240405196 -0.015308312164839943 -0.17978538134687042 0.04728586770862392 0.310237826053787 -0.3661357907239426 0.04973532973724907 0.023210247140230504 0.07273637415057868 -0.5611500356181076 5.413027844495e-16 6.427970565337813e-16 -9.923884381574168e-16 2.3174173048577263e-14 -5.187485017641044e-16 -1.1277141342697923e-16 0.14430583462779314 -0.05891871384831716 -0.06816601922489345 -0.020997301644968446 0.12189941023064552 0.036667330405933264 -0.40171505331056084 -0.0388994895476879 0.12137474583451435 0.32148681003187224 -0.07149139425763902 -0.13887528655123516 -0.06704250599789667 -0.08973977943185305 -0.21748485912808438 0.026747267339783637 -0.27185349161557465 -0.07795866391860806 -0.011742051716956197 0.014919539722060953 0.08054191967850206 0.18429038759277017 -0.053229650886351516 -0.15835660280522798 -0.24691005456657425 -0.05369170752429252 0.24491482791247896 0.021202808231438296 0.2722517807016959 -0.22391456386274086 0.22980573302702317 -0.15863138413614397 0.21588643358567142 -0.026931945589224227 0.15211171212932584 -0.19561805875867458 -0.20935427816744104 -0.1074233421286039 -0.015778482332110128 -0.19876108577098392 0.2326753194622134 0.14389955212313366 0.3358978040225396 -0.06487689740917695 -0.2732836411503639 -0.049711542296275384 -0.16511705730038712 -0.1011890397618043 -0.07202177583739837 0.4089537733960901 0.0018861363235694582 0.23860939104882173 0.07767121277591098 -0.028409555634361726 -0.008244434353651953 -0.006286163628236223 0.20497499208453357 0.14593874840434695 0.02791011675628459 0.0035695051606704385 0.12483270932021207 0.13058741846962377 0.05171210350515833 0.04244671548837513 0.2357088593661831 0.07033364347800201 0.070851276176048 -0.06774631435547263 0.036076095116496516 -0.15770158666695952 -0.1993696702726286 0.11765056852720758 0.05381673700227165 -0.2703919648462034 -0.05113928081502203 -0.7573764511869804 -0.04734722101632779 -0.0819325447229511 -0.04408869773652162 -0.0435250395125962 -0.17273833577102554 -0.03458606211797146 -0.2518389864084699 0.08010593930480064 0.02910970016425493 -0.08397600442593928 0.014674009655453603 0.047534554942562555 0.4393042708918663 -0.06895142371430178 -0.5176382773784486 0.4459791144269339 0.07736807541393544 0.23138996675539494 -0.6215181290034785 0.07341707350872677 0.26367569721660916
CIT2 -0.22417227139721901 0.19108010507634443 -0.11331760404104241 0.2598446389411225 0.24242799941306672 -0.10222029361464088 0.05287898830191958 -0.21532013601629843 0.1945099576432073 -0.2526235503793718 0.06653685354834746 0.25704562675763215 -0.0981189035844326 0.27508753366318955 0.2852787285337552 0.02327301294171 -0.11527490367732675 -0.05337058212018666 0.11205463878719184 -0.12101820868416921 -0.13239143271360632 -0.2873663296572669 -0.23839923167545685 0.13160781177651565 -0.07996289266437141 3.608685229663333e-16 1.0487741448709064e-15 5.413027844495002e-16 1.3352135349754336e-14 -4.510856537079168e-16 1.353256961123751e-16 0.5380020162745693 -0.027892598235209135 -0.10602758821026866 0.002195722781724371 0.33211236637324676 0.24903218227534663 0.028802742960389194 -0.03142420283359126 0.05101025978370881 -0.09145563985429654 0.5816470961679602 0.225058433103504 0.20867258665110594 0.009962565797500232 0.01924142556425065 -0.053880693840817916 0.21168664435124945 0.22965391023540627 0.051551253000778764 -0.11503888195851762 -0.003956083690481937 0.07331913083478761 0.20950662994057445 -0.3199205031109193 0.23760669615344832 -0.1957659365121937 -0.008343498131786649 -0.056476053053662406 0.22809583393515465 -0.3867725299775366 -0.292555916705333 0.14462789259739028 0.30772418546050123 0.32662552498080616 0.11107712843896914 0.014810999471583902 0.2571557403871508 0.08087375233465555 0.18952892392964435 -0.10305575085508323 -0.0700825241880154 -0.17287767538851848 0.020044222283326547 0.0459023561003978 -0.18553695319113161 -0.03542921523974992 -0.525443284549686 -0.03021375720243307 0.7741670674587428 -0.8203326926208954 -0.014798685188093174 -0.1890904761919462 0.3522287044132683 -0.12594782381356986 0.17438510622879272 -0.17998247797594152 -0.21847484305771409 -0.1074824537294036 -0.2147247516834356 0.3074978635791906 0.2627175244338847 0.22032042813695163 -0.11737104477639032 0.06860856775084301 -0.09664466577073712 0.2235081643356723 0.314163676465299 -0.274061797766071 -0.9033583624469307 0.6841871830831602 0.8030776308914045 0.017520893109691887 -0.21018598742621372 -0.545733922143262 0.7895968894440933 -0.004536606448166354 -0.2767246189005189 0.472751433291909 0.15233976386946277 -0.3892787846194817 -0.23487618854565182 -0.13647941212940592 0.6600657422026519 0.38626573102522027 -0.2029967324270641 -0.14713199557181011 -0.2547272515412119 0.4947804861649897 -0.194227202946957 -0.18945358014987035 -0.4248626681329929 -0.10248402058473627 -0.1684099264601393 0.8454379625251116 0.4782031122652004 -0.5998060159232237 0.737717640470964
CLD1 -0.29414618586842306 0.06697312490287768 0.24637330998293627 -0.38553498083008336 0.14612946223149997 -0.12696536195875816 0.06113446455119931 -0.35586368269236984 0.12308058829447228 -0.01681413283413945 -0.14572543050020637 -0.2219001995059612 -0.004714657481025097 0.16343503687890623 -0.004075617719918557 0.01220927347257112 -0.17428637358064344 0.002104642219584792 -0.04204272290232724 0.2768508328950615 0.18367575070251072 0.00014149829502547805 0.135484260701873 0.08068578363357479 -0.011833870339713032 1.5224140812642185e-16 4.05977088337125e-16 -2.0298854416856253e-16 3.1575995759554174e-15 -4.0597708833712516e-16 5.86411349820292e-16 0.057197180041769706 -0.0798024092945671 0.13116431920221486 0.02592327732974334 0.08864682827532235 0.06651669751837067 -0.03747255897965568 -0.4721661659975938 -0.27489900171695086 0.7350474661430789 0.06823242284659355 -0.1115764319388195 -0.25352358993656 0.17833827470646776 -0.01342713659441382 -0.24556341957180267 0.24466261309245435 0.028004575455434184 0.33204368661648603 -0.015192714389999801 -0.15516803269667337 0.18545213187972664 -0.01033601583572475 -0.04828735931154315 0.08113494497386309 0.08579222011769806 -0.35308610085094805 -0.13940433128638907 -0.07658119712374278 0.09832327632211843 0.29043155561131145 -0.05861566270374131 -0.24794339072814686 -0.1489216181252004 -0.47048668473457894 -0.022504250801913973 0.053587060888696275 -0.07832067633152978 -0.12474661478642639 -0.08916179132209108 -0.05304477729244698 -0.01844809030574483 -0.24040325813455138 0.021945852352456267 -0.014119497084959748 -0.21300612258494261 -0.22802635656632234 -0.16425500196535534 -0.24992200102022302 -0.0885391575667947 -0.40462021015800326 -0.29116235756648645 -0.40131829890223164 -0.164711865468901 0.006318425660034568 -0.1365121566409114 0.03329013679665751 -0.27745214928103373 -0.06227902636894411 0.1328453848957184 -0.09467762948462533 -0.1819309958010976 0.027475060365505267 -0.04727902737942563 0.3588005555422103 0.22067785071163257 -0.08927805118989875 -0.03575805455057991 -0.32250796209675403 0.25044963456153024 0.11586763841837358 -0.058348093120433035 0.1696609497779627 -0.12229207275314471 0.04775291021840482 0.0441124082514652 0.04689484551572927 0.29388036312649485 -0.14340226439159168 -0.21787110897246204 0.37844426901329214 0.22324476009412703 -0.08657394640382658 0.014390177869859602 0.3501806046450135 -0.0034270768019965315 0.609973739625201 0.059627731280326585 -0.051988553879581005 0.3619771892298874 0.46303170664671756 -0.3722826105480604 -0.5851030798810879 0.3039560505106869 0.1688586978016958 0.979959427412569 0.8390120743085803
CMK2 -0.07056848916283538 0.05569850558478927 0.09877631670074395 0.2071029167137181 0.2868800517451674 -0.0385510566648854 0.09300194194504793 0.05565046380919416 -0.09612007030242663 0.2271147957061269 -0.19195255678461562 0.1678932592470276 0.0968782138589719 0.19817399581048376 0.04581410320466724 0.02369050772419949 -0.1309004653851146 0.038819533567496574 -0.21156240196939133 0.05673545409571765 -0.02329288595730849 -0.004254804327845237 -0.19945201509312616 0.003293057262491054 0.013754808024785674 -2.932056749101458e-16 -9.69834155472021e-16 9.021713074158335e-17 1.2743169717248648e-15 8.6833988338774e-16 -3.439528109522867e-16 -0.02953152394191642 0.18984447002942492 0.18939609051420941 0.0023612543804953563 -0.2976884055432298 -0.03395705202794176 0.025591033996538042 0.13045539746961693 0.03929117577588342 -0.09657617304011575 -0.08369100166182775 -0.0924646556570619 -0.03334881703709922 -0.33701913511871145 -0.3942290606893822 -0.21671722563857404 0.062035404315888804 -0.15358651903528464 -0.10666856327796975 -0.2004294605058326 0.011249342038192037 -0.0342854576161434 -0.32923534795935533 0.04555097304603043 -0.017314533183614228 -0.21546531088858423 -0.00800519791172383 -0.03582171199487112 0.004257324342605641 0.07659002061356396 0.08190435117061576 -0.18000599442810927 -0.12736292370393754 0.16596814851153052 -0.013053637478840257 -0.14684316978120995 0.08274054283358573 -0.24537417978244727 -0.16750425151874423 0.0984832543017975 0.20010728225246988 0.0809428190711657 0.042404194715244245 0.04042065758550214 -0.16754164112426737 -0.04280193940107664 0.45328883610348103 -0.12211974815488867 -0.17101963755856853 0.04733161092272001 -0.06760861803626161 -0.20264395400648896 -0.11914235886870063 0.010266347960746838 -0.25347840415058726 -0.07996860309956934 0.1458926026526082 0.2539723554556416 -0.07910974228233231 -0.1631309321073946 -0.10268158643316624 -0.38966902489002836 -0.25177549056625986 -0.22377169090002158 0.04977062749173792 0.05512284187638758 -0.018208865878603136 -0.06930225382087102 -0.14625392892899094 -0.004468745288162685 -0.22824328969796187 -0.12653058010568274 -0.1070204823689075 0.007228169081297706 -0.06280862085292789 0.20094854699274142 0.01360693379290323 0.07745641320469757 -0.3501313358142073 0.40004444561259944 -0.047889637466832294 -0.17952284334027813 0.17514426475363623 -0.055978884764339834 -0.099002831543946 -0.06907647736186406 -0.445550904292754 -0.17936088309503123 0.030378048715973077 -0.15829534836229947 -0.21469985403301017 -0.06879991436052983 -0.21245791918919688 1.03610721688719 0.5394023606857021 -0.9351533954857291 0.938654829282004
COS12 -0.039019507713807945 -0.12924723654467882 0.06873204093194324 -0.13250706970873874 -0.02262953689533202 0.14463885216428005 0.014563791239076038 -0.16586546686446896 -0.19791281020926732 -0.21939061493936282 -0.18190147929898048 -0.0381144921696989 0.19013508183644592 -0.03209044052371281 0.004732027705534734 -0.16288238216349052 -0.0021969930354859397 -0.07629319629030769 -0.0018605795354381257 -0.045227047604902024 -0.10319250204890704 -0.07983736017238681 -0.08833051762037647 0.18043007256448984 -0.1495394578423287 7.893998939888541e-17 7.668456113034584e-16 2.5937425088205214e-16 9.337473031753876e-15 -2.0298854416856258e-16 1.353256961123751e-16 -0.06961437602204212 0.12472201832358297 0.19768153579214284 0.0036929797826844224 -0.03555979582627437 0.06391044493706813 0.0006924116485422637 -0.11561931460074071 0.1282099608185641 -0.08074533007664826 -0.18271953456402257 0.2025913700664451 -0.08302506622659137 -0.009696094337367872 0.03142535281024561 -0.15517476818333792 0.1700059373842887 0.25010627607712177 0.04837811049070988 -0.005263473528980875 0.06563630095406833 0.12235353221014099 0.10201730779648151 0.029609791552455512 -0.048270278788294985 -0.06208733312192762 0.011791955385516681 0.26158561016488263 0.1344094893637513 -0.19065529659131678 0.11074608786549872 -0.011086734733303563 0.06542770537558107 -0.033476021370039896 0.21836229162162674 -0.03220734907943798 -0.04852037676656629 0.1245027359070502 -0.10286134336148291 -0.06321376117609563 -0.004599614751286602 -0.07473951074181895 -0.10488277816314243 0.07459601767567631 -0.04829109425074941 -0.028692462745922784 -0.028684825181434313 0.00869428443842669 0.008278308508099002 -0.12454045846837426 0.021335583566245563 0.06973909682052008 -0.09593737016157873 -0.16217174379327307 -0.08441810645913361 0.005846497641658775 0.13417774892936038 -0.021034474180988104 -0.02681255348955539 0.004907094644866219 -0.07470187265330788 -0.11903852857334982 -0.050758125497897606 0.08274209461096076 -0.04903056417459701 0.07903770007233377 -0.0076439166556504425 0.1684316545549237 0.07657819002691042 -0.21755667760209602 -0.06531389860236354 -0.2468235130227733 -0.09220206703051986 -0.10242706597395823 0.09665177347936209 -0.004371191699000247 0.01703671668930394 -0.10728641867926118 -0.06575080687670759 0.0020155651327548444 -0.038442259628483764 -0.02425041146062361 -0.03159128549747838 -0.10393516604608011 0.08612163870457847 0.013555667109626982 -0.23420039233090298 -0.024439041539893392 -0.03743919721543095 0.16451018356687497 -0.19971821098225392 -0.0776696539844504 0.13024024688805244 0.07632451376535024 -0.49294414575614887 0.03507407835651862 0.20243040239424442
COX26 -0.06702991653332531 0.19323980834230547 0.04724297140152259 -0.1601062023758209 -0.3911732833454934 -0.02423056557633998 0.030570722441836447 -0.23805904626236832 0.2650079538876267 -0.07927158545912365 0.043877430695571165 0.3356981351821463 0.23488578134245025 0.1260309323205334 0.04695651827488715 0.10926907325436933 -0.16139939850548102 -0.1663345763056352 0.05608810817065636 0.3443144579069463 -0.17096925449749914 0.3858882152209681 0.13761294657950437 0.1588863654105851 -0.22455477285574146 -2.255428268539583e-16 9.021713074158335e-16 -5.638570671348959e-17 4.916833625416293e-15 -2.3681996819665635e-16 -4.5108565370791694e-17 -0.1923687158101499 -0.29764550685922286 -0.32616811070714824 0.2536630417433075 -0.20350395911717187 0.21372843374825842 -0.07196256041832999 -0.1933620654300667 0.30067544840457394 0.06327004404248895 0.07908582752707759 0.42430550577666354 0.019407541610810698 0.009997570235981131 -0.18458137649932035 0.25255968358193515 -0.1630143343198714 0.0009270868666482102 0.18410925444357132 -0.1962182620821845 0.024830119756863885 -0.27285583593693036 -0.12309300654498301 0.10113008214341397 0.20045457871968683 0.03232595460517368 0.22009033773612025 0.06300417851682338 -0.11910128520229772 0.43728214751888206 0.054127310418086334 -0.23245882857600733 0.17280831171597172 0.20554627491609037 0.15209744790432725 0.1396941616130419 -0.025704754357216135 -0.24876061968394297 -0.2134519328985074 0.5737481601686215 -0.5410748634243429 -0.18052710277227485 0.00405285888636312 0.4008562175453875 0.18390660213463816 -0.46678813495549815 -0.4526327999837285 -0.057433415965713094 -0.0197953522825564 -0.41378479865927 -0.02354850798017668 0.16529041247162163 0.008656897673496814 -0.08323867583420581 0.88114862170883 0.6794670632470319 0.2880124379864933 -0.1471448582096135 -0.19574447503331674 0.24687909854844217 -0.099223213526792 -0.306238515599405 -0.115973558701673 -0.5925493691642493 -0.1397729213833261 0.5111682811959395 -0.07708932310121834 0.24693362795458243 0.4297656163812025 -0.5356893698987825 0.4867026520568119 0.1681657535931813 -0.06645827371094268 0.024566067796457872 -0.07060764028727382 0.5223329154218154 -0.1440571366999445 -0.3273843166762914 0.41435668903044576 -0.3153235285608867 -0.1564238058540645 0.49658785926675036 -0.3653139332707697 0.13810105860239263 0.40668983080898874 0.3235079239101477 -0.3008969757250307 -0.061662460983561825 0.6405935192306764 -0.8251074990471536 0.35996295024772756 -0.5146035027411507 -0.3508000646130457 -0.05561666740985369 -0.09772003944409571 -0.764868605744252 0.6746281911143982
CPR6 0.07095116596833526 0.15420508358454488 0.047202548716974775 -0.00820105987909946 0.0827530592241309 -0.07580512795578519 -0.06799026911034092 0.0010533560355813264 0.04126514150472768 0.05613745772322148 -0.0004527733183813604 -0.1170518804568585 -0.0586915714275515 -0.02141551400581635 -0.09695049887934934 0.0656170616349442 -0.04892708862915969 -0.004489374353837388 0.01825921061269977 -0.07328507494858061 -0.0014057613877575083 0.06682376501879676 -0.02145585794716225 0.03138264607550992 0.031216915016745166 1.1277141342697916e-16 -3.383142402809375e-16 -1.275726614392702e-16 -2.1482954257839537e-15 2.762899628960991e-16 1.3744016011413093e-16 -0.14483929811503357 0.04527243919437641 -0.03673948130793296 0.07572313494207882 -0.0999917861866882 -0.11766292303598884 -0.06275223754335724 0.020298672303022687 0.05780642708067681 -0.010238965960414896 0.09873278489876366 0.13076205455877568 0.04919688457994372 -0.03751588613991485 0.03548692969234533 -0.018285365694715915 0.0525959983759562 0.033788762322024546 0.028170322420309816 -0.0643608713580839 -0.041203669772937206 0.020896149317877227 0.016930293786163807 0.0040641030491414395 0.03320062312600742 0.015935752350182086 0.0385070337680341 -0.09059958147759592 0.016207458319512973 -0.07708580273269988 0.022874167927584618 0.03645419472061847 -0.06882719528473198 -0.05489485126350878 -0.03281926269012655 -0.04576484999390148 0.01419308310405883 0.0211896286430943 0.10771424717783634 -0.002563235020260311 0.05328220663533035 0.11357785632283456 -0.04710627433346515 0.029303807074730452 0.11234624361502175 -0.017527910748429926 0.0602633601800603 -0.09026563212842931 -0.007780441058168576 -0.008799236097906008 0.14963337706288463 -0.13730249806631806 -0.05829545526863984 0.05250348216542757 -0.03864896045200444 0.09128483886434811 0.012006845492129298 -0.021376871023345942 0.13344659287341237 0.09957254595696813 -0.0748229908115209 -0.02901576142621849 -0.041923749216312575 -0.06222346698367489 0.10179920654965643 0.0033277029792890176 0.01913815131043677 0.05235982668104293 0.02203892382983061 0.02658091476858078 0.05366690246749845 -0.18112991769580084 0.09448955967002233 -0.04515634257277405 0.2031408017680639 -0.005446917684814759 0.1907143147395334 -0.05492263268938081 0.06392311118996082 -0.09648321163696884 -0.046676927452005246 0.05113366244748958 0.017873110629291915 0.006009060830669375 0.041294268882651725 0.052429553442201765 -0.10811004615810581 0.0734886093377057 0.07216856226910688 0.11594011940462498 -0.18327379363885632 0.0619597338126955 0.17614009161781768 0.14721402591092658 -0.46644529896062703 0.0866617202790303 0.19777569550776986
CRC1 -0.07175295451777101 0.28585264670723903 0.11183231748301117 0.2120060827809474 -0.06886503009376609 0.02753441041571216 0.06977043069321684 0.1102567451867301 0.13532719830643586 -0.20797173335751287 -0.1348014229303704 0.22048378842389668 -0.020449838864526983 -0.20480168276306113 -0.15273535238135033 0.013647947726548114 -0.201946608277466 -0.12154019284765183 0.027809992393420087 -0.041362614704870404 0.07973328443856596 0.11996262259388503 -0.2814036901061017 0.06775404699266105 -0.08553718734701035 1.35325696112375e-16 1.3194255370956564e-15 9.021713074158335e-17 2.0975482897418128e-15 -1.7761497614749227e-16 -6.709899098905264e-16 -0.12302639373294068 0.09895165475723156 0.1971438154233039 0.04046590113198331 -0.13922202396660296 0.05978153262346791 0.29754752040755805 -0.39736172044986645 0.09930913724212366 -0.3185293209090518 -0.17191959779799512 -0.32950791026894116 0.17149830047271847 0.08505049130144364 0.06044880619205449 0.07480269195765074 -0.016969948713580468 0.14341415540706437 0.06258741902483698 0.022247098770844062 0.2881692344637662 0.1505281921681069 0.012136097515288052 0.30539791211001016 -0.13703298419389304 0.07862903851273559 0.1030072141511937 0.1633712764587371 -0.0822259649545265 -0.3016981215710684 0.0391793979602789 -0.15124441538489397 -0.14088160960089394 -0.10179043865048674 0.22196066977712156 -0.047184607786369084 0.1668918405948604 -0.010069823889444935 0.021126220193236456 0.013870006231362099 0.08240779443975896 0.055782324874880156 0.13888500456060715 0.0073786454308239265 0.2930986173853607 0.015907255364204634 0.131382107408241 0.25511114277077646 0.021340812936808215 -0.1409617424039057 0.018916258560692845 -0.5183691880157086 -0.15817218075213071 0.09217382114105874 -0.09950075416684497 -0.08224171775654586 0.10810010382627529 -0.1496023947130069 -0.04344642998351202 -0.030789160547962262 -0.06905500429652013 -0.07527893204608065 -0.11514591620777741 0.1296400345052972 -0.042990966185612586 0.12077381312698542 0.11030810603353729 -0.05385911121961142 0.06403274347462329 0.1637173054761538 0.43060693038827663 0.01670242143203387 -0.14205336875899802 0.00033933934881391257 -0.02319764192112889 0.1223069613926302 0.0006324810770163539 0.041063870005193466 -0.01251807259068024 -0.010142758645307984 -0.17734296730679097 -0.2942844430427799 0.00427634910675483 -0.2284905259088447 -0.345026183280151 0.11349695122519465 0.5304942605947315 0.10204354332543501 -0.20242919974823406 0.2280096623189462 0.529386546913858 0.22180925021768313 -0.06336539338886371 -0.5495393496059024 -0.42039082536807804 -0.5071527962748155 0.48628825529980785
CRF1 -0.002296364763236509 -0.12668377853310703 -0.10534391919393488 -0.06821249209232791 -0.12587117266462938 0.09629246119006427 0.13267424038716644 -0.17298494610581766 0.01927817521257113 -0.17340797913949751 0.044050853934831345 -0.05296301705702 0.039554616140143974 -0.11929120252107395 -0.049205754825032276 0.232808098584617 -0.04032573856342407 0.10098878005913821 0.06510892981559743 0.06166333002525745 0.013075196149258658 -0.0057484107852054005 -0.072163996539368 -0.250240992130333 -0.05230476394398862 -1.9171140282586457e-16 8.1195417667425e-16 -1.1277141342697918e-16 -2.757261058289641e-15 5.920499204916409e-17 -2.2554282685395846e-16 -0.028770729387429 -0.0896454097234975 0.08499307174461562 0.01844086722970243 -0.14091928760166075 0.09163212762025927 0.1453367949732338 0.1247512624278108 -0.04642486650371673 0.054604644900423736 0.032377889654578426 -0.16057851344228494 0.0918408190510855 -0.07325882215685493 -0.006357646487308537 -0.08024206440970011 0.13156343617769853 -0.039287196670643565 0.007483771934075381 0.07685445855593248 0.1699797878696158 0.004507066585026068 0.024584182191990055 -0.06473252559234985 0.1833448505014959 -0.21736336284559005 -0.18052936178339837 -0.10543238747155914 -0.1432055166877835 -0.04564008429555801 0.025075709058932135 -0.17932559710829432 -0.017895714181286826 0.06861649990600989 -0.0589496215741234 -0.02307544553986859 -0.07329547286794631 -0.0008290482476206964 0.08726890753192058 0.2016919362292353 0.04770406022488463 0.06802518125426057 0.07112252772051249 0.14680585203332497 -0.14280762519805407 -0.08216745796955678 0.04158816062078289 -0.06710133377423429 0.1390928241109386 0.06082204603791731 0.08847593163757894 0.0665312628412268 -0.005052842479502652 -0.04895513302637056 -0.16098325759311483 -0.23662466555358894 0.08070348277288171 -0.012686071065710028 0.12296845510273192 0.15768300088270082 0.12275475471008643 0.1112209284775391 -0.1724983835250015 -0.0816465312473748 0.23611586671167575 0.009517719781360123 -0.11343739604406329 0.06363542268355073 0.1262985857314878 -0.055173782225483074 -0.13249213967841378 0.097384769248187 -0.020241602000110347 -0.06767488613661952 0.0027986299545106606 -0.30426026794639055 0.058845289420568964 0.013809844093415138 0.05080013848966574 -0.07636010725272943 -0.03738723796515221 0.08595232358554032 -0.13601792360327183 -0.05549824087475597 0.0641912287762822 -0.06330754221620445 -0.04304933645238346 0.005259353494673837 0.1895263830602317 0.08490054423431757 -0.2656990322044244 0.2442972992032622 -0.14017029018465602 -0.024084207752100267 -0.47163202072207094 -0.08994787916156784 0.20223654087409895
CRG1 -0.0382929501170713 -0.26454711811113457 0.33907168927260656 0.37710076815116805 -0.011451625794155307 0.017175553988809666 0.1037944555575793 -0.1724821627480927 0.14406910360238778 -0.08938682091161053 -0.22199274302050387 0.048324620081302096 -0.13033026458948796 0.0002926847617652021 0.1635430935049787 0.17322296217989785 -0.1638780023960649 0.13106722479408095 -0.3029938122911334 0.13675297092055005 0.1317967955619339 -0.1898679203757403 0.21206286105596678 -0.03147867558365447 0.07516521156140332 3.1575995759554164e-16 6.977731205794336e-16 -1.1277141342697919e-17 -5.435582127180397e-15 -3.1575995759554184e-16 4.355795843617073e-16 0.013659494282440501 -0.11434127045923699 0.15357854423333206 -0.10355328757610002 0.010706196965812018 0.013416954374593209 -0.040511219773629266 -0.35315578408354675 0.09252429451011596 0.0206585345758987 0.28141020067014877 0.09697417603913587 -0.16912772830717904 0.040615011508794596 -0.11510197350180137 0.03869269930247615 0.11868103690503509 -0.1677677547531476 -0.13595577656195146 0.04439343461936939 0.010554272139334546 0.021649701038111143 -0.11380462316373977 -0.0798379208830648 -0.26060737989107546 0.011426038709967338 -0.0025855467065601908 -0.03569043414831486 -0.10324936701480071 0.007053700477200224 0.1700859311990333 0.048181237176505125 -0.19610793176533603 0.18432453103123322 0.25893729836979645 -0.2636532378056923 0.03887503572653633 0.12224970395865434 -0.11890350225447503 -0.12768499386803844 0.23695722038448955 -0.19296145478391669 0.0809820153143976 0.3031037422660679 0.07640457984137827 -0.07900341288312915 -0.25892654473657 0.08747837343474413 -0.008207672317543815 0.06858144327728455 -0.12717264567360165 -0.05834041939151308 0.0016072175730992282 -0.027700792955872675 -0.11894023882464443 -0.11466269536744239 -0.20502709452630766 0.0057586686384606765 0.08418787973241923 -0.20974140272804057 0.15356537842102677 -0.1546220964032236 -0.2667672206810448 0.05924915880611302 -0.09507963611380846 -0.12474424527347329 -0.16763825958848588 0.29519101239446727 0.3253438685120914 0.21921197126948042 -0.24765791106481952 -0.15418214414928919 -0.22054357653386114 0.10753943179268205 0.1557660491650406 -0.0812127125994764 0.16090236494826943 0.1811333893898219 0.23399407875520772 -0.3620278764571877 0.22585323322475104 0.08349213574134928 -0.1369492061591697 -0.013809760140844955 -0.021135097152963574 0.013440684855543374 0.45665182353544853 0.03655129844034273 0.1054584358197581 -0.046640975153437396 0.6058542756387684 -0.1649158284483769 -0.10573604120875754 0.38533922612266025 -0.17360977681932438 1.009128987803121 0.7943299071811296
CRZ1 0.1638679901309198 0.252817527488358 -0.04101485785105098 0.030733757866151987 -0.11078631113974523 -0.34536227380204554 -0.0437146367129483 0.20495720824961838 0.0813231481624745 -0.31993890510077283 -0.27024314657437093 -0.6015820225662526 0.0553912799257533 0.11850371495231009 0.25648239013054097 0.24622865833772187 -0.10578664226924316 -0.289297910521487 -0.31745442215670483 0.14965338037339457 -0.09087830907447574 -0.1333877376773924 0.39537479383963536 -0.15369077214997492 -0.31313355173530266 -4.736399363933125e-16 6.82267051233224e-16 4.510856537079167e-16 5.334087855096116e-15 -3.3831424028093767e-16 -2.1144640017558606e-16 0.013293213394211686 -0.1771057098338072 0.22732833359803287 0.464490932834313 -0.046650572977322065 -0.5197062842432038 0.029790769512708808 0.08660012871853494 0.1878567477543504 0.011896993125812954 -0.31087437509728644 -0.0797210560616882 0.1156806790576693 -0.07073254142689778 0.12742816341269325 -0.2668203031267496 -0.3232401635883774 0.2901238668598372 -0.39128184393622667 -0.14641041367685387 -0.03879891528207549 0.08737856806391875 0.1782079103136383 -0.29128759769266366 -0.38555627827539796 -0.16070726696621204 0.34851069345526 0.13229689883772425 0.2364635373313086 0.027417562142523753 -0.15969623018921414 0.8463217760383206 -0.047818802688794085 -0.2338214827857868 0.13342507999481354 -0.3036247744702083 0.08970770979815937 0.19457430658313662 0.247165131724141 0.1119382453709157 -0.13503849954277078 0.0075129589351928434 0.1182016587420923 -0.36056267247691565 0.15683375823575024 -0.5229487173514324 -0.07050577054548997 0.4292872575142417 0.4891969148190499 0.022291127667665542 -0.09300395725214823 0.03135214307282809 -0.6382507621305187 -0.7734516550420302 -0.2097009804712456 -0.042065717988744276 0.1130016519024547 0.2978724633542576 0.057129566497574474 0.22728477439125114 -0.04057399476053564 -0.0016975732665614356 -0.03810830938854282 -0.018627024152549302 0.16710060123595194 -0.12951709874754233 0.22433146968262818 0.028490674718123714 -0.15158936493928576 -0.21852476071599658 -0.1958574187357354 0.16857726253971644 0.15719610340120102 0.049261948134006577 -0.10267838491511574 0.13427274941954612 0.027733771953234038 0.22027953546147835 -0.6767304604919349 0.11580575509970663 -0.09004370220685738 0.09010785138844617 -0.03657620445332535 -0.06874755464906034 0.06882548154697869 -0.08333141693362443 0.004075948704872224 -0.7856227957088293 -0.2537210611018657 -0.11283787494456006 -0.11453050330813581 -0.2894010990885226 -0.043078617837933895 0.640388367323926 0.26636051582245274 -0.35862447694407346 1.088846206576527
CSM4 -0.015310413243819015 0.09179494524039485 -0.12898316532660545 0.20030608351133486 0.057477973058485406 -0.10961136461496267 -0.10336154541178168 -0.05420582839139554 -0.20764157955104454 0.07994139033252427 -0.20713995424018708 0.05090239295716158 -0.1633297614703325 -0.02169021420882844 0.03993078737972883 -0.004277658914297366 -0.14838405326508225 -0.23319615062551996 -0.06191875112821285 0.1504660627515519 0.2447258200129617 -0.2694299711530829 0.11462842753843965 -0.3439311930383341 0.047027871540271014 -5.638570671348958e-17 -7.922191793245287e-16 2.368199681966563e-16 -1.4272543909185315e-14 -4.0597708833712516e-16 4.5108565370791694e-17 -0.21594864193253263 -0.07418710892198052 0.08554707916931947 -0.22645647239929714 -0.09018363838773927 0.10248573632733911 0.15243674486713935 -0.09841137425204169 0.13472144596762717 0.2887928378481684 -0.011114512135583536 -0.09746214457986002 0.031919427736600336 -0.06818913773607994 -0.03780566745950894 -0.09524511669845315 0.022892050208432452 0.126583962722937 0.10378810288998595 0.07097383624484968 -0.036728097899663206 0.17816576285752994 0.06606635196449435 0.02059149904417623 -0.15077314041383746 -0.1042645641278201 0.1419404994254926 0.1865249827228817 0.09768575930511941 0.12238131602667898 0.1638356621730174 0.2555665923273645 0.11001483701129358 -0.0852486463907067 0.12931192284010515 0.12054350659029942 -0.6438656903808481 -0.22756414928299845 -0.38154842679400897 0.2616165323849835 -0.19171114085307345 0.2863112107118041 -0.19968093160578052 0.12664975364289766 0.17865212902113786 0.4150164975729821 0.25086473187773484 0.16320781113344837 -0.14290706871819842 0.08657944014594535 0.0575551327075029 0.15052521418089712 0.05604143756612672 0.21253367602048978 0.16529341562432473 -0.18103396003819094 0.16397376002649583 -0.24624468224173715 0.40494727307337786 -0.14944727505566754 0.270825344711045 0.28763325198356615 -0.08083207548817757 -0.10202960525631731 -0.037472371096571706 -0.02430777199161933 -0.18204662946316896 0.28674396871274827 -0.2822164695673722 0.11320894791238938 -0.05315126864996016 -0.14161236658911744 0.0510175670481818 -0.501350387102543 -0.31867348977951115 0.12263230164669213 -0.11376440453662447 0.09046514363985156 -0.16189740958198384 -0.1624049229250222 0.04063920164500445 0.07940332672858902 0.11232608731108215 0.03413669809744941 -0.006141771076870342 0.21668240430628563 0.19838492898984542 0.3736081326975377 -0.25042562487948755 -0.2675211577897083 -0.1968590900706423 -0.04705381698943089 0.06720305560318394 -0.11888826080915138 0.012848483509905535 0.03529603607811585 0.11960026154784822
CUP2 0.30171928620554667 -0.23067236180512957 0.10729303879964468 -0.2495287564783291 0.174701406406208 0.10419092821808733 -0.09125390143735812 -0.12335177834115266 0.08081014840997579 0.19538424498504528 -0.11289826955428775 -0.04284046882510087 -0.027977229775200438 0.24659367379750552 -0.010216140749203226 -0.35442514018010846 0.046394975580920685 0.11694235538241653 0.18273316041349888 -0.11872841793491598 -0.2018954056487909 -0.010986515920308804 0.20051460909861074 0.028125793631271385 0.056774613675932305 0.0 -6.76628480561875e-16 9.021713074158335e-17 -9.021713074158335e-17 0.0 -4.510856537079169e-16 0.03835206042929704 0.0977688236273141 -0.18615997036156723 0.14557094176888632 -0.3688918992680618 -0.09755115105999283 -0.03664325972071996 0.10193649713911072 0.12808270931518684 0.09583241530231881 0.04955917575830773 -0.04726456806928666 0.22149387360050096 -0.10017453746403301 -0.18294556698201572 -0.06547026379164532 -0.11194673604020786 -0.07003618386645512 0.015517038895500414 0.16239123332159183 0.046224990901963185 -0.12246658396387938 0.10938543208353989 -0.0373726986327172 0.15479856922044224 -0.18832397498972303 0.10677165148404788 -0.21815869829806048 -0.09934397870380605 -0.11003578581011086 0.022797318547309743 0.1116856982220804 0.45915845299988295 0.248840208042225 -0.44313672332091825 0.042162365202640696 -0.9060376831716987 -0.09312820507669231 0.5124627278194687 -0.10077562329751469 0.053090700907533546 0.13310702568687552 -0.0050387163369912 -0.015044926066366603 -0.13925705110712727 0.041326219677596164 0.13213701066632988 0.08608261844803379 -0.1353481708826423 -0.1289976768811461 -0.0493151281979544 -0.543019346812782 -0.12346529852067592 -0.4181649685419939 0.18728174870278078 0.06712163229143417 -0.3335906568266763 -0.4667436302262326 -0.3935923368528062 -0.22400768033653595 -0.22891133815809928 0.1405414674221336 0.21382732491134196 -0.09674869218695184 -0.45626920661824105 -0.1953853374726909 -0.08915714083171455 0.8119184786912276 -0.026121157334836276 0.06451632750413688 -0.3787737159829626 -0.04399827493586977 0.23390102809353344 0.11370000798866073 -0.43079504266539803 -0.4201384447514678 -0.4997565744242789 0.4883050682363803 0.3548182979980192 -0.5033019036284488 -0.004463340607414638 0.04645002055862181 0.39161280493343986 0.06530408274095716 0.2402799283248834 0.014763792005437178 0.6912839934959324 -0.8078694996666183 -0.23292691770352036 -0.08415029263548324 0.26720707779470904 -0.12298250683598609 0.3677593035267899 -0.21175825107343277 -0.0605781493814375 -0.33612438309657866 0.8677535144273906
CYC7 -0.16733614959275517 0.1083909463177112 -0.19850578351938483 0.13867216287452094 -0.23048132635172658 0.02404527870838335 0.33490785116419464 -0.40301161850083134 0.06622603755753009 -0.060018903965662784 0.052026956856976024 -0.09083815538118006 -0.14406782748669975 -0.005004048549395471 -0.35465088955347884 0.038407910773764826 -0.033316382324403496 -0.21359484291664907 -0.16358767121457682 0.16605792448063209 -0.2276631376209838 0.39709595473128223 -0.09941129101634268 0.476708709509745 0.029421067003345788 -4.510856537079166e-16 8.1195417667425e-16 1.9171140282586462e-16 7.826336091832355e-15 0.0 1.353256961123751e-16 0.34396918866235876 -0.04528903949834704 0.037397977168332215 -0.43760301809977037 -0.18019789626466232 -0.1979584182186821 0.2647674493887849 -0.15006516732851785 0.1573364300451437 -0.30421004912534005 0.06272280386243391 -0.13903476867739514 -0.0742911449344482 -0.3105795404937 -0.13254610377838766 -0.0916951203881384 -0.5058340257663606 0.2489618051044141 -0.06244438955589632 -0.2454466788570005 0.07175484426769185 0.050239576351169844 -0.17383884806415098 -0.41564588089756654 -0.21214329688557798 -0.1002508647040267 -0.19796689836956813 0.19754206039711325 -0.5742576147885327 0.13070023209173529 -0.1554711736974548 -0.03285779930389565 -0.022653690849590985 -0.21456089703922837 0.25711235462320503 -0.03135367587369456 -0.2215540274866877 0.05395202317511405 -0.24051952394526613 -0.12581671452515106 -0.1419238538463811 -0.11829431503062968 -0.7265270635259184 -0.05959661917205585 -0.04480110819494586 0.010059907838571054 -0.039828003669514445 -0.5854717355926218 0.06651425347098297 0.3700964341271552 -0.05362960978426651 -0.29275068578653285 0.18525898327526696 -0.14936465879638344 -0.5815105422713017 0.6575000926504592 -0.08154794407596809 -0.4173470164984308 0.21921290737547838 0.05107243290749607 0.08778525666577232 -0.009320078696743254 0.23422831362332353 -0.11225971326702404 -0.09395180499207059 -0.18964097516651346 0.30806867031239304 0.4217868788594336 -0.04226528380581267 -0.6621055879239136 -0.03792337269836422 0.11607121125872386 -0.18959534511773993 -0.47448852957357396 0.2907938445900427 -0.755404867400881 -0.21075053979772454 0.11555184827439208 0.1304019352253294 -0.02706523131511691 -0.5770398146887684 -0.34504466524720245 0.20680762610175002 -0.1478406343290539 -0.45366290801088965 -0.2412471011097029 -0.05504944467893335 0.1980477732640831 0.3363430773704177 -0.6265335466780384 0.15004496812245868 0.22396594947546594 0.14642393394845102 0.18953276870817382 -0.25631161922096735 0.5533253533740513 0.4940127873488996
